<?xml version="1.0"?>
<opencv_storage>
<OCR type_id="opencv-ml-ann-mlp">
  <layer_sizes type_id="opencv-matrix">
    <rows>1</rows>
    <cols>3</cols>
    <dt>i</dt>
    <data>
      256 32 2</data></layer_sizes>
  <activation_function>SIGMOID_SYM</activation_function>
  <f_param1>5.9999999999999998e-01</f_param1>
  <f_param2>1.</f_param2>
  <min_val>-9.4999999999999996e-01</min_val>
  <max_val>9.4999999999999996e-01</max_val>
  <min_val1>-9.7999999999999998e-01</min_val1>
  <max_val1>9.7999999999999998e-01</max_val1>
  <training_params>
    <train_method>BACKPROP</train_method>
    <dw_scale>1.0000000000000001e-01</dw_scale>
    <moment_scale>1.0000000000000001e-01</moment_scale>
    <term_criteria><epsilon>9.9999999747524271e-07</epsilon>
      <iterations>1000</iterations></term_criteria></training_params>
  <input_scale>
    6.7246252995691975e+00 -6.5724756292766884e+00
    3.6483518794366763e+00 -3.3498291962112026e+00
    3.3179049887474790e+00 -2.9826304682740581e+00
    3.2359554268011186e+00 -2.8899257787950954e+00
    3.0261402476207016e+00 -2.6485793485934299e+00
    2.7515772007895931e+00 -2.3206665147182681e+00
    2.5037663298431423e+00 -2.0050175875939451e+00
    2.3196553936705704e+00 -1.7473651733814559e+00
    2.2581772730851837e+00 -1.6533415804252267e+00
    2.2708784635285419e+00 -1.6732331040140744e+00
    2.3936705047905216e+00 -1.8544176589239234e+00
    2.6145543836895944e+00 -2.1492829259806276e+00
    2.8919076290770760e+00 -2.4903591160276433e+00
    3.1459762073912243e+00 -2.7871921945995743e+00
    3.3115022827844118e+00 -2.9754146751088850e+00
    3.7506035398284840e+00 -3.4617306930757841e+00
    3.7487924793995977e+00 -3.4597546418917906e+00
    2.7766933117108326e+00 -2.3514180118955168e+00
    2.3958616521011895e+00 -1.8575051311916153e+00
    2.1616005919451386e+00 -1.4908360014597783e+00
    2.0498703108671950e+00 -1.2496395675925327e+00
    2.0185102572260063e+00 -1.1456219670732739e+00
    2.0063378813660129e+00 -1.0828427980708950e+00
    2.0013025733436320e+00 -1.0367483435873197e+00
    2.0000894295352616e+00 -1.0095015395345348e+00
    2.0000881175416123e+00 -1.0094312565841796e+00
    2.0025582654522132e+00 -1.0518746032026649e+00
    2.0110615224003010e+00 -1.1108498559539215e+00
    2.0420849343866294e+00 -1.2272649679351377e+00
    2.1522073105709940e+00 -1.4735946324394540e+00
    2.3944580928038190e+00 -1.8555279067597454e+00
    2.7839690324645070e+00 -2.3602927798706164e+00
    3.2817628010262130e+00 -2.9418394208004077e+00
    2.3825739352634465e+00 -1.8387162218743673e+00
    2.0858614731112630e+00 -1.3390802279488667e+00
    2.0061715453606226e+00 -1.0817055370761517e+00
    2.0000142202745659e+00 -9.9623612550196805e-01
    2.0010435249450746e+00 -9.6821391232505138e-01
    2.0027330284299611e+00 -9.4907028307868502e-01
    2.0054180529442336e+00 -9.2905176770788900e-01
    2.0062415025480136e+00 -9.2405595736086266e-01
    2.0052441949224615e+00 -9.3015782821384430e-01
    2.0033485697264819e+00 -9.4378324102842281e-01
    2.0013414426808582e+00 -9.6403886979051845e-01
    2.0000052248133713e+00 -9.9771682584702770e-01
    2.0059028892159168e+00 -1.0798383761450563e+00
    2.0867763167245097e+00 -1.3411445168343750e+00
    2.3828298706036848e+00 -1.8390796232849789e+00
    3.1198874236953373e+00 -2.7572007369400597e+00
    2.1565849890719222e+00 -1.4816716012985522e+00
    2.0064800901392337e+00 -1.0838042308551574e+00
    2.0002696108209150e+00 -9.8371442193704806e-01
    2.0005189747670116e+00 -9.7747699189433923e-01
    2.0000011644018976e+00 -9.9892150748789332e-01
    2.0003383026054427e+00 -1.0185629333392106e+00
    2.0006070637701345e+00 -1.0249440655996580e+00
    2.0009931153181202e+00 -1.0320142017275680e+00
    2.0008849566862952e+00 -1.0301939904623503e+00
    2.0008225266322799e+00 -1.0290939370024448e+00
    2.0000203724127457e+00 -1.0045237786230843e+00
    2.0008493890319601e+00 -9.7127732075106010e-01
    2.0007649513542076e+00 -9.7272207723725301e-01
    2.0071596367544071e+00 -1.0882701475418772e+00
    2.1649582071481870e+00 -1.4969197020614677e+00
    2.8503431562718489e+00 -2.4406094280934894e+00
    2.0453340487448930e+00 -1.2367881180059186e+00
    2.0000731299747114e+00 -1.0085882497166669e+00
    2.0003131686727369e+00 -9.8245931925412722e-01
    2.0027476508541211e+00 -1.0538098650412895e+00
    2.0113751315415480e+00 -1.1124933706034001e+00
    2.0142314607619909e+00 -1.1266234472065038e+00
    2.0116475182912632e+00 -1.1139044441076054e+00
    2.0117747432082402e+00 -1.1145584549365557e+00
    2.0151753543371171e+00 -1.1310094223431073e+00
    2.0172691124666127e+00 -1.1403299169259256e+00
    2.0108402656186399e+00 -1.1096777150674495e+00
    2.0008988311847533e+00 -1.0304332972478283e+00
    2.0012560276536848e+00 -9.6518196954752067e-01
    2.0000005688051590e+00 -1.0007544761817309e+00
    2.0558774749346647e+00 -1.2659682482132342e+00
    2.6156239070702734e+00 -2.1506477061046336e+00
    2.0161566201705781e+00 -1.1354434515660421e+00
    2.0002093812222768e+00 -9.8563430076148828e-01
    2.0003451689403766e+00 -1.0187521088391245e+00
    2.0131292131517640e+00 -1.1213352788369622e+00
    2.0283413046620256e+00 -1.1831147615787512e+00
    2.0236618042707311e+00 -1.1661091394731951e+00
    2.0126216582527912e+00 -1.1188340925746878e+00
    2.0106503613029965e+00 -1.1086630674692928e+00
    2.0155852623204473e+00 -1.1328765526723303e+00
    2.0275488599458229e+00 -1.1803235064245730e+00
    2.0244381306422912e+00 -1.1690228796867848e+00
    2.0066734656752341e+00 -1.0850961326719104e+00
    2.0004110136996331e+00 -9.7993099248575521e-01
    2.0012216756636709e+00 -9.6565302344752668e-01
    2.0203748383419509e+00 -1.1532909545966115e+00
    2.4359950312889715e+00 -1.9133520641419697e+00
    2.0059821270830236e+00 -1.0803930889939062e+00
    2.0011402375691452e+00 -9.6679790232527774e-01
    2.0015922603627585e+00 -1.0407072086687426e+00
    2.0196896369716830e+00 -1.1505095170519788e+00
    2.0308833210282176e+00 -1.1918552821753925e+00
    2.0189970515126197e+00 -1.1476552248489091e+00
    2.0044551621706659e+00 -1.0690117430412773e+00
    2.0002953540563739e+00 -1.0173341794320709e+00
    2.0038660223123652e+00 -1.0641403969274505e+00
    2.0162709646247938e+00 -1.1359523462124672e+00
    2.0192199014593708e+00 -1.1485784817444358e+00
    2.0081799090492005e+00 -1.0946252337101972e+00
    2.0000212189824218e+00 -9.9540419060198404e-01
    2.0034135845903829e+00 -9.4325597767022740e-01
    2.0078487219530299e+00 -1.0926042491254295e+00
    2.3238965170772974e+00 -1.7536608201097197e+00
    2.0016446338855989e+00 -1.0413847390937676e+00
    2.0025418124809766e+00 -9.5083849916280705e-01
    2.0019192653978690e+00 -1.0447795630136421e+00
    2.0185812419089681e+00 -1.1459198914154225e+00
    2.0200038461465590e+00 -1.1517900911682335e+00
    2.0051231984505553e+00 -1.0741839437913858e+00
    2.0010616152207619e+00 -9.6794404684038216e-01
    2.0078279950993578e+00 -9.1535150844635227e-01
    2.0018147752557032e+00 -9.5829754594766836e-01
    2.0020497946744635e+00 -1.0463111545132817e+00
    2.0068117036347046e+00 -1.0860091414691957e+00
    2.0064162725814061e+00 -1.0833739938602809e+00
    2.0000549738622952e+00 -1.0074419739549800e+00
    2.0053803114668733e+00 -9.2929023472024119e-01
    2.0028511070839494e+00 -1.0548403388251733e+00
    2.3036300406034038e+00 -1.7233724023663639e+00
    2.0019581771602439e+00 -1.0452412143163736e+00
    2.0030047922430607e+00 -9.4666582586803494e-01
    2.0020751464609439e+00 -1.0466031635278918e+00
    2.0135920751918550e+00 -1.1235790043284968e+00
    2.0123900653679749e+00 -1.1176779632066931e+00
    2.0003383026054427e+00 -1.0185629333392106e+00
    2.0074880007033014e+00 -9.1712980843176650e-01
    2.0176757547147837e+00 -8.7559425540508939e-01
    2.0116779875978050e+00 -8.9761662343866322e-01
    2.0000567080211096e+00 -9.9249782779656337e-01
    2.0058206219082759e+00 -1.0792588002523928e+00
    2.0067962728157633e+00 -1.0859076519003996e+00
    2.0004624215517621e+00 -1.0217364429342348e+00
    2.0047752220668391e+00 -9.3324339397019884e-01
    2.0022151895970310e+00 -1.0481864261696170e+00
    2.3611059466430926e+00 -1.8080123925817433e+00
    2.0046598547765990e+00 -1.0706328068168716e+00
    2.0026557050207905e+00 -9.4977721514207569e-01
    2.0013930032464202e+00 -1.0380259586368277e+00
    2.0127808269085521e+00 -1.1196232015179313e+00
    2.0129839135563374e+00 -1.1206237186113537e+00
    2.0039212883755972e+00 -1.0646115220845096e+00
    2.0026869830259133e+00 -9.4948996708733358e-01
    2.0132048813405223e+00 -8.9150042694623233e-01
    2.0041824196603155e+00 -9.3738577869127249e-01
    2.0018486123893955e+00 -1.0439297329608284e+00
    2.0118411804841498e+00 -1.1148987250809710e+00
    2.0122438354002985e+00 -1.1169430044870323e+00
    2.0014209010354134e+00 -1.0384119859685508e+00
    2.0021499833869103e+00 -9.5469461875347761e-01
    2.0025818623026272e+00 -1.0521193563272375e+00
    2.5501460721783076e+00 -2.0661553626276832e+00
    2.0119129428985834e+00 -1.1152653112140143e+00
    2.0011277184766989e+00 -9.6697760589059123e-01
    2.0006395276960545e+00 -1.0256106702171732e+00
    2.0140576126216292e+00 -1.1258017693107498e+00
    2.0233695298693792e+00 -1.1650016381122958e+00
    2.0152918944230791e+00 -1.1315424965252332e+00
    2.0018108150483980e+00 -1.0434687110987908e+00
    2.0000479844940187e+00 -9.9309686660598750e-01
    2.0017016923434690e+00 -1.0421111937548193e+00
    2.0139738881296383e+00 -1.1254044491770421e+00
    2.0252504336028978e+00 -1.1720298268420042e+00
    2.0184201176493781e+00 -1.1452429329137581e+00
    2.0019808842977773e+00 -1.0455085875890080e+00
    2.0006584587084251e+00 -9.7466666712062011e-01
    2.0079945908995231e+00 -1.0934990790657100e+00
    2.7835337785576777e+00 -2.3597622787786525e+00
    2.0261540002849165e+00 -1.1753268328623789e+00
    2.0001722336221901e+00 -9.8696205348089427e-01
    2.0000002973941635e+00 -1.0005454872941550e+00
    2.0095836650503456e+00 -1.1028052331869946e+00
    2.0228698447105069e+00 -1.1630944164852870e+00
    2.0217610102649375e+00 -1.1587973589959666e+00
    2.0113951949892739e+00 -1.1125978201627158e+00
    2.0068891242358742e+00 -1.0865167550832036e+00
    2.0089339626058318e+00 -1.0990921181735822e+00
    2.0227404253385832e+00 -1.1625975484083315e+00
    2.0294329545785432e+00 -1.1869068640196261e+00
    2.0137906017665137e+00 -1.1245309542404944e+00
    2.0008520990563281e+00 -1.0296198943336794e+00
    2.0000009274555723e+00 -1.0009635087877085e+00
    2.0215650467750605e+00 -1.1580282689480159e+00
    3.0203697628931994e+00 -2.6418466578400062e+00
    2.0692180265741511e+00 -1.2999687886390603e+00
    2.0001661953531329e+00 -1.0129750431603359e+00
    2.0007895566993166e+00 -9.7229295368893398e-01
    2.0011623126977969e+00 -1.0346788166865060e+00
    2.0084145982713761e+00 -1.0960348529384190e+00
    2.0130914629830032e+00 -1.1211507470177080e+00
    2.0110318891672412e+00 -1.1106934840675371e+00
    2.0090183547977598e+00 -1.0995811894664400e+00
    2.0116424440439169e+00 -1.1138782933766178e+00
    2.0128181138695687e+00 -1.1198074250022403e+00
    2.0106019446449239e+00 -1.1084030816727926e+00
    2.0027184452573707e+00 -1.0535156483452275e+00
    2.0000007174350367e+00 -9.9915334327183314e-01
    2.0009086076758944e+00 -1.0306008470539030e+00
    2.0582754474825902e+00 -1.2722929301988455e+00
    3.2267307937620044e+00 -2.8794411860235773e+00
    2.1718832414302076e+00 -1.5093435616664252e+00
    2.0082350759467542e+00 -1.0949582230528971e+00
    2.0002780614143147e+00 -9.8346327753518803e-01
    2.0007623840141298e+00 -9.7276725854086066e-01
    2.0000034897114372e+00 -1.0018698226061598e+00
    2.0004856738597780e+00 -1.0222821842331304e+00
    2.0006220310024747e+00 -1.0252535040121402e+00
    2.0006139490433763e+00 -1.0250868711464349e+00
    2.0004214339773236e+00 -1.0207406555899607e+00
    2.0002073708615469e+00 -1.0145044358353634e+00
    2.0000017190720327e+00 -1.0013119936907715e+00
    2.0002272107800039e+00 -9.8503966475762261e-01
    2.0000005688051590e+00 -9.9924609262342812e-01
    2.0105488167359704e+00 -1.1081171821520606e+00
    2.1692551875670274e+00 -1.5046478518623529e+00
    3.2581729284189431e+00 -2.9151357276012431e+00
    2.3762654021066019e+00 -1.8297395240471128e+00
    2.0858913768200971e+00 -1.3391478304906050e+00
    2.0063416031996355e+00 -1.0828680862613476e+00
    2.0000451344813839e+00 -1.0067408252488415e+00
    2.0006680279143692e+00 -9.7448561981571391e-01
    2.0034027050388161e+00 -9.4334383681481970e-01
    2.0060837496792128e+00 -9.2498418667404114e-01
    2.0075855233398610e+00 -9.1661530827201398e-01
    2.0077206648943124e+00 -9.1590825992515723e-01
    2.0035760909750628e+00 -9.4196089377755488e-01
    2.0013194026317893e+00 -9.6433012882163882e-01
    2.0000001466103248e+00 -1.0003829705891338e+00
    2.0069669891267070e+00 -1.0870246452681405e+00
    2.0932799174595060e+00 -1.3555982135309788e+00
    2.3755933335815471e+00 -1.8287810048515973e+00
    3.4839143175654459e+00 -3.1682862733402208e+00
    2.7027172245511690e+00 -2.2602976085626802e+00
    2.3567048476220847e+00 -1.8016616846931170e+00
    2.1479530907196014e+00 -1.4656723712029824e+00
    2.0415777264659614e+00 -1.2257520387072134e+00
    2.0115159564534526e+00 -1.1132247673604494e+00
    2.0025771342162448e+00 -1.0520704006850743e+00
    2.0001544421619730e+00 -1.0125049370846733e+00
    2.0001890753491987e+00 -1.0138453298906971e+00
    2.0013585211709310e+00 -1.0375436413055312e+00
    2.0060292011193175e+00 -1.0807210284524109e+00
    2.0172442488656168e+00 -1.1402222380169231e+00
    2.0527979755481871e+00 -1.2576885943362641e+00
    2.1550877847507497e+00 -1.4789175835852915e+00
    2.3644880085863997e+00 -1.8128793075289285e+00
    2.7034109400264175e+00 -2.2611600745227629e+00</input_scale>
  <output_scale>
    5.2631578947368418e-01 4.9999999999999994e-01 5.2631578947368418e-01
    4.9999999999999994e-01</output_scale>
  <inv_output_scale>
    1.8999999999999999e+00 -9.4999999999999996e-01
    1.8999999999999999e+00 -9.4999999999999996e-01</inv_output_scale>
  <weights>
    <_>
      1.6990794461066899e-01 -1.2582797634190726e-01
      4.4682051577734659e-02 -3.2578121889704111e-02
      1.2843044601896248e-02 1.7144968175538541e-01
      -4.6960547797206209e-02 1.8791942188527758e-02
      -8.5943035978516182e-03 9.0602373916527923e-02
      -9.7988379204052234e-02 -1.8177466311581478e-01
      -8.5195905870796965e-02 -1.8883885300765091e-01
      6.2938250682133115e-02 -1.6002078307943901e-01
      1.3011350711755037e-02 -5.1624913202859470e-03
      -1.1850153218806281e-01 -1.7480582287139224e-02
      -1.3410707177228154e-01 -1.8448123456328666e-02
      -1.7577863299565674e-01 7.3161522150394426e-02
      7.3616684683484937e-03 -9.9328433623586121e-03
      4.1882333349702698e-03 6.3371567208460947e-02
      5.2190965114160562e-02 -4.5286880886252941e-03
      2.8114555652370126e-02 3.2822879213308800e-02
      3.9878434275032565e-01 -1.6887830341489085e-01
      1.3156607522843053e-01 -5.0416491211736573e-02
      4.5694773919983091e-02 4.7580451535426928e-02
      -1.8298406810007339e-01 -1.2440420241938407e-01
      -4.4035417236796277e-02 7.4746434299425610e-02
      -2.6414735780168513e-01 -2.9335749019203227e-02
      8.0640033193551314e-02 1.5876125678035580e-02
      1.1820313196338042e-01 -4.1074101939361576e-02
      -2.7011347199715267e-02 6.5806747479974642e-02
      -1.6979140413137384e-01 7.3188833708304583e-03
      -1.3637376409230975e-01 -1.9382141533593831e-02
      -1.2105243931715892e-01 3.5515110665302288e-02
      1.2526063507420390e-01 8.7558247693959534e-02
      -2.9017932864982544e-02 2.6692724673190732e-01
      1.9630266344171760e-01 -7.1290953728563719e-03
      6.9895131378268721e-02 -1.7817172023952491e-01
      3.9289995608393392e-02 -1.8245904163452706e-01
      1.0250079493295333e-01 -1.7723280599967743e-02
      3.4352516124863862e-02 -2.7162353604554417e-02
      -5.1318696017839054e-02 -1.4795806705971182e-01
      -5.9858381083576599e-02 4.4371154099894276e-02
      -5.3059379856629660e-02 2.2153606897667436e-02
      4.6765352719439039e-02 1.0800163953433999e-01
      -3.3715494382333927e-02 -1.0814418154021188e-01
      -7.6813137239901729e-03 8.1193248067462601e-02
      -1.5409694936526244e-01 -1.0460988248729139e-01
      -9.1608367458590870e-02 6.4509080566569742e-03
      -1.1395530743917229e-01 1.0781679942651219e-01
      7.5972119670051380e-02 -1.8300167026137789e-02
      1.3591736659726279e-02 1.7827937291007229e-01
      1.1411626573003734e-01 3.0120630785397971e-02
      5.6299098792038288e-02 -1.1518145826379667e-01
      -5.1843258136757081e-02 -1.8634028627628495e-02
      4.4808040578201279e-02 -1.8306712163681352e-02
      1.8048982819490106e-02 -1.4884070433987662e-01
      4.3121335650404380e-02 -9.6618635101078681e-02
      -3.1004006107508177e-02 1.1263334255271715e-02
      -2.5411735378462676e-02 6.6886060666888181e-02
      1.9176254779905959e-02 1.0803306616261961e-01
      -1.0319226357846061e-01 5.0325812153557567e-02
      -2.0247950314517260e-02 7.1067022217818202e-02
      -1.5960060840821255e-01 -5.7278002890116995e-02
      2.6757052954684057e-02 -3.3507478651562781e-03
      7.5565786628132266e-03 1.2767893068715389e-01
      2.4682831473272770e-01 -2.7557568986807404e-02
      2.3857475143816694e-02 8.2654139967354684e-02
      3.6500879540810327e-02 1.0849801754428174e-02
      1.8824158807908772e-02 4.1465282188019585e-02
      1.7535818135516246e-01 1.6547899569482291e-01
      -8.3477028007544214e-03 2.7764379351579230e-02
      2.1075101542540001e-03 -1.9779754948323006e-01
      2.4326120398374347e-02 -1.7669605400522917e-01
      -3.2035244612070662e-02 -3.1650909975448040e-02
      1.4477724415148061e-01 9.5836983306021875e-02
      6.5906046474856761e-02 1.4248830264886186e-01
      -3.1580918438090883e-01 3.1593881037294791e-01
      -6.6286268711504759e-03 8.0862366496312607e-02
      -8.8012872953369153e-02 -8.9535280808731993e-02
      1.2073700237000694e-01 7.0009712306993460e-02
      2.0196450919389250e-02 5.1482165315740624e-02
      8.3079671168353686e-02 1.2225634990221727e-01
      6.4515165267053518e-02 8.8755340229139890e-02
      7.2274253892893228e-02 2.7785264201977682e-02
      -1.0634287671588354e-02 8.3667788262528388e-03
      -2.4608785254564402e-02 1.5643533335591406e-01
      -1.1055330220865069e-01 4.0818098952043122e-02
      -2.3786607665724161e-02 -3.6004207411396366e-01
      1.9475422709491061e-01 -1.4822615922139035e-01
      -3.2299737834974127e-02 -1.3119961224431814e-01
      3.5007610436739317e-01 1.9691278799290302e-01
      4.5274903240164650e-02 2.1587909949242279e-01
      -4.1563077611605564e-01 2.8190416674813196e-01
      -4.4337515662468720e-03 9.4377540528282483e-02
      -1.1451402830550664e-01 -8.3944866681745278e-02
      3.2200659545077542e-01 7.0046298309823229e-02
      1.5678926250166694e-01 1.6540540856268188e-02
      2.0472824851074772e-01 5.0685494295166889e-02
      8.6391132058100076e-02 -4.8783074700084993e-02
      -5.2641802826542620e-02 3.0969257857299728e-02
      -7.0483611610405547e-02 1.8260332591387676e-02
      -2.4630801497229227e-01 4.3200679893273908e-01
      -1.5041444960019332e-01 -2.7495739360824719e-02
      -8.8337276267705708e-03 -4.2664285558612192e-01
      3.0562649972865763e-01 1.2898769839065438e-01
      1.3807020328832156e-02 -1.5884184883663663e-01
      2.7793746899626026e-01 2.6438974723022757e-01
      5.5977325972891526e-02 1.1642577271987538e-01
      -5.3839366290006074e-02 3.6538494515084358e-01
      -9.3374453362337333e-03 -1.0751489761171629e-02
      -4.9931929571610953e-02 4.4721038321754822e-02
      6.4913945118485106e-01 1.2401911674238199e-01
      2.5408646823297992e-01 -1.6396325511867688e-01
      -2.3529235220909972e-01 -9.4252503618050848e-02
      4.4920921131660532e-02 -3.9430002428548183e-01
      -2.8253553024390377e-01 -1.9111918061063828e-03
      -1.0052169603256622e-01 1.3028926949893876e-01
      -6.8496739640676013e-02 2.6731915974590481e-01
      -1.1544048701011757e-01 -2.6051823885503339e-02
      -1.9411544078506714e-02 -3.1368166452130458e-01
      2.6705476518538313e-01 2.3220636214852122e-02
      -1.2581481056800162e-02 -1.4112795493263888e-01
      2.5166370913640890e-01 1.5112041208879348e-01
      9.5603309505268907e-02 6.8956663029118292e-02
      -2.1958969937323419e-01 2.3088290629655067e-01
      -1.3203072988042261e-02 3.1008401742852524e-02
      3.3793456020542949e-02 2.5374979349940860e-02
      3.9342765194871127e-01 6.6284108600182523e-02
      1.4819467185512111e-01 -4.8916921125564075e-02
      -2.2514966107047968e-01 3.9038213753128919e-04
      4.2815417367553829e-02 -2.1474239767711692e-01
      -2.1610946298586145e-01 1.0096150149614753e-02
      -8.6126245838457224e-02 -1.1616827459458660e-02
      -5.2664725118320199e-01 6.1067935979849719e-01
      -2.6220839967834747e-01 -6.3939738917909980e-02
      -8.9407512860377493e-03 -3.1081346091835960e-01
      3.9873710761693587e-01 3.5921676858073304e-01
      7.9693967426344506e-02 -7.8321686343911748e-02
      6.3886037138812801e-01 4.5225098258134111e-01
      -1.2270725978998668e-02 4.9722575230360715e-02
      -3.6787070427874852e-01 3.7808178441799190e-01
      -4.9554663282240403e-02 -7.4486385408521746e-02
      1.8138549377060656e-01 1.8922755184119816e-01
      7.0830935484934610e-01 1.1818622685332948e-01
      3.5565823320633966e-01 -3.2885973791978768e-01
      -2.3033916659586973e-01 -1.0908917059017142e-01
      -4.3488400373071216e-02 -6.9587405710869366e-01
      -3.5900576978156190e-01 -9.1911911519444306e-02
      -1.5138780678107677e-01 2.1256921709187038e-01
      -3.7483461019811842e-01 2.5586016997557193e-01
      -1.5403906809990461e-01 -2.8796992921374089e-02
      4.1567182570744843e-03 -1.9573661286206095e-01
      2.6722015869125304e-01 1.7341789788427869e-01
      3.0868595638828569e-02 -7.1185097459223357e-02
      3.6451109815612931e-01 2.9110410199516890e-01
      -7.8094782889706088e-02 6.3901205731312458e-02
      -2.1295939847885800e-01 1.7023567153576435e-01
      -1.4297560487488255e-02 -3.2526655092415452e-02
      6.7393238951842368e-03 1.0471923509825773e-01
      4.4762237153335599e-01 8.0837837482839819e-02
      1.7405745249772681e-01 -1.3847036716095043e-01
      -1.2245140061984160e-01 -7.0964869939557043e-02
      -2.5653780704885916e-03 -3.5677378378887292e-01
      -1.2401408158279768e-01 -3.0451193862155747e-02
      -8.4360177760387012e-02 9.9915774063669804e-02
      -4.1029995100007449e-01 2.8773479210406966e-01
      -6.8127120483334067e-02 5.8452777935673640e-03
      2.1062385479915474e-03 -3.2233140331829396e-01
      2.2376275550322233e-01 1.3959765846863535e-02
      -8.1008977674082976e-03 -1.1535004017665818e-01
      3.0640297419297413e-01 2.3745527208398987e-01
      5.6802953901007626e-02 1.4150888353979188e-01
      -2.9609198264057573e-01 2.8106997035613773e-01
      2.7518609867258507e-02 1.4772600778043999e-02
      8.7342095250779406e-02 6.7019640112737575e-02
      3.6705449969477477e-01 7.1788257503258776e-02
      2.0130915303286204e-01 -2.6195194191643373e-01
      -3.5928624505570619e-02 7.3024716363919731e-02
      4.1064584873614710e-02 -1.8334445171869782e-01
      -1.8155945759950987e-01 3.8347089329002396e-02
      -5.2812691503253371e-02 7.1382960827019698e-02
      -2.0959877151541470e-01 1.9081439738528017e-01
      -2.5667897520010672e-02 1.8348981841775349e-03
      8.0350077755858753e-03 -1.7285639245159037e-01
      1.0984824577427024e-01 -5.8208189054023037e-02
      -2.0940588669143521e-02 -2.5950471930174399e-02
      2.6305192246998327e-01 1.7628339822295813e-01
      6.6253662287224263e-02 1.4177245367192193e-01
      -3.8575722833219078e-01 2.5368947103259032e-01
      2.2646815130814998e-02 4.0709130553635425e-02
      -1.2588305734598198e-02 3.6613263190972072e-02
      1.9805037438294332e-01 6.2619690081136992e-02
      8.8679164009737410e-02 -5.1171937985380000e-02
      4.6891031845503153e-02 1.1022025256136134e-01
      3.1793769326586237e-02 -4.6976615670220455e-02
      -4.5823691589538001e-02 1.5718796009203801e-02
      -2.1641430082598268e-02 7.2661231836525647e-02
      1.3814525120028678e-01 2.2050449019196405e-01
      7.8327889404647397e-02 5.2956573960065166e-02
      2.2765719882405024e-02 -3.4449437470781796e-01
      1.1847334686431790e-01 -2.1698287282666451e-01
      -4.8868753981345631e-02 2.7082091097565910e-03
      1.1876504611238983e-01 8.4591682525139517e-02
      1.7100655083262939e-01 1.6781622460973550e-01
      -2.4527737024921670e-01 3.5686176653190343e-01
      4.5088737292702956e-02 8.1980462430273876e-02
      -8.8268787308681176e-03 -2.9959218984737346e-02
      2.4684471748498130e-01 7.9281116884506540e-03
      -6.8076091813629849e-02 1.4896940107235479e-01
      9.7136546767515500e-02 1.1178065645448620e-01
      4.8886635672563433e-02 1.0406786527555317e-01
      1.0562356323566457e-02 5.4959092128387767e-02
      3.9703184028135954e-02 -2.5298123994815052e-02
      4.5700521786689235e-01 -1.7292748820970769e-01
      2.5092604380330663e-01 4.8755202459874143e-02
      5.5476501581692206e-02 2.2048389828655365e-01
      -2.9445779222702034e-01 -2.2271856308248938e-01
      -6.1511493015440226e-02 1.7642510325130917e-01
      -2.7579612658193431e-01 -1.5938355252034656e-01
      6.0549153785890780e-04 8.3680418189859995e-02
      2.1983328999973985e-02 -2.6705942258530842e-02
      5.2046446426421075e-02 1.1500932243675840e-01
      5.5894782573859873e-02 -3.2033919551035080e-02
      -3.5250625413967457e-01 -7.2938451781549623e-03
      -1.6395095948347138e-01 3.6466376489270841e-01
      1.0219199209847941e-01 7.2057319069015996e-02
      6.5279096447656282e-02 4.0457113671018885e-01
      3.2622813607734685e-01 6.2776672897050467e-02
      1.0839318814864579e-01 -2.9266707012758209e-01
      1.2449392626832866e-01 -4.4849573396742344e-02
      1.6116605678637028e-01 1.4738826003029696e-02
      3.1333046544725915e-03 1.5056309640808957e-01
      -8.5584742818002060e-02 -1.1943958730357239e-01
      -2.4356437946602336e-02 1.4005700371335733e-01
      -2.0464303315749788e-01 -4.1860534746572843e-02
      -2.7349616948298423e-02 1.2830370631729901e-01
      1.0371568781832304e-01 5.8713696973964440e-02
      4.4025882578100597e-02 4.2893197279984696e-02
      1.6539900377790409e-01 7.9404012204879165e-02
      -2.9596661771416860e-01 -7.6733848317942110e-02
      -3.3691377592709633e-02 2.7435891308865124e-01
      3.4851144929064423e-02 9.1188877392480883e-02
      2.2532476781120945e-02 2.0296772156774695e-01
      2.3338977978099365e-01 3.3911003058020228e-03
      6.5483467783586130e-02 -2.6061191699727765e-01
      -1.5034350613028524e-01 -5.1626629769231033e-03
      7.9676711351226198e-02 -1.2723827057642921e-03
      -1.3891142333438029e-03 6.1947994612230259e-02
      8.2918471008555886e-02 -5.5881097704819242e-02
      -1.5988114852337396e-02 8.2226417562036330e-02
      -5.3917838826016889e-02 8.4117855466840738e-02
      6.9193027449321154e-02 8.5743618949939662e-02
      9.1642805816610010e-02 5.0477370653021554e-02
      3.9182797367602759e-02 1.7948265417341371e-02
      9.4687608049283126e-02 1.0487182716577563e-01
      -1.2025039008112617e-01 -1.0279690335245514e-01
      -2.4576294260923916e-03 1.5458270564214427e-01
      -1.9008228029917376e-02 5.9719690378492743e-02
      5.3613320307197660e-03 6.8935570900518536e-02
      1.5424072529827193e-01 -2.0199490537475311e-02
      3.6303003198715052e-02 -7.5039792451537149e-02
      -4.7297037305217095e-02 8.0645627414208561e-03
      3.3477951888659159e-02 -5.3736894080209451e-02
      -5.9766286184244517e-03 2.1336558343557886e-02
      -4.7828070257224534e-02 -4.4511356524834178e-02
      -5.4961995060416758e-03 -1.5065755569305095e-01
      1.4637363170085407e-01 -1.5052942908972530e-01
      1.2452205883493847e-01 -1.8225919276492816e-01
      -1.9760950935856128e-01 1.4217652053103925e-02
      -6.5029797037106877e-03 1.9195862725771243e-02
      -1.0798977151163079e-01 4.1430763581450328e-02
      -6.8641506826682686e-02 3.7115499767067080e-02
      -3.5292515383639304e-03 7.0663954932203010e-02
      1.5681826720635755e-01 1.3390420826765845e-01
      7.9052798980611839e-03 2.9885608383355598e-02
      -1.2210508100688007e-01 -1.4841157285650693e-02
      1.1817346653229215e-02 2.0730476060391832e-02
      -1.8064578349445309e-01 -3.4148712639993306e-02
      -3.3488177127674029e-03 -5.3055262345638579e-02
      -7.5503364154453868e-03 -1.1603238861020992e-01
      8.7913467978584445e-02 -4.9257259777706223e-02
      -1.0795377810201559e-02 -1.3913410032708368e-01
      7.9812657442416543e-02 -9.9922857468413520e-02
      9.6649029358360714e-02 2.7620123335379116e-03
      -4.9507934015847417e-02 3.8934475524671962e-02
      1.9014781387375087e-03 -8.5698949198860282e-03
      -8.9281091109500652e-02 5.3266084330215777e-02
      -5.4375051782626638e-03 -2.1219348170054445e-02
      9.1740217953154343e-03 1.3133606554852120e-02
      7.2862091098054596e-02 9.0358715911600829e-02
      -9.4757833216551207e-03 1.4199131440190367e-02
      -6.2084109656967486e-02 -3.0971015163407514e-02
      4.6810718110948781e-03 1.6054211002492502e-02
      1.1606324576922160e-01 1.6216657341910690e-02
      9.0473621125157083e-02 -2.2832684924839270e-02
      4.1726104250542774e-02 -2.2875622084669617e-01
      4.5099744977257335e-02 -1.4309894079686347e-01
      -3.4464146904391833e-02 3.4744406455325021e-03
      -9.0703706831220615e-02 -7.5147004017597145e-04
      7.3893558119483616e-02 1.6688692532860536e-01
      -1.4706227100406452e-01 1.1982717342636964e-01
      -1.0878675074920867e-02 5.3474358637339854e-02
      -1.3401701107369582e-01 -6.3330253423050167e-02
      7.2908896668791509e-02 4.9386436755421467e-02
      8.6489433267529656e-02 6.7720077505041498e-02
      2.7829286242678064e-01 1.1213658330892770e-01
      4.0012392286330294e-02 1.7662476149258549e-01
      4.7233925740302165e-03 2.4780125015966548e-02
      5.1256916718264878e-02 -1.0612068457017790e-01
      -8.3609537540283899e-02 2.8629276487921873e-01
      -2.3956348592007477e-02 -5.5846178013246442e-02
      -1.1964745684274310e-02 2.6700229349745908e-02
      1.8362646135450675e-01 1.3158263409162546e-01
      3.8280637842405207e-02 -8.5970843461002658e-02
      5.6648205914524984e-02 2.9055525227112522e-02
      8.2285948683497295e-03 7.2009207276472571e-03
      9.0153695128166178e-02 2.3778174745971709e-01
      -2.0607033957201999e-02 -3.1140110880257740e-02
      9.8558256134224587e-02 5.4884377310086600e-02
      6.2842709731321292e-02 1.9395919287277925e-02
      1.6733982017469501e-01 -8.7784982439997952e-02
      -1.1964602835945719e-01 -1.0151920618000386e-01
      1.8727704006892221e-02 -2.2793982248813768e-01
      -1.6375761528091068e-01 -1.4030738883550218e-02
      -2.7221968433937951e-02 1.1857424411056758e-01
      1.6909433925927866e-01 4.1224037305586869e-01
      -8.9762883027424939e-02 1.4013661883451010e-02
      2.6063253820872365e-03 -2.2356719737353123e-01
      2.4556828653893803e-01 -5.1166677516146258e-02
      -1.7981279087886551e-03 -7.5277109432918932e-02
      2.8809957363423166e-01 2.0243522356668550e-01
      1.2184792046781916e-01 2.3036873633991223e-01
      -2.9538255444522266e-01 4.4263872062868898e-01
      -1.0583379657517957e-02 3.6054155250598519e-02
      3.8790293650352796e-02 -1.0750349530559892e-02
      2.2455635412404037e-01 9.2311354378833643e-02
      2.0739577876286472e-01 -3.6364526342140602e-02
      -6.7984292685404610e-02 -2.2241396770140191e-02
      6.6924972011687761e-02 -1.6887438393416501e-01
      -6.1505321774391560e-02 3.4069668272813138e-02
      -6.9793251514305432e-02 7.7086807716093303e-02
      1.2930590339826351e-01 6.2291130107236825e-01
      -2.1787081990288412e-01 -1.3506086560360602e-02
      -3.7145811641437989e-04 -3.8415044218550443e-01
      3.7308733155167495e-01 1.5187191137644235e-01
      4.1929290218707345e-02 -8.9706673379784954e-02
      4.9543304344506267e-01 3.1366594202333348e-01
      4.4790382936802729e-02 1.3306937353101342e-01
      -5.0650249610026443e-01 4.7017538055355285e-01
      -3.0976130245706255e-02 -5.7249579879837462e-02
      5.7680620261770052e-02 5.2970371374313638e-02
      5.7959996265457148e-01 9.2853442826823340e-02
      3.3293417874671566e-01 -1.4224195642602838e-01
      -1.7937557828630726e-01 -5.4584888343833647e-02
      1.8861471985632282e-02 -4.2468395350782923e-01
      -1.7395898438351076e-01 -8.6640314538388337e-03
      -1.2623853859169226e-01 2.2335770605045976e-01
      2.4784529383931911e-01 8.8226735841644768e-02
      -1.8117134746691060e-02 3.4937788238100884e-02
      4.0661888956337766e-02 -1.1744034412662195e-01
      -2.8867163112301135e-02 -1.3888550649867656e-01
      -4.9383128877098975e-02 5.0025828566511140e-03
      6.6252509783820768e-03 4.3308932656354104e-02
      6.4186667848405918e-02 2.2515644014249669e-01
      -1.0748324374727977e-01 1.8181861416549788e-01
      6.1089322901842279e-05 7.5331818935926720e-02
      -1.1029858340049838e-01 -1.0021876090620545e-01
      -5.9217002516962908e-02 9.0312535984637732e-02
      2.7916551426930100e-02 1.8634422651147165e-02
      -6.8974341478244314e-02 -5.1559699851013085e-03
      6.5359272406233015e-02 1.1009738656948670e-01
      6.7005313406995157e-02 6.0142507498737327e-02
      -2.7854960301539305e-02 -9.0747425457367206e-02
      4.2952833760913539e-01 -4.7430307479192468e-02
      -8.1448406478705215e-03 3.3328022801766055e-02
      3.3866972401434617e-02 3.6781092357199121e-03
      -1.3119276477440342e-02 -9.2553647128130648e-02
      -4.4653081871027317e-02 3.6278292504517140e-02
      -1.5863386608266669e-01 -6.9289808691744267e-02
      4.8756197281998266e-02 1.3109293492488092e-01
      9.0426610697130511e-02 2.6036779647298284e-02
      8.9290931996128583e-03 3.0724484889694561e-02
      -1.0579692148128383e-01 -8.4625323090108395e-03
      -9.5933752304266706e-02 4.6728101278758927e-02
      -2.9560675252212750e-03 2.3629947539661891e-01
      -1.0981475496016886e-01 -2.6829196215191864e-02
      3.5662792671292069e-02 1.4946434037314152e-01
      1.4664648104885025e-01 3.2650696291404817e-02
      -2.8355217234603759e-02 -1.2491765754935225e-01
      3.4935093876205542e-01 2.7287151520294220e-02
      -1.8304757704290683e-02 3.1626261254933057e-02
      1.3389409226170981e-02 -1.4407577348604153e-01
      1.5626837646542116e-02 -1.2166447533475543e-01
      -4.7467078768992067e-02 -5.6617351374666849e-02
      3.7552992266762092e-02 -9.9497491402723764e-02
      5.2438389457448310e-02 1.0903543229576061e-01
      -1.1327273196648095e-01 1.1935361265337906e-01
      1.2587114400784444e-02 6.7397038389604688e-02
      -3.8200226307858562e-02 -1.6560457252671810e-03
      -8.5965787534936708e-03 6.6998777447335955e-02
      -1.2639685661353713e-02 2.1447793703337223e-01
      -1.1154575569931574e-01 2.3495817038446502e-02
      4.3764706699965385e-02 1.0292166639538790e-01
      2.4679850958376028e-03 3.2438315838361036e-02
      -3.1060146904549651e-02 -1.9422160746553303e-02
      4.2313229935537744e-01 -9.6700868322091571e-02
      4.6281141885493447e-02 1.9776743343614400e-02
      1.6327906920816544e-02 -1.0147890326248230e-01
      -3.1690006367532220e-02 -1.7856891326429544e-01
      -7.1631567325263379e-02 -3.6534663900977302e-02
      8.1212889959115714e-02 -1.5762297415577431e-01
      9.3249610796781818e-02 9.1261818058534894e-02
      -2.5331586521029209e-01 2.5993533722325761e-02
      2.1387059455348030e-02 1.2550038757206708e-01
      -8.0175915005697415e-02 -3.9000682687202512e-02
      -5.0170205832712977e-02 6.9100989683337583e-02
      -1.0478153020453797e-01 1.6723871679954352e-01
      -1.2650899005472168e-02 4.5903081848012894e-02
      6.5424474301478852e-02 1.8617601232656650e-01
      -1.8424264800081872e-02 4.5833205817524383e-02
      5.1583187721470298e-03 -5.4284839596041391e-02
      3.9754305232485451e-02 -1.4681268960722244e-01
      5.1595370312879443e-04 -1.5204494065386293e-02
      2.8806889889135615e-03 -2.6995548041117059e-02
      -1.6455454833204385e-02 -2.0138928387632010e-02
      -2.2731359435798303e-02 -2.3443675499038977e-02
      1.2615697982111446e-01 -8.9740728107858582e-03
      8.9292987917117816e-03 2.1383955518884433e-03
      -1.2022857210381413e-01 -1.5020655832297417e-01
      4.9767335999704090e-03 3.2047865265686169e-02
      1.4565198900799686e-03 -1.2647892005548250e-02
      -8.1267476693172441e-02 3.6367518949529339e-02
      1.0115652313444646e-02 -4.3485578195661075e-02
      1.3616614460317616e-02 1.2651509886440836e-02
      4.6360200816302981e-02 2.6909514575406818e-02
      -1.9515335484110302e-02 9.5688744557380304e-03
      -2.2553148508600192e-02 3.7065779472891122e-02
      -2.0552157726578418e-01 2.1446333927615732e-01
      -9.7518048065926108e-02 -3.0159253890043557e-02
      -5.4635221914431341e-03 -6.6904045062408560e-02
      2.5473666596901889e-01 1.0330358423023187e-01
      2.7525925854563392e-02 1.1676153716490462e-02
      2.4341907179799011e-01 1.9655812078938031e-01
      -2.9496678577941225e-02 1.5100430847680582e-01
      -1.4764917173528974e-01 1.2659277824016049e-01
      -1.2956004770766714e-02 -3.0267394392168044e-02
      1.0033633763313704e-01 6.6756654280868757e-02
      1.6564013812873069e-01 6.7417666333138809e-02
      1.4911674792452867e-01 -2.3718614564487348e-01
      -2.2245738410331360e-02 -7.0055694144605506e-03
      2.0488678050935145e-02 -2.5550164824633376e-01
      -6.3835680300924236e-02 -3.0301609582145606e-02
      -6.2495741279049992e-02 2.9147873507841742e-02
      -7.9169115089198314e-02 3.0429399194501111e-01
      -2.3691995107150827e-02 -2.0705717324724402e-02
      -1.3976773409120413e-02 -1.5264228628061988e-01
      1.7306896363674310e-01 9.1834650100619794e-02
      1.7977331399776034e-02 7.3608598791902860e-02
      1.6797907171111984e-01 2.3937895526660896e-01
      3.4147349715615644e-02 1.8348349844376657e-01
      -1.7489793683821017e-01 2.6556887101080145e-01
      -8.4340154966155313e-03 -7.2984792381251907e-03
      2.0397187780865775e-01 1.5593440188524921e-02
      1.7311650686954616e-01 5.4025815731088132e-02
      1.1010681634182667e-01 -2.4455418934243953e-01
      -8.5388559811990436e-02 -8.2588205716262866e-02
      2.7516987904986780e-02 -1.4615235287604914e-01
      -3.6296372107984108e-02 -2.6156264503656067e-02
      -2.4113367988525654e-02 -4.7434157225198149e-02
      1.8719297188452114e-01 1.7013260381118270e-01
      5.9525288305705706e-02 -1.1301479325451910e-02
      5.9536338655278194e-03 -2.5470288773464158e-02
      -6.6049118680896163e-02 2.1803976962955458e-02
      -2.3910460824380468e-02 6.6287354110385180e-02
      3.4932125314413462e-02 9.6686784746330898e-02
      -2.1759605934046182e-02 1.4479996343196175e-01
      3.9258812388305572e-02 2.1358385087423795e-01
      2.7013181324317546e-02 3.9125099427940679e-02
      9.0222247753788232e-02 3.6710970768128975e-03
      6.7084690207242156e-02 4.1336033229355050e-02
      5.7953541936789553e-02 -1.1529635595752773e-02
      -2.3988827749456634e-01 -1.0547571261408141e-01
      2.8687888042783011e-02 -1.9893720622409454e-02
      4.9713698989116165e-02 -1.3399192813744859e-02
      1.5056914935035281e-02 -1.3237224818465865e-01
      1.7776443450124271e-01 1.4135591514684067e-02
      7.7645744435974814e-02 -2.0135615163327989e-02
      1.2997108884306401e-02 -8.9452163640926202e-02
      6.1948325560150300e-02 -4.4402717387003181e-02
      -5.4738467330558919e-02 7.3574670523423980e-02
      7.9539470836779966e-02 9.0020584457487798e-02
      -1.0316963756854138e-01 1.2169981695824567e-01
      -1.8435074842357435e-01 8.8614780201973484e-02
      3.5897436421222527e-02 1.4553915926460256e-01
      3.7927627440787703e-03 4.3523975531521923e-02
      4.1257794183102089e-02 -7.1719477315693708e-03
      3.6823796307303189e-02 1.3803718650797225e-01
      -1.6115049462657724e-01 -2.9313239978045369e-03
      2.8540582428043526e-02 2.8765034465239384e-02
      6.1618447452016854e-02 -1.4621698729747898e-02
      3.3003410948144303e-02 -5.4281426491008450e-02
      2.6358659856330385e-01 -2.5544615110984570e-01
      1.9674438702899311e-01 -1.1376886910289461e-02
      8.0684027146744261e-02 -2.8280679142725407e-01
      -4.2401671070421518e-02 -2.9363483513450489e-01
      -1.2623576517442794e-01 9.8633159787767169e-02
      -8.4934817570765722e-02 -1.3146132108623210e-01
      -1.7755446461418314e-02 2.7279923407658324e-01
      -1.2322657176324556e-01 3.0497113429965396e-02
      4.9139718047341442e-02 2.1746435919939142e-01
      -1.6271645220753009e-01 -3.6987891366463486e-02
      6.1465193408377543e-03 3.4209992396924921e-03
      -2.0061341180417841e-01 2.8707296759313528e-01
      -6.5295391767860630e-02 6.6236148306724626e-02
      3.0940471442241071e-02 3.6112836679870164e-01
      1.7810990951933378e-01 4.5649694103043252e-02
      1.3060758903428887e-01 -1.7049284363615871e-01
      6.7071472246401462e-02 -1.9211803594643528e-02
      3.5745761009487037e-02 -3.1189134526606588e-02
      -8.3363482969136590e-03 2.7370871534857611e-02
      3.4886960704078512e-02 -2.9909399296449771e-02
      3.7449451778111009e-03 -9.8003681681506055e-02
      -1.5797294076542130e-02 8.5336100190710595e-03
      8.1614609494811877e-02 5.4582288120320253e-02
      6.9050154087644195e-03 2.9213358099454946e-02
      -1.4842178550248801e-02 2.7750820402968099e-02
      1.1953174424109113e-01 3.7319446345080269e-02
      -4.9258770928266048e-02 2.1939501839456563e-02
      -2.7969104499865304e-02 1.2899063531735933e-01
      1.1919344945814808e-01 8.3675049612664171e-02
      1.1149706524218409e-02 3.8341052300359828e-02
      -1.0452320706305726e-01 -1.9517274015793753e-02
      2.0393970253807490e-02 3.9958398010235180e-02
      -2.3022667290962137e-01 1.2614967778986208e-01
      3.3390612232764176e-02 -7.8230699409810506e-02
      1.2896757889491996e-02 1.5196493599830838e-01
      -4.6708819097019780e-02 1.2300780973488204e-01
      1.9430684288119063e-02 -5.2023051644782348e-03
      -3.7870893782305688e-02 6.2709519308977363e-02
      -4.9293659056583505e-02 -1.3167389814177505e-01
      5.0232724459896634e-02 8.7167775369981042e-03
      -4.2813532721436278e-03 -3.6625727242380869e-02
      1.2082261593461263e-01 1.0855441439551673e-01
      2.4032827738502342e-02 1.0549112549072448e-03
      1.9368328335385303e-02 -1.4809515940105256e-01
      6.0556976822048803e-02 5.2734202305150746e-02
      -3.0642717567877283e-02 -1.2695739658850325e-01
      -5.0522479652158100e-02 -3.3603588237756353e-02
      1.2983113661000653e-02 5.9382766839917459e-02
      -1.1483919322380426e-01 1.5309469587750707e-01
      1.0295346079370200e-02 -2.7841905652235214e-02
      1.0614316580154354e-02 -8.2994944027088471e-02
      9.2758205127905516e-02 -3.4097802999299875e-02
      -1.1013369323836343e-02 -2.4415593490051402e-02
      1.2307512238336442e-01 2.8145854894454807e-02
      9.5575595567867030e-02 2.3372612979772733e-02
      -2.2834340547350207e-01 1.7900512802575377e-01
      -7.5502109455395103e-03 5.1355037319106733e-02
      1.1144543589307433e-01 1.2731262022007242e-02
      1.2528204940718266e-01 2.2773808630633368e-02
      7.7824911699152510e-02 -4.3758237965845520e-02
      -2.7500123269569271e-02 4.5557027062755863e-02
      2.2491467642512433e-02 -1.7157902353911954e-02
      -1.4316232865604368e-02 1.6420634340735879e-03
      -2.6033222883620247e-03 6.1677195929479449e-02
      3.5125180084969154e-01 2.6855623434201870e-01
      -3.4604641857435850e-02 1.9344817189849810e-02
      1.9298712415290464e-02 -2.2216498189655245e-01
      9.5292240810431014e-02 -6.5163893202077036e-02
      1.1730534109813525e-03 -9.7529058256043064e-02
      3.0074607231717709e-01 1.1970456953350288e-01
      1.0015890400291778e-01 1.5054799977665437e-01
      -4.0821533397848797e-01 2.7154812488047075e-01
      -1.1752308187528662e-02 3.8363730514962689e-02
      1.6463000641865724e-01 -8.8959601367254084e-03
      2.1109026258176983e-01 9.6366068964987284e-02
      1.7302333235540854e-01 -1.1358264354386555e-01
      1.2471446447952143e-02 1.6185551173897178e-01
      6.7213150373246752e-02 -6.2454747262775175e-02
      -8.1774844693106696e-02 1.2006028821449527e-02
      -4.2826138840918328e-02 3.0372846846290959e-02
      -1.6118512065642451e-02 1.3177204550037991e-01
      -1.6453555959476354e-01 -2.3657841326538063e-02
      -7.1248660830268151e-03 -1.0412115221859476e-01
      2.2153129245422487e-01 1.6210691410722133e-01
      5.2425264161996110e-02 -1.2023181011040449e-01
      3.9148881133624125e-01 5.2512181593826882e-02
      9.0305224501586023e-03 -1.1835630594176456e-01
      -2.6026717431669588e-01 1.3731870061935351e-02
      -1.8329397633935866e-02 -7.9618065279302930e-02
      1.8122877405998802e-01 1.0142862374470789e-01
      3.0769459583026726e-01 4.7768009052010833e-02
      1.2661425588115208e-01 -2.0870681386892750e-01
      -7.7617889749461239e-02 4.4422161927873384e-02
      1.1102182996318715e-03 -3.3095046187245231e-01
      -1.9723940935348028e-01 -1.5092523506235347e-02
      -1.0430149687987839e-01 2.2896433812364317e-01
      -8.5814599833349131e-02 9.1786729917980078e-02
      -8.5648969580214368e-02 1.0261008792024491e-02
      1.3121186403437490e-02 -9.9471657995187895e-02
      5.3787264461860475e-02 2.9312847876419145e-02
      1.3637714107480178e-03 -3.5599007211410058e-02
      1.1075202296598093e-01 1.8082434322846608e-02
      -4.8776288604506527e-03 4.0660644321942718e-02
      -5.4105047773154384e-02 1.0886926116495627e-01
      -6.1540271299325431e-04 -9.8951309687789844e-03
      1.3385515476847111e-02 -6.4277706873352696e-03
      1.3175147610611265e-01 3.1536543058260598e-02
      1.0033357587689601e-01 -1.0333794680668160e-01
      -1.9610544399810140e-01 -2.5666505895970380e-02
      1.5138426720755400e-02 -1.0452112613662490e-01
      -5.6768127011695819e-02 1.6018099033132310e-02
      -5.7569341523828713e-02 7.0059137790214054e-02
      7.9267515509733079e-03 2.8013223663321285e-01
      -6.3338003269020643e-02 2.6356252044795827e-02
      7.4081231331708441e-03 -9.6179626305775021e-02
      1.4090442187599206e-01 -1.2042108036219374e-02
      -7.6126590230717506e-04 -1.2332249731662035e-02
      8.9581788099290238e-02 8.8328136325520654e-02
      6.1154577762042035e-02 1.4682966005231679e-01
      -2.0476379376947931e-01 2.5471394842279399e-01
      -2.0255191162441761e-03 3.0058647305673649e-03
      8.0073615995003837e-04 3.2072366091636682e-02
      8.9896842191106788e-02 1.5230890243510214e-02
      1.1882710469729724e-01 6.6190381507918615e-03
      -1.1777772664128087e-01 4.0770626213013070e-02
      -6.0680338491663236e-03 -5.5793894887649582e-02
      -2.3467730481769374e-02 2.1994955775115479e-02
      -3.9427224969932964e-02 5.1462447209988570e-02
      -1.6866001129138933e-01 2.7548684352690245e-01
      -9.8171741779357516e-02 3.0860210182471044e-02
      -3.4816426891367679e-02 -2.0042228415916193e-02
      2.2892592207914564e-01 7.2314799869529961e-02
      3.8338686914845654e-02 7.8958362551446171e-03
      2.1290932116401456e-02 9.8140043308863070e-02
      4.2129567753202840e-02 -1.4119787204323185e-02
      1.7163716342756357e-02 2.4347479119777943e-01
      4.0810650709381304e-03 -6.7535756060501009e-02
      2.0728098523785120e-02 9.5670179774001510e-02
      8.1291210742826539e-02 -7.8167937695795657e-03
      7.3468428132637806e-02 4.1121187083501112e-02
      -2.0824728462616710e-01 2.9030533940086371e-02
      -1.9651289669803149e-02 -1.4175589428797894e-01
      -1.0168790499580454e-02 1.4320729034368377e-03
      -6.3717637849660891e-02 7.9691665835032496e-02
      -2.1605107914036134e-01 3.7118938175547889e-01
      -5.4277915355490453e-02 6.1073055271035230e-02
      -5.2837001947225910e-02 -1.8185005870472420e-01
      2.0526978856033115e-01 -8.3916168449055098e-02
      -1.7875834757550640e-02 -8.2069737127092382e-02
      1.6269606402705347e-01 3.7066470858752372e-02
      8.9298405683922222e-02 1.5236550723009118e-01
      -2.4068388626732801e-01 4.6320155565114612e-01
      3.7754359119845558e-02 -1.4034830515070317e-04
      -3.8332966740960768e-02 1.4524950580553942e-02
      2.6518265860334822e-01 2.1641569087398366e-02
      1.5566775327509327e-01 8.1801554300395332e-02
      -1.2393074909112230e-01 4.4088417538573309e-02
      3.7176177352204805e-02 -9.6290019842366001e-02
      -6.2304477737599895e-02 4.9935060339994439e-02
      -5.3215456435714174e-02 -1.7109763943498973e-02
      -1.7893151736180425e-02 9.0101293488869083e-02
      2.2337718799942716e-02 6.0745087310622281e-02
      -2.4164730343152922e-02 -2.7220774166490158e-01
      1.4115122511566849e-01 -1.1482333772293529e-01
      -4.4483241126206864e-02 -1.8361911717508658e-02
      1.6711271087689515e-02 -1.3002683928271913e-02
      5.9739416892015409e-02 1.3663075421250054e-01
      -1.2699404992285568e-01 1.1453995702750137e-01
      5.1156479185763500e-02 5.1713598230580485e-02
      -1.9194924114774997e-02 -4.2435627063402800e-02
      8.4177924371673915e-02 2.7776536953892372e-02
      1.7166569622073349e-03 1.8137266395550022e-01
      -1.3710597823128035e-01 -7.6588646400651050e-02
      5.4327825555016175e-02 8.8439966855447680e-02
      6.8182504246732376e-02 6.0614673542613039e-02
      -2.5821351245887744e-03 -3.2329622952681027e-02
      6.4749200968807472e-02 -1.3881880232323351e-01
      -2.8212074547888016e-02 2.9554213650250356e-02
      -2.9861512234689764e-02 -7.8358424021565967e-02
      8.8657774085282345e-02 9.3338268300430620e-03
      1.4963632127811535e-03 2.0567575677502659e-02
      -3.2645424594131646e-02 -9.6070465777827671e-02
      -6.1216678987966134e-03 -1.7650803653617086e-01
      4.3964482152112676e-02 -1.8149564163167881e-01
      2.8113180344127506e-02 -2.3499889532737996e-02
      3.3257307966619222e-02 -6.1004687090978294e-03
      3.1191217844278828e-02 -1.5972511690979022e-02
      -7.0083951607965822e-02 1.9582751319667172e-01
      -1.4569087808105952e-01 -3.0013089176911308e-02
      3.0062698997388948e-02 4.3852314248586689e-02
      5.1797242647215996e-02 3.4327799200155447e-02
      -1.7217949677435417e-02 6.2828349907998612e-02
      -9.7275618007018366e-02 -1.4050498588993701e-01
      -8.2291066553200568e-03 -5.4058469736115418e-03
      -2.8465336357858872e-02 4.4789279782817396e-02
      -5.4103934175140376e-04 -2.1832641004676131e-02
      -6.9017379435258267e-03 1.3967486867889779e-02
      7.3907174266835282e-02 -4.1688797300186771e-02
      3.1868546882675000e-02 -2.6603035489667956e-02
      -1.6053452327273873e-01 -1.1895101035705150e-01
      2.2378617733340923e-02 -2.8199525580214234e-02
      7.1491856290698975e-03 -1.5305201386158320e-02
      -1.3304333803826773e-01 -1.6068887318975211e-02
      -4.1830875215033411e-02 6.1054300235474486e-02
      -7.3488311606991418e-04 3.5970331145738967e-03
      3.1687862209331778e-02 7.8232086662330905e-02
      4.3195117557322020e-02 9.3872010827613407e-03
      -8.4503288150022150e-03 -2.7407249837837336e-02
      -2.7663078230652000e-01 -2.2445985544909491e-02
      -8.9356648559435564e-02 -4.6736497237090203e-02
      -3.8333523526611339e-02 2.5522106195904833e-02
      9.2678006678939828e-02 1.4428598749095464e-01
      5.1358547271773504e-02 -2.4641988014821502e-02
      9.6695022756887752e-02 8.7182453994854789e-02
      -4.3171553335168374e-02 -4.4330364499922503e-02
      -1.6982643881599331e-03 -1.4118384783971602e-01
      -1.5798872517996470e-03 -9.8460374613281471e-02
      6.6088154955377204e-02 6.7859922804602055e-02
      1.3588146408126001e-01 2.9949263241810017e-03
      4.5703115211376710e-02 -7.7187372178670263e-02
      1.0577139371561706e-01 -4.9143809665398060e-02
      3.4010446743194837e-03 -2.2390019804452985e-01
      -1.3711029457377044e-01 -5.2863933452518164e-02
      -4.2302488224398194e-02 8.7454128063674835e-02
      -3.0277093993714782e-02 -1.0872383780237763e-01
      -1.1978854014971403e-04 -3.9616330133537693e-02
      -2.7662595403938222e-03 1.1808917340198383e-01
      -5.3511068644820761e-02 6.0024950068792687e-02
      1.5994653355413412e-02 5.2658225670004249e-02
      -9.1762369806797556e-02 -4.5928053087205184e-02
      -7.6966385553525779e-02 -1.2326797804833468e-01
      5.1539991451771197e-02 -1.4860761821826471e-01
      -5.6562199849706360e-03 -3.7512072870901865e-02
      8.2351908693095735e-02 8.6841364484469882e-03
      -8.2011994343173758e-02 -3.6206184670734248e-02
      -4.7205081401471984e-02 5.5938918426229313e-02
      -1.1471152645219087e-02 -3.1205586593386217e-03
      -4.8402219365005755e-03 5.5396012522529875e-03
      4.3957505455101104e-02 -4.7821211580824155e-02
      4.1348578089169192e-03 -3.1693018751811131e-02
      6.2694433629714982e-02 -1.9737364195329027e-01
      4.5510844470672815e-02 -4.9202418726185422e-02
      -7.1112897075307309e-04 2.0090727828340277e-01
      -1.2839530567708762e-01 4.8047701296645810e-02
      -9.7361570249771875e-03 1.0835126781002795e-01
      -1.0573891048952289e-01 -4.8297081042572458e-02
      -1.3150276758223836e-01 -9.0681456239318184e-02
      2.7377784227791818e-01 -1.7310803418576892e-01
      9.0860456833632270e-04 1.2054354665065015e-02
      5.3107741519276309e-02 3.9070445735955660e-02
      -2.1699132219160758e-01 -7.6874344723135327e-02
      -4.8766316185992697e-02 6.5687798675524503e-02
      -2.4327696445925662e-01 -3.5177454802274646e-02
      -1.2073952056636627e-02 3.2703255442809637e-02
      1.1521835351990403e-01 -5.7214403386478242e-02
      2.3415226496199083e-02 -5.6463420664264685e-02
      1.4284021233570421e-01 1.2423868650535576e-01
      1.7463804888511874e-04 -8.4318047718969114e-02
      -1.6886291712165287e-03 -5.8102032840450193e-02
      -2.5748986297146618e-02 1.2900523210426834e-01
      -4.3230418568310676e-03 3.0073096096578763e-02
      1.3743783599103906e-01 2.7534673571911328e-01
      -3.7257381327010439e-02 4.0023233186829779e-02
      -4.1244448076364418e-02 8.1087299898869192e-03
      -4.7886290991940523e-03 3.8003724585693982e-02
      7.7978111606954184e-02 5.7577831555428956e-02
      2.3785838410724802e-01 -4.1372600042563427e-02
      1.2424835944092712e-01 -1.1777675291499802e-01
      -1.0948126958794618e-01 -1.0715441645991671e-02
      -2.9409381560560111e-02 -1.7647504664318789e-01
      -1.2524342762821999e-01 -6.7387022369184382e-02
      7.5523379149041257e-03 -8.8603794853529968e-04
      3.0684597761889604e-01 -1.4023156677852447e-01
      4.1627744580703889e-02 -3.5603042351722821e-03
      3.2002108175978837e-02 -6.1288923609354269e-03
      -7.1150312834656684e-02 -2.3362074682214282e-02
      -4.4776993028590667e-03 1.4680473421611825e-02
      -1.0238898614976144e-01 -3.5419000241150141e-02
      -3.7471472369291950e-02 2.8036543620673308e-02
      1.4444396588665173e-01 -6.1319816382236644e-02
      1.6496572518986227e-03 1.5166611310509023e-02
      6.3098476437451007e-02 -1.1100824077363824e-02
      -5.8500064165987437e-02 4.4579791969896858e-02
      -1.8463768927064814e-01 1.3121909829090608e-01
      6.2471711392053861e-02 -7.5208225353448524e-02
      2.1770550019516451e-02 1.2073513766871857e-01
      1.0479881104253874e-01 1.5627792087063264e-02
      3.7560593700543758e-02 -3.1907032183246017e-02
      -3.6401283558449099e-01 4.3413678038506376e-02
      -5.9690862504040487e-02 -7.7416553540616773e-02
      1.1751508180425831e-02 -6.2760619279548402e-02
      1.2977262626372715e-01 9.7915546282318577e-02
      2.8364058456016920e-02 -1.1176953237317429e-01
      1.9983933345038291e-01 -1.2428433123299265e-01
      9.4785925695552067e-02 -2.1365009187324965e-01
      -3.1749864122099319e-02 -7.5052824784671332e-02
      7.3660843921701663e-04 -6.6571664146610171e-02
      6.2484989706637238e-03 9.7487936914472065e-02
      6.7098529437157384e-02 2.4067015793653331e-02
      6.6045601989591224e-02 -3.6685387251748108e-02
      -4.5549364064909940e-02 9.6964462899496950e-02
      -4.1004167714373593e-03 -1.9288335960283801e-01
      -2.1163292645456755e-01 -2.8708540292160651e-02
      -2.0453205404014976e-02 1.8295438781002060e-01
      -2.2643303818350463e-01 3.3284842627627674e-02
      -9.7381853528791265e-02 -2.8148758339089284e-02
      -1.3426433677268233e-02 -6.7667813633015786e-02
      1.1370985531240056e-01 4.8802633179685063e-02
      4.0397891547048398e-02 -1.4526303645314054e-01
      1.2881517665261416e-01 -7.6698924861435133e-02
      3.0358272091980342e-02 -1.1639468308471430e-01
      -1.2871679788614551e-01 -2.0524971122140318e-02
      -2.2969643286647142e-03 -6.0279239337478759e-02
      2.6817986184882427e-02 1.1988530611744405e-01
      2.0617486773960504e-02 4.1254781892919028e-02
      9.4848992582097003e-02 5.8612171800253049e-02
      -5.0379517450676092e-02 1.7312321892070096e-01
      7.7061436410530036e-03 -1.0592156097485346e-01
      -1.4469553541628599e-01 -2.6377649931499932e-02
      -5.7937357644023579e-02 1.9067687841417749e-01
      -3.2055384587198366e-01 4.7016695630823481e-02
      -1.1534967765042435e-01 -2.3686796816681802e-02
      7.1765222600049658e-04 1.6063175913190977e-02
      1.3754114439147910e-01 3.7212544933087920e-02
      4.2160782706431463e-02 -1.7250999982161044e-01
      3.3763329646424473e-01 -7.2443099858249330e-02
      1.0408327433788739e-01 -1.4091559403507020e-01
      -4.0062365811571554e-01 1.7179964596374213e-02
      -8.8092908920584523e-03 -5.8315424147381584e-02
      1.4587151127230680e-01 6.5931741970662566e-02
      7.8532022473226479e-02 3.1237656173635369e-02
      6.1624811839321746e-02 -1.3476965498508814e-01
      1.0559671977476801e-01 1.9763064482741302e-01
      1.4652847336272113e-02 -1.4456196979517483e-01
      -2.4357909422320084e-01 -1.8707436630162440e-02
      -5.6437923479226541e-02 1.4873653040712451e-01
      -1.3430112243579143e-01 -4.3118139032208055e-02
      1.7748772726744160e-03 7.4080812620896021e-03
      4.2940618761283272e-02 8.9550849517772157e-04
      -9.0789102550151116e-02 -1.4406662216066701e-01
      -2.1600777430148273e-02 -9.0999652704520193e-02
      7.9014734263386996e-02 -9.0000463692983312e-02
      1.0762844015993905e-01 4.5576501269953176e-02
      -2.0298227930811813e-01 1.7753056599046843e-02
      -1.4749169688126457e-03 5.0542857071535364e-02
      6.3566246106162308e-02 -5.8556248766807713e-02
      -1.0309164238666005e-01 5.7605530022964729e-02
      -1.9332759325601265e-03 -1.0007515364443430e-01
      1.9737676743833535e-01 1.4782949257978295e-01
      5.2690568486951930e-02 1.1714023254113080e-01
      -1.2879471604024450e-02 4.0200740592488668e-02
      4.4506771315525754e-03 -6.4250584672205777e-02
      -9.5517248272670954e-02 7.3057706392231178e-02
      -8.0037374900875664e-03 2.7809798160295131e-02
      2.5783355038070110e-02 2.1276751691863615e-02
      7.9580499808262137e-02 1.6700386520679547e-03
      3.9128715891537085e-03 -4.4115871542273560e-02
      1.2743301667659188e-01 -3.1188975256451892e-02
      -2.1077983652329151e-02 -3.7411596044197144e-02
      -1.3668310184960822e-01 7.5893481115497999e-02
      1.6513622389623606e-02 -2.4570284471251928e-02
      9.4585975652671697e-02 1.6716858179545956e-02
      -5.5791875582121737e-02 1.7761788971696984e-02
      1.4437472637245463e-02 4.6815039624044437e-02
      -1.0789559623897886e-01 3.6788531393389196e-02
      3.2938117938666202e-03 -3.7689854450758391e-02
      2.3841245555182865e-02 2.3385797789428956e-02
      -4.4782472822467488e-03 7.9876526001632683e-02
      -2.1330634314374397e-01 1.2534310135985668e-01
      4.2352834205494544e-02 4.9667030659820401e-02
      -1.3547044076464400e-02 -8.3086379695818634e-03
      -5.9411781819283672e-02 -1.2095069410066991e-01
      -1.6370483817428831e-02 -7.2749562446364949e-02
      7.9565642830783601e-02 -9.4465465061589707e-03
      -3.9974807761717614e-02 1.5445526284087260e-01
      -1.7569799614857362e-01 1.9512809616732138e-01
      2.0609115242957970e-02 2.7057122104563694e-02
      -7.5850666060849462e-02 -3.3359914266891041e-02
      -8.7011053104022892e-02 -3.2767286154593629e-02
      1.0836460136448815e-02 2.3478702187352544e-02
      4.5524914068459724e-02 1.3831325061380303e-01
      5.9879777616344860e-04 1.0240697824421728e-01
      2.2320658200869991e-02 2.3486287583164477e-02
      1.8952695328583950e-02 5.9580584379938691e-02
      -4.1191608570663413e-01 2.4354364157116121e-01
      -8.3773984096035606e-03 3.0455043294222363e-02
      -5.3054208307670082e-02 -9.4991161850763450e-02
      1.2388752057642284e-01 -2.6640459131650654e-02
      2.2813507274258262e-02 -1.2608131617707125e-01
      2.8157756040901433e-01 2.7643546668007224e-02
      1.8628288427317050e-02 -7.6065329478002833e-02
      -2.4900546032747481e-01 2.6887833380653392e-01
      -1.5541363501423962e-03 -3.8326815055912206e-02
      -8.0578644334879546e-02 -2.8762359252964467e-03
      9.1941397529535465e-02 -5.5868208177401006e-02
      5.9274514899830551e-02 5.8846246138541196e-04
      1.2357530071413698e-01 3.6569988692362623e-02
      -1.7460233730632779e-02 -9.5750366287025004e-02
      -7.9091380519270685e-02 -6.8726654832262208e-04
      -1.2169876179456236e-02 1.2224604814080590e-01
      -7.7447118222861724e-02 -7.4291643231154211e-02
      5.9360376776261187e-02 7.0627433712510582e-02
      -5.0942561605053178e-02 -8.9850124480392410e-02
      -2.2623093974745104e-03 -1.7009784615794851e-01
      -2.6140320974790125e-02 -6.4464626665656596e-02
      8.4419019192872272e-02 -1.6720086626060629e-01
      3.0114390882983039e-02 -3.3244124463134420e-02
      -2.1278757907904858e-01 1.2978300576399820e-02
      1.3665262092752581e-02 3.6264671344348534e-02
      -1.1513899793118533e-01 -8.2247579471543042e-02
      -6.2389792456320784e-03 -3.0638001071083894e-02
      -2.9768414994856503e-02 1.8569414969429826e-01
      2.0229936675252505e-01 1.4512023375271179e-02
      3.2463847466735481e-02 1.5103162686102301e-01
      5.5303719641292354e-02 5.4047754609740456e-02
      1.3888844756295485e-02 -5.4486156069670201e-02
      -4.6751504441950459e-01 1.6453785329023213e-01
      -8.5739379506864000e-02 9.2572148481441380e-03
      -7.5683387275608430e-02 -1.0842031396912859e-01
      1.6209418974754267e-01 1.5372003962670797e-01
      5.0769236825856372e-02 -1.2437435511436388e-02
      2.1415792795362049e-01 8.7728922584848726e-02
      -5.7705582604320044e-02 -7.9123484922315579e-02
      -1.0161984282381172e-01 9.9956288407159186e-02
      -7.3878764835810309e-03 -7.7006062066993952e-02
      1.7362496418075916e-02 6.8259038318992007e-02
      2.3221528721392815e-01 -4.0796410122412849e-02
      9.7379895454084001e-02 -2.9227888102140470e-02
      -1.5606291472773887e-01 -8.1230400507028497e-02
      -2.8500511385182590e-02 -2.1440225918207623e-01
      -5.9861549132899178e-02 -1.6534605517068889e-02
      -5.4297631409391617e-02 1.6569562418664030e-01
      -2.4783403574231236e-01 2.2652906271368028e-01
      -1.1101144748232016e-01 6.7161662733355868e-03
      -7.0156735828671421e-02 -1.5098290292553396e-01
      2.7489695902393457e-01 1.1605266273328868e-01
      5.0200076668031071e-02 -9.2860936464356447e-02
      2.8524723391149814e-01 1.4243859521729357e-01
      1.5986440893883409e-02 4.1550786463914123e-04
      -2.1668599584432513e-01 1.1769982005292431e-01
      1.4137165442136777e-02 -5.7739174479923806e-02
      4.1814465652887335e-03 1.0833746344323313e-01
      2.3072220790694950e-01 -3.5010606229743668e-02
      9.5200953760178800e-02 -9.4279842318655688e-02
      -2.6925877416375647e-02 -1.5125630531687377e-02
      -2.3887922524542153e-03 -2.3110966429577295e-01
      -1.4574455907595329e-01 -1.5262068753716223e-02
      -4.8793786375486085e-02 2.4176300880335980e-01
      -7.5256346662075729e-02 -1.2489612335678075e-03
      -3.5800526079118059e-02 1.1257277135994361e-02
      -6.4375639702716564e-02 -9.0136640913020330e-02
      1.0067646683762495e-01 6.7983505543474057e-02
      2.9497530596385112e-02 -8.4891614379132667e-03
      2.3621892109190027e-02 6.6340737496276572e-02
      -1.3962012066118690e-01 3.3231737272678218e-02
      6.4230304600664950e-03 1.7966220902472761e-02
      2.5641896709018446e-03 -4.6752066854427420e-02
      1.1613924195182419e-01 2.2617792074171944e-02
      2.0199758232458609e-01 -3.6165079041087095e-02
      3.7471013384747280e-02 5.6602064906547116e-02
      -9.0267234561469123e-02 -5.0474747595086730e-02
      -7.8209240722767973e-03 -9.2863174405523635e-02
      4.7076727113969943e-02 -2.7923706915738380e-02
      -2.3801888774604908e-02 1.2540019553876147e-01
      1.1444632025651690e-01 -1.2807731534413389e-01
      -1.9148284994262559e-02 -2.4200950620648629e-02
      -1.4161213741903446e-02 -1.4387947576245291e-01
      1.0469047207390633e-02 4.3619975992499088e-02
      3.5269318922646416e-03 -1.4815473808850821e-02
      4.6847076964315303e-02 -8.2217951833217215e-02
      -9.5540127512555945e-02 -9.8481910111444554e-02
      -3.8921778225855720e-02 -1.6113789906975218e-01
      3.7866615115189502e-03 -8.8189396070678296e-03
      6.2684611078536838e-03 -1.4674520515133465e-02
      1.0626476293278002e-01 -1.7347335732080287e-02
      1.9192143243551868e-02 1.3668424965568818e-01
      1.0936807849639840e-01 -1.1274888312161167e-01
      1.4139189373052981e-02 -1.7676152089857369e-02
      3.0259656034629941e-02 -2.4207918584271192e-02
      6.3754740029729902e-04 9.3774718086992864e-02
      9.2838329731541342e-03 -8.0434432680613940e-02
      -2.7564038024999061e-02 -6.8959856520593873e-02
      -3.0031140604219438e-03 7.5620677611033540e-02
      4.8371293028617264e-02 1.0665022332688144e-01
      1.1607856756917693e-02 -1.1925381068715719e-02
      -1.7977919452260262e-02 4.4666005744805136e-02
      -9.0247373844205642e-02 -1.1966334495416529e-01
      1.0989729075749645e-01 -1.2054758326404970e-01
      -2.6058678546868403e-02 7.3169988512556821e-05
      6.0633557990111058e-03 3.9836964507987856e-02
      9.9855683667680273e-02 -3.5347025889756301e-02
      1.1532157215410524e-01 -1.5288918221741566e-02
      1.1896043828225682e-01 -4.8720861256590579e-02
      -7.5369837793860649e-03 -1.5856185201147591e-01
      -1.0940608833446641e-01 -5.1807824273635512e-02
      -9.3221873654557828e-03 6.9984344518022559e-02
      1.2345818421500836e-01 -2.3076746152321434e-01
      5.4017165128974212e-02 -7.6850270091166961e-02
      1.5999707697755834e-02 1.9829653729967664e-01
      -1.3743140839883883e-01 -2.6030546820726013e-02
      -2.3364897605904236e-02 1.6352944159816165e-02
      -1.9207681658785988e-01 -1.6349870134152017e-01
      -7.3436081311807441e-02 -1.2998439637951154e-01
      1.4775875180675069e-01 -2.7353864808486111e-01
      -8.9664981257886710e-03 6.1957140075979784e-03
      -5.9174358288675628e-02 1.0923991063347937e-02
      -2.4974378556000715e-01 -1.0810618314868524e-01
      -6.1417384448763990e-02 2.0995119281823665e-01
      -1.3393515450444383e-02 8.8754977195167034e-02
      -1.6308623828562491e-02 1.4384086675243182e-01
      7.0441126738305035e-02 -4.7210900836409060e-02
      3.1969309508607789e-02 -4.4693741508222876e-02
      1.1979963987572334e-01 2.7190013245014161e-02
      1.7687720489735097e-02 -6.4983607291127385e-02
      -2.4448250732140506e-03 -4.2802429393996103e-02
      -4.3046026471289044e-02 -4.5163144350126284e-02
      -3.8165680265373543e-02 -2.0284261533195964e-03
      6.7917793021689179e-03 1.0415399445581273e-01
      5.2768137698283736e-02 2.3879159363171486e-02
      -8.5513671027174040e-02 9.3800407206224498e-03
      -4.4612217062686456e-03 8.2461298706087718e-02
      -1.1813013864343722e-01 -3.2732717568447645e-02
      6.8974194143034240e-02 -6.7326142017519144e-02
      8.0436620572914924e-02 -8.0075451221851383e-03
      -6.1707618307387184e-02 7.7321928964846466e-03
      2.9568630845572507e-04 -1.2698789020066390e-02
      -8.2687749466652763e-02 -4.0567728311067440e-02
      2.3302163941650789e-02 -5.1880084751512526e-02
      -1.6589713890524824e-01 -1.7580516393293881e-02
      2.8929681740237259e-02 -4.2102657295388923e-02
      5.6138608794240319e-02 2.5212411899569087e-01
      -1.4893895573706614e-01 9.7330103379027838e-02
      1.1706765250475858e-02 1.0229028184282087e-01
      -2.3239291817971078e-01 4.6827586370725614e-02
      -1.4119414431845700e-02 -5.6660240708481822e-02
      2.8404242158638687e-01 -1.2495911653203856e-01
      8.6172343092068299e-03 -3.6920548648678109e-02
      8.2130250476587244e-02 7.0854952751389630e-02
      -1.2027037288567137e-01 7.9360446943777890e-02
      -1.0709508757470063e-01 -1.4349900260940096e-01
      -1.0109040847688376e-01 -4.6560642441458217e-02
      -4.1218904838816817e-03 -4.1079972539778076e-02
      6.9080835317799863e-02 1.6567636860333173e-02
      2.6391289130024007e-02 -9.3254606399938780e-02
      1.8082776728697326e-03 7.9004593523788469e-02
      -7.6893967890090759e-02 -1.5364741926627377e-02
      1.2205516067422784e-02 -1.2603067055526113e-01
      1.4286162491650997e-01 5.8713715613799962e-02
      2.9291319645624477e-02 -6.4528746999217221e-02
      7.6829588403531296e-02 -4.0472093505358124e-02
      -1.2444437446358602e-02 -9.5615918765607225e-02
      3.4312010078048835e-02 8.5180214918355285e-02
      -8.5335246043315410e-04 -2.5747139359082242e-02
      -3.4470311360540629e-02 8.3714261344304042e-02
      2.1345816947156404e-01 1.9408891628930679e-02
      6.9091890571393824e-02 -4.1967848169538725e-02
      -1.7851433609454573e-02 5.0978806204083599e-02
      1.6990160569942455e-02 -1.2528672886912567e-01
      -4.0479884355807523e-02 2.9489321933685183e-03
      -3.3811536708171594e-02 1.8349257173863173e-01
      -1.7658928205440760e-01 -3.2615224430638634e-02
      -2.0132501189671550e-02 -9.1311830191556712e-03
      -1.0317318572721540e-03 -1.2256438073665556e-02
      2.2087713086180367e-02 -8.0766795201463779e-02
      -5.6523709051959472e-03 -1.2577267078409701e-01
      9.0879970480783154e-02 -1.1830562698376035e-01
      -3.4295749284527855e-03 -2.3615727104965151e-02
      -1.0978322003007690e-01 -2.2450289856062247e-03
      6.2744444441461041e-03 1.7559593377237066e-02
      -1.2711153898524194e-01 2.4063068577086080e-02
      -5.5637372337812505e-02 1.7085274979405610e-02
      2.7972098704338622e-04 7.3804919627083396e-02
      -3.1265599156336796e-02 1.8314701537678896e-01
      4.7363241307478154e-02 2.5485850068421623e-02
      -9.5046311571498954e-02 1.4553135463299869e-02
      -1.8516720414093423e-02 8.3706660525254939e-02
      -1.9039371233912977e-01 -4.9276992195426299e-02
      1.0365976714210894e-02 -1.4311216083635208e-02
      3.2105075842744038e-02 -2.5137240708820115e-02
      1.0292238325175914e-02 -1.2191046669731148e-01
      -2.2355320969052780e-02 -1.4184542497097188e-01
      9.8139694430979987e-02 -1.3143218896092565e-01
      1.1502210504055466e-01 4.5414949861953532e-02
      -2.5026074706006435e-01 7.0934975818671342e-03
      7.8076927606600972e-03 3.7229313330964429e-02
      -2.6003490053181446e-02 -2.6639415777650503e-02
      -4.3070175185560146e-02 6.2454055699049174e-02
      9.8398973532176276e-02 -1.2895320437474814e-01
      1.6115464726779177e-01 1.3895065250695060e-01
      5.1199852399416344e-02 5.8496839976701971e-02
      -1.5042904257617165e-01 3.3377362656527743e-02
      1.0197408102773257e-02 -1.2924232438301475e-01
      -2.6002511402605694e-01 4.0377462625314088e-02
      1.4456774127717835e-02 2.7698871966980981e-02
      6.9652768728067438e-03 -4.4033401466576097e-02
      -1.6210406541140074e-02 -7.9653595188563631e-02
      -7.2734345030156505e-03 -3.7952376076272415e-02
      -8.1276577038751855e-03 3.2928898064089600e-02
      4.3554042902043913e-02 1.1156070664933994e-01
      -2.7211981438929989e-02 1.4188487314840995e-01
      7.1591556319476474e-03 3.7628077822810635e-02
      1.1506637058531635e-01 -7.9654356323272005e-04
      -8.7438124529071029e-02 3.1977001982805564e-02
      2.1309694421065509e-02 -5.5870799738811594e-02
      -4.5590116952270818e-02 1.3437623941566884e-01
      1.3571973573762795e-02 1.0756899249118217e-01
      4.1814928227314092e-03 3.5292827830837939e-02
      1.4524302965265797e-02 -5.0382422689791727e-02
      -4.3890757691445009e-01 5.2083730725714775e-02
      2.0107113621274958e-02 1.6736566230209204e-02
      -8.6460492013227599e-03 4.9504132358577410e-02
      3.9571705744869554e-02 5.9648413476879734e-02
      1.9724326640163308e-02 3.5276624141815469e-02
      6.2207172662433696e-02 2.8224180954082766e-02
      -4.9290319788829924e-02 6.6767309693944094e-02
      -8.1762093069701600e-02 3.1415284638196019e-02
      8.5022106023380454e-03 2.7108936673033704e-04
      1.4406520280523982e-01 5.6822711175085042e-02
      -4.9273795864970937e-02 -3.2879488714839221e-02
      1.4057320712384108e-01 -9.2955635958824723e-02
      -4.5452070558310576e-02 -6.1436411377234601e-02
      -1.0057740686203997e-02 -5.2138543854220495e-02
      1.1978870959043103e-02 3.8295569631801164e-03
      1.0625838932003587e-02 -5.0957090010477511e-02
      -3.9791137180560809e-01 3.4796528657919518e-01
      2.5122813048637834e-02 3.5273886016900825e-02
      -1.7759047504469945e-02 -5.0032991921998553e-02
      1.1385698267905042e-01 -1.2578153399034883e-02
      9.4510967597582118e-04 6.5244238031213264e-02
      4.8740830173925158e-02 7.8483782906612273e-02
      1.3522742839022866e-02 1.9131675799260114e-01
      -4.6820410628655676e-02 3.5285614618497979e-01
      1.3671657765953521e-02 2.4809186180596597e-02
      9.2973970802134487e-02 3.9214516325629840e-02
      3.7099518612610516e-02 -2.5658140805612056e-02
      8.2754817079293774e-02 -6.4428755983534203e-02
      -1.2351194117871592e-01 -5.5483852062729044e-02
      -1.1493123671712072e-02 -7.6984923460939103e-02
      4.4122329962611034e-02 1.3806588885692880e-02
      2.3765172895082634e-02 1.0026004178268853e-02
      -4.3013524479379106e-01 1.5825651071066288e-01
      8.2044386133717492e-02 2.3061231570920184e-02
      -2.3172415963744395e-02 -6.1078570590879190e-03
      7.7313901374898700e-02 -3.3087759511544149e-02
      -5.1857517060572844e-03 8.2112552566543595e-02
      -7.7735578895327215e-02 -3.1660450718632799e-02
      5.5914257453989751e-02 1.2758999499463675e-03
      3.7322580843684741e-02 1.9714186492702768e-01
      5.4718492411588958e-03 2.8693708617282900e-02
      4.2424627636610248e-03 1.4877901879010124e-02
      -1.6149819683393542e-02 -2.7818010472081520e-02
      -4.9126114555942131e-02 -2.9994127092209534e-02
      -4.2766655026384957e-02 -6.7623480492545393e-02
      -1.2588259762640455e-02 7.6321326325754215e-03
      2.6301059739480239e-02 8.6565995557820359e-03
      4.1680993625321246e-02 -5.9068399843421965e-02
      -5.0844183257517794e-01 2.8805732823178631e-01
      -5.2569517911543934e-02 1.8633131303825708e-02
      -7.6977884654352888e-02 -6.4323793503413246e-02
      1.7979073015435224e-01 1.0375356654951153e-01
      5.7463599759196946e-02 -2.2075455601105822e-02
      1.4843944381266291e-01 6.0640134145751187e-02
      4.4337589119659085e-02 -1.3632993786147299e-01
      -9.3561143700357952e-02 1.6695800003759892e-01
      -8.3228927481337166e-03 -8.2358031932893788e-02
      3.0705079356744276e-02 3.1120057285042056e-02
      1.3481013582684279e-01 -5.4290545747823916e-02
      6.4446813640684691e-02 -5.8155083339205084e-02
      4.5383898486438333e-02 -4.3155064803207528e-02
      -4.5330247222940413e-02 -1.6780831607045416e-01
      -5.8721571082068796e-02 -3.0410736943793981e-02
      -1.5455359151102665e-02 8.7964840633774563e-02
      -4.5667576637621632e-01 -1.7957257151005160e-01
      -1.3735207105792667e-02 4.1663118952817907e-02
      -5.9218708825323700e-02 8.7517753702587939e-03
      3.1950443006388371e-02 -2.4865186776323214e-03
      1.2100623681162789e-02 3.2345040639956850e-02
      -4.9767666930556675e-02 -1.0547355317225565e-01
      -1.5561640091665951e-01 -7.0536823331816517e-02
      9.0528607830492724e-03 -1.2193854448761965e-01
      6.4397797614009931e-03 -3.4020849171231111e-02
      -6.4007282099998342e-02 -2.2484282217095870e-02
      4.8076410624478590e-03 -1.0753018776846190e-01
      -1.0115125248336046e-01 1.2295689080371612e-01
      2.7669700272355373e-02 -7.1136987772250346e-02
      -7.4947743570425024e-03 7.2585662263629169e-02
      1.4248876695448734e-01 1.5117616917420543e-02
      -1.6323670146095058e-02 3.3657332628695684e-02
      -7.1114547547837317e-02 -5.3612540199503123e-02
      -2.5668435547124013e-02 1.8508164738417557e-03
      -3.4096904994979312e-02 1.7156296880789432e-02
      6.1612413457664016e-02 6.9994443550899330e-02
      1.9142491751739373e-02 3.1863566983299431e-02
      7.0163065400367944e-02 -5.4585591421468994e-02
      -1.1532692774981934e-01 -1.2713447015944265e-01
      -6.0613494217443359e-02 -9.5557021536948616e-02
      -2.3123281819184003e-03 -4.6192520633388703e-02
      -8.4709709249884649e-02 9.2238624680569346e-03
      1.8303040295197599e-02 -3.2155542757415910e-02
      -1.5648787412088406e-02 1.2380308319830664e-01
      5.6419081024653810e-02 -1.5624870481195862e-02
      -2.3405383972343416e-02 -5.3056442022162045e-02
      -7.6544360364500068e-03 -1.5440669395997551e-02
      -1.4287332236500519e-02 1.1603261702418691e-01
      2.0048514381131588e-01 1.7333346985993112e-01
      -1.8779672527478801e-02 1.2871581465673578e-02
      -1.8763801399690031e-02 -1.5185564938252069e-01
      1.0066590049483629e-01 -8.2589507450890318e-02
      -1.4682321502789530e-02 -2.8461618793005131e-02
      1.4032489955136582e-01 2.1049653699899959e-01
      -5.0014155066937606e-02 2.0527310917271593e-01
      -2.5926473238019160e-01 2.3982003586066458e-01
      7.9910137022212030e-03 2.6044418298361259e-02
      -1.9804377761604562e-02 -3.3197165674949798e-02
      1.2866815876454443e-01 4.4997845436062986e-03
      1.1314230044786093e-01 -3.3108765122368169e-02
      1.3115820353106300e-01 5.0416099971096931e-02
      1.5737669327171095e-02 -2.4269807992546036e-02
      6.3790255683721250e-02 -2.2630776544604937e-03
      -1.9799654934767753e-03 9.3976901633294418e-02
      3.0292273526897290e-01 -5.5566353433646250e-02
      1.1440850290278500e-02 -1.7178053652054336e-02
      -1.3434272012265961e-02 6.8433838232319910e-03
      -1.3491396790330554e-01 -5.3932855508185391e-02
      -1.6995251417998593e-02 -2.1060253031312842e-02
      -3.8626395916357512e-02 -5.9710199635229569e-02
      -5.7196901126014818e-02 3.0314319594112283e-02
      7.0029891432552394e-02 -4.5304295116517868e-03
      2.6259184542256077e-03 4.1815673261594152e-03
      -3.3509168919572577e-02 -1.2508511266344748e-02
      5.6052631279015193e-03 -2.7055024237882357e-02
      -2.4050632469679440e-02 1.8981032480568147e-01
      2.0674889211327208e-01 4.2481319522340707e-03
      8.4362050481505803e-04 6.2652798468998461e-02
      5.3024249718731882e-02 -2.7751793130780847e-03
      7.3051657558362588e-03 -3.4720442806810969e-02
      2.2704929982579597e-01 -8.7979836573474191e-02
      -2.7091492931285042e-03 -5.8416266217419334e-02
      -2.2371162497388932e-02 -6.7987707075964363e-03
      1.3100465358030276e-02 2.7192839678589317e-02
      -6.1035578257090270e-05 -8.3585006192131231e-02
      -9.9280063400943742e-03 -1.0461576853070211e-01
      -6.6541880933976644e-02 -1.4308554592200640e-01
      2.3734538130522117e-03 -8.7551782112094106e-02
      -2.0545838480196046e-02 9.0223301727394862e-03
      -1.1019784147719129e-01 -2.0205495450689860e-03
      9.4790492461332185e-02 -6.2175132502098100e-02
      1.3564375067349482e-01 1.1632188913162540e-01
      3.7699024378023721e-01 -9.9944955285840409e-02
      8.0667377490871162e-03 -6.4419009161875401e-02
      -4.1352800855204798e-02 -4.1880566927533329e-02
      -1.2242309126231596e-02 7.9483857129682312e-02
      4.1130156541307233e-01 -1.5221319152686924e-01
      7.7439279868084313e-02 -4.5541264372631042e-02
      2.7505299443722212e-02 7.9233244115315793e-02
      -1.6622906239082338e-01 -1.1350773449003966e-01
      -4.2496023340775860e-02 -1.7551418480575981e-02
      -8.5520379085907192e-02 -1.3766291017924914e-01
      -4.0785920405242558e-02 -1.3331117516075660e-02
      2.7597163257949975e-02 -1.0591956775398831e-01
      -2.5795398667137343e-02 7.5623118335514980e-02
      -1.7049421005815821e-01 -6.2915921480873105e-02
      -2.1849387070338952e-01 -6.3673102244353214e-02
      6.1261419940492555e-04 2.1894001310573893e-01
      2.6151154018077849e-01 1.9394671963553867e-02
      2.6358215587159528e-03 1.7109298448999435e-01
      6.0453483455082960e-02 -7.3342038679819633e-03
      4.2660058413035995e-02 -3.9979615089256786e-02
      1.6711033842692252e-01 -7.6853538877639641e-02
      -3.5416370249991821e-02 -5.2960460348462482e-02
      -4.3395224259370563e-02 9.8218835676672001e-02
      9.0650022437022207e-03 6.3629216124966123e-02
      2.6354994331902446e-02 -3.4722526544724124e-02
      -2.5656069054270526e-02 -3.4730042312472446e-02
      -8.5341222346136308e-02 -2.9495861093061747e-02
      4.2518272726905282e-02 -1.5603291550853585e-01
      -3.8723575529318661e-02 -4.1721818034927471e-02
      -4.9791334468349416e-03 5.9951028092504639e-03
      -7.2688441643288762e-02 -1.2476320391827773e-01
      7.5043704738179423e-02 -6.6717242307157573e-02
      5.3666035285051622e-02 -5.4154568799646093e-02
      -4.1404230982064118e-02 -9.4000751145960543e-02
      -5.1915212157018402e-03 -6.3769177081441183e-02
      -2.8741345809750681e-02 6.2884693180695242e-02
      -3.4719615879047361e-01 5.7314725912063651e-02
      -7.1150546557299535e-02 -8.1730991255763580e-03
      2.6283154747006529e-03 6.9127782425918119e-02
      4.1130512182489518e-02 1.3527890399248585e-01
      3.5809404377784446e-02 -1.2148089261593937e-02
      6.0443551987481879e-02 3.5138210457381129e-02
      6.3263774345819077e-02 -7.9609617024986826e-02
      7.1331891325650224e-02 -4.8990633902480651e-02
      2.0241225156629378e-02 -8.6093711174574039e-02
      -1.7968928517539919e-02 4.7712888911979272e-02
      -5.0667457379093839e-02 2.2500980023375052e-02
      4.7874037262011185e-02 -1.0096143992355609e-01
      -1.5908601931421626e-01 -1.3152468938957712e-01
      -8.3232766241845592e-03 -1.4368105211670995e-01
      -5.1670187215653321e-02 -2.4124998408021285e-02
      -2.3406305020964042e-02 1.0313175045766068e-01
      -1.5460284698590268e-01 -1.4489727233489583e-02
      -1.1723562048280416e-02 1.4592174726216574e-02
      4.5954310759890099e-03 -2.5630054974233413e-01
      2.2820692676910496e-02 -1.1824399151941360e-01
      -9.5623841219944754e-03 -4.8633025886194295e-02
      5.6914836720830253e-02 -1.4397930287255714e-01
      3.6473387037663577e-02 -7.1657175800426437e-02
      -7.5180410866004563e-02 1.7043930233493310e-01
      6.6288435137525819e-03 1.8507295541861656e-02
      -2.0425570948850211e-01 -1.8377628527095659e-02
      2.1064162149745025e-01 -1.1173959256084156e-02
      2.2267788035196950e-02 9.9094418706935666e-02
      -4.0661354120639204e-02 8.8729507103744457e-02
      4.5194539180999402e-02 3.6682894588500256e-02
      -1.4861031847639122e-02 2.2786104676565718e-02
      -7.7085636492291521e-03 7.4027615312910730e-02
      -2.6333765165104989e-01 -1.4641199216618472e-01
      1.2925876182072247e-02 -1.8473098663732292e-02
      1.9239208634230505e-03 -2.2858649783884855e-03
      -1.3924252159406722e-01 -2.7031776465982212e-02
      4.6065528546936014e-03 -1.0387657934161945e-01
      -2.2391490844128170e-02 -1.4434160689502507e-01
      1.0303956077473062e-02 -9.1090041121488399e-02
      2.2759004230112540e-03 -1.2290538272160530e-01
      1.5567212914136645e-04 -2.1316675563160015e-02
      -2.0471691875537570e-01 -5.4973459627059903e-03
      -4.1811318550488800e-02 -3.0783972441834687e-02
      -4.7483152164273373e-02 1.2992959010532779e-01
      4.2431163367235916e-02 6.1747178359937302e-02
      2.8618269116701563e-02 9.5563392703436806e-02
      -1.4350400142645148e-01 5.9962472881975541e-03
      -2.4794918739344798e-03 -1.0610080682749479e-01
      -5.7164825380665041e-01 2.2813557189784551e-02
      -1.8888256225354446e-02 -4.3078807548067900e-02
      1.1586154913670803e-02 2.4032314549010830e-01
      -1.5950067974647672e-01 5.5218824763475179e-02
      3.5242601991545712e-02 -6.6771012016379958e-02
      5.3207414220413085e-02 -1.5943941634920619e-02
      2.0767582386069454e-02 -7.4796109218445761e-02
      1.7166298993671752e-02 -4.9251896962490223e-02
      -2.7512947731412402e-02 -3.8307987682919778e-02
      -2.0208997815219565e-02 5.2237770245370102e-03
      -8.3219209680090153e-02 2.0795123551014011e-02
      -3.3338070361387244e-02 -2.9786083967337185e-01
      5.7517814523872380e-03 6.4999520160739205e-02
      9.5961694380912090e-03 -7.1577620276234835e-02
      -1.3656745140821702e-01 -2.0909871113350128e-02
      -4.8766200711908830e-03 -1.2149245866272726e-01
      -4.3191912190946369e-01 -1.9175359974997825e-02
      -4.4036361647295970e-03 -2.5874184497360713e-02
      2.8036227106721857e-02 3.1031665019527693e-01
      -3.9637424715945183e-02 1.5233967911148213e-01
      5.0445195050892691e-02 2.8259866300598239e-02
      -1.4475091795629061e-01 -4.1491174262977139e-02
      -2.2593929125386911e-02 -1.4179825590293352e-01
      2.0833222361020237e-01 -9.6032025863843934e-02
      -1.2863239666945022e-02 -9.9460733965369322e-02
      1.2036843738051087e-01 5.3344053940532168e-02
      -2.4906628800352851e-01 -1.5012269333380315e-02
      -8.4942510877997826e-02 -1.2490977282306830e-01
      -5.8153681766555852e-02 2.3898995338379126e-02
      -4.2612100495950871e-02 -2.8537902605520363e-02
      -7.3106980078218739e-02 -2.9127121677522835e-02
      4.9787052335207018e-03 2.7133557251351612e-02
      -4.5125850582007998e-01 3.2282625830988163e-02
      4.5539319445939863e-02 2.9419688726447252e-02
      -1.4903776432319743e-02 5.4602136474410534e-02
      -3.1710175154059328e-02 -1.8192013263611542e-02
      -4.7743858967236111e-03 -5.8155162645563280e-03
      -1.1262564437978219e-02 -3.0790542727154771e-02
      2.1547831916802086e-02 -1.1084277335486668e-02
      1.2703977715427335e-02 5.0598579039364593e-02
      3.1706506674962588e-02 3.7459170143870825e-02
      1.1137819765698223e-01 1.9793316215363276e-03
      -9.0954089936183410e-02 -1.1858261892916389e-02
      2.2076119715291033e-02 -3.3675982890326417e-02
      -1.3473891382019269e-02 -3.7253802297962338e-02
      3.1057466704162956e-02 1.8689695661252160e-02
      6.8125075136390200e-03 2.9051682235936724e-02
      2.0756773534979216e-02 5.9239549783619866e-02
      -4.2770967309816960e-01 1.4658044947183133e-01
      6.1016105445870689e-02 2.6929057713433926e-02
      2.8145646944419581e-02 3.3828848608949399e-02
      2.8967821279338390e-03 -2.5886519468670349e-02
      -6.4358773276115815e-03 9.9835568085993059e-02
      -3.0501630600392942e-02 1.6628710402934167e-02
      9.0746892431188539e-02 1.6782664215340016e-02
      -1.7325243583922276e-02 9.1457400897753283e-02
      2.5800904053398813e-02 5.5559261655352979e-02
      1.7042560393950806e-01 -1.2055286394984442e-03
      -3.2327960266631865e-02 3.8747569583488517e-02
      -2.2110292784052309e-02 -4.8419376916923905e-02
      -1.8745206715305076e-02 1.3417795491672043e-02
      1.9467641796846159e-02 3.9845105849120929e-03
      2.2125147412260432e-02 3.9233646133298210e-02
      5.5458173178627668e-02 2.3236731416309882e-02
      -5.2109198205729623e-01 9.3553037769330841e-02
      1.0244093366832177e-01 1.5100337149644597e-02
      4.6917371419617129e-03 1.0114757647489568e-01
      -8.6651583176890652e-03 -4.0596483334263286e-02
      -4.4235211643453712e-03 1.1703282917081369e-01
      -1.7997515998850810e-01 2.1797413419971743e-02
      6.9146998636833185e-02 -1.4571515113718623e-02
      2.1072243894651349e-01 1.5562122619225294e-01
      1.1940284148689044e-02 4.7033943348758045e-02
      1.7254778626017173e-01 4.4986337969689497e-02
      -1.4591646073686201e-01 -1.9411130703764601e-02
      -1.3805232310153355e-02 -6.1556181307752346e-02
      -4.6482122718823779e-02 2.8105812428554967e-02
      -1.9008934718967235e-02 6.9906501003869276e-02
      1.1879003061691891e-01 7.9399179695095780e-03
      5.9773209935722611e-02 -8.0303788020290756e-02
      -4.4013152705343528e-01 8.0904772758425253e-02
      9.8254262527322916e-02 5.1659021703939857e-02
      -2.0551672791142714e-02 2.7178925988077217e-03
      -9.2186190384017166e-03 -6.2362023966429800e-02
      1.0012481497038898e-03 1.2712903240308585e-01
      -6.1111962675151163e-02 4.5341662397688637e-02
      8.3327660197990747e-02 6.4957608655851901e-02
      5.0711300343128422e-02 1.1464959468272558e-01
      1.7841212650650431e-02 4.7027649205682032e-02
      6.3778024160860938e-02 -1.6057165923187084e-02
      -2.4054754655054664e-02 -1.2585854176106163e-02
      -3.7263422106365823e-02 -1.1961558719556988e-02
      -8.1226967899032068e-02 3.4044996775252044e-03
      4.2314072111346726e-03 9.7015485169044693e-02
      9.0965786849061078e-02 2.8867987873846146e-02
      6.2224448850854631e-02 -1.1692324791898319e-01
      -4.0342845538915879e-02 7.9169745833379254e-02
      4.4807082463444170e-02 5.0646060959322801e-02
      -2.3576374673421479e-02 -8.3758835462952028e-02
      1.1417582365208986e-01 -6.4328326575358141e-02
      -1.6326064338357395e-02 1.1022283163559751e-01
      2.8192958995261884e-02 7.8215992973718965e-02
      -2.2738546404309556e-02 1.5104647789105832e-01
      -3.4768991080922816e-02 1.1811095351499140e-01
      8.5981369018787897e-03 4.1313192379862855e-02
      1.9928581418412313e-02 -1.9371149432445035e-02
      4.6065442188676510e-02 -4.3305679539027878e-02
      -8.4042361783376979e-04 -4.4481756951936478e-03
      -3.2451851584550315e-02 -5.2845630903591088e-02
      1.0304169867833833e-02 6.3520422420911089e-03
      1.3330882094726726e-01 1.7081630139264531e-02
      1.4143395601494668e-02 -7.1133075327023454e-02
      9.0451723477963028e-02 4.3337536872784736e-02
      1.3736462307336847e-02 9.3002525549965142e-03
      -2.2520680189146856e-02 -1.7529354362794927e-01
      1.0675154299468866e-01 -6.0177169503029674e-04
      -3.3261084168257203e-02 1.1466866540617479e-01
      -7.9053961768890443e-02 1.4047982656129183e-02
      -6.8210119618877935e-02 4.8651718016892172e-02
      7.8972062301371729e-02 6.5624198202345871e-02
      4.4367477605049130e-03 5.2159273021502271e-02
      -7.9504658102849027e-02 -2.4121302729304375e-02
      2.8978356620952675e-02 -2.2615791704931952e-03
      8.5937970242065009e-02 1.1916201541898182e-01
      -1.1984516608193928e-01 -9.0537907586261193e-02
      -1.3308665906099001e-04 2.4665615178501465e-02
      9.5237160327606304e-02 9.4248953896802843e-04
      -7.8833489742934394e-03 -4.1001713163099265e-02
      2.7949290966201207e-01 -1.2175069248896599e-01
      -2.0707333105751953e-03 -2.0548830564639867e-02
      4.2598321403491115e-03 6.4872273380094242e-02
      -1.4379620148067660e-02 7.6055944736671641e-02
      -1.1818977423085013e-02 7.8795837298640439e-02
      -1.6441880127036984e-02 2.3679957090440219e-02
      -1.2290960499272340e-01 -3.0765848325067780e-02
      5.3864102009260034e-02 -1.2310208417907507e-01
      -5.4733699587251336e-03 -1.5911740333088092e-02
      -2.5674333047228635e-02 -2.2833999022908412e-02
      -1.5964122565793271e-02 -4.2248239767702249e-02
      7.6851050889847755e-02 4.1333753388386567e-02
      1.2111874431818039e-01 -1.0446362290552311e-01
      -3.2871873058021646e-02 -3.5436700740099747e-02
      7.5399170993933982e-03 -3.1151974577939435e-02
      -6.3956206878992101e-03 -2.3824303359421720e-02
      5.0244556083882685e-01 1.8732512503778886e-02
      1.1148878929550561e-02 -2.1509818310298783e-02
      -8.8516620829919240e-04 -1.2439284688319582e-01
      -2.9063694295682820e-02 -2.2695359420568093e-02
      -1.5742624886241178e-02 -3.4676522281933360e-02
      -5.2834379574608473e-02 -3.9917816567306391e-02
      -8.0857128722705077e-03 -4.2445096057169389e-03
      4.6828454980198796e-02 1.3158328662765037e-01
      -2.4065258198225350e-03 -3.2476608929113360e-02
      -4.1637908438867367e-02 -1.0039462651655636e-02
      7.8609830747400494e-02 3.7644689224907344e-03
      -2.6441156835987556e-03 7.6787461344773350e-02
      2.5458804321403194e-01 2.5541646915378229e-02
      -1.2162536764400584e-02 6.7361407722712874e-02
      1.4389944415557248e-02 4.8505253137779911e-04
      -2.4374448859574194e-03 4.9776549937836791e-02
      5.3697090253738478e-01 -8.5622537673958415e-02
      -8.8526761184246405e-02 -4.4214757964273509e-02
      -3.6116158459768274e-02 -6.9452238270674318e-04
      2.7840794901407364e-02 1.2001313318808567e-01
      2.9388629253115521e-02 -5.7529776352226815e-02
      -2.4883717674622809e-02 -5.4218501142585841e-02
      -1.2193109860652510e-02 -2.9531898120099681e-01
      1.2105395491490022e-01 -2.3693372544857699e-01
      -1.4918261217407580e-02 -9.6880604503433720e-02
      -2.8570115960606036e-02 4.7120518186278812e-02
      -2.4586374521875405e-02 -7.8327170844965113e-02
      -9.2308123574920669e-03 1.0272009236959935e-01
      6.6292994032584751e-01 -1.2808642878608123e-01
      -4.1733467772207739e-02 -8.9729544535855410e-02
      -4.3314452501145372e-02 -4.3176195249737911e-02
      -5.2405243383585834e-02 1.7844986295655271e-01
      5.0391479891529423e-01 -1.9541347769014714e-02
      -7.3244532198110529e-02 -2.8591794185659231e-02
      -1.7546314720344951e-02 -1.0335427369527848e-01
      1.0962095156823555e-01 3.1303381114844084e-02
      2.3584694690625373e-02 -1.6434631453961797e-02
      -5.6785038205842521e-03 1.0732377760697614e-02
      -1.4951034604423633e-01 -1.0161704140998533e-01
      9.7373104284355638e-02 5.2728837677739400e-02
      -3.2738032876108887e-02 -4.4292734458633319e-02
      -1.0496448326426421e-01 2.8348543987435235e-02
      7.9073775149910056e-02 -6.7205920850237369e-02
      3.4366120011974755e-02 2.4946878076910911e-01
      4.7469000845085857e-01 -2.8449822215381025e-02
      -1.6167460717723518e-02 -4.4466842556808037e-02
      4.0424706359877133e-02 -1.9878605988745902e-02
      -4.4318755016188260e-02 1.8657358883455827e-01
      -1.4067424189105415e-01 2.2066590736686173e-01
      -1.6814881896315001e-01 -3.8322936508597215e-02
      -7.3116655933827310e-02 -1.6500250642279587e-01
      3.2006880201752663e-01 1.6981702229881213e-01
      8.7877909100748483e-02 -1.6577738423556221e-01
      2.7515643473613771e-01 2.0148304901912070e-01
      -7.1949600058316493e-02 -1.0716058833779890e-01
      -1.7710497464217992e-01 6.5532438765535161e-02
      -4.4054651830249474e-02 -1.4598979711137333e-01
      1.9497417664787769e-02 6.9268907625654894e-02
      3.0550002610639165e-01 -9.9642889631077439e-02
      1.7890378576886565e-01 -9.2280324634004068e-02
      1.8790548278966179e-01 1.3888703709500200e-02
      -2.1566815344613046e-02 -3.2051416112396441e-01
      -1.9434945647492241e-01 -6.0487744363866378e-02
      -9.4909139602463596e-02 3.1521793521661345e-01
      3.8364291241969203e-02 -1.9221928820132800e-01
      -5.2800010652518804e-02 4.0294900454430002e-03
      1.2898433475538805e-02 -2.7214923406624261e-02
      1.0316321777419923e-01 -1.0204965293339400e-02
      2.2341578541758160e-02 -3.7554777365458140e-02
      1.0055408337179025e-01 -2.3111494015932468e-01
      2.9424124999068126e-02 -2.1476068977480386e-01
      -9.3214973357750391e-02 -2.0931621101867148e-01
      -2.7907576983205739e-02 -6.4376165389307557e-02
      -8.7902054897896542e-02 -2.5030351582621131e-02
      -8.4969822365985936e-02 -2.5991504842771160e-02
      -8.6973219450528161e-02 2.1197650202977458e-01
      -1.3508208998962309e-02 3.7462612471151666e-02
      -1.4764771728547985e-02 9.0795030977479912e-03
      3.6744317626928813e-02 -1.4636886315659028e-02
      -3.4264432700062256e-02 1.4522148264270862e-01
      -8.2765199133791365e-02 -1.4395421605792741e-01
      -4.0012180064845594e-03 1.0541627167149188e-02
      9.3384123391262747e-03 -2.1769586901042934e-01
      -8.2418195255306876e-03 -1.8168047883350491e-01
      -5.4043645343864286e-02 -1.3505486311669490e-01
      1.9356627409388685e-01 -2.5551974420468809e-01
      8.0766419118600691e-02 -9.9880834881518971e-02
      -3.2131436272996244e-01 -1.5518643278572901e-02
      1.3556414961684157e-02 6.6389321128496062e-02
      -2.7726311515760682e-01 -1.3207990344352077e-01
      1.0786345524719491e-01 9.6351035338338616e-03
      -9.9675781294510712e-02 1.6551189269874581e-01
      6.6179373729262567e-02 1.4449398654189158e-01
      5.9493111040214583e-02 1.5474217829437786e-01
      -1.3434293486327045e-01 4.7546551471004825e-02
      1.1885342479207562e-03 4.5617361958958560e-02
      -3.9171526244133920e-01 2.7446921973159843e-02
      -1.9896555549410000e-02 -3.9019977178007384e-02
      2.1581595471280489e-02 1.5121226799023156e-02
      -6.5310233933075657e-03 1.1525962797978826e-02
      -7.1761205069900040e-03 -1.2524060888011737e-01
      2.6306675587325268e-01 -2.7227265725755002e-02
      3.0118438273391553e-02 -6.6168242063394722e-02
      -1.8151367778206065e-01 1.5323578926077218e-02
      -1.5900175534727303e-02 3.2961285135820910e-02
      -1.5559361621380605e-01 -1.5145335131494556e-02
      1.7731157749967440e-02 3.0382365247752684e-02
      -2.7381595873697186e-02 -1.4361870557655843e-01
      -4.6392380642605743e-02 7.3462357610936210e-02
      1.6364711778109893e-02 -6.6449577343266564e-02
      -2.4344527804971403e-01 -7.8105910076202850e-03
      -1.0038698876196765e-02 -3.8136359941582175e-02
      -4.0997744921175511e-01 4.4476642250341231e-02
      7.8105458363513139e-02 -3.9819585533345726e-02
      2.4922048633074508e-02 1.2636991943989531e-01
      -1.7336500494058879e-01 -9.6133398217022159e-02
      -2.3271107911249179e-02 -1.5042671448696761e-02
      -4.6682215864203243e-02 -1.2823804718272970e-02
      5.4888025529223734e-02 1.3449938989361199e-01
      -4.0282823102939104e-02 1.1323564414717965e-01
      -1.5895061878776019e-02 5.6470436763909872e-02
      -1.1303629743931866e-01 -5.6221684733388802e-02
      -1.9120757887724987e-01 5.2057627861806155e-03
      -1.1800596755131064e-02 -2.1067376084650494e-01
      -2.6194853648654828e-02 6.0489493094935641e-02
      9.4005786791208027e-03 9.7531120121754800e-02
      -3.0823558957635194e-02 -5.6693257268852684e-03
      4.9365256096821880e-02 -2.0423276190245973e-01
      -5.4608413995763938e-01 1.3577859279787260e-01
      1.2249282858908979e-01 -2.1257080187323238e-02
      3.2111158801656506e-02 -4.8120175560923380e-03
      -1.5637026238271634e-01 -1.3586403003096023e-01
      -3.0827215820701376e-02 -7.9332444573890180e-03
      -8.7179463949098646e-02 7.1883836424250711e-02
      6.0022948830708696e-02 2.4045246146909707e-01
      2.3188563622180861e-02 2.4507004350219203e-01
      5.5569441707462395e-03 4.8318187643894353e-02
      -2.8589566460391312e-02 -8.1905156662723744e-02
      -2.2677331470431408e-02 1.5611642262468077e-02
      -4.2755444315629623e-02 -2.1509539615678377e-01
      1.1434664629320307e-01 8.5833285179153895e-02
      4.2846803819520121e-02 1.5945367559206666e-01
      5.3730450052116845e-02 2.3272799363527316e-02
      7.3686718033703386e-02 -1.6981030023739560e-01
      -5.3399007763941142e-01 -1.5245116123010025e-01
      6.8718501714593483e-02 9.8023714920428984e-03
      1.0373449005715421e-02 4.5428253691345316e-02
