<?xml version="1.0"?>
<opencv_storage>
<OCR type_id="opencv-ml-ann-mlp">
  <layer_sizes type_id="opencv-matrix">
    <rows>1</rows>
    <cols>3</cols>
    <dt>i</dt>
    <data>
      256 32 2</data></layer_sizes>
  <activation_function>SIGMOID_SYM</activation_function>
  <f_param1>5.9999999999999998e-01</f_param1>
  <f_param2>1.</f_param2>
  <min_val>-9.4999999999999996e-01</min_val>
  <max_val>9.4999999999999996e-01</max_val>
  <min_val1>-9.7999999999999998e-01</min_val1>
  <max_val1>9.7999999999999998e-01</max_val1>
  <training_params>
    <train_method>BACKPROP</train_method>
    <dw_scale>1.0000000000000001e-01</dw_scale>
    <moment_scale>1.0000000000000001e-01</moment_scale>
    <term_criteria><epsilon>9.9999999747524271e-07</epsilon>
      <iterations>1000</iterations></term_criteria></training_params>
  <input_scale>
    6.6403865761031104e+00 -6.4862134190713494e+00
    3.6303622311248440e+00 -3.3300680691977220e+00
    3.2863261853136985e+00 -2.9469978019162788e+00
    3.2102136530524090e+00 -2.8606417422338577e+00
    2.9968826768958228e+00 -2.6143832924802739e+00
    2.7325936581620809e+00 -2.2973000649276756e+00
    2.4820395185791058e+00 -1.9759551598160887e+00
    2.3102326454855411e+00 -1.7332977121585667e+00
    2.2648488991069451e+00 -1.6638236723102293e+00
    2.2860308082535679e+00 -1.6966255684763150e+00
    2.4303785717555093e+00 -1.9056130691529884e+00
    2.6368718163750211e+00 -2.1776641921715902e+00
    2.9049948847542084e+00 -2.5059436062184415e+00
    3.1461156534602241e+00 -2.7873522417040357e+00
    3.3066455967808945e+00 -2.9699382607322882e+00
    3.7472425045014357e+00 -3.4580632981727355e+00
    3.6938381178327768e+00 -3.3996939975950746e+00
    2.7411997617169441e+00 -2.3079066787689841e+00
    2.3781189258204112e+00 -1.8323808494164420e+00
    2.1562586978003955e+00 -1.4810721400752778e+00
    2.0493133149383387e+00 -1.2480873306004348e+00
    2.0166226019560169e+00 -1.1375075845157487e+00
    2.0050765300189153e+00 -1.0738332354363644e+00
    2.0009411035405282e+00 -1.0311515713018393e+00
    2.0002188911941277e+00 -1.0149048223231329e+00
    2.0003460320863526e+00 -1.0187757583384391e+00
    2.0039329737550520e+00 -1.0647107362211241e+00
    2.0135481595833715e+00 -1.1233675947931456e+00
    2.0458030778830905e+00 -1.2381399146299470e+00
    2.1609789511874378e+00 -1.4897051972721382e+00
    2.3984609345287096e+00 -1.8611622716181591e+00
    2.7694092754414537e+00 -2.3425182593221785e+00
    3.2564321300151287e+00 -2.9131625830964367e+00
    2.3745452909326286e+00 -1.8272854068020399e+00
    2.0851753900923282e+00 -1.3375268444679953e+00
    2.0062821868120082e+00 -1.0824635573099541e+00
    2.0001083320094737e+00 -9.8964575866115911e-01
    2.0017812519309333e+00 -9.5867634940476032e-01
    2.0033701713657082e+00 -9.4360745763670661e-01
    2.0053974501331409e+00 -9.2918183414940780e-01
    2.0055251337263691e+00 -9.2838000504899021e-01
    2.0045837351167850e+00 -9.3454979958220596e-01
    2.0026269965082437e+00 -9.5004243637797825e-01
    2.0006127987978557e+00 -9.7554973002585932e-01
    2.0000654068882957e+00 -1.0081202220877701e+00
    2.0069826154331478e+00 -1.0871262565281785e+00
    2.0921842390789309e+00 -1.3531893721526582e+00
    2.3810414270551270e+00 -1.8365389557918039e+00
    3.1048776996761847e+00 -2.7399010102822134e+00
    2.1621347032075966e+00 -1.4918064643063147e+00
    2.0076181734847274e+00 -1.0911743122416324e+00
    2.0003264526328257e+00 -9.8209448879393624e-01
    2.0008588930376909e+00 -9.7111942328440692e-01
    2.0001359919011579e+00 -9.8840624116807230e-01
    2.0003644073391844e+00 -1.0192725294227567e+00
    2.0009184371574040e+00 -1.0307684257459468e+00
    2.0015080643181093e+00 -1.0395951557602849e+00
    2.0011878012580939e+00 -1.0350635100850734e+00
    2.0008278645179791e+00 -1.0291895444661026e+00
    2.0000115578121984e+00 -1.0034054620669679e+00
    2.0008198641755635e+00 -9.7177372738324430e-01
    2.0003374491676231e+00 -9.8179816020467170e-01
    2.0076672824244075e+00 -1.0914805420664342e+00
    2.1686825202326561e+00 -1.5036215582352190e+00
    2.8515886335860863e+00 -2.4421059982172704e+00
    2.0492045066228317e+00 -1.2477832952724903e+00
    2.0002007397307291e+00 -1.0142689902935784e+00
    2.0004348849871314e+00 -9.7936241268372703e-01
    2.0021955249504302e+00 -1.0479670491444439e+00
    2.0101665390521806e+00 -1.1060405807088642e+00
    2.0142033461855147e+00 -1.1264908683586239e+00
    2.0124110281868259e+00 -1.1177830055152467e+00
    2.0133568893838070e+00 -1.1224432537113553e+00
    2.0173126685323886e+00 -1.1405183858781593e+00
    2.0183751337528060e+00 -1.1450534755434205e+00
    2.0100956653199891e+00 -1.1056517388195093e+00
    2.0007662366453509e+00 -1.0280667493164630e+00
    2.0011638976124693e+00 -9.6646104206444050e-01
    2.0000109352800557e+00 -1.0033123256579823e+00
    2.0583830759988291e+00 -1.2725744089858513e+00
    2.6453882366760086e+00 -2.1884421941002037e+00
    2.0181510727392058e+00 -1.1441067849737756e+00
    2.0000808660764862e+00 -9.9104778541273242e-01
    2.0006013557417051e+00 -1.0248250769233687e+00
    2.0144290661208082e+00 -1.1275520401315067e+00
    2.0301118245123071e+00 -1.1892354317358340e+00
    2.0250989494398222e+00 -1.1714722193336635e+00
    2.0134332293879060e+00 -1.1228128777727160e+00
    2.0115816415466834e+00 -1.1135645427648926e+00
    2.0168550993958787e+00 -1.1385279839392968e+00
    2.0262933097892657e+00 -1.1758308407400448e+00
    2.0230719310065175e+00 -1.1638678712440118e+00
    2.0057141955305178e+00 -1.0785033702323001e+00
    2.0005105459104877e+00 -9.7765856800143680e-01
    2.0008835751838268e+00 -9.7071351216088830e-01
    2.0251746313616072e+00 -1.1717509794915346e+00
    2.4506249307610695e+00 -1.9334018932192250e+00
    2.0065442281131323e+00 -1.0842346661626567e+00
    2.0011324050174006e+00 -9.6691021340302385e-01
    2.0016239571352150e+00 -1.0411185096067461e+00
    2.0214743794666985e+00 -1.1576714155286634e+00
    2.0308579991168898e+00 -1.1917697298060663e+00
    2.0181446920112935e+00 -1.1440797512593581e+00
    2.0038805276540992e+00 -1.0642643544968506e+00
    2.0001301026190466e+00 -1.0114714903121023e+00
    2.0025465078827889e+00 -1.0517522501515859e+00
    2.0124635149103196e+00 -1.1180456640647563e+00
    2.0154616965797918e+00 -1.1323160103079832e+00
    2.0067808597610739e+00 -1.0858061733756268e+00
    2.0000073088803241e+00 -9.9730015787481352e-01
    2.0023485393552840e+00 -9.5269831414750561e-01
    2.0118565394090595e+00 -1.1149772669064724e+00
    2.3248245429414740e+00 -1.7550354982056993e+00
    2.0017734096901418e+00 -1.0430079101415037e+00
    2.0028535937782710e+00 -9.4798870628296117e-01
    2.0016863812592609e+00 -1.0419174189205975e+00
    2.0156856645062442e+00 -1.1333305787624712e+00
    2.0156442820252063e+00 -1.1331435993317083e+00
    2.0018969167880480e+00 -1.0445123925755635e+00
    2.0038053990265210e+00 -9.4018544672314730e-01
    2.0124477569408046e+00 -8.9448089835970757e-01
    2.0038660223123652e+00 -9.3972562538491455e-01
    2.0010226165632523e+00 -1.0324937722175300e+00
    2.0060655391600846e+00 -1.0809733678033706e+00
    2.0062895983507003e+00 -1.0825141138539685e+00
    2.0002093812222768e+00 -1.0145750804607883e+00
    2.0037795655270880e+00 -9.4038257338137876e-01
    2.0053666203931990e+00 -1.0759896574443661e+00
    2.3135769382508462e+00 -1.7383033548347573e+00
    2.0019499526162985e+00 -1.0451440061265618e+00
    2.0034381275610502e+00 -9.4305832101902010e-01
    2.0013533862462438e+00 -1.0374713144668264e+00
    2.0107086103733609e+00 -1.1089751474791127e+00
    2.0096250446760640e+00 -1.1030377993664930e+00
    2.0000015413621335e+00 -1.0012422869827768e+00
    2.0118258317772026e+00 -8.9700564179036446e-01
    2.0210102658391902e+00 -8.6517577024002923e-01
    2.0136250599499004e+00 -8.8988746630355409e-01
    2.0002356856164076e+00 -9.8476533476115091e-01
    2.0045113813266489e+00 -1.0694603740344835e+00
    2.0059676803785571e+00 -1.0802922076589934e+00
    2.0001459101859949e+00 -1.0121525042750106e+00
    2.0054593777455492e+00 -9.2879168141455704e-01
    2.0022947293755924e+00 -1.0490644370244808e+00
    2.3739176710833290e+00 -1.8263892674655948e+00
    2.0049443814324581e+00 -1.0728319317575061e+00
    2.0028188793250643e+00 -9.4829761569435400e-01
    2.0011496723558611e+00 -1.0344865272665855e+00
    2.0135426752800849e+00 -1.1233411720463775e+00
    2.0144914611284941e+00 -1.1278440793916817e+00
    2.0044551621706659e+00 -1.0690117430412773e+00
    2.0011183746226164e+00 -9.6711240401208121e-01
    2.0073308944555124e+00 -9.1796638096159555e-01
    2.0022969589429325e+00 -9.5320812123304033e-01
    2.0016370998777022e+00 -1.0412879198586389e+00
    2.0104621747798950e+00 -1.1076495381455445e+00
    2.0088147328679549e+00 -1.0983975667042103e+00
    2.0000903095849938e+00 -1.0095483976047619e+00
    2.0056297704478441e+00 -9.2773030607035745e-01
    2.0006162527744378e+00 -1.0251344776356062e+00
    2.5677310281343062e+00 -2.0890429219785496e+00
    2.0131940578950687e+00 -1.1216517058885582e+00
    2.0006383536891232e+00 -9.7505149861760088e-01
    2.0006608445284684e+00 -1.0260394422249612e+00
    2.0159769266345391e+00 -1.1346405149418297e+00
    2.0267683286942932e+00 -1.1775409934757712e+00
    2.0205378427163945e+00 -1.1539466630660051e+00
    2.0048854894303347e+00 -1.0723816926060104e+00
    2.0005115957392388e+00 -1.0228757265120503e+00
    2.0038950603941341e+00 -1.0643883283021716e+00
    2.0166469965025313e+00 -1.1376149408361091e+00
    2.0246249175920412e+00 -1.1697180312311946e+00
    2.0130753014636764e+00 -1.1210716733660222e+00
    2.0001381657886954e+00 -1.0118236803413743e+00
    2.0030637934875202e+00 -9.4615915800750650e-01
    2.0036517287831410e+00 -1.0622829778185074e+00
    2.7913229074578263e+00 -2.3692480669404463e+00
    2.0288762397109732e+00 -1.1849804870723588e+00
    2.0000269005052038e+00 -9.9482686311721980e-01
    2.0000779706828542e+00 -1.0088691723559289e+00
    2.0113751315415480e+00 -1.1124933706034001e+00
    2.0311965373809193e+00 -1.1929111090801487e+00
    2.0307905282621279e+00 -1.1915416305988198e+00
    2.0180618487443427e+00 -1.1437283866324466e+00
    2.0111457044403309e+00 -1.1112930542735033e+00
    2.0128341110985049e+00 -1.1198863892937796e+00
    2.0261385456208605e+00 -1.1752708495988635e+00
    2.0286162129996996e+00 -1.1840754028537437e+00
    2.0103998274235573e+00 -1.1073119430039597e+00
    2.0000034897114372e+00 -1.0018698226061598e+00
    2.0007344285739723e+00 -9.7326438380186564e-01
    2.0139906123965496e+00 -1.1254838993427514e+00
    2.9794023097854150e+00 -2.5938793700774965e+00
    2.0627805920777091e+00 -1.2839094888997453e+00
    2.0004368238258374e+00 -1.0211198838611135e+00
    2.0002428665784961e+00 -9.8453678300314884e-01
    2.0026103223491702e+00 -1.0524131428884216e+00
    2.0123377379825138e+00 -1.1174154101830849e+00
    2.0195368211212013e+00 -1.1498835166915309e+00
    2.0166104116392445e+00 -1.1374539111284672e+00
    2.0125424584620806e+00 -1.1184397933573107e+00
    2.0122907406194614e+00 -1.1171791768539769e+00
    2.0144801062450841e+00 -1.1277909743728642e+00
    2.0104813969465338e+00 -1.1077534384962586e+00
    2.0019561193944688e+00 -1.0452169113464398e+00
    2.0006740437765931e+00 -9.7437248144664057e-01
    2.0000898690213962e+00 -1.0095249682926235e+00
    2.0477699956610556e+00 -1.2437497034620133e+00
    3.1718793920246213e+00 -2.8168762172787898e+00
    2.1670632840383126e+00 -1.5007136397811991e+00
    2.0085917489793848e+00 -1.0970870568133151e+00
    2.0000149289738647e+00 -9.9614365424531082e-01
    2.0000796187290271e+00 -9.9111678780158141e-01
    2.0003878167999187e+00 -1.0198879278065236e+00
    2.0014793166192870e+00 -1.0392086550953934e+00
    2.0017093739323126e+00 -1.0422080957993232e+00
    2.0016052740057919e+00 -1.0408765466193837e+00
    2.0011830010395335e+00 -1.0349913684322813e+00
    2.0004053849422214e+00 -1.0203378861989911e+00
    2.0000243176951007e+00 -9.9508084635105787e-01
    2.0009945801023585e+00 -9.6895640547649631e-01
    2.0003231057568125e+00 -9.8218568416101171e-01
    2.0071043222206568e+00 -1.0879141197718625e+00
    2.1517164827596216e+00 -1.4726843437784045e+00
    3.2443397468118262e+00 -2.8994463110597817e+00
    2.3729570725972753e+00 -1.8250169588679908e+00
    2.0884862687156520e+00 -1.3449817644894686e+00
    2.0077866250417684e+00 -1.0922210144277806e+00
    2.0001338352566012e+00 -1.0116358300478099e+00
    2.0003599891287047e+00 -9.8120576133220383e-01
    2.0019213036075896e+00 -9.5711744868771509e-01
    2.0036573633299648e+00 -9.4132490156326820e-01
    2.0047913580675329e+00 -9.3313459800289011e-01
    2.0048789678934513e+00 -9.3254728856428237e-01
    2.0031546863574627e+00 -9.4538860436955152e-01
    2.0011245995287488e+00 -9.6702253664991966e-01
    2.0000002489279258e+00 -1.0004990512534500e+00
    2.0069943468303588e+00 -1.0872024722453904e+00
    2.0874397804195173e+00 -1.3426366164387713e+00
    2.3704611071196320e+00 -1.8214470773091662e+00
    3.5977457913469162e+00 -3.2941801198881384e+00
    2.7373699980887500e+00 -2.3031894809004552e+00
    2.3771490608651038e+00 -1.8309991675636019e+00
    2.1528705172507530e+00 -1.4748230922898613e+00
    2.0461487220471519e+00 -1.2391325665696697e+00
    2.0141584225150329e+00 -1.1262787823434122e+00
    2.0039125358504388e+00 -1.0645371183080174e+00
    2.0003298167665982e+00 -1.0183265151782155e+00
    2.0002107268529690e+00 -1.0146221796897150e+00
    2.0010465291697646e+00 -1.0328775993113204e+00
    2.0066887544141601e+00 -1.0851975339761579e+00
    2.0185167045334591e+00 -1.1456490470378684e+00
    2.0537869635542130e+00 -1.2603677264301480e+00
    2.1605137709622295e+00 -1.4888580830189562e+00
    2.3942391803258491e+00 -1.8552193646286577e+00
    2.7666872026792890e+00 -2.3391885256695994e+00</input_scale>
  <output_scale>
    5.2631578947368418e-01 4.9999999999999994e-01 5.2631578947368418e-01
    4.9999999999999994e-01</output_scale>
  <inv_output_scale>
    1.8999999999999999e+00 -9.4999999999999996e-01
    1.8999999999999999e+00 -9.4999999999999996e-01</inv_output_scale>
  <weights>
    <_>
      -7.1430411753901246e-02 -1.8956284808505783e-01
      -1.2864741314837492e-02 4.1367015741316543e-02
      2.2996545619679377e-02 1.1203728950687140e-01
      1.8560778782387077e-01 1.3304326366839661e-02
      -4.0621869660712663e-02 -4.7407067221078278e-02
      -1.7943031350809550e-02 -1.1058464372843387e-01
      3.0606546555159972e-02 8.8647706320551967e-02
      -6.2584400243110128e-02 -2.5894738966241704e-01
      -2.4106731015088735e-02 3.8267846477212007e-02
      -2.4043183088950035e-01 -5.2000979885102099e-02
      -1.2871393808051785e-02 7.1546607536807126e-03
      -3.1503618211547110e-02 2.0873476420858803e-01
      -2.6020857167222278e-01 1.2794215511600515e-01
      -8.1284045868852770e-03 3.7817510265651763e-02
      7.3966473265549532e-02 2.4883940645313955e-02
      -6.8345554229935587e-02 -1.2175133171908259e-01
      3.4547164545027431e-01 -1.7368786146849893e-01
      8.1962071487605884e-02 1.8899222863402748e-01
      3.1988112200185020e-02 -1.2280361069082225e-01
      -5.8927815157861552e-02 2.4424527226431819e-02
      -5.0014309817179858e-02 1.5431244334130909e-01
      -2.2426523582569982e-01 -1.3537136785274828e-01
      6.5574986437237581e-02 1.8838072614348700e-01
      -3.3555785242066746e-02 8.8440088220392687e-03
      -1.0272023314551618e-01 6.1712080076322798e-02
      -6.0376432955057124e-02 -6.8551151119312093e-02
      1.0167995764423664e-01 7.7257662764398466e-02
      -3.4858846082844334e-02 9.7459695785132219e-03
      -6.9779677459731286e-03 1.7789344713473831e-01
      -1.4951098340038405e-02 1.2489329511823768e-01
      8.5640253004564737e-02 1.2495351003872382e-01
      -1.1786012646783167e-01 -7.0130776967854996e-02
      -2.8095222939601306e-02 -3.2642655546924512e-02
      -1.3738497238016817e-01 5.8136389542380811e-02
      4.3207662146152884e-03 -3.2538679291369561e-02
      -4.7057396729659945e-02 -5.2307082236824100e-03
      3.0846685531330993e-03 5.8745611523584547e-02
      -2.1349844952902772e-01 -1.2165721203211753e-01
      -1.1013433096435073e-02 -2.6931506576809823e-02
      -1.1360451693382756e-01 8.0515031817615226e-02
      -2.3675329809637564e-02 6.3969224999178851e-03
      -8.5193329807378530e-03 4.0952866799234017e-02
      1.7337970858767807e-01 2.1213037608420397e-03
      9.6424958965620408e-02 -5.5091026810625006e-02
      1.1970012454038431e-01 8.2723851168032228e-02
      -6.7061625570405698e-03 7.8436462507110102e-02
      -3.8119803586630502e-03 -4.4971236282374212e-02
      -8.4118032236690898e-02 4.5775862046573523e-02
      -1.8563504990622806e-01 -4.9081226879298901e-03
      -1.8420904695565773e-01 -3.2320267159984675e-05
      1.7754389114482409e-02 -2.4381644000975287e-02
      1.7120905146441751e-01 -5.0976385784725541e-02
      3.9851813442913740e-02 -1.0953667240577550e-01
      -2.9307233057150101e-01 -2.5933606270250414e-01
      -7.7434461793603498e-02 7.1729206015061810e-03
      -1.9484913006565344e-01 1.3010597250214501e-01
      1.9172619675643082e-02 -6.9505432598983789e-03
      -1.5016521312415895e-01 3.6606573094239730e-02
      1.9564580617343799e-01 -4.0563361209058076e-02
      1.2653824604323541e-01 1.8809117436899619e-01
      6.9442144726503521e-02 1.2928526812141803e-02
      3.3784193089009283e-02 1.8930870307623157e-01
      -5.1553854843456792e-03 -6.3924321164868625e-02
      -2.0085961778059622e-01 -8.4959093628132171e-02
      -1.5708699761391598e-01 6.2493238879066285e-02
      -2.0768040066283550e-01 -4.3257149670808979e-02
      -1.2632974644836667e-02 -3.7823593165925727e-02
      1.8214714056449047e-02 -6.6601440643130866e-02
      5.1038601709960649e-02 -3.3018275885105509e-02
      -1.2019707455285629e-01 -1.8449544844065693e-01
      -1.9100098455140446e-02 -6.4563044287289151e-02
      -1.2354846529346501e-01 1.0133697323758281e-01
      3.7731562056104409e-02 -3.9759894730071264e-02
      1.4563868492480680e-04 6.8865282672128603e-02
      1.3815334728951892e-01 -1.6473113238063782e-02
      7.7096303462403967e-02 -3.7281360296234946e-02
      -2.4330621602287838e-02 -3.3671641967494004e-02
      5.3209482965541760e-02 4.6619620600335525e-02
      -5.0956729383135224e-02 -1.1819030220759566e-01
      -2.0940914803052810e-01 -5.7024895478320986e-02
      2.3538331346276618e-02 1.5128103241968008e-01
      -1.1796723750037709e-01 -1.0064350227088710e-01
      -2.2443530338171751e-02 8.0233173065001866e-03
      5.5206668295869420e-02 1.4603446090896286e-02
      1.0418463519004395e-01 -5.7033918840365627e-02
      -1.6789481577887008e-01 -7.6304248538131711e-02
      -5.8060416297644787e-02 -1.5782725568580172e-01
      -8.5899910079989525e-02 9.7168114141705217e-02
      9.8871344533923336e-02 -1.2327715527961984e-01
      -8.6948686049169322e-03 1.0763112593999341e-01
      1.8708931366720280e-01 -8.4966176466151136e-02
      1.5537190920776478e-01 -9.5806865584522546e-03
      4.0415017640983326e-02 -9.9001097939044977e-02
      -1.7978738231268264e-03 2.0472223671144912e-02
      -1.1287310639038113e-01 -1.7219007199320302e-01
      -1.3022544713652834e-01 1.1460481603675474e-01
      2.7747348381511178e-01 1.2285390117319982e-01
      -5.8578942780633060e-02 -1.3937670012074019e-01
      -1.7605792652771526e-02 8.5857817060076141e-02
      -4.4466535353264822e-02 7.9976610637915054e-04
      8.4922320450676630e-02 4.1199045415446688e-02
      2.5583921040116968e-02 1.2303830064371725e-02
      -7.4670728715907117e-02 -1.4515503961381318e-01
      -3.8901804998220275e-02 7.8765269447373387e-02
      1.2687986188704739e-01 -1.2304682657062672e-01
      1.0089413682522409e-01 9.6514788659262954e-02
      7.9054928926942603e-02 -1.2773233995258729e-01
      1.7276339912525243e-01 -1.2247490045940193e-01
      -1.5608925754572989e-01 -1.5488035398009672e-01
      -1.3825488012666031e-04 -8.0393428405148584e-02
      -7.4121499315834047e-02 -1.8871113620330937e-01
      -1.3812182986458188e-01 1.2715167017162310e-01
      2.7853742292772649e-01 3.6414336534328823e-01
      -8.5035316721010501e-02 -2.1912348934688883e-01
      -1.9420987195418626e-02 5.8988911274974444e-02
      6.3695745078252278e-02 -3.0348600740089798e-02
      7.1905485941316252e-02 4.3930351309513248e-02
      -7.8306822670343473e-02 3.1207381749557325e-02
      -2.0130853376258615e-02 -2.2165972996157959e-01
      -2.2571980933033464e-01 2.0411597304107121e-01
      1.4259334606538590e-01 -1.2523186766264230e-01
      1.9319047053187929e-01 -2.8420686709618257e-03
      3.1443152697781301e-01 -1.2201949438697876e-01
      1.8879114575160505e-01 -6.4753702974251398e-02
      -7.6906854714832315e-02 -7.8035283667343275e-02
      8.3959482123638404e-03 -1.5898456003969802e-01
      -1.2392945808382116e-01 -3.0225833248154316e-01
      -1.5721226843453084e-01 2.6847935751922958e-01
      1.8675365010232628e-01 2.6584938939870201e-01
      -2.5055430063946310e-01 -2.5042858526617828e-01
      -3.4799823812492178e-02 7.4023054615897185e-02
      2.7050980296670746e-01 -2.8228045284329126e-02
      8.0109522292095323e-02 -1.8034245423737723e-02
      -3.3897378092631864e-01 -1.6081511722144298e-01
      -4.4266945687474954e-02 -3.3363870179257654e-01
      -1.7094480795188333e-01 2.0946228357500749e-01
      1.7019976727526512e-01 -1.9163455110753000e-01
      3.1064558698612559e-02 -8.4392845034297836e-02
      4.9426156409776167e-01 -2.6547118290793170e-01
      2.5622238014003845e-01 1.1969847817462863e-01
      -1.0524310284239793e-01 -1.0736759782789983e-01
      -1.6681845849526908e-02 -1.2690181484262675e-01
      -1.3734162158593030e-01 -5.0494703974133870e-01
      -4.2020135296803496e-01 1.6725293082029566e-01
      8.3565797376032452e-03 2.8040537581944081e-01
      -8.8050559297624675e-02 -2.6269378422711670e-01
      -7.5653457135264571e-02 -2.4430763349829267e-02
      1.2603916186622052e-01 -2.5833647034649614e-02
      4.9828634423266155e-02 1.0983448505490585e-02
      -2.0984448219481383e-01 -1.4098826431002737e-02
      -7.0633271311260057e-02 -3.5554054466064644e-01
      -4.1938079899228278e-02 6.5792389456228895e-02
      1.5666519984682944e-01 -1.6071596239075844e-01
      1.5643403791621160e-01 -3.0751717498239111e-02
      4.0148796409861487e-01 -2.9941857576442876e-01
      2.1124613038900733e-01 -5.4330680137068758e-02
      -7.5369947070114893e-02 -1.0636059335856392e-01
      -2.1645822363605828e-02 -2.3583172942024172e-01
      -1.4690350309051270e-01 -4.3557559668133300e-01
      -3.2478748560206488e-01 1.8510283778462289e-01
      7.9825476362828732e-02 1.2877622951966514e-01
      -2.4487795065488246e-02 -1.1506773504722295e-01
      -3.3583632465118460e-02 -5.7058699706186669e-02
      1.5406398175917702e-01 -1.7190019218867477e-02
      2.2614908515426458e-02 -2.0284422482726744e-02
      -9.9391570898076948e-03 4.3627710599973030e-02
      -7.6697386979421023e-02 -1.5337908017106575e-01
      6.9790353281005135e-02 -2.2132485902028393e-02
      8.3074353694210248e-02 -7.0529674986119492e-02
      9.9936879150800476e-02 -3.9516167901288146e-03
      1.0071867110700003e-01 -1.6348150077345416e-01
      5.6895693583665329e-02 7.6935612460990704e-02
      -1.0387433239515959e-01 -5.1648921513708541e-02
      6.7193586778741751e-03 -1.7310809109020395e-01
      -4.2826434670717693e-02 -1.8869105682779094e-01
      -1.0779859973528021e-01 9.9856369914087584e-02
      2.0856415086779681e-01 -7.9878507356122827e-02
      -2.6680030168671715e-01 6.7984971855545515e-02
      2.2848329115309426e-02 -1.8679890343135125e-01
      2.0549859303386375e-01 -1.1015446721256603e-02
      1.2438931316522440e-02 -8.9031880264099778e-02
      -1.0276631990759197e-01 -1.5180875698472274e-01
      3.5208771400703789e-02 7.4875170758704715e-02
      -1.3280364956451293e-01 -5.0881847245470763e-02
      -1.6150586128418111e-02 9.9793910480959723e-03
      -2.2327764387774349e-01 1.6893071856803863e-02
      6.6761280937769799e-02 5.6996454925760161e-03
      -6.7412935350309691e-02 2.5426164561258296e-01
      5.6062458420417793e-02 5.0223729339165184e-02
      2.5085281857669752e-02 1.3596706430111746e-01
      4.3223355430171903e-02 -1.2548213021223532e-02
      -9.8925427872365371e-03 -2.5199510590764588e-02
      3.0754819049915444e-01 -1.5374502716974428e-01
      -7.8474965133867355e-02 1.2030457873036694e-01
      3.8609814107272648e-02 -2.5124962831294112e-01
      6.6943212777970273e-02 -1.9755417517631400e-02
      6.1778010679606954e-03 -1.0368164481532638e-01
      -5.4079577902869151e-02 -1.2789449854675961e-01
      -4.8806477794922538e-03 1.1170679694657368e-01
      -1.6909842664564514e-01 4.1568646096443715e-02
      -7.0093336800620035e-02 6.1349195120378890e-02
      -2.0468241817413363e-01 5.3399313023496056e-02
      -3.9022517694250095e-02 9.2121921589544645e-02
      -5.9988012580409020e-02 1.2690923947213548e-01
      2.0281631644786063e-01 5.1909047504876474e-02
      4.3972595446763373e-02 2.1820037410438189e-01
      7.4114041392078514e-02 1.8559474569265652e-01
      7.3305103389747286e-02 -5.1926654950458662e-03
      1.5046286596156752e-01 -1.7309475625906046e-01
      5.8034272020496200e-02 1.6255420447430122e-01
      5.0732524436635618e-02 -1.0694439117243182e-01
      -7.3467008692547575e-02 2.7347625814428751e-02
      -2.4960391766671287e-02 -4.3592313144043909e-02
      7.3421551826490281e-02 -2.1881951996729113e-02
      5.1604239778263020e-02 1.3762783088866978e-01
      -8.0675724904353749e-03 -5.9769776156383708e-02
      -6.3629484150589763e-02 9.2043964880153595e-02
      -1.5553153922939947e-01 3.5292973185311508e-02
      -2.2222252899449016e-01 1.3831447244399778e-01
      -6.0940229275737813e-02 2.4762201532477469e-02
      1.1360648245759175e-01 4.8456519641547402e-02
      4.3640958839353981e-03 1.6525791310368756e-01
      4.9084275135867210e-02 2.8940037350777481e-01
      1.5528437683107443e-01 -1.0502677935882533e-01
      1.5492594760487052e-01 -2.0057120552534335e-01
      2.3477975714597207e-01 1.4248251407319565e-01
      3.3410617750800287e-02 -6.0711049031710956e-02
      -2.6331199485744300e-01 3.8507301537586615e-02
      -5.9537496949630994e-02 3.1934443470201933e-02
      1.7125560198691545e-01 2.1643220777063144e-01
      4.3232247277757804e-02 1.9240409150452259e-01
      1.7809158953893903e-01 -5.1856380040875026e-02
      -5.7364305156139682e-02 1.0333648076112054e-01
      -9.8814582819061331e-02 -4.4717634043504075e-02
      -2.5608042927216979e-01 8.6026104225511976e-02
      -1.2097648606136348e-01 -1.8934526537191665e-01
      3.0627019976073356e-02 1.6224500402246409e-02
      -2.4620804400481630e-02 3.6690145140286963e-02
      6.2780963551109473e-02 2.6836275048823366e-01
      3.0925006754806361e-01 -7.3595896962015725e-02
      1.2815789438017819e-01 -1.4216178377976002e-01
      1.2392007118796197e-01 9.2221598957979309e-02
      3.9407492988415033e-02 6.9614772121137534e-03
      -5.9319550416174968e-02 -8.7850849117883812e-03
      -6.7857150624645132e-02 -3.9159195157833972e-03
      1.7036174513530403e-01 7.9150260816521698e-02
      -2.6067432756404586e-02 1.9251705052820384e-01
      2.1013770874889598e-01 -8.8080194719879379e-02
      -8.1980537792821148e-02 6.6198425883661066e-02
      -1.6453806116536851e-01 -7.9161870863080228e-02
      -1.8272995224636862e-01 1.3680931033754992e-01
      -1.0662632318522509e-01 -3.4399281902002560e-02
      4.2385254713812416e-02 4.1381737236501757e-02
      1.5011621538583953e-02 -4.4137166007620708e-02
      7.3654008819698982e-02 1.5595795230121381e-01
      1.4935815357309007e-01 1.4785423796664979e-02
      1.4320234306428511e-01 2.2152376697196205e-02
      -1.5897342459814259e-01 -1.5539356097288862e-02
      2.8686727148152371e-02 7.1449242695611013e-03
      2.0013982230873967e-01 2.5091728311182771e-03
      -1.5999439762940378e-02 -5.9155873911500574e-02
      -2.1877812372774835e-01 -1.2861939050638274e-01
      -4.1814588494228197e-04 1.3964803368153669e-02
      -2.3188760729740066e-01 -1.3110822356976666e-02
      1.4980280491738855e-02 3.4558666204719285e-02
      -1.0611926124862629e-01 -4.5467873398729035e-02
      1.8259130300679610e-01 4.7910720809670765e-02
      -1.7920318648969244e-02 2.0914825779606008e-01
      9.6543055515361936e-02 2.1823006651403708e-02
      -1.8123714679635146e-03 1.5421594595530355e-01
      -1.4501238590739995e-02 1.4080788145160531e-02
      -1.7232863522512593e-02 -4.3048635392932563e-02
      1.1419501305479274e-01 -3.0369928289032774e-02
      -3.0323986776334072e-01 -4.5357327212703816e-02
      -3.1607448716793052e-02 -1.4026597547695408e-02
      1.9037658571438579e-02 -1.3334946014549404e-02
      -1.0223461841905711e-02 4.4732055663909091e-04
      1.9346000271306385e-01 -6.3908885923015163e-02
      2.1030498509317726e-03 -4.5269237360532448e-02
      -2.8906354323937171e-02 -1.8145451762723053e-01
      5.5314110635733334e-02 -2.0308431378140354e-02
      -4.0225572095049608e-02 3.7418931042711823e-02
      8.0242971547479659e-03 1.3804603631767980e-02
      2.9344642893460404e-02 -4.9395999018081997e-02
      -1.3190804158911001e-01 -1.2850260655922459e-02
      -1.2514552421447138e-02 -1.8045695700689535e-01
      6.0684867501233829e-02 -1.7775292160838332e-01
      -1.1346643294588381e-01 1.0853296898446858e-01
      1.0871044586942361e-01 8.2338187190742762e-02
      -7.9669246241805644e-02 -4.9566817237961386e-03
      -1.2100605110850473e-02 -5.8205409033576287e-02
      -1.6900989371983755e-01 -3.3149393687725896e-02
      1.4670946844151793e-02 3.5486541355785446e-02
      -2.5159136833977740e-02 3.6698752480473856e-02
      1.6128334343664345e-02 -3.7679213395177137e-02
      -2.2095911363554541e-01 -7.0936722049589184e-03
      4.8500048482699835e-02 -1.4026214795622860e-02
      6.6186907094432840e-02 4.9787200846820964e-02
      1.8727166016342994e-01 8.3258907748820207e-02
      6.7139067206126724e-02 -1.7243881531401806e-01
      -6.9973283828806340e-02 -2.7449851587456466e-02
      2.0150020423595549e-02 6.2628192960523165e-03
      8.9954152215332287e-04 -1.2275640051444141e-01
      -2.1728287994314536e-02 1.0579555272465134e-01
      3.0887242068693849e-01 1.3711515095259480e-01
      -2.8551739157809020e-01 -7.5480832994348157e-02
      -6.5012564958539826e-02 -1.0435048799791966e-01
      2.7498896019124489e-02 -4.3469567722471063e-02
      4.9674766048930542e-02 -1.7092145105736162e-02
      -2.3714883830339664e-01 -1.1754656090034263e-01
      -6.4682982681573048e-02 -8.3729296698800998e-02
      -2.3078315558552445e-01 4.9378921409056432e-03
      8.3261918828448689e-02 -8.8363562568062118e-02
      3.8519530772349327e-02 6.8240684414273001e-02
      3.7556244126345384e-01 -5.1307928038314035e-02
      1.2432921620138765e-01 -9.4641383207457616e-02
      -7.0885336079145281e-02 -8.7686490259118843e-02
      1.0136479033568771e-02 -4.3868559936159374e-02
      -4.6122700376777653e-02 -2.6082881636941996e-01
      -1.6005972093504850e-01 6.2674955706978216e-02
      4.0012689373382465e-01 1.5558889051508537e-01
      -3.0469036645281561e-01 -1.2505157754299684e-01
      -3.1591878148190464e-02 -6.8525286672727476e-02
      2.0025300106711869e-01 -4.1110576095918408e-02
      1.0918618780340433e-01 3.5454644612254228e-03
      -3.4852916696610647e-01 -4.3347882727774828e-01
      -8.9529415003125432e-02 -2.1819673098707454e-01
      -4.0667117832309957e-01 1.1889126005818115e-02
      8.3678054219200021e-02 -1.4519761869163411e-01
      2.5156903457197097e-02 5.3354495411301869e-02
      4.0533968254364322e-01 -1.2433282229377680e-01
      2.5376739189419162e-01 1.4792908116990222e-01
      4.6873815126772765e-02 -7.6828024540478060e-02
      2.5613754825580939e-02 1.4628629321236117e-01
      -1.3613116623537411e-01 -3.0467249037448763e-01
      -4.9736454518032980e-01 2.3876737694034571e-02
      7.5057953200722366e-02 3.0537985699438658e-01
      -4.3588341296326788e-01 -1.4192633712634334e-01
      -1.2450704677820444e-02 -1.1225819021440596e-03
      1.6607535990931549e-01 -2.4931076768119526e-02
      1.1463240491629259e-01 -1.2676211043283861e-02
      -6.9104389532387978e-01 -5.4742810664184960e-01
      -3.5101542940677653e-02 -2.2542573675473160e-01
      -7.4062317605825723e-01 1.5794982014081027e-01
      1.1248183288839138e-01 -1.6238741570718657e-01
      8.8655661151417528e-02 6.7557931817731426e-02
      7.9683276643117318e-01 -9.5690970196838893e-02
      2.8633220478118321e-01 1.3480078769557485e-01
      -1.6547670577894597e-02 -5.7969855532527585e-02
      2.2802308035061121e-02 2.8904125502679984e-01
      -2.2776489530498356e-01 -3.6060474860566760e-01
      -5.6065004938982821e-01 9.5491802011854449e-02
      4.1450395982025143e-02 1.6046169625535872e-01
      -3.1646917529833535e-01 -4.0929390949285722e-02
      -2.1474440979051476e-02 -2.3127265744179719e-02
      1.2058371489909246e-01 -1.3130800960834013e-02
      9.9670299406244445e-02 -2.6397082042789552e-02
      -7.2261190589746771e-01 -3.9796155165393043e-01
      -2.8125553043196277e-02 -1.9885442360398858e-01
      -6.1824617823528971e-01 2.4876786327438163e-01
      6.3013204193374264e-02 -1.4688565960102545e-01
      -4.3433911368287448e-02 1.0530698272512989e-01
      6.4370621229504699e-01 -6.0274685589648651e-02
      2.3085020294471625e-01 1.1826644078484087e-01
      -6.1919965628053471e-02 -4.7649009998010271e-02
      7.0279732035172663e-03 3.5903255715085985e-01
      -1.7347910549670903e-01 -2.6664329430384442e-01
      -3.8863002469727376e-01 -9.3314524806707919e-03
      2.6907793039375538e-01 2.5634901728049136e-02
      -2.6381024698225819e-01 2.6717297827451532e-02
      1.8031641179412760e-02 -1.0711173222257250e-01
      4.4770541859733053e-02 -2.0006498912182183e-03
      7.3115210844956147e-02 -4.8650915770214118e-02
      -4.5686583738399106e-01 -2.9201021787571152e-01
      -1.4557992445941827e-02 -7.6971584834434129e-02
      -4.0269364497450905e-01 1.0989683492745816e-01
      2.6777861590563633e-02 -8.2187458915493880e-02
      -1.1946473056003729e-01 4.2225469474454908e-02
      3.3254390374785203e-01 -7.2134853002372356e-03
      1.4911048617022182e-01 8.2047362191747894e-02
      9.9650320125395757e-03 -1.4418928291782479e-02
      1.2752291790438297e-02 2.9913037775655649e-01
      -3.7315970852916928e-02 -1.1718822894555288e-01
      -2.1968452256613652e-01 -7.1718072207197101e-02
      2.3399197093256396e-01 -1.4532777809544246e-02
      -2.5337530257528895e-01 3.1384608957382022e-02
      3.9333619366796517e-02 -1.3558749737109371e-01
      2.0634312363025431e-01 -3.0152809870085676e-02
      6.3968761632786461e-02 -7.2692800848274244e-02
      -2.6015393525129199e-01 -2.9537157270657810e-01
      -3.1143191529017868e-02 -4.0799478455036800e-02
      -2.7805467437202813e-01 4.3520696457270004e-02
      2.5525969011263607e-02 -7.8350555070977240e-02
      -1.3019153991988788e-01 2.5248205162500818e-02
      2.4621882809202453e-01 1.3412095126702646e-02
      1.0965328533925613e-01 1.8828386482676096e-01
      6.9157012806614543e-02 -1.8929254071916597e-02
      4.8877930874306690e-02 2.0007943129988492e-01
      -3.3339983316847670e-02 -9.9178567001068252e-02
      -1.7761948200808994e-01 -5.8925513830206611e-02
      2.5123915106067080e-01 -2.8190657764937753e-02
      -2.1116747846033121e-01 1.5838508125876793e-02
      2.6688767748395587e-02 -1.1093383188341893e-01
      2.2270876626040123e-01 -1.2823467604631345e-03
      7.2555307595372459e-02 -1.4284280937751975e-01
      -3.6676353785843518e-01 -3.3711103452007302e-01
      -4.9436005924681059e-02 7.7497740755304448e-03
      -2.1029175066643288e-01 4.5573854906673698e-02
      4.0513903804071530e-03 -7.7781986610414008e-02
      -2.1471231925514064e-01 2.4086089837314865e-02
      1.7512041558723968e-01 -3.2174325163043013e-02
      1.1835428623178396e-01 2.9532610943578375e-01
      5.1568456602064848e-02 -4.6959690711819768e-02
      2.8575713970809755e-02 2.9614444473307322e-01
      -3.6211193627387291e-02 -4.4711715100871047e-02
      -2.4036947472526424e-01 -8.7192498117901390e-02
      4.7865977295535195e-01 4.7889943937067369e-03
      -2.8401182164952216e-01 -5.3053497901499089e-02
      2.7223401976701995e-02 -4.0220158220179797e-02
      4.5537034234290447e-01 2.8502424746980910e-02
      9.1882607030375388e-02 -1.9459221862642148e-01
      -5.0650252887281577e-01 -4.5009373208222214e-01
      -5.4141934810665301e-02 -4.2231046983536309e-02
      -1.9958389576280064e-01 9.1999365873684333e-02
      4.9432860113604989e-02 -9.4626665375537877e-02
      -4.6049307744178258e-01 -1.7900596959344258e-02
      3.2768808886803114e-01 -1.2516026138414602e-01
      1.9030445151103137e-01 4.1779651476080842e-01
      -1.9987594497008605e-02 -1.8081957863122534e-02
      1.2059581841924745e-04 2.4302520342008072e-01
      -4.4521573746258369e-02 -1.7753848061968855e-01
      -3.9997758072392553e-01 -2.6027130502499263e-02
      6.1716176748724572e-01 1.5545782118236770e-01
      -3.4285844513330355e-01 -1.5647501492688290e-01
      9.7338066279365528e-04 5.7312329869103222e-02
      5.7679110514280518e-01 4.1629776761744446e-02
      1.0250256762092511e-01 -2.2902118682834438e-01
      -6.0547784370127389e-01 -3.4775240311843270e-01
      -2.3501193623567729e-02 -1.0691125743781935e-01
      -1.7478246368074238e-01 1.2023216486612165e-01
      9.9783216424971649e-02 -8.8902740657022639e-02
      -5.2093196489941318e-01 -9.6785960721953723e-03
      5.6375386468453348e-01 -1.7215401616107423e-01
      2.0460796584648705e-01 5.1192904279406026e-01
      -1.1264177015731366e-01 6.3265613131597504e-03
      -1.7325333857766901e-02 7.1855684293954156e-02
      1.4757286524791561e-04 -3.9373147966122907e-01
      -5.0905821773082316e-01 1.1060731503538643e-01
      4.3416696089767698e-01 1.7908700794974400e-01
      -1.3522848664439530e-01 -1.4738815687770901e-01
      -4.9019860484940468e-02 1.0719542454438814e-01
      3.4346100441502508e-01 -6.7679778530866028e-03
      8.3891153620642644e-02 -1.1141039374645316e-01
      -3.2700500110870440e-01 -9.9840514724407081e-02
      -4.7706121147787821e-02 -1.2740153568853863e-01
      -1.4618803134602437e-01 1.7352945206145831e-01
      9.1759994895766028e-02 -8.8163785217774640e-02
      -2.5515899825776478e-01 3.1004225505640193e-02
      3.7918078118432574e-01 -1.8872433313424969e-01
      1.8715328502411738e-01 2.4373485922900157e-01
      -1.3032426994272747e-01 1.8230401774259421e-02
      -5.3282728843904587e-03 -1.4762032313610816e-02
      -2.9062470039339650e-02 -3.6954235214095810e-01
      -2.8991412164408015e-01 1.4357115073966292e-01
      -2.6975633983366210e-01 2.3428564811351321e-01
      -2.2909484151429441e-01 -2.5021550046343510e-01
      -8.6336391124903211e-02 3.2206423314071192e-01
      1.8440247777197080e-01 -5.3026737242529614e-03
      3.5139182523616162e-02 1.8017855547838757e-03
      -1.1699897317650683e-01 -7.7455143014484862e-02
      -2.5288491985126761e-02 -2.6955459696545170e-01
      1.3585726461631192e-01 1.3927042861765157e-01
      1.3611358093719603e-01 -8.5291299653825481e-02
      1.2432939358176481e-01 6.7348368597122676e-03
      2.9458289462626397e-01 -2.0061258814917543e-01
      1.7136825208703907e-01 3.3388313265205083e-02
      -2.6350636190235827e-01 3.4817520182656588e-03
      -2.2342242657535011e-02 -2.7721761517454158e-01
      -7.4508431924957721e-02 -4.1369297012483786e-01
      -3.1025135493982403e-01 1.5525234740469682e-01
      1.2511929902994229e-02 1.2878918827076610e-01
      -1.4233111322265851e-01 -6.4104882839978367e-02
      1.2600057304805047e-02 8.6269052675845392e-02
      9.9850415796011227e-02 1.1279817051576499e-02
      -1.5465061270549120e-02 8.7603105009914167e-02
      -1.0072605122529345e-01 -1.0071300223585777e-01
      2.2311673453426134e-02 -9.2758918320441988e-02
      -7.1585544479404198e-02 7.7419254365786894e-02
      1.7597679558302215e-02 -1.5854833053814212e-02
      -4.8505983548119018e-02 -5.9743393610741775e-02
      1.9991030368882273e-01 -8.8587038998596906e-02
      5.2490715568521910e-02 8.0194320009258399e-02
      1.1582988372480049e-01 3.6017399924894847e-02
      -3.0121444337521158e-02 -2.8094618176102877e-02
      -3.7459711687445989e-02 -1.5103200293299807e-01
      -1.3762478575967807e-01 6.3192371113274970e-02
      4.0164212841663699e-01 -6.1468611049587951e-02
      -8.1760894614152119e-02 1.1488309166433747e-01
      1.0718059318482324e-01 -1.1010637942832144e-01
      2.2893008688868682e-01 5.4257249334713435e-03
      -3.7943721257215721e-02 6.6877505710877180e-02
      -2.4389337452739923e-01 -2.2139513543115588e-01
      8.1840409069809564e-02 1.7110920257088885e-01
      -2.0436795246283140e-01 1.2781113448569539e-01
      -6.5773586116582419e-02 1.0195053527586381e-01
      -2.0802476659675237e-01 -1.0059269668335476e-01
      9.6746040799666339e-02 4.4257442251008243e-02
      -5.4316365379097779e-02 3.0531338264567837e-01
      2.3783039572471698e-01 1.0837603928232420e-01
      8.6222899169847260e-03 2.3739294491725341e-01
      4.1964900585340387e-02 1.1302828912148580e-01
      -1.3069025173086674e-01 -6.2757357835063685e-02
      -1.2352658036832347e-01 -1.8370036918658594e-01
      -1.7531937729278907e-01 -3.3289434117975879e-02
      1.6191481936792165e-02 3.6090245753639040e-02
      -1.5323262481100852e-01 -7.6060451695560777e-02
      3.9812532027798532e-02 -2.1186907452603838e-02
      2.4547358144561812e-01 -2.0428243568876811e-01
      9.8656924028364498e-02 4.9184669601237047e-02
      1.9736241645772704e-01 -2.2615752631186187e-01
      3.4121175142700098e-02 -1.9972193102556029e-02
      -1.6790391193586723e-01 4.3512907088015348e-02
      -2.6033569473721657e-01 1.3880858004147912e-02
      4.3707349779284241e-02 -1.6946289059432382e-01
      -1.0016158002358375e-01 -5.4798407351787363e-02
      6.3049575164463315e-02 -1.5172244859194700e-01
      1.0993459072128740e-01 -4.7500476551945517e-02
      -2.0439917578702854e-01 -1.2546616931875065e-01
      2.3152373330944079e-01 -1.1852880383160892e-02
      -1.0150610025925140e-01 -7.0170658152940379e-02
      -4.0058613785769505e-02 8.3651509487978712e-02
      6.1200457280848691e-02 6.5358171071996261e-03
      3.1422496783498878e-02 1.3451170661318596e-02
      -1.4611756432826348e-01 -1.4852164001365983e-01
      5.3139996583343226e-03 8.2974321120998264e-03
      -3.9996016083165740e-02 -4.6584564892092811e-02
      3.3057378852634406e-02 -6.4912181350101475e-02
      1.0805537239977235e-02 4.0041380042178533e-02
      1.3387214657396584e-01 3.7141104842587533e-04
      4.3316659712752996e-02 -2.1524139241856578e-02
      -6.6128540450513446e-02 1.5808047802743915e-02
      -6.8736713139015112e-03 -4.2833183994057299e-02
      6.6952254678600789e-02 -5.5235641919230687e-02
      -2.1295038006624667e-01 -4.9280520631770561e-02
      5.7070147751102440e-01 -9.4996977932284454e-02
      -7.4553733159798088e-02 1.3310525670554016e-01
      3.6075456143481829e-02 -4.6985743653728221e-02
      8.1868208880534935e-02 -2.1636773808282772e-02
      2.7058548760435522e-02 4.9244679680631315e-02
      -2.0313183024024797e-01 -3.7419985246823489e-01
      5.5502393155902529e-03 1.5048001491773025e-01
      -4.6684250381797167e-02 1.3431032365078183e-01
      -1.7739778593616581e-02 -1.6751683394412287e-02
      -1.2786376054475268e-01 -2.2478329950948793e-03
      -2.7617744699375561e-02 4.6341070186545430e-02
      1.9140608713791564e-02 1.4893086028633601e-01
      1.2329581523504404e-01 6.3631005981923491e-02
      3.2485927368520226e-02 2.6954551724949943e-01
      4.9044437493706051e-02 9.3572957541115734e-02
      -2.4238397005928969e-01 -1.4808797973602594e-01
      1.1078375707490390e-01 8.3167903558075310e-02
      -1.6667204814961489e-01 -5.3200247476077420e-02
      -2.1253424325914115e-02 2.9554405860245856e-02
      -5.3185505752708674e-02 -2.8906815849873702e-02
      7.8398577140690484e-02 1.2140157753369676e-01
      -7.4104928860271049e-02 -2.8679794215213539e-01
      -4.3513517759450185e-02 -1.9773997951309957e-01
      -5.0650148157510781e-02 1.0701718568604690e-01
      6.3339874508395552e-02 -1.4198262567608666e-01
      6.3690548864983224e-02 2.3989919141928395e-02
      1.2491592912700582e-01 -8.4852756865106488e-02
      1.5142479624767752e-01 -9.4660240535877557e-03
      -1.4112443726796342e-03 -5.5576569999736106e-02
      1.1099393088970989e-02 7.7775048900724925e-02
      -1.3448630674293913e-01 -1.4784409937125681e-01
      -2.7195015077251461e-01 -3.9497405819313179e-02
      -2.9326524489638770e-02 2.5068534949766691e-01
      -1.7627598675290648e-01 -1.3694428242549064e-01
      -4.1769176884926061e-02 1.5628101537251096e-01
      -1.9130529151951872e-01 -1.6594775122247666e-02
      3.4495646026801274e-02 1.5829408537231926e-01
      -2.6217773609098804e-01 -1.4170753239408002e-01
      -5.2253670230480241e-02 -2.9010099769415776e-01
      -4.0505522303537028e-01 1.3903694755034690e-01
      6.4048474761060084e-02 -1.7331536394625643e-01
      2.1347160409042049e-01 5.0610805894620775e-02
      4.6777091077262284e-01 -1.1676077835663876e-01
      1.7360315169612170e-01 -2.9833706957307976e-01
      -1.3487331205479602e-01 -5.5355330619800157e-02
      -2.6723159617112593e-02 2.1905685838342608e-02
      -2.2114451212163608e-01 -2.6277606569093553e-01
      -1.9043163285580098e-01 1.2991626301698936e-01
      -3.2868607922855383e-02 1.5380199283367249e-01
      -2.1345947298013110e-01 -8.3938434595232717e-02
      3.6533858300993164e-03 4.8887953791796085e-02
      -1.1691951800186043e-01 -1.1320147042821672e-02
      7.1175151984110716e-02 1.1610764738856029e-02
      -3.2662921418247060e-01 -1.6416678352351560e-01
      -3.3922448108305768e-02 -1.8066682037036774e-01
      -5.4531712306479529e-01 1.1691505820810071e-01
      2.6031412768789116e-02 -1.0370580130777389e-01
      2.8230953445227944e-02 8.1755729585830564e-02
      5.4091330833756623e-01 -4.9223624304505421e-02
      2.0006029823416610e-01 -2.1387898991801052e-01
      -1.8454018328769520e-01 -5.7450342935005949e-02
      1.5195392388165217e-02 6.2199957109529948e-02
      -1.8013507483505242e-01 -2.0315711744151596e-01
      -2.0329407068042496e-01 4.5259517591018962e-02
      -1.5906253478386415e-01 2.2946330614343666e-01
      -1.7517730137843690e-01 -5.5212644843089437e-02
      -2.4403595243298954e-02 8.2523739750951897e-02
      2.9296017969230755e-02 1.4827501431520642e-02
      7.9212016900987905e-02 1.8236729092713660e-02
      -5.3817703244722945e-02 -1.0181502585537747e-01
      -2.0487050098782968e-02 -2.0762216408838141e-01
      -3.5693192027047527e-01 1.1644102692603103e-01
      2.6366972049739125e-02 -9.1982778041615823e-02
      5.8322517606369403e-02 8.2510603942738001e-02
      3.2308998802358108e-01 -4.5591033278543552e-02
      1.9430288694317449e-01 -5.8337374368848803e-02
      -1.4246914170720018e-01 -3.8544969584493154e-02
      -1.8549065102238846e-02 -8.3469417342790040e-03
      -1.7827127197280604e-01 -2.2726026713210387e-01
      -7.2360383329043987e-02 5.9170428765991927e-02
      -4.6329054230562355e-01 1.5227951955604602e-01
      -1.1325016979360715e-01 -1.4390093383926380e-02
      1.7470827859611710e-03 -4.7252914575777370e-02
      5.5194714082360354e-02 -2.1261091701038924e-02
      7.9126835265553003e-02 -6.5669725949132299e-02
      -7.3134690711424338e-02 -1.3848674129872205e-02
      1.0107427018580417e-02 -1.1380303856371056e-01
      -1.5283701710379038e-01 5.7565651734119039e-02
      -1.4177473438156427e-02 -4.7090899775307941e-02
      -1.6497582448186880e-02 9.0911313837077387e-02
      2.2741859646622903e-01 2.1955932171250740e-03
      8.9515927289567018e-02 4.6985680834069427e-02
      1.3608294260285285e-02 -1.5212300314252216e-02
      2.8248726075838629e-02 3.0405164036883175e-02
      -1.7392296456405879e-01 -1.5369039553239611e-01
      -2.6627892532285650e-02 -5.7474297439880613e-03
      -9.2954486578393558e-02 3.9213412660224829e-02
      -1.1260714973824132e-01 -2.2252408758122472e-02
      3.4420745394137781e-02 -1.0454794447458651e-01
      3.5528139268044476e-02 -1.9784964130450351e-02
      5.4090665450130367e-02 -9.3047301582920128e-02
      5.9642462826392802e-02 -2.5936850315731654e-02
      3.0850364630317109e-02 -5.6332249984988002e-02
      -3.9673334796083537e-02 -5.5583642616618543e-02
      4.3495548535187490e-03 -8.9450512055786885e-03
      -2.6258833613291444e-02 1.1767481966756711e-02
      7.7906780422212357e-02 8.3726053080643535e-03
      3.5850348856302873e-02 -3.7692868929196904e-02
      7.1318573284238310e-02 -1.6070891090228502e-02
      3.3963762989828145e-02 -9.0608303555227462e-02
      -2.5671550141501940e-02 -1.3272907085381355e-01
      -1.9710234350505791e-02 4.5272225470943686e-02
      -3.6274884057594203e-01 1.0342667456534477e-01
      -7.8822057766045325e-02 -7.9460513516313280e-02
      -3.2121011942614068e-02 -5.0572044119401194e-02
      7.4740868472243510e-02 -2.3866076446700923e-02
      5.8078432141216323e-02 -1.0540105549117045e-01
      6.3800939497741585e-02 4.6353546734479854e-02
      -1.0142048381624093e-01 -1.3139162751657812e-01
      -5.9870811187788475e-02 -8.4713124988611041e-02
      2.4009360934258511e-02 -7.7984253832976969e-02
      6.5926153262842582e-02 1.1559016806284174e-01
      3.8514813272113917e-02 -2.2225760639265336e-02
      9.7642308884703127e-02 -8.0371183791358280e-03
      -3.5902946688290589e-02 -6.4080717652467700e-02
      1.1493314076639085e-02 -9.3471276274178811e-02
      -2.8556498854104450e-02 -1.4552269158884054e-01
      -1.6014364636494061e-03 8.2216219167189672e-02
      3.0195096524152067e-02 1.1980676337985199e-01
      -1.3473171958894303e-01 -9.0270043723633037e-02
      -4.8456286736065215e-03 -2.8903579777014641e-03
      2.7867667912955623e-02 -8.3949721483962386e-03
      7.3289406138670216e-02 -1.5763292242212862e-01
      -2.7066874827534993e-02 -8.3560620852611525e-02
      -6.3410276147668490e-02 -1.3066275527751878e-01
      -2.6240156397437026e-01 6.4451257966664649e-02
      5.1369151571893758e-03 -8.0173971181293824e-02
      -1.3016857028051018e-01 9.4830265877920414e-02
      1.8966389638044881e-01 -6.6220437858452011e-02
      1.5178935946953306e-01 2.4811491705994844e-02
      1.9566951914715410e-02 -7.1553017737915628e-02
      5.9796872234535829e-03 2.9016404569435623e-02
      -5.4843571874790283e-02 -1.9262451195932512e-01
      -1.4978926467046133e-01 4.9205720983259787e-02
      2.0433274122919384e-01 -1.2700578313346778e-01
      -1.0864834887633543e-01 -1.7047975717854449e-02
      7.5635171164774870e-03 1.4108302630269945e-01
      3.9074847622805949e-02 -2.9228023613201076e-02
      5.4103257616413852e-02 -1.8162881589942623e-01
      -6.8680260055023104e-02 -1.8508049924147227e-01
      -6.1979674277530414e-02 6.6859932119525756e-03
      -1.0494540248927629e-01 -9.8901623429020272e-02
      6.0742286650009129e-03 -5.4253933525725988e-02
      -4.0297479281675946e-01 8.7160280016862143e-02
      5.3602068297532446e-02 1.3199131199439060e-02
      1.5664147357288025e-01 6.5061051763934147e-02
      4.6018474626749482e-02 -6.8979114720505219e-02
      2.9741930562765851e-02 7.4903280751154031e-02
      2.2623376242461496e-02 -6.1120617988967764e-02
      -1.7398048619885373e-01 -7.6855196737171921e-02
      3.4333671594571408e-01 -1.0686669231554563e-01
      -2.9984474399939548e-01 -8.3782168328886894e-02
      -8.3374684766029713e-03 3.3685363618258735e-01
      2.7949928648189698e-01 -1.6047812621787266e-03
      9.8148691582537001e-02 -2.3244263389844613e-01
      -2.3302324139588476e-01 -3.0433017038609306e-01
      -6.5213931811894832e-02 -8.7712786728190703e-02
      -1.9737412054638398e-01 -4.4866727404668710e-02
      4.4754852433115375e-02 -5.7810995519351115e-02
      -6.8715486433660344e-01 9.1284230210472439e-02
      2.8548303686667437e-01 -8.9859424389444775e-02
      2.0990012196651797e-01 2.5163634915535882e-01
      -1.8922716490722937e-02 -5.4183087502774910e-02
      4.1366609827884855e-03 7.9389148711787039e-02
      1.4070306222935975e-02 -2.2874930390269660e-01
      -2.8686874442276183e-01 -7.7879563860434264e-02
      3.1364211019427252e-01 -2.3254617781226193e-02
      -2.4154270298073655e-01 -9.0398494539590313e-02
      -2.9241096488711468e-02 1.9317406417077154e-01
      1.6573546737796405e-01 1.1288836968263948e-02
      8.3392665837724367e-02 -1.7218996087313340e-01
      -3.3269857993428459e-01 -2.0383670814203528e-01
      -8.1024824688765915e-02 -4.1813285735344534e-02
      -2.8955138225990068e-01 -9.3280177078440048e-03
      3.5952023586308911e-02 -3.6011432537113683e-02
      -3.7834391787676652e-01 5.5581528286891162e-02
      3.0936349274035063e-01 -2.2765492679323845e-02
      1.4998348771792588e-01 1.6798299671077097e-01
      -4.4612278401175163e-03 -5.5508186672334286e-02
      -8.6961113958059864e-03 1.3544722032433723e-01
      7.5955535270056843e-02 -1.7149681382388846e-01
      -1.7522247047243783e-01 -4.8770808179407668e-02
      -1.0754142996265989e-02 9.0887527781032748e-02
      4.2484864847059059e-02 -1.8012870486745391e-02
      -2.8424789154853209e-02 1.7075497759034539e-01
      -7.5462812572924975e-02 2.7576106426493763e-02
      3.5457217058351780e-03 1.4218965848142867e-02
      -9.8570327796455623e-02 -9.1651173602294272e-02
      -7.7668546980379019e-02 -1.7522842287003966e-02
      -8.5511294463790050e-02 4.2413205864755985e-02
      1.5784880749907439e-02 -1.1862299139322036e-02
      -7.5424616281255449e-02 -3.2511018059133245e-03
      5.3506271596482982e-02 -1.4545535595611657e-02
      5.9774201207266281e-03 -1.2926737377677053e-01
      -8.0819968740062476e-02 2.5241885579001335e-02
      -2.1406053364645409e-02 8.8358427707518672e-02
      -4.5050116100432282e-02 -3.2845074329146427e-02
      -1.0541171959396675e-01 8.9956289664568818e-03
      1.6730885695760248e-01 4.1387813818898160e-02
      -7.0655892905496454e-02 -8.2781331149319959e-02
      -3.6711379534448817e-03 1.3653891046129082e-01
      1.4658065256572825e-01 -3.6318333847219622e-02
      -3.3546137853464233e-02 8.2428266193496393e-03
      -1.8477500090166588e-01 -7.8466084713270101e-02
      -4.8843360891446322e-03 -9.7048205279148085e-03
      1.2403739971653685e-01 1.7188919657023616e-02
      5.0456403118691449e-02 1.0218426504826656e-03
      2.8768641909881397e-02 -8.7658596952315204e-02
      1.7590234605504898e-01 -3.2304422081794533e-03
      -1.6703808163973800e-02 6.2450455426736010e-02
      -1.5614517545368234e-01 4.7794899891858124e-02
      3.0581567802604150e-02 -1.0039771630363320e-01
      5.6419620660701830e-02 -1.5753960107502829e-01
      -2.1992305461982592e-01 1.9575278682398181e-02
      2.8743107207314594e-01 6.6424660504120811e-02
      3.8708454822577898e-02 5.7974272810774170e-02
      2.3264613501856768e-02 -1.2613131606959835e-01
      2.3824822393073587e-02 6.5646943422697727e-03
      2.2395743595882141e-02 -1.8307404935185786e-02
      -8.6138072658064099e-02 -2.8328887396328627e-02
      5.8106199148605368e-02 6.5072269591746459e-02
      2.0511328881098509e-01 1.4011073535606408e-01
      -1.5840205771960027e-02 -3.7534345260432304e-02
      2.5141295909104539e-02 3.4304535270561452e-02
      -1.0636519963015370e-01 4.8916139087973789e-03
      1.9943860726714733e-03 5.4043885920044860e-02
      1.5157807686408348e-01 2.0535752885009518e-02
      -1.2302336692095477e-03 6.8556038374058534e-02
      -8.8647517284986183e-02 7.9005257550329652e-02
      2.2480184245532902e-03 6.2951551213720314e-02
      2.2563614172132523e-01 -6.3474298587218911e-02
      2.6826721586676920e-02 1.0001261607382865e-01
      5.4932199811957684e-03 -5.0260025328806912e-02
      1.0060261772123349e-01 -2.9256958120983403e-02
      3.6434472931157189e-02 2.0312003256145798e-02
      -7.9408092632448940e-02 -5.0881983982050787e-02
      -6.8808785638776404e-02 1.1161242595639649e-01
      -1.1915626814858310e-01 4.8080424557145486e-02
      -4.1112064525341212e-02 -4.0876142137100356e-02
      3.2851363626083666e-02 5.9225203649188540e-02
      9.1256305692407041e-03 4.9465735078792532e-02
      9.2163058418613438e-03 1.4130505568946766e-01
      1.6321430754963487e-01 4.7187090526947348e-02
      3.9619103832796522e-02 1.6066332815626194e-01
      4.3011267851442700e-02 4.8073225431536713e-02
      -2.1620658675252737e-02 -8.8854334070225180e-02
      1.8898963887214258e-02 1.9367559064382553e-01
      -1.3723286184821232e-01 -9.7792432246819480e-02
      -4.6097644090453090e-02 -5.6433724914602849e-02
      8.7565650119419788e-02 -1.7518984291558827e-02
      8.5708731808230756e-02 3.9045072269309491e-02
      -2.6377202066025084e-02 -3.4118344434205118e-02
      -7.5127316565952257e-02 -2.1325307239299651e-01
      -5.8084591603710212e-02 4.2515206193138144e-02
      4.8737228257750946e-02 -1.9232312781800615e-01
      1.9827235253379702e-01 8.1545455004337311e-02
      1.4559379124629404e-01 -8.8035865682339065e-02
      1.7274520138304170e-01 -1.1872856817001178e-02
      4.4736086453118572e-02 -8.5879374189765920e-02
      -2.3020387192647122e-03 -1.0608867595072620e-01
      -1.5365154337107917e-01 -2.1679808938060963e-01
      -1.6032137211386016e-01 1.1521230172464604e-01
      -4.5336624771183720e-02 2.0523884696580058e-01
      -1.6473563226602587e-02 -4.2014899267897678e-02
      1.5223139931009391e-02 -2.1890465741228455e-02
      -4.0253880383081045e-02 -6.3638282952249350e-03
      7.5747741947029129e-02 9.0758258705910894e-02
      -8.7490551962234861e-02 -1.1957278030861851e-01
      -3.9750549830691449e-02 -1.2634709756752988e-01
      -1.1302331353753740e-01 2.5712123475924820e-01
      -6.7481194837340115e-03 -1.3383744283565255e-01
      1.1594069879053481e-01 6.9220107980141818e-02
      7.1484038304736791e-02 -9.1645022440612151e-02
      1.2580192810616425e-01 -2.9999886859932768e-03
      4.2780730748016568e-02 -4.6104786250016905e-02
      -3.1511516460970752e-03 8.2505664377746715e-02
      -1.2268800130842603e-01 -7.0730921709316177e-02
      -1.4957563655434253e-01 2.5828471394564075e-02
      -1.7511179486140502e-01 -1.3734326325733312e-02
      4.2398504525626914e-02 6.8434872913043746e-02
      4.3323712542465989e-02 -1.0896928143899744e-01
      -3.3895029720075964e-01 7.3414148239692178e-04
      4.2612425719530223e-02 6.7133526711779981e-02
      -6.8929092748373721e-02 -6.0277576262136789e-03
      -2.6487670248688394e-02 -3.3986458209601222e-02
      -2.2096039050231434e-01 1.5969237378575477e-01
      -4.1406072775726444e-02 -1.1764420915670870e-02
      8.5150314052637635e-02 1.0214594976930406e-01
      2.9526584803150291e-02 3.4670603968431683e-02
      8.7504767038686537e-02 -2.0851962470560589e-01
      6.9981089292611459e-02 -4.3248088733620633e-02
      2.6161881022453756e-02 1.7238753022593648e-01
      -7.3248898400434290e-02 1.5192778015269967e-01
      1.1038344086429637e-01 1.6665596229107710e-02
      -3.0451301662805080e-01 1.2404533280369893e-01
      -5.6123036653927386e-02 6.6555614262241186e-02
      3.5677624835982399e-02 -4.9810260009551147e-02
      -1.4074939251071777e-01 6.6693541445251824e-03
      6.7297667447216894e-02 2.7402621137976094e-02
      -1.0541877838876831e-01 -7.1150639551743108e-04
      -5.0875989948688388e-02 -6.4744248914684971e-02
      -3.3352481318672805e-01 1.7855955357435674e-01
      -3.5860238421629852e-02 1.8671286285339185e-02
      -1.5614011849291193e-02 1.0917682437706851e-01
      1.2088812773161996e-01 1.1535947629408518e-01
      7.9543198928705552e-02 -4.1087777326562457e-02
      1.9676010682070508e-01 -4.5526877775080014e-02
      3.6910352870991855e-02 1.7451328295294266e-01
      -1.2664286954017931e-01 1.0595222654116944e-01
      1.2715610496730362e-01 2.2375216137218493e-02
      -1.7476165142990743e-01 7.5118570300921460e-03
      1.9804362056403493e-01 1.3059777881717727e-01
      5.9201059036152026e-02 5.1560246290132464e-02
      -2.4177001868727105e-01 5.2853756065922811e-02
      1.3839133513807982e-02 5.5652028713388865e-03
      9.0060698378086973e-02 1.7614230605705883e-01
      -1.8280852255454137e-02 9.5344158083926239e-02
      6.3709743937556476e-03 1.7229411939625491e-01
      -4.7471314456456457e-02 9.3158488933143518e-02
      -2.7975069735410408e-02 1.7903670462070725e-02
      -1.7251976579876863e-01 1.1593673790831492e-01
      -5.3266581489287534e-02 -1.2682464708904712e-01
      1.1633193120619792e-01 -4.4326803709286416e-03
      4.7330527961226519e-03 1.0660630314746228e-01
      -5.6719500615366333e-02 2.1998556201620195e-01
      2.0880636593883853e-01 9.7673139960999223e-04
      -1.4239730577911819e-01 1.0701522982194083e-02
      8.3643190622566768e-02 8.0482663024170620e-02
      3.2233126044093161e-02 -2.3048244430629325e-01
      -8.4942256877189093e-02 2.7695773961676107e-02
      7.6301110038444787e-03 2.1411250909991672e-02
      4.5794845022655011e-02 2.0661835035020011e-02
      -1.1298250508408329e-02 3.2836870386544682e-02
      -1.7412122988214751e-01 6.6569508226977714e-02
      -5.2483257521907196e-02 8.1273627511112154e-02
      -8.1139307139998396e-02 -1.5993686005209510e-02
      3.8003601718667374e-02 -4.0331687675224492e-02
      -2.8137287361146377e-02 -4.4394560450709969e-02
      1.3358684643493129e-01 2.8748112051099759e-02
      4.3434668931364622e-03 3.4761963091977571e-02
      -5.8379447569985206e-02 8.1574396202755625e-02
      2.2620331213205162e-02 4.5931250347194114e-02
      -4.8619281135217718e-01 -1.2284635226699138e-01
      -8.5482757088599204e-02 -2.1834951433786543e-02
      4.6984803770690128e-03 -5.5004312560795965e-02
      -2.8887931213240060e-02 -8.2712337759342607e-03
      -1.5182789108368524e-04 -3.2745032201655033e-02
      8.3704056333766791e-02 -5.2913003581825893e-02
      2.3842696629323208e-02 1.2948523044160423e-03
      1.9489450345397827e-01 -1.7898076167364646e-01
      -2.1649861903212216e-02 5.0979826531542684e-02
      -1.1752884839093651e-01 -3.8077870305612237e-02
      -1.2565040423286769e-01 -3.6793146050741098e-02
      -1.8089087377526424e-02 -1.2243329316617252e-02
      3.1876442023695169e-02 -4.5267164928830234e-02
      7.0249003385376377e-03 -8.2478542205132552e-02
      4.8895882925977859e-02 -1.8343101889626366e-02
      -2.2433780157117451e-02 -4.6301280114690549e-02
      -2.7435217839423665e-01 -1.4553768809481604e-01
      -5.0381423573313315e-02 1.1209682014599334e-02
      5.6495732631252439e-02 -4.5030845209200948e-02
      -4.3324797642401373e-02 -2.0691416467322799e-02
      -3.0811288932065556e-02 3.7509051600354885e-03
      1.2675303337312924e-01 -5.7511097941926374e-02
      3.9485411332168159e-02 7.7607928048564853e-02
      1.0557406743653758e-01 -1.5942236399605850e-01
      -4.5137107899074519e-02 6.9302349468155611e-02
      -1.8047052392728258e-01 -5.5561165327752265e-02
      -1.6260715810431126e-01 3.2785668970617972e-02
      -8.0484540697334211e-02 7.7401779790745419e-03
      3.4504805222196303e-02 3.9579847748788680e-03
      2.8120084380010939e-02 -1.2741081253905929e-02
      7.5389857510645156e-02 9.6985680579719458e-02
      1.2434291561234091e-02 -6.1716635397914041e-02
      -4.2279318469984450e-02 -6.2762784095874838e-02
      -1.1811771460793154e-02 -4.3571894451057108e-02
      3.8731094489868986e-02 7.9158577825619511e-02
      -7.2126079917598868e-02 -7.1955675122785737e-02
      -2.1707008596785982e-02 -4.4950387666054747e-02
      1.3447585107691595e-01 7.2450047261259365e-02
      4.1162922240603847e-02 1.8982728677021849e-02
      4.0531959149867680e-02 -8.9788365568666234e-02
      2.4216914742992778e-02 -2.1274997761064154e-03
      1.0304816734901547e-02 4.5524625256244247e-02
      -2.6321606990374866e-02 1.7855374776718620e-02
      -1.6589811129372235e-02 -4.6162794676124469e-02
      -2.7398604242325528e-02 -3.6000778919868880e-02
      4.2874095369500466e-02 -1.0453674995445643e-01
      5.8965242178230709e-02 -1.6011313846577661e-02
      7.5244243840593722e-02 5.7248594708380410e-03
      4.0613535834717063e-01 -1.7956207783618758e-01
      -3.0542606724532151e-01 -2.4253319767802810e-02
      6.2579006103764240e-02 1.2653495417631236e-01
      1.3797325843181665e-01 -6.5893066752048993e-02
      2.2769817859111367e-02 -1.5547494314795027e-01
      -9.9737138557109625e-02 -2.9484595061358720e-01
      -4.1147755175237694e-02 5.0768576167753675e-02
      -1.1806997799496456e-01 -1.5530418172731728e-01
      -2.6254864018078430e-02 -9.0055491722094321e-04
      -3.1481464110061375e-01 1.0645769768895144e-01
      5.1122517616626346e-02 3.1238181781412591e-02
      5.2463533459466916e-02 1.5603449168709096e-01
      9.1046003584420152e-02 -6.1696454345505324e-02
      4.7355779650823139e-02 1.1872419688111271e-01
      7.5361761028769778e-02 -3.9392181724604042e-02
      -1.6572318598031377e-01 -2.0402900355589965e-01
      3.6707903753862875e-01 -1.9187663570100605e-01
      -6.7167741803738246e-02 -3.4262364183940588e-02
      -6.8986755368091847e-03 1.6831979558230614e-01
      1.8280375297612102e-03 -6.3139698117117143e-02
      3.6098812854817440e-02 -1.9312769842570499e-01
      1.6074770316533596e-01 -1.3759294509682650e-02
      -5.9702094750738295e-02 6.5176146015328042e-03
      6.5066466563309708e-02 -1.9371754766594043e-01
      7.1845977110351544e-03 -3.7782651200430985e-02
      -4.4445321317533959e-01 1.3141386560271295e-01
      -8.0966789638157607e-02 -3.8788686721382651e-02
      7.4288200299419474e-02 7.2236193976369344e-03
      1.1710033914820226e-02 -9.1711001946584297e-02
      3.6414144627351444e-02 -3.4136152300785302e-02
      7.3531410693554566e-02 -8.3855734148279626e-02
      -3.1095553831531651e-02 -1.6635429366916632e-01
      1.4402616729428270e-02 -4.5628978225982539e-02
      -2.5620355540454842e-01 -5.0958251527696889e-02
      -4.2045702820165995e-02 3.5123782528643552e-02
      1.3499104826367997e-01 -1.5579600851196501e-02
      7.2863085002977945e-02 -2.4809764436674644e-01
      -1.5542930864827714e-01 -1.9546567044848087e-01
      -8.4777037434499825e-02 -6.1032121015633947e-02
      -1.5174021611884397e-01 -2.2118275623073047e-01
      -4.4472318942662160e-03 -3.4599065662378373e-02
      -4.9554186556871332e-01 1.4385964896511569e-01
      1.5996037642859945e-01 -2.2713462837437148e-02
      1.4510742096779311e-01 1.1549025781136800e-01
      4.6778401904880119e-02 -1.0137695916251724e-01
      7.0948741905017638e-03 2.9758525273078193e-02
      1.8787656961193208e-02 -1.1127577941938101e-01
      -1.4794183820537507e-01 -5.7386746629215425e-02
      2.7427380905543364e-01 -2.3152321644899684e-01
      -9.4426619187117672e-02 9.5436414085245974e-02
      -1.3017097721756830e-02 -7.7060976194279721e-02
      -1.9947139491838636e-01 -9.6812367797027461e-03
      4.1145859627158199e-03 -1.0671430289731652e-01
      3.1248973333062707e-01 -4.7388413385523555e-02
      -3.1110169173245283e-02 9.5806288626107974e-02
      1.0156298246939204e-01 -2.2693300641517153e-01
      -4.7965198173003050e-02 5.3381040903249362e-02
      -2.1330001231765050e-01 6.7139650508450832e-02
      -3.9837540366622337e-01 7.3745491139766597e-02
      -3.5540888753369894e-02 -1.0223231969448424e-01
      -9.2238938356431766e-03 -3.9061396825942091e-02
      1.0340931762405700e-02 4.1955215463073271e-02
      1.0693093598056605e-01 1.0866792713922439e-01
      5.3730370168366841e-02 -1.2065044308605009e-01
      1.5078861741147012e-01 3.5621684772564499e-02
      -9.9730219365233991e-02 -3.2929549775366711e-02
      -3.3787498076883707e-02 1.6872631480285845e-02
      1.6983034715391723e-01 -2.7598636826107352e-02
      -2.6710495949550554e-02 1.1421718936654644e-02
      -2.4934278905096349e-01 -8.6634634436290464e-02
      1.4404580910314997e-02 -5.3968398172069207e-02
      3.9703991476942160e-02 3.9526682230517024e-03
      -1.1837122354618141e-02 4.1673564585147293e-03
      -8.6876857819535427e-02 2.3185202087859244e-03
      2.7604569529760253e-01 -1.3448339984161613e-02
      -3.2401830056158300e-02 8.6041418695341251e-02
      -4.2816925371970752e-02 2.6262496364334753e-02
      1.3030452407631891e-02 -7.1422893595373960e-02
      2.3199121228781469e-02 -1.3080941559009718e-01
      -1.5434478353429640e-01 -1.3087347195031556e-02
      1.0923003686076331e-01 1.3090262949228185e-01
      7.9912231720194404e-02 -1.4011045360989521e-02
      -6.1130447383748142e-02 3.0902807148038839e-02
      1.7561729445942964e-01 2.3395809300496208e-02
      3.0137722411949588e-02 -4.6214539067430940e-03
      -1.4663491319393582e-01 4.2499728403737141e-02
      -5.9166737070441011e-02 -9.1229131040095321e-02
      -1.6586896636489129e-02 1.3140291163244008e-01
      -2.0056532414949233e-02 -1.0622749465098269e-01
      5.3117075071403438e-02 2.9135458408838726e-02
      1.0077070436340893e-01 -7.5316947611838939e-03
      2.6214254295481850e-02 1.6473942784725798e-01
      1.5798906501596474e-01 4.2888845465470060e-02
      -3.8159787252622181e-02 5.2372260907377163e-02
      -4.5268154154864168e-02 -8.3465749640812187e-02
      -3.8611832205077204e-02 7.9921477456402767e-02
      1.3509033356940486e-01 6.2520370292401956e-02
      -2.9911496310549533e-02 1.0805696099338022e-01
      2.6353657874537795e-02 -4.3038251741005895e-02
      6.1963314894811668e-02 2.5937352073203617e-02
      5.3752514335069980e-02 6.4085931709283936e-02
      -1.6027313535773019e-01 -1.1115537469758481e-01
      -5.0211647186952854e-02 3.6875891398467022e-03
      -2.0613326221414702e-01 6.6634877508392823e-02
      -6.3231884590326567e-02 -6.6539713407418502e-02
      4.6282342053271690e-02 1.0062149452535499e-01
      1.2087917816734180e-01 8.3604364219172667e-02
      5.4828128941866575e-02 1.2247087340731162e-01
      2.8988781341377290e-01 1.1787237392984748e-02
      -1.0876865696256281e-02 1.6825639128920367e-01
      -7.5897110923051514e-02 2.3518847059010507e-02
      -9.7054538398065104e-02 1.9787734796202525e-02
      -2.1490780266373483e-01 -1.1375424488427445e-01
      1.0338233345348725e-01 1.2666160693408920e-01
      4.7955405429932832e-02 -2.4452163201813919e-02
      -2.3536724310029636e-01 1.9125463967782703e-02
      -2.3277436056835129e-02 1.5133491028105495e-01
      -5.5152459971184946e-02 -5.4365035012602723e-02
      6.0173500584427282e-02 5.9474388285386502e-02
      3.2233602971691665e-02 3.1179001406914254e-02
      -9.7902672536622451e-02 -4.7660200987219181e-02
      6.9672668328020826e-02 3.0240760312175628e-02
      -1.8582958038125819e-01 1.0224391987478548e-01
      -3.3352041590074218e-02 -9.2740760108400377e-02
      1.1088977374140740e-01 5.0054804082413369e-02
      -2.9560738012953849e-02 1.7935770580232707e-01
      2.9905564424469799e-02 1.8380681587597616e-01
      8.9971553989081236e-05 -8.8812115030037900e-02
      -4.6477063168222676e-01 1.4414481057049794e-01
      -4.1815151436390724e-02 -5.0046531667913147e-02
      -2.1158147486357925e-02 2.1749792503587525e-03
      -5.2919175779107840e-02 1.1177862030492966e-02
      2.5482750963525130e-02 6.8762849504276233e-02
      -2.9328383615898537e-02 1.9902341745492630e-02
      -3.0854966480817307e-02 -1.2169142786216700e-01
      3.5742607034961217e-02 8.6537743224016084e-02
      -2.3573395856057926e-02 -9.5687494064070205e-02
      8.4029994926933721e-02 6.1840666037199926e-02
      4.1416611611624694e-02 -7.9434026005781602e-02
      7.4404842447304012e-02 -1.0320335593448803e-01
      -1.9153363346143742e-02 -5.3277133078768101e-02
      -3.2429993085816088e-02 -4.1307500390042308e-02
      -8.4473128464731428e-02 -8.9757198385737730e-02
      -1.5862245896072255e-02 -1.6260112397750902e-02
      -5.1413950157008226e-01 2.5546459309916186e-01
      -1.7919296149770308e-02 -1.1009729078613731e-01
      -4.4329299126683701e-02 3.0935594675733497e-02
      4.5471930516576595e-02 4.2468018525577397e-02
      6.3669271904722130e-02 2.3534879459463851e-02
      -1.1692342475523958e-01 1.4081620892868294e-02
      -5.9476675833195151e-02 -1.5665200683593219e-01
      -1.2608662488747971e-01 2.0841711369034915e-01
      8.4455126054237949e-03 -6.4657631505769586e-02
      1.0820809895098252e-01 2.6001192773820386e-02
      1.9746164956855283e-01 -9.1459585981878339e-02
      1.0255729049794407e-01 -2.8496461446546724e-02
      -8.6015095890204035e-02 -7.8122252522915492e-02
      -3.1773793290226927e-02 -1.9808230390184620e-02
      -1.3483385114637697e-01 -1.4992764912140366e-01
      -6.4031816856400067e-02 1.3216506098275477e-01
      -3.6203056681286760e-01 2.5601527939254015e-01
      -2.7345103477644402e-02 -5.5744322989490960e-02
      -1.3261240963379415e-02 -1.1628997969281987e-02
      -6.7911034799456827e-03 4.5810258501370368e-02
      5.4209663844324449e-02 3.3129935645104296e-02
      -1.3342548119737482e-01 1.4494808300514589e-01
      -4.3646697034437340e-02 -1.2017814280667745e-01
      -2.0791099326656901e-01 1.7179682373145089e-01
      7.7106890656661485e-03 5.5718662702881321e-03
      2.4793002220514754e-02 1.9038744179675465e-02
      2.2063798761788783e-01 1.1193675600551376e-02
      6.1454440772216734e-02 -7.8250909873385233e-02
      4.8189037136779890e-02 -7.0848297643494554e-02
      -2.6123237094830463e-02 1.6552794096721030e-02
      -8.3567288446810564e-02 -1.2693805546338147e-01
      1.2819333208461994e-01 1.7344060669330016e-01
      -2.3519135969163468e-01 1.4705274527914156e-01
      1.4500108394816855e-01 -1.8038733230428664e-02
      1.1632079248540734e-03 -1.2020404911206120e-01
      -1.0367030650305896e-01 2.0562645380425050e-02
      -3.1340586921934623e-02 3.0041556750739738e-02
      9.6471292171079484e-02 2.6569978382513554e-01
      1.5233789690291693e-02 -4.6037651622051000e-02
      1.4511097562454436e-01 5.6743885879823312e-02
      1.2044611964044754e-03 7.4500808956165718e-02
      7.7211264372671756e-02 -4.3205663971948478e-02
      -8.0824887696239078e-02 -3.8342069122398628e-03
      -6.7632584453798217e-02 -1.4451851518106115e-01
      -9.2967579522381286e-02 1.2946987518071911e-03
      -8.0898378346504242e-03 -1.2769321689689903e-01
      -1.3457995387466594e-02 9.7293932264480992e-03
      2.0671188939133187e-01 1.2169947038535701e-01
      -6.2356286612905498e-01 -1.1864312738599887e-01
      2.4634060487565687e-01 -8.1345869008933688e-02
      -2.3684199409920191e-02 8.7264702177087150e-02
      -2.4346439584346294e-01 3.3132852211330027e-02
      -7.1617191532552429e-02 -3.4605301843397026e-03
      3.1321243623306000e-01 3.0612073223028469e-01
      3.8572281435530278e-02 -4.8893465184449203e-05
      3.6283391173311358e-01 -1.7752734503617892e-01
      -1.6656414650283158e-03 5.4078537915894828e-02
      1.2403834442572918e-01 -1.9445417487144644e-02
      -2.7879989269823180e-01 -1.0631572499463345e-02
      -1.6507665823874562e-01 -2.9389773625479326e-01
      -2.9372805564024979e-01 -2.1293880273638169e-02
      -3.1008530641863881e-02 -2.6248753465408237e-01
      9.8324415144564734e-02 8.6288320221622417e-02
      2.1826399468046220e-01 6.3393764363280328e-02
      -4.4415138721953268e-01 -3.0664352606761364e-01
      2.5762768563654970e-01 6.7873990912382803e-02
      3.0514958757650101e-02 4.5564846044220376e-02
      -4.7155472835455908e-01 -1.1199499697930323e-02
      -1.1839286269291607e-01 9.8324605237430182e-02
      5.1305981398400968e-01 2.8383696394370422e-01
      1.4174976219888849e-01 2.3637725136719437e-01
      6.3727941672343902e-01 -2.7166900151188289e-01
      -3.7798561632827375e-02 1.3221520103779338e-01
      7.8827217639015526e-02 -6.0657464412576759e-02
      -6.6743925298042395e-01 1.3260094591529822e-01
      -2.3819249622136188e-01 -4.8925809663983011e-01
      -1.0751387952236667e-01 -2.3823347180888113e-03
      1.2892233841652117e-02 -2.8778945734851313e-01
      2.5593985211217685e-01 3.1473699992002580e-01
      2.9356165510824517e-01 -9.8347621073027483e-02
      -4.4427973982108382e-01 -1.5507603120111713e-01
      8.1071394732972715e-02 -8.1655683757701908e-02
      3.7309529102202067e-02 1.8125054210604305e-01
      -3.3602023405676501e-01 -6.1698495370927628e-02
      -8.5307242178104564e-02 2.8088031753455687e-03
      4.4609683272513834e-01 3.1892468450240052e-01
      1.3264262245811462e-01 1.5142136166527731e-01
      4.5791071288293639e-01 -3.1351635956211493e-01
      3.6299837647571602e-02 8.8724493559506748e-02
      1.6168927193549354e-01 -5.4073047739094847e-02
      -3.5141016372935396e-01 1.1212493207672362e-01
      -1.9273909340729592e-01 -4.6734009071538535e-01
      -1.3320609680749154e-01 -6.3324784249157398e-02
      5.5275329230993486e-02 -3.8451834650582178e-01
      1.5784202273877185e-01 7.2239415768333870e-02
      3.1150152788079299e-01 -2.0598972157281979e-02
      1.8035640923653906e-01 -8.2644450731043345e-02
      -1.5730854066310770e-01 -6.4325004405031541e-02
      6.1591110226079146e-02 1.3400642308179966e-01
      5.3235586430709039e-02 -9.5982542441878607e-02
      -2.0429905608287183e-02 -7.8595954334652926e-02
      1.8911907633100553e-01 -3.1633331676477201e-02
      9.2342954393652005e-02 1.1337180588839274e-01
      1.8589392916483045e-02 -1.8742652368728085e-01
      6.6374868445632590e-02 4.7411913631556592e-02
      7.9977808590951781e-03 3.7180295921703535e-02
      -7.7186905447909140e-02 7.8568354649923192e-02
      -1.1351824673733636e-01 8.3875913861388457e-02
      3.8525745400186093e-02 -9.0186850500967780e-02
      8.3923672402015523e-02 -1.0339240903398772e-01
      1.0737058361621328e-01 2.8151196033829453e-02
      6.5458519020065511e-02 -1.2618217137002213e-01
      4.9857853753425763e-01 -1.8905619482874850e-01
      -3.0165955572682468e-01 -6.3654585138327197e-02
      8.0064646415392474e-02 1.5204855399407868e-01
      1.3850282365699262e-01 -1.0035886084324985e-01
      8.0426676711634355e-03 -1.1612044428203558e-01
      -5.5399886879608465e-02 -1.8333254219471024e-01
      9.6904613515233620e-02 1.3866145881880912e-01
      -1.9380299794455852e-02 -2.1847006270733613e-01
      3.8672926185995445e-02 3.1326114271868821e-02
      -1.4564522173745134e-01 5.0031734937076619e-02
      2.5979868001788416e-02 9.9243219482606004e-02
      -6.4851260489646456e-02 1.2552264220269210e-01
      9.9221737303972324e-02 -1.0280729370151794e-01
      9.5310696540266499e-02 -7.6670084064313863e-03
      1.5618792772964019e-01 -1.2053658047860310e-02
      -1.0447086500028921e-01 -2.5202714417360500e-01
      6.8188849805207141e-01 -2.8463559934503668e-01
      -2.3677914763156138e-01 2.3686064265033231e-02
      8.5530361868536076e-02 9.9504612434263935e-04
      6.3150298975948330e-02 -7.5043812841816285e-02
      -4.2836939900706772e-03 -1.7087746766858264e-01
      7.8626005183551340e-02 -2.6835416915404570e-01
      2.7880277010499728e-02 2.2486495492789565e-01
      7.6540368767883490e-02 -2.4301643126634304e-01
      -2.3634709052939094e-02 6.5022889699323336e-02
      -3.0722232752960105e-01 5.1749438519468213e-02
      -1.8508643084578655e-01 4.2686675016265455e-02
      -7.1911303553808023e-02 1.2505750592616649e-01
      1.0204668739703376e-01 -8.3022824382687682e-02
      8.2407237798551414e-02 5.2447212126934657e-02
      1.7303563587184140e-01 9.1979284198573166e-02
      -1.5754727842928740e-01 -2.3848221352673557e-01
      2.4950525967782256e-01 -2.1702505128724506e-01
      -1.4508871982103974e-01 -1.2420952396651962e-01
      -3.4225645354502773e-03 9.2633712529489209e-02
      1.0797086691937846e-01 -7.8241694925849425e-02
      2.2272628787448009e-02 -2.5363125584206386e-01
      1.4555266095043473e-01 -1.1558908100550390e-01
      -7.4273270290133734e-03 4.7368654836469945e-02
      1.4790172234856774e-01 -2.4762038171855000e-01
      2.8418171725157631e-02 -8.1660361862390124e-05
      -3.5297326993448058e-01 8.2141787636725111e-02
      -5.1445658329800623e-02 -9.6311942390116381e-02
      2.7709709843416488e-02 1.7634555323581443e-02
      -1.3590929299597626e-01 -7.2804815312128651e-02
      5.6967465346912681e-02 -1.4615388897990444e-01
      1.5173261013793227e-01 -1.3998822965218932e-01
      -1.6241995722663369e-01 -1.7571608049991211e-01
      3.2394035120874888e-02 -1.1706463932476326e-01
      -1.8158101541699931e-01 -4.8428483631171623e-02
      -1.8733279629606449e-02 -1.5906013608781605e-02
      -2.9905617966154107e-02 -3.0666386772589878e-02
      2.3184791461751616e-02 -1.2005641251240562e-01
      1.6334086567719575e-01 -4.5171514471700751e-02
      -6.9887017863709089e-04 4.3426121553956372e-02
      2.9195533990357240e-02 -2.7282368648022065e-01
      -2.0796715681032529e-02 9.0172900805859414e-03
      -1.3588214034906260e-01 8.9157853050426325e-02
      -1.1441046345235927e-01 -3.1866199132971396e-02
      1.1808875187708987e-02 -5.6515019696234091e-02
      -3.9987062580176397e-02 -7.6170705957090412e-02
      1.2024376302707163e-02 -5.6490828743404990e-02
      2.5983593920365915e-02 -8.8669411220659480e-02
      -3.1058318943387390e-02 -4.0129404000287916e-02
      -2.0567171957331619e-02 -1.2422680117833343e-01
      -6.4189269931907841e-03 8.4887211009518362e-02
      2.3503559815400339e-03 -5.2933885102149671e-02
      -9.9051548872402376e-02 -3.8377267265042262e-03
      -2.5423346712997865e-02 7.3929712560056558e-03
      -5.2814989048764478e-02 -1.3304841929557309e-01
      -2.9818438605362398e-02 6.2363536752876730e-02
      -1.4007154917024067e-01 -5.1126956845721709e-02
      -8.0041859045452080e-02 3.3809959806526367e-02
      -1.9492582055588628e-01 4.5307883158206851e-02
      5.3611667959391459e-03 8.4989936428934418e-02
      -2.0040786918413905e-02 -2.5503172836462081e-02
      4.5256928491499968e-02 1.5859231546584938e-02
      -5.7838075196234096e-03 1.4901544550175752e-01
      -5.2130043121671327e-03 1.4400721628729635e-01
      -2.9755536509068006e-02 -1.4286678159545464e-02
      2.3057269195221614e-01 1.0882346466539745e-01
      7.0026006710719291e-02 1.4268747700868165e-01
      1.8766319600887628e-02 -1.3429845035524152e-01
      1.8898062036502927e-01 -2.0418699017479780e-02
      2.7210713642657767e-03 7.0006243471497823e-02
      -1.7069364069859780e-01 -8.3035909325039056e-02
      -6.2059032147793132e-02 3.4805581816415923e-02
      -1.3203709038370168e-01 1.9242763378706274e-01
      -1.1738570489282857e-01 -1.0774578748794245e-02
      -8.3757509066901312e-02 5.7908298212898746e-03
      5.5120257370082464e-02 7.4626345679206021e-02
      8.5709070703814966e-03 2.5478573918805686e-01
      2.5993430327210798e-01 1.1545359630472392e-01
      1.7186273700994698e-02 2.1632904033456787e-01
      -8.1041106041488772e-02 6.4278835605288021e-02
      -7.2490865553370670e-02 1.3692531719672829e-02
      -1.5374433608205465e-01 7.7145077619345118e-03
      3.6158015027050502e-02 9.2309071829755521e-02
      1.6545976890210636e-03 -1.0970045181147427e-01
      -4.8242117866009779e-02 2.4916568152667531e-03
      1.5835657048720187e-02 5.4777976365872047e-02
      -1.1961684272344227e-01 -4.6616544364627366e-02
      5.4955783211689493e-02 -1.8975781477421164e-01
      -4.4519354035337508e-02 1.3964924991232708e-01
      -1.1617965722824659e-01 -1.0990193937860139e-01
      1.6814285305233916e-02 6.4071250652212100e-02
      7.9434078863113655e-02 1.0067078981646532e-01
      -1.1357863583763030e-02 1.1214834910091271e-02
      2.0766496097967208e-01 3.4919622738479400e-02
      -1.2746141244482239e-02 1.3155305941068851e-01
      -1.5516927987664664e-01 5.5231771690135115e-02
      1.1100093223993163e-02 -1.5457008797107681e-02
      -2.5732942502424422e-01 1.2983565656466262e-01
      -4.6496434764689711e-02 8.0788922521275314e-02
      3.6666497735168231e-02 -1.2211865063174704e-01
      1.6790933008727038e-01 6.0460353675483068e-03
      1.6970827314446046e-02 6.5368385203613349e-02
      -4.0547822462316990e-01 -1.0377050117269686e-01
      2.3503799613320955e-02 -8.4640329732945982e-02
      -1.6053870494194589e-01 2.8134508140609304e-01
      -1.0883445095968562e-01 -9.5057603303247806e-02
      -2.6755570893541736e-02 2.6060978221807866e-02
      2.8698281979328033e-01 4.6700699546324061e-02
      2.8269695070590788e-02 1.8009548368122352e-01
      2.1368352221667217e-01 6.8374115785135428e-02
      -1.7110826337022742e-02 1.9358807341932086e-01
      -1.0985497190045754e-01 -4.9376638533871371e-02
      -1.0297229468713541e-01 2.3581842716677737e-02
      -3.3547991540813737e-01 1.6978953816477427e-01
      -1.6638442773954307e-01 -4.6416621301836186e-02
      -9.8570925387800566e-03 -1.9669175433281363e-02
      9.8382473427474859e-02 1.4797771209638821e-02
      4.9638730560894295e-02 3.0390224665058630e-02
      -1.2768311947902206e-02 -2.4562897143450745e-02
      4.0735545978800664e-02 -1.1415886276478120e-01
      1.0041398847593353e-02 1.4849020003549454e-01
      -1.3736371324747568e-02 -5.8860384183245310e-02
      -5.4675379286458568e-02 1.7462217594931263e-02
      5.8443913997987151e-02 -3.8213711857467018e-02
      1.0432730878409750e-01 7.0920924637957905e-02
      3.2232837905213599e-02 1.3296543706068059e-02
      -2.7631812350374079e-02 -4.2866695409203265e-02
      -5.2094311356597110e-02 -1.6820577106785331e-01
      -5.0098865450954086e-02 5.6249611133632894e-02
      -2.7751342787983119e-01 1.2510735824692870e-01
      3.8222255687665594e-04 1.3504546937786965e-01
      5.4454731665980520e-02 -3.5281175925895546e-02
      4.3805910598077577e-02 5.6423711134102293e-02
      -1.1449368706344590e-02 9.0162319975339522e-02
      -2.2446135221727764e-01 -1.8662057639744122e-02
      -9.1907902426549507e-03 1.7206741424518804e-01
      -1.4284348496406701e-01 2.7174197755132684e-01
      -6.0140674658117267e-02 5.6920020950845751e-02
      -2.0258598926678878e-01 -4.1629009027601298e-02
      1.2232925203508398e-01 7.6342300184834011e-03
      -5.5845443251599458e-02 1.3605649296897454e-01
      1.0280612228090012e-01 5.6655495574124491e-02
      -3.4438301497256699e-02 2.0730143107486970e-01
      -1.1197500017917516e-02 3.7802696703470653e-02
      1.2023505671203888e-02 2.1738592121112971e-02
      -6.8514897207813633e-02 1.3177885871205963e-01
      1.1280862920778158e-01 1.3227079403465181e-01
      4.4648038148035883e-02 -2.4866441206013731e-01
      8.9083461169673833e-02 6.6399941334741447e-02
      -4.0962753298315682e-02 6.8079324409427391e-02
      -3.1387622667082898e-01 1.4541558682421996e-01
      -4.7526649126753535e-02 7.8485873404055245e-02
      -2.3351482566101980e-01 2.1835484146135509e-01
      -8.0661918040865463e-02 9.5621677669107258e-02
      -2.2899951245295491e-01 -8.2816314537985589e-02
      3.0058924917248553e-01 -4.3223056722912351e-02
      -8.8629745786229702e-02 8.1685463583799925e-02
      1.0281727142674194e-01 8.8441198629952242e-02
      -2.8315828650716700e-02 1.3344582686269923e-01
      -3.9137206712710843e-02 2.5310352196503287e-02
      1.3825654269395962e-01 1.1088590204571008e-01
      -2.9428571591281050e-01 4.9786929593780213e-02
      1.8105594563947086e-01 6.7767281530050946e-02
      2.3706532502865897e-02 -8.0518793832718524e-02
      -3.1242530890453157e-02 8.0611015012994627e-02
      -7.7621178732147217e-02 6.7199847328152068e-02
      -1.0440445380886242e-01 2.5195845992767302e-01
      1.2335420288360798e-02 6.7966411107937802e-02
      -1.4081636750479397e-02 5.4535334762199107e-02
      -2.8536216568714631e-02 1.0548181017686878e-01
      -6.0080405632207720e-02 -6.2087567522250288e-02
      7.8470668225057466e-02 -1.1125025297130463e-02
      -1.3569297890184498e-01 -4.4238159947308453e-02
      -6.9315410595903820e-02 4.0825882929482006e-02
      -5.4462409858505277e-02 -9.2641885025985631e-03
      -1.8176156301886858e-02 1.5011085649949987e-01
      2.4702401306659411e-01 1.1843257710611463e-01
      -5.5695354448247462e-02 -2.9581246728607130e-01
      5.1564462564976388e-01 1.5532195383899686e-01
      6.2806692538232498e-02 -8.7954085494421214e-02
      -4.0436404703037204e-01 9.2423620954040470e-02
      -1.7526942282936106e-01 1.6383650580507364e-01
      2.6718776433871017e-01 5.0521645629497502e-01
      1.1394312935273561e-01 2.7770807229483319e-01
      3.8778029633696665e-01 -1.2658803595749285e-01
      -5.3242178126440852e-02 1.6162405815971476e-01
      4.2724402833206734e-02 -1.7925567527179720e-01
      -3.9598519800521742e-01 7.0132702297359767e-02
      -2.9486095006355773e-01 -3.7965000447759767e-01
      -3.2525218809739553e-01 8.7457887243665100e-02
      -6.8195478429046399e-02 -1.2149606147238678e-01
      2.1020341702093814e-01 3.7227109761871141e-01
      5.1119672328880938e-01 7.9702009660047188e-02
      -4.6375872157764331e-01 -2.1001959007987045e-01
      4.9488564716328542e-01 -1.8087500794468348e-02
      -1.3905002418464787e-02 9.0915804813797053e-03
      -5.0964447491222331e-01 1.5810340679885591e-02
      -2.2066626739574485e-01 1.5463126899860244e-01
      4.3798877152324023e-01 5.6463216018007845e-01
      1.1885301903928182e-01 1.2224829932581929e-01
      7.8698692304946105e-01 -2.5242335986228370e-01
      2.5649214481797713e-02 1.0602630323488328e-01
      1.5705965254645515e-01 -1.7285025477489221e-01
      -4.9880745643075763e-01 -3.1121622009820084e-02
      -3.5021503586810054e-01 -5.9142551244114450e-01
      -4.2191595281317773e-01 6.6848861015390615e-02
      -4.8972206110694881e-02 -4.4647982830091404e-01
      2.1282278089034318e-01 2.0820720464923972e-01
      4.1974641500694843e-01 1.7139979452046486e-01
      -2.4303310718532953e-01 -2.3764312899302165e-01
      1.7049014367794524e-01 -7.3706760985723638e-02
      5.9667938697068407e-02 1.2234689761944975e-01
      -5.6436660514277448e-01 -4.8583542794543778e-02
      -2.0961684452456272e-01 1.2789824812427855e-01
      5.5205419436778946e-01 3.1771578177119963e-01
      1.8021478565474966e-01 1.4501938427746119e-01
      6.3759711823938647e-01 -3.7524330127092703e-01
      4.4728353936128146e-02 1.1455406419478771e-01
      1.1000368722054535e-01 -1.5462949205809015e-01
      -5.7673450260350823e-01 6.5970450617968676e-02
      -3.5936963826796148e-01 -6.2784795253721848e-01
      -4.4768294412713699e-01 8.0695206663694667e-03
      2.7912065431683866e-02 -4.0788297891550168e-01
      2.4107033596897035e-01 1.9485019650968477e-01
      2.7854729868676714e-01 2.8054194748670441e-03
      3.8006027989060311e-02 -2.3696980857003624e-01
      6.8086990994926835e-02 -1.0740660067091666e-02
      9.7844967050503162e-02 -1.0031341735845583e-02
      -3.6905668106487810e-01 -7.9894638448039984e-02
      -1.2904966880947666e-01 1.0010087759768356e-01
      5.5798259935728034e-01 1.8243064003157758e-01
      1.9259848275772981e-01 2.4407673404022762e-01
      4.5235147326358882e-01 -2.3961454899363976e-01
      3.7389706834525922e-02 8.7704927459595752e-02
      1.8507793599084631e-02 -1.3586317449903940e-01
      -5.0893525197754685e-01 1.1353499822048112e-01
      -2.9249752342049001e-01 -4.2350554451138345e-01
      -3.1331794132069646e-01 -2.4100443399439689e-02
      8.2251086740237206e-02 -3.0934850725833757e-01
      2.3519356688380325e-01 2.1525656311081298e-01
      2.4011461863669006e-01 -1.1634045062912450e-01
      5.8240334004068006e-01 -1.9286067092857909e-01
      -3.0856175066249370e-03 -1.0297203661622541e-01
      4.4564434365933658e-02 -7.5091941978323558e-03
      -8.4810036632922848e-03 -9.8366682136853553e-02
      -3.9372703958726663e-02 -6.8904802616067184e-02
      2.8531786205535381e-01 6.7775304478748466e-02
      1.1766772673316073e-01 1.7667009601620040e-01
      3.8220642325892989e-01 -1.9067032896440211e-01
      6.5971319857944535e-02 6.3423847877535772e-03
      4.4489947201735602e-02 -7.8675949528228525e-02
      -2.8486551559910683e-01 2.7266712759768979e-02
      -1.4525253038296765e-01 -7.5435355316640515e-02
      -2.2216382672057869e-01 -1.0668628219925690e-01
      8.4202906953643422e-02 -2.3790705011527047e-01
      1.9290953447525824e-01 3.2369131876854272e-02
      6.7816059369724457e-02 -1.2655603068896681e-01
      4.4672110079162780e-01 -8.6005191605844217e-02
      1.1619591731065772e-01 -7.7877094994030227e-02
      3.1725575710838151e-02 -9.2935807707159090e-02
      -1.4536465506782803e-01 -6.8866250884289493e-02
      -5.0671570539196076e-02 -6.9263408810926394e-02
      2.3815756284993422e-01 1.5544204324659444e-01
      7.1578740023840529e-02 1.2874899748592156e-01
      3.0639863181850596e-01 -1.9825139749431145e-01
      6.4269348389815018e-02 1.2702135924663328e-02
      -4.3101682784605570e-02 -6.9782438377085740e-02
      -2.2286123034764702e-01 -6.0745573857999675e-02
      -1.3157054094926166e-01 -1.9248111188755065e-01
      -2.2668900961045546e-01 -4.9320494421642366e-02
      5.7211022765672824e-02 -1.9366909772943527e-01
      9.5057707472074190e-02 2.5724103916155053e-02
      6.1558500420867066e-02 -5.5620123441742220e-02
      1.7688600873655932e-01 -1.3386059456031302e-01
      8.9797568172656411e-02 -1.1078126468304410e-01
      -6.8348255632198450e-03 -1.1833340207398049e-01
      3.3648467290543368e-02 -7.1514221173253845e-02
      -7.5394129089282986e-03 -2.0559954363202199e-01
      2.0998736915940278e-01 1.5019718784884278e-01
      -1.8792796985866846e-03 1.6609499675264528e-02
      2.4883154874963931e-01 -2.3007732586202917e-01
      3.1119054059055996e-02 -4.4285921885296536e-02
      -1.8205125699512414e-01 -3.2013140805983624e-03
      -1.5040023079677764e-01 -8.9107206429791155e-02
      -2.9789739152168329e-02 -2.0438431841446860e-02
      -1.3097791942443432e-01 -8.7029266915971140e-02
      5.2084073693260728e-02 -2.1172622226723478e-01
      1.2488865238399575e-01 -3.7200756866615135e-02
      8.3530570304901200e-02 -1.3268955307207173e-01
      -2.2077289261960953e-01 -2.2336481322143587e-01
      -1.2040325444572114e-01 -6.9289267864827475e-02
      -2.2287404063898782e-02 9.3033257482683762e-02
      -8.2908619826292870e-02 -8.7433124291736806e-03
      1.6826671653349078e-02 -1.8013214649921241e-01
      7.5189528489833873e-02 -9.8503822090580936e-02
      -9.0152431574055419e-02 7.3777975307524821e-02
      4.8605439479746715e-02 -2.9459594160166425e-01
      -2.8972811872529942e-02 8.2750085039918000e-03
      -1.2048810764548772e-01 1.1652922659539931e-01
      -9.8037893648168298e-02 -3.9027502902556174e-02
      2.0947839989678974e-02 -4.1721281240305864e-02
      -1.0309279996860232e-01 -1.0019770423533735e-01
      7.9272723420597158e-05 -3.4732008457783327e-02
      9.4505497319972973e-02 7.7071691816664678e-02
      -3.3853079323438263e-02 -1.2854350258979072e-01
      -2.2114111751133919e-01 -2.1632146987706533e-02
      -2.2859715444140313e-01 -3.7464343817182784e-02
      -4.3020180232448128e-02 3.4499121608262726e-02
      -4.2706871255151935e-02 2.5481604906772027e-02
      3.6896526106791540e-02 -1.4992666621733686e-01
      -2.1419977100016269e-01 -1.7196948881835702e-01
      -6.9804303503334428e-02 -7.4713781765643389e-02
      -1.6211311701557513e-01 -1.7804643828046229e-01
      -6.7032956497936530e-02 -3.8407016222724542e-02
      -7.5527921070668982e-02 1.6512655305476440e-01
      1.9378889426800006e-01 9.8757300148100219e-02
      1.0820776726352539e-01 -1.8264357923938778e-02
      7.5000332532893149e-02 -9.5851242054040733e-02
      -3.7565223705392864e-02 9.3278216443748230e-02
      -5.7405698391063693e-02 -3.2243225696946175e-02
      -1.2604259280200558e-01 1.4973347132396309e-02
      -2.5436405207208890e-01 1.9245045046648540e-01
      -6.6165020376035985e-02 8.3056700214669640e-02
      -7.4166953748338038e-03 -4.7923266620913327e-02
      5.3641506093180691e-02 4.8800148160982118e-03
      5.7136208838400322e-02 1.0868686455806376e-02
      -3.3029843900368627e-01 -1.2432963858577360e-01
      -7.5954554784065112e-02 -1.4587662357079678e-01
      -3.2308719301079603e-01 2.1580441358069477e-01
      -8.6038469571133577e-02 -7.5579308125573078e-02
      -1.2894103329138903e-01 9.8140171305973925e-02
      2.7859597587681850e-01 1.7413537441335305e-02
      1.2438705499690525e-01 1.4236476540935789e-01
      2.4792126154168628e-01 -6.1173403964993036e-03
      -2.0515444034230185e-02 2.6157731812237878e-01
      -2.0203435297349628e-01 -3.2438575709719419e-02
      -8.3671727189813569e-02 -2.9901515463527231e-02
      -3.9362556425312911e-01 2.6823618982297942e-01
      -2.2268063161721552e-01 2.8968626492733827e-02
      -2.4279270128866486e-02 1.5599762670974486e-02
      2.5967588305445383e-01 2.2311103367721932e-03
      9.6478148752969950e-02 -2.5307493713899541e-02
      -3.5360725365142054e-01 -3.4129011223236205e-01
      -6.8694118498680748e-02 -3.3023688429386344e-01
      -4.1345681809637386e-01 3.0964950852719475e-01
      -1.2454581766526614e-01 -1.7862875358470107e-01
      -7.2827513394570345e-02 1.9176586982744231e-01
      2.9692633993154044e-01 5.3753411267058591e-02
      1.1641428526975761e-01 3.4346733090634651e-01
      3.1658863637080092e-01 -2.4197620690882830e-02
      -1.9819154821719125e-02 3.5688830862316279e-01
      -3.4899228706342134e-01 -1.0009541395479615e-01
      -2.5717448567736378e-01 -1.8288744508676510e-02
      -2.3260300465025496e-01 4.9643601119731040e-01
      -3.7302173292560142e-01 7.4684259387322899e-02
      3.4197278591114655e-02 -7.5702823583984363e-02
      4.0937106389629574e-01 2.6461214011604593e-02
      8.3502437088744566e-02 4.6331036832946697e-02
      -5.4963030379188971e-01 -4.8221007365210516e-01
      -1.2005087509379014e-01 -3.3804254673014600e-01
      -7.9448166355500505e-01 5.0797759273469667e-01
      -1.1621366554775839e-01 -1.3641821267078433e-01
      -1.0184352077538839e-01 1.7376976971700031e-01
      6.2863619115066660e-01 7.2949953097629873e-03
      1.1374299997609144e-01 4.9235854915909300e-01
      5.3839266554310905e-01 4.1225816508197712e-02
      -1.6074611209594965e-02 4.6394845572492249e-01
      -3.4039573102792581e-01 -1.6811450896885619e-01
      -4.2061150210930381e-01 -6.2581946460075304e-03
      -4.6588072006334508e-01 4.0266524362445255e-01
      -2.4362456970988405e-01 9.8984875795733521e-02
      3.2309989889018915e-03 -3.8433498340828716e-02
      4.5751101412850187e-01 4.9283108725434524e-02
      6.7704088319836639e-02 4.7656686035268923e-02
      -5.3383461719946090e-01 -3.9323936851262747e-01
      -1.6342515062454213e-01 -1.8627666018288006e-01
      -6.2704693179025406e-01 4.3582108180673612e-01
      -1.0531452999654400e-01 -9.7820046943444414e-02
      -1.8619542030273642e-01 1.1790855565192006e-01
      5.2874673438737951e-01 -3.6772185325892111e-02
      1.4452478991575898e-01 5.5966022446936858e-01
      4.5482551808545252e-01 4.9595556254429331e-02
      -6.1708466151202540e-02 4.4915368711831527e-01
      -2.9415871764635032e-01 -1.2190666750519245e-01
      -3.1196321758185497e-01 5.9103888063195636e-02
      -5.7530921514161976e-02 2.7410387657700619e-01
      2.9575008517944739e-02 2.8073931735613800e-01
      1.1444661998541950e-01 -2.5591009356294403e-01
      3.3718046844513994e-01 8.7125701905150260e-02
      -1.9955700924838598e-02 1.0850743885254460e-01
      -5.8602285434274615e-01 -1.7533845670067266e-01
      -5.4441891386065158e-02 1.4694345766151817e-01
      -7.6293586273001268e-01 5.1127297314356379e-01
      -1.7693550926644341e-01 7.4527686291604917e-02
      -3.9443532858982860e-01 1.3959198570816213e-02
      5.6784960697285991e-01 4.0431257707754929e-02
      -1.8675879035027081e-02 4.6304598191063490e-01
      5.6660970091410923e-01 1.6981358756414358e-01
      -5.7250931106819530e-02 5.7252440854231168e-01
      -1.5292148416644616e-01 1.4581580527040941e-01
      1.6280435508578515e-02 8.3063648244726146e-02
      -2.3140887498499111e-03 6.6396900169312725e-02
