<?xml version="1.0"?>
<opencv_storage>
<OCR type_id="opencv-ml-ann-mlp">
  <layer_sizes type_id="opencv-matrix">
    <rows>1</rows>
    <cols>3</cols>
    <dt>i</dt>
    <data>
      256 32 2</data></layer_sizes>
  <activation_function>SIGMOID_SYM</activation_function>
  <f_param1>5.9999999999999998e-01</f_param1>
  <f_param2>1.</f_param2>
  <min_val>-9.4999999999999996e-01</min_val>
  <max_val>9.4999999999999996e-01</max_val>
  <min_val1>-9.7999999999999998e-01</min_val1>
  <max_val1>9.7999999999999998e-01</max_val1>
  <training_params>
    <train_method>BACKPROP</train_method>
    <dw_scale>1.0000000000000001e-01</dw_scale>
    <moment_scale>1.0000000000000001e-01</moment_scale>
    <term_criteria><epsilon>9.9999999747524271e-07</epsilon>
      <iterations>1000</iterations></term_criteria></training_params>
  <input_scale>
    6.6290777058456145e+00 -6.4746286946100398e+00
    3.6420090222699377e+00 -3.3428643698518963e+00
    3.3125103026574654e+00 -2.9765509993502901e+00
    3.2457447846610892e+00 -2.9010409265186872e+00
    3.0351185626245645e+00 -2.6590434784420767e+00
    2.7893015050875336e+00 -2.3667879453159060e+00
    2.5458055721704853e+00 -2.0604823076724745e+00
    2.3492201764155856e+00 -1.7908152969812330e+00
    2.2832885117964370e+00 -1.6924178999893251e+00
    2.2870056045075176e+00 -1.6981185780501196e+00
    2.4051817599948446e+00 -1.8705914972523576e+00
    2.5862622582365167e+00 -2.1130019220452061e+00
    2.8341590083883941e+00 -2.4211284677449152e+00
    3.0853180244941587e+00 -2.7173065457936896e+00
    3.2523308099352986e+00 -2.9085124423618169e+00
    3.7034681248112240e+00 -3.4102330318865643e+00
    3.7187037576993367e+00 -3.4268943533561145e+00
    2.7756602310057934e+00 -2.3501566866297590e+00
    2.4032131446683889e+00 -1.8678335266648722e+00
    2.1866165052914179e+00 -1.5352617969274731e+00
    2.0597197190020933e+00 -1.2760535438463509e+00
    2.0204358854084585e+00 -1.1535367892023973e+00
    2.0073509416603943e+00 -1.0894918489069823e+00
    2.0019376483952502e+00 -1.0449982122875849e+00
    2.0004928639815716e+00 -1.0224483397983899e+00
    2.0005599554023585e+00 -1.0239450107641568e+00
    2.0039329737550520e+00 -1.0647107362211241e+00
    2.0139237772112510e+00 -1.1251661402390085e+00
    2.0461277331769936e+00 -1.2390723736408942e+00
    2.1544613681403373e+00 -1.4777627635622910e+00
    2.3909682020395739e+00 -1.8506041173458707e+00
    2.7727416634020590e+00 -2.3465916828552857e+00
    3.3076483389890812e+00 -2.9710691670573732e+00
    2.4030792285719689e+00 -1.8676457955352743e+00
    2.0995441723656896e+00 -1.3691800274252039e+00
    2.0088411577741359e+00 -1.0985518664158822e+00
    2.0000368257839245e+00 -1.0060868659863811e+00
    2.0011607288657940e+00 -9.6650595044426146e-01
    2.0036489131519541e+00 -9.4139067633883022e-01
    2.0064425116004618e+00 -9.2289138533231430e-01
    2.0050168450612822e+00 -9.3163432821632652e-01
    2.0035928304175470e+00 -9.4182927816564466e-01
    2.0014882704576902e+00 -9.6215885053469352e-01
    2.0001365337565065e+00 -9.8838330145797815e-01
    2.0003115275918812e+00 -1.0178065953412632e+00
    2.0083588211171990e+00 -1.0957014766946767e+00
    2.0945099864825210e+00 -1.3582903945523532e+00
    2.4018757457709530e+00 -1.8659580038068593e+00
    3.1276302027627940e+00 -2.7661119329951669e+00
    2.1741410884129464e+00 -1.5133596105468592e+00
    2.0082861668427183e+00 -1.0952657040100746e+00
    2.0001243437335270e+00 -9.8891104641379646e-01
    2.0010300594966663e+00 -9.6841635762146483e-01
    2.0002363988607956e+00 -9.8474247727172426e-01
    2.0000278720235203e+00 -1.0052933505373196e+00
    2.0005922790530164e+00 -1.0246347251804746e+00
    2.0014900644780989e+00 -1.0393535747022951e+00
    2.0017228584983808e+00 -1.0423776978523795e+00
    2.0021802911368463e+00 -1.0477964572854346e+00
    2.0008225266322799e+00 -1.0290939370024448e+00
    2.0000128545765214e+00 -9.9642109357552566e-01
    2.0000007572850818e+00 -1.0008706000081866e+00
    2.0098659105850172e+00 -1.1043826643566126e+00
    2.1774590277198524e+00 -1.5192314933555742e+00
    2.8852489592131851e+00 -2.4824155110933006e+00
    2.0489439098457405e+00 -1.2470540441023183e+00
    2.0000567080211096e+00 -1.0075588802245463e+00
    2.0006002173758732e+00 -9.7579893644868110e-01
    2.0011544043643186e+00 -1.0345586313262933e+00
    2.0086701166408822e+00 -1.0975493778830703e+00
    2.0133133671065195e+00 -1.1222321071624666e+00
    2.0121295659937468e+00 -1.1163659506540928e+00
    2.0126852026373996e+00 -1.1191496544177306e+00
    2.0181255568301331e+00 -1.1439986549740229e+00
    2.0207425534943031e+00 -1.1547669722358638e+00
    2.0148170076118586e+00 -1.1293588770751439e+00
    2.0032735149828094e+00 -1.0588748039106792e+00
    2.0001667943297430e+00 -9.8716823999083314e-01
    2.0003599891287047e+00 -1.0191542277965009e+00
    2.0646031704369294e+00 -1.2885174372740218e+00
    2.6533126320850875e+00 -2.1984458439078276e+00
    2.0148227522958915e+00 -1.1293854750062600e+00
    2.0006489586366376e+00 -9.7484774633573823e-01
    2.0000240893570740e+00 -1.0049201504382286e+00
    2.0095790729348209e+00 -1.1027793961182615e+00
    2.0257767515590150e+00 -1.1739562552255614e+00
    2.0251443441567489e+00 -1.1716394649688904e+00
    2.0139349049497608e+00 -1.1252190923947998e+00
    2.0111258674777970e+00 -1.1111887530710125e+00
    2.0181702219259732e+00 -1.1441878909757719e+00
    2.0304627370076216e+00 -1.1904304883478345e+00
    2.0320429205267008e+00 -1.1957423764519537e+00
    2.0124005445011428e+00 -1.1177304828534571e+00
    2.0001567583106583e+00 -1.0125989404027458e+00
    2.0000273841100422e+00 -9.9478069124145940e-01
    2.0276761236489791e+00 -1.1807740244090614e+00
    2.4332737674231408e+00 -1.9096053583245225e+00
    2.0038428707496272e+00 -1.0639420985728716e+00
    2.0024534276775197e+00 -9.5167943839033720e-01
    2.0004505165631854e+00 -1.0214518290003607e+00
    2.0148629972941317e+00 -1.1295716823143302e+00
    2.0260227896629770e+00 -1.1748510873004190e+00
    2.0160966066621873e+00 -1.1351757270000111e+00
    2.0022305452382878e+00 -1.0483570874795265e+00
    2.0001030828243804e+00 -9.8989843937894006e-01
    2.0017267209999687e+00 -1.0424261610711911e+00
    2.0126163702930766e+00 -1.1188078006699693e+00
    2.0186394255244577e+00 -1.1461637209263718e+00
    2.0112053239922703e+00 -1.1116060289884759e+00
    2.0006548880800050e+00 -1.0259203199941500e+00
    2.0010033915269667e+00 -9.6882136707823019e-01
    2.0120519705058046e+00 -1.1159727132809476e+00
    2.3006503904868021e+00 -1.7188742738740579e+00
    2.0004515027097871e+00 -1.0214755436706191e+00
    2.0049345413254516e+00 -9.3217766439000027e-01
    2.0004485475076126e+00 -1.0214044013815919e+00
    2.0106794655066738e+00 -1.1088190942345095e+00
    2.0110763542908550e+00 -1.1109280518818043e+00
    2.0013516767718889e+00 -1.0374472067234544e+00
    2.0045995411516211e+00 -9.3444087214441462e-01
    2.0145881631643827e+00 -8.8629256592841832e-01
    2.0044769828690594e+00 -9.3529079757610201e-01
    2.0017093739323126e+00 -1.0422080957993232e+00
    2.0077618565361792e+00 -1.0920677648164183e+00
    2.0074920513372208e+00 -1.0903836851795321e+00
    2.0000885537953716e+00 -1.0094546836803513e+00
    2.0054180529442336e+00 -9.2905176770788900e-01
    2.0043131081428416e+00 -1.0678662098938678e+00
    2.2793124464214936e+00 -1.6862971538983265e+00
    2.0006800866462382e+00 -1.0264207311150442e+00
    2.0064688049370329e+00 -9.2274051266089574e-01
    2.0002627937493496e+00 -1.0163428438948514e+00
    2.0066734656752341e+00 -1.0850961326719104e+00
    2.0065934910535694e+00 -1.0845639565324410e+00
    2.0000000001346288e+00 -9.9998839712016507e-01
    2.0104910148010013e+00 -9.0268562172929800e-01
    2.0197963102223206e+00 -8.6885105766876269e-01
    2.0105150791878916e+00 -9.0257978684061857e-01
    2.0000539462945421e+00 -1.0073718368010649e+00
    2.0074394799577839e+00 -1.0900523318738100e+00
    2.0075448109323957e+00 -1.0907151566039268e+00
    2.0003970146378180e+00 -1.0201247222874832e+00
    2.0060146968855652e+00 -9.2539458512242623e-01
    2.0007649513542076e+00 -1.0280428741169545e+00
    2.3284833987148681e+00 -1.7604453009254604e+00
    2.0016277067797859e+00 -1.0411669094962905e+00
    2.0063267225131023e+00 -9.2355978490760926e-01
    2.0000961349618418e+00 -1.0098530290986198e+00
    2.0085700445408756e+00 -1.0969586752508496e+00
    2.0107962890038298e+00 -1.1094434662030530e+00
    2.0036969277859469e+00 -1.0626789217632748e+00
    2.0015608770861366e+00 -9.6126479391393260e-01
    2.0086657533670174e+00 -9.1114206604548553e-01
    2.0014936557717156e+00 -9.6209176969670629e-01
    2.0051098425743636e+00 -1.0740837280516407e+00
    2.0162408334710116e+00 -1.1358183988611834e+00
    2.0137906017665137e+00 -1.1245309542404944e+00
    2.0003555978875407e+00 -1.0190359404217959e+00
    2.0047269791046336e+00 -9.3356984749509153e-01
    2.0006537000309468e+00 -1.0258964972926572e+00
    2.4985335600297902e+00 -1.9980441084969909e+00
    2.0067539296569361e+00 -1.0856286125225347e+00
    2.0028511070839490e+00 -9.4801076825877606e-01
    2.0000012150222597e+00 -1.0011028881598920e+00
    2.0119232128414413e+00 -1.1153176926370660e+00
    2.0245276947890782e+00 -1.1693564848477149e+00
    2.0199501802829722e+00 -1.1515719923191223e+00
    2.0051868796734147e+00 -1.0746601145456289e+00
    2.0003164637770254e+00 -1.0179483643881948e+00
    2.0043437917532789e+00 -1.0681151205853059e+00
    2.0204970279580272e+00 -1.1537826910826050e+00
    2.0300535499456478e+00 -1.1890364123833186e+00
    2.0175250373001066e+00 -1.1414343658264570e+00
    2.0006371807623151e+00 -1.0255630405068059e+00
    2.0024557334449815e+00 -9.5165729983376457e-01
    2.0041193325860100e+00 -1.0662747331484470e+00
    2.7207630263335023e+00 -2.2826818229172465e+00
    2.0187495864180405e+00 -1.1466244677651090e+00
    2.0008466833321856e+00 -9.7132243875309299e-01
    2.0000829665373256e+00 -9.9093279191441441e-01
    2.0103950393706782e+00 -1.1072859792758221e+00
    2.0292850380148781e+00 -1.1863965331607087e+00
    2.0302535991915378e+00 -1.1897189507869050e+00
    2.0183430374474600e+00 -1.1449181732061133e+00
    2.0117288605391401e+00 -1.1143229572811744e+00
    2.0136195596297077e+00 -1.1237111601781102e+00
    2.0255090617424001e+00 -1.1729785609046028e+00
    2.0291702661215183e+00 -1.1859998122102364e+00
    2.0109530663043178e+00 -1.1102766224635918e+00
    2.0000283642456469e+00 -1.0053400103944992e+00
    2.0007534323663929e+00 -9.7292540871933086e-01
    2.0133296793894551e+00 -1.1223112813936020e+00
    2.9895901839155079e+00 -2.6058362104322188e+00
    2.0547515941010683e+00 -1.2629623594118464e+00
    2.0000063395460472e+00 -1.0025210172852443e+00
    2.0006348381490477e+00 -9.7511942502903115e-01
    2.0019912491892451e+00 -1.0456301455126145e+00
    2.0125846664572737e+00 -1.1186500651153826e+00
    2.0200777596666888e+00 -1.1520900634785258e+00
    2.0186653153182021e+00 -1.1462721107658813e+00
    2.0131886478855168e+00 -1.1216253327785446e+00
    2.0132482208109761e+00 -1.1219154789013119e+00
    2.0143611573060096e+00 -1.1272335586901612e+00
    2.0106164577852623e+00 -1.1084810696950367e+00
    2.0017930478627313e+00 -1.0432504094425066e+00
    2.0006301658837451e+00 -9.7521000056787166e-01
    2.0000796187290271e+00 -1.0089628309274459e+00
    2.0455838670733830e+00 -1.2375088152850162e+00
    3.2474650418837783e+00 -2.9029929711881639e+00
    2.1677917757230309e+00 -1.5020230165234847e+00
    2.0074435172288334e+00 -1.0900778163985543e+00
    2.0001650006334071e+00 -9.8723697815100653e-01
    2.0003222717343037e+00 -9.8220848427828500e-01
    2.0004252555410109e+00 -1.0208354489058329e+00
    2.0020141475821700e+00 -1.0458976271379845e+00
    2.0020183250545389e+00 -1.0459462681699916e+00
    2.0021629463214605e+00 -1.0476015323358621e+00
    2.0016768471015411e+00 -1.0417963294492862e+00
    2.0005001069948158e+00 -1.0226145235686444e+00
    2.0000010663922709e+00 -1.0010331960429704e+00
    2.0006740437765931e+00 -9.7437248144664057e-01
    2.0003503639968914e+00 -9.8145634961968498e-01
    2.0070688779508044e+00 -1.0876853166278384e+00
    2.1537290842829711e+00 -1.4764108374835785e+00
    3.3436173399699074e+00 -3.0115639569821200e+00
    2.4115931091559260e+00 -1.8795512065337669e+00
    2.0929974295031117e+00 -1.3549781467671418e+00
    2.0080617291981246e+00 -1.0939084316975338e+00
    2.0001498615976594e+00 -1.0123169572766710e+00
    2.0003697447920126e+00 -9.8095523459870770e-01
    2.0015590407729413e+00 -9.6128713599435622e-01
    2.0027160185445507e+00 -9.4922488416228301e-01
    2.0032019522934092e+00 -9.4499253668727901e-01
    2.0034217557373037e+00 -9.4319008805524285e-01
    2.0019850269943347e+00 -9.5642781808278388e-01
    2.0009814359900999e+00 -9.6915899614242318e-01
    2.0000010663922709e+00 -1.0010331960429704e+00
    2.0069982595185571e+00 -1.0872278788699006e+00
    2.0900161014615857e+00 -1.3483920089292634e+00
    2.3802347431814495e+00 -1.8353920093706513e+00
    3.6872210399390153e+00 -3.3924487133719814e+00
    2.7919392973454022e+00 -2.3699980158239788e+00
    2.4170351914962289e+00 -1.8871299882320736e+00
    2.1635199600333341e+00 -1.4943186478030315e+00
    2.0464115268278982e+00 -1.2398853293252792e+00
    2.0140799827138798e+00 -1.1259077506198527e+00
    2.0044085848179902e+00 -1.0686380468039893e+00
    2.0007521578823524e+00 -1.0278041542969574e+00
    2.0008534556902511e+00 -1.0296438082417858e+00
    2.0020519013446534e+00 -1.0463354852035414e+00
    2.0070531538447223e+00 -1.0875836443796048e+00
    2.0183751337528060e+00 -1.1450534755434205e+00
    2.0550173939406937e+00 -1.2636741524241453e+00
    2.1591236162424208e+00 -1.4863218080645888e+00
    2.3992126527713751e+00 -1.8622188363072594e+00
    2.7846660147739359e+00 -2.3611421751074424e+00</input_scale>
  <output_scale>
    5.2631578947368418e-01 4.9999999999999994e-01 5.2631578947368418e-01
    4.9999999999999994e-01</output_scale>
  <inv_output_scale>
    1.8999999999999999e+00 -9.4999999999999996e-01
    1.8999999999999999e+00 -9.4999999999999996e-01</inv_output_scale>
  <weights>
    <_>
      -5.9991157196834067e+01 4.6392546748600265e-02
      3.5681856995578287e-01 -1.9149652145541027e+00
      2.1894286572268606e-01 -4.5778545317187408e-01
      -1.7178253654955661e-01 1.6140972270047638e-01
      3.9890499808408431e-01 -3.6690387523004339e-02
      -1.5783509986597291e-01 -5.1067239158105026e-03
      -3.6756431837652415e-01 -2.0496466154709303e-01
      1.5518448153260529e+00 -2.6053862088510321e-01
      -3.5152468579874940e-01 -4.7033139928496524e-02
      -1.4604125522362874e-01 -1.2442395790804794e+00
      -2.5470713306861681e-01 3.0954402785260005e-01
      -8.5336747600109619e-02 -1.7847394024226739e+00
      -1.0688454903286981e+00 -2.8295876574438578e-01
      -9.1680574717689822e-01 -6.2605962369851653e-01
      1.3829038603829507e+00 -6.7849070882079060e-02
      -5.6377704484292679e-01 -6.0123326143569411e-01
      -3.0749508741797811e+01 -1.3349915093706752e-01
      2.2091148896031781e-01 -2.9141857817580891e-01
      -2.5131429858239984e-01 4.3441006602721093e-02
      -1.0967299433354417e-01 -1.4949545343614093e-01
      1.3399989609757632e-01 8.9613453876795951e-02
      9.2515223042024516e-02 1.3028215358530490e-01
      1.4665466811682853e-01 1.3261879174844865e-01
      9.4056277898625831e-03 3.2708321284555730e-01
      -1.7564790133005451e-01 9.1460829443670358e-02
      4.5273977959301093e-01 -6.0557094128559251e-03
      -5.5338120834107085e-01 3.2883761135677397e-01
      -5.3295914520963016e-02 -1.8001012460171203e-01
      -4.1524250872237556e-01 5.0257849693518097e-02
      -2.5973044229043540e-01 -2.0010081450552564e-01
      4.6144162953467593e-01 -2.2700560526085745e-01
      -1.1015912250136822e-03 -3.0650024624946570e-01
      -2.7241400816924045e+01 7.6892670519643366e-02
      1.5794611386780527e-01 -2.4367442663965438e-01
      -1.4768065749925083e-01 1.2570389989867098e-01
      -3.0039240343160557e-02 -1.5415430370196728e-01
      2.4448104082138836e-01 -1.3258262052205227e-01
      -2.0191825890907009e-01 -1.3078878491628620e-01
      -6.1873323919154212e-02 2.0062193858596977e-01
      -1.8657443794130227e-01 1.5461239588012812e-01
      -2.1191185523469921e-01 1.6556994001371489e-01
      2.3721943309739688e-01 5.0688084643153955e-02
      -4.5913933432950887e-01 2.0367116760387854e-01
      4.5017183300203767e-02 -2.2199435898341144e-01
      -1.6544236912503579e-01 -2.0796544870357057e-02
      -3.2861579195429635e-01 -2.4235603487854834e-01
      1.8939974140290355e-01 -2.2111968868735113e-01
      8.9903608156456150e-02 -2.2468097987878111e-01
      -2.6762623406231949e+01 1.4000027696427028e-01
      2.7128239965533624e-01 -1.9643919519619840e-01
      -3.2518388498226365e-02 -1.8896370760568926e-02
      -1.1930892214541888e-01 -3.2451140017329116e-01
      2.0129893147006972e-01 -1.8303657096526746e-01
      -2.1633373846150419e-01 6.9168846092773392e-02
      -6.9850324642810976e-02 3.7820939489934269e-01
      -2.1276935211967768e-01 4.6288243036790085e-02
      -1.0182092030107191e-01 1.1241119751789361e-01
      -3.2982218974015182e-02 2.8820677633152270e-02
      -1.6061567578051716e-01 1.9876142410963235e-01
      2.6103599389847233e-02 -2.3008102545447395e-01
      -1.3718955353730372e-01 5.1117568820259113e-02
      -1.4325222023399267e-01 -4.0238823256408436e-02
      2.0875727875499983e-01 -3.0082824359356458e-01
      -4.3257086625289140e-02 -3.4246811159605384e-01
      -2.4237641866313556e+01 -1.5824803482341356e-02
      -7.8112295094321341e-02 1.2090354110021297e-01
      -6.6894099189693679e-03 -9.6628912596295524e-02
      -4.1464213804898448e-01 -2.6114988809707068e-01
      2.0836796771643373e-01 -2.5701914064291154e-01
      -3.4341577455572891e-01 3.7352773251324461e-01
      -6.4628874416938112e-02 3.0288591297151718e-01
      -4.9087273486301836e-01 3.4558459467581737e-02
      5.8406800708423079e-02 1.5971035212185744e-01
      1.9726161671847185e-02 9.1676888047580271e-02
      -1.8281621603873857e-01 2.7291444120256986e-01
      -2.2928905437193237e-01 8.4065289551713607e-02
      1.8158594965686323e-02 1.3048810306036560e-01
      -2.6455731774868724e-01 -6.1484335846666273e-02
      2.2569648449950776e-02 -2.3077544608225427e-02
      -2.9197219378251948e-04 -1.0779337646098752e-01
      -2.1271743467706408e+01 1.2891640331173834e-01
      9.0930033642023109e-02 1.4999429824656005e-01
      -9.6200743716122594e-03 -3.4401009483036921e-01
      1.9596785206004966e-01 -3.2291517524804518e-02
      3.1937078615848748e-02 -1.4207748505800402e-01
      -2.3004696411103873e-01 -2.5832861962115239e-01
      -8.4268552527787029e-03 5.0787465080895603e-03
      -2.5558001688784654e-01 5.2929553946536118e-02
      2.6303855685443731e-02 1.6078415091651588e-01
      -7.5040687219036145e-02 -7.1531078133740735e-03
      2.4118335927379476e-03 1.8197735912773438e-01
      -2.1575139096210219e-01 6.1362489359185722e-03
      -1.3565768159652467e-01 5.3649817160844375e-02
      -1.6369254856106299e-01 4.9331747709988522e-02
      1.3916187439241692e-01 3.5342318079154299e-02
      -1.4302089799717940e-01 1.1565573270881076e-01
      -1.8701484077392550e+01 5.0391446900871495e-01
      -1.0903922739231728e+00 9.3219973314216342e-01
      1.8526614023030136e-01 -1.0620447849383423e+00
      1.1744762613344260e+00 7.4473581261151300e-01
      -7.7557511775361049e-02 -4.4877258295467665e-01
      -5.5868564677500643e-01 -1.6006638593610478e+00
      -4.6836822143786583e-01 -8.2831743188104690e-01
      -2.2381422679374788e-01 -1.7393630010766614e-01
      1.9660954937878133e-01 -1.5116550236322968e-01
      -1.5272823073095387e+00 -1.4462314988007685e-01
      1.3917516210928949e+00 -1.9054167114726944e-01
      -2.1559419302989352e-01 1.0327398435764374e+00
      8.7285033841399462e-01 -1.0670446556764691e-01
      1.6092675109564189e-01 5.0899740046673703e-01
      -8.0320021642556960e-01 1.7131279685811018e-01
      -8.9301484531760955e-01 1.0074826399317231e-01
      -1.5593254525251664e+01 2.5908951919343365e-01
      -5.6107980211284914e-01 6.5256721368435910e-01
      -3.6909006332172339e-01 -5.2199404176060793e-01
      4.1475524795159469e-01 -2.2211075629911742e-01
      6.6957183191182629e-02 -3.8451012318408473e-01
      -4.4025544787827131e-01 -5.9524450869006540e-01
      -2.0205034870583785e-01 1.9667149678073348e-01
      6.9822790311645302e-02 4.6745047180754129e-01
      1.4702537997817522e-01 4.5224860594814564e-01
      -4.3068290236580292e-01 -4.0697130525295666e-01
      1.9584395332694141e-01 7.0338296825909141e-02
      8.4258157007799775e-02 6.0676631207461418e-01
      4.2018502883423131e-01 2.9232257861654826e-01
      -1.9943639727675047e-01 3.3142006127779411e-01
      -3.2766833285880215e-01 5.5111489450053612e-02
      -3.0305528222166483e-01 -2.9520779530890939e-01
      -1.3995498865799718e+01 9.8198170916795502e-02
      -2.0795542207276813e-01 -3.0052392614119411e-01
      -5.9219090174035477e-03 -2.6368344791437848e-01
      -1.0225217893296162e-01 3.9302818417474977e-01
      -2.7305649287864908e-01 -5.3079993156276184e-01
      -5.2556231229914308e-01 4.0738499073704659e-01
      -3.1019849471784250e-01 -2.5727822019652447e-01
      6.5423989794375581e-01 6.8117803224185336e-03
      -3.9087854302606806e-01 -5.1080438570327069e-02
      3.9408312640345361e-01 -4.8002186271298120e-01
      -9.9447394574662104e-02 1.7544688724383684e-01
      1.8935997742040425e-01 -2.5456003260812651e-02
      -6.4228865737437413e-01 -2.5862047768209573e-01
      -2.4771991442612243e-01 -6.0033068839101957e-02
      6.0819662348245629e-01 -1.2034968617696465e-01
      -2.9653768497714172e-01 6.8458214032110762e-02
      -1.4059736643706456e+01 2.4073195912333864e-01
      -4.5784420285111821e-01 2.8203943338847698e-01
      5.3598666387787031e-01 -9.1516921231372494e-01
      6.0248837939114053e-01 1.4022544486600003e-01
      -8.7924108614283070e-02 -4.9071650601660888e-01
      -5.7807828626404778e-01 -6.4393830424023102e-01
      -1.7576045314001693e-01 -1.3485780743862114e-02
      8.2880655378474366e-01 -5.7890032490196885e-01
      -1.9683493211013081e-01 2.3194321364788598e-01
      1.2734964143576569e-01 -7.4444092276249696e-01
      -1.9204270022749534e-01 -6.2669389781700169e-02
      2.8620477929866162e-01 4.1713052386140465e-01
      7.2661000296426375e-03 -1.5670375975709497e-01
      -2.6358299182383493e-01 1.1125675021735550e-01
      -1.2512461569032806e-02 -4.2271075275107796e-02
      -7.3189696069198384e-01 -1.1045880364779263e-01
      -1.6948397463258104e+01 -1.8042966959946957e-01
      3.1953028690024941e-02 -4.3729354872518805e-02
      -1.6922239851454438e-01 -2.6161378133439694e-01
      -1.1687800740476241e-01 -7.0649016307649137e-02
      1.0519586342174272e-01 1.7802151967131905e-01
      1.7765712388731808e-01 5.2365221061673073e-02
      -1.6013364303267250e-02 1.7414506018321113e-01
      2.1111331092465732e-01 1.5117158394531202e-01
      -6.1340861811704360e-02 2.3301856643838906e-01
      2.4166986267992283e-01 -1.7283851538988154e-01
      -2.8139421194760084e-01 1.1116832409015594e-01
      -2.1754185797779152e-01 -3.8053732685748978e-02
      -4.5406832080000410e-03 1.1206626538300352e-01
      -3.3602951745677140e-01 -6.3979837949419582e-02
      1.9567911508970512e-02 -8.8615454826941706e-02
      -2.1300736669866926e-01 -5.8067111241732187e-02
      -1.9760639451962962e+01 1.6125017293947883e-01
      -4.8486023749698542e-01 3.2818054994199097e-01
      -2.6690038229655677e-01 -2.8522592757754733e-01
      5.8611403374170978e-01 1.3561009073851168e-01
      2.7541678597272023e-01 -1.8440115347924263e-01
      -2.4673672543395908e-01 -5.2269302184898225e-01
      -2.3916921225364657e-01 -3.3974885955490988e-02
      2.9864312341939508e-01 2.9449698237927108e-01
      8.1761939174200396e-02 -1.2736245401658183e-01
      -4.3597347139348736e-01 -2.5910478349533023e-01
      3.5828218567751419e-01 -5.7142409986987233e-02
      -1.5007734063280054e-01 4.8348149097197929e-01
      2.2184035733957588e-01 -4.1351902102978989e-02
      1.0821616348375984e-01 1.0727746025570753e-01
      -1.8923149656322383e-01 -2.1920572699712038e-01
      -2.4528608085408274e-01 -4.6463241876864209e-01
      -2.2220728390767622e+01 2.9519190690356675e-02
      -1.4756890368199965e-01 -4.8220803379637085e-02
      5.6013490633535479e-01 -4.5817051034799539e-01
      -4.6515747326909421e-03 4.8137839244038416e-01
      1.6997890151360540e-02 -5.0467526003733554e-01
      -5.3235460784290256e-01 -8.9155593430315219e-02
      -6.9453819577291298e-02 -5.7938650423801041e-01
      2.4681830693143883e-01 -6.4785950540151138e-01
      4.5536024554125261e-02 -3.9628758776745626e-01
      -4.6519740001290760e-01 -1.0167175059393618e-01
      5.1375200953927025e-01 2.9941731036426278e-02
      -1.6257681637606103e-01 3.1554681509585611e-02
      1.2186424105583808e-01 -2.5457183065596872e-01
      2.0337262413341492e-01 -1.2635996754004538e-02
      -1.7762786122579405e-01 1.7461586421403655e-01
      -3.5075226909190721e-01 1.1498070590005730e-01
      -2.5171759991608273e+01 2.3260926406833865e-01
      1.2754173973955640e-01 -4.7628386111682558e-01
      1.8124833922779340e-01 7.2778544225595876e-01
      1.7594280709281235e-01 6.6812274953719175e-01
      1.5795054803990921e-01 -1.8627366619993652e-01
      -1.4156448747273875e-01 -1.8349079710576144e-01
      -1.4780804406248531e-02 -8.1032274519333380e-01
      -2.8877222874067859e-01 -2.3396452911676882e-01
      -1.6668179762266624e-01 -2.6689736210722653e-01
      -2.0740807622998081e-01 2.0445511336065939e-01
      2.5787930786326191e-01 1.0200134906890072e-01
      8.9983172461258684e-02 -3.8571599804907358e-01
      -3.5709121733207483e-01 -3.2681416330951024e-01
      1.4551662271085636e-01 -1.4639047271246561e-01
      3.3961250706974405e-01 -5.1754521979703996e-02
      4.4488343061400665e-01 1.3794178954691735e-01
      -2.7372731323157005e+01 1.0705771479798712e-02
      2.7179736433260193e-01 -2.6043532999514951e-01
      -4.3583511033625444e-01 2.1188766875433912e-01
      -1.2179693626027674e-01 1.2659345162948796e-02
      3.7823880643780186e-02 -3.0335990390909862e-01
      -2.6822732917575826e-01 2.2095762055880055e-01
      6.3717263410258643e-02 -1.3867939108687553e-02
      -6.4030914574060249e-01 4.8223077991361019e-01
      -6.5430720153099545e-02 -1.2501183229083258e-02
      -4.2424193344435111e-02 5.1960505842679083e-01
      -1.6968051149709902e-02 4.4296205343858093e-02
      -3.2649421234765541e-01 -3.3829800364041568e-01
      -3.5131163977298602e-01 -1.0170432888263913e-01
      -6.0408671575602833e-02 -2.2000937216389407e-01
      2.5870362464195723e-01 -1.4028453626073575e-01
      1.9364325945032318e-01 -2.9828619998362221e-01
      -3.1780929067588815e+01 -2.4586202942067070e-01
      -5.0519923544466028e-01 2.4060071579948469e-01
      -3.2761003380071085e-01 2.2677776079524717e-01
      2.0974398812608843e+00 7.4810382889011551e-01
      1.0535051869044522e-01 -3.3687016344540643e-01
      -2.8879510710676110e-01 -1.7549970869939029e+00
      1.0771936520917591e-01 -6.5102837117626056e-01
      1.0939036106781501e+00 3.6086566594466074e-01
      2.0526284331327249e-01 -1.0833845703037022e+00
      -4.8409595790874438e-01 -4.2113826740682125e-01
      5.3755613050004369e-01 9.9367573706110060e-02
      -7.9823535239245758e-01 3.0037490458293908e-01
      6.1638101952006841e-01 -4.7409941357811008e-01
      5.0360407103123317e-01 4.3981198554546819e-01
      -6.7750533354664710e-01 -1.1388628047051115e-01
      1.3461643179493787e-01 -2.3722863944989173e-01
      -3.1465818807713163e+01 -9.8237887037947308e-02
      1.5657877323197630e-01 -1.4704571405879654e-01
      -2.8836706729428518e-01 -3.3122508370672356e-02
      -4.4745111938726823e-01 -3.2292372985514084e-01
      1.1510059723547732e-02 2.3227484470382045e-02
      2.1384706950484555e-02 3.4585452466028471e-01
      7.8684975398903179e-02 3.6309624051966649e-01
      2.8470681824583819e-02 3.2791840339913148e-01
      -1.5863116206464481e-01 2.8559437406611604e-01
      4.9825363413686435e-01 -1.0623022197759865e-01
      -5.4233379005986826e-01 2.5306534661370433e-01
      4.8108353959014007e-02 -1.2605639110698197e-01
      -3.1212998346456527e-01 8.8955159371379169e-02
      -3.0572171662746883e-01 -1.5888064318301640e-01
      3.5940907889154328e-01 -2.4680351375401835e-01
      9.9779714776048918e-03 -2.2935734721268503e-01
      -2.1479813452864569e+01 -1.6407559898061869e-01
      2.9759388314569740e-01 -1.7727192666795469e-01
      -5.5180562182079251e-01 2.4749185460527093e-01
      -2.9533686792476449e-01 -2.0466278340939398e-01
      7.8311521617731292e-02 1.9551088591757756e-01
      2.5133973653373287e-01 4.3085919873854489e-01
      3.7968835935719931e-02 1.9196451628581501e-01
      -2.2408024164715640e-01 4.6044791049726747e-01
      -1.2902857655899450e-01 3.4873997229986534e-02
      6.2172498283758237e-01 3.0502898113149468e-01
      -5.2962375431513098e-01 1.3045913352580829e-01
      1.8089991125536403e-01 -1.9503037877716767e-01
      -2.9238802476158071e-01 7.2916505397190690e-02
      -3.9225396517525183e-03 -1.5672082262356080e-01
      2.3960269846710583e-01 -1.4264753861363028e-01
      2.3791805372832459e-01 -2.0062370130925580e-01
      -1.6827869391567706e+01 -1.7559397352801334e-01
      6.0430724278146419e-01 -2.6508757932105054e-01
      -5.7968505747846089e-01 5.1793668840066913e-02
      -3.4214311468507308e-01 -5.0150897424431351e-01
      2.0468960198754979e-01 2.1432509438584810e-02
      -4.9853972665371135e-03 4.0311190176533729e-01
      2.1852194657767904e-01 4.9172556069535123e-01
      -4.2106581060011822e-01 5.5221346371557400e-01
      -9.5248934660359399e-02 2.1218659694958705e-01
      6.3926469909647832e-01 1.6445217263967693e-01
      -6.1269017107448054e-01 2.6374608737523475e-01
      8.2338649036790945e-02 -3.3262863422899391e-01
      -3.4554116675322893e-01 2.4914171509709351e-01
      -9.8312566670845456e-03 -1.3803036564412485e-01
      3.5461261359810170e-01 -3.1145161588846754e-01
      1.3105464505661904e-01 -3.2517251946890041e-01
      -1.3543578071143035e+01 -1.5101647035199015e-01
      6.7915103246064978e-01 -1.4102855729305752e-02
      -4.3755157390294530e-01 6.7466949539833856e-02
      -8.4691033010030048e-01 -5.7734889402422862e-01
      1.7576613873856614e-01 -4.4481930139225925e-02
      -4.4633789770671804e-02 7.4244881123571493e-01
      3.5090294989627907e-01 4.4562277950101242e-01
      -7.0367770968096621e-01 5.1337306649389491e-01
      9.5642394989383039e-02 2.6954452823132847e-02
      3.8447875374211321e-01 2.4745417392397359e-01
      -7.2640409658049565e-01 3.0963611221235643e-01
      5.8691683807335970e-02 -4.0278449171022518e-01
      -2.4372801614425232e-01 3.1867371843461684e-01
      1.2776228917700391e-01 -1.5869905796279377e-01
      3.2247337718906421e-01 -8.9066651687439477e-02
      3.6187728720183510e-01 -2.6425747956384932e-01
      -1.0738294355292270e+01 -2.1950298491941467e-01
      4.0889623903793326e-01 -1.3412899369263948e-01
      -6.1671808827514019e-01 4.9175974502913375e-02
      -2.7660363927586512e-01 -5.4386769717778638e-01
      1.6536188880177896e-01 -2.4267544685107628e-01
      -2.5006775003725706e-01 4.1214254017880747e-01
      2.3561553664030413e-01 5.7231385772323795e-01
      -1.1831859682496788e-01 6.6966672608752098e-01
      -6.4500204638882147e-02 1.9790737352443710e-01
      9.6497042727722315e-01 1.9333014162791676e-01
      -9.6282666847631715e-01 2.8150435845502092e-01
      5.6016665780207107e-02 -1.8211663031235337e-01
      1.0063447423831494e-01 1.9890518922407452e-01
      -5.7617499226416125e-02 9.4574044993387785e-02
      -1.7243440743407790e-01 -3.2580162781439198e-01
      1.3394607037856554e-02 -3.9264182483002114e-01
      -9.2030347229142802e+00 -2.3320836899007993e-01
      4.4754936332972145e-01 -1.9976108723647176e-01
      -1.3775575945275920e-01 9.5333163890060163e-02
      -4.6251972324214963e-01 -5.8187339335787305e-02
      -1.0925405963858778e-01 -4.9096861209144954e-01
      -4.3349268967944388e-01 4.8483821709256331e-01
      -6.5752537664853755e-02 -2.9879136745031416e-02
      -1.4666113185812787e-01 1.6040546270682898e-01
      -8.1711631327874554e-02 -2.2037258765846765e-02
      3.4468762827202371e-01 1.5000188558017391e-01
      -1.7521451423647255e-01 3.4065038769299512e-02
      2.1515403428720328e-01 -3.0222184599678453e-01
      -5.2241718890614774e-01 2.5441324458357523e-02
      -6.4810016038908971e-02 -4.8819314380191714e-02
      5.6257942452807375e-01 4.2198314097834984e-02
      5.8397077322775416e-02 2.3642323243729760e-01
      -8.0411213356745943e+00 6.1404641491084933e-01
      -9.9782375811552593e-01 2.2642132066750312e-01
      3.4633437989647925e-01 -7.6252460360350094e-01
      7.3904702879999562e-01 8.1345070628068239e-01
      -2.9280016702540940e-01 -2.4786830051264813e-01
      -2.6379774425757124e-01 -7.2480899143123290e-01
      -3.5833291552652152e-01 -7.4581234640552496e-01
      1.0184921904425526e+00 -4.3592155062268101e-01
      -1.6079924285431865e-01 2.5065558400084204e-01
      3.2388930370730790e-01 -6.3513695113409496e-01
      -1.3390744630695353e-01 1.3849074033252026e-01
      4.5741984399231511e-01 6.3902160278598585e-01
      -6.6758263182261868e-01 -2.7983596145497780e-01
      -1.6126680738413460e-01 2.1787626670439486e-01
      6.1784201671819794e-01 4.9694567103804738e-01
      -7.0051686305046179e-01 5.2267822528152441e-01
      -8.1904097922888219e+00 -1.3829776358614487e-01
      3.6863732775516932e-02 1.1682454823998464e-01
      -3.5680520895429457e-01 3.1543936610722861e-01
      1.0762969485173153e+00 6.1620288497651110e-01
      -5.8037327553272712e-02 -1.6842657769337641e+00
      -1.7379933624550394e+00 -1.0418521413467292e+00
      -1.0105928593952053e-01 -7.2763486952759415e-01
      -1.5641458659486607e-01 4.0663303631811054e-01
      3.6775233613456365e-01 -3.7857184069427341e-01
      -9.0435237649336009e-01 2.1516331856433163e-01
      7.8102455673742810e-01 -1.0577790874431728e-01
      -8.2853883875252898e-01 -6.7996411605100879e-02
      7.4314507081852466e-01 3.0474646020308437e-02
      3.1224451521533575e-01 4.4431457247842127e-01
      -7.2438985638468212e-01 -2.9136586843890960e-01
      1.9852464794693891e-01 -3.7046686770687209e-01
      -8.4778808271877892e+00 -8.6304468516514327e-02
      -6.1781910426505840e-02 2.3873328317266243e-01
      -2.2636482044080736e-01 -1.7587533903575817e-01
      4.8195084716482073e-01 1.4719537025960422e-01
      5.1238171365378046e-02 -3.3585724641980141e-01
      -3.2550094688699943e-01 -4.2857878391953314e-01
      -2.0469828612597873e-01 -1.1195782649849276e-01
      -4.0290930331998803e-01 1.1546971274271285e-01
      9.0542589101249349e-02 -2.3274855847627593e-01
      -1.2317363071762377e-01 2.8945688859407415e-01
      1.0525049659279494e-01 -2.0170246404516756e-01
      -2.2817069246708627e-01 1.7794569517614617e-01
      -9.2003523824140850e-03 -6.8657356580017273e-02
      1.5609937847957983e-01 8.0666255920267826e-02
      9.7540525891048335e-03 5.3640107312712494e-02
      -1.8575381163316168e-01 1.2461311717240992e-01
      -8.1470978181947284e+00 1.0628238350493285e-01
      -3.6947223383146793e-01 8.3366204331572734e-03
      6.3657998735111757e-02 1.8224972523650330e-02
      4.5828768380064883e-01 4.9856044723708542e-01
      -1.1525661511466131e-02 -1.7755162178220815e-01
      -1.9662665420688988e-01 -3.0619176608934690e-01
      -1.1908090183862222e-01 -4.9732640373412895e-01
      -2.1198006069230640e-01 -1.0251175307795782e-01
      -2.0138051160203521e-02 -1.5627041207533640e-01
      -4.1375878405746336e-01 2.8096973391698404e-01
      4.3423370904214603e-01 -3.1800604470088190e-01
      -1.2988876175249353e-01 1.9372043258123892e-01
      -2.1084280462101437e-01 -2.1436652063733327e-01
      5.3763751652775395e-02 8.0346321744522109e-02
      1.4431918818086734e-01 1.7114980434290702e-01
      -5.8271159577866362e-02 2.1938178521883839e-01
      -8.3962719851928913e+00 1.9048146675527972e-01
      -3.6474632269602719e-01 6.9016898823076725e-02
      2.0965542454195474e-01 -2.6829390860619162e-01
      5.2283915288269922e-01 7.2120176575964801e-01
      -5.2150996532923544e-02 -8.0073180540025091e-01
      -7.5290064667257728e-01 -4.9347952971472386e-01
      -1.8824991959363035e-01 -8.2326063294931695e-01
      1.7878288700586017e-01 -2.1912234530371275e-01
      -7.7629934620264421e-02 -3.2823188619226373e-01
      -4.9986020305945023e-01 2.0458431837610536e-02
      5.5275188254389385e-01 -1.0718095000215565e-01
      -2.0759747426887666e-02 1.7770840113388994e-01
      -2.0289869485172354e-01 -2.9362096274090288e-01
      2.6419141007414354e-01 2.0124753550699132e-01
      2.2396226313825038e-01 9.6932061822338392e-02
      -3.5656748349186812e-01 1.8694823454139950e-01
      -8.6530443563352168e+00 1.0820068481311121e-01
      -4.4560867238032015e-01 7.5362741104601672e-02
      -2.2565048510178879e-02 1.6923002164817766e-01
      3.9403722658309615e-01 4.9442432630648431e-01
      -1.1775421447326306e-01 -7.6750954109768443e-01
      -7.3119592007208511e-01 -2.7715702338982556e-01
      -1.6890312058503729e-01 -4.1870542275560846e-01
      -2.4188654330890086e-01 -2.3657465423141066e-02
      -2.3037263547285730e-01 -3.2607909188494094e-01
      -2.3422598142186543e-01 1.5646171990750121e-01
      4.7258354144281134e-01 -2.4635871193199879e-01
      1.2271729162266470e-01 2.3271018249736775e-01
      -3.7842380988347663e-01 -3.4088401235041882e-01
      2.3840902889274834e-01 1.4015002638139265e-01
      2.3911364375876815e-01 2.0922816922625261e-02
      -2.0142766443192371e-02 1.5524861453011207e-01
      -9.0044847124266454e+00 7.5451737382426110e-01
      -5.1757560058119101e-01 2.1060826083480849e-01
      7.0980856651171265e-01 -5.1530056671836355e-01
      1.5937833388277827e+00 6.8918111205972221e-01
      -4.7606265022327773e-02 -7.0289510408154754e-01
      -5.8978926316466151e-01 -1.5520743603864136e+00
      -5.9002062009043921e-01 -5.1136959031288420e-01
      1.1621359087014917e+00 -8.7686703944922406e-01
      -2.8587007342579801e-01 8.4565722444177496e-02
      7.0327153869960690e-02 -9.1972651761229107e-01
      9.2639779104698214e-02 -1.5901141334393865e-01
      3.3773220174075880e-01 3.3793342502551144e-01
      -7.2420650589527957e-01 -3.5847157050102774e-01
      1.0434166230274371e-01 2.6380691705225051e-01
      6.2281178828992056e-01 -3.3070995594638108e-02
      -4.2107800143504170e-01 7.6759284234023908e-02
      -1.2574770482083354e+01 1.8129673206102093e-01
      -4.4080503292714585e-01 2.1982063628834911e-01
      1.2961365352807294e-01 -7.2246386996586731e-01
      4.2977695654924077e-02 -9.8510722557753113e-03
      -1.0665435194812313e-01 -7.7064408413624941e-01
      -7.0807742496988180e-01 -1.0142119561242918e-02
      -3.2646550477251191e-01 1.3830418991115953e-01
      2.5062628035017470e-01 -1.6583807388667593e-01
      -1.0965035053114112e-01 5.7066969963556015e-02
      1.2542621634647827e-01 -1.2585005460636065e-01
      -8.4223692312489704e-02 -8.7412362586335057e-02
      2.1345396875066971e-01 3.4162009925280284e-01
      2.0609236176109441e-01 -5.4990892955898429e-02
      5.9747920277017634e-02 1.1068335378195650e-01
      -2.8226231559173803e-01 -6.0102892976801624e-02
      -5.5234480790824925e-01 -4.0339072475056892e-01
      -1.6714356896801569e+01 -1.2013951112034985e-01
      -6.3349545369633400e-02 -1.5685665660465822e-01
      -3.8657869254829191e-01 -4.6284006227099844e-01
      -2.9432260760362250e-01 -6.4057852752406641e-01
      5.2117074530619333e-02 -3.2471483543734986e-01
      -3.8822048085361754e-01 1.7039328643641594e-01
      1.4985742549115255e-01 8.4271290020198253e-01
      -6.9862382603688744e-01 2.4987251031251803e-01
      -1.3593448306519160e-01 1.5557618739554266e-01
      2.6598935618244746e-01 3.2876190334019517e-01
      -1.8007270152315469e-01 -1.8852587510091226e-01
      3.0060260870595318e-01 6.0773744485096058e-02
      5.2550209069747966e-01 2.2934855569980945e-02
      -4.9085702414318103e-02 8.3616611933868587e-02
      -4.9945625569968360e-01 -3.2330038391922361e-01
      -4.4838744128085173e-01 -3.7678429569164656e-01
      -2.2101203814488532e+01 -2.8514421818396990e-01
      6.1258627726673420e-01 3.0304447938801637e-01
      -6.0330018482798253e-01 -2.5603198244531672e-01
      -4.8507783461472570e-01 -5.4245706753026113e-01
      7.4959068740879315e-03 -4.4568746570284218e-01
      -1.9931856901552508e-01 4.6365951423473400e-01
      1.4568325596753544e-02 5.5228221465373806e-01
      -5.1306233550027813e-01 6.8409294846162860e-01
      -6.3652230826591313e-02 9.4947403212702827e-02
      4.6161830087108219e-01 4.2440587815900499e-01
      -6.6927831008401373e-01 4.1430719568170254e-01
      -8.4036783624935885e-01 -1.1509572171822156e-01
      2.7328952145919252e-02 2.9306957939967293e-01
      -1.3840379546491208e-02 -2.3800587839384538e-01
      -2.5101326621610626e-01 -2.5891290489304342e-01
      3.6414124877649001e-02 -3.5805588569424174e-02
      -2.7570808156278588e+01 1.6159838910431046e-02
      2.4727148504714355e-01 -1.9139378374464694e-01
      -2.5408620032398643e-01 -1.2555657458047786e-01
      -3.7065770029476369e-01 -6.0221345488701594e-01
      1.1679379378861680e-01 1.2088829139465775e-01
      4.5825506791674978e-02 2.7493981261100553e-01
      6.8636621597309905e-02 6.3008577570287461e-01
      -4.0323035805597673e-01 3.1080747254395119e-01
      -1.4442888391700559e-01 -9.7196223615513291e-02
      2.2886969805955823e-01 2.5977509420986306e-01
      -4.9526488009152331e-01 2.5364625663610207e-01
      -1.6274228268353871e-01 -1.9223266954456480e-01
      -2.1967380160093061e-01 -4.0372334938998222e-02
      -1.7048050604849624e-01 -8.3388264209915158e-02
      2.7247173189182167e-01 -3.1175272868327547e-01
      -3.8803584731691057e-02 -3.8687720453046714e-01
      -1.7081165411150284e+01 -3.4976093014782084e-01
      5.9917185213300161e-01 -3.2245341657874010e-01
      -8.4576436741648575e-01 1.8595323307429576e-01
      -4.5081135391876975e-01 -6.4525051456084059e-01
      1.1061043611613691e-01 -1.2781838246244201e-01
      -8.1761321986112842e-02 5.0781655026074890e-01
      1.6853882838777970e-01 7.2023044159861882e-01
      -9.2843693054815757e-01 8.3318201289481908e-01
      -5.2745527767659832e-02 1.5811316523745036e-02
      6.2975777274652744e-01 5.0781773137490238e-01
      -5.9774047917815654e-01 2.3724730360881827e-01
      1.0835040849356404e-02 -4.0918600585337855e-01
      -5.3355284023161287e-01 1.3545977867353579e-01
      3.0867373779215359e-02 -7.3269004236614879e-02
      4.7361876145503218e-01 -4.2276535265204812e-01
      8.0008793080971488e-02 -4.6163103640489056e-01
      -1.2441361968354133e+01 -4.5986831228873835e-02
      3.0116431599445037e-01 1.0889246351070682e-01
      -8.6868901846904312e-01 -1.7272236334689106e-01
      -3.0519850483032263e-01 -5.5377693934351058e-01
      2.4372907165950691e-01 -3.1505151883774879e-01
      -3.7495659763422207e-01 4.2935006558773336e-01
      2.3544992363787470e-01 6.5563093701026476e-01
      -9.5790212504308236e-01 9.3074441534361008e-01
      -5.6444929058984093e-02 -1.3626892409482975e-02
      3.5022242528235376e-01 6.7472376562663872e-01
      -3.1570320276908076e-01 1.6641483475000868e-01
      2.9653944745526073e-01 -2.1070799515175976e-02
      2.0762724594381210e-01 4.7848005957270699e-02
      1.9307485422432863e-01 -1.0874543966836441e-02
      -2.2532099077416495e-01 -3.4926030128188690e-01
      -3.7695996238733431e-02 -4.4480142018246555e-01
      -8.8016962995080341e+00 2.0876712873180631e-02
      2.4186508334273468e-01 -2.4619563878453990e-01
      1.7468475607881689e-01 3.8949253315284399e-01
      4.1646723474777415e-02 1.4415875178285528e-01
      1.8941759542039585e-01 2.0136817296113535e-01
      2.1833125253409091e-01 4.0182768336311195e-02
      4.2859372936222592e-02 -2.2626942145551152e-01
      7.1741071268705991e-02 -2.0895745491187789e-01
      -3.7312267392611592e-02 5.6874352375267792e-02
      3.4904718858573730e-01 5.7923856024103569e-02
      -1.3378268977275443e-01 9.9016799404636952e-02
      1.4258749800032583e-01 -2.9399541983710015e-01
      -1.3461579271590435e-01 1.4268324572279850e-01
      1.4175599157402810e-01 3.9085116070980683e-02
      8.5933345994061341e-02 -1.0935658455102984e-02
      2.9565349812960168e-01 -2.0776317351692702e-01
      -8.2116696564800939e+00 9.0640477102322745e-02
      1.5009908223392968e-01 -2.7060732660213321e-01
      7.1719207028214729e-02 5.5855955267366364e-02
      -8.7671776299762971e-01 -3.9618816547135932e-01
      1.4692154571577154e-01 2.7012073500048517e-01
      2.2641807146437656e-01 6.4407317350889470e-01
      -2.2835717503554436e-02 3.9530311978123522e-01
      -5.9049157205858915e-01 -1.7835437113071012e-01
      -9.9358719980463209e-02 1.9774887157692050e-01
      5.4977585486019764e-01 3.6656336862758515e-01
      -5.7853584815095560e-01 -1.6447229332440569e-01
      3.3394920759312385e-01 -1.8063951308011830e-01
      -1.3130297286844089e-01 9.9759951139745645e-02
      -9.2557392998585702e-02 -2.7631592709011144e-01
      2.5573975204884958e-01 5.4424795124907797e-02
      -2.9760871135671902e-02 -9.8913779217798842e-02
      -8.0870533197348369e+00 -1.0631434164694580e-02
      -2.8193560379379567e-01 3.5242565241219034e-02
      -5.2247587900027892e-01 -2.5814742074510938e-01
      7.1468458646958451e-03 -9.5192306629952747e-02
      5.5232321133065941e-02 -4.7136340051251091e-01
      -5.2490530912726563e-01 -1.3365330709521639e-01
      -1.2822721914275320e-01 8.6748590449113067e-02
      -1.6096525829463540e-01 5.0735339970971638e-01
      1.3420235120969681e-01 -1.6226533023944074e-02
      -2.7461721355252300e-01 -1.0327012521327963e-01
      1.6788717508621348e-02 -3.0372277796365654e-01
      -4.2108656495635942e-03 1.6054810727896357e-01
      1.5578567811368432e-01 1.0815494037172074e-01
      1.7281093762356242e-01 -1.2513183252866336e-01
      -1.4545500205508244e-01 -1.1536496760678669e-01
      -1.9756529068313611e-01 -3.7016431472922717e-01
      -7.8906797850324493e+00 5.3491750536409418e-03
      -8.5343774518441884e-02 -5.9286281379814801e-02
      1.5163611879162195e-01 -1.8263744570854998e-01
      9.3828494742562565e-02 4.4440030590094343e-01
      -1.3523416278259623e-01 -2.6774177945507266e-01
      -1.8696789326072849e-01 1.3468588890542235e-01
      -2.2320341786259895e-01 -2.7743807006859872e-01
      -9.0581063785244262e-02 -2.2140606061792684e-01
      -3.3234688706297838e-01 -4.2447537638328908e-01
      2.5448306920667590e-01 2.3416607123380545e-01
      2.1321958854644395e-02 -5.1014125077643658e-03
      -2.2876220679495265e-01 2.1399568116886970e-02
      -2.0606049787442127e-01 -4.3578098681388483e-01
      2.7605112567835648e-02 -4.9473084094535789e-02
      8.5696512816352044e-02 -6.4215980071761658e-02
      -2.6340296773523098e-01 4.9393873105843311e-01
      -7.5123398905433030e+00 3.0894786802064900e-01
      -3.6478232370106423e-01 -1.0342226129455381e-01
      1.7752968580935072e-01 1.5748639802316289e-01
      4.2297413854554905e-01 3.8468785202438954e-01
      -9.4880984906308724e-02 9.7312855630257419e-02
      1.4344209754853207e-01 -3.1971207294432019e-01
      -2.3676344210799549e-01 -3.1114153072967471e-01
      2.5957772327499778e-01 -1.7000849829944562e-01
      -6.6877401872380351e-02 -7.9358145066522376e-02
      -4.9609177031242158e-01 -1.1892284701748225e-02
      6.5363111452882527e-01 1.6621983832740370e-01
      1.4068910250148350e-01 1.5360879154168763e-01
      -3.5969113253965795e-01 -2.1669927621168880e-01
      5.1483118691759373e-02 6.0775658593580091e-02
      2.9125107119879062e-01 1.3643143198192320e-01
      -2.6735413012065092e-02 2.3473841708721921e-01
      -8.0876495904269348e+00 -1.5761616597663336e-01
      -1.0198249938348337e-01 2.3561091578121135e-01
      -1.6007013778110007e-01 -4.4562685212781605e-01
      -1.5304003656319340e-01 -1.8685288007299211e-01
      -2.1141164331783718e-01 -6.9323589743534819e-01
      -7.6073902373478819e-01 1.1763436369915260e-01
      4.4822924375580629e-02 1.7903899374985946e-01
      -6.7072714562718572e-01 1.9450255016133292e-01
      2.2111372002742929e-01 -2.1249967742176323e-01
      -5.3182457864211041e-01 3.7277133262031853e-01
      4.7945841664865307e-01 -2.1423653616938818e-01
      -1.9529516687599718e-01 2.1662563960026823e-01
      6.5560440889427918e-01 -2.7447215982266598e-02
      1.7957711748091781e-01 1.1368578006244087e-01
      -6.2324016754101474e-01 9.4813261891261158e-02
      -2.9459862258549280e-01 6.5559584453909581e-02
      -6.6948520684983226e+00 5.2500399741835313e-01
      -6.1726072386847974e-01 1.4936404527610561e-01
      7.2607997229776466e-01 -7.9088863112024055e-01
      3.8951393762770226e-01 8.7026247861243922e-01
      -3.2616814584059539e-01 -2.6090954139006289e-01
      -2.2573517442573032e-01 -4.0304398605985237e-01
      -2.2844561341763095e-01 -8.6004535494642786e-01
      9.0849817352844753e-01 -8.1537888987835883e-01
      -3.5675208529751951e-02 3.9586556721076444e-02
      -4.4582584110820245e-01 -5.9592387774828592e-01
      5.9558997897582355e-01 -9.6222045270747403e-02
      3.1459162390961815e-01 3.6872088100026801e-01
      -2.7478694154163158e-01 -2.9207333841443067e-01
      1.7294648779788926e-01 1.9411811420870356e-01
      1.9628460773153031e-01 3.9811026612869349e-01
      -6.8816977264198487e-01 4.0749836180029381e-01
      -7.0233663342208139e+00 -2.0115923597636845e-01
      2.6321025867048242e-01 3.0868448857609693e-01
      3.4643600767264027e-01 -3.2123504237944006e-01
      1.7223250325386290e-02 -3.2779544647163716e-01
      -1.0931099732569879e-01 -1.0652069296364271e-01
      -1.9077388489013802e-01 -1.0341276025915989e-01
      1.4019707964676528e-01 2.5875419094802127e-01
      4.0284337324229352e-01 -1.8066346775983155e-01
      3.1698887103200740e-01 1.2707481857419103e-01
      -4.3348237214763047e-01 -3.5916000642817825e-01
      2.5342673447466824e-01 2.7484927525665381e-01
      -1.7247623755334651e-01 6.6645919438212589e-02
      7.8854157921289955e-02 3.1959293539263905e-01
      -1.1529242372325933e-02 2.0991703034222589e-01
      3.6619566667729815e-02 -7.3799956537873510e-02
      -1.3300694220883802e-01 -1.8363270769308510e-01
      -6.4561292186770860e+00 3.4122112865466225e-01
      4.6754659368189004e-02 1.5519801998409405e-01
      3.3421626769299645e-01 -9.3435508514687779e-02
      6.2828423355763008e-01 1.0746741245531025e-01
      -1.2373314797606659e-02 -1.2449171730231122e-01
      -1.9708011293925159e-01 -6.8113157222600806e-01
      -1.6339477854004758e-01 -1.2170895652180011e-01
      2.5229677172076987e-02 -3.3038180055189437e-01
      4.2157465192526652e-02 1.2103045650644530e-01
      -3.5680500060384601e-01 -1.9217249959585729e-02
      4.6783627933373528e-01 -2.9575119888111689e-02
      1.2048751786248282e-01 -9.3758282360725809e-02
      -6.7235348211039700e-02 -6.1935479095229264e-02
      -6.3810825325098353e-02 4.1809402807959534e-01
      1.1544249896193046e-01 -1.1014013689555614e-01
      3.1546634169556092e-03 -2.6645051928899127e-01
      -6.1564958783032413e+00 2.3539543004821223e-02
      -1.1429347103846256e-02 4.1317564476174767e-02
      2.7776714184753587e-01 6.2824065472204271e-01
      3.4105475083909140e-02 2.5061395144228293e-01
      -2.3290148271612759e-01 2.6244284396928563e-01
      2.7847637254203145e-01 -1.5495771374386269e-01
      -1.1732089141293496e-01 -3.6547311044261432e-01
      5.0625342100966524e-02 -1.8993631235319761e-01
      3.0398657509735261e-01 3.4533260850589807e-03
      -5.9962923022013759e-01 -9.4583028070160516e-02
      4.3143147744515531e-01 -1.5006578912867932e-01
      -2.3810258418926958e-01 -1.0144694827278516e-01
      1.9040270406952561e-01 1.8446619409606840e-01
      7.9466130806171362e-02 6.9059831156763285e-02
      -1.4884795849513041e-01 3.1088500527930907e-01
      4.5745668253553645e-01 1.9882881186983994e-01
      -6.5174173639827115e+00 3.7078693152099845e-01
      -7.9739901831829429e-01 3.8261362842122015e-01
      8.7592725648277014e-01 -4.3692547088791539e-01
      1.0730646027158781e+00 1.4652200734684249e+00
      -3.3433166075448267e-01 2.7289298538446405e-01
      2.1781478646112309e-01 -1.0772275244138740e+00
      -4.9548076775502264e-01 -1.6804901651548900e+00
      9.6160025083129241e-01 -8.7310394768725552e-01
      5.8810197596148424e-02 -2.2832190331750804e-01
      -9.9749880745733110e-01 -6.7757656823502943e-01
      1.3648370711472184e+00 -7.5757758727189636e-02
      2.9545085194073895e-02 6.2259508911302630e-01
      -4.8996574674180043e-01 -2.7925215071511572e-01
      7.0007295354308358e-02 3.4571808848991314e-01
      5.5700780135311079e-01 6.6718771755519579e-01
      -4.5748416357351829e-01 1.0497440532877687e+00
      -1.0563190497675734e+01 9.4838550009845785e-02
      1.1880009377410676e-01 5.3477067420378410e-01
      -2.0284960579594075e-02 -7.1613620997710536e-01
      5.0424247889429468e-03 -2.0698023467499974e-01
      -1.0855633466809970e-01 -2.9024298582795260e-01
      -3.8591169835577133e-01 -7.1388357132755029e-02
      -1.8462579665466589e-01 1.7606424761009726e-01
      3.3759608363027094e-01 1.4068757811546165e-01
      1.1733546221706749e-01 1.9377650713112465e-01
      3.2449691973059946e-01 -2.3645268966461075e-01
      -3.9540227362241875e-01 9.5925882894356745e-02
      1.3137938170366667e-01 2.6429345913393787e-01
      -3.3900800744309156e-01 1.7114395133494856e-01
      -1.5082357691054044e-01 2.9681390911938005e-01
      5.2049145047354883e-01 3.2086815798169500e-02
      -4.5266733111859780e-01 -7.5314863036546928e-02
      -1.5552331352817530e+01 3.0383529179864077e-01
      -4.6444419116948216e-01 -8.1918439376498023e-02
      3.7903936256776793e-01 6.1586208930688204e-02
      -1.2369919040122971e-02 3.9722950920097239e-01
      -6.7598522891597797e-03 5.1580994680334646e-01
      3.7247152915110399e-01 -1.5603610644854460e-01
      -2.4526820283009265e-01 -5.8310884758206261e-01
      1.9775511457099143e-01 -4.1130794462385634e-01
      7.0787244463028046e-02 3.5578871689386227e-01
      -3.9201048202890459e-01 -3.8890407310955716e-01
      2.6605742779037672e-01 -1.0562862025397680e-01
      4.8350186727907352e-01 1.8768814473865011e-01
      -1.0999821487203365e-01 1.6693637313120913e-01
      -1.5546777301238537e-01 1.3133975980891732e-01
      3.5149309173037724e-01 2.8378390464563952e-01
      -5.9741838249411955e-02 8.9728949284539478e-02
      -2.5722786599549451e+01 1.2848521429958551e-01
      1.4063009551527988e-01 -8.2897827300517965e-02
      -8.3417948777023229e-02 1.9384047571182908e-02
      -3.9569003951846832e-01 -4.2651381760991719e-01
      1.1628888802675391e-01 -2.1918985175047017e-03
      -1.1810863640752697e-01 2.1010557556149337e-01
      -1.7304543447218448e-02 4.8439325238583464e-01
      -4.5789214563706282e-01 1.9807184190289917e-01
      -1.7237135463438003e-01 -6.2272182793256498e-02
      2.8402802286683226e-01 1.3179567217646174e-01
      -5.8248484272502765e-01 1.1151553390338682e-01
      5.0484007121816887e-02 -1.1753676856774017e-01
      -2.4552417304377225e-01 8.5059171955647064e-02
      -1.3675839697111511e-01 -2.5137003390623086e-01
      3.8958877490107713e-01 -2.2933521064003315e-01
      1.4642717453097739e-01 -3.0892397248345532e-01
      -1.3874067953101749e+01 -1.0751287101527415e-01
      7.1094959395495994e-01 -3.4644121597044619e-01
      -3.8829188113526497e-01 3.1581700849769168e-01
      -8.5490261318101435e-01 -8.0850346904103787e-01
      1.7300211189454817e-01 -1.5575634889763773e-01
      -1.9342719089785049e-01 8.0501471743631459e-01
      2.6361019932020857e-01 7.7013203028259103e-01
      -1.1375357784078248e+00 4.7130343643517192e-01
      -1.5350480768383029e-01 4.9588174939668848e-02
      8.0013538142416940e-01 8.3161889962443603e-01
      -9.7255873710343588e-01 3.6568478350968459e-01
      4.0696430547040358e-01 -5.4819822405239838e-01
      -3.0298239285998202e-01 2.3781916954763760e-01
      3.5685694697146039e-02 -1.8236076377739013e-01
      3.4727008964657352e-01 -2.6642690947218173e-01
      4.1009872472020492e-01 -3.9830945459518174e-01
      -9.0157394810227434e+00 1.1042761849265533e-02
      2.9502721305822233e-01 -1.4875440749105542e-01
      4.9144563736329423e-02 1.4324699706195501e-01
      -1.2586435897329641e-02 -3.2929481959939660e-01
      1.4687115860829073e-01 -3.3384971503023619e-01
      -3.2366695413373098e-01 -5.3991011949823101e-02
      -5.7369036161098529e-02 2.9805748428249945e-01
      -4.1909804888219870e-01 -1.3079597105532492e-01
      -1.0942750347417204e-01 -4.7001831546446146e-02
      5.4254346447070567e-01 4.4513163985804483e-01
      -3.6599743568843701e-01 -2.9622205237461650e-02
      2.5249885106805897e-01 -1.3140663803506011e-01
      -5.4427187415074774e-01 -4.8462550936318967e-02
      1.6820917763402773e-02 -8.2340680010505610e-02
      5.6997857229899473e-01 -1.0334793059800873e-01
      1.2655003364806952e-01 -4.3517979849572686e-01
      -8.3865451453579549e+00 1.2149756468513948e-01
      3.5910497853431556e-01 -3.2411092077045633e-01
      -2.5610820561878411e-01 2.5689037736503439e-01
      2.6266202173139369e-01 -3.4772810869600629e-01
      2.3034846545117355e-01 -3.9917354157765877e-01
      -4.8985809586129297e-01 -3.5867882634892984e-01
      6.1777483679728663e-02 2.9645196740396623e-01
      -9.4785209006937310e-01 2.0107852795445127e-01
      7.2482929821338721e-02 1.0349654563238263e-01
      3.1807027050316200e-01 5.0596894922746305e-01
      -3.6149992996809971e-01 -5.3144092234594924e-02
      3.0733890256720281e-01 -3.0091477295735841e-01
      -2.0811463971354535e-01 8.1782299891904595e-02
      1.2642107979059604e-02 -4.8723643475428104e-02
      3.6353887031918425e-01 -1.9922718086703847e-01
      1.8703103917155209e-01 -5.1641384895184550e-01
      -8.5919801150459669e+00 -4.8792321491044760e-01
      4.8242588980088297e-01 2.7421602214058949e-01
      -2.6228734440253160e-01 2.0358886197446546e-01
      2.1361674055125365e-01 -2.1700754230822608e-01
      1.3897221110103944e-01 2.5488075688614364e-01
      4.3934211566325543e-01 2.2716529621414289e-01
      -1.3911947615298773e-01 3.1096015136737903e-01
      -2.2012241284656214e-01 4.0098501738788317e-01
      -5.7176140391606962e-02 -5.1112376600251286e-01
      1.1993114599510941e-01 5.0245909191035132e-01
      -3.7910680568653654e-01 2.0966494821900847e-01
      -7.8031568247526928e-01 -1.1968437522643773e-01
      -3.0186977128183332e-02 -3.8219666467168213e-02
      1.3855107392854685e-01 -1.2380073961387156e-01
      -1.9667007625659205e-01 -3.1491539271361818e-01
      4.1937401638686722e-01 1.4502296172608906e-01
      -8.6643763024721423e+00 1.5380471265890600e-01
      -2.7833197007233207e-01 -1.5485828541532551e-01
      7.8176062451798733e-01 3.9897169100694846e-01
      5.0420466618907665e-02 2.8836997908331985e-01
      1.0815940317828387e-01 9.5189083211306225e-01
      9.7276141067991229e-01 -1.1859208130280455e-01
      -2.3761032038295771e-01 -2.7346529192152469e-01
      1.5312419069082070e-01 -7.9459292193798448e-01
      8.7058370654808134e-02 5.4810549630137054e-02
      -2.9298307830521775e-01 -1.2953693372031722e-01
      4.7996386008670305e-01 -2.5249082364645276e-01
      3.3197022500921108e-01 1.5475216041447830e-02
      1.0259660121374685e-02 -4.3777287658538670e-04
      5.6546063010765847e-02 -4.8320880206479348e-03
      9.1788289856692198e-02 2.6191636015014913e-01
      1.5245706592137684e-01 1.4973777986577422e-01
      -9.1916830303302657e+00 -1.3235407627007068e-01
      3.1519868700703296e-01 -2.2241954525881205e-01
      6.7177326845863680e-02 9.5559220216250879e-02
      -2.3639816692535340e-01 -1.6078212663655245e-01
      9.3041343335738699e-02 2.9379991062480282e-01
      2.9534227689478521e-01 2.5381890319774536e-01
      8.1353439793236185e-02 1.2099168316799595e-01
      5.1026936215956435e-02 -7.6964809814328294e-02
      -3.0427725977719953e-02 -3.7723104907491575e-02
      -2.3566278238630659e-01 5.6251588890403249e-02
      2.5295697277760304e-01 1.3797358955073806e-02
      1.2196686924935299e-01 -2.5575091974666736e-01
      -9.2055491103770575e-04 1.4024622419309591e-03
      3.1264992486205595e-03 -2.4960740112281610e-01
      -4.8008954829387531e-04 -7.2361933323553201e-02
      2.2279742743492797e-01 -2.4251759592869496e-01
      -9.2297844843919279e+00 2.4634599885034530e-01
      -4.0333382370098668e-02 -7.0423097995662529e-02
      -7.0481140034391057e-02 -2.6466178562603843e-01
      2.2222554911436695e-04 1.2339666316564288e-01
      -2.9248826826067147e-02 -1.1317593294870004e-01
      -6.7831259863645257e-02 1.1979112889000106e-01
      -1.3581063731244369e-01 -8.9151174053235110e-02
      -4.4982508542265931e-01 4.5106946754957619e-02
      -1.1075197982327577e-01 -1.1310766138880154e-02
      -4.6752092729822024e-02 2.9089997738624990e-01
      8.1701154428101858e-02 -7.7323334074790293e-02
      1.5340661556013233e-01 -5.2050066456619200e-02
      2.8440197192336272e-02 -1.6631496988944303e-01
      1.4690481450036474e-01 1.0231869609945496e-01
      -1.1368953852171000e-01 -7.3577524662986421e-02
      -2.2610621609212672e-01 -5.1748216500714109e-02
      -8.7046095524171729e+00 2.2564684213004327e-01
      -4.8056929713736557e-01 2.9723363485561666e-01
      4.9011112292528808e-01 1.2958551236993165e-01
      6.0755670705472353e-01 2.5303587441506648e-01
      -1.4584394225190558e-01 -4.7386445044907494e-01
      -5.3629787155936182e-01 -8.1674369247756740e-01
      1.4622382154252777e-02 -2.5740476968265374e-01
      -1.5023144457294982e-02 -5.0412448462140713e-01
      1.0051102025162639e-01 4.4472616576928019e-02
      -1.0867620649173655e-01 -1.4191648359726272e-01
      2.4351717580028392e-01 4.3743483795046084e-02
      2.0907255677553743e-01 3.9783707249968098e-01
      -8.4561356684802913e-02 -9.2919108030452890e-02
      4.5043935006718307e-02 1.7476905368219686e-01
      1.5210025980828834e-01 2.4411801965848035e-01
      4.5783248539942326e-02 1.9375475564949204e-01
      -8.3475660360414192e+00 3.0288442564259426e-02
      -5.4213799527647921e-01 1.9483953068859219e-01
      1.4966707748310126e-01 -2.6652582426806554e-01
      4.2163005315760993e-01 7.0495446307196896e-01
      -1.2780507763871793e-01 -1.5061993207128427e-01
      -1.7330742970445989e-01 -4.1859283625331667e-01
      -1.2828661946093156e-01 -7.4601682908559563e-01
      1.2784796501773379e-01 -1.3277463961984018e-01
      -1.3899227872170490e-02 -2.7767553330363837e-01
      -8.0474109481999601e-01 8.5177037621780166e-02
      8.3491685223908296e-01 -2.0977169780018204e-01
      -2.3788815931716165e-01 3.5998849418690371e-01
      1.6569039982536718e-01 -2.2652377224042866e-01
      4.4038089972942139e-02 1.9007931579817247e-01
      -1.8067164863983770e-01 1.4972653325018098e-01
      -3.6971281651764198e-01 2.3482690402146966e-01
      -8.1057266031500230e+00 6.3031619245765974e-02
      -6.7129471106240957e-01 3.0004493007395711e-01
      -2.8033873283972562e-02 -2.5137592460958519e-01
      2.5112013819689682e-01 1.1142800487051470e-02
      -8.3159255927959044e-02 3.6799976956576863e-01
      3.4660695891040050e-01 -1.3758209464985996e-01
      -1.7603511927707069e-01 1.3665880165486405e-01
      -4.3135348190577666e-01 -9.6741683643429971e-02
      2.0343207853182489e-02 4.5966922224811947e-02
      1.6342979320368506e-01 2.5855869616697347e-01
      -1.8512730724309870e-01 -6.8166437395838386e-02
      -9.2408666716726581e-02 4.8730539363187469e-01
      -6.2080138471434711e-02 -1.8022582918971002e-02
      -9.5848396045014092e-02 5.4008908488778852e-02
      9.7689770931603526e-02 1.9201811601371765e-01
      -1.8722502362378132e-01 2.4358884806413150e-01
      -7.7092794087504730e+00 -7.5340571101103759e-02
      -1.6893272515868063e-01 2.9241020711249083e-01
      2.0153570196332560e-01 -2.5844895451509786e-01
      2.2552148203921835e-02 9.6895251989259426e-03
      -1.3515220158314592e-01 -3.1870824771403333e-01
      -4.3466754829476917e-01 6.8600857419499908e-02
      -3.7102416947839213e-03 1.6638001089454461e-02
      -3.9404749459123367e-01 -1.7009878054025254e-01
      1.2869571846916758e-01 -2.5535809063744119e-01
      -5.8046599171285851e-01 2.2588857722220079e-01
      6.3709245114659541e-01 -9.6949541111713763e-02
      -2.3788200469368223e-01 3.7153507324470852e-01
      3.7687598609791756e-01 -1.4616399990387649e-01
      1.0786859340028239e-01 1.5900474850987878e-01
      -3.7577538659729770e-01 5.7354873068690117e-02
      -3.0991998420652711e-01 1.6501228532995213e-01
      -6.7588963688291654e+00 1.4637222083894671e-01
      -3.5917615179977972e-03 7.5541300674812545e-02
      2.7389777759020845e-01 -3.9080732904762616e-01
      2.5825396608440888e-02 -1.1497978769757215e-01
      -8.7975754857622018e-02 -2.9202362898722828e-01
      -2.9037672997755792e-01 -5.9501872072138418e-02
      -1.5783166984079547e-01 1.4471834317474241e-01
      -1.0533734646117660e-01 -2.7054821495372444e-01
      1.4177619463555016e-01 -3.9443785745243959e-02
      -1.6643440459779929e-01 1.0168323894604041e-01
      1.2241926465373891e-01 -9.2331128072325117e-03
      -1.0363386194520764e-01 1.7042003558700499e-02
      2.4572927171138115e-01 -6.7722500626199320e-02
      9.0401194117547309e-02 5.7504234039798707e-02
      -2.1199075242506318e-01 9.6277410743218481e-02
      -2.0417859339354449e-01 9.0492692632626506e-02
      -6.1514962082661251e+00 -7.0958670044314387e-02
      -5.1035820932071353e-02 4.1539699171103678e-01
      3.4028739122109092e-01 -1.3598289131002780e-01
      4.3621481484705898e-01 3.7386798826028793e-02
      -1.2146822530171440e-01 6.4131571752959826e-01
      5.4578902591039036e-01 -5.1663518399064046e-01
      4.9922158225156185e-03 -1.5872018785901004e-01
      -5.2790444769495029e-02 -2.5480199427645950e-01
      4.3286547188728636e-01 1.7034265169555923e-01
      -7.0671843436243820e-01 -3.7900535017865339e-01
      5.2921593803176648e-01 1.0243953940122348e-01
      -1.0686787552418835e-01 2.5677010460145361e-01
      -1.4418907893532984e-01 3.3701621921637054e-01
      7.9440039987447836e-02 2.8214644346453788e-01
      2.5686457374633492e-01 2.4172805789305241e-01
      -1.2384872712682439e-01 8.6616079187061906e-02
      -6.7767668925609730e+00 3.0116746635114566e-01
      -5.3848685022433007e-01 1.9744483758947182e-01
      8.7292205903405984e-01 9.0623391442010315e-02
      7.7245937954994015e-01 9.9126714203956490e-01
      -2.5719052518759644e-01 7.6469729628305316e-01
      7.5620726370246905e-01 -8.8470759865001747e-01
      -2.7619603964350059e-01 -1.0888678223632242e+00
      8.0559257287898267e-01 -8.9257169556651172e-01
      2.1339856514479955e-01 -2.1915990646060152e-01
      -8.9427831380497502e-01 -6.0907889683861449e-01
      1.1071143613199232e+00 -3.7748350674881304e-02
      -1.9047768936105663e-01 2.8949059942855598e-01
      1.8086269869373661e-01 -1.2041251692965974e-01
      2.4255822431314764e-01 2.1446381886622373e-01
      -2.0243509798860587e-01 4.8488230737983556e-01
      -3.8303145742603288e-02 6.7355892325827882e-01
      -1.2249262797237646e+01 2.1176812532451172e-01
      -4.7161668681250940e-01 2.2612648488899056e-02
      -1.1533997572472098e-01 1.8628246923171604e-01
      1.3616490900820391e-01 4.7625709652874332e-01
      -1.1610324975701872e-01 2.8821854485161230e-01
      2.8240638992776168e-01 6.6143854179929837e-02
      -2.1254318971786657e-03 -3.8063478813325402e-01
      3.0949733050514117e-01 8.8416102056977530e-02
      -9.3697413617741726e-02 -3.8536501890500119e-02
      -1.5325093785591104e-01 -2.1123456270876068e-01
      3.9658434635958517e-01 5.9125251976243423e-02
      -1.9345525371345929e-02 3.4408769982336357e-01
      -4.3900804373095986e-02 -2.3822184166604773e-01
      8.1823050366648317e-03 6.2324353541607092e-03
      -2.9394883620868133e-03 2.0458041847742484e-02
      -2.6300329411599394e-02 2.5663946969717849e-01
      -2.3018903338942014e+01 1.3697367855806200e-01
      1.1637339867713659e-01 -7.5802998338949906e-02
      -1.0736674536716431e-01 5.9475430207123085e-02
      -3.5054329411748397e-01 -4.0919972740455363e-01
      4.2625128578743059e-02 -2.3398849702103638e-01
      -3.1815385983376077e-01 1.6403301341791959e-01
      -8.4447119608595758e-02 4.0758400963697056e-01
      -4.9158549182523809e-01 1.4976107732762811e-01
      -1.0826438479827324e-01 9.4785293652445410e-02
      5.3690787398994255e-01 1.9846547259796410e-01
      -7.0074024350591346e-01 1.7904089215211955e-01
      3.2674772037282793e-02 -6.7949505605957139e-02
      -4.5619561083559301e-01 1.5458614248820041e-01
      -1.4894825681037410e-01 -1.2164401968009020e-01
      4.9515017490448637e-01 -1.1982836145413261e-01
      1.0378699904607405e-01 -1.9870077150485160e-01
      -1.1547391069246260e+01 2.0916271135585843e-01
      7.5200661470917708e-03 2.1711928035159056e-01
      -3.2498497463351828e-01 -5.2906984558569603e-01
      -6.0855811585033448e-01 -9.8929771063467076e-01
      1.8397849328748614e-01 -1.1773029515075942e-01
      -2.6323854030552829e-01 4.8116428323999710e-01
      1.0180977557387545e-01 1.0669267862111114e+00
      -9.3102060132558095e-01 3.3859083125931472e-01
      -1.5034642575012929e-02 3.6606534056432094e-01
      8.7190851084385335e-01 5.8010011533347705e-01
      -1.1285466365292318e+00 3.7195311784042416e-02
      4.8736642528239377e-01 3.0834597562743654e-01
      2.6700193540017508e-01 2.8721006455340359e-01
      -1.0710924059881105e-02 1.3773050331555914e-01
      -2.7878464870037217e-01 -3.6939879589181557e-01
      -3.5625574727798537e-01 -7.6039784597209148e-01
      -9.0644472525698063e+00 -2.5399652040564352e-01
      3.7591304221231592e-01 -6.0762057823346183e-01
      -3.2162447220802864e-01 3.9498365435495403e-01
      -5.9926657358508528e-01 -6.4748440891897319e-01
      1.3407556439475921e-01 3.3448163235867046e-01
      3.3281656807445958e-01 5.4380476954206003e-01
      -8.4997681302326114e-02 6.9313552282532387e-01
      -1.0834914789253443e+00 3.3912814758004389e-01
      -7.2311386164574274e-03 1.0436959713473692e-01
      7.6574836866763218e-01 7.0109510715094525e-01
      -8.7136779592824398e-01 3.4489174797585259e-02
      -9.2037433575073477e-02 -4.6979294614002975e-01
      -1.5156329196654647e-01 1.1849866047401131e-01
      -2.2911509889595619e-01 -4.8208960446540972e-01
      1.8566341798817027e-01 -1.2840779595840257e-01
      2.1331080675326600e-01 -5.7079421327304508e-02
      -8.9175621170845858e+00 -2.5415035379504791e-02
      2.7539174697595875e-01 -2.2484162415394601e-01
      -3.4516390170343364e-01 2.5587207314255487e-02
      -2.5961661518692758e-01 -2.7894854107932698e-01
      1.0599484125039862e-01 -7.2515026280387071e-02
      -7.7306744785682717e-03 2.8051025316272032e-01
      -3.7525577090771998e-02 3.6402780293800768e-01
      -8.6922887137113158e-01 3.2117807696889289e-01
      -1.9753960298395690e-01 -1.4605166567893929e-01
      5.8507364530656858e-01 6.6286581546188539e-01
      -6.2951817354738970e-01 1.1212454348874439e-01
      -2.3680972741219883e-01 -2.2463659826541577e-01
      -4.1194232629933736e-01 -9.1905562433141241e-02
      5.3661845635839575e-02 -2.1230235867276115e-01
      2.9761059845696491e-01 -3.9410168818363334e-01
      1.5327128875036553e-01 -1.9074869397079541e-01
      -9.3517203056740001e+00 4.0943779296941785e-01
      2.2312199943398095e-01 -3.7334556454762796e-01
      3.8365887656392278e-01 3.2323303219901983e-01
      -4.3071883184822635e-02 -1.9453582804506198e-01
      5.6246020443129562e-02 5.5020580547108622e-01
      5.2529073063827747e-01 3.6329165771206422e-02
      -2.0127652219828240e-01 2.0124386134277550e-01
      -4.0954593652686366e-01 -3.8027191075354499e-01
      -1.5954822499670975e-02 1.8414367899176845e-01
      2.1694675984054015e-02 1.8721662892120247e-01
      9.2793424147609146e-02 -2.0566551255891591e-01
      4.0084179081762333e-01 -3.8548878226229455e-01
      -6.4250054142321392e-02 -1.2228515542390234e-02
      9.6438268931682905e-03 1.2759962602414424e-01
      1.4372886684167807e-01 2.9535001530268806e-02
      1.3652438411913984e-01 -1.8553215431201578e-01
      -1.0560679400414182e+01 1.0963441275938111e-01
      -2.6819055390407593e-02 -3.5121349998305816e-02
      2.3836074190295206e-01 5.4499582456009256e-02
      2.7201047822578383e-02 1.1371073417250414e-01
      6.5817405599707057e-02 3.3918402531880687e-01
      3.7351943250060488e-01 -1.2221442471416828e-01
      -9.5478435833889250e-02 -4.6417553242006256e-02
      -3.0973388029632076e-01 -3.0642506242707473e-01
      -8.8098724366238557e-02 -5.8821408285031733e-02
      -4.1966997873849460e-01 1.9873341571360684e-01
      5.2277692080050697e-01 -2.2729209040641216e-02
      5.5051204298868436e-02 -9.3452314544903332e-03
      -4.9022778638495260e-02 -1.4245399747001736e-01
      3.8095909334090482e-02 -7.4637080644756340e-02
      5.6330333974593513e-02 -1.5697550998580279e-01
      -3.9165801626701796e-03 -1.6832274670353556e-01
      -1.0575705186546228e+01 1.0412351189988739e-01
      2.4879886053455325e-01 -2.1396211206048776e-01
      1.7066345090813959e-01 1.7419645324153810e-01
      -9.8176568429175340e-02 -1.2644513199622137e-01
      1.0785644782903779e-01 -4.7827654135188691e-01
      -4.9459434996087276e-01 1.5959019277648451e-01
      8.9775169384653783e-02 1.4226124900469506e-01
      -4.8792663243936235e-01 -1.5524403061451492e-01
      -5.6201384012115147e-03 -1.6589242110857805e-01
      7.6987898526105283e-02 2.9349878580069766e-01
      -1.3327909926540493e-01 -1.5671876867551307e-01
      7.1704215149636125e-02 -2.2085291195874865e-01
      5.0926340234073764e-01 -1.1023506316451931e-01
      1.6279562045535773e-01 1.4317019860763558e-02
      -5.0192451099731661e-01 -1.7071586166022110e-01
      1.2152858063026215e-01 -1.0094765009144807e-01
      -1.0108313924907847e+01 -1.1772851456243041e-02
      5.1664015493944304e-01 -4.0872242935764286e-01
      4.2179962117300518e-01 6.4305988986779394e-01
      9.4703884947071132e-02 1.3081929506025047e-01
      -5.1365130143769352e-02 7.4063901303012325e-01
      7.3870919908550958e-01 -1.4342841406398990e-01
      8.7065416872594448e-02 -2.8937691923535913e-01
      -1.0915484149908435e-01 -5.1691151646618605e-01
      9.8345423792289582e-02 -3.1251716199694368e-01
      -9.3706662777869806e-02 6.3171075444573066e-02
      2.1897673519566699e-01 -1.6844595172700025e-01
      -1.2171951539590831e-01 -4.7085138558556272e-01
      3.8068194124441790e-01 -1.1578659014409587e-01
      2.4442924368169314e-01 -7.9043987374440156e-02
      -3.1083860008196473e-01 1.0999732204987732e-01
      3.8964687783803509e-01 1.2672794600590742e-01
      -9.9121642259647125e+00 -5.0762486117360256e-02
      -1.7957479821472902e-01 4.0467947599393744e-01
      1.1371247658925433e-01 -6.1950020339977228e-03
      1.2957124961716304e-01 1.3745327102160548e-01
      -4.1699384161955559e-02 1.3380797309063905e-01
      2.1311117485734113e-01 -1.4252500211648600e-01
      1.1194743638170718e-02 -1.3054123244930260e-01
      -4.0031501116249169e-01 -6.1468697876906363e-02
      1.3009526139071081e-01 -1.2369925097889256e-01
      -4.4039553250403807e-01 2.7522911345169443e-01
      4.1191741152022238e-01 4.6881586169782982e-02
      -6.3364943013996544e-01 2.9024956493566323e-01
      4.0502740381676194e-01 8.1028154760207041e-02
      1.4057959886935309e-01 4.9730485143159711e-02
      -5.1600287830819336e-01 -3.0732604265654787e-02
      1.1638982521518250e-01 1.4125819426913703e-03
      -9.8355572527670425e+00 2.7240049880996231e-01
      -4.4356072443905731e-01 1.3892182926008687e-01
      3.2888195544058296e-01 -4.1488346609101812e-01
      4.6429434420659055e-01 1.6362525232048680e-01
      7.4827952748507589e-03 8.5902037957544863e-01
      8.8727595833799711e-01 -4.8757682723754181e-01
      -6.2267841659840582e-02 -6.4466165004284023e-02
      -2.4213635721164237e-01 -3.7903290552427615e-01
      -8.7525849913068610e-02 1.7075516059959228e-01
      1.0877752769737820e-01 4.4277206710041671e-02
      6.5930994847674923e-02 -1.9467225692627876e-01
      2.4113089896134410e-01 3.0584985149426630e-01
      2.3694115894486692e-01 -9.5669357282300374e-02
      -2.2808357239794391e-02 1.2069180061589470e-01
      -2.6409253689100765e-01 1.8666776704704503e-02
      -3.4438871912115609e-01 6.8418048739001910e-02
      -1.0092653038807569e+01 -9.4838588013275604e-02
      2.0956759530208730e-01 -3.0927749136487670e-01
      7.3374340123679591e-02 2.5785640302725787e-01
      -1.5665409078425528e-02 4.4165727846807901e-01
      -7.2135240959171343e-02 2.5627847914325541e-01
      3.6436895512543771e-01 -1.1256176752490123e-01
      1.4792090476418633e-02 -6.0368146643092835e-01
      1.9307965909969202e-01 -5.6283002641643369e-02
      3.8365493932182547e-02 -9.7753962745373527e-02
      -4.1113112960724202e-01 5.2611869378331164e-02
      4.9925405275087559e-01 2.6387986454037150e-02
      -1.6010299341960726e-01 -3.1912726939396391e-01
      1.3174308586327410e-01 -6.7833012290968053e-02
      -3.6328587682396198e-02 -1.3861313151093663e-01
      -1.4968967111929291e-01 1.0536892240184842e-01
      1.9452620545291383e-01 6.0138388606225071e-02
      -9.4944529885571356e+00 2.4753063730771990e-01
      -4.1399837155252245e-01 3.3701604217866782e-01
      -7.9098171840084566e-02 -6.7308222321859490e-01
      2.6144109310969349e-01 1.6221834425430148e-01
      -4.6096949101294520e-03 -3.8460170610198835e-01
      -4.4472862007901515e-01 -1.9916716676376334e-01
      -5.3930885645066234e-02 -5.3913204346855405e-02
      2.6113550850354678e-01 7.0712314647973201e-02
      1.2352550677296151e-01 -5.3703505191074342e-02
      -2.3612015176060691e-01 -2.7342622430526786e-01
      3.2922951037256765e-01 -8.0445098196643333e-02
      -8.3209810227495115e-02 4.5407099798437356e-01
      5.7254858289356980e-01 -6.6395418220853139e-02
      1.6754546124063049e-01 3.0285513316078572e-01
      -5.7040868716709769e-01 -1.2181211660508451e-01
      -5.6597437106304582e-01 -1.6877845657715493e-01
      -7.6953287342183243e+00 2.7808315057259880e-01
      -1.8769528451619569e-01 9.4199171443203347e-02
      3.1588487568423890e-01 -2.0893108577645766e-01
      1.1499784543600970e-01 3.9899066586979703e-01
      -9.9366412782581931e-02 3.9473233362283970e-02
      1.0885408619428510e-01 -3.1791811543830401e-02
      -1.8882162751152951e-01 -4.0759086462038929e-01
      8.3957936722344784e-01 -3.1096578843007566e-01
      9.8266065658055013e-03 -2.0120181135419296e-01
      -3.4692892148338389e-01 -5.6315659421800057e-01
      4.5660272861445833e-01 -3.4046867192602075e-02
      -2.9331738472359398e-02 1.2309059005064032e-01
      7.7337828199480985e-02 -1.3641619174516545e-01
      2.3529994276881919e-01 1.9446512177768041e-01
      -1.2471863638222994e-01 6.1884575808087879e-02
      -1.5704475012473590e-01 -3.5837150731580905e-02
      -6.4905206579090251e+00 1.9380307616364814e-01
      -1.3255489908720758e-01 4.0620461051070617e-01
      9.0231077862703832e-02 -4.9336501596310989e-01
      3.0343069531523065e-01 -2.4774508198539685e-01
      -5.1002727320327665e-02 -1.6893739994967594e-01
      -2.2797484543829857e-01 -3.3607170735586056e-01
      -2.7605006421711244e-02 3.2292362370904448e-01
      -2.9198331300471177e-02 -3.9078717652035230e-02
      1.6714541266298055e-01 6.5489708434571553e-02
      -1.1082272529634669e-01 3.4960639755181398e-02
      2.9487392765089330e-02 2.6702672366669417e-01
      -1.4582615605439922e-01 2.6475033493406402e-01
      -2.2297892255898544e-01 1.4353697333975649e-01
      1.5258868164912898e-01 4.2511205225049487e-01
      2.0551161583770269e-01 -9.7380529831509841e-02
      -3.1812803686377444e-01 -1.2720775189037214e-01
      -6.1792932806473733e+00 1.2274439570516275e-01
      -4.2686414923158006e-01 2.2073465707696394e-01
      2.4865096038501272e-01 -8.6158711675700717e-02
      3.7385784925949850e-01 3.2305850090616695e-01
      -1.1955602764382348e-01 -1.7877984080758330e-01
      -1.1387821405452138e-01 -4.2081104421794219e-01
      -1.1575425780760105e-01 -3.6034771173433483e-01
      1.8639555391675605e-01 -3.5278132626744868e-01
      9.7590086063276640e-02 -2.5312132509640611e-01
      -6.4161131468327071e-01 -1.1191244800221045e-02
      6.0186042700033571e-01 3.0478153732673364e-02
      -2.7975994813296434e-01 2.8203210703247289e-01
      2.2082199399091412e-01 -9.4102307322988313e-02
      3.1304740463372638e-01 2.9299245723539141e-01
      -2.4835068358702811e-01 1.5043375347199500e-01
      -1.5563253552480388e-01 2.8750002452573564e-01
      -8.9739182626814245e+00 1.3486864715710925e-01
      -3.2966711888572503e-01 1.0411018317045047e-01
      1.8981126956054356e-01 3.0873229410223457e-01
      5.1589843423335280e-01 6.9497271717537346e-01
      -2.1874505579275524e-01 5.3788098395558558e-02
      1.0347473744123482e-01 -4.6024900215300479e-01
      -2.5823736937865288e-01 -8.0730974273930156e-01
      4.5379559413685921e-01 -1.3526749179984732e-01
      -1.6442521472045984e-02 -3.5829019801547363e-01
      -4.9616934006759461e-01 -1.3393793574251661e-01
      5.4406980100790769e-01 -2.9363746254615231e-01
      -1.3514708915281110e-01 1.2004757964640174e-01
      8.5029434289355832e-02 -2.5475713053823523e-01
      1.4774180485626667e-01 1.0951238940639076e-01
      -7.2257898620733257e-02 2.2966573479999663e-01
      2.3746573491751094e-01 4.1746385249760659e-01
      -2.0296659969064695e+01 1.2038082227495332e-01
      1.4593997622225111e-01 -3.6579329868874461e-01
      4.2245592336508819e-01 4.3011312694491943e-01
      -1.7210000513152179e-01 2.5538317750325368e-01
      2.3756788705566349e-02 4.2007179856268290e-01
      3.2730065209917547e-01 -4.0223355348817109e-02
      4.1166154527724888e-02 -3.3965914234009548e-01
      -8.5924691196574352e-02 -4.0277646125082500e-01
      1.0019697245468900e-01 -1.2083559032916391e-02
      -2.1475537778907716e-01 -1.1573345754197176e-01
      1.9273620319359203e-01 8.9880342850449189e-03
      1.1313030445622878e-01 -3.0627183160745119e-01
      -1.7821411857828429e-02 6.2592129739544047e-02
      7.1209325745154747e-02 -3.2099529742161093e-01
      1.2722127723814342e-01 4.8080417878007854e-02
      3.8357489610912981e-01 -1.1388744502125475e-01
      -1.0160654216666659e+01 -4.0906024031770100e-01
      1.0584175601599923e+00 -8.3499409502234101e-01
      -4.2739772030911355e-01 1.1446692901764786e+00
      -7.7427761810014195e-01 -4.6518112373134940e-01
      2.2835743798887068e-01 1.0477489436616858e+00
      1.1120243360910034e+00 8.3546393013684905e-01
      8.1618226108864947e-02 5.3480829628228088e-01
      -1.4533037091120480e+00 4.1023788986629267e-01
      -1.0311633369482687e-01 -3.8131960937464943e-01
      4.8671402199102365e-01 1.1907133560862566e+00
      -1.3913689511050500e-01 -1.3118895579974413e-01
      -3.7253141672293114e-02 -1.0646401154588510e+00
      5.6627395942900594e-01 1.8897044690951076e-02
      2.8914895936208906e-01 -4.3545497055871946e-01
      -4.9642017718011161e-01 -5.8522048053665632e-01
      8.3596017233148834e-01 -5.6392665079428383e-01
      -9.1669918131031487e+00 -1.1115249648393873e-01
      3.0091748120558437e-01 9.9193326237930202e-03
      -5.6623587212180387e-02 2.6358905375849673e-01
      -1.1684299843559785e-01 -9.1836122974898751e-02
      1.5359959768634737e-01 -2.5130700258055799e-01
      -9.6385727761615414e-02 4.7451923508999344e-01
      -1.3702907653825994e-01 2.2217075624321653e-01
      -9.8762268208672710e-01 6.7138075156513544e-02
      -1.1010624292579348e-01 -3.2742146808247047e-01
      3.9183071422415605e-01 9.0412946590713172e-01
      -4.9406220439714066e-01 2.6450357371838229e-01
      -5.1156230467879937e-01 -1.1995623489149305e-01
      -4.5949888072712705e-02 -1.6402366158328580e-01
      6.5865513438633574e-02 -2.7579893124165389e-01
      -1.2034859732642397e-01 -2.7959698703774512e-02
      2.8487284520069667e-01 4.1209086549244073e-01
      -9.4970901056319317e+00 2.0687648332854369e-01
      4.0741220827426017e-01 -1.6842955108112317e-01
      6.1635517843085380e-02 1.4413172437745167e-01
      -2.4692125912325485e-02 -4.9942217144225615e-01
      6.9259312807539511e-02 3.3320550577640204e-02
      8.1484216772022486e-02 -1.9823735578275648e-02
      -9.4584748791301146e-02 4.6238785385601577e-01
      -6.6214785939612930e-01 -2.0358027712125810e-02
      7.4437854730916436e-02 -5.5330237014582775e-03
      2.6964357755345814e-01 4.1557039546846064e-01
      -5.1276210456038618e-01 5.7767284542838401e-02
      -5.7271820977740411e-02 -3.3824871986028471e-01
      -3.1068262926176549e-01 4.2267102288972687e-02
      9.2135005740676665e-02 -5.8438089703385800e-02
      3.2998003156462091e-01 -1.8554253144920489e-02
      2.4461792371595883e-01 -7.6691998202146450e-02
      -1.0387841084145766e+01 9.9705971817339395e-02
      -1.0243712157640378e-02 -5.1812918326822632e-01
      4.0295659320877775e-01 5.0762977473350002e-01
      -3.9749268908637775e-01 2.5882757474605944e-01
      9.7631578879087081e-03 5.1160735592634743e-01
      5.9047206640662198e-01 5.2709431519235905e-01
      -9.0425675296111091e-02 -2.5191354572436958e-01
      2.4828725872902621e-01 -4.4909963187113244e-01
      -1.5013893904822506e-01 -1.7586004584404241e-01
      2.2276578716006859e-01 -9.5052896242679263e-02
      3.8451242533142138e-02 -2.7994597027921148e-01
      2.7109321285788768e-01 -2.0361413369844994e-01
      1.2304643132223203e-01 -2.0090241253588953e-01
      1.3409088577358508e-01 -2.4222457416861864e-01
      -1.5984501272117640e-01 6.3761536446648739e-02
      2.6301474042470285e-01 2.5086930228828236e-01
      -1.0859201200721159e+01 1.3239565081383761e-01
      1.8405999731580461e-01 -2.7113189719041703e-01
      2.4270135131047460e-01 2.6372483333953778e-01
      -3.6541249736149778e-02 3.1146395593400011e-01
      -1.2463305401551182e-02 2.1351228447675336e-01
      1.3648148040318450e-01 -1.1291526686730244e-01
      1.3916841446897737e-01 -4.1751075159317258e-01
      -2.0776291830802224e-01 -3.0309119011830016e-01
      1.0250130712964193e-02 -1.9185321363497285e-01
      -8.4765523298727263e-01 1.0280550778903363e-01
      9.4973612130301188e-01 -3.6333519188069492e-02
      1.1210252447441614e-01 -3.1816251300448534e-01
      7.4794349822018735e-01 -7.8677111688155749e-02
      2.6946341774178539e-01 6.2496326678331722e-02
      -7.7401760505585848e-01 -1.1580940963975649e-02
      2.1579422201002779e-01 2.3545649420538491e-04
      -1.0339272357175284e+01 -1.2117833085848854e-01
      -1.5447788179792685e-01 -8.3305444196067252e-02
      8.2700038207844537e-02 2.7536954426508281e-01
      -2.7012509846771354e-01 -1.2487715765367620e-01
      -7.2902510114780758e-02 1.2362101461346439e-01
      1.6113787151463846e-01 2.7612017202867212e-01
      1.1583427191868058e-01 2.0266938323172656e-01
      2.5998762775528939e-01 -3.9893357882170473e-02
      -1.6994930730290342e-01 -7.3395730734409484e-02
      6.7001984947421966e-01 -9.7327412683592296e-02
      -6.4265612530850647e-01 8.2202767742723573e-02
      -2.1255306284353428e-02 -3.1750905183952745e-02
      -3.0875945678698929e-01 -7.7213872306488560e-02
      -6.8538422760283671e-02 -3.0580538688589209e-01
      2.5638672567973791e-01 1.4953365429128314e-02
      2.8756000996235609e-01 1.6161764006673729e-01
      -9.9426054007637799e+00 1.3093639604784538e-01
      -4.4327145257396665e-02 -3.4833665120697563e-02
      3.9654652949251173e-01 4.3133309772233713e-01
      8.2518638264102426e-02 3.9538306442926113e-01
      -1.2104309576601147e-01 3.2756993516597238e-01
      3.0942256474143676e-01 -1.3633453974206458e-01
      4.6636259267369307e-02 -5.8091514855188464e-01
      4.8518523384967011e-01 -2.7128873863026631e-01
      -3.7780929548246849e-03 -2.5983722571122009e-01
      -4.7998272799513209e-01 -3.4013960276378358e-01
      3.2559066671109643e-01 -1.2190253648468560e-01
      -1.2714246133311733e-02 -8.4653901998949843e-02
      9.3397289938169079e-02 -1.8681792321751142e-01
      1.5096669738827709e-01 -3.7037693643457457e-02
      -1.2053046737871674e-01 1.9069421109157204e-02
      3.2878995404034683e-01 -8.8850604661345339e-03
      -1.0514932062509212e+01 -8.1641669680056664e-02
      4.3111002288746852e-01 -1.7510920875643982e-01
      3.4936150280749867e-01 4.4142467024951992e-01
      -1.0879652432669413e+00 -8.0034316808932293e-01
      2.7374072072113263e-02 1.0213852617197314e+00
      9.8568321402684511e-01 8.5275180128796901e-01
      8.5713004828870565e-02 7.8649993578324584e-01
      -1.4211029835634811e-01 -2.4573167291339693e-01
      -1.2677666324147946e-01 1.6350692525562088e-01
      4.4528695822160741e-01 3.2374842164555710e-02
      -7.2308261534323792e-01 1.0764817383096807e-01
      8.8184397187227606e-02 -2.9883468144234260e-01
      -2.5302206834365426e-01 1.2519128813113814e-01
      -1.8417108207452543e-01 -4.8446867927216575e-01
      3.4788988409735816e-01 -2.6593110061402514e-01
      4.2246669615433746e-01 -3.1222149955800060e-01
      -1.0449685711638233e+01 -2.8022878320639288e-01
      3.7115114601882004e-01 1.7681643859253970e-01
      7.3919569576129907e-01 6.2857214425516850e-01
      -5.9144704733375386e-01 -2.5206536801962942e-01
      -9.7799391754478118e-02 1.4766533940956976e+00
      1.4170081587150642e+00 4.2401393112962765e-01
      1.9323923769338730e-01 2.5739479048868391e-02
      2.8250863687431227e-01 -5.6890579251077034e-01
      3.0029689477691413e-01 8.1060919229114861e-02
      -6.6446445199615833e-01 -2.3224716621935976e-01
      2.6019732429649189e-01 7.0533735376172484e-03
      -6.7465582405727309e-02 -1.4472296440941698e-01
      1.1004048578284269e-01 4.6115574397986375e-01
      5.0483376044428721e-02 -1.6878055340472103e-01
      3.5365087515981775e-02 2.3051966970632973e-01
      5.7387588036815140e-01 -3.4838634690002382e-02
      -1.0717392230398755e+01 -2.0949685387190833e-01
      2.1636391450672468e-01 -1.1923843815727021e-01
      3.8570064644807628e-01 5.5168065119884024e-01
      -8.3966392783895760e-01 -4.7362443688894459e-02
      -1.7032678650459310e-01 7.2770139101364195e-01
      6.9428577152350957e-01 5.7036886447068069e-01
      1.7958932311737391e-01 -1.6041655174146838e-01
      6.0082478872494294e-01 -2.7604496175549825e-01
      4.5833829266115331e-02 -9.7449878964466871e-02
      7.5141759854842017e-03 -5.5692478471526774e-01
      -2.2216349573758301e-01 1.4166207029228650e-01
      -3.6135409248107479e-02 -1.6403074860377215e-01
      -4.6364598568395216e-01 7.8202922494015462e-02
      -3.3698254757046221e-02 -3.8267774484764477e-01
      5.4053033731927957e-01 4.8211003466422417e-02
      5.2401909058982410e-01 2.2533923187267380e-01
      -1.0462426587023222e+01 -4.2107504266519763e-01
      4.7760287247890687e-01 -6.9852656270321015e-02
      -3.2266500241125484e-01 2.5678683393477494e-02
      -1.0242590852765716e+00 -8.2166484088995395e-01
      -1.2372108537478776e-01 4.4994147657847627e-01
      3.2047020486029487e-01 9.1849262971565604e-01
      6.9405718345614112e-02 7.8480909465415649e-01
      6.9484311039183888e-01 4.3463981197386281e-01
      -1.0353994493101896e-02 1.8893150140589013e-01
      5.7994236710252411e-01 -6.6665152170013453e-01
      -9.1172777572881725e-01 3.8327341032531309e-01
      8.1219895648961093e-02 -1.8957865249686065e-01
      -7.9292944412504074e-01 3.8098951497883515e-01
      -2.6908113603743589e-01 -5.1784875418375254e-01
      8.8660037659165269e-01 -4.8136539342300041e-02
      2.1287562891456818e-01 -1.8339672949066169e-01
      -8.8089654099472892e+00 -1.0910597191383935e-01
      9.7298267137355912e-02 1.5803387201846424e-02
      1.8620500555343231e-01 2.2763326033891054e-01
      -1.5746762219645960e-01 -1.6783726741183641e-01
      -2.8119316853376004e-02 2.4644056093177027e-01
      2.1532091816232829e-01 -2.0301611420572546e-01
      4.8313681215202894e-02 5.2998857240418432e-02
      7.7471051373909772e-01 -1.2444544412858431e-01
      1.6588468937400583e-01 2.5535309156891096e-02
      -5.8048697601832504e-04 -6.9543228140377167e-01
      -1.5457337748249655e-01 1.3237820790272373e-01
      -6.7244100754267899e-02 -1.3922219034403288e-01
      -3.9315996815074133e-01 2.5194723800662777e-01
      2.0324250874212111e-02 -2.2486831351774650e-01
      5.7217038785063057e-01 8.5471347998722094e-02
      3.6951786830081629e-01 -5.7202151417214096e-02
      -6.9406438323610153e+00 -2.6350508538960983e-03
      -4.8817271743202634e-01 1.6806120572391509e-01
      2.6772342318928682e-01 1.1531679949427224e-02
      4.2268810077959917e-01 4.7940294723828170e-01
      -1.2048599378596100e-01 1.3597094774852794e-02
      9.2826755146778305e-03 -5.3996465507577052e-01
      -9.7273901288576853e-02 -4.9474472176347228e-01
      8.9392554824505477e-01 -2.9447987463964781e-01
      7.4339751627844494e-02 1.4055945573378920e-01
      -3.6284271047195710e-01 -5.9820030126377344e-01
      3.8400745315716228e-01 -1.5497669467393893e-02
      -3.5028311194730986e-03 3.1843442135612798e-01
      -1.0877202585481063e-01 6.3023871522100094e-02
      -3.8960927436444297e-02 -1.0113600131618670e-01
      1.3201635139396528e-01 2.2363216062844987e-01
      -3.2592843177911224e-02 1.7352273625979012e-01
      -6.6449308462448444e+00 1.2756267736268087e-01
      -6.1179922401565001e-01 8.9244849769856571e-01
      2.7873676089837757e-01 -1.0144616884518574e+00
      1.1152573973789195e+00 3.9442785432948529e-01
      -1.7071594934848475e-01 -6.0295453911680830e-01
      -6.8968055376180892e-01 -1.2923667388784545e+00
      -3.7900548961535316e-02 -4.6468339610273168e-01
      -8.5640085998144710e-02 -2.4136659669468624e-01
      4.4547570677459064e-01 3.6109138272689356e-02
      -9.5862222134840258e-01 -2.4679456492280066e-01
      7.8977333448700515e-01 -1.0281315545519021e-01
      -3.7566852144054808e-01 7.9553355656700042e-01
      6.4025594574936384e-01 8.2040053718439365e-02
      1.5670247655227787e-01 3.5520684842226985e-01
      -5.2009739568265800e-01 4.9311853240324527e-01
      -6.8375083474260412e-01 2.7133279469762339e-01
      -8.3305658999929832e+00 1.9330673020918948e-01
      -4.7402200914873954e-01 3.0634132527560093e-01
      4.1664388086417081e-01 -5.6349329215845789e-01
      4.6537889017604883e-01 6.6891618280019105e-01
      -3.0348732014183771e-01 -4.1903831709671591e-01
      -4.4411983386633297e-01 -3.4405864348177995e-01
      -1.7527842356439938e-01 -6.8082213594500296e-01
      8.9234290682635040e-02 -4.2036759287697667e-01
      5.9094267996545664e-02 -1.6307476122770190e-01
      -5.9770472318901713e-01 -1.8545191950550063e-01
      7.1128611289089272e-01 -2.6066308036735181e-01
      -1.3597275049817618e-02 3.0852955108367602e-01
      2.6711959950067987e-01 -1.4467631182013727e-01
      9.5723151259079028e-02 1.5314173496909639e-01
      -3.3299623238327442e-01 4.7284535561893959e-01
      -3.8248960785260466e-01 3.2057587812412586e-01
      -1.7539702103099984e+01 3.6749958418959389e-01
      -3.0994579270262440e-01 1.5726919144512042e-01
      7.4060450081161011e-01 1.3104155385903577e-03
      4.9520604951085340e-01 8.8160053219725809e-02
      8.7339337311993309e-02 1.2099611515643259e-01
      8.4669195419832019e-02 -6.3993840714700534e-01
      -1.3870982116053704e-01 -6.4684294829217143e-02
      -7.4004701143206328e-02 -7.4073585660830055e-01
      1.1813396987074846e-01 -2.0618403610776542e-01
      -4.8994264399790632e-01 -3.7573710746609187e-02
      3.8697206585444788e-01 6.7729266240588698e-02
      -1.3632495571373540e-01 1.8611737757483146e-01
      1.6188707794912494e-01 -1.3245873816596873e-01
      1.8663130117760612e-01 1.0701917399386673e-01
      -1.4958300829656487e-01 5.1886292002156428e-02
      4.1323993834566461e-02 3.4885819190744669e-02
      -1.0178500751708460e+01 -1.0314066920209633e-01
      3.2221917251641863e-01 1.0157769536315669e-01
      -3.1959279142865185e-02 4.7499479423484431e-01
      2.4728060298465643e-01 8.6687677453875747e-02
      2.0982415561358747e-01 4.7889436972529198e-01
      6.8958766850430464e-01 1.0773371657562331e-01
      -3.4324327280304029e-01 -4.9501253581790548e-02
      -8.9418470671865868e-01 4.7043192818637558e-02
      -4.1776975103736742e-02 -4.6263262553245543e-01
      -4.0920434423736629e-01 9.0039252878315157e-01
      2.8015972257755922e-01 1.6374420104312862e-01
      -6.9289343553864469e-01 -1.9973481450545882e-01
      6.1036059127036024e-01 -8.8761923401550133e-02
      1.9530633444342246e-01 -1.4031762842144077e-01
      -7.8537920205628686e-01 -2.4298767315463565e-01
      5.4870043203307672e-01 1.1683830092062719e-01
      -9.2479842262371328e+00 3.1355076183700298e-01
      3.9036171512771795e-01 -2.3163322531484160e-01
      1.6539148198273809e-01 2.2437388924937460e-01
      -3.6020639940261001e-01 -3.6834272030261689e-01
      1.9253627206413140e-01 6.4784140973017590e-01
      5.5230793691294933e-01 -1.2383757790284664e-01
      -4.0345108621403003e-02 2.0797515941802563e-01
      -9.3605615415027055e-01 -1.4436228607663842e-01
      1.1539732205462308e-01 2.7555370896345843e-01
      1.4169618067593590e-01 4.7795136113670150e-01
      -1.1914466693581147e-01 -1.2172596762233927e-01
      6.5892035583186104e-01 -3.9170553468012975e-01
      6.4770877799810986e-02 1.7837814532704241e-01
      8.5188946917314892e-02 -2.3092502938881015e-02
      7.0949857568243735e-02 1.1652621771780948e-01
      2.0545790274973055e-01 -2.9515757057210495e-01
      -9.9520999164522621e+00 -8.7413778733160655e-02
      3.2660825690593248e-01 -2.6115864581769871e-01
      -2.6748843551408358e-01 2.4269343716434254e-02
      -2.7266266635997771e-01 -3.9442124699096798e-01
      1.6434143389890660e-01 -2.7529149085235410e-01
      -3.1903067837241661e-01 3.8821700328468906e-01
      5.9243150394602789e-02 4.5016110791135416e-01
      -7.4657607722974129e-01 2.2952441492806694e-01
      -1.1012892435748974e-01 -6.0038985557195265e-03
      4.5176795346754456e-01 6.4277749428041664e-01
      -3.6423531658390418e-01 -1.4405643315256833e-01
      1.4859784455520983e-01 -1.8247277144066362e-01
      2.6416805805527466e-01 -3.4119443816806511e-02
      -2.4960080079951784e-02 -1.6143444523194062e-01
      -2.7136357537807759e-01 -1.7874312081337254e-01
      -7.1577813583372256e-04 -2.8591347168691944e-01
      -1.0934632225539248e+01 -1.9723838323408693e-02
      7.7185038417458454e-02 -3.4892340985093645e-01
      -1.5682106397915607e-01 1.7452889456639387e-01
      -3.9204087941026555e-01 1.2055636463596515e-01
      7.4682444792484134e-02 3.1675605845017435e-01
      2.7593656629136426e-01 3.6166587044569920e-01
      7.1561151153897912e-02 -9.7953847649127207e-02
      -1.2033947227076976e-01 -8.9992120664324507e-02
      -1.8569089792717769e-01 -1.2267286100215642e-01
      -1.6564826744136957e-01 -2.1646579064175685e-02
      1.9669505802470580e-01 -1.7524884913982289e-01
      2.9174092537379942e-01 -1.6444479934369449e-01
      3.4616432779972822e-01 -1.2618365814334656e-01
      1.0510544849482749e-01 -1.3870738068239527e-01
      -3.4190837162390231e-01 -1.3549088897166234e-01
      -3.4702017802661148e-02 -1.9788110139739512e-01
      -1.1954768488777521e+01 -3.8350443598216009e-02
