<?xml version="1.0"?>
<opencv_storage>
<OCR type_id="opencv-ml-ann-mlp">
  <layer_sizes type_id="opencv-matrix">
    <rows>1</rows>
    <cols>3</cols>
    <dt>i</dt>
    <data>
      256 32 2</data></layer_sizes>
  <activation_function>SIGMOID_SYM</activation_function>
  <f_param1>5.9999999999999998e-01</f_param1>
  <f_param2>1.</f_param2>
  <min_val>-9.4999999999999996e-01</min_val>
  <max_val>9.4999999999999996e-01</max_val>
  <min_val1>-9.7999999999999998e-01</min_val1>
  <max_val1>9.7999999999999998e-01</max_val1>
  <training_params>
    <train_method>BACKPROP</train_method>
    <dw_scale>1.0000000000000001e-01</dw_scale>
    <moment_scale>1.0000000000000001e-01</moment_scale>
    <term_criteria><epsilon>9.9999999747524271e-07</epsilon>
      <iterations>1000</iterations></term_criteria></training_params>
  <input_scale>
    6.7364478366382450e+00 -6.5845778111513491e+00
    3.6724192156807742e+00 -3.3762309466293496e+00
    3.3267386735390043e+00 -2.9925787072243653e+00
    3.2279552463938037e+00 -2.8808334824722657e+00
    3.0335340139324298e+00 -2.6571976946545330e+00
    2.7859747709472913e+00 -2.3627367634516383e+00
    2.4967468184869368e+00 -1.9956592775068529e+00
    2.3131437905560310e+00 -1.7376558383937937e+00
    2.2574645878308308e+00 -1.6522173379496796e+00
    2.2719096993475794e+00 -1.6748364883454019e+00
    2.4008086399963906e+00 -1.8644604407216849e+00
    2.6253371167919775e+00 -2.1630206879290452e+00
    2.9170572659523066e+00 -2.5202752002940265e+00
    3.1604596247470140e+00 -2.8038009218371172e+00
    3.2905840711429275e+00 -2.9518087336334862e+00
    3.7382441894301102e+00 -3.4482412811452612e+00
    3.7456947052759269e+00 -3.4563741778869166e+00
    2.7895648295663427e+00 -2.3671084838507319e+00
    2.4076544613193094e+00 -1.8740510748174806e+00
    2.1696912930634520e+00 -1.5054286666345811e+00
    2.0530130869280581e+00 -1.2582729857598640e+00
    2.0180745810268927e+00 -1.1437824338274716e+00
    2.0058099345072846e+00 -1.0791832298323698e+00
    2.0013210915193511e+00 -1.0370133701348401e+00
    2.0001644048902865e+00 -1.0129045129829617e+00
    2.0002627937493496e+00 -1.0163428438948514e+00
    2.0035150500850296e+00 -1.0610714271170283e+00
    2.0125582779182540e+00 -1.1185186396009335e+00
    2.0468548913084783e+00 -1.2411514372545231e+00
    2.1604252671375423e+00 -1.4886968238645284e+00
    2.3945894912994334e+00 -1.8557130837603892e+00
    2.7791964115043828e+00 -2.3544728988754540e+00
    3.2989938653714028e+00 -2.9613048953614647e+00
    2.3925353031010652e+00 -1.8528164266969240e+00
    2.0917948054107951e+00 -1.3523307184298738e+00
    2.0066429414598450e+00 -1.0848933631172819e+00
    2.0000070600843918e+00 -9.9734644576558551e-01
    2.0011654836098183e+00 -9.6643858860367649e-01
    2.0030278109042787e+00 -9.4646753578077214e-01
    2.0045522054985905e+00 -9.3476768740486571e-01
    2.0047301876009533e+00 -9.3354808086298846e-01
    2.0034326659115429e+00 -9.4310224155824340e-01
    2.0022130002852596e+00 -9.5405095182125377e-01
    2.0008079366293421e+00 -9.7197687173867031e-01
    2.0000371079806616e+00 -1.0061102142658420e+00
    2.0079569511832487e+00 -1.0932688975375522e+00
    2.0944466701963393e+00 -1.3581521269044825e+00
    2.3878071915216328e+00 -1.8461349933265936e+00
    3.1307746472515632e+00 -2.7697284185686915e+00
    2.1657709444690232e+00 -1.4983863097505881e+00
    2.0068310171412156e+00 -1.0861360189656204e+00
    2.0004053849422214e+00 -9.8006749874323018e-01
    2.0010196469638681e+00 -9.6857384245972833e-01
    2.0000223014299481e+00 -9.9528869856737301e-01
    2.0005032273350358e+00 -1.0226857538220613e+00
    2.0016127342391661e+00 -1.0409733245236168e+00
    2.0023440312466052e+00 -1.0496013958302244e+00
    2.0024396159404496e+00 -1.0506273364647121e+00
    2.0015425627600645e+00 -1.0400543265144369e+00
    2.0001487272341718e+00 -1.0122699679120508e+00
    2.0005425103799586e+00 -9.7697782351200413e-01
    2.0002020573327881e+00 -9.8588598242729986e-01
    2.0089073965104980e+00 -1.0989377283272488e+00
    2.1760890242886028e+00 -1.5168111857645012e+00
    2.8454778271936663e+00 -2.4347596724069955e+00
    2.0480700474533018e+00 -1.2445973274388726e+00
    2.0000216487300349e+00 -1.0046636565350049e+00
    2.0006608445284684e+00 -9.7462140230350691e-01
    2.0015062594546742e+00 -1.0395709949321696e+00
    2.0097821896935502e+00 -1.1039169121993733e+00
    2.0150187561711057e+00 -1.1302902680087710e+00
    2.0154382179327941e+00 -1.1322092795664462e+00
    2.0159828996507128e+00 -1.1346672680426613e+00
    2.0200979426139405e+00 -1.1521718914791537e+00
    2.0220002156233905e+00 -1.1597321420049362e+00
    2.0119797787380440e+00 -1.1156058440138499e+00
    2.0013143424696689e+00 -1.0369169884392946e+00
    2.0011559838657225e+00 -9.6657331666023427e-01
    2.0000131895384801e+00 -1.0036383411771157e+00
    2.0624444906720876e+00 -1.2830541719774280e+00
    2.6243858106710913e+00 -2.1618105963077503e+00
    2.0167508803229302e+00 -1.1380713472704729e+00
    2.0005855168924493e+00 -9.7609353118672038e-01
    2.0000036652677902e+00 -9.9808734284582767e-01
    2.0084748773301202e+00 -1.0963940077014580e+00
    2.0245501128197314e+00 -1.1694399056274838e+00
    2.0247448549166571e+00 -1.1701632126071100e+00
    2.0148917782359375e+00 -1.1297047108884024e+00
    2.0138515586138506e+00 -1.1248220262058775e+00
    2.0221698924089799e+00 -1.1603925764225620e+00
    2.0307063006155315e+00 -1.1912565892733080e+00
    2.0274694781609970e+00 -1.1800420486570973e+00
    2.0069046616659603e+00 -1.0866183109819616e+00
    2.0004157340038229e+00 -9.7981725120656005e-01
    2.0008119027493279e+00 -9.7190915250450327e-01
    2.0247673773878856e+00 -1.1702467088524147e+00
    2.4534454625217212e+00 -1.9372497605793140e+00
    2.0060400909126512e+00 -1.0807967231123519e+00
    2.0021156069512642e+00 -9.5504991394071337e-01
    2.0001961620803619e+00 -1.0141042118496661e+00
    2.0124057857749067e+00 -1.1177567438074467e+00
    2.0212104990770055e+00 -1.1566291188023303e+00
    2.0136140604537593e+00 -1.1236847274760522e+00
    2.0031651593094839e+00 -1.0578645827094255e+00
    2.0003050064096439e+00 -1.0176176017408001e+00
    2.0052475763305004e+00 -1.0751114463895082e+00
    2.0167631239867383e+00 -1.1381250572761268e+00
    2.0197229400437480e+00 -1.1506456617293963e+00
    2.0083631049589687e+00 -1.0957271167636558e+00
    2.0000002263103496e+00 -1.0004758340420967e+00
    2.0024281361041210e+00 -9.5192299314639361e-01
    2.0105343510140141e+00 -1.1080392249749218e+00
    2.3349106161239015e+00 -1.7699101995866391e+00
    2.0023440312466052e+00 -1.0496013958302244e+00
    2.0030534909122224e+00 -9.4624725681963473e-01
    2.0005264066924457e+00 -1.0232082674874945e+00
    2.0101807442243285e+00 -1.1061183687891694e+00
    2.0095240552178604e+00 -1.1024694077028030e+00
    2.0012478052862201e+00 -1.0359536994261116e+00
    2.0041403078460687e+00 -9.3769163744949680e-01
    2.0123743552037290e+00 -8.9477516581495731e-01
    2.0034353961894196e+00 -9.4308028106288511e-01
    2.0017363962488686e+00 -1.0425473297954744e+00
    2.0080996200942645e+00 -1.0941387719441498e+00
    2.0081714385919440e+00 -1.0945740151916825e+00
    2.0003924022322446e+00 -1.0200063179033267e+00
    2.0037025973707316e+00 -9.4097417098083191e-01
    2.0046534872800374e+00 -1.0705828863379740e+00
    2.3224531179857810e+00 -1.7515206562956407e+00
    2.0023350280902390e+00 -1.0495037445485917e+00
    2.0043591747401321e+00 -9.3611957419086622e-01
    2.0004358538669140e+00 -1.0210961777955943e+00
    2.0073308944555124e+00 -1.0893645134939169e+00
    2.0054043133231576e+00 -1.0762658363804529e+00
    2.0002293149341384e+00 -9.8497107531246542e-01
    2.0140129274647620e+00 -8.8842308378900414e-01
    2.0206264203495166e+00 -8.6632438194970107e-01
    2.0120726376318783e+00 -8.9599507756191743e-01
    2.0000743256069655e+00 -9.9141585269194377e-01
    2.0068194257061500e+00 -1.0860598903960812e+00
    2.0079027422886000e+00 -1.0929365138509346e+00
    2.0003914829879377e+00 -1.0199826387411375e+00
    2.0045648041543132e+00 -9.3468052700290338e-01
    2.0021284654930449e+00 -1.0472118013106801e+00
    2.3730822479486493e+00 -1.8251958341912411e+00
    2.0030663718611548e+00 -1.0569292374166952e+00
    2.0063714177589933e+00 -9.2330100133131554e-01
    2.0000101813491735e+00 -1.0031959173838227e+00
    2.0067924178867402e+00 -1.0858822812339517e+00
    2.0080449178302935e+00 -1.0938060766080056e+00
    2.0021499833869103e+00 -1.0474553646334328e+00
    2.0017675394088275e+00 -9.5883236713900588e-01
    2.0081460540290519e+00 -9.1372567742355704e-01
    2.0022880472026259e+00 -9.5329680850339782e-01
    2.0021694424703873e+00 -1.0476746245463773e+00
    2.0127808269085521e+00 -1.1196232015179313e+00
    2.0113150499599413e+00 -1.1121800932405979e+00
    2.0003148140677744e+00 -1.0179011057674814e+00
    2.0058099345072846e+00 -9.2662670467491481e-01
    2.0007934774210030e+00 -1.0285682637421241e+00
    2.5427932843106267e+00 -2.0565395728907343e+00
    2.0070374475231811e+00 -1.0874819832272149e+00
    2.0035677360289701e+00 -9.4202670765638952e-01
    2.0000147501833929e+00 -9.9616677126092135e-01
    2.0096988333214267e+00 -1.1034513951569673e+00
    2.0214186836713397e+00 -1.1574518839762944e+00
    2.0193120571183671e+00 -1.1489589215869407e+00
    2.0056965544952572e+00 -1.0783775244207372e+00
    2.0005200332319717e+00 -1.0230657360874764e+00
    2.0041193325860100e+00 -1.0662747331484470e+00
    2.0172318240405120e+00 -1.1401684033704875e+00
    2.0269564565636484e+00 -1.1782147427565017e+00
    2.0145824656177682e+00 -1.1282690311590002e+00
    2.0003778237918954e+00 -1.0196275198605089e+00
    2.0028337307681596e+00 -9.4816521493382466e-01
    2.0042551117838450e+00 -1.0673934602978095e+00
    2.7259325997695982e+00 -2.2890748975242228e+00
    2.0190952006553657e+00 -1.1480624274307152e+00
    2.0013619498721580e+00 -9.6377008766657979e-01
    2.0002237254189730e+00 -9.8515399079404264e-01
    2.0096434648510657e+00 -1.1031411809321698e+00
    2.0288925329295759e+00 -1.1850370855153671e+00
    2.0324663276401003e+00 -1.1971470749703783e+00
    2.0196763239680213e+00 -1.1504550649482170e+00
    2.0124582611154054e+00 -1.1180193948158683e+00
    2.0140073469784463e+00 -1.1255633564374756e+00
    2.0242001371033922e+00 -1.1681338750243582e+00
    2.0280678062564084e+00 -1.1821551590520762e+00
    2.0104717836062291e+00 -1.1077014868543458e+00
    2.0000606179733724e+00 -1.0078161224963464e+00
    2.0007169110612586e+00 -9.7358086132155397e-01
    2.0136801260913377e+00 -1.1240019704806636e+00
    2.9125631399078462e+00 -2.5149392157429018e+00
    2.0550521166592284e+00 -1.2637670381497836e+00
    2.0000042177859387e+00 -9.9794838291659227e-01
    2.0009170297013630e+00 -9.7017254553762911e-01
    2.0022195714839688e+00 -1.0482351834417607e+00
    2.0133079319643232e+00 -1.1222057172783446e+00
    2.0212174214079983e+00 -1.1566565321557403e+00
    2.0195434523693288e+00 -1.1499107250463547e+00
    2.0142596040214995e+00 -1.1267560453614958e+00
    2.0135152709209692e+00 -1.1232090697925095e+00
    2.0150303272460013e+00 -1.1303435191858813e+00
    2.0105391717924959e+00 -1.1080652099666040e+00
    2.0020772661758017e+00 -1.0466275016250015e+00
    2.0004505165631854e+00 -9.7899868756282460e-01
    2.0000916377405833e+00 -1.0096186888658591e+00
    2.0468866491610407e+00 -1.2412419440169806e+00
    3.1452793179066174e+00 -2.7863923095838969e+00
    2.1559979899639359e+00 -1.4805928761850149e+00
    2.0068464879341787e+00 -1.0862375333949239e+00
    2.0001608530657653e+00 -9.8739738532849164e-01
    2.0002141097956079e+00 -9.8547417218937294e-01
    2.0006885920376059e+00 -1.0265875918742129e+00
    2.0023893082641155e+00 -1.0500898017707634e+00
    2.0027427723512905e+00 -1.0537608226235884e+00
    2.0024189718341279e+00 -1.0504073993922483e+00
    2.0016314607640893e+00 -1.0412153118173191e+00
    2.0007131848619775e+00 -1.0270644942605844e+00
    2.0000128545765214e+00 -1.0035917610009957e+00
    2.0004214339773236e+00 -9.7968077838736289e-01
    2.0002538401860885e+00 -9.8419405171353791e-01
    2.0073951434590667e+00 -1.0897720481773256e+00
    2.1550661562168911e+00 -1.4788777359997167e+00
    3.2879614940518223e+00 -2.9488457578955694e+00
    2.3680619296195746e+00 -1.8180099278901058e+00
    2.0861158514733238e+00 -1.3396550201965840e+00
    2.0077042194540340e+00 -1.0917102806810217e+00
    2.0001808682803599e+00 -1.0135394660270336e+00
    2.0002680883678776e+00 -9.8376009121830044e-01
    2.0013499683811240e+00 -9.6392686879968037e-01
    2.0027087449474723e+00 -9.4929114867545550e-01
    2.0033674673339226e+00 -9.4362942897743907e-01
    2.0035928304175470e+00 -9.4182927816564466e-01
    2.0021177473232261e+00 -9.5502770447531649e-01
    2.0009698258966369e+00 -9.6933911006567830e-01
    2.0000048090777978e+00 -1.0021953668230301e+00
    2.0077288943033689e+00 -1.0918634713233033e+00
    2.0922154364598562e+00 -1.3532581018211369e+00
    2.3710006830448691e+00 -1.8222193217246967e+00
    3.6354710433834838e+00 -3.3356823016612998e+00
    2.7785049825824149e+00 -2.3536292250207320e+00
    2.3848826935742844e+00 -1.8419922420428823e+00
    2.1548499807763060e+00 -1.4784793631518860e+00
    2.0463904721832007e+00 -1.2398250843594363e+00
    2.0144801062450841e+00 -1.1277909743728642e+00
    2.0042005334230049e+00 -1.0669458104540337e+00
    2.0005296079969450e+00 -1.0232795409750806e+00
    2.0005888931132572e+00 -1.0245633528367228e+00
    2.0019643569768637e+00 -1.0453141269167006e+00
    2.0073228833640395e+00 -1.0893135842076478e+00
    2.0188015438482396e+00 -1.1468413713153078e+00
    2.0564276327935787e+00 -1.2674284736175589e+00
    2.1605801702264822e+00 -1.4889790475210525e+00
    2.3865576291571413e+00 -1.8443658512503498e+00
    2.7831857746234108e+00 -2.3593380831233555e+00</input_scale>
  <output_scale>
    5.2631578947368418e-01 4.9999999999999994e-01 5.2631578947368418e-01
    4.9999999999999994e-01</output_scale>
  <inv_output_scale>
    1.8999999999999999e+00 -9.4999999999999996e-01
    1.8999999999999999e+00 -9.4999999999999996e-01</inv_output_scale>
  <weights>
    <_>
      -3.8296294244106571e-01 2.4561966810877991e-01
      2.1002277099936756e-01 -1.3046780689851422e-02
      -3.8764861860699537e-02 3.6514760301572236e-01
      1.8754765872774523e-01 2.2663088722859600e-02
      3.1518936766204370e-03 1.0894049155067949e-01
      2.5308211358961308e-01 4.9173510971584933e-01
      2.3267736807386800e-02 1.0164305152313202e-01
      1.0982134603332125e-01 1.7624353331044251e-01
      -1.2820805666552174e-02 -2.9693964652300037e-01
      1.9132305314738959e-01 -1.0920266649705435e-01
      -5.6277078743019804e-01 -6.0110726294610702e-03
      -1.7981143930854473e-01 -1.2240104941729733e-01
      -5.8811882669463245e-01 -1.2999691437469016e-01
      -4.4103891349802693e-02 -6.1825767834592295e-02
      -1.2383400297508840e-01 -6.8624173208152714e-02
      4.7289023488988439e-02 1.3133285835638325e-01
      -5.8356358532719987e-01 -1.4186760824710162e-01
      7.2165341724091475e-02 8.1489909341264030e-03
      3.1138052668105171e-02 -3.2727313901714107e-02
      -3.0950055181051872e-01 -1.6300180237147723e-02
      4.2180778631113386e-02 1.1417387898324687e-01
      -1.8386390519690199e-01 -1.9163187215924762e-01
      4.1098495503689478e-02 8.8088913139938683e-03
      3.7938271600619668e-02 3.1462535157263133e-02
      3.1661280491429043e-02 -3.6153631467589591e-02
      6.0080967431812390e-02 -2.0556650170319581e-02
      -1.0957012238796791e-01 -1.7438076235476895e-02
      1.6759663579780093e-01 3.8444765133200670e-01
      -2.0268590005571976e-01 2.7039740169488102e-01
      4.6199463827139735e-02 4.1829675007420644e-02
      5.6611240161388458e-02 5.4819661924544391e-02
      2.2457938009950097e-02 -8.8792344102555834e-02
      -1.6433739877084036e-01 -2.4869208565426487e-01
      4.5006211542119610e-02 1.4819260958017113e-03
      4.1828156671901436e-02 -2.4101228597931598e-01
      -3.4739893963090845e-01 -2.1473553044010198e-02
      3.1487876205106090e-02 7.4037301047855678e-02
      -2.7327405667177279e-01 -3.4230334674825819e-01
      4.1499392581279930e-02 -1.9720215402412949e-02
      -1.3696334414968311e-01 9.0970493492066526e-02
      3.0519516722744916e-02 7.5118122074279398e-02
      1.1064194076396856e-01 -6.3720862132905509e-02
      -1.2849745190436901e-01 2.5370503567831607e-02
      1.5142243609048317e-01 2.0797660987759300e-01
      -2.7063584242073796e-01 2.2991284761051317e-01
      4.5539121857060411e-02 4.8265958500346880e-02
      1.3141602754325055e-01 4.4287311472867207e-02
      2.9048969014968198e-02 -1.2033539068574144e-01
      6.5647855867660587e-01 -3.4277372351066021e-01
      1.9315972905806769e-01 -7.3016770078349188e-03
      -6.3337818071391758e-02 -1.1124861514285429e-01
      -6.0940609811823240e-02 4.1035496967888836e-02
      -7.7068466813187426e-03 1.4037248296198776e-01
      -3.8795924981681784e-01 -1.5925246835675613e-01
      5.2929590207627629e-02 1.4112513538781840e-01
      -8.7336951813821187e-02 -1.3992043457517528e-01
      -4.7996755816253754e-02 1.9058525755063563e-01
      2.5752399223379074e-02 -1.2531860404043127e-01
      -3.5085224550681582e-01 4.7393949458057985e-02
      -2.2925872524306135e-01 -3.5495045008708903e-01
      -2.6708448455904304e-01 -1.0240509815028701e-01
      -5.3522040092694893e-02 -7.3275821211310183e-02
      8.3455031726815079e-02 -9.0993837942631481e-02
      3.2780578043065410e-02 -1.2113176510724556e-01
      9.1637200601659718e-01 -3.1651228435504741e-01
      2.1424136078438621e-01 -2.2136438391697519e-03
      -1.3295606945938715e-01 -6.6538650350198569e-02
      -7.2081116988996816e-02 7.5973654828670537e-02
      -1.8815004644267580e-02 1.5597081072626606e-01
      -4.1398386252825409e-01 2.1841249135067861e-01
      5.1034930303223196e-02 2.0565795102920964e-01
      2.3181642137829954e-03 -2.6336730356640659e-01
      -9.1187983254000307e-02 3.2320648124514362e-01
      3.3655739411257928e-02 -1.4685099804283480e-01
      -3.2341354717900678e-01 5.3872966278207951e-02
      -4.0269264671959637e-01 -1.7154488851575941e-01
      -1.6969976139425233e-01 -1.7625704450654206e-01
      -9.5791837728268769e-02 -1.5336854023554805e-01
      2.3797980407605637e-02 -1.8524369564465934e-01
      2.7232545732649917e-02 -2.5845072071758646e-01
      5.7084033740970774e-01 -1.0787958058605208e-01
      5.3791034626592536e-02 1.5315340819439350e-02
      -1.6149054721949679e-01 1.5626942718336981e-02
      6.7896130517110295e-03 9.6356449806148298e-02
      7.2899306407743112e-04 2.9618415123407429e-02
      -4.4227912418976001e-01 9.6977418134217716e-02
      -1.7905159290214429e-02 9.2338403313899586e-02
      -7.7221244488115362e-02 -1.7748014470642084e-01
      -1.0387413608333296e-01 1.9824697633103358e-01
      5.7560896093195847e-02 -1.1803928409345439e-01
      -1.9832799850687638e-01 3.4406046732757658e-03
      -3.4436460740115493e-01 -3.7026991236454515e-01
      -3.9234758898785360e-01 -2.4124116049308522e-01
      -1.1850578498125067e-01 -1.6461537666872261e-01
      -3.9332464291133767e-02 -2.2287147597157564e-01
      6.9278360190880642e-04 -2.0803361509835297e-01
      2.7371929221705116e-01 1.7601870418496639e-02
      -5.4026407440551108e-02 1.8293992852761738e-02
      -9.6445609177985128e-02 -9.3435541549690221e-02
      7.8682800645207288e-02 6.6690123337905693e-02
      2.0335616640719100e-02 1.2482132510649585e-02
      -2.5500933988692204e-01 -4.1635898940739137e-02
      -4.9927484263833810e-02 -1.1483198374451077e-01
      -1.0277900474544936e-01 -2.4423044110618630e-02
      -8.2839593033851217e-02 -3.8070463408590355e-02
      1.5399126771759761e-01 -1.0526402685204485e-01
      -1.3752900230816401e-01 -1.1670725657063256e-02
      -1.8708203960858497e-01 -4.3757049325516695e-01
      -2.3514934696029607e-01 -1.8326491405332024e-01
      -1.0601607146942393e-01 -1.2216007805820359e-01
      -7.0683939521689235e-02 -1.7464630098988321e-01
      -1.8592465449758015e-05 -9.6886354407282188e-02
      4.5929974075327284e-01 5.7717704311095609e-02
      -3.2560971944164525e-02 2.0053514036911121e-02
      -1.0071126040679283e-01 -4.1251747067738098e-02
      1.6823127865201373e-01 6.4914618677436794e-02
      1.2153877589605970e-02 -3.8376976685735469e-02
      -4.8850587299046477e-01 -4.7732545366889534e-02
      -1.2212505013379801e-02 6.4794455407174156e-02
      1.3205825149490252e-01 -4.1238101426058861e-02
      -7.7544986919267506e-02 -8.2346256661684145e-02
      3.0179116170225506e-01 -9.0908695158835859e-02
      -2.6629309150100844e-01 -1.5718233080027299e-02
      -1.5919477656600522e-01 -6.3357308587316996e-01
      -5.7525278146618630e-01 -1.7934011088108334e-01
      -1.2241530893498916e-01 -1.2096982335601572e-01
      -8.1613112814673983e-02 -1.4814353944813832e-01
      -4.7890637938507973e-03 -1.6957843966722599e-01
      -1.2653189441001914e-01 2.6437485981359665e-01
      -9.6801147723943784e-02 2.9940278036015417e-02
      -1.0264382672415159e-01 3.1024487120056937e-01
      2.0603377941893672e-01 5.9013221898947824e-02
      2.1506818232573190e-02 -2.0359820507643236e-01
      -3.0966548564642460e-01 -2.7074740136544734e-01
      -4.7558000795065392e-02 3.8383445708197142e-02
      2.4334956481053494e-01 -1.0466019957648866e-02
      -4.9344259869610760e-02 -3.6661837931645974e-01
      4.3121934280669733e-01 7.1872089591499978e-03
      -2.5031121721207467e-01 -7.7924534700643255e-02
      -2.3780674748295656e-03 -7.6157821722117591e-01
      -6.0688593199213237e-01 -1.8649878568536080e-01
      -8.8703285158206843e-02 -8.3965162773026888e-02
      -1.9976547904177658e-01 -1.2368132416200646e-01
      -5.6877530404486662e-02 -1.1768221185154959e-01
      2.1088426723565847e-02 2.1021953260401138e-01
      -8.8780796771641649e-02 2.3746763965877046e-02
      -7.1828847695580678e-02 -4.9496065231700893e-03
      1.1141661666636932e-01 3.5274039229708828e-02
      1.0996041270001660e-02 -2.0105629918055248e-01
      -7.1342821047892982e-02 -2.1725138635770638e-01
      -4.5173929045521720e-02 -1.8169513936583900e-01
      -1.1627344370938038e-01 1.0111941056024143e-02
      -3.3053370438987394e-02 -2.6571980113929838e-01
      3.1740295313207095e-01 4.1169529657692189e-02
      -6.1433740431163827e-02 -6.0427603717951736e-02
      -4.6743400916391195e-04 -4.7385146303963338e-01
      -8.7527309869287376e-02 -1.4260561273375902e-01
      -7.0756156266001846e-02 -5.9347194702718833e-02
      -1.6118345244861698e-01 -6.7479510948918214e-02
      -4.1551171372468561e-02 -4.2854510855829510e-02
      -2.4390232578016521e-01 2.0553338089160286e-01
      -4.4035517591006497e-02 1.3928348567088366e-02
      -4.4447196438506004e-02 3.3676056069782762e-01
      -4.3688528922673053e-02 8.7591819044992719e-03
      6.0882105799227341e-03 -1.1982391691666447e-01
      1.3598953627630256e-01 -2.7093285856641763e-02
      -3.2542096757283298e-02 6.5772741850289862e-02
      1.9167062986239003e-01 7.5799196537607036e-03
      -2.1391810548467002e-02 -2.7310908754952029e-01
      3.6115816549162194e-01 5.0678328025639763e-02
      -7.1831249544217265e-03 -6.8758795901803116e-02
      4.5329530516015654e-02 -1.8231537277711435e-01
      -1.1522077260792274e-01 -1.4406783286573194e-01
      -6.0883985785882805e-02 -3.3267358167901530e-02
      -1.3449453015543616e-01 -6.4931035602754147e-03
      -3.5273567938237924e-02 -8.1698726197896698e-02
      -4.8321688608075863e-01 5.6392227978091361e-02
      -1.4058140945786582e-01 8.9747992685203625e-03
      -2.9300027156396118e-02 1.0604824044562905e-01
      1.1453924923862394e-02 1.3695204938191012e-03
      7.7882575983214374e-03 -1.2469487241189595e-01
      -1.1274863235636501e-01 -2.3226707926529377e-01
      -7.6306152206873354e-02 -5.9026507563342233e-02
      1.1658328137067145e-03 2.8419785967818783e-02
      2.0728396388089150e-03 -1.5229204817561290e-01
      2.3873631371410556e-01 6.9025377382508690e-02
      -8.9494158328162432e-02 -8.2130293867581861e-02
      5.6621210612433213e-02 -2.6301931696437669e-01
      -1.9232031460769147e-01 -8.1397717832753749e-02
      2.2535610411514046e-03 -1.9740936268891472e-02
      -1.1225181934399608e-01 -1.1105840834444406e-02
      -4.6093498356121247e-02 -7.4959215621227857e-02
      -1.0231044841031342e-01 -2.4667303547979405e-01
      -8.0464927072594811e-02 -3.7358795521988978e-03
      5.0684933696378248e-02 -1.4183911776387273e-01
      -1.1841102850407520e-01 -2.8105069578591876e-02
      -1.0580797542213962e-02 3.1015864346889372e-02
      -1.5366085320291656e-01 -2.6426487845942848e-01
      -2.5609453307367101e-02 -5.8412364906498940e-02
      -1.8890619797719072e-01 1.7679765276331166e-01
      2.7111203967834722e-02 1.9216520491005157e-01
      1.4454746442851421e-02 -6.7897611950521169e-03
      -1.0252535248462738e-01 5.6389857125524129e-03
      3.2227277689420165e-02 -3.5796305000680276e-02
      9.2089314513213200e-02 7.2912241832429378e-02
      2.8768149432399914e-02 3.4848407662549465e-02
      3.3948963458056994e-02 5.8010084075933097e-02
      1.6149484658723831e-02 -5.8674761951975817e-02
      4.3041205286187428e-01 -2.8747189319751237e-01
      1.5278014624591970e-02 -1.6434337586621198e-03
      7.9093393964492192e-02 -3.8284896517379319e-01
      -1.8911409050401770e-01 -3.0793325472436527e-02
      -2.7121461740515903e-03 1.0123387555103518e-01
      -2.3245311232030907e-01 -2.3220771019611414e-01
      2.5283920207990418e-02 7.5825690323757855e-02
      -8.3432100656769717e-02 3.0067514564819875e-01
      1.8020301971851144e-02 2.5600176047512180e-01
      -6.1008828425525130e-02 -4.3505169489596714e-02
      -1.4968518079123655e-01 5.9928645669523960e-02
      5.7827541681500283e-02 -7.5582257614979160e-03
      3.3065090231917581e-02 1.0447609011437889e-01
      2.5655417466765196e-02 3.5839109183086831e-02
      1.1221094471001285e-01 6.0212512563021285e-02
      3.3228462356096194e-02 -1.0154243693390590e-01
      2.3771238513650456e-01 -1.4616786406935520e-01
      3.4450827875986731e-02 -1.8964653835473679e-03
      2.4096162256617495e-02 -1.3680838319109340e-01
      -1.0541208707387896e-01 2.7103161677957260e-03
      -1.9617564125580058e-03 1.5912255298610353e-01
      1.9594132707605936e-02 -1.7896844788319993e-01
      1.3551510322348363e-02 1.1213071663336251e-01
      2.9805126355749580e-02 2.7236347965737007e-01
      2.2581773605148117e-03 1.3776216471202510e-01
      1.1133681157249910e-01 -4.2995545651356160e-02
      -1.8685850369851290e-01 3.0108659917063369e-02
      -8.3784144774085426e-02 -2.2363778807569307e-01
      -1.0767240306640158e-01 -1.6403675178740335e-02
      -1.4228624523766390e-03 -6.9841036837136180e-03
      6.2953751799722221e-02 4.5044535352220293e-03
      3.0812099169892783e-02 8.6544313326992597e-02
      -6.8813716169320208e-02 -5.4342441551223190e-02
      -3.1578841543839616e-02 2.3371377389040109e-03
      -2.1887509993655522e-02 4.4485808918033755e-02
      -1.2992904091823809e-02 1.2086974375036696e-02
      1.4478660647612124e-02 5.8664954170731198e-02
      1.7353700807609432e-01 -1.6257259988816825e-01
      -5.5956142649609505e-02 7.3053560456845745e-02
      2.2692902123153912e-02 2.5532081496036158e-02
      -2.7742516062977010e-03 2.2630993011114091e-02
      1.4391583778459949e-01 4.9501614091593841e-03
      -1.8631341948880606e-01 -4.7666642935094580e-02
      -8.0490919387463292e-02 -3.7666967088953646e-01
      -5.5535213614185910e-02 -9.4805229795563078e-02
      4.7495904529693692e-03 -1.3311846832880361e-02
      -5.2918172060077463e-02 -3.5503398612474944e-02
      4.3175009221814217e-03 1.5065795779899557e-01
      7.8797349478230216e-01 -2.7939280393607213e-01
      2.1761271696118276e-01 -1.0552177893385341e-02
      -1.5620018583856621e-01 2.9459960348481257e-01
      -1.2679818863820741e-01 7.8330392665470372e-02
      1.4417102839652847e-04 -2.3829948503555926e-02
      -6.4539197060320741e-01 3.6716961660919439e-01
      6.8723227381091143e-02 3.5780645623414348e-01
      1.2139309768898100e-01 -2.7840461028688973e-01
      -8.2757227440185099e-02 1.4339709761378461e-01
      3.2222733694065231e-01 -5.2384461485087561e-02
      -3.9874153577587762e-01 5.9691697650968163e-02
      -3.2552246149726194e-01 2.5557250734477993e-01
      -4.1466410853348179e-01 -1.7657968521841966e-01
      -9.6108968423374450e-02 -1.3465048414295444e-01
      1.3394823845163248e-01 -1.5062381775764935e-01
      1.7382877461534066e-02 -3.3480940033449208e-01
      3.5608062064915708e-01 -2.8995313245754362e-01
      2.2021863849937334e-01 1.1485950361891038e-02
      -1.2699267890305921e-01 3.0223845819193434e-01
      -3.4456803824529918e-02 7.7587073054390984e-02
      7.0267453144394259e-04 9.2335904105410441e-02
      -7.4202979467097718e-01 5.3382294657682516e-01
      7.3138131207540369e-02 4.2493434948856745e-01
      2.4269870543984609e-01 -4.4797308513242051e-01
      -6.7644642411702940e-02 3.2458579223313622e-01
      1.7850417807395863e-01 -1.0306855687866241e-01
      -4.8815318656160117e-01 4.7242688878722454e-02
      -3.7850849943911691e-01 -1.3241423790845513e-01
      -3.9689543490891582e-01 -2.2179481779785876e-01
      -4.4739586661147440e-02 -1.0044787574704091e-01
      1.2131442648136379e-01 -1.3436348516999450e-01
      2.2273003564054882e-02 -3.2561921571028807e-01
      1.1427530802975594e-01 -2.4286376459724990e-01
      2.4603581977053496e-01 1.2994887351966349e-02
      -9.9469291664410500e-02 4.6694201294196901e-02
      -8.4330570071540212e-02 4.9030831269548839e-02
      1.9300996828299694e-02 6.9132018081634994e-02
      -5.7495417043654673e-01 3.5094192123731560e-01
      7.4861939582407236e-02 3.3810422107532362e-01
      1.2946663886526774e-01 -4.1155632895395966e-01
      -6.7841590685597530e-02 2.7637995649659192e-01
      2.1490375152675464e-01 -1.4258415586077747e-01
      -3.4753266858279525e-01 5.4614481543358719e-02
      -2.8050730981883548e-01 -1.6202659759851379e-01
      -4.3136500991191440e-01 -6.4506189490920934e-02
      -2.3504030579003729e-02 -7.6151044807669710e-02
      7.6179621944414522e-02 -1.1724555958232216e-01
      2.8299918702403410e-02 -3.3436971424293405e-01
      -6.2368174897998074e-01 1.6563487663413781e-02
      6.1606960352627950e-02 1.9829347741432912e-02
      -1.5179457830646722e-02 1.2324083814644812e-01
      2.2251228645357019e-02 1.5252497189806305e-02
      4.9025504496109151e-02 6.0450739765532800e-02
      -3.6527715894723737e-03 -1.1926357962079710e-01
      1.9003656309013153e-02 -1.2346973304460140e-01
      3.9629841641466452e-03 -1.3901868148273355e-01
      -1.2238307917117445e-02 -1.5319616069963621e-01
      2.7666580143317471e-01 -8.3188590998942949e-02
      -1.0018931620854742e-01 3.2518364385838426e-03
      8.7117043176207873e-02 1.2237677679501700e-01
      -9.8938506827265349e-02 1.6174100097968830e-01
      1.0065356192230264e-02 1.2051568823304320e-03
      -1.1320861244724756e-02 -1.6421162607650530e-02
      1.6997851330703442e-02 -6.5693741284002224e-02
      -5.0230792366714472e-01 -8.8146874618519624e-02
      -4.1613909081549751e-02 2.8095717062479302e-02
      -1.3433254870777662e-02 5.9853070118779959e-02
      -5.2053924601667877e-02 -3.5109111516640748e-03
      4.5541134344497365e-02 -2.4859950374920212e-02
      -6.8744303787388703e-02 -4.5324543026300856e-01
      1.6806340136118873e-02 -1.3361024567743518e-01
      1.4201160601553861e-02 3.4301402355877759e-02
      -3.9675486023040343e-03 -2.2903332014689401e-01
      3.3306423592587020e-01 -4.9066972069922998e-02
      -2.1479120214366990e-01 -1.0944414662816426e-02
      1.3407403885493643e-01 -9.5768957443381222e-02
      -2.1963661491554085e-01 1.8086971064599403e-01
      8.5437439064334746e-03 3.2231967193950208e-03
      -3.2407150982485998e-02 -2.2674302750807531e-02
      -2.6717279913928576e-03 -5.1326284291277051e-02
      -6.1355361424116928e-01 4.3253581597958536e-02
      -1.1164858364311241e-01 2.6983458843240941e-02
      -3.9900019922158414e-02 1.4446028377485981e-01
      -8.5548241758712604e-02 8.1454398541479615e-03
      5.6278939130621340e-02 -1.2538326046165091e-01
      -1.4086739748033525e-01 -5.4321249141144534e-01
      -9.2599745016130487e-03 -1.1241474851177825e-01
      1.1923002240779917e-01 1.5855833635621982e-02
      -1.9662649146253461e-03 -3.2844365055698221e-01
      4.3188245367864364e-01 -1.6026636444100743e-02
      -1.8330737640320027e-01 -4.1419940780507161e-02
      1.7619241788219653e-01 -3.4749617751760803e-01
      -3.6626934678141365e-01 1.6207669368569633e-01
      3.5670860943002774e-03 1.3339021816223026e-03
      -9.4746478558679667e-02 -4.0051079316730791e-02
      -2.6189508571032125e-02 -6.0951824308301462e-02
      -1.5178079452438020e-02 -1.8922324199544857e-01
      -3.1325920533860033e-02 2.5390998523952053e-02
      -2.0961042320880811e-02 1.2717396421799901e-02
      -1.3079270299287638e-01 3.6230098718623804e-03
      3.9086259485631311e-02 -7.6263849951906104e-02
      -1.6466520859941286e-01 -5.9062773298945037e-01
      2.8296094921290482e-02 -3.6344720147422731e-02
      -1.3595148986074302e-02 1.4745333085886753e-01
      8.5807434195292681e-04 -1.0512531568467033e-01
      2.2868588669723350e-01 -7.5609370534946124e-02
      -2.8063524185149685e-01 3.5326877718040140e-03
      1.3873103915184418e-01 -2.1760274709310889e-01
      -1.2955193642650670e-01 1.6954710291577788e-01
      -2.0887547557115096e-02 -3.8381029755132716e-03
      1.4890277615903528e-02 -3.3940955229237880e-02
      -4.0995426805521687e-03 -1.2200696738644760e-01
      2.0469632941274385e-01 -2.8631314637469629e-01
      4.7440847242909900e-03 2.3719719095013921e-02
      -1.0451154007387905e-02 -3.6234104171923291e-02
      -1.0594725788078012e-01 1.3914524631100921e-02
      1.6637974076814919e-02 -2.7081234545588202e-02
      -1.7052762573076075e-01 -5.0927893356212406e-01
      3.6513606737069638e-02 1.1951337999605406e-01
      3.6621349014629074e-03 1.0990193776354011e-01
      -9.4884000778847708e-03 4.1546496684848062e-02
      2.3657955110137718e-01 -8.3352604531613736e-02
      -2.7893646545407608e-01 1.8813651066963834e-02
      6.1603083966763415e-02 -2.8391043928731891e-01
      -7.3839312148821876e-02 1.5903006538416550e-01
      -4.2635407984457932e-02 -2.1556129724163618e-02
      4.3519722622669496e-02 -4.9425471847545442e-02
      2.2923886879214067e-03 -1.4895637956793401e-01
      1.3296304335762191e-02 -2.2021154513983107e-01
      -3.5326052996722972e-02 2.5712897935020882e-02
      7.7425062994935859e-03 -9.6314911189683463e-04
      -3.3933205299742267e-02 -1.5288065992186215e-03
      1.4886086405823881e-02 -9.8173085377403820e-03
      -6.9982738412569676e-02 -4.5647928398651971e-01
      9.2448763257710117e-03 1.5858857809586843e-01
      8.8487617534864074e-02 9.5600191293887499e-02
      -6.8425748985341713e-03 -9.1140198631767203e-03
      1.2000396236825854e-01 -7.7775229669286211e-02
      -2.0460410778077304e-01 1.8343080902628206e-02
      1.9165792828157280e-02 -2.7113729733299369e-01
      -9.3283937156869209e-02 1.0470320996799386e-01
      -1.6612330407379472e-02 -1.9896327666071908e-02
      1.7286935891300409e-03 -2.6376398596544195e-02
      -1.1561325985564915e-03 -1.5484758035370522e-01
      1.7122743311186364e-01 -1.8257747553242118e-01
      -6.7113247233233808e-02 1.8386169561839326e-02
      8.5749005293965144e-03 -6.5790035378668038e-02
      7.7921975080788755e-02 1.1618749550648762e-02
      7.4960490375752227e-03 -1.7951641618246048e-03
      -2.2366138284106097e-02 -4.1102824370785762e-01
      -1.9815608186179896e-02 -3.2424455554586541e-02
      -7.6955801449661659e-02 2.0846155998291627e-01
      -1.7729713474352277e-02 -5.5447195323473216e-03
      1.1607750798197369e-01 -6.6103324460568810e-02
      -1.4373860266580546e-01 5.0152837841111733e-03
      1.4673113773980433e-02 -3.1536940202166019e-01
      -1.2041673134853648e-02 6.3951471405136864e-02
      -3.1561338347013711e-02 -3.7245608450725193e-02
      -2.9377572249952310e-02 -3.2701341394864698e-02
      3.6881891060331763e-03 -6.1358106836004116e-02
      2.7682819588114282e-01 -8.4096324108894810e-02
      -6.0853448315855083e-02 1.4746293065925536e-02
      2.4948396617714426e-02 -1.0510644387989073e-02
      3.5423368405577561e-02 1.0288880613404466e-02
      -3.8118389368758262e-03 -2.9150743850518093e-02
      -1.5263122883212155e-01 -4.3021237722629968e-01
      -3.6079685668157541e-03 2.1643121637468288e-02
      8.0282877595615199e-02 3.2327008557257331e-01
      -1.4712997984202567e-02 -3.3456094668407543e-02
      7.8009409652442574e-02 -6.9857189495549560e-02
      -1.3563137463114033e-01 2.6726605919365591e-02
      -1.0933349873191481e-02 -4.4387812586849640e-01
      -1.5894775105606135e-01 7.6014975324707107e-02
      -3.6443128239084667e-02 -2.9706762819786573e-02
      -2.7152348700874327e-02 -1.3309577187057156e-02
      8.5651343009270856e-03 -1.0249282275673849e-01
      3.9156218707788659e-01 -1.2998756758463820e-01
      -8.2433079729487380e-02 2.8195072349838281e-02
      -9.7410141969281403e-04 -1.2165444135874766e-01
      3.4306965230719556e-02 2.1689913499681000e-02
      3.3035296736093835e-03 -6.3677152413360194e-02
      -2.8315315691068599e-01 -5.0993642347470813e-01
      -4.1275755566765576e-02 4.6720176211650644e-02
      1.0642058846373831e-01 3.4429602835489920e-01
      -1.6124256911859931e-02 -5.7847573725335930e-02
      1.6382260740603014e-01 -4.5724535363744954e-02
      -2.7608005727719431e-01 -2.5929942104880852e-03
      -1.3800487725237027e-02 -5.9477722058409233e-01
      -3.6384099298952455e-01 -8.1221697221446985e-03
      -4.7927432821248790e-02 -4.0524535726934069e-02
      -7.6557385453670843e-02 -2.9618751380056065e-02
      -9.0681289248061379e-03 -7.6968861797524935e-02
      1.3496517708120626e-01 6.9476533177853059e-02
      -1.2366711241627464e-01 3.4352408459905753e-02
      -3.3038570532081715e-02 1.1875336536166897e-01
      1.2332880272745301e-02 2.1922089218325929e-02
      3.7660911450156334e-02 -6.9245918099616457e-02
      -1.7887393932811368e-01 -3.0236262757702154e-01
      -7.3127032623493612e-02 -2.5727527236592468e-02
      2.0861205729952762e-02 1.0980504906828023e-01
      -3.5812618484304448e-02 -1.4441409303462771e-01
      1.7514316472107996e-01 -3.1376643821489351e-02
      -8.2626252092848601e-02 -4.0852825821984011e-02
      -1.2079874999509327e-02 -4.8476377096688206e-01
      -3.3598519095349100e-01 -5.3363729956303563e-02
      -3.2953552652601463e-02 -4.9106740717389276e-02
      -1.0970304978450166e-01 -4.7187465489354423e-02
      -3.1514178832250328e-02 -5.9488040563877805e-02
      -1.5747762575640197e-02 -5.4328921020447819e-02
      -4.6186432968538672e-02 1.4359722087412364e-02
      2.2698065733655917e-02 1.6969718947241469e-01
      -5.2739272834467839e-02 8.7517785562294583e-03
      1.6580104015548689e-02 6.6751313580404703e-02
      -1.7003342880118300e-01 -2.3709841022048067e-01
      -2.8570770782086152e-02 8.2016867279295649e-02
      1.9745666981788176e-01 1.6425989420362963e-01
      -7.4079153065439015e-03 -1.5016483272187342e-01
      2.2011821500698101e-01 -3.2533274633650661e-02
      -1.8284753829026987e-01 4.9342509014880121e-03
      6.5785366597471305e-03 -3.4836688705508262e-01
      -3.4201879954457870e-01 1.2291069944198874e-01
      -2.7012206620626613e-02 -1.9518295779369900e-02
      -3.3505739120680313e-02 -1.3694697176195788e-02
      4.8347025765306815e-03 -1.0031562096376438e-01
      -5.7077890535730813e-02 -3.9805831624146332e-02
      -6.2584245050622697e-02 2.9264199397617419e-02
      6.6360796901973025e-03 3.4839445187178027e-02
      1.6600024272985736e-02 -7.8431572667514806e-04
      3.6758969433504526e-02 -1.2840502744955188e-02
      -2.0149707289308957e-01 -1.9743657746917448e-01
      -3.4496351840015427e-02 1.3673211425576207e-01
      1.4579403582330694e-01 1.4762768176423882e-01
      -1.6058244658394207e-02 -3.2862928274491110e-02
      1.5075646282654748e-01 1.9322791850280331e-02
      -2.5678429816599296e-01 -2.3047115563089509e-02
      1.9469517709294153e-02 -1.4946356305819672e-01
      -2.5858853867348719e-01 1.3700900537840352e-01
      1.1292580332892562e-02 -1.0480939426717856e-03
      -2.5199213975116493e-02 -1.6076150627186848e-02
      -7.6684813733079466e-03 -7.6431466507236215e-02
      3.5921630409427707e-01 -3.7811879775697876e-01
      1.4950981591910056e-02 -2.2518820421665877e-03
      8.9855452809546515e-02 -2.7926483840578054e-01
      -1.8783777047817399e-01 -1.7198116547125299e-02
      1.2559473797428337e-02 1.1804359096948411e-01
      -2.9193039956372979e-01 -6.5288124373266065e-01
      8.3117749086812270e-02 1.1256191462401592e-01
      -1.1757687529722129e-01 3.3010830421268805e-01
      1.4531830197167642e-02 1.8543841944173889e-01
      4.1166121741525508e-02 -1.1057216442671879e-01
      -2.6807136297919348e-01 1.1657982244164529e-01
      4.1972334386052766e-02 -1.4292140084567576e-01
      -1.3982935924898934e-02 2.7542331397961989e-01
      -9.8018778830952242e-03 7.5610065063586298e-03
      1.9727715633019594e-01 3.2721924087776383e-02
      6.5980999314169855e-02 -1.5770879984023381e-01
      -1.8311473280498908e-01 -4.3472449209846775e-01
      1.4633553747518280e-01 -2.9352245251908211e-03
      4.9938513271049569e-02 -2.3673059651082617e-01
      -3.8918875944772913e-01 -2.6412508122808601e-02
      2.6181337740531430e-02 -3.4392690657458259e-03
      -3.9092913716393890e-01 -2.2514243331717165e-01
      1.1101419013791257e-01 2.5958160352315607e-01
      1.1656955394885796e-01 2.8497810352548120e-01
      3.0550018283461360e-02 2.0652064583894555e-01
      1.7894309004536291e-01 -4.7264297282923057e-02
      -3.1374734584763386e-01 5.9773461773073792e-02
      1.2764609315004008e-01 3.2701563324464517e-01
      -3.0307034258434895e-01 3.3646291928274158e-01
      4.4493830584965983e-02 5.5742567644551794e-02
      1.9283043726939816e-01 6.2472637788266838e-02
      4.6514141281021978e-02 -2.5628108022289270e-01
      -1.4085862343313695e+00 6.0817916656974690e-02
      -4.1344578257740544e-03 5.2150629926190966e-03
      9.9078364603732219e-03 2.7207780291760642e-01
      1.1436124979453450e-02 -2.1581589872926858e-02
      6.1656229914914172e-02 -3.5175122868898717e-03
      -2.2739836807449310e-01 -2.0034879738491485e-01
      -1.3074247171037003e-02 5.4505137014102416e-02
      3.6477123682749307e-01 -1.9812110560233623e-01
      4.7471722584200703e-02 -4.4099321678565334e-01
      3.0293147269160875e-01 1.0284093932849063e-02
      -5.7986367080977749e-02 -3.8056393479008480e-02
      2.3463967230975019e-01 4.2936329932647101e-02
      -4.2622936891106294e-01 2.4080069407619123e-01
      1.0112788221953292e-01 8.3656051410847573e-02
      -1.6045274255367611e-02 6.1295715239850689e-02
      -8.9084069094641193e-03 -7.3437373847417442e-02
      -1.0347717768364495e+00 -6.9358883668216686e-02
      1.7957494603218684e-02 2.1492826266168066e-02
      4.8650046485613453e-03 1.1576063740020903e-01
      8.0852519675180482e-03 -2.3295301970211825e-02
      7.0679002713489994e-02 -3.1232751872525065e-03
      -2.0281916133404942e-01 -2.2745392679275006e-01
      1.0324871231031081e-02 -6.6725961515584395e-02
      5.8485100992195810e-02 -1.2059787679866811e-01
      2.2977404938457117e-02 -2.5201689756031798e-01
      3.5653853888430204e-01 -3.8434777566061229e-02
      -2.0516496664609157e-01 -1.4497236043744210e-02
      1.5632747940838373e-01 3.8053928835393443e-02
      -1.9861130654292378e-01 1.7888175215844243e-01
      8.1264792789340706e-02 5.1268288120224534e-02
      -7.3766096340481049e-03 3.6224005643544152e-02
      -9.2376656540704687e-03 -7.3938074946330687e-02
      -6.5967217640535714e-01 -5.2460751482724298e-02
      1.4618086436675500e-02 2.4048084520386478e-02
      -1.1420200134825385e-02 1.9882169821996470e-01
      -4.8535137503939743e-02 -4.0122287642034528e-03
      6.0047422033927281e-02 -7.8625734880596515e-02
      -2.9432493113548108e-01 -2.4370981436029202e-01
      4.3178459161907219e-02 5.8845115171281187e-02
      2.6312753592590754e-01 -1.3585342698122679e-01
      6.3165742442003736e-03 -1.9404303240336748e-01
      2.7446834951078047e-01 -4.5645944002846987e-02
      -2.3107567616415242e-01 -5.0597708881892937e-03
      1.3911416404615848e-01 -2.8222634551553971e-01
      -3.6182808769775304e-01 1.4609841141652394e-01
      4.0737722013752455e-02 1.7645579427886752e-02
      7.4612740123345617e-03 -9.6990299791603028e-03
      -1.3308922370839561e-02 -1.4522642886347364e-01
      -8.5012174448127309e-01 -4.4788445623903925e-02
      8.5069705842551659e-03 1.6030372994363426e-02
      -1.5198801945902696e-02 2.3168439122618048e-01
      -7.6710281949724582e-02 -4.7375921184540691e-03
      4.8469357016958786e-02 -1.2140204454215330e-01
      -3.7789489049748665e-01 -2.5829265035712640e-01
      4.1846258630373515e-02 1.2537369416917249e-01
      1.5627221777208675e-01 -7.2654200603712638e-02
      1.4528147139279038e-02 -2.0683982807285473e-01
      2.8265532719512404e-01 -2.1536543381624078e-02
      -2.0703343424221204e-01 -1.0006327796502129e-02
      1.7332626092978123e-01 -2.1843927102350461e-01
      -3.4629148558798084e-01 2.0103328715837745e-01
      3.5202741072556519e-02 3.0602277162401142e-02
      -1.2136508711691604e-02 5.6375753672350650e-03
      -2.4612323788280450e-02 -2.2560527058228316e-01
      -5.3813840479020325e-01 -1.2659885310332322e-01
      6.0149551597828949e-02 1.6436640078536999e-02
      1.9046815702086804e-02 1.1741735530151248e-01
      -7.4158017804726986e-02 -1.2593788204443348e-02
      1.9278154205083418e-02 -2.7255335834050640e-02
      -2.1452754776094290e-01 -3.4794351461186607e-01
      6.3326889685775697e-02 1.1897628860512374e-01
      2.0571288363855861e-01 -7.6711676829382902e-02
      1.6677419548575975e-02 -5.9437164197231676e-03
      1.5907662046487123e-01 -1.0736526338923817e-01
      -2.3599113861961699e-01 1.9024088605335023e-02
      4.8869544349922876e-02 -2.8345433933696484e-01
      -2.3524108966908228e-01 1.2438744182489084e-01
      2.2705959717738994e-02 2.8258765371017014e-02
      6.1251194635889059e-02 -4.6658529917337323e-03
      8.2063007452580893e-03 -1.5132820957166937e-01
      -4.0678433660733621e-01 -1.3229093416799934e-01
      4.8619880179098608e-02 1.4974299496509635e-02
      1.8236577951307269e-02 9.5773669454134847e-02
      -8.2465147412005002e-02 -7.3314920153822443e-03
      3.7796068588814196e-03 2.4113321319846115e-02
      -5.5730623899405918e-02 -2.1535421702996327e-01
      5.2488368423253579e-02 2.2180760106310818e-01
      1.5661205188467886e-01 -1.0008542739895832e-01
      1.4242505357078558e-02 5.4962297849974556e-02
      1.3956310182912179e-01 -1.0443238813425049e-01
      -7.6505309474916267e-02 2.7994506175663934e-02
      -6.6731444702421800e-03 -1.0735735904847428e-01
      -1.1590896854325513e-03 1.0882208844970792e-01
      1.6266805323032946e-02 2.9462180501801504e-02
      1.0140838151963898e-01 4.4941748177202596e-03
      1.0518916347031454e-02 -1.4637973547905195e-01
      -5.3075939472782707e-01 -3.1269340576056535e-02
      -2.5506643691797479e-02 1.8389783015304164e-02
      9.0719800714482123e-03 1.9056632902555737e-01
      -1.5820098318864655e-02 -1.5109872680063941e-02
      1.4884689050618304e-02 2.6196399250961386e-02
      1.3618159661516872e-02 -1.2498703375335883e-01
      -9.2685577760831766e-04 1.1506375187416511e-01
      2.1674652450204560e-01 -6.6397859963207517e-02
      5.0045182647752056e-03 -2.8058612863521817e-02
      9.0888807345208919e-02 -6.9228230707427063e-02
      -4.1850452711073731e-02 -5.7559648979824346e-03
      -2.3557114743243200e-02 -1.1910440386445713e-01
      -4.1986684872685816e-02 6.5701642520079748e-02
      3.3279129197441221e-02 1.1865207987867030e-02
      3.3984957359887172e-02 6.1069226771497745e-03
      -5.0366750285724751e-03 -6.0880976302394141e-02
      -2.1020422577899250e-01 -1.8232550612512801e-02
      -5.7608436411664271e-02 1.4084997526276111e-02
      2.1588901180639775e-02 1.0926256836152444e-01
      2.4675786997103544e-02 -1.8413991521147706e-02
      1.5851291496189455e-03 4.2716235860129154e-02
      1.0696754984622156e-02 -1.8172677349224275e-01
      -2.0879647370153347e-02 6.2300516674549618e-02
      1.4321752344650840e-01 8.6416155074140882e-02
      9.8062751463351121e-03 -2.4151546439236646e-02
      6.3228496677605509e-02 -8.2606985023333274e-02
      2.2212247954744926e-02 -4.5017990214094141e-03
      -2.6908695410462938e-02 -1.7646318042156570e-01
      6.8348322065236125e-02 5.0343410565563337e-02
      2.1506652053917410e-02 9.6741297313732277e-03
      1.0188458622688956e-03 2.1194006472812062e-02
      -5.7024107333138599e-03 -5.3699192796953996e-02
      2.4113050564516331e-01 -1.0009640018012707e-01
      -2.8579882112021126e-02 1.8355174051307599e-02
      1.4490969841414320e-02 1.1691214661363290e-01
      -6.9796097202056984e-02 -2.3555637562024832e-03
      -3.7377130360974722e-04 -4.4600726751310750e-03
      -1.2736549477694376e-01 -2.2243856944912860e-01
      -9.5851536622543858e-03 3.0154434446435890e-01
      2.1906589510597460e-01 1.7828080990978190e-01
      4.9584450187261687e-03 8.4588253816306025e-02
      7.2128080725632038e-02 -6.9995603250060517e-02
      -5.2379208576177255e-02 1.6781684631837268e-02
      -3.7140592850041718e-02 -1.2724462309606760e-01
      -9.6437268658946473e-02 3.0968602921287648e-02
      -9.2924325795870830e-03 -1.2270656069868845e-02
      3.6062723953997886e-02 -1.0994449532484309e-04
      5.4779568186349797e-04 -1.2876559318374403e-01
      7.1045613156201715e-01 -2.1719530004927615e-01
      -2.1951528788578503e-02 5.5388308512480016e-03
      3.1439196293056297e-02 -2.3112883341678170e-01
      -7.6469153424655836e-02 -8.6399288381030590e-03
      -1.3178905290794435e-02 1.6533627573716281e-02
      -6.2269150000810722e-02 -3.9357419941903310e-01
      -1.4290280675474998e-02 1.4522809360913574e-01
      2.0521426239523848e-02 3.5696428151190329e-01
      1.9772392712881105e-03 2.3697311525676479e-01
      -3.7376980621017686e-02 -7.1020673784257998e-02
      -1.3716963787779807e-01 4.0573238788900089e-02
      -6.4434312613306774e-02 -2.6669412751460175e-01
      5.6917475594397025e-03 -9.5910770604874778e-03
      -2.5655305124552157e-02 -2.4777198155810129e-02
      8.1740845955628430e-02 1.2054120157240542e-02
      2.7155610497772657e-02 -8.8794128145144174e-02
      1.8775834502759059e-01 3.6516635145592065e-02
      -7.8665173518395082e-02 9.5132002763055820e-03
      -7.2310804776324125e-04 1.7195265221725706e-01
      -3.0605589197636524e-02 -3.8724245570836125e-03
      -2.7479387419638876e-03 -9.9053098199784764e-02
      -2.1123008947640559e-01 -3.7238163815087205e-01
      -4.7400158592407628e-02 2.0236850753538282e-01
      3.3860307168777004e-01 2.8142886314886717e-01
      6.0618502719052855e-04 -1.1840122975545122e-02
      1.0925588192036749e-01 -4.8305102864068875e-03
      -8.5309594412435602e-02 -1.0459689062399635e-02
      5.4656603075914037e-02 -3.6180684885477221e-01
      -2.2748368450798373e-01 5.7669323876722828e-02
      -1.2247982835020767e-02 -1.5828442400159848e-02
      -3.9008911387832627e-02 -9.0774497524470695e-03
      -1.2336835257669350e-02 -9.5621141525699324e-02
      1.2152689608323503e-01 -3.5423698142859367e-02
      -1.3224906626888253e-01 1.3248650846908808e-02
      -4.5369057094090870e-03 4.4243967463568012e-02
      2.0427974624783771e-03 -7.8774471945035444e-03
      4.0284135061521061e-03 -1.3107527052590034e-01
      -3.0596560779937537e-01 -3.1895006056177361e-01
      -8.1817840814577644e-02 1.8296233095290843e-01
      1.3856234774528997e-01 2.7888747063341968e-01
      -2.1411135203867416e-03 2.7760273425578483e-03
      1.0477971986119780e-01 1.2047526517090210e-02
      -8.4670082111011527e-02 -1.4219594892737199e-02
      7.4359740482689479e-02 -2.7551390471389692e-01
      -3.0304887440220157e-01 6.2123297842905198e-02
      -5.8905325874453992e-03 -2.2511664080398983e-02
      -6.1643581811844581e-02 -1.7132376682499433e-02
      -1.1222496933714705e-02 -1.0098491431556503e-01
      -2.4416572448714473e-02 6.7887770153622004e-02
      -1.6583535552260953e-01 2.7195844144331589e-02
      -2.2846680508274212e-02 9.9894073741991621e-02
      -2.6363854926362237e-03 6.0175205746787613e-03
      3.4169022039719145e-02 -1.3946017373737615e-01
      -3.5358389224132414e-01 -2.1344210153351029e-01
      -8.7106333665194588e-02 9.2974129750206913e-02
      1.9092272447801950e-01 1.3311126908849796e-01
      -1.1446933757430130e-02 -1.5356400199944931e-01
      9.4632381398506465e-02 2.9875759781202407e-03
      -8.2612269276728406e-02 -4.8475622748510680e-02
      9.0871454371595564e-02 -2.2845383200563812e-01
      -3.9982493372721489e-01 4.8038385174200421e-03
      -1.1074118600541976e-02 -2.1584724191885122e-02
      -7.9445406966161342e-02 -4.0531995693360190e-02
      -3.1689849267256355e-02 -7.7356751418178854e-02
      2.6763776539167128e-01 -1.7166972369181493e-01
      -7.5930425208304592e-02 9.4021279279075248e-03
      3.0978051668186336e-02 -3.9787084064782728e-02
      -1.3691557943975449e-01 6.0150070535021360e-03
      1.0201878220572719e-02 1.3271163715322408e-02
      -3.0507723465097641e-01 -3.5003689315214165e-01
      -2.0421970770525422e-03 9.7342718327978802e-03
      -1.5855911292079090e-02 2.1848613626291341e-01
      -3.3564915523044930e-03 3.4345723242266486e-02
      3.7683455729095365e-02 -6.8757430943142711e-02
      -1.1286421892823319e-01 3.4642597050486577e-02
      8.6141075690471386e-03 -3.0368697353485608e-01
      -1.7819075378082838e-01 1.2157369829661191e-01
      -6.6322311754301588e-03 -1.3164050943883036e-02
      2.8771673266622371e-02 -2.2294232102676038e-02
      1.1943634891975764e-02 -1.6659931006295245e-01
      -5.5763467003810263e-01 2.6495467445942827e-01
      -1.0829307533563858e-01 1.6976037941987505e-02
      -1.2467759520035114e-02 1.9963643265339417e-01
      2.7427326921466127e-01 6.2199975039547231e-03
      3.9393710303842429e-02 -4.0886845678780426e-02
      7.3658829574203818e-02 -4.1061605080453985e-02
      -6.4102245794683169e-02 -1.1600094119268856e-01
      1.2784919101159975e-01 -7.4912191878798121e-02
      -4.6844214697665063e-03 -2.7121025241668850e-01
      7.9855862903161517e-02 6.7354288061443210e-02
      9.1920867616011731e-02 -3.6164070656151709e-02
      1.0912659124487800e-01 -1.6345401550125191e-01
      2.8765205605993157e-02 6.2363869173483438e-02
      6.4549436258500570e-03 -1.4200771622618255e-02
      -1.0200450170590146e-01 -2.0293164303012961e-02
      -2.4830004943727786e-02 1.1903610199666259e-01
      -3.6424879061274534e-01 -1.0383982553851547e-01
      -1.8695338724591420e-02 -7.0460858073401761e-05
      3.4923507851946166e-02 -4.5494665935947302e-02
      -2.0795874658770605e-01 -1.5761762394947348e-02
      1.9396213229490665e-02 -9.4563456547685873e-02
      -2.6676282994508455e-01 -1.2297008828483499e-01
      3.5532967748259175e-02 1.2483670745485764e-01
      1.5677086088540942e-01 1.5596329919340740e-01
      1.6944185373060704e-02 -1.7030310542914612e-02
      1.1401893373448992e-01 8.5529838125429341e-03
      -1.3506948385566361e-01 2.1990704194702237e-02
      1.2860266412010674e-01 -1.4302079750989232e-03
      -2.7006147778662065e-01 8.9481415658552332e-02
      2.2338060166664023e-02 2.9312043631167968e-02
      6.9237589319931611e-02 4.5959049226552501e-02
      -7.1179349586936560e-03 -1.6053561912384076e-01
      -7.7129749779970136e-01 2.2221265007883604e-02
      4.2202336358610953e-02 -3.4352070857515378e-03
      2.3786514934163411e-02 1.4422567610971079e-01
      -2.5221898354820280e-02 -3.0184151290246711e-02
      2.8576252430017494e-02 -5.1665744022988146e-02
      -1.1805143280310029e-01 -3.8645673884752742e-02
      4.9902645019674396e-02 1.5031381103530647e-01
      1.8806863075073160e-01 -3.8787494530159949e-02
      3.6834113967683067e-02 -1.7783485739140217e-01
      2.5827088400110210e-01 -2.6220448235418522e-02
      -8.3947242299748329e-02 3.1940748650207851e-02
      1.4030550746591863e-01 -2.0401925901283920e-02
      -2.5004308529886915e-01 1.6683273759026349e-01
      5.8350600938264975e-02 4.7254085942344676e-02
      3.3198522011477861e-02 3.9730745930192296e-02
      -4.3099967452207531e-03 -1.2939481514102591e-01
      -4.8233144870569855e-01 -1.2358130991124702e-01
      7.0017157598452687e-02 3.4104142412289859e-02
      -9.0111261815095673e-03 1.3823924018653094e-01
      -6.9085474252879156e-02 8.0757594926400154e-04
      5.1306999474055835e-02 -6.2006626851410604e-02
      -1.3671372272600710e-01 -2.1703998028512802e-02
      5.8467277448817433e-02 1.6219211366176250e-01
      1.4309943742790374e-01 -9.5730687566566344e-02
      5.2548967049593854e-03 -7.9437385362885707e-02
      1.6111862413446215e-01 -4.8461329647907170e-02
      -2.7194272015470461e-01 2.0600711887512637e-02
      6.1436508341253249e-02 -1.0465960385941574e-01
      -2.3929202076160633e-01 6.3915336335189990e-02
      3.8822249872352978e-02 1.1471551667282613e-02
      4.7757826538785776e-02 5.0848613591820032e-05
      -1.2053964703540582e-02 -1.2279529086166451e-01
      -6.5571589442285350e-01 -1.3424373298674402e-01
      9.4818341978335982e-02 2.7074477885021871e-02
      -3.6622954555038160e-03 2.3876295147689816e-01
      -4.2218151788490955e-02 1.9107050714343434e-03
      5.3241959055639027e-02 -9.2693405738631982e-02
      -3.9485527546649030e-01 -2.0407724320143716e-01
      7.5676711120641282e-02 1.8264697234788921e-01
      3.4471293089554073e-01 -8.3060009042466576e-02
      6.2541690241576797e-03 -1.6120993537216360e-01
      3.2449061947825014e-01 -4.7109539097288829e-02
      -2.6039849062569798e-01 8.9262946907813345e-03
      5.1288278797360587e-02 -2.4698243740034836e-01
      -4.0814865369469178e-01 1.3901854391784199e-01
      4.9372906722675566e-02 2.7464171753783510e-02
      3.2958995220615371e-02 -3.3733054067475016e-03
      -4.6614478554478546e-04 -2.3888089405968044e-01
      -3.5029266401849291e-01 -2.2719912500983191e-01
      7.7990861966894282e-02 1.4805148284383712e-02
      1.0504256352107093e-02 2.8010896363445035e-02
      -1.1372449869378247e-01 -3.9151485015969526e-03
      2.9200649561358507e-02 -6.0545338978882278e-02
      -3.6731053695716037e-01 -2.8632753783655351e-01
      7.3775154830405559e-02 1.2667378311266589e-01
      3.0643516853597345e-02 -9.3029464265604656e-02
      6.9673259572164284e-03 1.6632123599082796e-02
      1.5343675632756237e-01 -7.9077646165364446e-02
      -2.0215659922256082e-01 2.3073125314280133e-02
      1.1185264681026614e-02 -1.8990649142530844e-01
      -3.5921463498395723e-01 8.9745528898046767e-02
      9.3133976341954593e-03 1.7346699363086096e-02
      7.6366234738976926e-02 -5.4266848207725491e-04
      9.1367441664478421e-03 -2.2311641424882281e-01
      -2.7788953704447777e-01 -9.1659316420389617e-02
      1.2846994913459223e-01 1.3269154874017424e-02
      3.0080840410813083e-02 1.1967714170125587e-01
      -9.4845049777842208e-02 -1.4332157149693311e-02
      1.3793422069096601e-02 3.2117395158828631e-02
      -2.4050085757509018e-01 2.4204731516393910e-02
      6.4906378968418013e-02 2.6822826155646390e-01
      2.2217702296482739e-01 -1.9320921140509795e-01
      2.1548961606697486e-02 1.0224697902772492e-02
      2.4013455900524294e-02 -7.9410942138546062e-02
      -7.1781475787553894e-02 2.8190551874950349e-02
      5.2074866036053095e-02 3.9350063072809388e-02
      -2.0957602908099762e-01 9.8660419793956428e-02
      2.3074365805966654e-02 2.8620923233925202e-02
      7.3918912860675506e-02 2.7948544973012513e-02
      6.8840762544318821e-03 -1.8811787054044424e-01
      -2.6416088410509614e-01 -8.4231674032365172e-02
      7.9868105659680513e-02 1.7181719223926847e-02
      3.2078456156094379e-02 3.5811515578294789e-02
      3.8603140956786578e-03 -1.0629511636238863e-02
      5.2814037928160468e-03 1.3998441542321508e-02
      -2.4777372065787107e-01 -1.3249738395821439e-01
      1.7947371691725857e-02 1.3721187505514609e-01
      1.5328441863257444e-01 -1.7462311519499527e-01
      2.5026690786740642e-02 -6.5844398637812288e-02
      6.7112152033590902e-02 -6.8951625691031332e-02
      -1.8926390300123497e-01 1.2262162153346067e-03
      1.4082891736335834e-02 -7.8356718428359798e-02
      -2.0810387255108775e-01 6.0051978188007296e-02
      2.2448202004898114e-02 2.5366940737276106e-02
      7.0857661145127565e-02 2.2385274041270876e-02
      5.9405680539312421e-05 -1.5004273940187576e-01
      -3.7451567344386616e-01 -2.7531610236407399e-02
      -4.5612196159968412e-03 1.0081450097511825e-02
      3.9781367782061428e-02 1.8200785000377134e-01
      -3.0957741482687665e-02 -1.4606170243851151e-02
      -6.6178390342577628e-03 2.5646383866460915e-02
      -7.3158845345353121e-02 -8.9186603714684325e-03
      1.9574760993958502e-03 7.0689298980857573e-02
      1.1781681634069270e-01 -8.4303749689821197e-02
      2.5378363328029754e-02 -2.4779719950925705e-02
      4.7434165782464606e-03 -6.9810877536503363e-02
      -1.3804546561367049e-02 7.7299157764306780e-03
      6.6422210190911308e-03 -3.6470021264426604e-02
      -1.6772324224799529e-01 5.9547719732333908e-02
      1.2115099557441680e-02 2.3701831977366847e-02
      6.5746161774673129e-02 4.1816422228493029e-02
      2.6409655148852728e-03 -3.7883042702501875e-02
      -2.3129263202300768e-01 -1.1281633676712274e-01
      -7.7918218354386615e-02 6.7826166953801250e-03
      3.5302793168153060e-02 -1.6488117840129995e-01
      -2.8778966799599934e-02 -2.2731294272124374e-02
      -1.3406455485897757e-02 -1.5715907181978780e-02
      1.1643003061219709e-01 -2.1871631716993323e-01
      -2.3773657432483913e-02 -7.4589903785681852e-02
      -1.5160977920258145e-01 9.2055704953967435e-02
      1.6943183150928007e-02 1.5346497647110172e-01
      -3.8680957560662803e-02 -3.3715832886716868e-02
      5.8609011215803281e-02 1.3072659318473821e-02
      -2.4949010079658360e-02 -1.0894629054742444e-01
      1.4575016305582611e-01 7.1997762937667893e-03
      2.9873530108226388e-02 2.1287754590909726e-02
      6.9707833046160864e-02 4.6115758065267479e-02
      -2.1550643543575563e-03 4.3167086702962910e-02
      -1.1377616956072158e-01 1.3953873656085641e-01
      -1.6392381010318108e-01 3.5228145528087931e-03
      2.0087584194783747e-02 -1.1506682742887764e-01
      1.2334897465794951e-01 -1.6224632555842011e-02
      -1.0066586666288187e-02 -3.3454024640397075e-02
      2.7479761317294149e-01 -1.9252500381861201e-01
      -9.3122329342880714e-02 -1.7856880680929046e-01
      -1.1296476372508722e-01 1.1612717322178287e-01
      1.9207626431447970e-02 1.9226598236561695e-02
      -1.3214713797850669e-01 3.6454549717458019e-02
      1.7655909917246262e-01 -3.4797662455323210e-02
      -2.3641114391567122e-03 -1.7439395416747697e-01
      2.9963191511927811e-01 -4.2357555065866477e-02
      2.3807916991419837e-02 2.0004160844223920e-02
      -3.7621957509618056e-03 4.8156305962362041e-02
      -1.6884309910969040e-02 1.6301668885366372e-01
      -7.5182142390749440e-02 1.7082003509624880e-01
      -1.8853604430640572e-01 -5.0981753201773386e-03
      2.1056149510828045e-03 -1.1353024176870730e-01
      2.0473525126629125e-01 -1.4673061111630912e-02
      -8.2423709039610507e-03 -8.4141154463798773e-02
      2.6936343825300152e-01 -1.0735549491189020e-01
      -1.1514115874710805e-01 -1.0502070160357893e-01
      -1.3313796033177935e-01 1.4562638635597680e-01
      2.5938974896443482e-02 -2.5433511654257012e-02
      -8.8257910637619244e-02 1.1076689294148404e-01
      9.4958871801313530e-02 -5.0848830434584318e-02
      5.6282660629070072e-02 -1.2684110127406256e-01
      2.4289503286376399e-01 -9.0194593877156143e-02
      9.0063076601663086e-03 1.4080172459272452e-02
      -5.6925059127042044e-02 3.4777903865499969e-02
      -1.7240841251916262e-02 2.3167926812347370e-01
      1.5587652295582732e-01 3.3221678584272711e-02
      -1.3959204771482034e-01 -4.3146295408885227e-03
      6.5035518489570659e-03 -5.9647247453362702e-02
      1.1310290777874231e-01 -1.3780986565563818e-02
      -1.3779397732531350e-02 -1.0428896511157081e-01
      1.3627988411665232e-01 -2.3870494437947404e-01
      -9.0244329318367539e-02 -3.2494623975718494e-03
      -5.5352525669639170e-02 1.9446518161843554e-01
      1.4324479622483444e-02 1.8861710896403369e-03
      -1.0420250503463030e-01 6.4650624138368737e-02
      -3.4990906371368384e-03 -3.8326316725768438e-02
      5.2369663352240151e-02 -2.3440439493367815e-01
      1.4325330525215124e-01 -2.5796372780556034e-02
      -8.0007341584359681e-03 -2.9760451373122927e-03
      -3.3861282183475921e-02 1.8597993924542897e-02
      -9.4168249984716065e-03 9.7947456557304510e-02
      5.0842685700260265e-02 -5.6481398721400254e-02
      -1.2515609217507959e-01 -1.9682395715151049e-03
      8.7963278337863809e-04 -5.5985293268787720e-02
      -7.7320768039036328e-02 -1.2653046007847384e-02
      -6.1375123763043734e-03 -1.2782074929692064e-01
      -1.6994627696281997e-01 -3.1901856052111843e-01
      -9.0765815659151428e-02 1.0032728208360585e-01
      1.3638077389057801e-01 2.3135050359632056e-01
      1.8285519084009442e-02 3.8265461549272586e-02
      -1.5603647359124017e-02 5.1653734133537757e-02
      -4.9154537363130101e-02 -2.5858748272983650e-02
      3.1849869621423395e-02 -1.9674840103832478e-01
      -1.5548858083459915e-01 -2.7405887990030928e-03
      7.8158927529150841e-03 -1.2055512031069443e-02
      -1.2506893415578528e-02 -9.9762421581106337e-03
      -5.0780612055662533e-03 -5.2094387564540365e-02
      -7.7464860811018416e-02 6.2573680860070549e-03
      -1.6694891783162008e-01 4.7234791194954422e-03
      -9.3630392973015793e-03 -2.2522163743823511e-03
      2.3208627506559582e-02 -7.5121207769058918e-03
      5.8012772536242775e-03 -1.2886689337682183e-01
      -9.2684436804110953e-02 -2.3147549514329799e-01
      -9.3315276801916508e-02 7.9286416970441559e-02
      6.4048735865640610e-02 1.7543714687440035e-01
      1.3502057729214345e-03 -6.1876799484884649e-02
      -4.9008011665708846e-02 3.6256821686963300e-02
      1.1366143857762193e-01 -2.0170590045145959e-02
      8.0564048424520002e-02 -1.8858390855486082e-01
      -8.7032044739967104e-02 3.0864888682127278e-02
      1.9997966273002043e-03 -2.2115918966658082e-02
      -5.0492315320232101e-02 -1.9385312069999945e-02
      -2.4017771914331625e-02 2.4418504915754927e-02
      9.2637531200604251e-02 -8.4719034756331878e-04
      -1.3870090044554856e-01 6.5119529631427848e-03
      -1.0159792623901041e-02 -1.1497464634627086e-01
      3.4416768977147140e-03 3.9526623607303935e-03
      4.4946372471733670e-03 -7.9712920018789948e-02
      -5.6857853373120333e-02 -7.3265528483848055e-02
      -6.6220448370917159e-02 -9.0681005260891651e-02
      -4.9200646628392589e-02 8.0562796310839901e-02
      -6.1039514186977039e-03 -4.9736314887070691e-02
      -1.1478434940808463e-02 -1.7404707781894069e-02
      4.3034371813910989e-02 -7.5120393505494765e-03
      -2.3496176758715627e-03 -1.6939733447572486e-01
      2.0555635353531953e-02 6.6584285009494287e-03
      1.3191039526471767e-03 -3.2162077325055737e-02
      -1.9502876639216838e-02 -4.8460784630749931e-02
      -1.3066374447702494e-02 2.2378712147219065e-02
      1.1411191866467267e-01 -7.6381686949576963e-02
      -7.1539486696348506e-02 -3.0129924604604609e-03
      1.0344380246090744e-02 -6.0601355926324487e-03
      3.2651119464979221e-02 -1.9652058925787373e-03
      -6.7090707158755942e-03 -1.7134019277448113e-02
      -1.1270855156783230e-01 -2.0834985350755839e-01
      -9.0619671604380749e-03 -1.5652275196667422e-02
      2.1648515112973780e-02 9.8328533464515325e-02
      1.9242634704391866e-03 -3.0049390347665156e-02
      1.2600740952284153e-01 -2.7949315182021459e-02
      -6.8680036225006721e-02 2.9181015964392449e-02
      1.1220826304623647e-02 -2.9963673393144202e-01
      -2.5330155008250255e-01 8.9822856108675631e-02
      -8.5421966497500855e-03 -1.3555917589469873e-02
      -2.3229125861901522e-02 -3.7655031486187991e-02
      5.2499582830867978e-03 -8.5647149696691210e-02
      -4.2054745320477382e-01 1.3178713512879103e-01
      -3.7173242186583084e-02 -2.7225362224252620e-03
      4.1106127794320159e-03 2.0079370921436834e-01
      1.0751973451989164e-01 -1.5982903618440999e-02
      -8.9429524318514770e-03 -8.6663914929592203e-02
      -1.6507436563966149e-01 6.2611885807781157e-03
      -6.9546173080972653e-03 7.9669879833539514e-02
      2.1530203706149320e-01 -9.1606724993132702e-02
      1.0590987394077114e-02 -2.7146867368316902e-01
      2.6353203861855184e-01 -1.9977181639922880e-04
      2.3137426784763025e-02 2.3094854390984226e-02
      5.5344570054265387e-02 -6.8606483779859589e-02
      -2.0570711338166353e-01 -3.6186592519911963e-03
      -1.6443685257149204e-02 3.7393450255261765e-03
      -4.7640128169072392e-02 2.1828243895155204e-02
      -7.7172520779052948e-04 1.1609354319791751e-02
      -1.5120005434382613e-01 -2.4064246165616218e-01
      4.6087823578385125e-02 2.2991086257615000e-02
      4.8834514321558940e-04 3.1795713749905481e-02
      -7.6087119874935633e-02 -3.3618228517765677e-03
      2.8554904133422227e-02 -7.4890055722568141e-02
      -2.7974122241732685e-01 -1.9014650981760398e-01
      2.7734238274709416e-02 1.2902821670541703e-01
      8.5614485146748340e-02 2.1780554210651594e-02
      -5.9700173654778019e-03 3.1854983531060137e-02
      2.4522774926728819e-01 -5.5180251368966662e-02
      -3.4076718657316074e-01 2.1496497988120453e-02
      -2.2074683539776218e-02 -1.8283870631992352e-01
      -3.0995863325323192e-01 -1.0536255459634884e-02
      1.6158769461831732e-02 8.3555451805651260e-03
      6.0944491799866912e-02 -6.8832955346219806e-03
      -2.9654388935336710e-03 -1.4541395894538370e-01
      -4.2255714974145880e-01 -9.8175255848985565e-02
      1.0024705969370044e-01 2.6379969882141519e-02
      -2.0783084859462893e-02 2.1352313526804845e-01
      -4.8069463478389071e-02 -2.8380348158558622e-03
      3.4584214747052845e-02 -1.0112993744533223e-01
      -1.6399882610849012e-01 6.0366385908358508e-02
      6.2579107537954662e-02 2.2936549975606008e-01
      2.8569710718529628e-01 -1.1115705201345238e-01
      -5.6199258420129919e-03 -7.6782986325447403e-02
      1.7670114087239575e-01 -8.9849687816140784e-03
      -1.6102272993220090e-01 -1.8705578814907777e-02
      2.0289508355585705e-03 -1.3851748666130437e-01
      -2.5025045524019940e-01 6.1427328522569241e-02
      3.2148654949697666e-02 5.0710893858437198e-03
      -5.1431743051661124e-03 -1.6823979680254238e-02
      -2.2209309907019054e-02 -1.7959311105187678e-01
      -4.0124328205100918e-01 -1.0063633176780794e-01
      1.0420162008268548e-01 3.0360821899553709e-02
      -1.9504785274186566e-02 1.5665860474119786e-01
      -3.8471993667557902e-03 1.8515951750778922e-03
      3.3827838448861516e-02 -1.1523166385069197e-01
      -3.7839906535236184e-01 -7.8470436391861964e-02
      7.5501711839104244e-02 1.5830245834240808e-01
      1.4164415346786322e-01 -1.0742480705334144e-01
      -7.3497470826558216e-03 -6.1862078054369600e-02
      2.2229030460081581e-01 -5.3659296761489643e-03
      -9.1041865490859519e-02 -1.1128950454963350e-02
      8.0426818636433733e-03 -8.1755618090412943e-02
      -2.6819754927918632e-01 9.7440764620125825e-02
      1.9300332884793676e-02 1.6283684971725731e-02
      4.0976835338562688e-02 -7.7377614255074549e-03
      -1.9596676845258260e-02 -2.2007007870193243e-01
      -1.5274766555108207e-01 -1.4973862307898994e-01
      8.9450151527808566e-02 1.5299852912607617e-02
      2.2815227589499231e-03 6.5337655615207935e-02
      2.3305589725728666e-02 -7.8295292994829818e-03
      2.6460805123653158e-02 -1.1441029538966388e-01
      -3.4077499509510173e-01 -7.7218914884942494e-02
      6.5974944124319396e-02 1.0962813598380425e-01
      8.9359894692596809e-02 -1.5972699409714719e-01
      8.3050088530880004e-03 -5.3248933811092934e-02
      1.7450765739817559e-01 -3.7318955045094089e-02
      -1.5896859979448660e-01 1.1521848072316992e-02
      2.3070120063877882e-02 2.0812936109508007e-02
      -2.7702441932826988e-01 8.7206870492811769e-02
      1.6356458297410292e-02 2.4780632976217788e-02
      6.0475804711644009e-02 2.6094949250512769e-02
      3.9299379271206056e-03 -1.7876558249440525e-01
      -1.3598751616147239e-01 -1.3398347118957751e-01
      1.2926689604358357e-01 7.5730696305520888e-03
      4.0082060192081548e-02 1.2133938318299446e-01
      3.0012730239713438e-02 -1.6015938818132659e-02
      1.7044040993970510e-03 4.4763644473170210e-02
      -3.0067401782749797e-01 -1.6670616218247211e-03
      5.8992306050654010e-02 1.7117158382328201e-01
      1.9508496670676195e-01 -1.9017968077275543e-01
      2.2257440563585869e-02 3.0055469395243823e-04
      -1.5367421449053018e-02 -7.8018867121465149e-02
      -9.3040335794843679e-02 2.9746415016558145e-02
      -2.9741989409407244e-02 -5.9998545658951401e-02
      -4.1785976951557929e-01 1.2688615497697814e-01
      1.5545155840272572e-02 3.0006108330510879e-02
      6.5147341005210108e-02 4.5149555372106971e-02
      2.3903597911934589e-02 -1.6524131434641867e-01
      -1.8964832638722612e-01 -1.2693122998196302e-01
      4.7545546739665934e-02 7.5662638091184321e-03
      3.5309738332677885e-02 -2.2679825084826282e-02
      -1.0965302225423801e-01 -2.8651444459524375e-02
      -5.3636982662279651e-03 -8.9482251814598773e-03
      -1.6992004077333270e-01 7.9134619260598685e-02
      4.5829140035001138e-02 8.7728168992751862e-02
      1.3663396065139582e-02 -8.6980510764844740e-02
      1.9474449972110633e-02 6.9209736214416492e-02
      -1.3509714964658165e-01 -4.8204536195115853e-02
      1.4630864953735850e-01 1.7203563259389137e-02
      4.4977166255105436e-02 1.3992544002660928e-01
      -8.9726289511248516e-02 1.1247218715119607e-01
      1.1616794826846645e-02 3.1294426148587212e-02
      8.9683282392615651e-02 5.4519084867494190e-02
      2.5086417060995519e-03 -1.2178696490168450e-01
      -4.3235214163084623e-01 -2.2336144933776773e-02
      -7.4153157048777479e-02 1.0933180178530960e-02
      5.1718030415713608e-02 -3.9912132642579985e-02
      -1.5292080303611136e-01 -2.6711757202242826e-02
      4.3263018762528102e-03 1.3722990368739477e-02
      -1.4983931122767041e-01 1.5326214542200119e-02
      -1.8304467933459700e-02 -3.1497094793098937e-02
      -4.3230945217021678e-02 -3.0836358996180957e-03
      2.3628704067145328e-02 -1.0809810999314483e-03
      -2.2379997554673503e-01 -4.9127225466548989e-03
      1.4492284322046622e-01 -1.5852332821805593e-02
      2.2839436807223546e-02 8.2221381863844381e-02
      -3.0305216474078751e-02 1.0649966309600048e-01
      4.8927368546667897e-02 4.8644890432955730e-02
      4.2859869757333920e-02 5.6112255818072165e-02
      -1.8339682446560923e-02 1.6057577301321624e-02
      -4.7428289611063329e-01 1.9731628298437004e-01
      -2.0481046815287174e-01 7.0479043122093823e-03
      3.1998610144437029e-02 -2.2042150617076950e-01
      -6.6101083037716890e-02 -3.0544500788878725e-02
      1.4678029541015972e-03 -1.1591820790030469e-02
      5.4230035563533385e-01 1.0274028167222178e-01
      -8.1687066817852053e-02 -4.7801958343041329e-01
      -5.4503837027596724e-01 3.5427901770289746e-02
      3.0189902718631083e-02 7.2600447009509697e-02
      -4.3664711169578013e-01 1.2763669434340749e-01
      5.6725460971667518e-01 -5.9505044881095176e-02
      8.8718690886517543e-02 2.1935080726891651e-01
      5.2943003422234236e-01 -9.7021658298919976e-03
      5.2368694692051791e-02 5.5613126566366591e-02
      1.0942263448707821e-03 5.8808151581779808e-02
      -3.8814653119778338e-02 2.6861680344877997e-01
      -6.8758710560517883e-02 2.1975846801797061e-01
      -1.4047060648270460e-01 1.8933911914530864e-03
      4.1730838515454428e-02 -8.8870512010130159e-02
      8.2133781139147744e-04 -2.5485330702949657e-02
      -9.8208973537843164e-03 4.3246665373003904e-03
      4.7347238265982755e-01 1.6348287189379884e-01
      -5.1066638219612187e-02 -2.9829796509357620e-01
      -2.6626377912643867e-01 8.5749245860928497e-02
      1.9220184203954334e-02 5.9764128475316119e-02
      -3.1941326801202963e-01 1.3022951834055563e-01
      3.8595866822097014e-01 -1.5002208635757205e-02
      2.7714931571929755e-02 1.8755768534158898e-01
      5.1620054805431836e-01 1.3226938062928614e-02
      2.1936046115012507e-02 3.1302603903024744e-02
      1.7380085772114376e-02 6.0924534327781339e-02
      -2.3023995390199576e-02 2.2695080222606884e-01
      -1.0530781720777337e-01 1.7774899139616210e-01
      -1.1299747217150781e-01 -1.6138106684978226e-02
      3.8318086823510421e-02 -2.8192834683690368e-02
      1.0910375566446280e-01 -2.7932250299685619e-02
      -3.3688242954175614e-02 -9.4631101587913657e-04
      3.6254834028153626e-01 7.5564901008667390e-02
      -5.8267582454951866e-02 -3.0525488849424371e-02
      -1.0498473916953525e-01 1.6086814866855345e-01
      3.7796284488113834e-02 5.7997550178006875e-02
      -2.7767770273509573e-01 1.2648436985849110e-01
      2.4348103411925548e-01 5.7628848241893394e-03
      2.5403593535658579e-02 8.7789480616354387e-02
      3.0766687975843376e-01 -1.7002694339705405e-02
      1.7528785189870142e-02 3.2901251294686809e-02
      2.6614534831464243e-02 6.0657716375734930e-02
      3.8763821936286715e-03 1.9260547901460115e-01
      -6.3035978635513634e-02 1.2897620054353037e-01
      -1.7540985891951302e-01 -1.1730293488141700e-02
      2.5701243529290796e-03 -1.8977733188216581e-01
      1.4683117802333323e-01 -3.1240348643415482e-02
      -3.2321151599108637e-02 -7.3560110463966932e-02
      4.2555950666974474e-01 7.3093058949694936e-02
      -8.6978797530390298e-02 -1.2456927159267708e-01
      -1.4268743852352356e-01 1.6128885455866607e-01
      2.8589198152324604e-02 2.2834399543839725e-02
      -2.4592006689883017e-01 1.5170064164566743e-01
      2.7260065564703528e-01 -3.9517635981795612e-02
      3.0891253886543655e-02 6.7719518683351160e-02
      4.8478161136577264e-01 -5.3326217666735204e-02
      5.2951161797326913e-03 1.9780773312742295e-02
      -2.9133820469654938e-02 2.9712388434392022e-02
      -1.3432085606844795e-02 1.9814935701183625e-01
      1.2181636671565080e-01 -3.2456016497688561e-02
      -1.0128342483710608e-01 -2.4096651752825254e-02
      1.9402066775828865e-02 -8.6054026560422492e-02
      7.1231214769652815e-02 -2.6432537884438244e-02
      -3.1737008159898494e-02 -9.9497707846920164e-02
      1.8280310614878645e-01 -3.8910753458695692e-02
      -5.6409055500096908e-02 6.9874717085807461e-02
      6.7542583051554458e-02 1.6116793380795261e-01
      3.8208650734472230e-02 1.7153465989415136e-02
      -2.0958159357138134e-01 9.4311741124939050e-02
      1.1265521083649095e-01 -6.2197379415893453e-04
      2.4175223873007027e-02 1.5147328535112848e-02
      2.1472530396625389e-01 -6.4193526555811407e-04
      9.7785289530970664e-03 1.4558004258010029e-02
      1.7235003828320921e-02 3.6223528022048153e-02
      7.9476531054784288e-03 9.9958308821518974e-02
      1.9838489703447346e-01 -6.7392233268304000e-02
      -1.2802331235425035e-01 -2.0972814779950676e-02
      3.9047254487345695e-02 -1.3432896267710684e-01
      2.1153824472245553e-02 -3.1661618261657899e-02
      -1.9738641916839529e-02 -7.0012845387361286e-02
      2.7464065101871975e-02 -2.2393757071111234e-01
      -5.2134174982808791e-02 -6.2690968875034045e-02
      -9.1737513462541789e-02 2.1722798087931253e-01
      3.0242847618603325e-02 1.6658450673140198e-02
      -2.0533658802253005e-01 3.8619194667430114e-02
      1.1264103380350166e-01 2.1527701697115927e-02
      3.5077766545584130e-02 -1.3766765414494381e-01
      3.6013768146034332e-02 4.1826051874406599e-02
      1.7622073661245845e-02 2.2970500999216614e-03
      2.3368379024188708e-02 1.1088943550274285e-02
      8.7207876574956194e-03 4.0765015429651809e-02
      -3.4832193601977002e-01 2.8085701177559169e-01
      -2.1139492544807573e-01 1.7177511202250792e-02
      -3.4478766542673622e-02 -2.4406735847264622e-02
      1.2980325605999438e-01 1.0835086146256612e-02
      2.7905499792832716e-02 -1.4739119867531578e-01
      1.6660431644855572e-01 9.6205714126729694e-02
      -1.4413525177973138e-01 -1.1929764049961439e-01
      1.3872829569456641e-02 2.4823423691519988e-02
      -1.4603883876657914e-02 -2.6244254533704303e-01
      -1.1732838940744739e-01 9.7913302273648806e-02
      2.9057530906773343e-01 -8.2485681038155900e-02
      1.1253146058916591e-01 -8.9397986173738966e-02
      1.3526747016618293e-01 -6.7638074907402590e-02
      1.1320932299731929e-02 -1.4886752192465356e-02
      -1.3505435051789605e-01 -4.8739531677793144e-02
      -5.8390446843313945e-02 1.2615426825343923e-01
      2.9768478465927117e-01 -8.7096045815349021e-02
      -1.1442509664291507e-01 -1.0880089459798362e-02
      1.7202152209106904e-02 -1.7192400814107778e-01
      -4.6568680717861785e-02 -1.5294959813976803e-02
      -3.7138708848395113e-03 -5.9161880882198564e-02
      -1.2419180599717325e-02 -2.0345256588651683e-01
      -4.1529366581998600e-02 -3.5766277754282150e-02
      -2.2286496354261928e-01 8.8462394674164196e-02
      1.3171723045084667e-02 8.2789047873976812e-02
      -1.9954256266391572e-02 -1.6872387893831789e-02
      -1.8325986364784949e-03 7.6643451409120489e-03
      6.7888648176196567e-02 -3.7590882152355461e-02
      4.3487326545709089e-02 1.5038641143171660e-02
      2.2823123987214176e-02 9.7113525074508916e-03
      -3.5764795532001896e-02 -1.2441779182055048e-02
      2.7288380653589777e-03 -8.3991005444127409e-02
      -5.9995626358023102e-01 9.4307832734440877e-02
      -8.7039932047739646e-02 7.2664402856407202e-03
      -4.0146582340173231e-04 -2.1442864560371654e-02
      2.1218707818733273e-01 -1.3426561781593753e-02
      -1.0557701456582398e-02 -9.6278870411288464e-02
      8.4355735592372846e-02 -1.3560280011850942e-01
      -3.4170212571018779e-02 -1.2274915771477886e-01
      -1.9062754579003714e-02 1.1295523957092114e-02
      1.4870559604848716e-02 -1.6928504486552390e-01
      1.4372873254799493e-01 1.8091847794123830e-02
      7.9230165032381089e-02 -8.2761433452445982e-03
      -2.1420136864768385e-02 -1.6256198570566444e-01
      8.2712285606432609e-02 -9.1830262276329580e-02
      5.5518900643116223e-03 1.3963208620699906e-02
      -3.8598752900561147e-02 -3.1590526334318446e-03
      -1.4765518402948818e-03 7.5764165758518853e-02
      -2.3420799309474022e-01 -2.9021013727844069e-01
      7.4062345086287437e-02 2.6370517338377759e-02
      -2.8208449968240228e-02 -7.8437267662053167e-02
      -2.6246412276685307e-02 3.9181277647681667e-03
      2.2926441732130154e-02 -1.3829841409291163e-01
      -3.6003763697825969e-01 -2.3344383865719945e-01
      1.2730411785692761e-02 1.3648209138629064e-01
      4.8395446164854090e-02 6.6731565112585853e-03
      -2.2257115025265178e-03 2.0787725927614336e-02
      1.6051458344489788e-01 -7.8642410575100029e-03
      -3.6561651248906796e-01 -3.2771243106896157e-02
      1.5041624882750364e-02 -1.9266329326766887e-01
      -3.4824463300954583e-01 -1.3487638928371059e-02
      1.2023287759953306e-02 7.5994912443643039e-03
      -4.8490105538564433e-03 -3.3591473278794942e-02
      -2.1522339877431587e-02 -1.8555798159023701e-01
      -4.5528756527778541e-01 1.1225164754393467e-02
      8.0445636934492581e-02 3.2290331372561931e-02
      -2.9662374960709240e-02 1.4676394605040777e-01
      1.7890836743900903e-02 -6.4364048149311084e-03
      2.4220975784584115e-02 -9.8373374128032182e-02
      -7.2190355327328676e-02 1.0770119185516869e-01
      3.0870337230915652e-02 1.2034229989475352e-01
      2.0879956959474819e-01 -1.3039360984852166e-01
      -4.1353153330355077e-03 -1.4759462756208455e-01
      9.4763388734532758e-02 5.3294410022048544e-02
      1.3873380626116893e-01 -4.2362824698479441e-02
      4.9059210446172050e-02 9.5416128646399923e-02
      -7.3648636352343255e-02 7.9747126767083953e-02
      2.3777946032719356e-02 1.3230711600526343e-02
      -2.0946478048761305e-02 -1.1387548988955410e-02
      -4.0958750794586614e-02 -1.5782774571193031e-01
      2.7432068303752383e-01 1.7470619229726113e-02
      1.2646480512254418e-01 1.4724879832420174e-02
      -1.0904144545366461e-02 2.4532610649466019e-01
      4.0714621507502635e-03 -8.9667567659821226e-03
      9.2552451992459484e-03 -1.1549070005519362e-01
      -2.5324103157027045e-01 2.3841299917322242e-01
      8.2111258205638610e-02 2.5625713447299003e-01
      2.9373314086867974e-01 -1.5236260198594828e-01
      -3.4056756198165227e-03 -3.9623579534257124e-02
      -3.1551351988745722e-02 1.2825501419197515e-02
      5.0510395872632834e-02 1.1021680905602269e-02
      2.7537464132434512e-02 1.8644493338847731e-01
      -2.5869986068334272e-01 1.5321320374181255e-01
      8.4418205718222832e-03 8.0240885021592209e-03
      2.1856444336769965e-02 1.6548203061376002e-02
      -2.1249014419433609e-02 -1.6289024383901518e-01
      2.5869139940789082e-01 8.6487304221883506e-03
      1.0219094064198063e-01 9.2596453359430030e-03
      4.7212443744902445e-02 1.5419036377684001e-01
      7.9286092324683977e-02 -1.3756395784416927e-02
      -1.9944073140271161e-03 -6.2087090216720361e-02
      -2.3758075583721855e-01 2.1181542796414138e-01
      7.9365752166508041e-02 9.3525713997944571e-02
      1.7936904237425608e-01 -8.5431782600351031e-02
      2.6910112460561381e-02 -4.7622149820715338e-02
      -1.7016140968759119e-01 -1.6772251650857357e-03
      1.0951110947590055e-01 4.2398527116882072e-02
      1.6782424723449776e-02 1.4802394888672044e-01
      -2.1333778146359203e-01 1.6507490860150797e-01
      1.9000594964272519e-02 2.6896182445395697e-02
      4.5054782717953143e-02 5.8725967507788183e-02
      6.4710328325172511e-03 -4.1655095589159592e-02
      3.4948154400868936e-01 -1.7351113859876091e-01
      9.4241068597350111e-02 -2.0972572399220690e-02
      7.3339147859676795e-02 -1.0453011710605659e-01
      -1.8883787424973876e-03 -3.9355989812831227e-02
      -3.6204349544232739e-02 5.3463407763782188e-02
      -1.7688467668778532e-01 1.3913865565679329e-02
      7.3552982867998662e-02 9.3107454994556776e-02
      4.1306445005973622e-02 -6.9307373434134054e-02
      4.3645098394347055e-02 7.9108793001250358e-02
      -2.0688564736174705e-01 -2.4616028982099615e-02
      1.0133406234899688e-01 8.0733526546156398e-02
      2.0025082240144123e-02 1.7138343849456431e-01
      -5.2825337396459483e-02 9.5637808919726411e-02
      2.5902281393614730e-02 4.9677363989229895e-02
      9.3840273257458154e-02 8.9404186514648876e-02
      2.8652726492070037e-02 -4.2782019783139481e-02
      -4.1402875354750657e-01 7.8808217784068865e-02
      -5.8012927215692180e-03 -4.3524283577198878e-03
      3.1879458762394168e-02 3.1669721909178844e-01
      4.0282717450168842e-02 -2.6690605920650499e-02
      -2.5157331159123761e-03 -3.3414866708658369e-02
      -1.3188855987682016e-01 1.5534139303953606e-01
      1.4488963284453552e-02 1.8476362539762103e-01
      2.7150375381928799e-01 -1.3133434335733779e-01
      2.2773326004644691e-02 -1.2099384108007269e-01
      3.0241496890499011e-02 1.8469329466896681e-02
      5.9421271894653772e-02 1.7801651412901014e-02
      8.5749702363369221e-02 1.2100122616603028e-01
      -2.4304528823408808e-01 7.6825837112039663e-02
      2.1356895633007845e-02 3.9077279115107326e-02
      2.3362876315707690e-02 6.0166629108021570e-02
      2.9969882826863421e-03 2.7018657435427335e-02
      1.1068097710411209e-01 -9.2876946307335326e-02
      -1.5462534786268562e-02 -9.6627787293806500e-03
      8.2848993659050199e-02 -1.2706578572678937e-01
      -1.5059627317887050e-01 -4.1647312393246545e-02
      -2.3805895390064464e-02 -1.2767900416138804e-02
      -6.7877142116024636e-02 1.0937641711946970e-01
      4.6346053874916408e-02 1.1739281414383837e-02
      -9.0442121186584665e-02 5.1859487052482472e-02
      3.1589959595585290e-02 1.7236563451940265e-01
      -9.6872800407658263e-02 -1.5273337226754129e-02
      2.1327618966001282e-02 5.0240505416341417e-02
      3.8198303087276654e-02 2.8497490743384524e-01
      5.0240116318138663e-02 1.3818620001486598e-01
      2.9077422664696043e-02 5.3776198302026595e-02
      1.2867802980817736e-01 6.9047585020309152e-02
      2.2666616584037826e-02 1.7867791321162566e-02
      -2.0048305867109870e-01 -2.5607737475282385e-02
      -5.5601393144038488e-02 1.2293813091681261e-03
      6.7896413993698210e-02 -9.5276681470027227e-02
      -1.8286711674599865e-01 -4.2742222055041232e-02
      -1.1613409778517551e-02 4.7763393236328514e-02
      7.4745783168494187e-02 6.9461729878102455e-03
      -4.2582576589707030e-05 -1.5506258341304141e-01
      -2.0924500971672036e-01 7.1558878627704908e-02
      3.5418835520059769e-02 1.7924111371764997e-01
      -2.2831473431263080e-01 5.0423202960718727e-02
      6.3096610937706007e-02 5.0812839639020491e-03
      6.0695829598148419e-02 1.2755849084908899e-01
      9.0102434455411676e-02 1.3387837129247351e-01
      4.7765439672109673e-02 5.3272861443885842e-02
      6.4965793431112889e-02 7.6328305331439694e-02
      1.6258317555557975e-03 9.9307644729830211e-02
      -2.1587321266927930e-03 -6.4443584551083080e-02
      -2.8034467831581627e-02 -1.8951283480831992e-02
      9.2044135418271042e-02 -2.2371454121396456e-01
      -1.7974211549940025e-01 -4.5974196610473028e-02
      -3.1889899750586120e-02 9.2283790186939635e-02
      2.7146278023064419e-01 1.6378926752429074e-01
      2.4155034460375896e-02 -2.4922986426313856e-01
      -4.6259247810274728e-01 1.5141239292678355e-01
      3.8485830106038288e-02 2.9245176081302277e-01
      -2.4474593199806688e-01 7.8151046228082818e-02
      2.5206258675974158e-01 4.2624376559105032e-02
      3.2533685886516187e-02 3.0162141925393438e-01
      4.5991026567477605e-01 1.1739539972817548e-01
      4.5464525030284066e-02 5.1520779074016670e-02
      1.2158559180468467e-01 8.4971081030535384e-02
      1.5815593977098259e-02 1.5666048002190169e-01
      -6.5571300697303625e-01 2.6291618268833844e-01
      -1.3074545025821069e-01 -2.0001724464717211e-02
      3.9427809427002837e-02 -4.5659979402035290e-02
      5.0460916745403414e-02 -3.8883203659888683e-02
      -2.2797886391498802e-02 3.6107713509758457e-02
      5.4045562350834475e-01 8.1055795379368717e-02
      -5.0951942773785619e-02 -2.4218373984777491e-01
      -3.1678313327010726e-01 8.0185991221694106e-02
      4.0960459323450847e-02 1.7570071516961473e-02
      -3.0616448470091118e-01 1.9252136271870007e-01
      4.2336350854373228e-01 -2.0227346910220864e-02
      5.9028438377764003e-02 3.6199563141776597e-01
      5.8190389988895697e-01 -1.6300968133684753e-02
      4.6488113006655299e-02 5.8553620541031276e-02
      -4.2438950474529731e-03 7.1734860721047358e-02
      -7.0217075548095701e-03 2.7562817507314474e-01
      -4.3082713962700908e-01 1.9837455487988820e-01
      -1.0498502257346570e-01 -1.5912011016544835e-02
      7.4437075673702757e-03 -1.6531195636833231e-02
      1.1779239781745318e-01 -4.1117390188042197e-02
      -2.9098548653676819e-02 -3.2489133563041880e-02
      4.6794306781035516e-01 1.5493653742521701e-01
      -5.9270813419607694e-02 -7.5257220366046693e-02
      8.2171291683532197e-02 3.1965292288360987e-02
      3.2967497588274906e-02 -2.3532610162250712e-02
      -1.1578479572613753e-01 1.8329608540650319e-01
      2.5603189742743027e-01 -2.2622438499910764e-02
      1.7979430816162614e-02 1.9543442893779833e-01
      3.4777611628614730e-01 -1.9368074286563983e-02
      2.9998024731813195e-02 2.0172403311096033e-02
      -3.9844242533281754e-02 3.3061460999031206e-02
      -6.0173876410950051e-03 2.2621239624922271e-01
      -3.3032013494831874e-01 2.1419953742158512e-01
      -6.0355972617721625e-02 -1.9954353130074029e-02
      -7.2146758690598816e-03 1.0635029822758832e-01
      1.1996120098780956e-01 -3.0474078162320072e-02
      -1.7895153937464488e-02 -5.8332104493556421e-02
      4.1273089735276147e-01 2.0310950236551614e-01
      -6.0309477253553317e-02 4.4391587572143384e-02
      1.7595225025645009e-01 4.7541575163381602e-02
      2.6991531133868037e-02 -1.0850464661374398e-01
      -1.6174721077740833e-01 1.8206844589942806e-01
      2.9472629889476620e-01 -4.7326553821973115e-02
      4.8403391203795429e-02 3.6321937422612155e-01
      3.1449572831333172e-01 1.8003359998147971e-02
      3.1431288218161414e-02 1.7362843316648568e-02
      -6.7943008454722162e-02 3.0155746315231068e-02
      -1.6531331296547210e-02 1.4594332853907918e-01
      -1.8514262823863392e-01 1.6539134333989799e-01
      -1.2925147202716655e-01 -9.8383069503503798e-03
      6.7974976656276880e-03 3.0201188969558576e-02
      1.3057429346361066e-01 -2.7919468170608436e-02
      -8.3783956155826407e-03 -8.5023000231955248e-02
      2.0474480207900214e-01 2.1604592483597926e-01
      -7.4717828346972742e-02 -9.9157443380735538e-02
      -1.8984565093409258e-02 7.3363361511546030e-02
      3.1781096173138922e-02 -6.9601888048582999e-02
      -3.1298558632620543e-01 1.4226616274804993e-01
      2.3253107074718035e-01 -4.0251058470267054e-02
      6.3023894376714434e-02 3.3559692856441403e-01
      2.2401704095430994e-01 9.8702022792400649e-03
      3.9686517698680923e-02 1.9572813124277926e-02
      -4.0051192092302838e-02 2.1346569221404245e-02
      -2.2948430151829659e-02 1.1708123716987304e-01
      -4.8444626394761980e-01 1.0220622835574680e-01
      -5.5091225078138746e-02 3.4691675406418329e-03
      -2.9414842597642973e-02 1.4192745540917387e-01
      6.3347041384143238e-02 -1.9104471357272435e-03
      5.8964321055460364e-04 -9.0822218168336050e-02
      1.4021409059382120e-01 1.3746262242223239e-01
      -8.3357957339259020e-02 1.1571116046218041e-01
      1.5964959486272937e-01 2.6899568389466423e-02
      1.0009532454286695e-02 -1.1145701965804770e-01
      -6.8387973616817347e-03 5.9986751536461401e-02
      1.4610074972766407e-01 -3.9381659075307579e-02
      -4.8445590906137431e-03 7.8081561652107015e-02
      -1.0188738645123313e-01 -7.9583925671938505e-02
      4.3428148314334190e-02 -1.0204899952770739e-02
      -7.5021538765074128e-02 -1.4825212694473342e-02
      -3.6817604388060615e-02 1.0480192840110232e-01
      6.1153294245851484e-03 1.0639454251641409e-02
      -8.8551144447988478e-02 -8.3830046647844735e-03
      1.2552787365851765e-02 4.9708103817085597e-02
      -6.7242477920456858e-02 -1.8115212232479354e-02
      -6.1276925490270041e-03 -7.9943975775709067e-02
      1.7158848435672272e-01 -7.6470067594561972e-02
      -4.9873426460431587e-02 1.0612959895933753e-01
      9.3021800258436829e-02 4.3474842850250668e-02
      1.9012473018290801e-02 -9.6244425772894590e-02
      -6.0617886501135636e-02 1.7484068854249103e-04
      3.2812146025616835e-02 -1.5431098202325466e-02
      3.8809831708118060e-02 8.0192388516966945e-02
      -2.4290828505031399e-02 -1.2430520262515003e-02
      4.1304362153697684e-02 1.8007745365900905e-02
      -5.7375877369078412e-02 -5.7983262858227460e-03
      -6.6432541629980876e-03 2.8150424849848619e-02
      -6.5484988570154623e-01 -1.8212043579822354e-01
      2.8241832742072273e-02 4.4721766756520877e-03
      -4.9479952785088047e-03 -4.6880366749128634e-02
      -3.2068144171147998e-02 -1.7220885056321130e-02
      -2.6028613062239066e-03 -4.6675008557015674e-02
      -1.8380707395410070e-01 -1.1444853950721903e-01
      1.8760927993940434e-02 5.7668745549935743e-02
      6.6699908791430673e-02 6.0680720587102679e-02
      1.4365156147267976e-02 5.1387645888869043e-02
      9.3373137278368601e-02 2.6102369928149030e-02
      -1.7234054743704122e-01 -4.7226601020771784e-03
      2.6505732830529325e-03 1.3279665263867055e-01
      -7.3632299567997161e-02 2.3598439947870382e-02
      2.9711874429258069e-02 2.4148733418536104e-02
      5.0691200682002259e-02 8.5167032447790018e-04
      -2.8396437366263092e-03 -1.2171793987861848e-01
      -7.1226675477928347e-01 1.2774591210894057e-03
      -2.0424958586785537e-02 1.7494527017130616e-02
      -2.6706794934252390e-02 -3.1593800404452589e-03
      -1.0920359939209219e-01 -2.3633811785760371e-02
      2.1964227111280227e-02 -1.6098513860673219e-01
      -3.2657823167742100e-01 -1.3963424993756238e-01
      -4.5693629366586670e-02 1.1109263374618894e-01
      1.1886577055380955e-01 -9.6944986985526838e-02
      1.9415522585866575e-02 -1.4730250358059901e-01
      9.0808039399429386e-02 6.0516314708650862e-02
      -7.0361269954368921e-02 -8.7206733783195642e-02
      7.1555939508347655e-02 -2.4233505299289023e-02
      -3.9849611344791736e-01 5.8935573062055185e-02
      6.2210830108245740e-02 2.9296094385152318e-02
      -4.5158278502894021e-02 -2.2005735598628260e-02
      -4.4620479992254838e-02 -2.1271826444334702e-01
      -2.6862022593341128e-01 1.6208020239093038e-01
      6.0137879014696062e-02 2.8208802384627602e-02
      -2.7919333149458828e-02 2.7572005064260091e-01
      3.5651337484225686e-02 5.5741712749118322e-03
      2.0001510562784531e-02 -8.1084167911743193e-02
      -2.3210696317689675e-01 1.3393008085350708e-01
      1.1374676965222711e-02 1.7480951968052885e-01
      3.4006430754348110e-01 -1.4896523708660830e-01
      -3.5603086086328411e-03 -1.6195583484346301e-01
      8.3976555544604203e-02 4.5522419697806883e-02
      1.1784253418194472e-01 -6.4391797416736479e-02
      1.0213500976955210e-01 1.4841129206770393e-01
      -3.8275396448333199e-01 1.4429710396125406e-01
      2.2941918325264064e-02 1.7539729199354214e-02
      -3.7646100088760175e-02 -3.0196424487525665e-02
      -5.2002839296410336e-02 -2.1135638409526716e-01
      2.6182864135554675e-02 3.2674370319266416e-01
      4.3860584391171804e-02 1.7519863974549642e-02
      -1.7893257531556451e-02 4.8906729940412202e-01
      1.0224396609915029e-01 -1.1082832285478614e-02
      -4.3382712463397050e-03 -6.9148248337157228e-02
      1.1704790999164059e-01 5.8185098533387081e-01
      5.0360419470264421e-02 2.1505231306530254e-01
      4.1545062917509962e-01 -1.7187408983819588e-01
      -1.9744296862459474e-03 -1.8007634700547334e-01
      -2.0025688291234325e-01 8.0333746364922562e-02
      3.5958042396789963e-01 -1.4350344188456746e-02
      7.9116146782211391e-02 4.6708056279713622e-01
      -9.3030671830830941e-02 1.9398467715354395e-01
      7.1235596038250132e-03 1.9469753946046497e-02
      -4.2949441796258786e-02 5.2040459550551582e-03
      -3.4500168763522195e-02 -8.1321635537938922e-03
      3.4169629452034012e-01 3.0825570399420243e-01
      3.2065261678736356e-02 -3.6328336192448536e-03
      1.6412324183495496e-02 3.5311158068409915e-01
      2.2774328396824359e-01 -1.4943701428765251e-02
      -4.4387649993208635e-03 2.1131094009391574e-02
      1.1942531652184597e-01 5.1730328255694102e-01
      2.4054162981145214e-02 2.1531245372113775e-01
      3.1695050947954517e-01 -1.4879705414331421e-01
      6.5901254722185824e-03 -1.8142392405241825e-01
      -3.8224944469966060e-01 1.0753093375025423e-01
      4.4656254224447961e-01 -1.4047525944225363e-02
      1.5444156048204133e-01 3.9083100099368090e-01
      2.2576287677735410e-02 1.6488387934470544e-01
      1.4830214039413371e-02 2.4177243400579806e-02
      -8.1098695519154274e-02 4.3945313234719979e-02
      -3.3868220478372735e-02 1.9372315239595306e-01
      -2.6967545513745211e-01 4.2609312841217578e-01
      -7.4277926774167113e-02 -1.2861031139199031e-02
