<?xml version="1.0"?>
<opencv_storage>
<OCR type_id="opencv-ml-ann-mlp">
  <layer_sizes type_id="opencv-matrix">
    <rows>1</rows>
    <cols>3</cols>
    <dt>i</dt>
    <data>
      256 32 2</data></layer_sizes>
  <activation_function>SIGMOID_SYM</activation_function>
  <f_param1>5.9999999999999998e-01</f_param1>
  <f_param2>1.</f_param2>
  <min_val>-9.4999999999999996e-01</min_val>
  <max_val>9.4999999999999996e-01</max_val>
  <min_val1>-9.7999999999999998e-01</min_val1>
  <max_val1>9.7999999999999998e-01</max_val1>
  <training_params>
    <train_method>BACKPROP</train_method>
    <dw_scale>1.0000000000000001e-01</dw_scale>
    <moment_scale>1.0000000000000001e-01</moment_scale>
    <term_criteria><epsilon>9.9999999747524271e-07</epsilon>
      <iterations>1000</iterations></term_criteria></training_params>
  <input_scale>
    6.6697433896417362e+00 -6.5162816371133436e+00
    3.6533114979494039e+00 -3.3552731717663988e+00
    3.2591238699793017e+00 -2.9162134417960646e+00
    3.1576281421214709e+00 -2.8005562169243268e+00
    2.9411285386746262e+00 -2.5487846875503917e+00
    2.7225081489809835e+00 -2.2848409168160879e+00
    2.5098269370894215e+00 -2.0130742783567959e+00
    2.3382013150132535e+00 -1.7747377991867144e+00
    2.2712970388763254e+00 -1.6738841181327224e+00
    2.2698502429242580e+00 -1.6716327060236187e+00
    2.3701293940071322e+00 -1.8209721871970328e+00
    2.5296404401458461e+00 -2.0392685328125904e+00
    2.7525740113877872e+00 -2.3218904754643166e+00
    2.9472130072683020e+00 -2.5559724895893945e+00
    3.0829859817021887e+00 -2.7146087740724489e+00
    3.4381817911827652e+00 -3.1174018435944304e+00
    3.6580564999930951e+00 -3.3604799597430328e+00
    2.7575804634753478e+00 -2.3280333529322541e+00
    2.3786680597287639e+00 -1.8331627606565470e+00
    2.1658387939177670e+00 -1.4985086416582520e+00
    2.0528205958684156e+00 -1.2577500906750789e+00
    2.0157804655072025e+00 -1.1337581050646415e+00
    2.0030406372604541e+00 -1.0566832466633846e+00
    2.0000337927150853e+00 -1.0058300710987984e+00
    2.0001974645905292e+00 -9.8604617599417310e-01
    2.0002349734501892e+00 -9.8478819276484808e-01
    2.0007470707528894e+00 -1.0277086827432895e+00
    2.0073469299934872e+00 -1.0894663804301834e+00
    2.0347539772144381e+00 -1.2046092960423771e+00
    2.1315756448954453e+00 -1.4344389888338580e+00
    2.3364761194981072e+00 -1.7722083936614348e+00
    2.6286102473131070e+00 -2.1671814089816106e+00
    3.2621417969745714e+00 -2.9196329947372575e+00
    2.3945018880505735e+00 -1.8555896281153532e+00
    2.0932328004077552e+00 -1.3554948377415654e+00
    2.0081714385919440e+00 -1.0945740151916825e+00
    2.0001602648673522e+00 -9.8742030271289938e-01
    2.0026341589232421e+00 -9.4997612483911242e-01
    2.0062747797042380e+00 -9.2386177620377208e-01
    2.0107086103733609e+00 -9.0173346289424805e-01
    2.0104717836062291e+00 -9.0277029675188336e-01
    2.0076918970787907e+00 -9.1605820224779688e-01
    2.0039358978403521e+00 -9.3920035645953870e-01
    2.0014016914995998e+00 -9.6325511589491675e-01
    2.0000207935433276e+00 -9.9545039113342904e-01
    2.0060328299439210e+00 -1.0807462593253598e+00
    2.0823176375665491e+00 -1.3310065131508224e+00
    2.3483529911144139e+00 -1.7895547879262210e+00
    3.1335184509531908e+00 -2.7728829631652379e+00
    2.1677917757230309e+00 -1.5020230165234847e+00
    2.0096204424430657e+00 -1.1030119557849600e+00
    2.0001316958548578e+00 -9.8858977757179589e-01
    2.0015261725932025e+00 -9.6168937526349729e-01
    2.0004377948639065e+00 -9.7929420436390413e-01
    2.0000039366801570e+00 -9.9801786047228069e-01
    2.0000771531242059e+00 -1.0088223463881458e+00
    2.0003050064096439e+00 -1.0176176017408001e+00
    2.0005979438840189e+00 -1.0247536906735963e+00
    2.0013278579040916e+00 -1.0371097614400713e+00
    2.0006752501899050e+00 -1.0263253949225049e+00
    2.0000000593711191e+00 -1.0002436915829129e+00
    2.0000639139840017e+00 -1.0080266430553240e+00
    2.0111060486233443e+00 -1.1110844637141097e+00
    2.1733473966312373e+00 -1.5119497576123351e+00
    2.8919076290770760e+00 -2.4903591160276433e+00
    2.0497827094936238e+00 -1.2493958959809601e+00
    2.0001846335218989e+00 -1.0136806221844810e+00
    2.0005490198724494e+00 -9.7684172887732534e-01
    2.0008066167512495e+00 -1.0288071709456215e+00
    2.0065366658355797e+00 -1.0841840164138918e+00
    2.0101618062487741e+00 -1.1060146528086889e+00
    2.0095377944745874e+00 -1.1025468950458357e+00
    2.0112152764332256e+00 -1.1116582018152761e+00
    2.0152860564704134e+00 -1.1315158353843859e+00
    2.0214256415019549e+00 -1.1574793224821196e+00
    2.0171883737691547e+00 -1.1399800073423501e+00
    2.0047301876009533e+00 -1.0711821067379648e+00
    2.0000008402162650e+00 -1.0009170533179548e+00
    2.0007057616363992e+00 -1.0269213990544688e+00
    2.0646665485044653e+00 -1.2886767725671602e+00
    2.5999113534278262e+00 -2.1305486946358840e+00
    2.0123011765141947e+00 -1.1172316678796104e+00
    2.0013636658482277e+00 -9.6374769229022617e-01
    2.0001147036902505e+00 -9.8934721741624487e-01
    2.0068658514120807e+00 -1.0863644419769010e+00
    2.0209552040186001e+00 -1.1556154129424454e+00
    2.0184329807074337e+00 -1.1452970709002219e+00
    2.0107524039279792e+00 -1.1092092770197588e+00
    2.0099359565441843e+00 -1.1047709709741962e+00
    2.0166714096013179e+00 -1.1377223098872806e+00
    2.0287460699676627e+00 -1.1845278295160730e+00
    2.0294164998034359e+00 -1.1868501460763774e+00
    2.0110417623861876e+00 -1.1107456050717328e+00
    2.0000234108058534e+00 -1.0048501909996432e+00
    2.0004959616535003e+00 -9.7797640369376249e-01
    2.0232095933206788e+00 -1.1643930966908278e+00
    2.3963011598306365e+00 -1.8581239219158974e+00
    2.0023282871509860e+00 -1.0494305126252832e+00
    2.0049279867596446e+00 -9.3222114304599679e-01
    2.0000091710831276e+00 -9.9697620244907259e-01
    2.0102091849994244e+00 -1.1062739646634878e+00
    2.0205310373085577e+00 -1.1539193323238059e+00
    2.0140073469784463e+00 -1.1255633564374756e+00
    2.0028610604067452e+00 -1.0549385372995788e+00
    2.0001376207002726e+00 -1.0118001971026336e+00
    2.0038342069938264e+00 -1.0638677473970704e+00
    2.0183302071024354e+00 -1.1448640579522742e+00
    2.0248650996897188e+00 -1.1706086162561959e+00
    2.0123586552814614e+00 -1.1175204223522195e+00
    2.0002168355548702e+00 -1.0148341540675037e+00
    2.0023125963843449e+00 -9.5305293646085276e-01
    2.0095011789318651e+00 -1.1023402765857251e+00
    2.3031376608280629e+00 -1.7226299227510424e+00
    2.0003025787617612e+00 -1.0175467385052286e+00
    2.0062895983507003e+00 -9.2377548449673197e-01
    2.0000348805684443e+00 -1.0059234433834234e+00
    2.0080365188450888e+00 -1.0937549032971383e+00
    2.0092694449084663e+00 -1.1010241698055594e+00
    2.0010450265163704e+00 -1.0328536056689765e+00
    2.0044271860961533e+00 -9.3563967855947383e-01
    2.0112401773495749e+00 -8.9945153049352755e-01
    2.0024534276775197e+00 -9.5167943839033720e-01
    2.0035205773718205e+00 -1.0611208478820460e+00
    2.0127435958092210e+00 -1.1194390151594733e+00
    2.0111060486233443e+00 -1.1110844637141097e+00
    2.0004044505924878e+00 -1.0203141990322582e+00
    2.0053700415067399e+00 -9.2935528024390202e-01
    2.0029136017430216e+00 -1.0554542453647511e+00
    2.2959313920783990e+00 -1.7117256088414170e+00
    2.0004724610948847e+00 -1.0219736843945777e+00
    2.0067731598949425e+00 -9.2101772164117257e-01
    2.0001227957587524e+00 -1.0111428927447799e+00
    2.0062562813191360e+00 -1.0822866309377570e+00
    2.0051131798904276e+00 -1.0741087809848728e+00
    2.0004654220821463e+00 -9.7865781274293140e-01
    2.0152977335284099e+00 -8.8372857507964486e-01
    2.0230574652800675e+00 -8.5924486298749059e-01
    2.0115210023500056e+00 -8.9827010288849174e-01
    2.0000699890266809e+00 -1.0084010121619349e+00
    2.0100203460720327e+00 -1.1052371549614624e+00
    2.0104862053094852e+00 -1.1077794154172633e+00
    2.0007974078705804e+00 -1.0286399297480717e+00
    2.0050965043295603e+00 -9.3111298133407971e-01
    2.0016521852537434e+00 -1.0414815680609575e+00
    2.3508807340110223e+00 -1.7932267834845810e+00
    2.0016258314150384e+00 -1.0411427092476040e+00
    2.0057921442801554e+00 -9.2673485160104174e-01
    2.0000680609486281e+00 -1.0082840066379997e+00
    2.0070728117563053e+00 -1.0877107364239920e+00
    2.0084878227927669e+00 -1.0964709875546752e+00
    2.0015152946154444e+00 -1.0396918051243120e+00
    2.0037652519239337e+00 -9.4049210385597226e-01
    2.0098193539682514e+00 -9.0569546985460292e-01
    2.0017714518440743e+00 -9.5878778827085209e-01
    2.0046439442830630e+00 -1.0705080105782177e+00
    2.0176631693121516e+00 -1.1420275538131390e+00
    2.0158577090574412e+00 -1.1341056186003151e+00
    2.0014173986375297e+00 -1.0383637241129953e+00
    2.0028585704396566e+00 -9.4794458370718837e-01
    2.0027868359013432e+00 -1.0542022951866847e+00
    2.5192753361590312e+00 -2.0255926633924259e+00
    2.0078197121655821e+00 -1.0924253865854670e+00
    2.0025277524204874e+00 -9.5097123456594201e-01
    2.0000002047698011e+00 -9.9954758739977534e-01
    2.0087138109575893e+00 -1.0978063227211738e+00
    2.0194110504680314e+00 -1.1493667141452497e+00
    2.0147424313835138e+00 -1.1290131747531262e+00
    2.0029615537966605e+00 -1.0559210790363900e+00
    2.0003323511924891e+00 -1.0183974346536409e+00
    2.0060437230568140e+00 -1.0808219560264913e+00
    2.0252352635271955e+00 -1.1719740503934020e+00
    2.0354048269588843e+00 -1.2066950122813040e+00
    2.0212312696184358e+00 -1.1567113613751869e+00
    2.0019870999726179e+00 -1.0455815204962287e+00
    2.0004826085698464e+00 -9.7827162523391242e-01
    2.0091344948196110e+00 -1.1002508644427822e+00
    2.7502504303574984e+00 -2.3190369469738368e+00
    2.0219931605960753e+00 -1.1597046344656796e+00
    2.0006996053275370e+00 -9.7389743623955627e-01
    2.0001759083208128e+00 -9.8682461910668073e-01
    2.0071082660315356e+00 -1.0879395458134156e+00
    2.0221203327011001e+00 -1.1601998994225990e+00
    2.0236178412412982e+00 -1.1659429267566184e+00
    2.0150998504166218e+00 -1.1306630917961014e+00
    2.0113951949892739e+00 -1.1125978201627158e+00
    2.0160846178422562e+00 -1.1351221915738874e+00
    2.0313154923172489e+00 -1.1933109401406545e+00
    2.0359888295032031e+00 -1.2085531418292554e+00
    2.0161506136135832e+00 -1.1354166755508368e+00
    2.0011512486093959e+00 -1.0345105613568837e+00
    2.0000574092257373e+00 -1.0076056465878320e+00
    2.0229924285236103e+00 -1.1635639342616915e+00
    3.0021332469831519e+00 -2.6205312313110465e+00
    2.0622209925048915e+00 -1.2824844318184971e+00
    2.0000735274414119e+00 -1.0086116568968921e+00
    2.0012543810139745e+00 -9.6520439584159523e-01
    2.0007765578818257e+00 -1.0282577719818959e+00
    2.0076018394983310e+00 -1.0910722580525882e+00
    2.0135262292332619e+00 -1.1232619083982827e+00
    2.0126852026373996e+00 -1.1191496544177306e+00
    2.0115260493802869e+00 -1.1132770323071337e+00
    2.0138682072606326e+00 -1.1249014256046193e+00
    2.0171945774637430e+00 -1.1400069186578468e+00
    2.0140185090972995e+00 -1.1256163316841530e+00
    2.0038515443671572e+00 -1.0640164555882603e+00
    2.0001420115833159e+00 -1.0119880786343571e+00
    2.0021198887825080e+00 -1.0471143933036091e+00
    2.0664684447250701e+00 -1.2931822138168119e+00
    3.2157859548747947e+00 -2.8669878217174056e+00
    2.1751249439427367e+00 -1.5151044353392622e+00
    2.0086701166408822e+00 -1.0975493778830703e+00
    2.0002734358244227e+00 -9.8360025770422965e-01
    2.0009058089856326e+00 -9.7035283625182456e-01
    2.0000090310676986e+00 -9.9699933865245149e-01
    2.0003164637770254e+00 -1.0179483643881948e+00
    2.0004775213405792e+00 -1.0220923266776245e+00
    2.0008238594821619e+00 -1.0291178379878723e+00
    2.0008904935094476e+00 -1.0302897061085139e+00
    2.0011480971849340e+00 -1.0344624937725031e+00
    2.0002953540563739e+00 -1.0173341794320709e+00
    2.0000175451363114e+00 -1.0041974732341312e+00
    2.0005900206799527e+00 -1.0245871430387241e+00
    2.0166592007327666e+00 -1.1376686237701121e+00
    2.1939221635111785e+00 -1.5478752807850640e+00
    3.2994909610721761e+00 -2.9618659592076346e+00
    2.4052265996431395e+00 -1.8706542782860085e+00
    2.0928563783498131e+00 -1.3546682824461642e+00
    2.0070335237214851e+00 -1.0874565696724741e+00
    2.0000004686415642e+00 -9.9931566027860619e-01
    2.0011942167086461e+00 -9.6603450939196511e-01
    2.0032072259149403e+00 -9.4494853825575098e-01
    2.0052306803163580e+00 -9.3024462563565147e-01
    2.0058348872527456e+00 -9.2647531695489127e-01
    2.0040123088674817e+00 -9.3863160494347775e-01
    2.0012825211994798e+00 -9.6482321466425003e-01
    2.0000337927150853e+00 -9.9420372161628690e-01
    2.0011654836098183e+00 -1.0347268950061419e+00
    2.0154264855298401e+00 -1.1321559189005241e+00
    2.1185408038368436e+00 -1.4086323694827443e+00
    2.4452760684011690e+00 -1.9260893563785084e+00
    3.5602531119935912e+00 -3.2528283436527392e+00
    2.7418538491485074e+00 -2.3087118852782638e+00
    2.3619997926032212e+00 -1.8092997889201075e+00
    2.1444577651187746e+00 -1.4591071277406749e+00
    2.0400373538599665e+00 -1.2211109475074311e+00
    2.0111457044403309e+00 -1.1112930542735033e+00
    2.0028213518386582e+00 -1.0545458040852407e+00
    2.0003239408579150e+00 -1.0181610563039394e+00
    2.0005468457229156e+00 -1.0236597539755243e+00
    2.0021737786741811e+00 -1.0477233557835537e+00
    2.0087576172495787e+00 -1.0980633389088836e+00
    2.0251897821830496e+00 -1.1718067419841540e+00
    2.0696141685602640e+00 -1.3009380702181621e+00
    2.1944515080866687e+00 -1.5487834528327180e+00
    2.4425021478138187e+00 -1.9222890083432558e+00
    2.8386649843010470e+00 -2.4265587444266523e+00</input_scale>
  <output_scale>
    5.2631578947368418e-01 4.9999999999999994e-01 5.2631578947368418e-01
    4.9999999999999994e-01</output_scale>
  <inv_output_scale>
    1.8999999999999999e+00 -9.4999999999999996e-01
    1.8999999999999999e+00 -9.4999999999999996e-01</inv_output_scale>
  <weights>
    <_>
      6.3985763106176291e-02 -2.1695597709531828e-01
      5.0396301763517552e-02 -5.2501531999648174e-02
      4.7208694769647605e-02 -1.4949779292774312e-01
      -1.9626076565448000e-01 -2.0402637311312891e-01
      -1.3384226178621852e-01 -6.5760425597346281e-02
      -1.5963008975440796e-01 -4.1905257534734958e-01
      1.0355580695034583e-01 1.9995292853801938e-01
      5.8469559529106534e-02 6.6851707000337129e-02
      2.0641372933655069e-01 1.1043878758319030e-01
      -3.2165435640344089e-02 -7.6970333224269813e-02
      1.3679219205667628e-01 -1.5692600958936469e-02
      -1.7102487629041704e-02 1.0291835468685460e-01
      2.6361839417879557e-01 7.1697792109844005e-02
      7.6310084034673251e-02 6.4894441971444686e-02
      1.1710931145962176e-01 7.5702142098038328e-02
      7.4806678424797074e-02 -9.3818962945184492e-02
      -6.0183657757361131e-01 -4.8166026015520301e-02
      1.2504304213127176e-01 1.3580665891528422e-03
      -1.3058123558889774e-02 3.8221699040071344e-01
      -2.0627144169565675e-01 5.7880759116256425e-02
      1.2754477027421463e-02 8.9242368204036165e-02
      3.1247656313103844e-01 -8.9384158742314909e-02
      -9.2375238108178603e-02 -4.8219195681045844e-02
      9.9834016911318532e-02 -3.6317314847877441e-01
      -7.2600146965868959e-02 5.1598348068324904e-02
      2.8098015132618093e-01 -6.1562871976784020e-02
      -6.3839697275085852e-03 2.3874161720060769e-02
      -6.6197229632492513e-02 1.5036110737792460e-01
      -5.3931375493870914e-01 -9.8284753326066503e-03
      -2.0792281871111254e-01 -4.5935842089822113e-02
      5.9488231332057669e-02 -8.2341435043310124e-02
      -4.9732039521872516e-02 2.8823259252207516e-02
      -7.3372314087875179e-01 -8.8318583393514977e-02
      1.7544177372752184e-01 -1.2171464685738688e-02
      2.8612097923343321e-02 3.5312519834710165e-01
      4.8041924656054141e-02 4.6701334238187526e-03
      -1.2389831346021056e-02 1.0221452624034964e-01
      -1.5436012856767996e-02 -2.4772603720104999e-01
      -3.7455849690014517e-02 -6.4795249201559504e-02
      2.5702407263049643e-01 -9.2032171765168314e-02
      4.5464555728398932e-03 -9.7470871203227546e-02
      4.0518432546413116e-02 -3.4885002982278118e-02
      3.4638757701742587e-02 1.0285696822710004e-01
      -1.5394572228557989e-02 -1.3233855494650848e-01
      -4.2474903843664791e-01 -3.8649183962624115e-03
      -7.2026536002151295e-02 -1.2136607219011593e-01
      8.8050328659387264e-02 -1.4509995232737244e-01
      3.3797609772369001e-02 2.1110102411718203e-02
      -1.6496770135934526e+00 4.1633189083212487e-02
      3.8316833941861461e-01 -2.5500776133604446e-02
      -5.7915744587628833e-02 8.5139920529562307e-01
      1.0943616646841450e-01 1.8313783971836814e-01
      9.7252938354934051e-02 2.3506370601256518e-01
      -4.7938698355973934e-03 2.7950486893097959e-01
      -1.7808762687912830e-02 3.1165311853808597e-01
      4.2456223651537678e-01 -1.6980753497306941e-01
      -2.0114583002875308e-01 -2.6599417065945024e-02
      2.9771595834405812e-01 3.2868868115519645e-02
      8.3428633339052594e-02 2.8374147158175883e-01
      1.0484443036596626e-01 -2.3172751958954249e-01
      -7.9778613738997683e-01 6.6058590543599763e-02
      -1.7283332422779715e-01 -1.9937530164118808e-01
      3.2058113640353110e-02 -3.6484875722573923e-01
      9.4567789034660871e-02 3.9690509475505641e-02
      -7.7156102823076256e-01 2.4164592542610214e-01
      2.3168832032341569e-01 -1.7941459053625583e-02
      -2.5281975169855635e-02 5.8901260579666270e-01
      3.8114229826828001e-02 1.5748871288534397e-01
      8.1528711584132302e-02 2.4605401720000442e-01
      4.9033690926959694e-02 2.5802771701312721e-01
      3.6637883263263143e-03 4.4570857274251766e-02
      2.4860142457456967e-03 5.3708043576940773e-03
      -1.2531225433690671e-01 -3.8141908254254379e-03
      2.3645665790487289e-01 -2.6576456985793286e-02
      1.3374336824734862e-01 2.7937282561524207e-01
      1.5634167357627593e-01 -1.7774156016801132e-01
      -5.0267671953424753e-01 6.7245462667668843e-02
      -1.6132900944563200e-01 -1.5088590168355176e-01
      1.5622848728002595e-01 -2.9013984178402119e-01
      6.1910673270746786e-02 7.5648185278145888e-02
      -8.8912030512431317e-01 2.1033226052306278e-01
      2.1014208886043750e-01 4.1942087505929627e-02
      1.2032400872791102e-02 3.7633440182776684e-01
      -7.4649608433153380e-02 8.6358911488327486e-02
      4.7702639290752497e-02 9.2740737712231083e-02
      6.5816372923342470e-02 -1.0612413522066649e-01
      1.0467643784119154e-02 9.9939953598563433e-02
      -2.2192548308709883e-01 -2.7867705535213755e-01
      1.4407028666145549e-02 5.9247494732525691e-02
      5.2454675552134997e-02 -1.0290040590953330e-01
      -1.1286255638861328e-01 1.2508390702701278e-01
      -2.9761307856230124e-01 6.0868895077267483e-02
      -1.4765948717851951e-01 -3.3037352543207879e-03
      8.1949450717060654e-02 9.1519378600754334e-02
      1.6128154222133879e-02 -9.5816286545078344e-02
      1.1843295120631227e-02 -1.4733635849012136e-01
      -1.2700307541873487e-01 -1.2193754366025535e-01
      6.6076443010222960e-02 6.1093210805441132e-02
      7.8700943993115349e-02 -1.1310019043539361e-01
      -1.1461424669179952e-01 -3.8536715882901230e-02
      -1.4744399173182246e-02 1.2350828994415271e-01
      -1.7847885799606453e-01 -2.1330408260638767e-01
      1.5317737047681343e-01 1.0730184465628680e-01
      1.7420572899427139e-01 2.0215980418835652e-01
      3.4303847730769735e-02 -1.9517840705899831e-03
      -2.7796481704523440e-01 -2.3633690057740994e-01
      4.0636592192835183e-03 -4.5926039518067327e-02
      1.3087834808761897e-02 -8.5936321589242845e-02
      3.3326901717620330e-02 1.8950580059799907e-01
      2.8341108519327257e-01 2.0904007962822985e-01
      3.0864514216828492e-02 -5.8354548752505096e-03
      -8.0486800250207761e-03 -3.3079730980886118e-01
      -5.0763829840575675e-02 -1.9834661727006186e-01
      -3.4882398039872736e-01 1.1120445860266157e-01
      3.3333583884077755e-02 -6.1305289548879194e-01
      -5.6721745772742693e-02 9.8787554201605121e-02
      7.0841651653579057e-02 -1.4083623534081377e-01
      -5.7480027413660473e-01 -2.5818149435924215e-01
      1.6826124926192229e-01 -1.2452578259401508e-02
      2.0436123303706516e-01 2.6715229343691593e-01
      -1.0683510538170352e-01 -2.7400747218734284e-01
      -4.6609985197698994e-01 -1.6726881041212452e-01
      -1.7992706294914621e-02 -1.2938405797853647e-01
      1.6494081822517728e-01 -4.1694931353735937e-01
      1.0258499852092494e-01 3.8617697364015477e-02
      4.6264875863574845e-01 2.9701786591366069e-01
      -3.1675220472986917e-02 -1.5727545018416922e-01
      -1.3843809552916062e-01 -1.3714026063223686e-01
      -7.0416823790490024e-02 2.8203133861578196e-02
      -3.4227057327475485e-01 1.6129339680262193e-02
      2.8558173384354988e-02 -7.2613017590546147e-01
      -1.0870377827855528e-01 2.3776344919025111e-01
      1.0554760554618856e-01 -2.8529441120260096e-01
      1.1113298231115532e-01 -2.7973617651354615e-01
      -1.5210152757441286e-02 -2.2120281205481485e-01
      1.0854261294322999e-01 6.8155592519801725e-03
      -1.3929982929110357e-01 -9.5764521941993599e-02
      -4.0142314710128130e-01 -8.3890782645039963e-03
      -1.9487973598552727e-01 1.4197049358016757e-02
      6.1333447711214829e-02 1.2716055974830517e-01
      3.7305200761818608e-01 6.6353884025210544e-02
      1.7841392079611490e-01 2.1983901071869369e-01
      -9.6221338027146427e-02 -1.8714853367622025e-01
      -8.3783447143249076e-03 -1.8180764916883283e-02
      -4.7660853142717025e-01 1.5741464223321885e-01
      -3.1079097060091493e-01 5.5748344154226186e-02
      -4.3112255635245927e-02 -5.0770689288044701e-01
      2.6608102681418007e-02 1.9323579391957996e-01
      1.0617590276278170e-01 -2.4217369558054161e-01
      -7.5070742957896619e-02 8.3200051119095925e-02
      -3.7274628868834675e-02 -1.8597956468307925e-01
      -1.6300698290024614e-02 -1.1379330988703200e-01
      -9.7758879531751608e-02 -2.0649283534624413e-01
      -2.8238196629398210e-01 1.9670542159587065e-01
      5.6335133979998571e-02 -1.1561384950049802e-01
      3.4475399125799785e-03 2.8477501787992136e-02
      1.6290477756853278e-01 -3.0142341502745862e-02
      1.1512670239112589e-01 1.1139110294446666e-01
      -2.9447529386211792e-02 -4.0653654990415934e-02
      -1.5676806316662614e-01 1.2158558202887766e-01
      -7.4401967380861045e-01 2.1735631045399334e-01
      -1.3357010166255243e-02 5.7210271525642897e-02
      -5.0876265670368001e-02 -1.4654423563982782e-01
      7.8527592776448163e-02 2.4541217215284128e-02
      4.8659362909616817e-02 -1.5265777738443526e-01
      -1.9098241893121803e-01 -4.1130031759452207e-02
      -2.2555018302350186e-02 -1.0199618917544014e-01
      -1.0909660591443608e-01 1.6813722247185106e-01
      1.1276701905225103e-01 -3.0119562425567664e-01
      -5.8557293102931958e-02 2.2856563313847184e-01
      2.3542591964310125e-01 -9.3740806747130562e-02
      1.8997493466482951e-01 -1.6512836544580631e-01
      -9.8120139445776244e-02 -3.3968091393107705e-02
      5.8079015940537701e-02 -1.1281566412547514e-01
      -1.8279304608831305e-02 -1.4584655623947299e-02
      -1.4646572104545177e-01 -2.5427757242552293e-02
      -1.0115825953421480e+00 -8.1575059644528013e-03
      6.0225681123457449e-02 5.8732718536833380e-02
      -6.3094058921252541e-02 -7.5126303852746629e-02
      -4.8093410520846640e-02 7.7835027011472449e-02
      5.7514825934516782e-02 -3.3071257483906102e-02
      -1.7444890741630903e-01 8.0056512176112302e-02
      1.2101771947225596e-02 -6.8829603610085943e-02
      -1.0433112688748957e-02 -2.5647232741441767e-01
      1.7878154161269746e-01 -1.5651351562696506e-01
      1.9954635916745897e-01 1.9661609452485634e-01
      1.4172075857244676e-01 -6.7391730988818663e-02
      -8.3332817790109925e-02 -2.4384491328324545e-01
      -2.7963509743501314e-01 -6.0622211807234889e-04
      6.0348887659339545e-02 3.3647665387247221e-02
      7.4361830666260301e-02 -8.9858688076186993e-02
      -9.9744924399135612e-02 -1.2404906125630787e-01
      -2.0376771111190828e+00 -1.7480952642594708e-02
      1.1097165286291140e-01 5.2703454904142868e-02
      -3.7019085654782825e-02 1.5205730564456543e-01
      1.7041637603696488e-01 1.4906765418735793e-01
      9.5496978459157902e-02 -1.5528656559859197e-01
      -3.9371841025433096e-01 -7.4037991405769193e-02
      9.0009210625669134e-02 -2.7435014046325745e-01
      2.7607000683475624e-01 -1.3232366677060403e-01
      1.7132935111441205e-01 -3.4175324106226485e-01
      1.8280192915189811e-01 2.1800350365405671e-01
      3.3855057957461754e-01 -8.6454759503126852e-02
      2.1960162929139712e-01 -7.3273483574488363e-01
      -7.4725367652903119e-01 2.5772256868472859e-01
      -2.2808248288614377e-01 -4.0635588793888033e-01
      9.1474505231415509e-02 -2.7747421611715173e-01
      -1.3201208093868808e-01 -4.4452545342437498e-02
      -2.3343272546161469e+00 3.1230490716665508e-02
      6.0806790326043997e-02 4.8490786465788076e-02
      -5.1669111682908303e-02 1.8606692609710956e-01
      1.0521461554256656e-01 2.1973899790817575e-01
      1.3746280048889500e-01 1.5987336449341058e-01
      -9.3323334782715775e-02 -2.9791612553790114e-01
      -5.0800228986730436e-02 1.1884419321224340e-01
      4.6011696859337492e-01 -1.8978851079163725e-01
      -6.2657715967504204e-02 -4.7961370829131225e-02
      1.5022125884322207e-01 1.7794485811859492e-01
      5.5138722229100023e-01 1.3037395312712050e-01
      1.7774631078712971e-01 -3.0668771280921114e-01
      -7.5066610679534451e-01 2.8770453125601358e-01
      -2.2085923983519171e-01 -3.0230060808294151e-01
      9.4998447776095431e-03 -2.3175139989056523e-01
      -5.0347962399768402e-02 -4.8334199893022373e-02
      -6.1927726165376917e-01 -2.2010042555721876e-01
      -6.5403530341018423e-02 -2.8167368467285622e-02
      -2.2673378013637696e-02 -9.0358140254904754e-02
      2.4508782139812103e-02 1.5721169639426491e-01
      1.0663706422523461e-01 -3.6165609924388831e-02
      -2.4335932731452719e-02 -4.5111315724461797e-03
      -5.8765745867255942e-02 -2.3123191984019492e-01
      4.7983872365827157e-01 9.0133824064345586e-02
      -2.3314929158845155e-01 -1.3138765375749931e-01
      2.9666947323318882e-01 9.9911137415596665e-02
      4.2192232675792757e-01 1.8801604093722432e-01
      2.2366232334350120e-01 -2.6891759722278574e-01
      -1.6825720473443587e-01 2.7421285368792014e-01
      -2.6050375033874684e-01 -2.3494485670646278e-01
      6.5883874392951652e-02 -1.9333273056283282e-01
      1.7999526678322796e-02 1.4480768822656278e-02
      -5.5177865750786259e-01 -4.8835805373562213e-01
      3.5341164141026261e-02 2.5593561528346087e-03
      -1.3937913605046455e-02 1.3554172598735287e-01
      2.5506015405015464e-01 7.0734482745628435e-02
      6.6842237256160827e-02 1.2148564439356893e-01
      8.6341905362611507e-02 1.0778120723357128e-01
      -2.0610105629042069e-01 7.7306701822488957e-02
      4.0282711959294770e-01 1.3615886048881784e-01
      -1.6906337536525887e-02 -1.9981334543075421e-01
      2.7642936058310458e-01 7.7302737584564990e-02
      4.8751222228980673e-01 6.6046437283759349e-02
      9.4074273125168251e-02 2.3388925673610705e-01
      4.6834457859055489e-02 -1.0919044921453512e-01
      -5.6382517470612917e-02 -1.8024319583104567e-01
      -8.1965580847631808e-02 4.6617622844251617e-02
      -1.7824577700877860e-02 9.2437238677921765e-02
      -4.6568490881977148e-01 2.5616815872861931e-01
      -1.6047108910207178e-01 8.7681394136089053e-03
      -5.1046225424259094e-02 -4.8538212294868328e-02
      -2.5061132514568812e-01 7.9243476244002534e-02
      4.5788930581052441e-02 1.3031142902050952e-01
      6.6364128739233419e-02 -1.8457738996970272e-02
      -8.8785758013518790e-02 -2.6613879844172900e-01
      2.4383129984181989e-01 -3.1654367798145311e-01
      -2.0439563843611760e-01 -4.3578302096962465e-02
      -4.8159633085298725e-01 7.6272938194974951e-02
      -4.9998218486133950e-01 1.2809956427986854e-01
      -2.0609684743886697e-01 5.9057447427539995e-02
      -1.7275836566118599e-01 -2.1811110800420929e-02
      1.2443632918829362e-01 1.1215068482404326e-01
      1.0624578866628843e-01 2.5349702813544894e-01
      -3.8637638291851510e-02 2.2794163079114371e-02
      -4.3737234179718887e-01 -5.5221209186029567e-02
      7.0698795077388382e-02 -2.8906176474624866e-02
      1.9917494127353733e-02 2.1140384876094728e-01
      -2.0386161766501365e-01 -6.8308381155381620e-03
      -4.0317467524095825e-02 4.4710179654417662e-02
      -2.8481690019876181e-02 -2.5619073994045360e-01
      -6.8208908291282191e-02 -1.1568337106560028e-01
      -4.7980207894567681e-02 -8.2744470747916174e-02
      1.7518533457819622e-02 7.7266672891666962e-03
      -4.4439459107846685e-01 -2.5613324628738724e-02
      -5.9445886362199785e-01 1.6169920271035873e-01
      -1.3476387036645734e-01 7.8727502821492587e-02
      -1.1224621347651535e-01 4.3623335170957900e-02
      1.7005662992295970e-03 1.7595523407004132e-01
      1.5025443290905666e-01 3.5696130993595687e-01
      3.4918018820346820e-02 -1.7236591509112351e-01
      -8.9363473074647293e-01 -4.1372076614069053e-02
      1.7915510915148694e-01 -4.7561046044344302e-03
      -3.8035433759220194e-02 5.4664245027622771e-01
      -2.2149899048255223e-02 1.3497136413283692e-01
      8.0921376653583427e-02 -3.2351824714159254e-02
      -2.0202927891068628e-02 1.1753568584836306e-01
      -1.2762890379920209e-02 2.0934100566639205e-02
      3.2502278512551402e-01 -1.6492491741033713e-01
      -2.3895865308882722e-01 -1.9936248311787606e-03
      -3.1033833233932172e-02 8.7624235783658900e-03
      -1.2626706081220024e-01 1.4478702329865853e-01
      5.9374026542781982e-02 -2.4324207827338520e-01
      -4.5529778185388625e-01 7.6150791872033469e-02
      -1.3038389315915291e-01 -1.0326867850732545e-02
      5.6410578049826007e-02 -1.4395945044110064e-01
      -2.9172056130248213e-02 -9.9615744267789907e-02
      -3.7574551450475618e-01 -4.6107709999441714e-02
      1.5708236986539112e-01 6.2897030405765064e-03
      5.7884744798204942e-02 6.7376697047403733e-01
      2.4216559315970925e-02 1.6922733995062378e-01
      4.6452339730725885e-02 1.2850523579621095e-01
      -1.4855089949461728e-01 -3.5854886771273276e-01
      3.3462003899159459e-02 -7.6783372027041469e-02
      5.6514652890727834e-01 -8.9433953779764791e-02
      -1.1842803416209577e-01 1.8123287613369790e-01
      -2.3549721966268830e-01 -1.0445478003290103e-01
      2.1817436748625971e-01 2.5243432869667559e-01
      2.1913527447221151e-01 -4.0909982754787522e-01
      -4.9030784614598949e-01 2.0098130913306989e-01
      -1.9605964354832053e-01 -5.3499672125277092e-02
      4.0664984906414257e-02 -2.8221604853209925e-01
      2.8171405358746137e-02 -2.1068650282092713e-01
      -9.7806511260350559e-01 -1.4123061422787650e-01
      8.5458270818936685e-02 3.3274804352233886e-02
      1.7040611260791264e-01 -2.7048868458641569e-02
      -3.0037192379174743e-01 -1.8367003801047579e-02
      -7.7021333518370927e-02 3.3450911980948644e-01
      -1.4799309642007477e-01 -7.2401257728053769e-01
      2.5529097749014057e-01 1.6031462623505788e-01
      3.9475888854579488e-01 1.8433899816558513e-01
      1.2957565182165162e-01 2.1346844120129993e-01
      -5.1246100995633348e-01 -3.2486813884190874e-01
      -1.5745677519917212e-01 3.7630161747915719e-01
      -1.3229665580238398e-01 7.8471408528294095e-02
      -1.2528842563485232e-01 3.2922641357639748e-01
      2.9855801318975034e-01 2.9408159561860148e-01
      1.8284055812714967e-01 1.1442235798821340e-01
      1.4722343652674086e-01 -3.9047715404965716e-01
      -5.2000408114681074e-01 -1.6065458508154185e-01
      1.0970217140565269e-01 3.1671429902472986e-02
      5.7183871791712471e-02 3.8236865434998511e-02
      -5.7481378182811203e-02 1.3377912343614445e-01
      4.7549481353013796e-02 -2.8160349556587951e-02
      -2.1857500454144066e-01 -2.3949979241336697e-01
      5.5124221386834045e-02 7.8513599790321936e-02
      3.5529437063624547e-01 1.8776195904724308e-02
      -1.8626070048005455e-01 -1.3437372349792770e-01
      -2.6564921410261411e-01 -1.5262179136397463e-01
      6.7271892161676297e-02 1.3599634639571259e-01
      2.2595653436907834e-01 -3.3726424389341936e-01
      -4.8787572554115144e-01 3.2768352374469761e-01
      3.7156863481629096e-02 2.6854754858041542e-02
      1.2123672863706214e-01 -2.7902689025192534e-01
      2.2796592444334213e-02 -3.0321257754781455e-01
      -4.8518280016400961e-01 1.7154076285662304e-02
      4.6432660367976011e-02 1.6174828451075266e-02
      -4.2973124993347309e-03 8.5622815747868716e-02
      1.5285846666792788e-01 8.8267082582749665e-02
      6.8820488740946983e-02 1.3011945829026893e-02
      9.6259474265621273e-02 3.0692098841802636e-02
      3.5431937085315147e-02 -2.5323690435471051e-02
      3.0427413797679825e-01 3.2256786626214604e-02
      3.9100860372190977e-03 -1.0824278371824415e-01
      1.1143792929332279e-01 7.1218713462589511e-02
      5.5757710108328140e-01 1.2444862669970834e-01
      3.2496632109081763e-01 2.4881028366031135e-02
      -4.1519990614014135e-01 8.6891648877966049e-02
      -3.1857767943847698e-01 -2.6837714908305255e-01
      -1.1680070679057331e-01 -4.1513785546917220e-01
      2.6949908480949376e-02 5.5982394810071077e-04
      -8.6790682467172497e-01 2.6064513372484499e-01
      -1.5335395782594832e-01 8.0152797446455537e-03
      -5.9746666592648018e-02 -1.0413155076017876e-02
      1.2001172031739500e-01 1.8526895342576191e-01
      1.2642485791065719e-01 -4.7532715614653026e-02
      3.5080927166707458e-02 -5.8290992408135442e-02
      -2.8419777011212923e-02 -1.7011880794361525e-01
      9.4744956943560818e-02 1.6760919380228717e-01
      -1.4639975140907441e-01 -1.5782770618452227e-01
      2.6559572995692171e-01 7.4432394917041636e-02
      4.8177680848657078e-01 4.9479123252046793e-02
      3.0311759553566242e-01 -4.5002578983488950e-01
      -4.2011813737665182e-01 1.8012958305964166e-01
      -3.7616538408732869e-01 -3.8390322153711787e-01
      -1.9923951398549253e-01 -3.8498750610543880e-01
      -1.0330807199533776e-02 -1.7250327547409551e-02
      -6.2853317240503326e-01 3.6722625635436607e-01
      -1.4186655690520769e-01 1.0406990175959330e-02
      -4.2098246607938317e-02 -6.3040440922798383e-02
      5.5493609899427358e-02 9.9178946407795940e-02
      1.0623201058719633e-01 5.7408517514884232e-02
      -3.2833253777379348e-02 -4.1392633549368851e-01
      -6.3528091497405126e-03 -2.3109289318926026e-02
      1.0701208337889176e-01 -4.0074610583039599e-02
      -6.4652919285554916e-02 -1.3843177422640945e-01
      2.3561324341197570e-01 4.7362200255000798e-02
      4.0780507816105105e-01 4.0713534335414955e-02
      9.5077682485643356e-02 -9.7465377285275365e-02
      -3.3079918814843801e-01 1.2633224043080485e-01
      -1.5614675713778897e-01 -2.2900517103873846e-01
      -1.5896013553352892e-01 -2.5916120392014913e-01
      -1.1381292805583928e-03 -1.4930812377393582e-01
      -6.0518441206321472e-01 3.5333371713451955e-01
      -1.6047109067369791e-01 2.5221878408084798e-02
      -7.8513457452067961e-02 -8.6666490095271762e-02
      1.0198767505792314e-01 1.6886716894511455e-01
      1.3197477374961261e-01 -6.0494733828832449e-02
      -3.5430197049953277e-01 -1.7882320175795238e-03
      -1.0759032887257189e-01 -6.2888845399870580e-02
      8.1913314829691608e-02 1.5415161611414740e-02
      -7.2650540361013191e-02 -1.8093953633736973e-01
      4.0617549091755706e-01 7.2827123737553165e-02
      4.6147737813119472e-01 -8.1157769872500549e-02
      2.4494344907159615e-01 -5.6337489568528609e-01
      -3.5235404749535681e-01 1.2982447044789380e-01
      -2.6745656158405079e-01 -3.7328697710888070e-01
      -1.3582238567835697e-01 -3.3150087552705476e-01
      -1.0236805459591214e-01 -1.7431684037983758e-02
      -3.4738369832909632e-01 3.3071872408959357e-01
      -2.3917643557800247e-01 3.1023293455348166e-02
      -8.6766960501930723e-02 -5.5050711302256507e-02
      1.9113474342025866e-01 1.1916077598082959e-01
      1.1217243760247085e-01 -2.9499415702713316e-01
      -2.3895038268346278e-01 7.5402051940659520e-02
      -7.1041398496361111e-02 2.5368623463514872e-01
      -2.3078760053717659e-01 1.5593717067510998e-01
      -4.6623375809745730e-02 -4.3197472441865531e-01
      4.9520187917276737e-01 7.5493851502986042e-02
      5.7150082730999485e-01 -1.2976405095726803e-01
      3.2014119409401648e-01 -2.8720367498225963e-01
      -2.0604999047832420e-01 7.3052637371353688e-02
      -4.5098230635210873e-02 -4.6564306566229158e-01
      -1.1796730428363415e-01 -4.3052144815102789e-01
      -2.1842679108390142e-01 2.1731155394721469e-02
      -7.5882428049975831e-02 1.1080424948564160e-01
      -2.3201060328700721e-01 4.8098794642697708e-02
      -6.4939806944449271e-02 -2.4600785172122880e-01
      3.0799964031567425e-02 1.7624112962705628e-02
      5.0092112765879576e-02 -2.2532429332545992e-01
      -1.2538534587541367e-01 -1.6319840102656397e-01
      -5.5008708253808332e-02 1.4444783877813400e-01
      2.2144650625892276e-01 -1.0354976073456576e-01
      9.0938558357006261e-02 -3.2725018319489213e-01
      2.3460240160495882e-01 -2.0883985602042625e-02
      3.5867257006485087e-01 -1.8668150458967889e-01
      9.7946280283799814e-02 -2.9474979659553918e-01
      -2.3911263867303781e-01 1.7084652816151114e-02
      -1.0490762615518723e-01 -2.8589159546705306e-01
      -5.8818827991247054e-02 -2.2570485651994446e-01
      -1.8080613035413121e-01 -1.2391413026054604e-01
      -1.0113988730621428e+00 -8.9501777966786447e-02
      -2.0132558128853803e-01 4.8249384788053913e-02
      -6.5368656142840709e-02 -2.9803227404720539e-01
      -8.5388204919606844e-02 1.7415153202313124e-01
      7.8848011367469481e-02 -2.3080068593454220e-01
      -2.6910471174280332e-01 -4.0675225181785513e-01
      5.6396861076117757e-02 -5.0228777245458878e-02
      2.6215313369471832e-01 -1.4511150065669509e-01
      -1.2556798062384777e-01 -2.3704369277857867e-01
      2.4749344214710250e-01 -4.1325130195424012e-02
      1.3185319717045729e-01 3.9613320433961336e-03
      -3.0492458236025245e-02 -3.7100250301408888e-01
      -2.8486328560706858e-01 1.6367009076196296e-01
      -1.0128032403729934e-02 2.6203766633206119e-02
      7.9866210984591693e-02 -1.7939991181892712e-01
      -1.2351322883805457e-01 6.9964410935681402e-03
      -5.0587446673631931e-01 -5.1807148652615058e-04
      -1.2222786613535580e-01 2.0799008151436923e-02
      -2.0623662651569986e-02 -3.5987185107551217e-01
      -5.6488033467967337e-03 5.9488176919800927e-02
      4.4690439627348116e-02 -2.7444189478668418e-01
      -6.8157409782672274e-01 -4.7383017807296118e-01
      1.8051077664183707e-01 1.3814867633537094e-03
      5.0627375497898064e-01 -5.3736582841705710e-02
      1.2635027488410663e-01 -2.3970436599983086e-01
      1.9975913455565095e-01 5.4889068906971351e-02
      4.5950137886158854e-01 -9.1531639947810706e-03
      1.7811810296303837e-01 -6.4459271229044934e-01
      -4.4104556033634096e-01 2.6066732168419254e-01
      1.9597684018915991e-02 -2.9978257868852903e-01
      7.9125278549841624e-02 -3.2103937550194656e-01
      -1.0217761103986464e-01 -1.3252307969859181e-01
      -1.0026077035802252e+00 5.4221811522725635e-02
      -8.6493206764672356e-02 -5.7817919997667250e-02
      -2.6777124078169307e-02 4.3574555548119662e-02
      -5.8259489852798489e-02 1.7863773941236571e-01
      1.0307908801598470e-01 -9.3823970191126441e-02
      -3.3547975855023360e-01 4.1745163813742478e-02
      9.6357291269212567e-02 -1.8669538176959069e-01
      4.8225337430723436e-01 -5.0864650560335845e-02
      -5.2284772077414381e-02 -2.5572159857973109e-01
      1.1971301110820778e-01 4.6936354973953119e-02
      3.3594817874030380e-01 1.9777173576035847e-01
      2.1547031088296675e-01 -5.0856173322573905e-01
      -3.3598333638114336e-01 1.9400530302992297e-01
      -2.4401855604480344e-01 -2.7257748008392807e-01
      4.6157950020066854e-02 -4.1592356755554533e-01
      7.3635234916720985e-02 -1.4436548875718419e-01
      -1.4302435501724395e+00 2.3930097930611033e-01
      -1.2210690186252911e-01 -9.7017694732026066e-02
      -1.3100126418181648e-01 3.5759992996384976e-01
      -6.4489835117655395e-02 5.2080301223287784e-01
      2.3029665026826376e-01 -2.9576589629433627e-02
      3.4233788753278155e-01 2.3869130058894372e-01
      -1.0814530080833702e-01 -1.5654497777218815e-01
      1.1423217362946141e+00 -7.5463152595442673e-01
      -3.8703032663975329e-01 -9.9023513629654017e-02
      2.6042495463621662e-01 2.1372652830036157e-01
      2.7066858147783912e-01 3.3634378441597201e-01
      4.3722369201043765e-01 -6.9756771517123961e-01
      -9.9407299827258466e-01 2.5981283653734766e-01
      -8.3317033907205740e-01 -5.1267143461293152e-01
      7.2821281461441026e-02 -7.5216402402592619e-01
      1.1279265232715588e-01 1.0950525026842310e-01
      1.1050458313733326e-01 9.9682464273608065e-02
      2.4028948699155110e-02 -2.9518010849326152e-02
      1.8021000719702984e-02 8.2297018335706310e-02
      1.6865903260321158e-01 3.1950876760639935e-03
      -8.8823198729611509e-03 -9.3262463697633274e-02
      6.0205088454345683e-02 8.4539767348855877e-02
      1.2068578777629610e-02 -2.1888126835859309e-01
      -4.7863595133722084e-02 1.7688895785228734e-01
      -3.3264712936863158e-02 -1.1731839410189737e-02
      1.3644491173825372e-02 -1.3197295152764943e-01
      2.6806723736870192e-01 -1.2744278329192693e-01
      8.0702460585415262e-02 7.2263704259902584e-02
      3.2501904457182834e-01 -2.1401099829973666e-02
      1.8894329250969077e-02 -6.6637281329832695e-02
      -1.2771797755655059e-01 -1.2875883666014409e-01
      6.4727700391573667e-03 -8.2092801710488467e-02
      -3.6684451277683733e-01 -3.1154371670871356e-01
      3.2731389692924812e-01 -4.5562268625979355e-02
      4.6801654758758277e-02 1.2008003311079596e-01
      -1.8676183693776902e-01 -1.1848926208871945e-01
      -8.6321852164010657e-02 2.1158564536922747e-02
      3.3430398088621471e-02 -3.7667232947550339e-01
      4.4161794650886474e-02 1.3604378151558089e-01
      5.6789994404309839e-02 -5.5066830041032314e-02
      1.8685832091711635e-01 1.9510698887892958e-01
      -3.4056770222670490e-01 -2.4209238959976886e-01
      -7.1736855335203700e-02 -2.7091286775851011e-02
      -2.1052653979316524e-01 2.2068528330450493e-01
      -1.6732735056276216e-01 1.6878330837967925e-01
      4.4969394669663650e-03 1.7945116617970208e-01
      6.5124768766948379e-02 1.3636241684396236e-01
      1.0453299543149930e-01 -2.0976360234333827e-01
      -5.5179848497494566e-01 5.5531603397897984e-02
      2.1996390050029110e-01 2.7798249259760616e-02
      5.6189481160020815e-03 5.3425884628030051e-01
      -4.8662835131177973e-02 1.4074210108096558e-01
      4.8834949262581265e-02 9.6335594215879380e-02
      -1.3195901122835818e-01 7.1067983520846492e-02
      -1.3382121780596110e-03 7.8390291587253288e-02
      3.8384206264583925e-01 -9.8792784309935638e-03
      -1.3009787912589219e-01 4.3740015178368466e-02
      -5.9098783214787905e-02 -1.0692537969889686e-01
      3.7618139098050968e-01 1.1233920099399494e-01
      9.6767570491573141e-02 -1.7582069076431825e-01
      -2.0548663970315240e-01 1.4124884256315037e-01
      7.6707903220682550e-02 1.1979775131173792e-01
      4.7689314119134525e-02 -2.9329832544245621e-01
      5.2554704355400874e-03 -2.5996009948972987e-01
      -6.2627114128839123e-01 6.8454483096408586e-03
      -2.8645939369709036e-02 4.2268980090347193e-02
      5.0599626994633155e-02 2.0110544357403279e-01
      -9.1525929860195740e-02 1.3557856376067597e-02
      -1.0617189677016163e-02 1.4424545223998941e-01
      -2.0626072284953645e-01 -3.7091377044015994e-01
      1.4570722762769295e-01 2.5324436083168334e-01
      1.5534706760525294e-01 2.8359117362205317e-02
      1.4489208077718302e-01 -5.8379530517950945e-02
      -1.2278620837048690e-01 -1.5450997470320221e-01
      -5.8777125124051609e-02 -3.9504340920759280e-02
      1.9299487176322083e-02 -4.8973653382954473e-02
      -2.1774232554972756e-01 1.0325950296303546e-01
      1.3652225414209865e-01 -4.8755494291257001e-03
      2.5610939525049017e-02 1.1550728093699092e-01
      -3.9431617356869716e-02 -2.8440117029859374e-01
      -6.5035944674610180e-01 -9.2491489083047634e-02
      7.3211950112082744e-02 2.5017556606814251e-02
      -3.8761076598764224e-02 3.9285685459010405e-01
      1.0638733854925695e-02 5.0731150984042267e-02
      5.2929490543138856e-02 -7.9334228349359673e-02
      -1.7912907016929150e-01 -1.4755682272248136e-01
      -5.9904080691677818e-03 1.9007550239007789e-01
      3.1158965877304316e-02 -1.8271631056881498e-03
      -1.4985280064668252e-01 -2.4655921596329688e-01
      2.7561260543342320e-01 6.7561628303450614e-03
      9.7642499930059898e-02 -1.2133720416639715e-01
      1.3851798361677709e-01 -3.0408744247559871e-01
      -1.9177377779017452e-01 2.8995120061403524e-02
      -4.8906178478085580e-02 -1.3992355391858047e-01
      -1.5758262217811245e-01 -1.8488626911681977e-01
      -8.3367026211121867e-02 -1.2242795211915498e-01
      -7.5417052512463967e-01 -4.0687311614567567e-01
      1.3469274242665278e-02 2.4172465007821962e-02
      -3.1450274634526890e-02 4.0108117839451929e-01
      4.8552560030154075e-02 -8.7813219360580758e-02
      1.0324151689742191e-02 -1.2538025055883986e-01
      2.1197871038751034e-02 -3.6258792242159527e-01
      9.7427192543271854e-02 2.3653323599329343e-01
      2.5889948408695858e-02 -2.9999920845146727e-01
      1.4737970066490655e-01 -1.2980258041362436e-01
      3.7030167538670039e-01 3.6435646679271287e-02
      1.8037262007603214e-01 -2.0525515157818375e-01
      1.0865452860890049e-01 -2.7151463864783065e-01
      -4.2660327870155040e-01 6.6491638411784987e-02
      -2.9805398065099187e-01 -4.1339530174457917e-01
      -2.6095821419257303e-01 -1.4395679506702053e-01
      -5.0783762975245318e-02 -2.0415121122909566e-01
      -6.7088214369284582e-01 -1.9300147291907901e-01
      -1.3125151769515489e-01 2.6415259992615001e-02
      -2.3214021133722122e-02 -1.3261750505194639e-01
      1.0119498758319270e-01 -5.0774967592493690e-02
      2.2861742361546902e-03 -1.5323430689720297e-02
      -4.3282202410405979e-01 -3.8962935555464800e-01
      1.1532644483812630e-01 1.5983330443335272e-01
      3.1594347835534348e-01 -1.2326050191475044e-01
      3.0211757877722085e-02 1.3867854949108161e-02
      -3.9652693508974213e-02 4.4719769674477675e-02
      3.3006793135376777e-01 -9.8933405713906589e-02
      1.3396986334450423e-01 -3.5968234757399087e-01
      -3.5001378400678257e-01 1.4305407839792526e-02
      5.6013774206178105e-02 -1.4448190429121135e-01
      -1.0194301018466716e-01 -1.2036951725248977e-01
      -4.3952107142860922e-02 -1.6273706974099102e-02
      -8.4073822031688783e-02 3.9154118133019611e-02
      -2.3978990460946408e-02 7.3169568875740155e-03
      1.4954695498721937e-02 -5.3798654070504465e-02
      5.7384934709763004e-02 -2.5426256562522450e-03
      1.3432688094377905e-02 -7.4064340300553588e-02
      5.7328589674434834e-02 6.5607523193294007e-02
      -1.5694175812148110e-02 -3.7327304645204444e-02
      -1.8247545850197947e-01 -1.4008366705930697e-01
      -5.0257374328610022e-02 -2.7254007094531952e-02
      -6.2269989330950549e-02 4.6426858400750969e-02
      -8.6778026400361377e-02 -7.6229625401400339e-03
      -6.1641814713150889e-02 -6.7018223599212626e-02
      -9.2046604949232655e-03 -9.3554774587712455e-02
      -5.9087740284772643e-02 -6.9931190080449138e-02
      -5.0134860012235542e-02 -7.4286785601411692e-02
      4.4014583106188696e-03 2.5670214403227815e-01
      -9.0174951549795351e-02 -2.7212134533311183e-01
      -3.1826814746498009e-03 2.9845706956355782e-02
      2.4760962309542254e-02 -1.6670358846441830e-01
      1.2160984087865326e-01 -6.2391246852304641e-02
      1.5743909220503683e-03 -2.3851376666950985e-01
      -4.1595327220664940e-01 -1.7514935086180744e-01
      4.6719262662534240e-02 1.9897362674511962e-01
      1.9054003544165454e-01 3.1068670084272942e-01
      3.9845279024813544e-02 -1.5447412329561749e-01
      3.9624058567425770e-02 1.1636136539036139e-02
      2.6006039087212884e-01 -1.3812783337770060e-01
      3.1197664338365116e-01 -1.9926435341891049e-01
      -3.5076031845832543e-02 1.4931254022437547e-03
      2.6239840181777058e-01 -1.2503561575152275e-01
      4.7537100334603767e-02 -1.4454381864661373e-01
      -1.6737299859306950e-03 -3.5523067423855657e-02
      9.8981368828766292e-02 -2.2389578440849470e-01
      -8.9438207449833301e-02 3.6650481435738035e-02
      4.9717737256219779e-02 -1.7798547347055829e-01
      6.5882654764130633e-02 4.1506937476368543e-02
      1.0074779147742142e-02 -2.2468846677567164e-01
      -2.5956349618053198e-01 -1.2604272484203688e-01
      2.6607325755839344e-02 4.9780871073235040e-02
      1.7634146915834067e-01 3.3371282451495921e-01
      7.9293139543189908e-02 -1.1686437657042437e-01
      1.6878818459041228e-01 -3.4660398919969949e-02
      1.6747813440752224e-01 -1.3614981917127661e-01
      1.7754674397306555e-01 -4.3411355622458653e-01
      -1.1785811161441954e-01 7.5814674583695122e-03
      7.6393887848454273e-02 -1.4182668208580199e-01
      5.7902008534003103e-02 -1.2928669213602817e-01
      5.2937246303150429e-03 9.1927987818105544e-02
      -2.6159475686942006e-03 -2.6968205278893703e-01
      -2.3391678378196040e-01 4.3639249209835390e-02
      2.2365610065080772e-02 -3.0113970909436671e-01
      7.1915426483709173e-03 5.6701757586048583e-02
      1.9226496213243360e-02 -1.1242376811462987e-01
      -2.5729681646660846e-01 -2.1602259557155226e-01
      1.0590305511969465e-01 1.3153231545689339e-01
      2.4573906488718034e-01 2.1702384434250543e-02
      -1.9690527937961954e-02 -4.6983877813545939e-02
      1.7247092829625685e-01 -9.9261784755190943e-02
      8.9031177638884143e-02 -1.7768228385592613e-01
      9.0555527209203582e-02 -3.1758654008107640e-01
      -1.3495717841617411e-01 -5.4809471206033404e-02
      9.8124759756063912e-02 5.2988997256589787e-02
      5.3624100360415788e-02 -1.1270668099749215e-01
      -9.1294332908395965e-03 -2.7563737401359745e-02
      2.9704506712919176e-01 -2.6521034676568839e-01
      -2.6650391599577172e-01 -2.2581410717173872e-02
      3.9272038266764474e-02 -2.4991561594197864e-01
      -1.4581234286854666e-01 -5.1107766668064811e-02
      -7.1047001688604935e-02 -3.3518014622848383e-02
      -1.1862578520276402e-02 -9.8197418057734742e-02
      5.7407628174471786e-02 -3.4569262464572821e-02
      3.2917314680017412e-01 -3.8061787306395128e-01
      1.3907238496029570e-01 7.3992319899062367e-02
      8.2974566407744393e-02 -1.4844468975771213e-01
      -3.8167344151755253e-02 -2.0845543567867419e-01
      -1.7851528814142903e-01 -7.7200635964865871e-02
      1.1346863687137494e-01 -1.6907541119569039e-01
      4.8659456869608396e-02 -1.4087238431031835e-02
      5.3063666862372606e-02 -8.7965239872510675e-02
      5.9934597543765010e-03 -5.5831183343281160e-02
      6.1694395672627814e-02 -2.1875541683920113e-01
      -4.5228534020990596e-01 -2.8288182966218663e-02
      3.7396565395560966e-02 -5.9714520527063719e-01
      -2.8899775244869946e-01 -1.1488029762862415e-01
      -8.6734366847632360e-02 -2.2128447734642170e-01
      -2.5412437617535616e-01 -3.9856422181584072e-01
      2.4803944820333332e-01 -1.4814228014261724e-01
      3.9797673150486679e-01 -2.1727353825414314e-01
      1.4258642578998323e-01 -7.0831353665076785e-02
      -3.3582421439573679e-01 -1.9984725201394168e-01
      1.3896386138239261e-01 -1.4715578881910946e-01
      -5.6009801337751790e-02 -2.5021429245246707e-01
      7.8386853267816414e-02 1.2607769592977533e-01
      -2.7891405861102697e-02 -1.4291145040595116e-01
      1.0271131824270739e-01 5.5106907766680278e-02
      -4.4507169372269131e-02 -1.3723387627923087e-01
      3.6391396461943265e-01 -3.3346194485397096e-01
      -1.7134011181969383e-01 -1.4788096122816128e-03
      2.6044987531194511e-02 -2.8001491126385353e-01
      -2.9395302717323218e-01 -1.3505205321660468e-01
      -6.8904189400184487e-02 -2.1313218902436065e-01
      -5.5932662629037774e-02 -3.3006465720716477e-01
      2.6061714438354228e-01 -1.1335671391213117e-01
      5.2444604088304220e-03 -1.9380295628954977e-01
      2.1345749753939985e-01 -5.2711769066831275e-02
      -1.6584346757059271e-01 -1.3058238722739704e-01
      -2.4852570371235508e-01 -1.0257638916550338e-01
      -8.2639326290314938e-02 -4.1050181311916005e-02
      6.3399796040026518e-02 1.6062853585928941e-01
      -1.7393555311453021e-02 1.8231629266834696e-02
      1.9083770239681533e-01 2.5989520471968858e-01
      -8.3798471884551556e-02 -1.8158126542991260e-01
      -4.7492489281126635e-02 1.2046439109078211e-02
      -1.1463867914933222e-01 4.9492134891248082e-02
      1.4325904576418684e-02 -1.3517098504139741e-01
      -1.1676667633394384e-01 8.5785958962789496e-02
      1.2241065662238093e-02 -1.3993207998424775e-01
      2.0275885471640585e-02 -2.4283063949805253e-01
      1.5446862874457093e-01 -8.9421912673586554e-02
      1.0752770611926905e-01 -6.5464448555295388e-02
      1.6921575057316654e-01 -1.5913495180280077e-01
      -1.2256499743004427e-01 -9.7862743893654805e-02
      3.0872800391757604e-02 -1.9097368450536115e-01
      1.9538062003944569e-02 8.5671191732497459e-02
      -3.7874431046986234e-02 1.5088650998125307e-02
      1.6732061976409818e-01 3.8333906920747299e-02
      7.2864156222592277e-02 -7.5760538523712423e-02
      -1.3942938081137007e-01 1.4282246244226946e-02
      -8.7445620068425067e-01 -8.7510291064981136e-02
      -7.7132877887342910e-02 -5.3102932694302829e-02
      -1.1601218500610350e-02 -1.5889277162955193e-01
      -8.8784550150970268e-02 2.2700079063414572e-01
      9.9050734587417380e-02 -1.0904024386309531e-01
      -1.3370362023887533e-01 -9.4610145301914972e-02
      1.3497376780030307e-01 -2.0990829210744696e-01
      8.1069388367082118e-01 -1.9804785686024373e-01
      3.5990683547791127e-02 -3.8316170241633779e-02
      -3.9349437375384572e-01 8.9187908579879141e-02
      1.2745284460195055e-01 7.9327757992114140e-02
      2.7950046001808604e-01 -1.4830957580838955e-01
      -3.1258440340843779e-01 2.1421682020356331e-01
      -2.1801979067547311e-01 -1.3490544564544460e-01
      -3.5966701339106094e-02 -2.8470155583659917e-01
      8.2983953542811739e-02 -3.2668259978191664e-03
      -4.9687886830987876e-02 3.7399831903402896e-02
      7.1030806246096506e-02 2.2607981722842903e-02
      7.0464972864031153e-02 7.4074135287758941e-02
      -2.3139998004935818e-02 -8.7812303657885758e-03
      -3.7686113031812289e-02 7.2902028454363291e-02
      -2.1954833847860550e-01 -2.2196567685455126e-01
      7.0107679094508699e-02 1.9320426479758529e-01
      9.4148302841508616e-02 1.1315504269626760e-01
      -6.1783687767623802e-02 5.4793500691018980e-02
      -6.0053591259238148e-02 -1.9430026403584746e-01
      -1.6975355042747478e-01 5.5666963156931169e-02
      2.7679917293426396e-02 -2.5551677799687667e-01
      -9.9884976334459724e-02 3.2704990749079991e-03
      1.3252981812418152e-01 4.5169289570406508e-02
      2.3323891028245676e-02 5.0084700064823105e-03
      4.4705450978374764e-02 -1.3817317766496420e-01
      1.6982073674031933e-01 -5.4679397154416769e-02
      3.7754286527395681e-02 -1.1891709336738091e-02
      7.5554387521373431e-02 6.2391945781473224e-02
      -8.2343823575988920e-02 -1.3955601750536903e-01
      -8.6244132916948130e-02 2.5787083293866524e-02
      -8.1078177560125322e-02 -1.2981269207136020e-01
      1.8904373666845939e-01 -3.9701334856795653e-02
      -1.8987426008431472e-02 -7.0883402794042469e-02
      1.6604939047807241e-01 8.6959763561526446e-02
      -1.2891619154610179e-01 -2.0669757472843175e-01
      1.5579047597919024e-01 -6.8350003134623361e-02
      -2.9290760519449927e-02 -6.8967095649527646e-02
      7.1188951213536938e-02 1.0933942738497951e-01
      5.7463591303146905e-02 -6.3045864039407679e-02
      4.3792892206179108e-02 9.9883127628170674e-03
      3.4110017269705729e-02 -1.5622768907334941e-01
      -3.0645541509711055e-01 -1.1156443465289248e-01
      1.0948697989694639e-02 2.7938298733458825e-02
      1.6560614490078049e-02 1.4646956847421175e-01
      -1.0644169509810809e-01 -1.5102099672982901e-02
      -9.8174551746001270e-03 8.4364146851685307e-02
      -1.8409853085713629e-01 -1.3015417839759749e-01
      1.7673344579274622e-01 1.1458639457770239e-01
      -4.3721709693112024e-02 1.2636450762029404e-02
      -9.7240477389026921e-03 -1.0830232854648947e-01
      2.0112563322789712e-01 -2.1459707753913423e-01
      2.9054101237616597e-01 -8.3618554445161059e-02
      1.0791857457991733e-01 -1.3139120447917230e-01
      -1.5679202945862864e-05 9.6677998145234700e-02
      7.0304875554539223e-02 -3.5270534712683030e-02
      7.0052188475332377e-03 -1.6527701632269240e-01
      -6.7176508545863212e-02 -2.1022220615125767e-01
      -2.4155180429611381e-01 2.4582296380258764e-01
      -1.1573512402880423e-01 4.0975916906030703e-02
      -4.0321033148592650e-03 -9.2116358483664049e-02
      -1.3040141610288894e-02 -1.1730345182813811e-02
      3.1490265820862916e-02 3.0110822297483186e-02
      -1.5712560981398832e-01 -1.5492046465090320e-01
      1.0914004344225879e-01 -1.0010034976855138e-01
      -2.1422316425190085e-01 -6.2150935099973208e-02
      2.8420271463253641e-02 -8.4686535858854717e-02
      -2.3258190572126133e-02 2.7597701654785013e-02
      6.4767824699024354e-02 -1.4157344777060249e-01
      -8.6484712263052918e-02 -1.0247364883750648e-01
      1.8695531162893711e-01 9.1862610705366818e-03
      1.0436534679008959e-02 3.2516689793304993e-02
      3.2092678414703119e-02 2.6461394605810012e-01
      -5.5875383831896393e-02 -2.9056690856538284e-02
      -2.5508039749433398e-01 -1.8668283592575402e-01
      1.0643591703875838e-01 4.1841210342734893e-03
      8.4135482939723030e-03 3.9571762010640846e-02
      -3.2317558276031270e-04 2.0022695716645930e-02
      4.2428364100402773e-02 -8.8856809602186143e-02
      -3.7556764716375701e-02 -2.3610592379409137e-01
      2.1287531268298514e-02 -1.2489503293808271e-01
      2.5506132533921427e-01 2.7341629532629252e-01
      -2.1665345033888631e-01 -7.3092534617064636e-02
      -3.6503171477211820e-02 -6.2189912035883399e-04
      2.5410682670235235e-01 3.8771780330686914e-02
      2.1417984207065818e-01 -1.7385051710748420e-01
      7.8698813485995736e-02 9.1976466018999198e-02
      1.3420832736386348e-01 5.1562268497316946e-03
      -6.9618436128141253e-02 -1.8125039697112119e-01
      2.5243917370797554e-02 -9.0234506660663960e-02
      -4.0291844715449809e-01 4.0091129282534214e-02
      1.4531749838137420e-01 -3.7087503148634023e-02
      5.5219641027505498e-02 -1.2371156385292892e-01
      1.1082974962105427e-01 -6.6429667882852872e-02
      -3.0487299657324784e-02 -1.4942241779716673e-02
      1.4669034938766828e-01 -4.8216320778157340e-01
      4.9614463405266589e-02 8.1196933940247309e-02
      -5.0378607031910166e-03 3.4515513636020762e-01
      2.9650857289596003e-02 5.8311545485875305e-02
      -1.5988910747445803e-01 -2.7757847439343855e-02
      2.9623988615473308e-02 9.8560103054607121e-02
      1.0590414784136766e-01 9.2985392934879951e-02
      -1.8850497857633011e-02 1.9424297737435176e-01
      -1.3842475257676565e-01 -1.5206665572322495e-01
      -1.5350927820821275e-01 9.4853447806348662e-02
      1.1188153469036848e-01 -6.0486949361771840e-02
      -5.2600059678737809e-01 -2.6245771700329098e-02
      -4.6748937830067172e-02 -2.5652455717720089e-02
      7.6326641922297628e-02 -4.5924645413070753e-01
      1.3828255067623507e-01 -6.3483590987733249e-02
      -4.8251412778551904e-02 -1.7884497045823830e-01
      3.2238534886803921e-01 -1.7318632818195798e-01
      -7.6854761628476084e-02 1.8917567198089423e-02
      -7.2951314448930868e-02 9.2523562923679289e-02
      -7.4140089415717595e-03 1.3007879236003048e-01
      2.4197417524884739e-02 -4.6462348884677381e-02
      7.7015726583029881e-02 5.1789704983272671e-02
      -7.3704007548811859e-02 3.7305585384064799e-01
      2.1350840257525172e-01 -3.7022127910880512e-02
      -6.3012052058496457e-02 -7.2490426334946886e-02
      -9.2763402448113069e-02 1.3642672342407691e-01
      4.7858221164688346e-02 1.5341405614639386e-01
      -4.5821182856195491e-01 -8.3420807556956814e-02
      -1.0042713858773247e-01 -1.3115683578984313e-03
      3.8610406018761118e-02 -1.6004527131532989e-01
      1.6682774498281080e-01 -3.8604756667564355e-02
      -6.5690802855325114e-03 -1.7059692546997898e-01
      9.4773663273599804e-03 -2.0446949880057405e-01
      -1.4605881926722963e-01 -1.9595322207698433e-02
      6.4085120882860974e-02 1.7645778885931401e-01
      -1.5703708948762196e-01 -7.3633736526900695e-02
      6.7604133696319721e-02 -4.0599466179296821e-02
      7.3737235101726639e-02 -1.0091352195425191e-01
      1.0213847848649804e-01 -6.6336236406973462e-02
      6.4577094267829482e-02 4.7158975339531839e-02
      -5.0173127988701605e-02 -7.8810223818409880e-02
      4.3598814741913135e-02 -3.7221844314528234e-02
      -3.2492427669219406e-02 4.2978919236165314e-02
      2.6251423319455017e-02 -2.3683189464995419e-01
      6.6241387801645466e-03 2.9314363621304731e-03
      7.8366205633535982e-02 3.5391637976917058e-02
      1.2892497662475544e-01 -9.7331549954243285e-02
      -5.7266610019203593e-02 -2.2292816633402102e-01
      -2.7036949690554102e-01 -2.7136134618209456e-01
      1.9684785693090248e-02 1.1214543083686743e-01
      2.8692519766949121e-01 4.0279408669365352e-01
      6.6929719892642139e-02 -6.3118751025279141e-02
      -1.2460495688998467e-01 -1.2980326306721152e-01
      2.0634973448379818e-01 -1.6237119206459891e-01
      3.5951079842481126e-01 -2.3086765049810279e-01
      2.2299683005817966e-01 9.6107361982368258e-02
      1.9727452449248872e-01 1.7900954937196522e-02
      1.1238903168749877e-01 -2.3686567966064612e-01
      9.5081142325529108e-03 -2.3054271987988928e-01
      8.5496837309136556e-02 -2.7653128833758173e-01
      1.5544117097510560e-01 3.2364195170418199e-02
      7.4142129812591065e-02 -7.8887418513760826e-02
      -6.6892276550825136e-02 -1.3662618208661204e-01
      -8.5002275716383122e-02 -9.3739833774497100e-02
      -4.9432290486784103e-01 -8.5474559957730706e-02
      6.3010387000465629e-02 3.0151804771694662e-01
      2.8523418790037325e-01 3.4772362491508851e-01
      1.0488490332980489e-01 -4.3853421061882517e-02
      -1.3984120179678611e-01 -1.8268911283652123e-01
      -1.3805983018268014e-01 -1.2273291698799658e-01
      2.6789281026803957e-01 -4.0438918639243493e-01
      -8.4533776371002484e-02 1.0363470313420892e-01
      2.9210915586079783e-01 1.0477946110084153e-01
      1.5025710803594183e-01 -1.6578112563403660e-01
      -1.1690744421222951e-03 -2.1118685893081218e-01
      4.0484781345000126e-01 -4.1033010939355780e-01
      -2.3485007930863753e-02 2.7103863566374436e-02
      1.2167716434380156e-01 -5.8074584053373757e-01
      -3.5449337712232809e-01 -1.6321099889498766e-01
      -1.2084247392830283e-01 -3.6762359898847866e-02
      -7.5887869578308953e-01 -5.0959461032856146e-01
      1.2414947742326543e-01 3.7621659021378928e-02
      8.2606928691502468e-01 2.5736765051934524e-01
      1.4354470795056215e-01 3.0337523937968326e-02
      -3.3004877276911976e-01 -3.1519763509596976e-01
      -9.6243170250031929e-02 9.9967543861494187e-02
      4.7605545180011331e-02 -6.3910523076680015e-01
      -2.0091116814989357e-01 2.6625802718752972e-01
      1.9851997096326476e-01 9.9530059995203188e-02
      2.1384140746158248e-01 6.3440619228296857e-02
      1.1944026909986157e-01 -3.6524145718091783e-01
      6.5602422649570791e-01 -2.5627800880811846e-01
      -8.4923136731634874e-02 -2.3619843161744009e-02
      7.7050779525900545e-02 -3.0174226686349720e-01
      -4.1867804297641187e-01 -4.6768983704536110e-02
      -6.1459616982036461e-02 1.2489839093893870e-01
      -8.7229160946159841e-03 -2.5810236515846663e-01
      6.8562300558623376e-02 -1.8874186447699243e-01
      5.0305853683204438e-01 -6.1066579779108156e-02
      2.9907871439181513e-02 1.2622149471419949e-01
      -6.3058964888950825e-02 -2.8554711267794325e-01
      -9.3725046688689931e-02 2.8689358499011086e-01
      -2.0886901221451851e-01 -2.5762741874089595e-01
      -3.7489603985953707e-01 1.9703785001237956e-01
      -2.0383675584918559e-01 8.0186004466283906e-02
      1.3475058246234059e-01 9.9802217207951120e-03
      2.4030439409919827e-01 -2.4376614916081887e-01
      1.0269356478227565e+00 -2.3230797060898853e-02
      -6.8622335171630480e-02 1.6498108497222407e-02
      8.1169365386857942e-02 -2.5545925062748553e-01
      -3.5547465328106859e-01 -6.1745118761340173e-02
      -8.2976931606455778e-02 5.0111051525280177e-02
      5.4103151429466634e-01 -2.4362600678038801e-01
      7.1398742376909838e-02 -2.6373689763961689e-01
      2.5977136361596120e-01 -3.2322883666913460e-01
      1.2020205475359133e-01 2.1723381590573718e-01
      -4.6389134212000945e-03 -2.0067951636169554e-01
      -3.8220216179001099e-01 1.6469286123814497e-01
      -4.3295207950956927e-01 3.9890299042837452e-01
      -1.1814204273768557e-01 1.8488824635034075e-02
      -1.8004117425945726e-01 1.9561012685687751e-01
      3.4391377653648657e-02 4.2222950898339806e-01
      1.0739395922143877e-01 -1.8427832048035619e-01
      7.4076996196066569e-01 1.1099278246364888e-01
      -6.7848773837682702e-02 -1.2378529775471979e-03
      1.1404356450576486e-01 -2.7164695616235590e-01
      -3.1947474099832757e-01 -1.3267316501728113e-01
      -1.3671265634862370e-01 1.0923471281759553e-01
      4.0075214213535194e-02 -3.3659800307546944e-01
      2.9429359262778954e-01 1.3343497595742190e-01
      -2.7101181887449965e-01 -2.7725038233901056e-01
      1.9967982665799860e-01 1.9867317910611712e-01
      -1.0172703419271518e-02 -2.0690362833526924e-01
      -5.0589214913987524e-01 1.3551521996861993e-01
      -5.6582102836730963e-01 2.9230757860768941e-01
      -3.9277355709772307e-03 7.2046799914708318e-02
      2.0738896878400523e-01 3.4816478772480763e-01
      6.7871921891716855e-02 3.2691756055892474e-01
      4.2628517251704037e-02 -1.6845773412568293e-01
      5.1101586011541222e-01 -8.3621281132127148e-02
      -1.4409540036025326e-01 5.6657916243012187e-04
      4.1046206516763606e-02 -2.8609107436676567e-01
      -2.2195676139020076e-01 -6.2362521500854987e-02
      -7.4360644018352157e-02 9.9599073047585848e-02
      -1.8802247004141098e-01 -3.2748762265526743e-01
      2.6880935260394617e-01 1.1132308295552569e-01
      -9.3149903552325636e-02 -1.3137090746840793e-01
      1.2772196030452368e-01 9.4189732082092956e-02
      -1.4792619448015498e-01 -1.8320284597854058e-01
      -3.8337529942926440e-01 -7.6237586801083321e-02
      -2.8297124611399999e-01 1.0626527581100770e-02
      -2.4077086796999639e-01 8.8477752558984463e-02
      2.1928261125658033e-01 3.6731792155004922e-01
      1.0945898189125124e-01 2.1997877419334938e-01
      -5.3240707359325366e-02 -1.6939541141064063e-01
      5.2618998444571463e-01 1.3952033316066950e-01
      -1.0675181166380661e-01 -2.1017570370922816e-02
      -1.6580893175327051e-02 7.3862424273501620e-02
      1.5573686385095754e-02 1.0558335608523534e-01
      4.2044465596666108e-02 -7.3661893744942572e-02
      9.9450113690141256e-02 6.7452396873820666e-02
      1.8725463498295937e-02 -2.3667315491721011e-01
      -2.8757809002397916e-01 3.3682090377565761e-02
      -4.2623296696281551e-02 -4.8647493824665825e-03
      2.9580391605470071e-02 3.6048809230643887e-02
      -2.1365007860857466e-01 -1.2975216893418012e-01
      -1.1963664514086740e-01 2.2796489387051991e-01
      2.4134917209699239e-01 -1.1920334234554335e-01
      1.2675817013140986e-01 1.5040083757985465e-01
      -5.7102590011924588e-02 1.0106054302550956e-02
      -6.7436096936152670e-02 1.5971502098392953e-01
      -1.6897917305643223e-01 -2.6626906198487688e-01
      1.5425218122520531e-01 4.1997399152340228e-02
      4.0440331266894718e-02 2.9391224612155470e-01
      -2.1162980831949113e-01 -1.6190847114896745e-01
      -8.8707271129212950e-02 1.1021165594467598e-01
      -3.6712234444299491e-01 -5.2639170532560432e-02
      1.9294527100006509e-01 4.4811932692602646e-01
      -1.8472082629382630e-01 2.5075831799232973e-01
      3.8953634257030800e-02 9.4267207956461097e-02
      8.7312623732136815e-02 -1.9350845169385231e-01
      -1.8383995513847254e-01 9.6022415513705009e-02
      8.3702874687032081e-02 -1.0084331775953760e-01
      -9.7345482461060701e-02 4.6238968726359443e-02
      3.3826613044168802e-01 2.2586352627944520e-01
      1.4193720488650638e-01 2.9334072393814203e-02
      -1.1500976032563157e-02 -1.8321725068630995e-01
      -5.0891327315965051e-01 -3.1245260978720507e-01
      3.0643807376367493e-01 2.5989868118356942e-02
      7.5687357025884208e-02 3.7095822561428021e-01
      -2.4167650389528034e-01 -1.5912655556119495e-01
      -9.2060087373847896e-02 1.3624059434274691e-01
      -5.9112718804425646e-01 -6.6471420639435660e-02
      2.9856022690087891e-01 5.2364316671434596e-01
      -3.7417889502918317e-01 1.4987256533375551e-01
      -2.6501408595957239e-02 1.5017921237638393e-01
      -5.7884427820132020e-02 -3.0064021559732451e-01
      -5.1129860435700425e-01 9.5930236270674554e-02
      -4.6791095318954304e-03 -2.1558644466583787e-01
      -5.7634006349454342e-02 3.1774394505066933e-01
      4.4052750872839708e-01 3.4847350047159320e-01
      2.0786311996181073e-01 2.8332909324563993e-01
      -2.4264197063907939e-02 -3.7962170692497682e-01
      -6.7940174893261529e-01 -1.5185430544413819e-01
      2.5317966495425664e-01 -3.9344565074616776e-02
      2.7642064488119050e-02 1.6730563805200001e-02
      -1.4189777307843268e-01 2.2405470366358266e-03
      -1.5672812185354320e-02 4.7961816759517696e-02
      -9.1940658963177192e-03 1.9394298651691966e-01
      1.5080665942551999e-01 1.2381842287355330e-01
      2.2788503854017535e-02 1.5236244517213257e-01
      -6.2537560943676990e-02 8.8547777348432943e-02
      2.0283588383838580e-01 -1.0409147719805524e-01
      -1.7666805222655113e-01 7.6971818941638903e-02
      -1.2371329176051406e-02 1.2587575220939110e-01
      -8.6717736929085937e-02 1.2941106953739689e-01
      -6.9315985509921213e-02 1.6206485915933280e-01
      1.3370484622073471e-02 6.3057019901351513e-02
      9.2406152289648130e-02 1.0159473832132100e-01
      -3.9172818551594857e-01 2.7203877074562743e-01
      1.4553059927930909e-01 -7.5148694117983930e-02
      1.6657782914496617e-02 -2.5273178017514327e-02
      2.2765491458272436e-02 1.6582207801346993e-01
      5.8394498667006495e-02 4.8378722006806693e-02
      3.3725671598272122e-01 -1.1171856732478268e-01
      -6.4326965931056309e-04 -2.1921324515824109e-01
      -1.5112900057488446e-01 -1.5758731444644020e-01
      -1.0982161077113566e-01 1.0197698347126206e-01
      2.3604681555265617e-02 -3.5783302938161773e-02
      -3.5199319944573376e-01 1.1970465243326230e-01
      -2.7724409473202666e-01 3.4740659509203597e-01
      4.6774476066868492e-01 1.1020148583886258e-01
      -1.2489879160662729e-01 8.3740463904214843e-02
      -6.2001614018947687e-02 1.3941469936647949e-01
      1.1754143696190017e-01 3.7557747782967547e-02
      -7.3844673626738822e-01 2.7130580879184041e-01
      1.5702090203596833e-01 -4.9794610306002990e-02
      -7.2798904510550811e-03 -1.4277827545028393e-01
      2.3254518336161842e-01 1.1505154841816072e-01
      8.1927378919102414e-02 1.6256711391205231e-02
      2.5128096574736930e-01 3.3712183805519998e-02
      -1.6682661378466010e-01 -1.8167447102319753e-01
      -4.0656996112098276e-01 2.2506809157884100e-01
      -3.4489073531754449e-01 1.2094779718229563e-01
      3.4872119997580532e-02 2.4847760839315676e-02
      -3.7392082383207415e-01 9.9581451985292752e-02
      -9.3727327199340058e-02 1.9958125559998305e-01
      4.3063326640077210e-01 1.1289353309500703e-01
      -6.6382565138318833e-02 -8.8271167892384081e-02
      -9.9011752659267205e-02 -1.9490899925103503e-02
      5.0189964991040184e-02 3.4192429602357827e-01
      -5.6485716200858194e-01 6.4876043536989753e-02
      5.0813943847106045e-02 -2.2658858733548944e-02
      -4.9696323927179995e-03 6.1108687957687910e-02
      1.7365906717650198e-01 4.3331470074606401e-02
      2.0259049179620844e-02 -1.1971631217976487e-01
      -1.6750483734045854e-01 -1.8920698970522967e-01
      3.7660891879105998e-02 1.7317200914344427e-01
      -9.5483981088855058e-02 2.9048868006625550e-01
      -3.8756033658067617e-02 -1.3788665690417973e-01
      -2.7958095138214978e-01 8.6012374378947987e-02
      -7.5726101441171187e-02 -2.1706347429709880e-02
      1.4137867145149774e-01 4.1841287110447448e-02
      2.9481804760684827e-01 -1.4881274903417079e-02
      2.3995528507961383e-01 9.2022973194571506e-02
      -6.0538731658419255e-02 7.4329123898689897e-02
      3.9957079045424379e-02 -3.3544735245595272e-02
      -3.5101984009697990e-01 1.3164900192806586e-01
      -6.0421029694479635e-02 -3.5552486018276840e-02
      -3.4225511688153083e-02 2.5885092668015791e-01
      3.7737827139635869e-03 -1.4201922614296078e-02
      -1.3717037396432482e-02 -1.9936221949115931e-01
      -9.4272119529164908e-02 5.0128494049092226e-02
      -2.9034447342559489e-02 2.6021463836992403e-01
      -6.3486169048638769e-02 -2.7289305677376624e-01
      -5.3622532322109513e-02 -1.2989418045820639e-01
      7.6780266462705901e-02 3.9564859152605519e-02
      1.3774553986388774e-01 -1.8223174976362719e-01
      5.1684074055831516e-02 -3.0261779790928540e-02
      -7.0630902597991971e-02 -1.1883651553115751e-01
      -4.4921747069880058e-02 -3.5791804163373124e-02
      2.8497899294933893e-02 -1.0657590360126332e-01
      -1.0514176572079849e-01 -6.4880659048754133e-02
      -6.7766674164367741e-02 -1.2135584891675938e-01
      -6.6831533344984081e-02 -4.9722508340633966e-03
      1.7713688177745705e-02 1.3908742337271263e-01
      -9.4151048722263507e-03 -5.0390974480511636e-02
      -2.0569058290811303e-02 -1.4376109006017504e-01
      -1.4760339675313885e-02 -1.6109111584391989e-01
      -5.6743109745273558e-02 9.5078193556798987e-02
      2.0431158810170513e-01 4.2475771691330613e-02
      -2.2326043153809799e-02 5.2240542616013835e-03
      -1.9256833821619720e-01 4.4605044578806048e-02
      2.2309713813255472e-02 -5.4992401050951940e-02
      2.2712649520099870e-01 -4.8005039514506147e-03
      8.6189954070762711e-03 1.3480948498520984e-02
      8.4281913332837251e-03 2.3797637700203274e-02
      1.1601218930898473e-01 -9.6881231750227226e-02
      -2.5967583083547803e-03 -4.2018408949748592e-02
      -2.1295978689096950e-01 -3.0761563996509184e-01
      1.5937090786827057e-01 1.2662983047798526e-02
      7.1132883810547831e-02 -8.5869326861136130e-02
      -6.9900871581866975e-02 -1.2129503549977959e-01
      -9.0107846180932372e-02 8.2004288692362828e-02
      -4.6114599114573457e-01 -4.3745320044145064e-01
      1.4433240240241330e-01 8.8510045261220041e-02
      4.1315509881485490e-01 3.3156217274381966e-01
      1.1807880438058029e-01 5.1093106586112706e-02
      -4.1070389733287960e-01 -1.5266722154885981e-01
      7.1885553703843016e-02 1.2115254240553675e-01
      1.2986967712855071e-01 -2.0650979855610196e-01
      4.5508150614621892e-02 2.4349408590729402e-01
      3.4768527339400485e-01 1.3377667376283961e-01
      1.9481375918906615e-01 -5.1188008882955612e-02
      4.9014472416267690e-02 -2.2416889460777867e-01
      1.4556971368856350e-01 -2.0948374687248925e-01
      2.5042297730708943e-02 6.3597527106892066e-02
      4.0480551495510469e-02 6.5902147695898972e-02
      -5.6809421827345073e-02 -1.5288167853237553e-01
      -6.9943829862054066e-02 6.4614666405144764e-03
      -5.7655156466157165e-01 -4.3985467601773842e-01
      1.8920384633934142e-01 -6.9829827411942075e-02
      2.7313350699808520e-01 1.9147836754372830e-01
      8.4194558036671294e-02 -8.4583982937621649e-02
      -5.4492824798806946e-02 -1.4641477984724210e-01
      1.5418873551381149e-01 3.3506128768418998e-02
      1.0765771687343120e-01 -4.7201035808688846e-01
      -1.4141603416543913e-02 1.3134523498043224e-01
      2.0949250480876158e-01 1.7346150905041987e-02
      2.1548778045694669e-01 -9.5816440178018325e-02
      -2.8242692114615237e-02 -1.2042816724243226e-01
      7.9611607733256606e-01 -3.8915736688938640e-01
      -1.3956584062154644e-02 3.0629149147403636e-02
      1.0482358128309706e-01 -9.6017704878270868e-02
      -4.4791075784627898e-01 -2.5763572761945919e-01
      -1.8125138281462619e-01 2.5837555388241062e-01
      -9.2421677977047401e-01 -8.2601162094092651e-01
      3.2089876217147340e-01 2.2783657857819123e-01
      6.2961810139356944e-01 4.8721854530526437e-02
      3.5502322168635253e-01 2.6250803174422499e-01
      -4.5136364541350521e-01 -3.2742682096373160e-01
      -3.9654439341006903e-02 1.0906168986930961e-02
      5.4323258015069303e-03 -3.6119609218290644e-01
      -1.3046895543907588e-01 1.0685060333890312e-01
      5.7210736684084251e-01 4.1096563842538636e-01
      3.2700320095660040e-01 1.2823840476937748e-01
      5.4644515931281681e-02 -3.4324032251158332e-01
      8.4999635018680475e-01 -5.2505191368335913e-01
      9.5680745633212258e-02 -6.2677292497718461e-03
      1.5053212202992142e-01 -1.1964322046871052e-02
      -5.7230280951847612e-01 -2.4460415201414121e-01
      -1.9365651351377289e-01 3.5026421155111931e-01
      -6.3382013368575330e-01 -8.8850161571568598e-01
      3.2441546153204942e-01 2.4475039995295898e-02
      6.1742317238519928e-01 -1.1276432809668004e-01
      2.3948759273954617e-01 3.6895711093015277e-01
      -6.2540330025284807e-01 -3.4672258404169587e-01
      -2.5803369975327678e-01 3.7012374950349886e-01
      -2.2433701663955535e-01 -1.5011486700219859e-01
      -1.5175646021134809e-01 2.0106563913451722e-01
      4.4501039795753616e-01 5.6492619273874867e-01
      2.9626679486375634e-01 2.8214345439592742e-01
      2.2355336189321659e-01 -6.0268099366541261e-01
      7.9347314783951195e-01 -1.3129860588729267e-01
      1.3637912172204081e-01 -1.5008920642915601e-02
      1.7593966066431210e-01 -4.6014812447447223e-01
      -5.6063514188108066e-01 -2.3860816303003665e-01
      -1.8982509148935375e-01 3.6141997881121801e-01
      7.3300830330584973e-02 -7.7234249349561279e-01
      1.6483060346102527e-01 -3.0596148490305747e-01
      9.6366736487811973e-03 -2.1473192606414454e-01
      2.1328906141980614e-01 4.4717246189215354e-01
      -4.0527082234592665e-01 -4.1188465505385863e-01
      -2.5939581614941981e-01 2.7662462299079060e-01
      -5.8169248255127481e-01 5.4747995198425847e-01
      1.4664913246411695e-01 2.0966603619066321e-01
      1.3262442775473077e-01 4.4453733952559527e-01
      1.5884188383836306e-01 5.1281598270969109e-01
      1.6625772864752603e-01 -3.6168424362114499e-01
      9.3791402991024120e-01 1.0648340176401140e-01
      -1.4727714295711247e-01 1.4457310935078200e-02
      1.4495168186904417e-01 -7.2590350285103300e-01
      -5.1035761589033002e-01 -1.2711085616644266e-01
      -1.4378287978361262e-01 1.6715499773641226e-01
      4.9377887676762489e-01 -9.1182583767211833e-01
      1.4987568912146484e-01 -2.2927483541164639e-01
      -1.9814561712904954e-01 -5.8786698354231370e-01
      9.9325438240184721e-02 3.2095232261974460e-01
      -5.2892634617855472e-01 -3.7962703162060901e-01
      -5.9277683590136432e-01 2.3706299979688714e-01
      -7.8464166753510611e-01 6.9899754940383729e-01
      2.8649159827823034e-01 8.9082026576449799e-02
      -1.0193192717080714e-01 4.8895401671822147e-01
      1.1536655726896047e-01 5.8648367360524967e-01
      5.5620248895370990e-02 -4.5842926019135602e-02
      1.0544647178715805e+00 2.8069313062498502e-01
      -2.4897680082106552e-01 -1.1096891000249475e-02
      1.3840820205452817e-01 -7.0263608408180966e-01
      -2.7190920207997044e-01 -1.6387539438951784e-01
      -1.2927365004762106e-01 8.1010935299786313e-02
      3.4303169224475477e-01 -6.4389894638666467e-01
      9.3395047353952904e-02 -3.2401133580946101e-01
      -3.8103894450292469e-01 -1.3159866158058547e-01
      8.8638663747501234e-02 2.9008933320049241e-02
      -5.2677358128924967e-01 -3.0949248015562925e-01
      -4.1642451875743935e-01 5.3146702767483150e-02
      -5.5819794216669116e-01 6.2398920027460314e-01
      5.9371735654628388e-01 2.3914298197738014e-02
      9.7461652384825029e-02 2.8337910518393777e-01
      1.1891747172120649e-01 5.2917290111415627e-01
      2.2302466211460672e-02 -6.3401155843964942e-03
      1.0042493412535429e+00 3.6978481749164044e-01
      -1.0337994805247687e-01 1.3517333580997673e-02
      -3.3461491838256217e-02 -2.0756959833921831e-01
      2.0726558965392733e-01 8.4900817089850797e-02
      5.0440284204484868e-02 1.0280925667867461e-02
      1.7201041203077433e-01 1.0226527992651258e-01
      -6.2187816363013813e-02 -3.0847086987952166e-01
      -6.4245232885368053e-01 2.2374593958079667e-01
      -1.5051096681638579e-01 -1.5311137084975274e-01
      2.1866685501301777e-01 -8.4507772338114892e-02
      -7.2483198971218298e-04 -3.0735580604877860e-01
      -1.3997672458016627e-01 2.3131015686226755e-01
      4.2942211732414182e-01 -1.6269636202654617e-01
      5.9271905508615066e-02 7.0783602087850186e-02
      -4.3266163233139587e-02 1.9647603386164817e-05
      -1.5699101458066270e-01 3.1840703857802005e-01
      -1.3624252566746053e-01 3.8391909798941838e-02
      3.9831646502178342e-01 -4.2895526337865123e-03
      -1.2376446409959180e-02 5.3178323518180182e-01
      5.6016158242481684e-02 1.9950804267663571e-02
      -1.2061340776239838e-02 8.2361645888255008e-02
      6.1657990778273213e-02 6.1196203486066314e-01
      -3.9231116897578425e-02 4.0881577442816891e-01
      -5.5782039495242197e-01 1.4405682082519423e-03
      4.9952140230390366e-02 1.0113108503712256e-01
      4.6142115207815698e-01 1.7337441070456434e-02
      -4.0315317379517457e-01 1.4262945755616237e-02
      -3.7220578102676641e-03 2.1954208036167319e-01
      -1.2178825771612499e-02 -1.5252215932346444e-01
      1.7868497522461135e-01 3.1518241286981025e-02
      3.6459523490765817e-02 1.0670912505993531e-01
      -2.5891560793568955e-02 -7.2866222443799422e-02
      -3.8695848745489654e-02 2.4834319211821121e-01
      4.4933819709294925e-01 -1.8133686625904200e-02
      2.3137719033354547e-03 4.4560895459365729e-01
      1.3980576209605006e-01 5.8290127701877206e-02
      3.7055841554357496e-02 1.3924828467799627e-01
      4.0718612972033302e-01 5.7066513846657319e-01
      -1.1143298352161619e-01 2.8174824358023531e-01
      -6.6861072133112598e-01 2.0415833069173367e-01
      -1.9728631858381251e-01 9.6983244839340052e-02
      2.8871758425961930e-01 2.3841857697210880e-02
      -4.9165404777049165e-01 8.8526175334764368e-02
      9.0775561735216045e-02 1.6692535495771962e-01
      5.1633140138173705e-01 3.9803529335812930e-02
      -2.6845027249479281e-01 -3.3382025305453381e-02
      -1.3230455512276842e-01 1.5505904365612025e-01
      2.7145350438640199e-02 3.2612820587119434e-01
      -1.4137350090209160e-02 1.3512501012348224e-01
      1.9171373099068023e-01 -3.7450633987170731e-02
      -5.3364427210218390e-02 4.9732354700897763e-01
      3.2546524503137358e-01 1.8854641041413733e-01
      1.2044452861992340e-01 -3.8345056413380443e-02
      4.3419273517270673e-01 6.1747138759044562e-01
      -2.1829251392564852e-01 3.6218553409590271e-01
      -7.5157674137638397e-01 4.0338278012172546e-01
      -1.5851820368771391e-01 -2.4745594926261405e-01
      4.8462519538983434e-01 2.0053697580272201e-01
      -1.2064484325474754e-01 -7.0391407690330782e-02
      3.5702353052584546e-01 3.6407925485314901e-01
      3.1438374171215183e-01 -2.3652145415620021e-01
      -6.8582842312161524e-02 -1.2520461629245952e-01
      -2.9206369480776312e-01 -2.0862015575649542e-01
      -7.3275612203717970e-03 3.6586619135732423e-01
      2.9532886797406094e-01 5.3940206963047366e-01
      8.2549272096930637e-02 -5.0631666159535182e-02
      -8.0063518571135264e-02 2.4635996894938175e-01
      5.4605684012311217e-01 2.6912958148242344e-01
      1.7214158936419183e-01 -7.7240208950116365e-02
      4.5398958857011745e-01 5.5011901726329615e-01
      -3.0189493276336621e-01 7.7241743227410162e-02
      -9.4054791386215897e-01 3.7602045402272755e-01
      -1.7210551208694669e-01 -2.5034674466494850e-01
      1.9176419892051005e-01 3.1988059996633467e-01
      -7.6064156437829393e-03 -1.1233155012291145e-01
      3.4595573355486842e-01 7.1918962322350022e-01
      9.2637581034846472e-01 -3.0657312692322969e-01
      1.0044644472570077e-01 -1.3601490359734716e-01
      -3.2412795387315141e-01 -4.4417519000088564e-02
      1.1379847630893275e-02 3.2850077493188945e-01
      -3.8109762724052926e-01 3.4823069530735679e-01
      -6.3006136212154229e-02 -6.3254645473064764e-03
      -1.1884216857696017e-01 2.2203246972183852e-01
      5.0390527358438697e-01 1.7509849807048522e-01
      1.4956731364694634e-01 -1.4715742059744011e-01
      5.5200608172373412e-02 8.6148891802794936e-01
      -1.8976975530784776e-01 1.5826983289418825e-01
      -7.2891347066756040e-01 -4.8592967028476479e-02
      -1.7121843472200371e-01 -3.5005236310262244e-01
      3.8929354853070780e-01 4.0801890481172043e-01
      2.0184874364014196e-01 -1.4239564518464998e-01
      2.5993066805221660e-01 -6.3448992017039019e-02
      1.6795180311929422e-01 -3.0583439746673263e-01
      -1.2765797902869569e-01 -3.4119768567070136e-01
      -9.9300407721088974e-02 -2.1221633682047000e-01
      -1.1769153401632176e-01 4.6674873129033290e-01
      -5.1725470025588172e-01 3.4829852813484974e-01
      -1.3903958416931506e-01 -1.6716928637063061e-02
      -1.5371625689187315e-01 3.4443804217052826e-01
      3.2043508079711686e-01 9.4568477709183210e-02
      9.6679128271430770e-02 -2.4874556809375861e-01
      -3.9724613252257603e-02 3.0740211773216214e-01
      -2.0165726731916964e-01 1.2022737394914550e-01
      -3.7361728631578428e-01 1.4657158560314854e-01
      -5.4035431714736425e-02 -4.5542230043015641e-01
      3.7182178133417654e-01 3.3652804024929500e-01
      2.0800289180038423e-01 -2.7455301282444589e-01
      2.9538839178513687e-01 -8.2159830053355282e-02
      4.4157973740956358e-01 -1.7912828987045626e-01
      2.0782375647767051e-02 -2.8102637782777712e-01
      -2.4437452688915125e-02 -1.3620813814407498e-01
      -2.1033433619472192e-01 2.0889389774432063e-01
      -7.2018001098391593e-01 2.1027403439777720e-01
      -7.6010370346500891e-02 -2.9348557528428104e-02
      -7.2985926658677716e-02 2.9809747249008001e-01
      1.6387955435575856e-02 3.4763503077277734e-02
      2.7991628455713378e-02 -1.1460977215742457e-01
      4.3056739560860278e-02 2.6878658968979968e-01
      -5.3038773500525146e-02 5.4356806891013638e-02
      -5.8116517630334236e-02 -2.5264424944016228e-01
      -1.1816524550527170e-01 -1.0297446324734540e-02
      1.9509550435151454e-01 8.7408814846651819e-02
      6.0420212280939786e-02 -8.9444921435254759e-02
      3.9395439649229223e-02 5.9911074312554838e-02
      -6.2370577680627558e-02 2.1142483464384392e-02
      -7.6305695027021836e-02 -1.3760191713453948e-01
      3.0526621790678044e-02 -7.6981753915806375e-02
      -1.0511144491426565e-01 4.7343522354775097e-02
      -3.7386379934336078e-01 1.0410264588859915e-03
      -1.4388973988987849e-02 -3.5058560179756421e-02
      -4.3065942789222737e-03 2.2215325671799357e-01
      2.3554256190054013e-02 8.5276213192662417e-02
      2.3306543643132921e-02 -4.4315555952165797e-02
      5.7928702953140698e-01 4.5398164269635478e-02
      -1.2503433167393799e-01 -3.5489414942537800e-01
      2.6265019229459685e-01 -2.7625467298049400e-01
      -9.7679193534347675e-02 6.9968073893104776e-02
      1.7986035071441371e-02 7.1388127732877824e-02
      -1.0016105258747116e-01 2.9742638586548936e-01
      -9.1724420604622811e-02 1.8344879191800975e-01
      -1.7255727927490155e-01 5.1588411859073903e-02
      -4.0700787336602967e-01 -1.9409588508799236e-01
      3.5763640726861910e-02 -6.0684597269822678e-02
      8.8218230816585572e-02 1.3277951203694260e-01
      1.7645328717161737e-01 -2.3134386123782466e-01
      2.0726296197676913e-01 9.9041820421222077e-03
      4.8775911193859059e-02 -9.3774955888217305e-03
      -3.1024765087075884e-01 -1.0547118043191053e-01
      -8.0540941986771086e-02 1.6720129517823856e-01
      2.2734856679022596e-02 -1.9023268198383647e-01
      2.5290252337628195e-02 -2.2700706658655259e-01
      5.5676068760191832e-01 -1.8725682911049399e-01
      2.3548552306325621e-01 1.7764461457305936e-01
      -4.8262084603779726e-01 3.6058953963788914e-02
      1.1788931673640778e-01 3.2569122045522814e-01
      -1.3224974164541570e-01 8.0182550465689131e-02
      -1.4198132284803755e-01 1.1455316396926159e-01
      -9.7209653501230966e-02 1.0202351581423899e-01
      2.5806030188828549e-01 1.9695321564556992e-01
      1.2369143750530816e-01 -8.1821333900692031e-02
      4.6582650425658484e-01 -5.2476776883058532e-02
      1.9048204669213259e-01 -3.4835630293333091e-03
      2.0677433759749377e-02 4.0588768947125053e-01
      -2.9507481750080466e-01 -8.6067358682981321e-02
      -8.1719295611782636e-02 3.5097054234463354e-01
      6.1489519346479438e-01 -1.5917246030649472e-02
      2.9672489044507359e-02 -2.4072564973215867e-02
      2.7273728782907197e-01 -4.8640924763102256e-01
      1.8079074399519332e-01 3.5054081530111941e-01
      -1.0465304001358763e-01 7.4201661095674928e-02
      -2.3270249425458253e-01 3.6915400449860014e-01
      -4.0194403252351363e-01 4.7824078626433736e-01
      1.1378923020552978e-03 -3.5460938679431474e-02
      -2.1008415644951278e-01 1.9439581159891739e-01
      1.3809213444279650e-01 7.8062793916233761e-02
      1.3645107201839152e-01 3.9015528873967517e-02
      8.7033291584493477e-01 -1.8436929883143577e-01
      6.2960531496781352e-02 -2.7553023447017239e-02
      2.1266338044699278e-02 4.6663091321488487e-01
      4.2454627294666409e-03 -8.6558424368348930e-02
      -8.5339700689399889e-02 3.0489071307178500e-01
      6.7339846790790858e-01 2.8436022703813807e-01
      -1.0768771323549922e-01 -2.5693401033188479e-01
      4.1663697782958586e-02 -4.7045225815916852e-01
      3.4068272455556547e-02 3.7761803946327949e-01
      -1.0520786138918728e-01 4.9324500974676014e-02
      -2.7314375143634778e-01 3.4937991407185182e-01
      -2.2477584088547883e-01 5.3379860018419323e-01
      -8.4245721191920836e-02 -1.9395607003293860e-01
      -3.9746852364205054e-01 8.7823333148709312e-02
      3.5920502214735930e-02 8.7474411764047230e-02
      1.6413791061613903e-01 2.1253409722155245e-01
      6.9247351107740474e-01 -1.2095055616944306e-01
      2.1056720280973304e-01 -5.7045919383469819e-02
      -2.0391689842099967e-02 4.1580082745923619e-01
      -2.9345912593550216e-01 -6.9811737007908159e-02
      -5.5994076010587528e-02 2.3693972988928297e-01
      3.1631855758850508e-01 2.7644915966994832e-01
      -1.1835742701381935e-01 4.1202825632693438e-02
      1.7994921527400340e-01 -6.1597827970679109e-01
      3.9604533846055841e-02 3.4435880382215228e-01
      -1.1095593172315470e-01 1.3484554755617020e-01
      -5.7728494197585703e-02 3.3615298070300409e-01
      -2.3622790000169253e-01 7.7864322570016437e-02
      1.4128572829509974e-02 -1.3717982132053386e-01
      -2.0010445435123286e-01 4.9339264340818395e-02
      -1.0751106032822649e-01 -1.4607139662843463e-01
      2.6999548203549500e-01 -3.1330407577562849e-03
      1.2310776480731915e+00 2.1066748375614597e-01
      9.5947380467881441e-02 -1.4337568918688830e-02
      -3.0176728843347867e-02 3.0976070129446781e-01
      -1.0027294524033033e-01 1.2472500589044254e-01
      2.7863405192415449e-02 1.4866814811853335e-01
      8.3884780713080376e-01 4.1125999337219593e-01
      -2.7939568950219290e-01 -3.7370844019916993e-01
      -7.2526729362996492e-02 -4.4809907942904215e-01
      -1.7570181667522406e-02 2.0040537713483753e-01
      7.6712816855445093e-02 1.6610165769267377e-01
      -6.5501712582283739e-02 1.2249858872562304e-01
      -3.2248570241369412e-01 4.7824057070436499e-01
      8.2333978293657933e-02 -3.1537033255953939e-01
      -2.1445514094737406e-01 1.2236486675363925e-01
      -1.8382036289320680e-01 -1.5174713659279621e-01
      1.1856522221059793e-01 3.0368648834178330e-01
      1.4367392747909837e+00 8.6000206861701442e-02
      -6.5177519342253423e-02 -1.4447568892291618e-03
      -1.5949250166075735e-02 -1.2103514199799464e-02
      -2.1180515049521093e-01 4.6720734866480963e-02
      1.8485798756377497e-02 4.7042642860406818e-02
      3.9133156228502025e-01 3.3098585665577690e-02
      -1.1308933007806812e-01 -3.7099171547768101e-01
      4.7485265347385126e-02 -3.9736729310322566e-01
      4.2051107374556126e-02 1.2859884344506445e-01
      -4.9134819642001304e-01 1.5270672023411419e-01
      -2.7060305372334337e-01 1.0015557079449076e-01
      -2.5378137502625087e-01 5.0116308229649020e-01
      4.4139063236071147e-01 -1.5031404551385877e-01
      5.6773161835358783e-03 2.6848748300426245e-01
      -3.8283356234973177e-02 1.8935664859619414e-01
      6.0277021549977487e-02 1.5590336424969800e-01
      1.6020958788940614e+00 2.9812289551522947e-01
      -3.2390790507120704e-01 1.7513749044188908e-02
      -7.0474349757150140e-02 -2.5803608227158031e-01
      1.4729564797626361e-02 -5.4948246181913456e-02
      2.4363957859701072e-03 -1.3807043291344501e-01
      9.9199483676291181e-02 -5.5133338404801537e-02
      -6.0534445711336204e-02 -4.5809418647980604e-01
      -1.2006039041324675e-01 -1.0164624325998814e-01
      1.4368998575602882e-01 -2.4488663652787226e-01
      -4.4238716726167804e-01 1.6842981500894044e-01
      2.5105050626650569e-02 -2.5283254808711425e-01
      6.8183850378311026e-02 2.2529249660849512e-01
      8.5166210336192671e-01 -2.9452110897309358e-01
      1.3627185655509949e-01 2.8724418451274911e-02
      -9.2014642793994073e-02 -7.2303940409252102e-02
      -1.2455834220977194e-01 9.8851488497746581e-02
      4.2643816820431379e-01 2.9524547825571984e-01
      -2.2783907522858132e-01 3.5153744333156461e-02
      -6.0803378399302888e-02 -5.0794742929869585e-01
      2.6512462530955760e-01 6.7262413320520034e-02
      5.0773747721990337e-02 -9.7697185175357457e-02
      -1.1770245145333652e-01 7.4919695967008371e-02
      -1.1459883591791657e-01 -2.9212910498398698e-01
      -6.5891132403129316e-01 5.6994823615516144e-01
      -1.5128613997917723e-01 -3.7405578725764893e-01
      -6.5505810736320558e-02 -4.4306689583688162e-03
      1.4912543642747847e-01 -2.5850501578993673e-01
      8.4491289853002874e-02 -1.0309819782754315e-01
      6.6580492034476868e-01 4.6728485255351622e-02
      -2.7932260275840351e-02 -1.9981147689534830e-02
      -4.2915672495674045e-02 -1.6014673144093123e-02
      -1.5386718317856002e-01 2.0933626829124671e-01
      1.4918766402694875e-01 2.7584139108782590e-01
      4.8245659911626229e-02 1.3488216306143386e-02
      -9.2286261032807668e-02 1.6136762708165436e-01
      3.6851386136898368e-02 1.0642180147320492e-01
      8.1280961608454272e-02 -2.4148054621766021e-01
      5.8117485421531911e-01 5.2541143648688449e-01
      -2.4219356206573736e-01 -1.5969644547895137e-01
      -8.4944337357859570e-02 -3.6148645047000610e-01
      5.2007227193729896e-02 7.5088932320174486e-03
      2.9685290752288102e-01 2.9957435016664652e-01
      6.9544155246943334e-03 -2.7824804368161656e-02
      -2.0675575091275505e-01 1.0094886814839213e-01
      -1.4437783384185240e-01 -8.8146248731611948e-02
      -5.7246475238965733e-01 -2.8932555709039043e-01
      -6.5969617340696967e-03 2.6366517026362609e-02
      -3.0256299773618992e-02 3.9389119736945766e-01
      1.5833372747875352e-01 4.3230248886752570e-01
      -4.0709246471180079e-02 2.2964507158672091e-02
      -1.0433009831851894e-01 1.6096418901119466e-01
      2.8642503920583146e-01 3.1290271373587863e-02
      1.0908662712418070e-01 -2.6234082479995896e-01
      2.9951095403332767e-01 2.5771928403096922e-01
      -2.2120767992609955e-01 -1.6298887080744492e-01
      -1.2321773524879397e-01 8.3347648214649780e-02
      -1.6276692417155156e-02 -2.0535974613336952e-01
      4.6515506912669813e-02 3.4896441092152919e-01
      4.6054892141145626e-01 -1.6652277360229714e-01
      1.7001779923941657e-01 1.8635294629364377e-01
      3.4712117748535937e-01 -3.2327538118975652e-01
      -2.6827477325858384e-01 -3.6225907633581800e-01
      -1.9084552086149850e-01 -8.1932990618088786e-02
      -8.5050850555501573e-02 5.2418204567614735e-01
      -4.6531118470779204e-01 4.6059066245569652e-01
      8.1149400197789263e-04 9.0651384831123231e-03
      -1.3465258466069072e-01 3.1451800151783377e-01
      3.6778087380630253e-01 1.5926654768101231e-01
      1.7537340737332660e-01 -1.7316303400882507e-01
      2.2033229715434086e-01 5.4149641047965102e-01
      -2.4655199793013993e-01 9.6900851171116922e-02
      -9.2687184836290820e-02 7.2014117062313671e-02
      -1.2473825319218262e-01 -3.2454690877837417e-01
      2.6812669196766303e-01 3.7848562316903661e-01
      4.3626191273810222e-01 -2.0539911623368370e-01
      2.5226767933932492e-01 9.6710465270915855e-02
      1.4168773228508671e-01 -2.9439842860283449e-01
      -2.6417496649629013e-01 -3.8106035581373093e-01
      -2.1732297415624710e-01 -1.8020961962490156e-01
      -7.7519808959755243e-02 4.4824873906442309e-01
      -6.8189563369725070e-01 5.8631009785196175e-01
      -1.6350397448698462e-01 -3.5007278037530007e-03
      -1.9126792581004304e-01 3.2436389234192980e-01
      2.4536808989672942e-01 3.2752196529552419e-01
      2.4045458670902584e-01 -1.0815920382618681e-01
      5.2633454716964334e-01 4.9635917644640920e-01
      -2.9234503510816562e-01 -4.9238726379078829e-01
      -2.9909647451722099e-01 -3.7120551866903329e-01
      -2.5702878279701463e-01 -9.4647744688525132e-02
      3.3762823446173196e-01 4.2942026566510427e-01
      1.6061461225892623e-01 -3.1434352945427360e-02
      -1.7142685365320759e-01 2.9970628978839281e-01
      1.8279914499557914e-01 -3.0685145391590296e-01
      -4.5981876302235197e-01 -2.6315252383363369e-01
      -3.0602855127430173e-01 1.6659646708723649e-02
      -2.9137013480713656e-02 4.5995265772778976e-01
      -5.7104687109804009e-01 5.0676475308878866e-01
      5.7231258935842473e-02 -1.7497160981500753e-02
      -1.0401578686663712e-01 3.4749518223127801e-01
      2.7430501554870002e-01 1.3741549732510183e-01
      1.0241724881221899e-01 1.1351562865177703e-01
      -1.7280896685209521e-01 4.9039639037498400e-01
      -9.3864054814691344e-02 8.7094684120986032e-02
      -3.9054921379257101e-01 1.7238538155176922e-01
      -1.0929021430551647e-01 -7.9567931974169059e-02
      7.7503932708856707e-02 2.3537300073865716e-01
      3.9482961905108743e-01 -1.1446580039397500e-01
      2.7050963263043393e-01 -2.7192152198966957e-01
      1.9859182113336818e-01 -1.4270596720958675e-01
      -6.3659912284549244e-02 -1.0181801715635885e-01
      -9.6978480818746254e-03 -1.7705232211379385e-01
      -7.4171101854791019e-02 2.6103119837785083e-01
      -6.3943958166451476e-01 6.0809263803229971e-02
      3.7366128479218884e-03 -1.1830059085402658e-02
