<?xml version="1.0"?>
<opencv_storage>
<OCR type_id="opencv-ml-ann-mlp">
  <layer_sizes type_id="opencv-matrix">
    <rows>1</rows>
    <cols>3</cols>
    <dt>i</dt>
    <data>
      256 32 2</data></layer_sizes>
  <activation_function>SIGMOID_SYM</activation_function>
  <f_param1>5.9999999999999998e-01</f_param1>
  <f_param2>1.</f_param2>
  <min_val>-9.4999999999999996e-01</min_val>
  <max_val>9.4999999999999996e-01</max_val>
  <min_val1>-9.7999999999999998e-01</min_val1>
  <max_val1>9.7999999999999998e-01</max_val1>
  <training_params>
    <train_method>BACKPROP</train_method>
    <dw_scale>1.0000000000000001e-01</dw_scale>
    <moment_scale>1.0000000000000001e-01</moment_scale>
    <term_criteria><epsilon>9.9999999747524271e-07</epsilon>
      <iterations>1000</iterations></term_criteria></training_params>
  <input_scale>
    6.3418449879449001e+00 -6.1800335691540331e+00
    3.4351179251443118e+00 -3.1139861142388443e+00
    3.0924846284124721e+00 -2.7255918358671622e+00
    3.0015481230709056e+00 -2.6198463486454586e+00
    2.8577518492890293e+00 -2.4495063220111208e+00
    2.6967362679888480e+00 -2.2528550740723916e+00
    2.5079462174040086e+00 -2.0105764111979481e+00
    2.3555415729148921e+00 -1.7999797750075881e+00
    2.2952768265031760e+00 -1.7107315916604748e+00
    2.3137214282579834e+00 -1.7385193011841822e+00
    2.4375775745038908e+00 -1.9155284143229683e+00
    2.6252691162111188e+00 -2.1629342012508315e+00
    2.8490042847989501e+00 -2.4390002220924307e+00
    3.0681132753666418e+00 -2.6973836629089263e+00
    3.2209375449352282e+00 -2.8728513084262453e+00
    3.6748318274204692e+00 -3.3788753649951575e+00
    3.4847181358518262e+00 -3.1691790010582119e+00
    2.6417436918421431e+00 -2.1838332780528553e+00
    2.3111288107753936e+00 -1.7346404755192653e+00
    2.1285851816271220e+00 -1.4285983948582424e+00
    2.0431195555605548e+00 -1.2303285004819544e+00
    2.0187755557705143e+00 -1.1467329130162012e+00
    2.0090942067033750e+00 -1.1000189989663964e+00
    2.0041163405088125e+00 -1.0662498875831128e+00
    2.0022858219879520e+00 -1.0489668405009924e+00
    2.0019478991965931e+00 -1.0451197056164334e+00
    2.0062858920274800e+00 -1.0824888352401212e+00
    2.0168244119170633e+00 -1.1383936551201412e+00
    2.0486948902342745e+00 -1.2463557519842603e+00
    2.1528919427179192e+00 -1.4748627496890572e+00
    2.3737086650627193e+00 -1.8260907572197995e+00
    2.7456274207208216e+00 -2.3133547691949086e+00
    3.1426363079873001e+00 -2.7833580630189312e+00
    2.3411316189199085e+00 -1.7790264197517278e+00
    2.0675164101862302e+00 -1.2957811556095518e+00
    2.0028287759240047e+00 -1.0546194292392317e+00
    2.0003181178005232e+00 -9.8232249251945636e-01
    2.0006788759116803e+00 -9.7428197971820185e-01
    2.0006501423649383e+00 -9.7482510968815006e-01
    2.0015026529808218e+00 -9.6197997788970913e-01
    2.0016730410347243e+00 -9.5992514311082200e-01
    2.0012151865776096e+00 -9.6574277223355987e-01
    2.0003365968084665e+00 -9.8182095165274419e-01
    2.0000013733455448e+00 -9.9882878820605603e-01
    2.0003832583402832e+00 -1.0197695519920948e+00
    2.0075936791906859e+00 -1.0910212351598787e+00
    2.0910808254718560e+00 -1.3507530511767614e+00
    2.3943705150630419e+00 -1.8554044769795817e+00
    3.0485281810684555e+00 -2.6746470779310929e+00
    2.1408542232920875e+00 -1.4522833690871022e+00
    2.0029060663779998e+00 -1.0553805556932658e+00
    2.0017597275656249e+00 -9.5892153057114793e-01
    2.0016164708649775e+00 -9.6059475374422854e-01
    2.0000357077690181e+00 -1.0059934783522300e+00
    2.0019933254276090e+00 -1.0456544589444083e+00
    2.0039975568766981e+00 -1.0652566000254355e+00
    2.0051499631013052e+00 -1.0743844073337028e+00
    2.0049279867596446e+00 -1.0727068437136478e+00
    2.0044209812758171e+00 -1.0687376846616885e+00
    2.0015407372924567e+00 -1.0400301541819121e+00
    2.0000286119724562e+00 -9.9466527082860612e-01
    2.0000639139840017e+00 -9.9203727092867799e-01
    2.0081164895260741e+00 -1.0942411637479030e+00
    2.1747262615839107e+00 -1.5143977642886812e+00
    2.8351891080940015e+00 -2.4223703099566039e+00
    2.0391877898638784e+00 -1.2185202898182947e+00
    2.0003494954573489e+00 -9.8147913342698745e-01
    2.0018787293243854e+00 -9.5758487550185190e-01
    2.0010033915269667e+00 -1.0321820244487365e+00
    2.0114202997938686e+00 -1.1127283988347398e+00
    2.0190559093617377e+00 -1.1478995243118382e+00
    2.0175814777390273e+00 -1.1416769865737033e+00
    2.0167080640393369e+00 -1.1378833873424015e+00
    2.0206673695767465e+00 -1.1544661052150491e+00
    2.0237645520393959e+00 -1.1664970894199811e+00
    2.0151637256781068e+00 -1.1309561321265227e+00
    2.0021521411572478e+00 -1.0474797243694414e+00
    2.0005799114550378e+00 -9.7620685938668694e-01
    2.0000175451363114e+00 -1.0041974732341312e+00
    2.0608650430726705e+00 -1.2790108420707895e+00
    2.6033742085537597e+00 -2.1349873607515364e+00
    2.0105295313643361e+00 -1.1080132407171999e+00
    2.0019933254276090e+00 -9.5633886648320088e-01
    2.0001222819224087e+00 -9.8900285625579132e-01
    2.0079778509757444e+00 -1.0933967691163391e+00
    2.0260767752891735e+00 -1.1750469517439699e+00
    2.0249404088697989e+00 -1.1708871065269644e+00
    2.0126269473517424e+00 -1.1188603852354433e+00
    2.0096112413498122e+00 -1.1029602707933959e+00
    2.0148112640780957e+00 -1.1293322799220822e+00
    2.0283574366952775e+00 -1.1831712411090292e+00
    2.0278835912837558e+00 -1.1815066038489588e+00
    2.0073549544403062e+00 -1.0895173180809730e+00
    2.0004242985314669e+00 -9.7961254881383719e-01
    2.0015645529663590e+00 -9.6122011118784745e-01
    2.0225613161270926e+00 -1.1619079111535473e+00
    2.4208224500509532e+00 -1.8923902083289763e+00
    2.0027281630112723e+00 -1.0536137104959573e+00
    2.0050201515285941e+00 -9.3161260042887450e-01
    2.0000394043341236e+00 -1.0062970202487742e+00
    2.0123481943562544e+00 -1.1174679147612228e+00
    2.0228410515014579e+00 -1.1629839775122961e+00
    2.0155381296566519e+00 -1.1326629719053272e+00
    2.0022327432527178e+00 -1.0483814701486964e+00
    2.0000000389076038e+00 -1.0001972695591650e+00
    2.0026677132224755e+00 -1.0530009873225004e+00
    2.0162830251893871e+00 -1.1360059306972938e+00
    2.0225899236183253e+00 -1.1620182174155755e+00
    2.0099266024489562e+00 -1.1047191873064577e+00
    2.0000329881355747e+00 -9.9427294049624293e-01
    2.0048107575816654e+00 -9.3300405727032565e-01
    2.0061239102186978e+00 -1.0813772523876550e+00
    2.3057120986347419e+00 -1.7265084444554515e+00
    2.0001059298531527e+00 -1.0103453241525422e+00
    2.0075855233398610e+00 -9.1661530827201398e-01
    2.0000109352800557e+00 -1.0033123256579823e+00
    2.0077824941697240e+00 -1.0921954710698980e+00
    2.0076427078945116e+00 -1.0913274145402330e+00
    2.0005200332319717e+00 -1.0230657360874764e+00
    2.0050168450612822e+00 -9.3163432821632652e-01
    2.0132916333936990e+00 -8.9116508118972237e-01
    2.0041283154002736e+00 -9.3777904163673764e-01
    2.0016654419228619e+00 -1.0416510421795016e+00
    2.0081291533261783e+00 -1.0943179650184753e+00
    2.0066467531032894e+00 -1.0849187069020592e+00
    2.0000032344547365e+00 -9.9820315751082545e-01
    2.0082478335846967e+00 -9.1321274985226952e-01
    2.0010315513293988e+00 -1.0326376895855003e+00
    2.2938682469630449e+00 -1.7085904985066156e+00
    2.0001403569193821e+00 -1.0119176188751617e+00
    2.0091973458449610e+00 -9.0858568610502422e-01
    2.0000006043470830e+00 -1.0007776998674052e+00
    2.0044645073057543e+00 -1.0690865000559679e+00
    2.0042277781492754e+00 -1.0671696088561844e+00
    2.0003365968084665e+00 -9.8182095165274419e-01
    2.0128287775485938e+00 -8.9296871044347026e-01
    2.0199971337958909e+00 -8.6823430787648637e-01
    2.0126693011590473e+00 -8.9359854741371403e-01
    2.0000631739958834e+00 -9.9208331714711395e-01
    2.0067616184218355e+00 -1.0856793407455465e+00
    2.0071754809387143e+00 -1.0883718947694951e+00
    2.0000479844940182e+00 -1.0069511178880308e+00
    2.0092604168122588e+00 -9.0828782083895809e-01
    2.0000833898617727e+00 -1.0091735950748861e+00
    2.3469770912569365e+00 -1.7875531731077081e+00
    2.0009100086431757e+00 -1.0306247850981940e+00
    2.0087269410867936e+00 -9.1084352100332888e-01
    2.0000574092257373e+00 -9.9245176263790547e-01
    2.0078944191958001e+00 -1.0928853884605787e+00
    2.0109088556757988e+00 -1.1100422209059133e+00
    2.0041703657669392e+00 -1.0666972077286681e+00
    2.0010435249450746e+00 -9.6821391232505138e-01
    2.0065026904791989e+00 -9.2254656393721346e-01
    2.0010510436226148e+00 -9.6810145982350237e-01
    2.0048757087762596e+00 -1.0723066736874221e+00
    2.0160068032772731e+00 -1.1347742883400485e+00
    2.0125371875877378e+00 -1.1184135127866184e+00
    2.0001222819224092e+00 -1.0111194256666176e+00
    2.0076018394983310e+00 -9.1652958144574259e-01
    2.0000379610341201e+00 -1.0061802623950500e+00
    2.5116587518414772e+00 -2.0155052419487913e+00
    2.0054800997430875e+00 -1.0768184381935502e+00
    2.0050532767880633e+00 -9.3139534647804278e-01
    2.0001409073963154e+00 -9.8819980249280626e-01
    2.0102757046226647e+00 -1.1066371239788559e+00
    2.0255624815684623e+00 -1.1731740139519979e+00
    2.0225112988197047e+00 -1.1617149078931446e+00
    2.0064013032412475e+00 -1.0832727904208590e+00
    2.0008918804185889e+00 -1.0303136364923891e+00
    2.0063527753487156e+00 -1.0829439549393387e+00
    2.0239633704750899e+00 -1.1672457546683745e+00
    2.0325791601709722e+00 -1.1975201254974932e+00
    2.0150476924935128e+00 -1.1304234018027366e+00
    2.0000727335853923e+00 -1.0085648430889500e+00
    2.0050168450612822e+00 -9.3163432821632652e-01
    2.0020603388955065e+00 -1.0464328141350105e+00
    2.7383457033804479e+00 -2.3043917019095406e+00
    2.0167753722909678e+00 -1.1381787704688795e+00
    2.0028213518386586e+00 -9.4827554775341771e-01
    2.0010859779987924e+00 -9.6758433557050150e-01
    2.0076304356748786e+00 -1.0912508602381545e+00
    2.0310100970614440e+00 -1.1922831681931507e+00
    2.0353866599001966e+00 -1.2066370089259240e+00
    2.0223615965451609e+00 -1.1611361476108857e+00
    2.0148227522958915e+00 -1.1293854750062600e+00
    2.0182917440997881e+00 -1.1447017316626065e+00
    2.0339051571130331e+00 -1.2018648470319957e+00
    2.0339229107175192e+00 -1.2019225369013546e+00
    2.0096526816846931e+00 -1.1031928760594596e+00
    2.0001016738566362e+00 -9.8996736326943657e-01
    2.0022947293755924e+00 -9.5323029235111167e-01
    2.0096342525149171e+00 -1.1030894887013190e+00
    2.9566522267206228e+00 -2.5671089647328906e+00
    2.0518975902974983e+00 -1.2552323101845448e+00
    2.0003547228755791e+00 -9.8134243821897504e-01
    2.0023575686340718e+00 -9.5260967719596457e-01
    2.0011402375691452e+00 -1.0343423352438674e+00
    2.0144120734167661e+00 -1.1274724093227124e+00
    2.0266901480636532e+00 -1.1772604151825803e+00
    2.0255014351587048e+00 -1.1729506425403005e+00
    2.0188470680482666e+00 -1.1470312047469917e+00
    2.0191279756285661e+00 -1.1481982025358939e+00
    2.0210930003849650e+00 -1.1561632198756111e+00
    2.0131670192678381e+00 -1.1215198479562187e+00
    2.0010255904905971e+00 -1.0325417423019996e+00
    2.0020099744570619e+00 -9.5616098588619347e-01
    2.0001481616690513e+00 -9.8790168760141750e-01
    2.0402805160913009e+00 -1.2218483294891258e+00
    3.1348936829705805e+00 -2.7744636602919766e+00
    2.1515034053121274e+00 -1.4722888708602813e+00
    2.0040954266860478e+00 -1.0660759869101184e+00
    2.0012758718162367e+00 -9.6491289177295236e-01
    2.0006197164711663e+00 -9.7541382475046023e-01
    2.0008766838910677e+00 -1.0300504346565980e+00
    2.0045868941249325e+00 -1.0700588809086458e+00
    2.0049116196135444e+00 -1.0725817722982154e+00
    2.0053734637235214e+00 -1.0760398657526746e+00
    2.0036012149146756e+00 -1.0618377384838176e+00
    2.0028411712155201e+00 -1.0547421504665406e+00
    2.0001002745865710e+00 -1.0100639827244406e+00
    2.0013465548503309e+00 -9.6397166774899268e-01
    2.0016882913464231e+00 -9.5974665270416248e-01
    2.0034764816154893e+00 -1.0607255538216023e+00
    2.1412810859123774e+00 -1.4530946869022603e+00
    3.1618788638099700e+00 -2.8054268705306562e+00
    2.3515150665226967e+00 -1.7941471976484651e+00
    2.0727896426384795e+00 -1.3086341014706149e+00
    2.0040005050817866e+00 -1.0652814195024305e+00
    2.0000006043470830e+00 -1.0007776998674052e+00
    2.0001238266643089e+00 -9.8893399809301152e-01
    2.0004475645986322e+00 -9.7906687616563093e-01
    2.0010152006795900e+00 -9.6864134330048723e-01
    2.0012908573018011e+00 -9.6471112915940516e-01
    2.0011214849107413e+00 -9.6706746935699217e-01
    2.0003486279965275e+00 -9.8150191774342577e-01
    2.0005296079969446e+00 -9.7725006702186423e-01
    2.0002013979927566e+00 -9.8590886567419267e-01
    2.0034600179108248e+00 -1.0605773609927884e+00
    2.0727625024625307e+00 -1.3085688664963311e+00
    2.3397409661231694e+00 -1.7769923383252093e+00
    3.4316825121812879e+00 -3.1101551433135741e+00
    2.6702783781838493e+00 -2.2197841202643369e+00
    2.3230816455766141e+00 -1.7524529000076994e+00
    2.1279923380768073e+00 -1.4274350878795194e+00
    2.0377060285267095e+00 -1.2139464910213538e+00
    2.0133351191026394e+00 -1.1223376743304194e+00
    2.0057566467224808e+00 -1.0788054691514832e+00
    2.0019995606630228e+00 -1.0457274029347097e+00
    2.0028016022699657e+00 -1.0543494981329768e+00
    2.0045963777458033e+00 -1.0701337209921293e+00
    2.0090807975216256e+00 -1.0999417233980147e+00
    2.0181829938866680e+00 -1.1442419656933127e+00
    2.0471092865716063e+00 -1.2418757549354280e+00
    2.1359356950067183e+00 -1.4428749337273441e+00
    2.3213463823112006e+00 -1.7498779574867331e+00
    2.6380513942123791e+00 -2.1791587040455056e+00</input_scale>
  <output_scale>
    5.2631578947368418e-01 4.9999999999999994e-01 5.2631578947368418e-01
    4.9999999999999994e-01</output_scale>
  <inv_output_scale>
    1.8999999999999999e+00 -9.4999999999999996e-01
    1.8999999999999999e+00 -9.4999999999999996e-01</inv_output_scale>
  <weights>
    <_>
      8.9032900943861204e-01 -1.4525030498527272e-01
      7.9165170635296517e-02 -4.9252709171526204e-01
      -5.3802616165977750e-02 8.5911972414436349e-02
      -2.2255178992929692e-01 -1.2102325214920898e-01
      -1.4739072456550634e-01 -1.8579065568721864e-01
      8.7913049741876650e-02 1.4119937097239083e-01
      2.4284087558482706e-01 -1.7237902965622870e-01
      3.0889426287143341e-02 6.3469037502897774e-01
      1.4833481316801522e-01 -3.0648500501830700e-01
      -1.5849373354603213e-01 -2.4063162412768274e-01
      2.7029029202025184e-01 -1.8850660832553129e-01
      -3.5818854077064705e-01 -3.9837205586203495e-01
      6.9504034809646542e-01 4.7306564814655583e-01
      -1.8692796327292885e-01 -4.7597636222351447e-01
      9.9271396738878109e-02 1.4526848621746852e-01
      1.2774906943233549e-01 -4.9559255771082819e-02
      6.0790192600393556e-01 -1.7619150553711913e-01
      1.8599578915917681e-01 -2.9693316365527137e-02
      -9.9623600443177515e-02 1.2674541314585916e-01
      -2.9961718510152280e-01 1.5609504226832316e-01
      -3.4134686734566745e-02 3.0146867074493056e-01
      -5.6521611676413362e-02 1.2931731620981274e-01
      1.7173684059023225e-02 2.7258199368256897e-01
      -2.5073492131007480e-01 -2.1261926294433419e-02
      -6.8383294043056153e-02 2.8541423667382576e-02
      6.5335690777914612e-01 7.5508820410106064e-02
      4.1602350120877968e-01 2.2435620512060939e-01
      2.8680529991064411e-03 -1.0890344489417685e-02
      -9.1816892894574870e-02 -5.5678724252104017e-02
      9.0766615782234633e-02 -2.7644913337766208e-01
      2.2399367811720541e-02 8.7385620771438258e-02
      2.5285429281832000e-02 -3.2587808121526736e-02
      -1.8298482703594790e-01 -1.4565379715224086e-01
      4.9783390542103262e-01 -1.0825557502826200e-01
      6.0321438127208743e-03 -1.0900023180544691e-01
      -5.4739668880820591e-01 1.5915846472180858e-01
      -5.4927954002800636e-02 2.0647409082951376e-01
      -2.6233312530953884e-01 -3.4270450905430699e-01
      1.7211029517029466e-01 -8.9652139027099087e-01
      -5.6599187372129012e-01 -3.2487812933319243e-01
      -9.0568591967441034e-02 1.6439587395979469e-01
      1.0473746757113138e+00 1.2225668557952096e-01
      1.6787308975375109e-01 -2.6682729766936103e-01
      -1.0611937608975072e-01 -7.3719143608603688e-01
      -4.1101530825235921e-01 -2.9370934482280876e-02
      5.9398221565010186e-02 -3.3541134140864998e-01
      1.1144607081508380e-01 1.0045968758988037e-01
      -1.9680859265378789e-01 -1.5741401350547130e-01
      -7.4794119202095577e-01 -1.2188126431270484e-01
      2.3070454397218301e-02 -1.3848327869690344e-01
      -2.3185026900378776e-02 3.4399725801782383e-02
      -1.4634732321816230e-01 3.1786874238914888e-02
      5.6427126543961439e-02 4.8319889505141676e-02
      -4.4394130922033488e-03 1.1382850095137696e-02
      -5.7020239641908410e-01 -1.2609859088748007e-01
      4.8087196724041958e-01 -4.6944891879123285e-01
      -2.0121948272263573e-02 -4.6242740162169230e-03
      1.1440382708434049e-01 -1.3449337245543697e-01
      -6.5755249109082659e-01 -4.3617831546976465e-01
      1.6305293585038547e-02 -5.5011007637981146e-01
      -8.8000300227775730e-01 -1.4024069655298976e-01
      -1.4070471293431924e-01 -3.1380914152160982e-01
      6.4866748208952635e-02 -4.8530530293916192e-02
      -1.2023280555147045e-01 9.3185035338581287e-02
      -1.5105093548737472e-01 -1.0129497006141480e-01
      -1.3212942272504086e-01 -1.8820232082347021e-01
      -1.1555626684981564e-01 -2.4612706862878037e-01
      -6.8454082343854153e-02 1.0387676968181989e-01
      7.4033427148730055e-02 4.9210830466021871e-02
      2.0687534239366834e-01 5.6873623589058765e-02
      -4.1622286594254720e-01 -4.6122991009492897e-01
      -5.1824159111231734e-02 -4.4124777957110084e-01
      -5.4768806788840094e-02 -8.4724479907451120e-02
      3.9541423394970854e-01 2.8120015015350155e-03
      4.5930063451971948e-01 -2.4255213601633108e-01
      2.2692839512122484e-01 -6.4923124904773521e-01
      -9.7217206361646866e-02 -2.0536165866409220e-01
      -2.4862382571688807e-01 -2.8445340200094482e-01
      -2.5797702405172110e-02 -9.6249836405394820e-02
      -3.2654489367687167e-01 2.3834103267049350e-01
      -7.1170754221815547e-04 4.2885870062456213e-02
      -2.4725739233374122e-01 -1.8951260500128145e-01
      1.8582308275961346e-01 -1.7549720656543269e-01
      3.7909990354923540e-01 1.4024386633109875e-01
      -2.3699391625533708e-02 8.4595661083727611e-02
      -4.5760643796847300e-02 -5.2804081827310856e-01
      7.1441741015270691e-02 -4.6633062562487160e-01
      -4.0661019746950061e-01 1.9689125765093987e-01
      8.1789359809510392e-03 -1.4082963937926123e-02
      2.1446689707132496e-02 -2.0990617546950202e-01
      3.1447663179745305e-01 8.6889372040771899e-03
      -1.3617586443397919e-01 -4.6279197620692514e-01
      6.2319818647959979e-01 -1.9012476343723918e-02
      -9.0890930127290135e-03 2.4736481671067947e-01
      1.2087931174307823e-01 1.0067168407369063e-03
      -3.5950094256553072e-01 2.0639611381540520e-02
      6.6373217198937307e-01 1.6026393782299933e-01
      1.5609187051006451e-01 -8.3807764539458582e-02
      2.1692217728083685e-01 -3.0437082110306685e-01
      -2.6957388807747412e-01 2.6307744291937962e-01
      -1.5572216683684446e-02 7.4158606903729106e-03
      -1.2920706931813369e-01 5.7443684170162455e-02
      5.5659519206551444e-01 -1.7560301409912785e-01
      -4.0135101150827668e-01 -2.7625659607783629e-02
      -8.6614023902357840e-02 -5.8651576458136997e-02
      8.4764609288858506e-01 5.2650982317905659e-01
      7.4403617035375291e-01 1.8561654417978016e-01
      1.6203722413784002e-01 -3.4222613662212409e-01
      1.0852893285336006e-01 -1.9349844612344100e-01
      1.3796925133413110e-01 -6.4607724085052290e-02
      3.0485946929958534e-02 1.8030569793869335e-02
      -4.5367143756364364e-01 -1.6651073189946822e-01
      2.8832193228213598e-01 -8.4350866005472355e-02
      5.7726580295201384e-02 -1.8895233270443501e-01
      1.6369314963777512e-01 -4.4448734833311920e-01
      3.6676950529639174e-01 3.2608126826275709e-02
      -8.0315970123250147e-02 -7.9374836467498364e-02
      -3.6576397193671201e-01 -4.5739440840087181e-01
      2.3840439221510001e-01 -5.1906355955848738e-01
      -7.8409312008902088e-01 5.3617326577223193e-02
      7.4968936317920773e-02 -1.6337722582733000e-01
      4.8839479577390271e-01 6.3742319782006604e-02
      4.5221783364966356e-01 3.7385356398950534e-02
      -1.4662338190949234e-02 -5.5380072096525368e-01
      6.4809018486575831e-01 1.5929320851905654e-01
      1.1268697736739161e-01 7.8754770047275144e-02
      2.7083290645317609e-01 1.1346816111365053e-01
      -4.4651033641736509e-01 -9.4247685157027986e-02
      1.7553384191644453e-01 4.4949336476346018e-02
      -1.2224244687043638e-01 -2.1315365764556451e-01
      1.7246988438684441e-01 -1.0914100316406286e+00
      2.2514791256177025e-01 2.1718706759249806e-01
      -1.3825273262287302e-01 7.8160420177778189e-02
      -2.7149746832589206e-01 -8.4376978257059354e-01
      4.6122664510947270e-01 -4.9101089771729167e-01
      -9.4080057675587125e-01 8.3478088384983089e-03
      -1.2215398704181336e-01 1.5795109819847025e-01
      6.9985655888646059e-01 -3.1971930079527111e-01
      6.0168711172482303e-01 -1.0740231897957279e-02
      -6.2397789391558968e-02 -6.3058858422935671e-01
      8.4315793863486799e-01 3.4498193139114197e-01
      3.3749463420044569e-02 1.9279670621148701e-01
      1.7078984917867657e-01 1.3456852003750003e-01
      3.2585101111275187e-03 -2.5218065930034617e-01
      1.3702518246929984e-01 8.5283385318533647e-02
      -7.7251234859087775e-02 -3.2163907323771934e-01
      5.8773932034946859e-02 -6.0446332267365321e-01
      1.0742765018311606e-01 1.5708648832994146e-01
      -9.6547049774916724e-02 1.3911733671831056e-01
      7.6422119732006541e-03 -6.2306918683464019e-01
      1.0484830687835882e-01 -6.2386301851747328e-01
      -8.3772459757167073e-01 -1.5138710369498401e-01
      -4.2464219944488976e-03 9.2817010684098408e-02
      5.8937569885718244e-01 -2.5406047243661795e-01
      4.5597995600863678e-01 -2.0872092649542495e-02
      -6.8501624429680483e-02 -6.4731085038095848e-01
      3.0640383058898146e-01 2.3652881699254680e-01
      1.3955013181651454e-01 1.7404600119302749e-01
      1.2155590564800745e-01 1.0443170814023808e-01
      -2.5428704365962124e-01 -1.1968455043660493e-01
      5.6990090961781592e-01 3.7598257615340297e-01
      -6.1834075897695184e-02 -1.8644128188444373e-01
      1.7010431984875472e-02 -5.2479952768244753e-01
      2.7355009718825794e-02 1.9768960170016767e-01
      -5.9732658070477208e-02 8.3745339818489029e-02
      2.8116463165471550e-01 -5.4915038069101985e-01
      3.8310285982547426e-01 -1.0040965685094818e+00
      -8.8033728563665736e-01 -2.5491590695877647e-01
      -9.4526458170261785e-02 8.0808146580698292e-02
      1.2671660351597971e+00 -1.2350523675665412e-01
      7.5411509849710301e-01 4.1815327319418949e-02
      1.9726801236642569e-01 -3.2533083111812183e-01
      1.3230215960488964e-01 3.0690072940800389e-01
      5.7151940847304371e-02 -1.2117918285519930e-01
      4.9788394171218615e-02 8.5908127821759731e-02
      -6.4357881498770378e-02 4.6272851502743226e-02
      2.1345644866091340e-01 1.6387503455790431e-01
      -3.6771993152495169e-01 -1.0522364888909044e-01
      9.7958024673556451e-02 -1.1988370295635876e-01
      -1.6948642527352614e-01 1.5400076975748281e-01
      -6.8735988330318951e-02 2.2337754523788508e-01
      4.0176651250985473e-01 -2.2772268878557639e-01
      1.5824284173275435e-01 -1.4158060390899355e-01
      -7.8882519754280800e-01 -2.1088016310699140e-01
      -5.2903180005115361e-02 7.5254493103652467e-02
      1.0383128409951767e+00 -2.7404795054738623e-01
      6.7626370390853729e-01 2.7347555396130740e-01
      2.0772980225287382e-01 -1.7969608869661469e-01
      4.8277169283708515e-01 3.3242933428395444e-01
      1.4022558968930541e-02 -1.3865158985551237e-01
      8.7272097318223052e-02 6.9546125601619616e-02
      -1.1206051735305388e-01 3.4725041981566923e-01
      -2.0216666354036020e-01 -2.3606690052242046e-01
      -1.8141041714570971e-01 -4.0023981583674317e-02
      4.8198308423895712e-02 1.1290993154886648e-02
      -1.6805785008625687e-01 8.4965368681879247e-02
      3.2856860744479638e-03 1.8965026124911702e-01
      -1.4191532350275593e-01 -3.3440415025611077e-02
      -3.8749369389034610e-01 2.9190589974028121e-02
      2.9864083870846575e-01 6.4665905790823999e-02
      -1.0701007098643270e-01 1.1561473736993610e-01
      -2.8129031059631288e-01 -1.7017715364770125e-01
      -2.9389981078695615e-01 1.9333464285849203e-01
      -3.9047752923170059e-02 3.3944987677368710e-01
      -4.0532915363886535e-01 1.1019040482297077e-01
      -4.5888918110836015e-02 -2.1662401426118780e-02
      3.5480513052445137e-02 -1.4035462219761374e-02
      -4.6813302991506378e-02 1.5291426454979185e-01
      1.7752465924040894e-01 -2.8448749634577353e-01
      1.3158975293823608e-01 1.2907957380864879e-01
      8.6843106225867855e-02 5.0068695750710435e-01
      -2.5918710065754347e-01 1.7505021635079823e-01
      3.6246046436417746e-02 7.8206073886970678e-02
      -3.2991349471898374e-01 -3.7934717151103764e-01
      -3.6707830155772470e-01 6.3350975769655471e-01
      3.5708719453369414e-01 1.0874692396771754e-01
      -1.2813909108913607e-01 1.0196830868207564e-01
      -1.6140099187386889e-01 -3.2714153153778729e-02
      -2.4796188907483485e-01 2.5381163931394268e-01
      8.0634206188638490e-03 2.8835223005319804e-01
      -4.4263197810913474e-01 7.1281825064728965e-02
      6.3336685023763911e-03 -6.4093565919600096e-02
      -1.3105143254665491e-02 -3.3966295007751203e-02
      -4.3591803632319299e-02 1.1717724916161981e-01
      -1.8508327095203123e-01 -1.6936512074728885e-01
      1.0101537637049143e-01 -2.6898074008612294e-01
      1.2224376392838405e-02 1.7371586698896069e-01
      -2.3249796704406284e-01 2.5072040835163789e-01
      3.1751164794292679e-02 2.3550462188096635e-01
      -5.2737505697015775e-02 -2.6764978988517641e-02
      -2.1142995834639902e-01 1.1285120877786489e-01
      2.5042759873820103e-01 -1.1743367727492407e-01
      -2.2701032852184658e-01 9.0640202920650531e-02
      7.2384150845962336e-02 -1.4704437552034930e-01
      4.0066369428678897e-03 1.1653911488262421e-01
      -3.3723672454665017e-02 1.1945812028173025e-01
      -5.1427191903040714e-01 -2.7561553615348144e-03
      -2.0711282471707121e-01 -1.7080097405085706e-01
      -2.1246191236105394e-01 -8.5750425500605895e-02
      8.8692330166442110e-02 2.9144618634184793e-01
      -1.9309472914651890e-02 3.1031305496050668e-02
      1.4105189872120685e-01 -7.3590541455090960e-02
      -5.9954348798345200e-02 -3.2890587272076312e-02
      -2.5278882875540692e-01 -2.4808235608957865e-01
      -6.9075203085388767e-02 1.1888169153333522e-01
      7.9388906755641531e-02 -4.5778550969013815e-02
      -1.7797603607950108e-01 -1.2855009297214037e-01
      1.8505310962023683e-01 -8.9885669790499306e-02
      1.2334368242016397e-01 -2.4738674252713266e-01
      -4.5625558934160021e-01 -7.2194929221082060e-02
      -3.8556886626077413e-01 -9.1527113335277882e-02
      -4.3316026907121497e-01 3.2335142825509595e-02
      -8.1686916241943930e-01 -2.2629712030365106e-02
      -4.6605760928039405e-02 1.0265605973890128e-01
      -3.5054356663161049e-02 6.3351106236293628e-02
      8.3768721736589807e-02 -1.2291097532115595e-02
      1.2348747295714271e+00 9.9932094513591321e-02
      3.8778855034471038e-01 -1.2639115683955238e-01
      1.3358698414473349e-01 2.2883907082680877e-01
      -1.8355541936363345e-01 4.4918994226648845e-01
      -1.2131561666396624e-02 -2.0610102730747704e-02
      -2.1922312225530810e-01 -1.2101437341106701e-01
      5.4650981568583956e-01 -1.0426168932738522e+00
      -2.3235193866764692e-01 6.6946068381626689e-01
      -2.1282159376582327e-01 2.0106568347549930e-01
      8.7717734129984415e-01 -7.4311711813756318e-03
      1.9422658541144303e-01 -5.5841122082893838e-02
      1.2621447784677969e-01 -4.2558087079123980e-01
      -3.1192102532899468e-01 2.8330899947195631e-01
      -1.2317292847158197e-01 -3.8119902884888514e-02
      -5.0857322345993973e-02 1.4636377372115371e-02
      -2.6274644362059718e-01 -3.0267832284671026e-01
      4.4375779478881733e-01 -1.9991126689872657e-01
      -3.3845421934488751e-01 -3.9105065189316662e-01
      2.0482522049914434e-01 -3.8790475747411762e-02
      5.2600522078365486e-01 2.6481578014996643e-01
      1.7091636647017008e-01 -4.1409335337333014e-01
      -3.1033278051122865e-01 3.4567061724272996e-01
      -3.9267637111515308e-01 7.2392989104012684e-01
      6.6595434394629460e-01 -6.1382273625448167e-02
      -1.5899310972992450e-01 -2.0933664678102831e-01
      -9.1341052826778579e-01 5.7760606157517970e-02
      -2.6327541525910891e-01 -1.5860153679806771e-01
      2.2626502903525425e-01 5.5040379385124671e-01
      3.7389646782791425e-01 4.2972435998918188e-02
      -2.2142007048190981e-01 1.3758966501265050e-02
      -1.2342868690458170e-01 -1.9914027508860563e-01
      2.2911580151598915e-01 -3.0916256760773725e-01
      4.2827034502394956e-01 -8.2420030512218176e-02
      4.7021129142483735e-02 -1.3915867908259621e-01
      1.1943209997864501e-01 -1.5050488266964321e-01
      -1.2067539144692960e-01 2.5492053269333093e-01
      1.5140351587681922e-01 -4.8225426015125883e-01
      -4.6130546901108954e-01 -9.5792102530423209e-02
      -3.1075973386139549e-01 -1.9568112684082945e-02
      4.0947992685557488e-02 -2.2845758662305032e-01
      -1.2267928448462556e-01 -1.3650786905632165e-01
      -1.3818235949453514e-01 8.5035154559643916e-02
      7.4273994284726946e-02 -2.9156266483471704e-01
      2.2488138931288904e-01 2.6846498385115686e-01
      9.8221942426373207e-02 -6.8201549871826042e-02
      -1.7054018475558821e-01 -2.3177827888182085e-02
      -7.3139438915747576e-02 -1.8139468480421070e-01
      1.9518905469479669e-01 -3.6348311153664181e-01
      5.4296521536362663e-01 -1.7136233900889741e-01
      -2.7005289347241873e-01 -2.8781342689775075e-01
      -1.5181659900447113e-03 -1.7291073471830701e-01
      3.4376319311293890e-01 2.6138814089564877e-01
      1.7213089127854417e-01 -3.5744213906248823e-01
      -7.4360152000563617e-01 -5.0792943653391050e-02
      -2.4943701683790132e-01 -1.1683345317548270e-01
      4.1245400068732341e-01 1.1519134161873422e-01
      -1.1806118170083468e-01 -2.8728314450581416e-01
      -2.7143369121139854e-01 1.6595062411123659e-01
      -3.4460821558229576e-01 -3.8148536019637552e-01
      3.5429857787443586e-01 -1.7998109091563066e-01
      -6.4958177625868652e-01 8.0288099063581600e-03
      -1.7586502016687444e-01 -1.6920724052156680e-01
      -7.8606020824220746e-02 -1.8481608928895576e-01
      1.2688527698191940e-01 -3.5524482279399539e-01
      6.2085446159352653e-01 -6.7049504917067515e-02
      -2.1813186446216351e-01 -3.1895664966720644e-01
      2.1159642393281294e-01 -1.0227687326034202e-01
      1.2282958258750849e-01 3.2593060203835950e-01
      2.0509170969020232e-01 -1.0198667769019848e-02
      -6.7105826947038483e-01 2.7995308220235448e-02
      7.6272817260073400e-02 -2.4866868240943987e-01
      3.6114897854100941e-01 2.6371112100548316e-01
      -1.6573102124437208e-01 -2.1015673203600632e-01
      8.2721584437302320e-02 -1.2563253408234602e-02
      -2.2277750275875885e-01 -2.7451910610915536e-01
      3.9198764798142699e-01 -3.6937829583494469e-01
      -4.9130712561417089e-01 1.3792381525405151e-01
      -1.1729867018271145e-01 -2.4826653824325584e-01
      -1.6438828740681721e-01 -2.0662561842148419e-01
      -1.7195999406986148e-01 -1.0246812693960121e-01
      1.1382032555236576e-01 -5.2879082956350000e-03
      -3.2011799400974111e-01 -1.9247433043760608e-02
      3.0131063210802050e-01 -1.8305727691972950e-04
      -1.1585493147420869e-02 3.2935843174431456e-01
      1.4999011200420351e-01 1.6062192354400520e-01
      -5.6980703342106898e-01 -4.1365249023703921e-01
      2.1438007922480479e-01 -1.8678183591586212e-01
      1.6936141909596611e-01 2.0450374281320524e-01
      -1.9460875105014946e-01 4.7023584405690901e-03
      -1.0958291988319779e-01 -2.7254282466641178e-01
      -2.7326101128478386e-01 -1.4989929375480313e-01
      1.9505430622637007e-01 -3.5414986662743003e-01
      -5.4723628335778346e-02 2.5564492832478936e-01
      2.0429568289465797e-02 -1.0751780552961171e-01
      -1.4541503454500834e-01 -1.3429788565212358e-01
      -1.4247012407339477e-01 -6.4262732901074010e-02
      9.1019573568574860e-02 2.2779011001442698e-01
      -5.1384264959684578e-01 -6.0305128758877842e-03
      9.0850436126518150e-02 -1.1501967540037619e-01
      1.5699116838188479e-01 3.4769676381182568e-01
      1.7259522118810580e-01 1.2271348737249846e-01
      -1.8352259156567979e-01 -5.5422316769828905e-01
      -2.7709430819556284e-02 -1.5131629101121041e-01
      3.8984957292574618e-01 2.9737188994361452e-01
      -1.6484572432242678e-01 -1.0546190988891607e-01
      -2.4091490592886203e-01 -2.0186196930586173e-01
      -3.9921290856757424e-01 3.4380452243555119e-02
      2.6548270527144269e-01 -4.5288864389368472e-01
      -3.0585636858681581e-01 2.3397207637459702e-01
      1.2254248560144692e-02 -5.6472313662416077e-02
      -1.4023821938599723e-01 -1.5480492610744642e-01
      -2.1033993944670265e-01 6.5153317604515038e-02
      1.4784432691579844e-02 2.6262928990391821e-01
      -2.3400775483342454e-01 -1.6294866911920013e-02
      2.1284601002843104e-01 -2.2777462909206486e-01
      1.0798905870009382e-01 2.8115978372481265e-01
      -4.6900402573966112e-02 1.5957997159975176e-01
      1.3421138246934913e-01 -9.5659913485393677e-01
      5.8884585409479084e-01 -2.6655239350569776e-01
      -5.8476680750628796e-01 7.9699662233395918e-01
      -1.5531045723512454e-01 -6.3017369824065347e-02
      -5.2924696209187870e-03 -2.8344454119385593e-01
      4.8347615759448898e-01 3.6631346271661192e-01
      -1.2180536794586961e-03 -4.1668411980270215e-01
      2.8045835141617289e-02 4.6646180800062104e-01
      2.3617641396911618e-01 4.4702695946294346e-01
      1.4555533517058938e-01 8.2784923529154245e-02
      -1.3328253937551399e-01 -2.3841652137967395e-01
      1.6647057514822095e-01 3.4743474301066307e-01
      3.8589502918387197e-02 -2.4667366153303175e-02
      4.0384962351157433e-01 -5.6672013280233091e-01
      -8.1562852255581658e-02 1.2068265814919003e-01
      -1.7705019187594262e-01 8.8117805693523038e-02
      2.2166041254268395e-02 -8.4332494786055734e-01
      8.7481180582965490e-01 -3.9092268693544141e-01
      -7.2069255729901960e-01 5.5519036727153026e-01
      -7.2422444982362888e-02 5.5340638827868056e-02
      2.2306452939377563e-01 -4.2193138206764796e-01
      5.3012396090920059e-02 2.7553919463130427e-01
      1.8796335196519319e-03 -6.9971279708530654e-01
      7.8822393364301954e-02 6.1414125707937217e-01
      3.5621090112677095e-01 6.3624189927088282e-01
      3.0168771417875306e-01 2.2775953822559622e-01
      -2.2853701631863857e-01 -4.8761035597146629e-01
      -3.0966543908432603e-01 1.8474128424720573e-01
      -1.2339715687068799e-01 5.3247257419869597e-02
      2.0966340307642081e-01 -4.4145109083997380e-01
      -2.8848128000018436e-01 9.9700107508129812e-02
      -1.3607250005399055e-01 3.5792858927690213e-01
      1.2862034939991768e-02 -9.3754891864233059e-01
      4.1456077717918594e-01 -3.4061403964113579e-01
      -9.2735971730008004e-01 6.2820998041617893e-02
      -6.3079965071584060e-02 1.4757077830950921e-01
      2.8212541424456244e-01 -5.1490806339100414e-01
      3.2400233756338526e-01 2.8196665380661390e-01
      -1.2565829196090908e-01 -8.2324905310703644e-01
      5.0504106054616327e-01 4.9080772185098870e-01
      3.2613552017342412e-01 5.3410347139843084e-01
      3.5613212637238900e-01 1.7880808090415393e-01
      -1.1412795787867641e-01 -3.0318186770890582e-01
      -4.0157632383902586e-01 1.2396981784705462e-01
      -2.2207024430134698e-01 -5.4550307331535881e-02
      2.1393332529462944e-01 -2.4819678797606406e-01
      -1.9927581237820685e-01 8.9819852066788039e-02
      -8.7162323260870173e-02 6.3754652197663048e-02
      -1.8209580892695390e-01 -5.9420983741378497e-01
      1.3701695604826961e-01 -3.0824230975415118e-01
      -2.1873853591186646e-01 1.6083672105251909e-01
      -2.4513830848355938e-02 4.0898668567905257e-02
      8.8267575655768843e-02 -3.2271326075054330e-01
      -1.2268836795310709e-01 -5.0172782651408454e-02
      -7.6162943238904476e-02 -5.1786932531425434e-01
      3.4637030445897798e-01 3.4461909530744550e-01
      5.3701554842535082e-02 3.9650671475389154e-01
      2.3213063351620369e-01 1.0531923201949882e-01
      -1.3716500528232348e-01 -2.4365303634770830e-01
      -3.2504838014644266e-01 1.3156979712873371e-01
      -9.7756194827250911e-02 1.4524506694357939e-01
      1.5524493423255528e-01 8.1514677447697886e-02
      -1.7355660470571652e-01 1.1147263201820566e-01
      -8.6968692187673960e-02 1.2981437700464762e-01
      -6.5393457180586131e-02 -3.2842603217316474e-01
      2.3857869722313069e-01 -3.0817810676932036e-02
      -5.5663407002437160e-01 2.1486423921698811e-01
      -2.2155410412191805e-02 5.9643280391938794e-02
      3.8355784948151062e-01 -1.8980664233680965e-02
      3.8575497551079152e-01 1.0813658630596192e-01
      -3.0908186925678958e-02 -3.0268359756014923e-01
      3.5894305548964511e-01 2.6576637706558831e-01
      1.4297971853397073e-01 1.3735710391418313e-01
      1.9272942639127910e-01 1.3438670881679413e-01
      -2.5882737727770883e-01 -8.9197877513413376e-02
      -8.1633275785444298e-02 9.3030168584099668e-02
      2.4611686377315403e-01 2.4052916175355302e-01
      7.4294026605796704e-02 -2.1443390388909556e-01
      -4.8783088300202354e-01 2.5036603801303425e-01
      -6.5182872018085855e-02 2.8652826155310823e-01
      -7.7861977919310987e-02 -2.6242043057302605e-01
      6.4619260903039433e-01 1.0644462066396405e-01
      -6.6052443947348438e-01 8.3067499051093820e-03
      -1.4551307750651324e-01 2.3057056550062538e-01
      7.5152762290403197e-01 -2.2895966158291245e-02
      3.1973630350864712e-01 1.6474487796768397e-01
      9.2817879647607376e-02 1.6894236308712857e-02
      1.0879892751742973e-01 1.5445122611643811e-01
      2.6118643446927087e-01 1.7834954028912495e-01
      1.5044853856698148e-01 1.2266005258711687e-01
      -2.5359069415892133e-01 -1.5430138344030297e-01
      -4.2006472540035061e-02 -1.2876361520448451e-01
      -1.8219152536003796e-02 -6.4899183948485114e-03
      1.4481439808066854e-01 3.8505655448344955e-01
      -3.0453366090332657e-02 2.1211062485887466e-01
      -3.1061712451071768e-02 4.7905406112318902e-02
      -4.5202992518320295e-01 -2.1074403363650759e-01
      3.4407671687399000e-02 1.4311044526793523e-01
      1.7233968592393167e-01 1.2922569056882677e-01
      -1.2332106055351101e-01 7.1496874899061078e-02
      -3.6832613741495862e-01 -4.3284461313041457e-02
      -3.5001544355803788e-01 1.5391880359333972e-02
      1.0450273467248868e-01 -1.5640038717308599e-01
      -2.8237809900368249e-01 4.3132784542494355e-02
      -1.2394900904166006e-02 1.2042168263401570e-01
      2.3108029890563247e-02 2.7403514467244837e-02
      -5.1784472722064309e-02 -1.4558343543422508e-01
      -1.7453484563805624e-01 -9.3528091101827443e-02
      1.1293762710874265e-02 -6.7560658179733765e-02
      2.8829674069798569e-02 6.9597126222026628e-01
      -1.1445081031668360e-01 2.3195178491803017e-01
      7.4770992506322437e-02 2.4122328626765728e-02
      -3.4459936876750064e-01 2.5823904684245474e-01
      -1.8949533740349225e-01 2.4738791789472275e-01
      3.1682311245359068e-01 -2.8435444288870326e-01
      -1.7994901703622226e-01 1.1511903827392032e-03
      -1.7079568417722885e-01 -1.1361916725571095e-01
      -2.8712297904290085e-01 -3.8433052920342797e-02
      1.7863082078492196e-01 1.3062544295834227e-01
      -2.8345308068137770e-01 -1.1729147361387640e-01
      -2.2402559159053814e-01 -1.2858863999388470e-01
      -2.6136456035367650e-01 -1.2678345582806400e-01
      8.2284270546291630e-02 2.6638215761702999e-01
      -4.8822039506305664e-01 -9.9998741424941570e-02
      3.9031238088779513e-01 1.9369211870483283e-01
      -1.0865735080474576e-01 2.8714273973456167e-01
      -1.5200402605838981e-01 -1.0987330699522704e-01
      -1.1788074576032266e-01 6.5408819621406128e-02
      -1.9866190866110719e-01 1.4786070463162423e-01
      -8.8568343561806567e-02 2.4276463491173031e-01
      3.2631669373212030e-01 3.2595195804839666e-01
      5.3397863983545950e-02 -1.0127291338306091e-01
      -2.7027465822726959e-01 1.4130186008795764e-01
      -4.6650202632381205e-02 3.3366989877980910e-02
      -2.5349483486866559e-01 2.4795116592777108e-01
      -4.4124231608879468e-02 -8.5821781278554901e-02
      3.3021783077562920e-02 -2.0104230111529478e-03
      2.9193590880238370e-02 1.3381253856037342e-01
      -8.7141246576449300e-03 2.9975699723767422e-02
      -1.7399382475511807e-01 -2.4237412168556310e-01
      3.1707446868699130e-01 -5.8482823149983665e-01
      -2.1655239900110701e-01 -1.2990491832080625e-01
      -9.9166798542308615e-02 6.7902232008570193e-02
      8.9414255395200343e-02 1.2420302990472869e-01
      -6.9507649408782166e-02 2.3319112234636227e-01
      -5.0309910588475748e-01 -4.6304493038225458e-01
      -3.8580471812316303e-03 -1.3213050224398870e-01
      -9.1994954605448140e-02 -2.5823473477978703e-01
      6.9508606267064388e-01 4.4257730548894253e-01
      2.2782574420031224e-01 -5.4588084639104395e-01
      1.5133498351820354e-01 -6.7173137266083516e-01
      -6.7521786083647106e-01 -2.9102979080355595e-01
      -3.6395617107963990e-01 -5.9950144565493946e-01
      -1.7391880029290444e-01 -1.0556730555630257e-01
      -4.5377063662440820e-02 1.2546701053880729e-01
      -2.2988398985277775e-01 -2.8305258234468977e-01
      2.8030817462802543e-01 1.3504584247812287e-01
      -2.0095580454658574e-01 3.4465098713948783e-01
      -3.1949810812640039e-01 -1.6203451231855384e-01
      8.8379029664329423e-02 4.4399660806626239e-02
      -3.3012242738593345e-01 2.7098304546029451e-02
      -1.3882116010007475e-01 -1.9314946754072887e-01
      4.0444277504919901e-01 -3.6341080784098584e-01
      9.0081121349752991e-02 -1.9688228939774419e-01
      3.8855138238322207e-02 1.8779280320997874e-01
      -2.2341132713207237e-01 -2.7981413617428547e-01
      7.4273313007585324e-03 -3.1922519816418887e-01
      -6.2583678884274363e-01 -1.7439115323640578e-01
      -9.2098967726096367e-02 -3.6324580227499537e-01
      4.8544636941834926e-03 -6.0231166656697130e-02
      -3.5817249146568975e-02 1.5495868165787929e-01
      4.2554169576391652e-02 -2.3413972362386534e-01
      -1.2217867134690616e-01 1.7875435060849010e-01
      -1.3704845533664661e-01 -8.9136354775928486e-03
      3.2022190951480423e-01 -1.3686839302543835e-01
      1.4475775672851768e-01 -9.6052925333568531e-02
      -1.5338358339337493e-01 4.6791025695514854e-02
      -3.8353641154231849e-01 3.5558210096876652e-01
      2.4419044226634393e-01 3.3281256634982004e-01
      1.2260984291214529e-01 -2.0224343515163223e-01
      1.5663920432729121e-02 1.3624238573241029e-01
      7.2378598981171202e-02 1.0344189118765372e-01
      2.4627392124861053e-02 4.4245642475518854e-01
      -6.6993628074232025e-03 -1.2881998738809849e-01
      7.1561279126986135e-02 -5.7706442745315063e-02
      2.7929536233687567e-02 -1.1924025783842235e-01
      7.3923255950511732e-02 1.0457360140858157e-01
      -3.6007536115456212e-01 -2.0782798360003960e-01
      -1.7246232677314022e-01 2.6277082728108175e-01
      -1.6750255891986399e-01 -5.5217989294397041e-01
      2.8344392638185845e-01 -1.2377663867835850e-01
      1.1003906385793732e-01 7.6210622205060974e-02
      -4.1477456187887485e-01 -5.2835871958328073e-01
      -2.4851912532855283e-01 -3.4199472236380363e-01
      -4.0927841071494048e-01 7.5443834495515527e-01
      1.3650385402621976e-01 -3.4617532396484901e-01
      1.8226855291792038e-01 -1.2170940269162774e-01
      1.9264529033113145e-01 -1.0377347576209819e-01
      -5.1600182546326499e-02 -2.3147213792067883e-01
      8.8885779987282726e-02 4.2788249273595057e-02
      2.8538949014305731e-01 -4.4594223045339339e-02
      1.2726122987553867e-01 -5.2870892658376759e-02
      -1.0038977930238334e-01 -1.7218252095437356e-01
      3.2387711537411062e-01 8.1625264703347753e-04
      1.2036145439661871e-02 -6.7164683539070917e-03
      1.9332272054319902e-01 -3.7279662149430276e-01
      2.5056104941416260e-02 1.3693315026686179e-01
      1.1211583484045294e-01 -1.4651797832061025e-01
      -2.1115114281122335e-01 -2.3100607165908174e-01
      1.3684167820032486e-01 -2.4104227600412695e-01
      -2.0566405312826408e-01 1.9868145570302800e-01
      -1.5205396050807556e-02 -1.4794989857605789e-01
      2.0180990836877749e-01 5.8900216929943822e-02
      -8.6600188670401410e-02 -2.0868060891735604e-01
      3.8495616483983641e-02 -4.4015104969050541e-02
      1.3022881628979360e-01 1.8072127899974602e-01
      1.6077328474938193e-01 1.0663872875667985e-01
      -9.6348026665280632e-03 -8.3568142385792715e-02
      -1.0398965411770961e-01 -4.5071062029474729e-01
      2.2517750844750323e-01 3.3480601022513969e-02
      -1.6639686719891303e-01 -1.0463499737152328e-01
      1.3220747244814679e-01 -2.9778529245305324e-03
      8.7785316289357637e-02 1.0137226031801530e-01
      1.2881353960302080e-01 -1.8061670921922731e-02
      -5.7526601759187133e-02 -1.4619859645275524e-01
      3.9678715887417629e-02 -1.3582068782288012e-01
      1.2524604511168652e-01 1.6421615207751492e-01
      2.8193868758245363e-02 -2.3673116146127776e-01
      -1.3896288981497568e-01 -2.1836724638053966e-02
      -7.9286773778528608e-02 -2.1461413449568234e-01
      1.6696257159056671e-01 -2.1173255602077112e-01
      -9.3379846895583971e-02 6.8348833449807925e-02
      7.3101176023996933e-02 -1.1652520658357243e-01
      8.0422084321826997e-04 -1.1566870177621756e-01
      -1.5143988162045749e-01 -1.7129958174253709e-01
      2.7702248604474566e-01 1.6250708821911977e-01
      -6.8926998143020182e-02 1.3484694294362543e-01
      1.5120769961310293e-01 -2.4579718260742336e-01
      1.9229052260772400e-01 1.0747207413918486e-02
      6.5437686820729632e-02 3.9152736635244345e-03
      1.8502752185804525e-01 -3.2801003501749254e-01
      1.8902916041369791e-01 -9.6220010799660555e-02
      -4.3116977130435448e-02 5.6124544700783430e-01
      7.0536022406329307e-02 -2.6142034317105528e-01
      -1.6242778531405092e-01 2.0709640431575992e-02
      1.5713493208267384e-01 -1.8371526649774317e-02
      1.2595650477064918e-01 -1.9075718459076155e-01
      3.5585228499163407e-01 2.3263822535777931e-01
      1.2517852168552834e-01 9.9919868343357948e-02
      1.0147399475359184e-01 -5.9750658708373393e-02
      -1.6870345386265914e-01 -1.9050885385895114e-01
      -1.1316735702328956e-01 3.4840736092908853e-01
      -1.6542803195397429e-01 4.5237084598500482e-02
      5.3840012822426724e-02 -4.0062849096167613e-01
      1.3484952358181071e-01 -7.3047806504043231e-02
      2.4824262402652203e-02 -1.0029401338640816e-01
      5.8698020560930231e-01 -2.9826877336926250e-01
      -7.1159698037171162e-02 -3.7579438736726761e-01
      -8.0152247201050728e-02 1.2204543657430440e-01
      9.8465537608024400e-02 -2.9488627832025455e-01
      2.4372595507811609e-01 -1.2588173320795507e-01
      2.7513088167475064e-01 1.0145910617627529e-01
      1.9922467920168774e-01 -4.6745015178837385e-01
      2.2194218600566962e-01 1.6020198977488331e-01
      2.5385266000001998e-02 8.7398641966106333e-02
      9.1253561563541918e-02 -3.0023806005252378e-03
      -2.5411255124841683e-02 4.5483346000936585e-02
      -7.6311035338142943e-02 3.5288826519515260e-01
      -2.1387766470328068e-01 8.6300880148752531e-03
      2.6915394192372927e-01 -1.9466412645133224e-01
      1.2942794818791903e-01 -3.8444019106953740e-02
      -7.6787190504254046e-02 -3.0634875538349027e-02
      4.5982164898182959e-01 -2.5593098950086052e-01
      3.3876916170028881e-01 -1.7933307272984919e-01
      -5.1929481051439319e-01 1.0228263219654055e-01
      4.9460716659513924e-02 -2.5480883393657620e-02
      1.4309477639080823e-01 -2.5437404442878725e-01
      -9.1340282716611071e-02 2.0589781905266646e-01
      1.1823675686224215e-01 -4.6424050991938620e-01
      4.3698904287480378e-01 3.5507309013592381e-01
      3.6536760739369643e-02 2.3631483710626683e-01
      1.5126840898444807e-01 9.2696362451937062e-02
      -1.6953138865285775e-01 8.0041666780353141e-02
      -1.7407662229433485e-01 3.5840278841650858e-01
      -1.9946067985361796e-01 -5.7160231052040267e-02
      2.0253408452295554e-01 -4.1992222373391802e-01
      2.4210492610983100e-01 -2.9288748111451227e-02
      -8.8918600207795198e-02 -1.1029365911650496e-02
      4.6982470515719205e-01 -1.6137818495216075e-01
      3.1995887295377029e-01 -5.7183427259102382e-01
      -4.1554466793363209e-01 2.7664922462849739e-01
      2.9916312886152208e-02 2.3133366992514184e-02
      3.7856689328332915e-01 -2.0911022907379387e-01
      6.8538544941428314e-01 1.8808730226659556e-01
      6.8219470252991021e-02 -4.6570720535908428e-01
      5.8664206016590859e-01 1.9428510996070797e-01
      2.7979180752153656e-03 1.6174753519067989e-01
      2.0464165897755099e-01 8.4127424254530486e-02
      -1.1235050792831526e-01 3.0742315047619310e-02
      -2.9802022244074300e-01 3.4221954371979701e-01
      -1.8318218965763461e-01 -9.4915379022757013e-02
      1.9961340787210144e-01 -2.5791483893952399e-01
      1.2976456663797881e-01 1.9041604714268263e-02
      -8.2266163944688400e-02 -1.5809843074889782e-02
      3.8219769275395726e-01 -1.8830221793284374e-01
      1.8775719197788637e-01 -3.0107252977784216e-01
      -1.1807388268625710e-01 1.4645480371377126e-01
      -1.8022467061133592e-02 1.2404767619529583e-01
      -1.0187331877147241e-02 -2.1025968772346351e-01
      4.9782410829147794e-01 6.1893194387240252e-02
      3.7276822273344612e-02 -2.1889146384259273e-01
      4.7683573240884186e-01 1.4126395672043973e-01
      3.1411772871573710e-03 1.7759264768082106e-01
      1.4205762475136199e-01 1.0720656679893513e-01
      -7.2670232921539041e-02 -2.0539512307874121e-02
      -4.0100777258225434e-01 2.9937492629774409e-01
      -2.9933189521345688e-01 -2.2055685174326080e-02
      9.3539059836615743e-02 -1.7807546006676050e-01
      -1.3613320384377285e-03 -1.7834794853161556e-02
      -9.8957007791256435e-02 1.4587645914804664e-01
      3.0992546873426929e-01 -7.0702347914555680e-02
      2.6490698707734767e-01 -2.1745419961227822e-01
      -1.1804399887677715e-01 -1.5612805076791438e-02
      2.6269729975734884e-02 9.3170516839131148e-02
      -3.5671772376956634e-01 -4.8051802607782954e-02
      2.3831490636299030e-01 1.5756719567649144e-01
      -3.0596423180160089e-02 -2.1261251170662188e-01
      2.9854053241117612e-01 1.0244565913073354e-01
      5.2744363736852831e-02 2.8348674658313699e-01
      1.4745870691419624e-01 1.0959577273208830e-01
      -8.7315063662130057e-02 -1.0646044428829696e-02
      -2.7927053056702128e-01 1.9912446380685164e-01
      -4.0313770902069473e-01 -1.6536111135817172e-01
      9.4368502181442118e-02 -2.6713193095582610e-01
      3.6065018872662241e-01 2.1004835667356680e-02
      4.4265543991941847e-03 1.6776425889232873e-03
      4.1533078752965435e-01 2.2225730255102935e-01
      4.3449895010453723e-02 -4.5604156849029454e-01
      5.8476814368296444e-02 -1.4427371909770911e-02
      -4.7492388506124243e-02 2.8274119022067380e-02
      -2.6376739789347020e-01 -5.0815174659937581e-02
      1.2957079531635929e-01 7.7492834734935265e-03
      2.4813085344732450e-01 -1.4880967294904326e-01
      5.1665873286868413e-01 -6.1177429407636597e-02
      -9.0730170897590681e-02 -4.8548381878786309e-02
      -9.4623691196817350e-03 -1.7339907839308624e-03
      -7.4581944391222205e-02 1.2879426256107429e-01
      -3.5105419591074805e-01 1.0481187064903072e-01
      -1.3223048566741566e-01 -8.3294251338426009e-02
      1.5247370114134010e-01 -2.4717193969990811e-01
      1.9433517476627971e-01 7.2598767183689530e-02
      -1.7555373179475888e-02 2.2326707454755974e-02
      2.2580628946155221e-01 -2.0505193846202482e-01
      6.9470465741553189e-02 -1.5456893387394602e-01
      -2.5326697310449144e-02 -2.9442601143584216e-02
      -6.9348895528515239e-02 9.3262072756970169e-03
      9.6638769549297031e-03 -1.5129619626124691e-01
      1.5904088849482484e-01 4.8718967796404347e-02
      1.3381571374931750e-01 -1.9235102456362796e-01
      4.0247834780148251e-01 2.8656774507680585e-02
      -7.3572078504896943e-02 1.1000598957311383e-01
      7.5763133685349898e-02 1.5252773734665938e-02
      -2.8071103034785619e-02 1.2428121828314595e-01
      -4.3302068442409852e-01 -3.5949817761702835e-02
      -1.0783387995425510e-01 9.5252209101289481e-02
      8.3642493565213749e-02 3.5109710247892875e-02
      2.9172696884038141e-01 2.8535811971903240e-02
      -5.9262263382882922e-02 1.7548895165443421e-02
      1.4282948079971508e-01 -3.9436047544191666e-01
      1.5517369362440392e-01 -1.8393505412938052e-01
      -3.9507912673328638e-01 4.6639482971613638e-01
      1.9030166652723210e-02 -2.2626972226095339e-02
      -3.0192374431918176e-02 -1.3125741600395288e-01
      1.3121908744539756e-01 -2.0276624202228845e-02
      1.1590959922797323e-02 -9.3219198749725812e-02
      1.8573653190760844e-01 -1.4603694107011416e-02
      2.5998214894703976e-02 7.6250028823335980e-02
      1.6547330445630548e-01 6.4160864842328760e-02
      1.7936760465906983e-02 -2.4623222967505404e-01
      -5.7037181395622183e-01 9.4647347728804426e-02
      -2.0697143822998035e-01 3.8514351278957984e-02
      -1.4390751499311574e-01 8.7316108820843430e-01
      3.2661192265334489e-02 -6.1446184323808608e-04
      2.9904343760699406e-02 -1.5681336465213490e-02
      2.9193897859503676e-02 4.2413676126067723e-02
      -4.7363003146267552e-01 2.0018773166448250e-01
      3.4903016583971025e-01 5.9196224769599744e-02
      1.1947465201924683e-02 -7.0175563862470688e-02
      1.2717161797020532e-01 -1.0456461837384037e-02
      -3.9937837341816917e-01 -2.3567684190174096e-01
      1.8591736005076720e-01 3.2990652860469406e-02
      -1.7413187543908829e-01 -1.3100775093261174e-01
      -1.4565161052836975e-01 -1.5687499057311421e-01
      -7.0172187100141697e-02 -6.2466806970847805e-02
      3.4356727155685898e-02 2.2283042716862259e-01
      -3.9378392737842488e-01 5.8605687914437481e-02
      -1.2047867230519009e-01 -2.1357117795486036e-01
      6.0827795768410645e-02 2.9624376955857339e-02
      1.6182578053254215e-01 9.3278831642178844e-02
      6.7788775015261316e-02 -9.2955270608605756e-02
      8.0909194099450008e-02 -2.5274193721123323e-01
      -1.7349587173252345e-01 -5.2369267828160891e-03
      1.5723022938888814e-01 -7.2062155886927950e-02
      -6.1727220252078781e-02 -1.8286440273616295e-01
      8.3811665293078583e-02 7.9034401883222846e-02
      -8.4901347638314167e-02 -2.2645579454426901e-01
      1.4235436317035624e-01 -3.3931269334976971e-01
      2.6480335453881820e-01 1.7696111625628499e-01
      -2.1418692770973891e-01 -1.6677567364350440e-01
      -4.4571218718007156e-02 -8.1485058196010790e-02
      2.7153734412701833e-02 -6.7653539866086368e-02
      -3.0357089733573456e-01 -1.0763149845403973e-01
      2.6109710529501456e-01 3.3252272579051845e-01
      1.1184969776413582e-01 -7.8350958160038370e-02
      -1.4869456029314643e-01 -2.8781164173507682e-02
      -1.2214471879328476e-02 6.4204494451396033e-02
      -6.8622494816243662e-01 -1.9247878285920828e-01
      2.4181967254498252e-01 2.9659390913368133e-01
      -1.6641897158302282e-01 4.2266966986210804e-02
      3.1249618717420696e-02 -7.1154665466281408e-02
      -4.5977341646760073e-01 2.4819439978383767e-01
      -5.9343464409509272e-01 1.6893630251303006e-02
      -2.1604038970324174e-01 4.9325004172703295e-02
      -5.4379471596708633e-02 1.3618615188672586e-01
      1.5078005750464329e-01 1.9098969796594109e-01
      9.1396829565033436e-02 7.2824301256895346e-03
      7.8612314023496610e-02 -3.0051991343178075e-01
      -3.7513941016627422e-01 3.9591256802493820e-02
      2.8022411648043137e-02 3.2663888291609010e-02
      -6.1242105924316309e-02 -6.4438254380524207e-01
      2.4884685118983763e-01 7.0242542042793302e-03
      7.4307629950643370e-02 -9.9307397109489187e-02
      -1.0747976401390599e-01 -3.7500531840170814e-01
      2.0267567716652710e-01 3.8226100847302374e-01
      -1.6454617520807877e-01 1.3716191901020039e-01
      2.6098497451878266e-02 -7.5583456628349865e-02
      -2.3832904668437277e-01 1.2196981905444856e-01
      1.0053856996473763e-01 -1.0242637490871660e-02
      -6.5264214386435071e-04 4.2957300028398454e-02
      2.6317099738587402e-01 3.6174498479144633e-02
      1.5560832716118997e-01 1.3734548957284057e-01
      1.0057993258182138e-01 -7.1712446627438406e-02
      4.6218451758219037e-02 -1.0911195113138093e-01
      -2.9807215299841722e-01 -2.2000150707884143e-02
      -1.8411106393469365e-01 -8.2154335630044498e-02
      -6.7702980808617474e-02 -2.4783584716290763e-01
      3.7544821661378297e-01 -3.5168300697401005e-02
      1.2037350755724492e-01 -1.1720622903631023e-01
      -3.6296671687051768e-01 -7.2831535147629051e-02
      -1.3855907771665177e-01 -5.1781562967734884e-01
      -3.0609186211983158e-01 2.9112902574469507e-01
      2.5395151942926179e-02 -2.5478330317676540e-01
      5.5698439520697696e-01 1.1659150287033497e-01
      2.8638989371046730e-01 -2.6103858474337682e-01
      1.8287117746678633e-01 -3.1717842316372252e-01
      -4.3465740409808246e-02 -7.2208000311696149e-02
      3.3770283183092373e-02 -9.4764250833921704e-02
      1.3529572798425930e-02 -1.2391137897724105e-01
      -1.6808070678222273e-01 -1.3229409604919645e-01
      3.7403928524264307e-01 -1.3279202294621239e-02
      -1.8740626638844824e-02 -2.4519413612582076e-02
      1.0355628327520933e-01 -2.5406078967945017e-01
      7.0000534118464700e-02 2.6217919190976543e-02
      1.4839262919190724e-01 -1.7156163534002938e-01
      -1.1008346150494591e-01 3.0229441854400235e-01
      1.8827253170800651e-01 -1.7979862976963149e-01
      -8.3602059582667504e-02 -2.5409678195252349e-03
      5.5830859719241989e-03 -1.7143603836675533e-01
      4.8471055339594477e-02 2.3786941484020505e-01
      1.4505232935650519e-01 -1.0924045690532314e-01
      1.8048769714906066e-01 2.4888905060950486e-01
      3.0826582954586768e-01 -1.0879274863744957e-02
      -4.5820398050229375e-02 -1.6545258884225832e-02
      3.6983126064545555e-03 -1.4298082407468887e-01
      -7.5789355619153009e-02 -1.4602565636900894e-01
      3.1169349867063395e-01 -1.1103703183766175e-01
      -8.0619362156905405e-02 -2.7704605718708284e-02
      1.0536030648813949e-01 4.3091871592370934e-02
      1.5681872472332792e-01 1.7433991771096276e-02
      8.9436091230031156e-02 -1.0304599113845836e-01
      -1.6982028749043335e-01 1.3022183112822652e-01
      7.5669286317792211e-02 -1.3699421875746218e-01
      -2.0534272470000395e-01 1.6007443526632281e-01
      -2.0658336356116874e-03 -1.0085487292449830e-01
      7.2874575107957196e-02 1.3610059010577788e-01
      1.4522233250989086e-01 -1.7462355389540624e-01
      7.9358421476516616e-02 1.3847002048414264e-01
      2.0789064591977002e-01 -1.8432923661291012e-02
      8.2502235383119672e-03 -1.8458544354468390e-01
      -2.9091457623294969e-02 -9.3921399295064614e-02
      -1.4350175849735974e-01 -1.6130730157244419e-01
      2.4268721606686533e-01 -1.8074966525708423e-02
      3.2709495689075288e-02 3.1204433966423903e-02
      8.3108519890209592e-02 -3.2649955858667111e-02
      1.0079225764031945e-01 -8.4948431001132564e-03
      1.4459661361823015e-02 -7.8892511016259492e-02
      1.9123714030384334e-01 -1.0452976031894891e-01
      1.2550742165926945e-01 -2.7815220300754246e-03
      2.4304779441143457e-02 1.1827581626842226e-01
      1.9942685247644813e-02 -1.2767762537492297e-01
      -1.9385341570481038e-01 2.9860572658401828e-02
      1.8173827605749537e-01 3.4773436534999619e-02
      1.0621915790473454e-04 -4.9836438446941245e-02
      3.2969569537863536e-01 7.8165770184978195e-02
      5.9581238438437864e-02 6.8534406235548656e-02
      5.9277782951314445e-02 -2.1825366643612412e-02
      3.8600915728900023e-02 -2.3099375488286439e-01
      -1.8315465595212255e-01 9.9852860115425296e-02
      -8.5318022299617227e-02 4.2971789693820046e-02
      5.8493031855417044e-02 -1.6676570496472304e-01
      -5.5002786520370233e-03 -1.6554760586948599e-02
      2.3787313035464150e-02 -3.3804162196669374e-02
      2.0163687122308435e-01 4.1078409609684757e-02
      4.2011425192483347e-02 1.4202277313236525e-01
      6.2017076471193666e-01 -2.0429195193160815e-01
      1.3083051780482819e-02 -1.4378332224709274e-02
      -2.2056776762587946e-01 -4.4508843004114410e-02
      -9.3810136493887003e-02 1.5915706582331193e-01
      7.5006919251250845e-02 9.0590421162915907e-02
      -1.1285494449338221e-01 6.5107620146426112e-02
      -4.0370541633055118e-02 -3.2122746372580425e-02
      -4.2803051406065232e-02 -3.1125279399854749e-02
      4.6052858206393849e-02 1.7876488966661747e-01
      -2.4560968732625352e-01 -1.8946682753837461e-02
      -2.9625523142889382e-02 2.4714554353436871e-01
      1.2373702788475098e-01 1.9908971804056114e-01
      -1.6159944241201055e-01 -6.7893476962471541e-02
      -1.2105398076982579e-01 4.6216512596698116e-02
      2.0220550762962929e-02 -7.0631313850367070e-02
      8.6236263725022189e-02 3.0260463053968667e-01
      -1.4217973781933746e-01 2.4638786424000056e-01
      7.3099222257736962e-02 1.3909651653879035e-01
      -7.8195774648500152e-02 -1.9363096344706948e-01
      -2.9531379319304524e-01 1.1720674912143009e-01
      -1.4409505316577997e-01 2.6652019318461245e-01
      1.2297248717202908e-01 9.3459783642393005e-02
      1.1424243230116295e-01 2.6751674705588308e-01
      1.6850965582055888e-01 1.4083065085819307e-01
      -1.3205075277788964e-01 -1.9787942454950382e-02
      -6.7929783030723201e-01 -2.3467222593789597e-02
      -3.3525919161524143e-01 3.2931851728446510e-01
      -7.2450760930298065e-03 2.0666369238221730e-01
      -8.1378021133531597e-02 -1.0236986547363899e-01
      -9.6831080586246204e-02 2.2921672055195885e-01
      1.4661426701628910e-01 -2.2943937980854923e-01
      1.4562590358120365e-02 3.2478416800039095e-01
      -2.2706359742575388e-01 3.4966255571917165e-01
      9.3379262661723805e-02 1.0648744314775091e-02
      -5.8135826581372445e-02 -3.2782083132832202e-01
      6.0813960613145937e-02 2.6139182964955626e-01
      -1.5856262142036920e-01 2.3795225652007110e-01
      1.7571378242306124e-01 -5.9494154997299889e-02
      1.6250225685699379e-01 1.5510514875737791e-01
      1.6278489939420676e-01 1.3806842687126367e-01
      -7.5944633473355089e-02 1.7734007862421119e-01
      -3.0256800554114899e-01 1.1102854040102078e-01
      -2.1467217930269292e-01 6.2731130691205825e-02
      1.0549608682954958e-01 -1.8198381990500834e-01
      2.9328544581264226e-02 -7.3875958953678378e-02
      -9.4239212887354151e-02 1.0237569962829028e-01
      1.9698308633358308e-01 2.9806497695834912e-02
      2.3767997736950808e-01 1.6269962639126040e-01
      -1.4617404020341301e-01 1.5264444568330213e-01
      2.3558629060109491e-02 1.5132063112857708e-01
      4.1674483657965736e-02 -1.5294472475236642e-01
      9.2801965289185953e-02 2.3651676901038244e-02
      -5.8731888261881665e-02 2.3920767466158663e-01
      1.7263301262840755e-01 -6.8834350255774336e-03
      7.0783811510003555e-02 1.6690483403609738e-01
      6.7297709985832399e-02 1.1585946568170809e-01
      -6.7227308734549865e-02 3.4189308747356074e-02
      -5.4373412196523208e-01 1.3534837046042222e-01
      -7.9329775571993513e-02 1.6741396238545631e-01
      6.9887691040730018e-02 -1.9331612121558425e-02
      -3.0814739902860221e-02 -5.5910811774689470e-02
      -9.7306606382720109e-02 1.5290759998344747e-01
      1.4646480635921141e-01 -8.3970704157923903e-02
      3.9097369869313253e-01 1.8939746955657005e-01
      -3.0501367566352666e-01 2.3032039385051867e-01
      -8.1088135396710816e-03 2.0728708356770584e-01
      -4.8146266359890028e-01 -1.8581851185387185e-01
      2.7999957465554559e-01 2.2365840648914101e-01
      -1.6054340781225304e-01 3.6714191692248088e-01
      5.1018580444342758e-02 1.1051738452695184e-01
      1.4498716573179410e-01 2.9864241570974231e-01
      1.4659770552642595e-01 9.7270743675873766e-02
      -6.1088883483691993e-02 2.5854728344586035e-04
      -4.8662252325366723e-01 1.7646087761854157e-01
      -1.7493859265930323e-01 1.4057361673826043e-02
      2.5940465457621485e-02 -7.8045479725164693e-02
      2.5321503522320316e-01 -4.8505249995733857e-02
      -2.1523247094813937e-02 -1.9216449987096696e-02
      3.9635379226856726e-01 1.5046490564812007e-01
      1.2039940073067712e-01 -2.2607439862784684e-01
      -1.6237666522570207e-01 1.5217326354174213e-01
      -7.5769705228413399e-05 2.7567862831785951e-02
      -1.7556947731632738e-01 -5.0486348072165385e-02
      3.8112129518259452e-01 2.3726397656530765e-01
      1.2639506871687947e-01 3.7584219007346188e-02
      4.3860469451343037e-01 -1.0167147953391727e-01
      3.6705494408274079e-02 8.2186555810756651e-02
      6.7560939311432366e-02 3.2079539727304068e-02
      -1.2191009472496607e-02 1.8671479543929337e-01
      -1.5216195441968081e-01 1.1721768507016635e-01
      -2.4197198630822131e-01 -1.0762583329875150e-01
      2.0673500363391409e-01 -2.8307598272670903e-01
      1.4650868941044620e-01 3.8448097270900920e-02
      -1.3607456841072259e-02 1.3788467683533889e-01
      2.8390049131097694e-01 4.6050571737854297e-02
      4.1170402088683822e-01 -1.6672901292286532e-01
      -1.5173839050489274e-01 -2.2253494340286579e-02
      -3.5725824119536516e-02 1.1810950358980497e-01
      4.6252055331189078e-03 -7.5555109607410839e-02
      3.9615792860337556e-01 2.4888511953358639e-01
      2.3063461630384371e-01 -1.0315749300936816e-01
      4.7316347248281071e-01 6.1243998435712724e-02
      -1.7481798496623673e-02 6.0480849483907535e-02
      3.3434904063572274e-02 1.5922449642656693e-02
      -1.0045212355251526e-02 1.6764863944791941e-01
      -5.6178207471072017e-01 1.5470259920270116e-01
      -1.9591073708952295e-01 -3.6021514610035041e-02
      1.5249433282746039e-01 -4.0130311737702429e-01
      3.1722370920289711e-01 -1.5363099389716797e-02
      -4.8104576391785947e-02 3.3324636565308950e-02
      2.9505794395579948e-01 -2.6283743672375304e-01
      4.2325363231952601e-01 -1.9550380151450852e-01
      -8.2841448322342925e-01 4.4544523642852624e-01
      7.9037185487161279e-02 -3.4770507993686889e-02
      1.3283135936857265e-01 -1.1422274535531841e-01
      6.4694035122518534e-01 2.6861695284954759e-02
      7.9986925129642325e-02 -2.0223212411874517e-01
      4.7150986432264219e-01 1.4758684921556153e-01
      8.4563330677701512e-02 2.5684627671079119e-01
      1.6365959795380025e-01 4.9223342208095891e-02
      -9.1738545828085341e-02 -1.3303345023431717e-01
      -4.4143097098034906e-01 7.4888141686933307e-02
      -1.0495699965643494e-01 -8.8152417787657145e-02
      1.7522164204695781e-02 -2.9659420870986686e-01
      1.9770784753332321e-01 5.0638618000035912e-02
      -1.0579706482266446e-01 7.7330850475709076e-02
      2.3893761994004520e-01 -4.1094043757996424e-01
      2.8413723547302783e-01 -3.7911222679030210e-01
      -4.1394233559320065e-01 1.9232042069765598e-01
      8.1071913528756576e-02 -2.5656358836194205e-02
      2.1126246593212389e-01 -2.5244463621862545e-01
      4.5696198766295326e-02 1.1296781320713926e-01
      4.0939473511521558e-02 -1.7129765725874155e-01
      1.8133878972268774e-01 2.4933980419418195e-01
      6.2422308287449983e-02 1.8214227460009699e-01
      1.7137083890339105e-01 9.1597526023267040e-02
      -8.4936462459341468e-03 9.0530175120164778e-03
      -3.1055260923085776e-01 -9.3937995634483046e-02
      -7.2145211647908061e-02 1.1520579286745808e-01
      1.0561405137161072e-02 4.4767646118837601e-02
      -6.3788451943943322e-02 9.3507960711669870e-03
      -2.8063198234521275e-02 1.0455341408539139e-01
      1.1422578449868866e-01 -9.3034190293969948e-02
      1.2202256087381652e-01 2.3522641197427147e-01
      -5.8216581271186903e-02 -9.0550540099382931e-02
      -7.9750025418603692e-03 3.4744740305248940e-02
      -2.3848716373262444e-01 -1.6728814928697927e-01
      -1.5204879188939491e-01 1.3105307617303863e-01
      1.1232340915870916e-01 2.8991444967746957e-02
      1.4785642751238359e-01 1.0075387488146000e-01
      1.3833918605675094e-01 1.2542998870811808e-02
      7.5350644154484933e-02 4.6218358645233798e-02
      -3.8509084571188160e-03 -1.9198947055640964e-03
      -4.9341042015956504e-01 -3.3702522869834016e-02
      1.7066789788744882e-01 8.8622986096420817e-02
      3.9862410632508692e-02 -1.6172760118730287e-01
      -4.0299030427430965e-02 6.0940431708566466e-02
      -2.2696558521425707e-02 1.4095053081738823e-01
      -2.9619111683592397e-01 -2.6112883401559012e-01
      2.5988484370863912e-01 -3.6846410918767128e-02
      -8.0808604202725662e-02 1.3071632028235597e-01
      1.2585262475831515e-02 -6.9864899580509829e-02
      -1.3916950663997079e-02 7.4162240292340836e-02
      -8.5940482928692857e-02 6.2936342330100203e-02
      -1.6258806173186152e-01 -1.0389058459816285e-01
      1.9368599086785762e-01 1.4839280707613250e-01
      2.0044236797386575e-01 1.0778498958940573e-01
      8.8044301123163290e-02 5.8816837036126571e-02
      -8.8313813426775467e-02 -1.6086404565602075e-01
      -3.3357119541430830e-01 1.1876398321193540e-01
      6.9254160880725307e-02 -2.1153172656475486e-01
      -5.3199765823135958e-02 4.7615437053457272e-03
      2.7224800544357075e-01 -4.4243979802487329e-03
      1.1164333370168270e-01 -2.6114048864691847e-01
      1.7164704289059807e-01 4.1535628625984547e-02
      -9.4907136699983574e-02 -2.5125277572347671e-01
      1.6115957914878928e-01 5.1254657072104692e-02
      4.2863410671126610e-02 -1.6020035773453331e-01
      1.9814289117397843e-01 2.0978013269629958e-01
      4.5526348606749784e-02 -1.2813400273600964e-01
      3.5844493229800552e-02 -2.3852749916946242e-01
      -3.0980613013310793e-01 -4.7318472521861950e-02
      -6.4961125651208845e-02 -1.8837103177318060e-01
      1.3545562339233229e-02 -1.2217060901973079e-01
      9.5262131656699417e-03 -2.5790725931974390e-02
      -4.9183861706159154e-01 -1.2995608747842127e-01
      -1.9326860303479240e-01 -7.6280869578751145e-02
      -4.8846089066676875e-02 -6.1204446386086596e-02
      2.4791333987863723e-01 4.2182477784876715e-02
      1.4213545217100398e-01 -8.7760907801985186e-02
      -1.4112512877706226e-01 7.3865211263975022e-02
      -2.3559097593754930e-01 -5.1579458787281385e-01
      -4.1435912348904430e-01 1.1539507873012246e-01
      -1.6578897287789038e-02 -1.6831114845370865e-01
      3.9611702093698470e-01 8.8982029267095322e-02
      1.1174840000060067e-01 -2.8029647799983498e-01
      2.4872517832681476e-01 -2.3113792656933119e-01
      -9.4341548449116353e-02 -1.7537562534488463e-01
      -8.8590429438725776e-02 -1.4298568667801048e-01
      3.0015594976837878e-02 -1.5669866380537920e-01
      -1.6398286858253458e-01 -7.1942147211199936e-03
      -5.4413232036812087e-02 -1.9885145590520847e-01
      -2.5922046212999111e-01 -1.9188280999350989e-02
      -7.7346102728994268e-02 -3.6796783628233513e-02
      1.5620714038117017e-01 -3.9481519791333089e-02
      1.4386383126359545e-01 -1.8479402750442578e-01
      -2.8061464393805130e-01 1.9597017898083549e-01
      -1.6844927595321188e-01 1.6012200879360561e-01
      4.8059749300740462e-01 3.6106076252159287e-02
      2.9188289543414007e-02 -1.5807559817076156e-01
      -8.6002876307521153e-02 5.8743120636830383e-02
      -1.8909239293920638e-01 -1.7475350084476652e-02
      2.0180364759604269e-01 1.9508589462601966e-01
      2.5470437460319982e-02 -1.2388346028368792e-01
      -2.4267708618566405e-02 -6.9290948571068101e-02
      2.4814396996767577e-02 -1.2042844985391844e-01
      6.6293031291318943e-02 2.5999752766859073e-03
      2.1262256335311031e-01 -2.7215601590479305e-01
      7.5988701875264492e-02 3.0701012118928943e-02
      2.3482460697860440e-02 4.0524865260848458e-01
      -2.2605765188547131e-01 4.1662590131960581e-02
      7.6477592646047338e-02 -9.2782688560258966e-02
      -3.4771912036944613e-01 2.6158233817928417e-01
      7.2862986024878219e-03 2.7885661934422407e-01
      1.3515668076454396e-01 -1.1307907825454959e-01
      -6.6419744982396958e-02 2.6989082161340161e-02
      -3.3144574246363900e-01 4.6740438417487644e-02
      -2.0530405633499638e-01 -2.5611649845210338e-01
      1.8714938961848740e-02 3.7497079533610422e-01
      -3.6821200975777624e-02 -1.3166308703815424e-01
      -3.5744850984583035e-02 -4.9418028202073729e-02
      -2.3101588060657173e-02 -1.0407927607269993e-01
      -2.3329505665807569e-02 -1.4851718335542494e-01
      4.1647750543866990e-01 -1.8470409478372318e-01
      5.4927018882614982e-02 1.3081808559321423e-01
      -9.2374817311408786e-02 2.4650614374442448e-01
      -9.6344118374868740e-02 -7.0945275530460331e-02
      2.8671986359673697e-02 -1.5686609845009597e-01
      -9.9877383584232995e-02 2.4773962730290793e-02
      -1.1762652846346164e-01 4.3980058379995407e-01
      3.2081512605890115e-02 -1.1834565344202528e-02
      9.9384629584005381e-03 -9.9247099668569282e-03
      -3.1676661571648584e-01 -2.9877803965499692e-02
      -2.0638384262597839e-02 -6.3654386657126569e-02
      -2.1348744543091155e-02 1.9000195021241670e-01
      -1.6949010798207054e-01 -1.0094246408517885e-01
      -3.8938806222421885e-03 4.5213577245704177e-02
      5.1469353251277397e-02 -2.4692489632638270e-02
      1.0702342483020647e-01 -1.7800743211734563e-01
      4.2463579212266803e-02 -1.6688418714076458e-01
      1.4614625736672973e-01 2.0588809681670900e-01
      -9.8598029887877997e-02 5.0733691579467455e-01
      -2.2713775654349730e-01 1.2410163422124332e-02
      -5.1257239051069284e-02 2.7620145162639075e-04
      -4.0336514321959066e-01 1.6655256627066475e-01
      -2.2698217885356198e-01 7.4626820493691126e-01
      3.9254581809706235e-01 -1.2276825277404051e-01
      -3.1934011882677305e-02 1.3760948078015753e-01
      -6.7149259525733485e-01 3.2069804617017414e-03
      -6.4399996769308976e-01 3.5179183217760625e-02
      -2.2935036437091483e-01 4.2537591115505075e-01
      -7.2067907944021092e-01 -1.1852707541808179e-01
      2.8256884233558575e-02 3.9992499501442152e-02
      -7.7942605039323619e-03 6.3263503391296882e-02
      4.1570632145015177e-02 1.3548417317741486e-02
      -2.2433499592437096e-03 -1.1693362593259704e-01
      1.0911135213311611e-01 1.5509908494644764e-01
      -1.7035600016934074e-01 7.5414570426755689e-01
      -2.3174284086209196e-02 -8.6104957375914837e-02
      -8.8205351278013572e-02 -2.3801208514958500e-02
      -2.2748927900475779e-01 3.9886345273108476e-01
      -5.0465185707011140e-01 1.2529446580872913e-01
      5.5352363827157536e-01 -2.4279366890266624e-01
      1.3365241101786632e-01 8.3473453452210800e-02
      -4.6154993315106296e-01 1.0520184429469233e-01
      -6.2557637859874848e-01 -1.6924826860874756e-01
      -1.6694133316977799e-01 2.5932328657694803e-01
      -4.6184902691130741e-01 -2.6652985894925701e-01
      2.6679322403534760e-02 -1.7509556126992298e-02
      6.9198395448425931e-02 9.2786924272056454e-02
      -1.0575905403626958e-01 1.2272529051230078e-02
      -4.9104663286915165e-02 8.9132093928553063e-02
      2.0654267730174125e-01 1.0367889936135283e-01
      9.1339290254988048e-02 2.9645591014701017e-01
      -1.9880122300887904e-01 3.4905369456247656e-02
      -1.1995147071306250e-01 -2.3030706136082390e-02
      -1.1258211431876559e-01 8.7926177545386328e-02
      1.5553916568918102e-01 9.7938746351706296e-02
      7.4890750756910027e-02 -8.7286743153768373e-02
      5.9577757512457669e-02 1.8812193427491367e-01
      -2.5994678501077612e-01 -9.7654241042297810e-03
      -2.2468573151192392e-01 -2.5020529163067217e-03
      -7.2760180770450489e-02 1.2946832416818208e-01
      -1.3235849210883163e-01 -3.5815238322613380e-02
      2.7686581548399824e-02 2.3068608840795241e-01
      6.6673982216730376e-02 1.2216778694453694e-01
      2.9672191398841103e-02 -5.0774269579504844e-02
      -3.1160061677660633e-01 2.0045617731961243e-02
      7.8963208015059932e-02 9.9783922593732657e-02
      -8.6679377639660334e-03 1.2738936957839725e-01
      -7.7985949461551560e-02 -1.2873863202973705e-02
      -7.5679431354629650e-02 1.1818975303699777e-01
      1.2938199066107964e-01 -2.3468048658216997e-02
      5.1423906776410032e-02 1.7896143087119151e-01
      -8.5114572717435152e-02 -1.3189577976347466e-01
      -4.4840612574592445e-02 1.7272764186377282e-01
      -7.7581285377033099e-02 -1.7378950724400472e-01
      2.6541944874411760e-01 1.2678917153388103e-01
      -1.0411036296071248e-01 2.5426514015629054e-01
      3.6977102157335773e-01 -2.9678054467207633e-02
      3.0237531798665063e-02 3.4060487144954394e-03
      -6.4884645328732804e-03 7.3456776018802281e-02
      5.3776806580754420e-02 1.4067591948244978e-01
      -3.2720535294394343e-01 3.3897792674333502e-02
      1.1312531422876457e-01 1.6637026162202667e-01
      3.5735037404535798e-02 6.0357009078910673e-01
      -2.3493730775047225e-01 -2.5245923198201639e-02
      -6.3073624631650893e-02 1.7265344159068555e-01
      -8.7790630056007318e-02 4.5494318590755567e-01
      -9.8917427922768184e-02 4.4334392446864335e-01
      1.4878741679172244e-01 -2.2378575123415334e-01
      -5.1598767617114495e-02 1.7629622256430746e-01
      -4.4536480123007122e-01 -8.3492634572960925e-02
      -2.2373183404423633e-01 4.1519609288678282e-02
      -1.8667951773659508e-01 6.0553533052969521e-01
      -3.0863361293306157e-01 -1.3305413477571443e-01
      7.6006237409906710e-02 -9.3929442157332423e-03
      -6.1151642258519268e-03 5.8854964207788872e-02
      1.1293977053267897e-01 2.9849760296354989e-02
      -3.5793340479612024e-01 -1.3504275306691507e-01
      -5.3314565709074594e-03 1.9565266734032036e-01
      -1.0038062254216573e-01 2.2948224509474860e-01
      9.2108604427540194e-02 3.1936505053967112e-02
      1.3314183838631878e-02 9.1656786144488522e-02
      -5.7342327739579584e-02 3.4701476351749860e-01
      -1.3779455190447776e-01 2.8749251032021783e-01
      1.6199599281134636e-01 -5.6286571484605072e-02
      -3.6438930501450528e-02 1.3296209677358087e-01
      -1.4941944436258650e-01 -2.7314335050443932e-02
      4.5618672180390216e-03 1.4132938455995436e-01
      6.2972350921001966e-02 5.0191007115112563e-01
      1.7016881094602554e-01 -1.3448516777517386e-01
      3.7385628037413306e-02 -2.6095657673300198e-02
      -1.3456066934166780e-02 -4.1940049042171763e-03
      8.2882208806308255e-02 1.6675828342430332e-01
      -2.3117298859698288e-01 -5.4638924628103908e-02
      -2.0893190032259099e-01 1.4191529820723220e-02
      1.6093015808971267e-01 6.5145505964415262e-02
      -1.6152536378524673e-01 3.7949691491777279e-02
      -9.4802353010015120e-03 1.7176193131974898e-01
      1.2841256234004160e-02 2.9783900133161700e-01
      9.3554083493452206e-02 2.8999810340335280e-01
      2.2968137779144446e-01 -1.2909776361687500e-01
      -3.6585744232352516e-02 1.6667323689426680e-01
      -2.1886249561724827e-01 -6.4638008552940301e-02
      6.4591674660340825e-02 2.4478733516964313e-01
      5.4401053649070510e-02 5.4474813055988314e-01
      3.9033470504229928e-01 -1.5267702791069008e-02
      -1.2928008518224770e-02 -3.2393469598350481e-02
      -1.0837356884942091e-02 6.9345406406595466e-03
      1.3095446373227398e-01 2.8514714183478601e-01
      -3.2687155031855580e-01 1.0996968194551329e-01
      -1.8675202808935265e-01 -5.4371235667613128e-02
      6.9139288580409561e-02 1.1887965660671478e-01
      2.6533325394623158e-01 -9.1019673764765746e-02
      -3.8397987215131602e-02 -5.8706396188363104e-02
      3.1166257600626052e-01 -9.1155125828375361e-03
      1.1769391564153812e-01 -5.2356864694955568e-03
      4.1362506543998846e-02 1.9328358715829780e-01
      1.1161954224420140e-01 -9.1150312389368618e-02
      1.5432765658573844e-01 -7.3385784376680183e-02
      1.7965998845934875e-01 -7.0727688785444789e-02
      8.2210737075378071e-02 -1.0828780370631298e-02
      1.3245281678931950e-01 -1.0830571214553038e-01
      3.2145369072607906e-02 2.7171089149067604e-03
      8.6833897102255461e-02 4.0825377063734160e-02
      -9.5950993215193001e-02 4.5680457567407108e-02
      -3.2895048573832053e-01 2.1379102077525980e-01
      -2.5487247564020926e-01 -6.5771436040520806e-03
      1.0880665757209772e-01 -7.8623253412431282e-01
      2.9810277436867277e-01 -2.2569772148210844e-03
      -1.2425986627975587e-01 1.0448796473237010e-01
      1.5319792084576592e-01 -3.8038003503718548e-01
      6.1234379111584458e-01 -4.1502903524737139e-01
      -1.4155857639160316e+00 5.6544243787296478e-01
      1.4265579795624347e-01 8.5147700409402130e-02
      3.9477852955523846e-01 -3.1742337641206297e-01
      7.6297571857019231e-01 2.2559825605468220e-01
      -1.1574848045847592e-01 -2.4632325272500227e-01
      6.0793045007762381e-01 3.4879498559429351e-01
      2.0535164306756590e-01 3.6406013484787925e-01
      2.7631540917931019e-01 1.3335050033577156e-01
      -1.0816666772329926e-01 -8.2195670607794313e-02
      -1.9138613008481462e-01 1.3628843462882956e-02
      -1.9873201071077357e-01 5.9222865229278374e-02
      -3.5964031617160639e-03 -1.3340202698302822e-01
      7.3671359933875927e-02 -2.0285063625869713e-02
      -3.5262176743577102e-02 1.1731493552387777e-01
      -2.0241176249579797e-03 -1.6826015785377377e-01
      1.2536435302152621e-01 -3.9091176170294784e-02
      -4.5683578256407020e-01 8.5582850921165646e-02
      2.9843837950519661e-02 4.8500869956157308e-02
      6.7207249923118134e-02 -1.9581401130719120e-01
      -1.4153697105218055e-01 -3.6367451781160277e-02
      -9.4662458613798562e-03 -1.8112996893688721e-01
      2.4132756957008231e-01 9.9144820960256036e-02
      1.4604615786997008e-01 7.9621222603049852e-02
      1.0380458334702260e-01 5.0774597059682916e-02
      -4.3051985406381277e-02 -2.2798825891387164e-02
      -5.9657096718550917e-01 1.0085531980313066e-01
      1.9824515294352910e-01 -9.8606288493445091e-02
      -2.5381154439040914e-02 -9.4120407859882196e-02
      1.7547195546272365e-01 5.2740340290672288e-02
      1.8168104479772854e-02 7.0491181852028142e-02
      -5.7961595186950605e-02 -8.7770909869530650e-02
      1.2107439574478780e-01 -2.9426734925058112e-01
      6.4537659415477691e-02 1.7120017280276043e-01
      1.5482830043922037e-02 -1.2499950388299101e-01
      1.8869338769219274e-01 1.7678761552611386e-01
      4.5373067078731566e-02 -7.9368643446745032e-02
      -8.7974786276564347e-03 -4.0495664964697276e-01
      1.3362038919709343e-01 1.1322588883319115e-01
      3.4961921602639875e-02 5.8202441341591825e-02
      5.6231830420823602e-02 -5.9918143749305717e-03
      -1.3056911079049094e-01 -6.3864042350947156e-02
      -5.8813411036043217e-01 1.1000211518504091e-01
      -2.7137831094260385e-02 -1.2618652450030848e-01
      -7.1619195155088550e-02 -7.8491268717556337e-02
      1.0814178691872983e-01 1.6160388376324841e-02
      9.0320045696343554e-02 -1.9849788422046794e-01
      1.6430778012776592e-01 8.4427712537385805e-02
      -5.3698875984962896e-02 -1.1108825219408569e-01
      1.0664610761800468e-01 7.2853320800991064e-02
      6.9406632680336861e-03 -1.0629945697592290e-01
      -3.2311924734824399e-01 1.8252650940898132e-01
      -4.2911043337064962e-02 -1.3413748948045309e-01
      8.2404062902471011e-03 -2.5737444021004779e-01
      -1.4369221192611281e-01 -2.6906625559115754e-02
      -6.8120491410744041e-02 -1.3727231731348150e-01
      3.9646154525738815e-03 -9.5800708889629174e-02
      4.5140715886717628e-02 -3.6412269419706281e-02
      -3.9316097443212911e-01 6.4636054777958099e-02
      -1.4143344414099771e-01 -9.8607999504195701e-02
      -1.3393119123148212e-02 6.4047087124928714e-03
      1.0093722769090048e-01 6.5632403664560565e-02
      1.2590199484926373e-01 -1.3244716662380837e-01
      -6.3791530199561491e-02 1.0883406264131604e-01
      -4.6323217824061363e-01 -3.8193903521725020e-01
      1.0029472795224414e-01 -5.0084081082539221e-02
      -1.0282627669151805e-01 -1.0354365311420484e-01
      8.0474919250967350e-02 1.5814731576276747e-01
      -2.2275529732264435e-01 -1.5480408920081262e-01
      2.0520506684148943e-01 -2.1800394429458855e-01
      -6.1307162780664337e-01 -2.3733284742293712e-01
      -1.0214355770994379e-01 -1.6553127424369038e-01
      -7.1404793767803967e-02 -1.2093203492807811e-01
      -3.3235797960735398e-02 -5.2535645328488902e-02
      -4.1128027239419213e-01 -2.0154897866606397e-01
      -1.9961650020455690e-01 2.6473307257808661e-02
      -1.9963650083515633e-01 1.3034252286870907e-01
      7.4195706584824814e-02 -5.3248304160018439e-02
      1.2114456209010604e-01 -6.1498357366241790e-02
      -1.5545790803559825e-01 3.1474018682830185e-01
      -6.0823096853637659e-01 3.2959384057704974e-02
      3.4355744412534006e-01 -2.0105440716473293e-02
      -2.0593304499671467e-02 -4.1568262214659354e-02
      -8.5391751932808846e-02 8.1507070215774746e-02
      -4.1466661106788821e-01 -1.1969003684864613e-01
      1.1561188389307293e-01 -2.0629963636834849e-03
      -3.7285468878921035e-01 -3.2998656127270304e-01
      -3.3939201965072184e-02 -2.7185830262154292e-01
      -2.1869517899774857e-02 -1.1066086607711628e-01
      2.3307013591367269e-02 1.7662664464857161e-01
      -1.3188790861606106e-02 -1.6505333237840689e-01
      3.5679205049880959e-02 -1.4395107273693634e-02
      -6.9831204507420419e-02 4.5466410403384400e-01
      -6.8544230708054446e-02 3.2255731269024777e-02
      7.9891786714913982e-02 -7.9354792503141383e-02
      -2.3771117565074762e-01 4.0526454455669025e-01
      -2.3744972077044074e-01 5.4003306695404154e-03
      2.8200934802274530e-01 -1.2579264318318822e-01
      -1.0560985172697648e-01 6.7987411675468998e-02
      1.1497530662714821e-01 -1.3979816898423406e-01
      -4.2784994720006270e-01 -3.2560241354622282e-01
      3.0568686685720256e-02 4.5910925392313673e-02
      -1.6643412824635978e-01 -2.0079502124595275e-01
      -1.0898341235877008e-01 -2.6908100931471557e-01
      -8.3644340203259185e-02 -1.0863299415950786e-01
      -5.3955448065934393e-02 9.1959675708218527e-03
      2.0704747912472252e-01 -1.7918971377659618e-01
      6.6360294765386338e-02 1.8334202772568109e-01
      -2.0357152224429589e-01 6.0897790943300234e-01
      -5.5523871614613564e-02 -1.8130138286861175e-01
      2.3763551515717803e-02 -1.6284196429664133e-01
      -2.6453588846321796e-01 2.8668774144395454e-01
      -3.8396332610806078e-01 2.6386340714722362e-01
      1.5193899819984222e-01 -3.0705220500293645e-01
      1.0946164968294935e-02 1.6932898894736707e-02
      -7.0807873729837212e-02 -8.2098385253378120e-02
      -3.4093306033623588e-01 -1.4858717915047570e-01
      -8.4483515474358700e-02 1.5983598593264331e-01
      -2.0817775623090864e-01 -1.9384057583599201e-01
      -1.9268313729547168e-02 -1.5763357625223187e-01
      1.5275645423021247e-02 -4.5602075101305560e-03
      2.6272255883423783e-02 -8.3236573085468807e-02
      -4.0119400297909127e-02 -1.6925630185053445e-01
      1.5370297285221599e-01 3.4929316547173106e-01
      -1.3902487329207139e-01 8.1795605799674387e-01
      -4.2212476474991734e-01 -9.6246475452571936e-02
      -4.4744830251760875e-02 -3.9893718458795163e-02
      -3.4369259372665045e-01 3.3382527968232867e-01
      -3.6370149860943590e-01 7.4374320471138200e-01
      6.2618752047280579e-01 -1.6710091052986714e-01
      -6.2646915981741554e-04 2.3798201982124512e-01
      -9.1279014274003034e-01 -7.0915587102344621e-02
      -7.3821684581648905e-01 1.1500269946473919e-02
      -1.7857934498086114e-01 4.3832100249683631e-01
      -7.7690312869371991e-01 -1.8864503780658368e-01
      -2.5076696174455323e-03 -1.3573150179311877e-01
      -3.8974739240547787e-03 4.1119849317887869e-02
      1.3944208316840997e-01 2.1885598977087423e-01
      -2.9414431667907642e-01 -1.5832373282331838e-01
      7.7129053148543070e-02 2.2968612030306609e-01
      -1.2438682655729477e-01 6.8341007064685710e-01
      -2.4120319095548262e-01 -1.4571070685771695e-01
      -3.6509743581002861e-02 -1.1254013520576725e-01
      -4.1098968092289245e-01 5.7180489531543133e-01
      -6.5390095212151123e-01 4.6776496613885993e-01
      4.9552345708433237e-01 -2.7861439016957223e-01
      1.3745817226633650e-01 4.7684157698606199e-02
      -6.2405130620757632e-01 5.9701511137019173e-02
      -9.6834921189625711e-01 -2.7994974824905511e-01
      -1.1642277697503424e-01 2.9131769266967544e-01
      -3.4913110512896961e-01 -3.3069815592011875e-01
      -4.1228170302773509e-02 -9.2302699503306496e-02
      3.4777406225442738e-02 2.4714496480022746e-02
      8.7827237562383739e-02 6.6808454123483532e-02
      -5.4956615858344326e-01 8.8390401835719098e-02
      8.5036078637021506e-02 2.9899176860751464e-01
      -3.2760511958194266e-02 2.9244266295853477e-01
      -1.3710695057869066e-01 -9.4449801825264371e-02
      -8.8857426612143214e-02 -9.0939091974499425e-02
      -4.1958276218156026e-01 3.1616611632380831e-02
      1.1411296738910628e-01 1.9622610308175431e-01
      -4.4091888859358622e-02 1.0699046690268869e-01
      1.0792333736996214e-01 1.2235581909019977e-01
      -4.5910598613281345e-01 -7.5803680630726969e-02
      -2.7323141714288146e-01 -6.7574491128565714e-02
      -1.6495116153680653e-01 1.6480252947545654e-01
      1.4072106540846596e-01 1.1090100572234873e-02
      1.2887058566259643e-01 1.8470864714718196e-01
      1.0456197208217581e-01 9.3632715913558776e-02
      1.5923276660043689e-01 -1.6345962389287427e-01
      -2.8734510816352060e-01 -1.2451744502915352e-01
      5.2445488168084226e-02 2.4100427577088890e-01
      -2.5131482088367661e-02 1.5555339016731062e-01
      -4.0534370773825858e-02 -5.6283885769493884e-02
      -4.9835813951079186e-03 9.6353853543803589e-02
      -6.6650801972862689e-02 3.1846259315967296e-01
      9.7405920364197277e-03 3.0010434919046808e-01
      1.1077695362638125e-01 -1.2564346644734509e-01
      4.7597245382494137e-02 4.7713245381757280e-02
      -3.0330041627937560e-01 4.3411415034583532e-02
      1.7685152559455457e-02 1.4571984143509090e-01
      -9.2843989959241632e-02 5.7227526604794610e-01
      3.4967986229013126e-01 -3.9632499734492753e-02
      5.5188489312431172e-02 1.8257394561633635e-02
      -1.1308819562914364e-01 -4.1263883130815263e-04
      5.9844869403543575e-02 8.7782148995101769e-02
      -2.2947493316468878e-01 -4.6770996935230295e-03
      -5.0842549734643888e-02 -2.6784085695966951e-03
      -1.0613650988910739e-01 5.2427200524601458e-01
      -2.8859719119692684e-01 -3.1920576870385757e-03
      5.7418002996631370e-02 2.2008294066498481e-02
      7.9199377498056472e-02 5.2791133332373619e-01
      -3.8493564830427823e-01 2.9230701986883167e-01
      7.5609182252177998e-01 -6.1460085732901171e-01
      1.6395299099543095e-02 2.1072003797577728e-02
      -2.8131902630532890e-01 1.6977710568122667e-01
      -2.6722310859026599e-01 -2.2732439195900383e-02
      1.4736871790500700e-01 4.0456543102953474e-01
      -3.8232950907029328e-01 -2.5840658113674614e-01
      -9.9099995539881677e-02 -1.8919674537303569e-01
      -1.7995148609419673e-01 -9.3053031218983909e-02
      -1.0019853880254942e-02 1.5504584398449578e-01
      -5.0317245914351494e-01 -1.7411139257454797e-01
      8.1608102152287976e-02 -5.2488070357631193e-02
      -5.7960491900966429e-02 1.8438931733204289e-01
      -1.7790419685241632e-01 3.8361010274541703e-02
      6.6291397755065526e-02 4.9521234919057119e-02
      6.8881125807164531e-02 4.7434120638423427e-01
      -2.8320414830862106e-01 8.0706630679826280e-02
      3.7491846813012775e-01 -1.4979561397129043e-01
      -4.9664995071391528e-03 -6.8333201520759590e-03
      -7.1315692174836742e-02 2.4570039781998665e-01
      5.2561533751551849e-02 6.4121932520343553e-02
      1.3148835114591517e-01 4.0202376236006809e-01
      -2.4741516762128110e-01 -2.1707935789046223e-01
      -4.6471081636695236e-02 -2.0793322423960153e-01
      -1.2366063298983018e-01 -6.5580827043814113e-02
      3.6960632641904433e-02 2.9033900630954557e-01
      -7.0591607241459409e-01 -1.8244112135421800e-01
      4.1562829211804952e-01 8.3444067064896446e-02
      -8.1499637912958819e-02 5.1501834167789515e-02
      -2.9065534678919869e-01 3.2982285511439759e-02
      3.0657523353237643e-02 8.4448665091405292e-02
      -2.9808625688957785e-02 2.2107915971816680e-01
      -3.0898302390946492e-01 -1.3687238482047029e-01
      8.5492035564228658e-02 -3.9583268760760371e-01
      2.8323865223662030e-02 5.7815901259483389e-02
      6.5789550289042584e-02 1.9783782847590778e-01
      3.3162835551686094e-02 -6.8036305178773099e-02
      -1.2652206848334557e-01 2.6659538555772422e-01
      -1.5520384870305415e-01 -1.8565517618123714e-01
      7.7837492715479323e-02 -4.9809633272244414e-02
      1.7559592273604676e-02 -3.4307705637279515e-02
      3.5387104636523489e-02 -7.9137865483052378e-02
      -8.0237569437041933e-01 1.4390673434725602e-02
      7.4579561470566699e-02 -4.5696289718162489e-02
      -4.4945143705286246e-02 -5.2605599231876611e-02
      3.7480797576382334e-02 1.1266894378453528e-02
      -4.6805961507274216e-02 -1.5768957879002645e-02
      1.6358437725819736e-01 5.8729779858326843e-03
      -1.0244474953621599e-01 -1.8527598152767069e-01
      2.4893836793631829e-01 -1.5581467493420120e-01
      3.6595347610379504e-02 1.0226038554045154e-03
      1.1400739334341682e-01 -5.9660848223158675e-02
      8.8171489171889952e-02 -1.1465487713546214e-01
      1.3745055943920557e-02 -2.3836245676389780e-02
      1.5824999088296954e-01 -6.8295969074311694e-02
      -1.9479413691018594e-02 -5.2642605018275182e-02
      -1.4685823138069275e-02 4.6813231471144523e-02
      -5.7745157127880226e-02 5.2229955806631916e-02
      -5.1482264070637052e-01 1.5143838626379130e-01
      7.1675462329772191e-02 -1.9279688248406149e-01
      2.9242797303549957e-02 -7.8505639638949198e-01
      4.0070557321510575e-01 1.6825289998006115e-02
      -1.3946122177198741e-01 1.2784159237796569e-01
      2.0665750772379615e-01 -2.3224865021242974e-01
      4.6061901869196414e-01 -6.2461746092836601e-01
      -1.0168559197801521e+00 3.6177490389546835e-01
      1.0033255939222038e-01 3.3751247797534974e-02
      5.2528909876681695e-01 -1.6659361259579175e-01
      6.3555577747652581e-01 5.7201683779537008e-02
      -9.7317465557228436e-02 -2.8354021627439363e-01
      4.5220793637891366e-01 2.7650618453678055e-01
      7.1478444761335622e-02 2.3399649352162097e-01
      1.6590329824220712e-01 1.6777228234941235e-01
      -1.6709420154907811e-01 -9.6763047295299720e-02
      -9.7509065518250977e-04 1.8263557412847231e-01
      -1.3922797431773951e-01 1.1358948763844870e-01
      1.1939134195813413e-02 -2.0853294011261866e-01
      2.3632665860121552e-01 -1.0937290801135278e-01
      4.6152867204656556e-03 8.0886183475862433e-02
      5.1175153043463747e-02 2.7038574580380337e-01
      3.5507378245363944e-02 2.2454935453254643e-01
      1.2232004827285851e-01 1.4589002394620873e-01
      3.1846577170201659e-02 -5.3376303934085212e-02
      -3.4789634254581245e-02 1.7626651946041083e-01
      -1.0664916575523183e-01 1.0801215967401025e-01
      1.9650421020126251e-03 1.7253984032492795e-01
      -2.8920349339278878e-01 4.1490305804401065e-02
      1.1695842567770229e-01 4.2873126682558597e-02
      -1.7687914956464032e-02 2.0790262158019806e-02
      -7.0243063649182823e-03 -5.2598063080731339e-02
      -2.5739686559507952e-01 6.4443724762725405e-02
      1.5991960568418173e-01 -7.2764935409199982e-02
      1.1492175524332872e-01 -6.5027640826110206e-02
      7.0136676266734393e-02 -4.8951425819862719e-02
      -4.2955539090610883e-03 9.2865021949398677e-02
      -1.2771247084806692e-01 -2.9442969254890106e-01
      2.1812069079549479e-01 -4.2845935353439245e-02
      -3.0507791074225441e-02 3.0707021837968473e-01
      1.8083898154733574e-02 -2.9102944311321204e-02
      -1.2960967254714290e-01 1.5509838919567812e-01
      3.0485793800694917e-02 7.4298743362553252e-02
      -1.1472720906623264e-01 -3.0793597426916530e-01
      -3.5846970116143483e-02 1.7015058321557974e-01
      1.2187946893156594e-01 1.5772584551168650e-01
      9.0668059383304619e-02 3.4162030224286606e-02
      -5.8521474702248041e-02 -6.0991222547843338e-02
      -4.9473290486366084e-01 7.4166428337827980e-02
      1.9875294313515610e-01 -2.2766777952572936e-02
      -4.5806690627733487e-02 -5.6265796574524587e-02
      -3.4885061398768541e-02 1.7003474609215134e-02
      3.0862971705534724e-02 -1.2457045157495817e-02
      1.3430242562364827e-01 6.4678225608501491e-02
      7.0312100934318653e-02 -2.1739783893758932e-01
      1.3459261843166398e-01 9.1937947469081377e-02
      1.0082831126234397e-04 -4.4119638908653287e-02
      -3.6338047595230938e-01 2.5925081790917864e-01
      -2.0579225585576891e-01 4.2698329351019519e-02
      -1.3868414070370222e-01 -7.2914369794500694e-02
      -3.9502003665490526e-01 1.7089070320433126e-02
      3.9079028955304754e-02 -6.3081633313985364e-02
      8.6608868910850820e-03 -1.5506037229218030e-02
      -2.2587499138994153e-02 -2.2963773157834735e-02
      -3.1066256546706522e-01 1.3468246324353705e-03
      8.5521990476850503e-03 2.1491808339542642e-02
      9.1921200937236436e-02 -1.9192123772519598e-01
      -1.8009852980485935e-01 3.0303310700184665e-03
      5.2835538278592421e-02 -2.7387580928070410e-02
      -2.9831760841395535e-02 4.2208409865894435e-02
      -1.2526236051774176e-01 -1.9625288748609021e-01
      2.7215679684733696e-02 -3.8674933388712383e-02
      -6.0495710568332792e-02 -6.3175384215819613e-02
      -9.1466559350148954e-02 3.0636370637295579e-01
      -3.5205869744616197e-01 4.7928892675326351e-02
      4.7738741539671621e-02 4.9359952664383512e-02
      -7.1897294847529336e-01 -1.5399963988196066e-01
      -2.6348629746711490e-02 4.2654248387550657e-02
      -5.1088826577576317e-02 -3.8934838247262550e-02
      1.8948813373985303e-02 -4.0071927682035921e-02
      -1.0546427028310418e-01 -7.9225803739128749e-03
      -1.1295310887589466e-01 -2.1374667565369074e-01
      -1.2609784854799294e-01 -6.7908717401766475e-02
      1.9687945072629773e-01 -2.1490894191474413e-02
      1.1391171905169557e-01 -9.9129214218569212e-02
      -7.5294332767047167e-02 3.6077394659142842e-01
      -3.5310385607033767e-01 -9.0407478157145740e-02
      6.7700771728570930e-01 -2.7471345415816817e-01
      -4.0785720155546851e-02 -1.3511062288173556e-01
      4.9099213734074755e-02 3.8098130555583803e-01
      -1.7774249061566239e-01 -4.1880712606400958e-02
      9.2780541089526589e-02 -7.1286699892417593e-02
      -7.1286454226169038e-01 -3.2004691472531149e-01
      -1.4277360967804023e-01 -1.8206864567497164e-01
      -9.2429852954490591e-02 -1.1564320696876491e-01
      -1.8859372189419632e-02 9.6109734778440613e-03
      2.6068970830614363e-01 -1.1775234443184572e-01
      2.9567144316725152e-01 3.0728950842063141e-01
