<?xml version="1.0"?>
<opencv_storage>
<OCR type_id="opencv-ml-ann-mlp">
  <layer_sizes type_id="opencv-matrix">
    <rows>1</rows>
    <cols>3</cols>
    <dt>i</dt>
    <data>
      256 32 2</data></layer_sizes>
  <activation_function>SIGMOID_SYM</activation_function>
  <f_param1>5.9999999999999998e-01</f_param1>
  <f_param2>1.</f_param2>
  <min_val>-9.4999999999999996e-01</min_val>
  <max_val>9.4999999999999996e-01</max_val>
  <min_val1>-9.7999999999999998e-01</min_val1>
  <max_val1>9.7999999999999998e-01</max_val1>
  <training_params>
    <train_method>BACKPROP</train_method>
    <dw_scale>1.0000000000000001e-01</dw_scale>
    <moment_scale>1.0000000000000001e-01</moment_scale>
    <term_criteria><epsilon>9.9999999747524271e-07</epsilon>
      <iterations>1000</iterations></term_criteria></training_params>
  <input_scale>
    6.5781298926340037e+00 -6.4224254779333787e+00
    3.5488373455735376e+00 -3.2402159392374736e+00
    3.1556516331909230e+00 -2.7982906081872283e+00
    3.0417340679606499e+00 -2.6667450968858466e+00
    2.8716170622470867e+00 -2.4661221426259572e+00
    2.7072010249132008e+00 -2.2658693036156374e+00
    2.5031640862024469e+00 -2.0042158256365501e+00
    2.3249360518326729e+00 -1.7552006058187952e+00
    2.2590158131092988e+00 -1.6546632273593296e+00
    2.2718451585875439e+00 -1.6747361891343322e+00
    2.3682682314494010e+00 -1.8183057045105102e+00
    2.5518798614465288e+00 -2.0684187675473709e+00
    2.8590102173139695e+00 -2.4510161735390144e+00
    3.1591843051853061e+00 -2.8023396197878592e+00
    3.3404943007421561e+00 -3.0080533931890381e+00
    3.7550142344715720e+00 -3.4665423513545992e+00
    3.4671823280675240e+00 -3.1496908512083386e+00
    2.6517479487285209e+00 -2.1964725017558933e+00
    2.3185930578256713e+00 -1.7457847572255183e+00
    2.1358761660401115e+00 -1.4427603731317187e+00
    2.0435250601423194e+00 -1.2315211243108652e+00
    2.0154088955754239e+00 -1.1320758837814220e+00
    2.0054628286525071e+00 -1.0766928182929763e+00
    2.0008602550775207e+00 -1.0297633866011315e+00
    2.0000031515232561e+00 -1.0017768294727325e+00
    2.0000084817766828e+00 -9.9709188880314126e-01
    2.0009128138220742e+00 -1.0306726629554699e+00
    2.0067193851605083e+00 -1.0854003696541423e+00
    2.0331727836620850e+00 -1.1994740405557662e+00
    2.1270778198177673e+00 -1.4256369807269653e+00
    2.3723317354874909e+00 -1.8241231279111276e+00
    2.7942335857503893e+00 -2.3727885270839240e+00
    3.1420809254719710e+00 -2.7827203443687951e+00
    2.3515944257095667e+00 -1.7942623175753947e+00
    2.0772642039859854e+00 -1.3192682423783362e+00
    2.0044645073057543e+00 -1.0690865000559679e+00
    2.0001447909108840e+00 -9.8803926818170196e-01
    2.0015243568858634e+00 -9.6171172643732072e-01
    2.0032681867219457e+00 -9.4444268681192900e-01
    2.0055216629502670e+00 -9.2840166834979176e-01
    2.0048691938442951e+00 -9.3261252944725459e-01
    2.0041133495287018e+00 -9.3788830685781899e-01
    2.0027991384819583e+00 -9.4847417575147797e-01
    2.0018386277131275e+00 -9.5803023772878870e-01
    2.0001929246695047e+00 -9.8620639485880301e-01
    2.0033755827095958e+00 -1.0598120663976167e+00
    2.0700248834736428e+00 -1.3019408114355431e+00
    2.3480380981593107e+00 -1.7890968714744302e+00
    3.0309809308857671e+00 -2.6542228092569546e+00
    2.1491303844935197e+00 -1.4678721364879159e+00
    2.0050965043295603e+00 -1.0739835229954806e+00
    2.0009016190608917e+00 -9.7042045338662430e-01
    2.0014437723075615e+00 -9.6271802546594265e-01
    2.0000743256069655e+00 -9.9141585269194377e-01
    2.0005643598468281e+00 -1.0240401148576048e+00
    2.0023507950422856e+00 -1.0496746408308923e+00
    2.0032389594293214e+00 -1.0585543736187291e+00
    2.0031809015107394e+00 -1.0580123529241614e+00
    2.0025984449274512e+00 -1.0522907208380747e+00
    2.0006151003689014e+00 -1.0251106741009579e+00
    2.0007206469850844e+00 -9.7351303651408605e-01
    2.0009975129164030e+00 -9.6891139071795940e-01
    2.0038834320101850e+00 -1.0642891479588585e+00
    2.1343342927705198e+00 -1.4397872187432297e+00
    2.8220052761428889e+00 -2.4064565268300226e+00
    2.0437082158715643e+00 -1.2320583369732421e+00
    2.0000030696688174e+00 -9.9824948712587480e-01
    2.0014420064749472e+00 -9.6274039870548100e-01
    2.0008534556902511e+00 -1.0296438082417858e+00
    2.0094145052159336e+00 -1.1018497430179244e+00
    2.0163615317434180e+00 -1.1363543071103970e+00
    2.0175062447730610e+00 -1.1413535067169476e+00
    2.0176442999431545e+00 -1.1419466416073230e+00
    2.0235666054189729e+00 -1.1657490509839532e+00
    2.0260536313457953e+00 -1.1749630045633719e+00
    2.0172131955213861e+00 -1.1400876574096039e+00
    2.0030252489083771e+00 -1.0565356827217594e+00
    2.0010330442441648e+00 -9.6837136635534760e-01
    2.0002114012853860e+00 -9.8556567113749727e-01
    2.0415380874432807e+00 -1.2256334882218807e+00
    2.6125542150092667e+00 -2.1467292962641555e+00
    2.0127117278927749e+00 -1.1192811706729120e+00
    2.0009482435676094e+00 -9.6967690828850461e-01
    2.0001783796774517e+00 -9.8673300654111751e-01
    2.0079319082601073e+00 -1.0931154748930321e+00
    2.0252959727173661e+00 -1.1721971771316082e+00
    2.0279636055974062e+00 -1.1817885261649257e+00
    2.0166897316015269e+00 -1.1378028450324795e+00
    2.0164038855640216e+00 -1.1365419499092539e+00
    2.0226830294558278e+00 -1.1623768066703979e+00
    2.0369395507190946e+00 -1.2115518390550819e+00
    2.0361080852349986e+00 -1.2089310545645453e+00
    2.0113400641275549e+00 -1.1123106124783608e+00
    2.0001233106727181e+00 -9.8895695029305808e-01
    2.0017305878432179e+00 -9.5925596111287048e-01
    2.0139182150606700e+00 -1.1251396653149766e+00
    2.4345131310832882e+00 -1.9113124324243027e+00
    2.0034792293950288e+00 -1.0607502548764234e+00
    2.0033809984273279e+00 -9.4351957679602294e-01
    2.0000026765522461e+00 -9.9836532053873328e-01
    2.0121866319050330e+00 -1.1166544321024996e+00
    2.0253415551694824e+00 -1.1723645588477709e+00
    2.0208453072000205e+00 -1.1551774079540085e+00
    2.0057460190062466e+00 -1.0787299352901032e+00
    2.0007908625256792e+00 -1.0285204893350082e+00
    2.0062636773502409e+00 -1.0823371779126234e+00
    2.0239559912738314e+00 -1.1672180151335296e+00
    2.0308748791581852e+00 -1.1918267637995323e+00
    2.0143272648922905e+00 -1.1270743597482269e+00
    2.0000026011600536e+00 -1.0016141123312670e+00
    2.0051936061072149e+00 -9.3048335428492013e-01
    2.0042611979999183e+00 -1.0674432122688897e+00
    2.3168774267995231e+00 -1.7432294902621324e+00
    2.0003547228755791e+00 -1.0190122846566041e+00
    2.0066429414598450e+00 -9.2174957834256310e-01
    2.0000046076723152e+00 -9.9785575366838264e-01
    2.0104862053094852e+00 -1.1077794154172633e+00
    2.0148572445573940e+00 -1.1295450789352561e+00
    2.0045490585827590e+00 -1.0697595799785975e+00
    2.0012825211994798e+00 -9.6482321466425003e-01
    2.0077288943033689e+00 -9.1586542298006546e-01
    2.0008318792831914e+00 -9.7157062305507402e-01
    2.0057637373923196e+00 -1.0788558284422551e+00
    2.0142877759675817e+00 -1.1268886628305730e+00
    2.0100768084728862e+00 -1.1055480753638307e+00
    2.0000101813491735e+00 -9.9681426396535067e-01
    2.0103615545862805e+00 -9.0325730090206580e-01
    2.0003679613258365e+00 -1.0193671809882163e+00
    2.3063850184900390e+00 -1.7275207806881241e+00
    2.0005105459104877e+00 -1.0228519779090508e+00
    2.0085267195891583e+00 -9.1182475408302377e-01
    2.0000093121756284e+00 -9.9695306677933715e-01
    2.0057460190062466e+00 -1.0787299352901032e+00
    2.0065555798471744e+00 -1.0843106459386487e+00
    2.0000000227521970e+00 -1.0001508496907459e+00
    2.0114554941164711e+00 -8.9854425391290982e-01
    2.0215162010453764e+00 -8.6368010158255903e-01
    2.0109530663043178e+00 -9.0067644384072598e-01
    2.0000676785650962e+00 -1.0082606071893918e+00
    2.0092784774947168e+00 -1.1010757465173520e+00
    2.0075204369594473e+00 -1.0905621551082481e+00
    2.0000006786620217e+00 -9.9917652980391791e-01
    2.0113400641275549e+00 -8.9902945164919423e-01
    2.0000606179733724e+00 -1.0078161224963464e+00
    2.3591622240682333e+00 -1.8052100754522462e+00
    2.0016825643405816e+00 -1.0418689813047994e+00
    2.0073589683332429e+00 -9.1781618038103807e-01
    2.0000314080605670e+00 -9.9441139254862621e-01
    2.0056754217126889e+00 -1.0782265317490549e+00
    2.0075407458187797e+00 -1.0906896546060052e+00
    2.0020878810571392e+00 -1.0467492013741915e+00
    2.0036630022561464e+00 -9.4128105395772876e-01
    2.0130107581150996e+00 -8.9225531090972821e-01
    2.0036152109680336e+00 -9.4165381586424790e-01
    2.0025842279801878e+00 -1.0521438350892949e+00
    2.0130053869210798e+00 -1.1207290999667481e+00
    2.0099032369115934e+00 -1.1045897408634637e+00
    2.0000591810901791e+00 -1.0077225721373781e+00
    2.0063788824801678e+00 -9.2325787666393189e-01
    2.0006002173758732e+00 -1.0248012809271920e+00
    2.5387439235848874e+00 -2.0512320371158976e+00
    2.0071754809387143e+00 -1.0883718947694951e+00
    2.0032336595829321e+00 -9.4472857334510962e-01
    2.0000451344813839e+00 -9.9330430923254243e-01
    2.0081714385919440e+00 -1.0945740151916825e+00
    2.0182021605826352e+00 -1.1443230838451197e+00
    2.0146966349151154e+00 -1.1288005001657027e+00
    2.0031940500556713e+00 -1.0581355123140272e+00
    2.0000646582814681e+00 -1.0080734314682218e+00
    2.0030534909122224e+00 -1.0568062340925877e+00
    2.0159649840705400e+00 -1.1345870111079834e+00
    2.0241927195813911e+00 -1.1681061078886175e+00
    2.0138682072606326e+00 -1.1249014256046193e+00
    2.0005381923115344e+00 -1.0234696290004082e+00
    2.0023193144687816e+00 -9.5298643569292751e-01
    2.0063304410227651e+00 -1.0827922237430163e+00
    2.7798019872557442e+00 -2.3552117063456715e+00
    2.0188145449097332e+00 -1.1468956053590573e+00
    2.0010829174999900e+00 -9.6762929264735265e-01
    2.0005011460287632e+00 -9.7786287961826002e-01
    2.0068194257061500e+00 -1.0860598903960812e+00
    2.0244306747603087e+00 -1.1689950848847974e+00
    2.0269250534361980e+00 -1.1781024157542432e+00
    2.0162830251893871e+00 -1.1360059306972938e+00
    2.0097868312899365e+00 -1.1039427811482925e+00
    2.0110911963649807e+00 -1.1110062544680568e+00
    2.0226257097543416e+00 -1.1621561193599235e+00
    2.0263243206445227e+00 -1.1759428812595749e+00
    2.0106212977571034e+00 -1.1085070671720894e+00
    2.0002827258257159e+00 -1.0169564100192074e+00
    2.0000185306427354e+00 -9.9570453204487841e-01
    2.0215790133585818e+00 -1.1580831820797111e+00
    2.9788338791199918e+00 -2.5932116758439956e+00
    2.0550058224290142e+00 -1.2636431927301506e+00
    2.0000023814457122e+00 -1.0015443845311305e+00
    2.0015682331850844e+00 -9.6117543037455566e-01
    2.0011638976124693e+00 -1.0347028555480289e+00
    2.0111556297126230e+00 -1.1113452093179053e+00
    2.0203206544210044e+00 -1.1530724913884642e+00
    2.0184844796856414e+00 -1.1455136553449488e+00
    2.0133079319643232e+00 -1.1222057172783446e+00
    2.0139627443485382e+00 -1.1253514862486154e+00
    2.0151114537341157e+00 -1.1307163648266154e+00
    2.0124477569408046e+00 -1.1179668585810969e+00
    2.0039388230218553e+00 -1.0647603471908085e+00
    2.0000947744818869e+00 -1.0097827212073545e+00
    2.0019192653978690e+00 -1.0447795630136421e+00
    2.0625190912585993e+00 -1.2832441690719802e+00
    3.1383415210044765e+00 -2.7784254382335969e+00
    2.1601820496498689e+00 -1.4882535193138049e+00
    2.0064350091955481e+00 -1.0835005135809015e+00
    2.0006139490433763e+00 -9.7552707789694137e-01
    2.0005011460287632e+00 -9.7786287961826002e-01
    2.0002494216307665e+00 -1.0159182912692875e+00
    2.0022680594426685e+00 -1.0487716772921085e+00
    2.0033620625506026e+00 -1.0596886895348017e+00
    2.0037452588845670e+00 -1.0630997935575299e+00
    2.0031051785066860e+00 -1.0572983428142675e+00
    2.0021781192283470e+00 -1.0477720894986009e+00
    2.0009368325034629e+00 -1.0310797200012911e+00
    2.0001840032868548e+00 -1.0136570947561636e+00
    2.0007765578818257e+00 -1.0282577719818959e+00
    2.0154969491565686e+00 -1.1324761299513371e+00
    2.1932681828039793e+00 -1.5467522208136666e+00
    3.1584766095502603e+00 -2.8015286235083789e+00
    2.3643652985939210e+00 -1.8127029235933392e+00
    2.0800468853336698e+00 -1.3257659164024962e+00
    2.0049970293884440e+00 -1.0732323253092426e+00
    2.0000140457924829e+00 -1.0037548011453044e+00
    2.0003391571219300e+00 -9.8175257883739064e-01
    2.0009654899603850e+00 -9.6940666087841176e-01
    2.0015498754757708e+00 -9.6139885357162480e-01
    2.0020540091018422e+00 -9.5569419259104127e-01
    2.0013076107545209e+00 -9.6448699440377128e-01
    2.0001177058879112e+00 -9.8920945887883294e-01
    2.0001942163999384e+00 -1.0140336009417243e+00
    2.0024465169088304e+00 -1.0507006600644095e+00
    2.0175062447730610e+00 -1.1413535067169476e+00
    2.1201302748346236e+00 -1.4118293987736696e+00
    2.4471831621281361e+00 -1.9286989184609113e+00
    3.3961415647134259e+00 -3.0704571645004370e+00
    2.6571701749831931e+00 -2.2033069488309902e+00
    2.3284833987148681e+00 -1.7604453009254604e+00
    2.1326864279553597e+00 -1.4365969783018901e+00
    2.0388621998848087e+00 -1.2175214013955047e+00
    2.0133460019574834e+00 -1.1223904624940446e+00
    2.0052475763305004e+00 -1.0751114463895082e+00
    2.0020245994143830e+00 -1.0460192343404267e+00
    2.0029236641732844e+00 -1.0555525071271170e+00
    2.0069085488004359e+00 -1.0866437016855872e+00
    2.0151753543371171e+00 -1.1310094223431073e+00
    2.0336306148386920e+00 -1.2009711365486442e+00
    2.0791319143965379e+00 -1.3236387988525757e+00
    2.2017880109197776e+00 -1.5612934095184925e+00
    2.4368575914304613e+00 -1.9145385070596903e+00
    2.8334107825367312e+00 -2.4202262757789237e+00</input_scale>
  <output_scale>
    5.2631578947368418e-01 4.9999999999999994e-01 5.2631578947368418e-01
    4.9999999999999994e-01</output_scale>
  <inv_output_scale>
    1.8999999999999999e+00 -9.4999999999999996e-01
    1.8999999999999999e+00 -9.4999999999999996e-01</inv_output_scale>
  <weights>
    <_>
      -8.0552571729127564e-01 -4.9479089298822965e-01
      7.0806634425468373e-01 4.3785833573793642e-01
      1.1280122131766526e-01 -4.4279686569692850e-01
      -5.2583656153023084e-01 -5.9049215175555758e-01
      -2.6896686451590412e-01 7.2712588492868047e-01
      1.0295252236830015e-01 4.2124322160426331e-02
      1.8339524808478141e-01 4.8502363841753583e-02
      -1.1794909670895515e-01 2.1931872966715744e-02
      1.5136507104584654e-01 6.6423628309091254e-01
      -5.0432804835294054e-01 -4.4378716624637221e-01
      -1.6748606135102287e-01 -1.6063112721232983e-01
      -1.4540796426464933e+00 -1.0258975661522192e-01
      -1.7745320139820842e-01 2.9336295001449136e-01
      4.5734838571341523e-02 2.1612157247945946e-01
      3.0303810989436736e-01 6.2232483454469911e-01
      3.1860610685790808e-01 -4.8659239147219618e-01
      -6.5205215291041965e-02 -3.4550879621318731e-01
      1.0140526331384901e-01 3.3211076506070691e-01
      4.3910794433382187e-02 -5.6936273931288695e-01
      -3.7674317934461421e-01 4.3775788680643363e-01
      2.7464482694340868e-02 -9.1074141991821220e-02
      -1.4297739496122563e-01 3.7573466745333059e-02
      9.3844013487838857e-02 -6.6140523035979104e-01
      1.6813936246733330e-01 3.4200641058738233e-02
      1.7639549059396184e-01 -1.0809752321985252e-02
      -1.2588489344288607e+00 -5.6688882062871371e-01
      -1.5769413232878987e-01 1.4852720943833048e-01
      -2.7180727621570594e-01 2.7949981048674688e-01
      -3.6515367441734453e-01 3.2018356659457964e-01
      1.3090376528633629e-01 3.6129846633364171e-01
      6.6425882211506038e-01 2.9101203854412777e-01
      1.5036729393134046e-01 -5.1881884639988063e-01
      -4.9965974582552553e-01 -1.6479668031353287e-01
      -1.8901061961774646e-02 -3.0573819658060569e-01
      -4.0525847079193267e-02 4.2202691082180860e-01
      -2.8339760236962280e-01 -5.4053533089135408e-01
      1.3019987640881256e-01 6.2752469687420986e-01
      6.5272342153049601e-01 6.1553733846199365e-01
      -1.4351211218194204e-01 -7.1180903349246857e-02
      -1.9246038219295092e-01 -3.7188491385791295e-01
      4.3661006250325202e-01 -2.3292029663450295e-01
      -2.4048145504271431e-01 2.5354346360411412e-01
      -6.8853289299678089e-01 -1.9185477388674588e-01
      6.8564689174795801e-02 -1.4165977935077376e-01
      1.4475007778842100e-01 6.2194860099164709e-02
      4.3878406643719642e-02 -3.4168329519384516e-01
      -1.1025332336682195e-02 -2.3640477406846563e-01
      -1.9103156097709653e-01 -2.7044813454804101e-01
      -1.9491923611560176e+00 1.0488755333413545e-01
      -1.3626469429358562e-01 -1.5856845095442301e-01
      -1.3557705368394119e-02 7.2268489830815408e-01
      -2.7702962762856720e-01 2.3053073988597489e-01
      1.2054916070931648e-01 1.0512865981424692e-01
      1.4731111655848046e+00 6.4618761028983296e-01
      -1.4206636727612318e-02 1.0504180359067066e-02
      1.0362626140632338e+00 -2.1132812981013185e-01
      2.3793972354623419e-01 -8.1290565735047920e-02
      4.3057409808450886e-01 4.6170558454525737e-02
      -6.4430995999680929e-01 2.5877392804393656e-01
      3.7330414747960639e-01 7.1036703154079756e-02
      -6.9234936681981762e-01 -4.9344767652145072e-02
      -1.9499880992408281e-01 -5.8367432365364191e-01
      2.4304784228399942e-01 -2.0622589064367070e-01
      -2.1373726359936421e-01 -2.7777974593113341e-01
      -2.0964671842554914e+00 2.6247188242007841e-01
      -6.7395456145799740e-02 -1.9089989858989281e-01
      -2.9022493284686958e-02 -1.4580825449035653e+00
      -9.4953629404664883e-02 -1.0065291755836002e-02
      -7.6314024377350034e-03 9.0379061334070809e-02
      -3.9382201320027094e-02 9.9247625665429196e-01
      2.2989001170760168e-01 4.5070620388095289e-01
      -1.0098676112299759e-02 4.9798587214864498e-01
      4.7851968557903235e-01 1.7744160707415871e-01
      7.8092234111202286e-01 -5.7029959431420078e-02
      7.2229699664635799e-02 5.9461000821582555e-01
      1.9260139955073352e-01 1.9116145438290238e-01
      2.0268502647883277e-01 2.2312541349853338e-01
      -3.8361574493846043e-02 6.7940532736992321e-01
      2.8210136139869779e-01 -3.8531893023731533e-03
      -2.2843995855596005e-01 -6.4596461449022446e-01
      1.5973207173771764e-01 -2.0803586883570299e-01
      -3.1595281528086133e-01 -2.4553175743980013e-01
      -5.5144954724736579e-02 7.3948576872257954e-01
      3.4654751454501642e-02 1.5766179175837719e-01
      -1.2708765557706220e-02 -1.8628654879361722e-01
      -4.1384786640045274e-02 9.7263945294690402e-01
      2.0912969302155029e-01 4.5469667659589030e-01
      -5.7086237364302772e-01 -1.0225934275629804e+00
      1.6132056715777413e-01 1.7179605608124629e-01
      8.8548832362084795e-01 1.7767874198919556e-01
      1.0267594707834908e-01 1.6546676339458319e-01
      -5.5497950819300576e-02 -7.4194290177035083e-01
      -1.2651533056395237e-01 1.0919168645757592e-01
      -5.2347128968003717e-03 -2.6715487349502098e-01
      -3.2374599560465428e-01 -1.4815528078647588e-01
      -4.3104791140067844e-01 -5.0734349196748074e-01
      8.0954140652148732e-01 2.5870728020356781e-01
      5.7117412172286740e-02 -6.5623066531401164e-01
      -3.8789911902754368e-02 2.0369084173775542e-01
      2.7414894143010130e-02 -1.5047024839379307e-04
      1.1367002698924042e-01 4.0575221267153030e-02
      -3.3159567955825830e-01 6.6168081344597263e-01
      -1.2509669182965616e-01 1.0017675328151894e+00
      1.8395331087578778e-01 -3.7106360522711318e-01
      5.8557663020868261e-02 -4.5554655735420163e-01
      1.4159360694868848e+00 2.0687557218686187e-01
      -9.9485984144112471e-02 4.1302648716192804e-02
      5.2184786330331534e-01 -2.4764492167591454e-01
      -2.2851720965744868e-01 -4.8405569770186224e-01
      -1.3020579768232629e-01 -1.3605437627525058e-01
      -5.5256580058077764e-01 -2.8556204425323883e-01
      1.9108932384694799e-01 -3.4199066837057351e-01
      -9.0245133827710644e-01 1.8486142754384510e-01
      -3.0324521087774275e-01 -2.6283617613205884e-01
      -7.5272552939649948e-02 -8.8713160063456520e-01
      3.6505847813791142e-01 3.1050945292347271e-01
      1.8523076608763029e-02 -2.1744260040605251e-01
      -1.4712587880025185e+00 3.4431715912236183e-01
      -1.7128374167224666e-01 -1.1525448883684601e+00
      -2.7744885299846633e-01 4.9285897389397731e-01
      9.6843362090034656e-03 3.2896143744344536e-01
      -9.0908634809051214e-01 5.5496782930966243e-02
      6.1188796159131753e-01 -2.3400739248256536e-01
      2.9250832244456759e-01 -1.3115167696041249e-01
      1.2199284942936221e-01 -4.0472679438165843e-01
      2.8494525782106206e-03 5.3088807524995696e-01
      5.4752166769251508e-02 5.1301637258613170e-02
      1.7950314309215612e-01 -4.0079441455727638e-01
      -1.7325665301434732e+00 6.7837278204257512e-01
      -4.6959601605776324e-01 -1.1607924701413065e-01
      -1.2583157142902723e-01 -7.0156003895557995e-01
      9.4807496963256377e-01 -3.9529719278962247e-02
      8.1755605668141898e-02 -2.1804503784589746e-01
      -6.1338247736554186e-01 -6.2615867553189453e-01
      3.5046783275125268e-02 4.6937228396120390e-01
      -1.3375135054657930e+00 8.3220711997471630e-01
      3.1661796781910792e-02 4.5674719030114858e-01
      9.3140313907525960e-02 3.6394379233320207e-01
      5.0849580060329136e-01 -7.6043796324947108e-02
      -2.3780668144761877e-01 -6.7013483621939396e-01
      4.2576198017289113e-01 1.3329178862878402e-01
      3.6028350671192061e-02 3.4371376596410119e-01
      -5.0782241991940469e-01 -9.7484302434939121e-02
      -5.2452887098221095e-02 6.6020034982165077e-01
      -2.2410747971509157e+00 2.9053924680356658e-01
      -5.7768861567953722e-01 -4.2072709959864568e-01
      -1.7532535231274948e-01 -9.4153689276363028e-01
      7.2697174150130617e-01 5.2507278448741479e-01
      2.1389391823970028e-01 -3.9983645013711067e-01
      -5.8219403595991115e-01 -1.8201166628217552e-01
      -1.6812664574195821e-01 5.5256310718893475e-01
      -2.4573188944144744e-01 2.5955579043870253e-01
      1.0107440258738080e-01 -1.5225894067125514e-01
      6.9189430994691781e-01 4.7152370021397577e-01
      4.5399284468883423e-02 1.7005354235703242e-03
      5.2630492477931157e-01 -4.0256779478030963e-01
      7.1385481060318823e-01 -2.5931203042310691e-01
      6.1679263692943721e-02 4.7961316296894652e-01
      -5.2526850290394511e-01 -1.4221818979886078e-01
      -5.5472166213341223e-01 5.5714264500772506e-02
      -2.4960480614915737e+00 7.7935052368018315e-02
      -2.8880487717813724e-01 -3.0226808767370883e-01
      -1.0397852357001428e-01 4.5778242518364193e-01
      6.5587398882100234e-01 -1.0279969746663610e-01
      8.2541814716275072e-02 -1.6510267670551421e-01
      -3.2911580304848270e-01 2.2816781528719529e-01
      -1.4566615894121339e-02 -6.0281758318501044e-01
      -8.3936784177668433e-01 1.2166778190123557e-02
      -2.6229752846439348e-02 2.7699210826374859e-01
      -5.0878355388024887e-01 1.5231898420942702e-01
      -4.7111606034719450e-02 -2.9396582572962859e-01
      -2.0264648027949067e-01 -9.7997846165228220e-01
      2.3190462581091967e-01 -1.0395149928542488e-01
      3.3118566689309903e-02 -1.0933637059265885e-01
      -1.7474881477406570e-01 -1.1837768588252334e-01
      1.4958682977837487e-01 3.2746741233349480e-01
      -1.6442946198582109e+00 -1.9985822501872277e-01
      1.8717213366660357e-01 5.9588298034198392e-02
      4.3838732179598688e-03 -1.2188552838132669e+00
      3.8368687493811560e-01 -3.3673031254908857e-02
      -7.4987590415213093e-02 -6.5913321803964725e-02
      -5.5812024213031353e-01 -1.1632555786006307e-01
      5.5610622496602674e-02 -9.1119253844503900e-01
      -8.6112198964655606e-01 3.2453632783467301e-01
      1.8000924914237933e-02 3.5619206434995243e-01
      -1.1006610134795556e+00 -2.6573641745766907e-01
      -1.2356988984043818e-01 -1.1073342712797672e-01
      -3.6908969595549690e-01 -3.9775055051461206e-01
      3.6771261173044445e-01 3.3798318816701145e-01
      9.7525367583987402e-02 8.2492738307344693e-01
      3.5165172228020897e-01 2.8088843213162679e-01
      2.5440294478922831e-02 2.5470121487960107e-01
      -3.9699565382223390e-01 -1.2716525937657736e-01
      -2.2531430428881274e-01 3.3553068574598338e-01
      9.6288695946000633e-02 -1.2695342012933086e+00
      3.8170335202067440e-01 -3.9484683862549434e-02
      -2.9140740237371743e-01 -9.4347417081706950e-02
      -7.4674379805740221e-01 7.7525597259082168e-01
      2.4103853295607425e-01 4.5532721628653999e-01
      -1.0367541150220154e+00 6.5699809680594190e-01
      5.3131139784668512e-02 7.7070654068650846e-01
      1.4354346703769458e-01 -8.9050055270417025e-02
      3.2898987215785380e-02 6.5642027933066865e-02
      -5.8692429855871409e-01 -5.2697975534716957e-01
      2.4668462507293887e-01 1.8406565864930555e-01
      1.6009224564406499e-01 9.8680501826899936e-01
      -1.9579141984297219e-01 8.6140000174369541e-02
      -1.9337331982940673e-01 -7.1856268018432767e-01
      6.1289819660619160e-01 -3.1380167045809637e-01
      1.9996231320905572e-01 5.3258438430904265e-01
      1.4886965094423243e-01 -1.0985129055074625e+00
      -6.5606956934752070e-01 5.1208601204162840e-01
      -1.9811114225155063e-01 2.8932364312211045e-01
      1.3411806427831383e-01 7.3804255022737064e-01
      2.8383021022667426e-01 6.5619953082366522e-01
      2.7474892187649991e-01 3.1509503616904383e-01
      -1.8921245123618818e-01 2.1684759232248899e-01
      -2.8143228033566897e-01 -2.1759211256436189e-01
      -5.0352830976982121e-01 -4.7375816469354973e-02
      -2.9221386974298054e-02 2.1513121480002237e-01
      -1.7607654140689710e-02 9.9735360805022377e-02
      3.0510143174469895e-01 9.0539155573933072e-01
      2.5847258635233966e-01 2.5363406422778739e-01
      -1.1792635058094339e-01 -6.7059233033073207e-01
      7.1028923000607080e-01 -3.4423352637171462e-01
      5.4239529540570323e-03 3.5494017003909095e-01
      9.6418890571395452e-02 -5.7363766415191109e-01
      -5.1450832388149570e-01 1.3200281971314384e-02
      -1.1310107171314004e-01 4.0735830623409303e-01
      -6.5994655841183497e-02 -2.7769829312283362e-01
      4.3023438921985091e-01 2.3395056648635945e-01
      1.8286175291293533e-01 -1.6321817869671187e-01
      7.1746581373474158e-02 -2.6470874554727606e-02
      -3.7979489102416003e-01 -3.0462868773879492e-01
      -2.2772073005161744e-01 -2.1399464876726085e-01
      -1.3417724535925574e-01 -5.2571045965501217e-02
      -7.7666222726479739e-01 -1.9164034483134935e-02
      1.4733535927123470e-01 3.9578000048583861e-01
      6.3561595802563353e-01 8.6343495356116545e-02
      3.2858087404599701e-01 -7.9991944357870007e-02
      8.4763808699587229e-01 -2.9482442409623472e-01
      -7.2779133757409908e-02 2.4022486774868418e-01
      6.6584271344618542e-02 -7.1516535929379144e-01
      -4.3341780408377312e-01 -1.8157343919946122e-02
      -5.8753226958846376e-02 2.4965438923532843e-01
      2.2384156988544304e-01 3.3968516391801457e-01
      1.6196353717573098e-01 4.1728310212984648e-02
      5.8252846246103573e-01 6.2152274294627712e-02
      1.1292229082913931e-01 -1.9419389311582466e-01
      8.7484542466208473e-02 -1.5786761280678055e-01
      -1.3563103114360239e-01 -2.0494580995864028e-01
      2.6822758176051348e-01 8.0258919276893922e-02
      -6.3944047835964402e-01 -4.9570766729051766e-02
      -1.5953151198383256e-01 3.4561314130048948e-01
      3.0258167080250337e-01 -1.0889852041053252e-01
      1.3837295069394837e-01 -4.7746083891638275e-01
      -4.1786117800643687e+00 4.3043475078296578e-01
      1.9898940023102171e-01 -4.6208011825133438e-01
      -6.1051361374030888e-02 -7.5948365591567368e-01
      -1.7209309219434613e-01 -6.6081566318483587e-01
      7.5666357157793893e-02 5.4997145654309076e-01
      6.0152356427300724e-01 6.7667276792505782e-01
      -9.0897808575159889e-02 -2.2635365134833774e-01
      2.8568635786618085e-01 4.2771386373268216e-01
      5.7799942574777530e-01 -2.1718725322218407e-01
      5.8640644823682218e-02 2.8934154215011265e-01
      -6.3378544329412945e-01 -3.2454037934475888e-01
      2.4834172128312218e-01 -2.2274069188415993e-01
      2.9568209938992468e-01 2.9341457859770048e-01
      -1.2664649255894939e-01 3.0268416757919936e-01
      8.8149373092884800e-02 -2.9061578859627246e-01
      -3.2381609152417261e-03 -5.3015993770110660e-02
      -3.7329450190294784e+00 6.1182015144530144e-02
      3.1002645258034844e-01 -6.4642824585543968e-01
      -1.3820419726947059e-01 8.4375702143389320e-01
      -9.2120117551443004e-01 -6.3397357137782862e-01
      1.0714712760985196e-01 5.6220605134956148e-01
      8.8813064564611721e-01 8.7030255761661635e-01
      1.5578063966691846e-01 5.1841724821812296e-01
      1.0402234065676128e+00 -3.9051388865179150e-02
      6.4419981099583490e-01 -1.3466712377111603e-01
      1.2487641248980224e+00 8.0106198332725739e-02
      -7.4438840649189833e-02 3.7616445350235961e-01
      -8.8610782966018736e-02 -8.3411377282752705e-02
      -1.3431382449557219e+00 4.1706641448241444e-01
      -1.1664333019174739e-01 -6.8912501222072664e-01
      7.2373904378884168e-01 -1.5701185568154974e-01
      1.4134966371208812e-01 -5.1579623356832908e-02
      -2.8608861395456304e+00 -6.7103498302040349e-03
      3.8611821862881306e-02 -7.0138911892648526e-01
      -1.2161336963343887e-01 1.8193370927555577e+00
      -4.4374155944222832e-01 -8.1911017300595079e-02
      5.7919454250783313e-02 6.5603199073634766e-02
      1.9650854654553644e+00 1.8213716557881898e+00
      2.4629165200800673e-01 2.2850223075454423e-01
      7.8548177539620267e-01 -4.0131884228824727e-01
      6.3239628374765688e-01 8.3471493653458385e-03
      9.6736729818032186e-01 6.2132711994969163e-02
      -7.7989153042383641e-01 2.8861319505163674e-01
      1.7230079140977603e-01 -1.0896644517716221e-01
      -8.3963126351199679e-01 1.0846689965464627e-01
      -1.0583009055852065e-01 -9.4377346542260110e-01
      -3.4822889947818958e-01 -2.8112768779026009e-01
      -1.4425612556274678e-01 -9.1484762854601909e-01
      -3.0305924925122820e+00 3.7381604679728614e-01
      -6.3914150189654018e-02 -6.4682819410488937e-02
      -1.5698424337661557e-01 1.5800317103302177e+00
      -4.2616815692782634e-01 8.5238875315338039e-02
      1.2051741316535172e-01 -3.9743190211414664e-01
      6.2846062525014568e-01 1.6716128428362516e+00
      1.1320313119558147e-01 1.2734581705960986e+00
      1.2661997806523002e+00 5.1498535255717237e-01
      5.0003579168624046e-01 1.9649858744225801e-01
      1.3777474254951083e+00 -3.6586385472543242e-01
      -1.7128951693221908e-01 5.4629476532902921e-01
      -2.7249290871540117e-02 6.5749744391858100e-01
      -1.2255653399373250e+00 2.2799961235941260e-01
      -2.6127087695675194e-01 -1.0562359564858024e+00
      -2.7540353495660745e-02 1.3636112421114721e-01
      3.8370026289384679e-01 -1.7328300253112465e+00
      -2.7365214035535699e+00 4.8791354633754963e-01
      -9.2080697485910315e-02 -4.7623867867488717e-01
      -1.0997008568638240e-01 1.5663975129955424e-01
      -7.4780777299182158e-02 -2.5235269262615673e-01
      1.5727269040821221e-01 1.7638442778595662e-01
      -7.4425922698133129e-01 7.8322693690546086e-01
      -4.6549451400197672e-02 9.7320690806295318e-01
      6.3904047926528618e-01 4.2542555941224397e-01
      -1.8219097192471102e-02 -5.1893892975464773e-01
      6.3059577295356750e-01 -1.5472605542947598e-01
      4.9981756654054027e-01 1.2425962013958329e-01
      4.2330388020854076e-01 3.4795819744396761e-01
      -2.0616377283163304e-01 -2.1149260507167322e-01
      2.1821361698151412e-01 -2.2164020270707718e-01
      5.6706067587786728e-02 -3.5257428769789001e-01
      1.9358297121076420e-01 -8.4117978395338566e-01
      -2.7572782370300404e+00 4.3528547545877344e-01
      -6.7524281338641204e-02 -1.6481148297272881e-02
      -5.0526833933348864e-02 -1.1499360029197525e+00
      3.2028878303404679e-01 -6.4854456606873348e-02
      8.5412813962748815e-02 9.3924824263381876e-02
      -1.3246256777921328e-01 4.0201112425119900e-01
      3.6438862387720004e-02 1.1794891672399317e+00
      -6.9313222352625248e-01 8.2252842568144591e-01
      1.3863886275999626e-01 -2.5193817912927347e-01
      5.2661319620658764e-01 -7.3167068672903735e-02
      3.1959322240164256e-01 1.1105992832108565e-01
      9.1880455600770142e-02 -1.6169834803205746e-01
      -2.5078814572946512e-01 2.6421890117080749e-01
      -2.1796354313979988e-02 4.8867560707470076e-01
      -2.3142800028633273e-01 -1.4252650411162071e-01
      2.0827177739490274e-01 -6.2370173705589405e-01
      -2.3651426157854658e+00 -2.5986514989975373e-01
      1.4382128981359832e-01 5.8616389781069467e-01
      3.1898569931872768e-02 -7.8405092417075217e-01
      1.8295334556638179e-01 -4.1337293631180883e-01
      -1.2306818670734199e-01 2.0580331775340588e-01
      -7.2012904665913757e-01 -2.3508532636944888e-02
      2.2599762313922009e-01 4.6792896744169277e-01
      -1.0106372723334913e+00 6.3403256410072628e-01
      5.3857497062559725e-02 2.2207466759104916e-01
      -4.7349540554142439e-01 -1.2543040853310516e-02
      3.2477881233662659e-01 -2.2397732992181835e-01
      -7.1531114270745655e-01 -2.1075090863570139e-01
      -7.6572365780725474e-02 1.9765101814353708e-01
      9.3107082068714070e-02 4.0638167186294544e-01
      -7.0767123671225854e-02 2.2496021465824009e-01
      1.4164363640330171e-01 -4.7795488446472323e-01
      -1.7785236495806969e+00 -3.3591062099295362e-02
      -3.8167658646394714e-01 1.1401981432554168e-02
      -7.9663348834775188e-02 3.9384450883536137e-01
      7.9189863365657887e-01 4.4671449761644791e-02
      1.5471134962195163e-01 -2.0374341572453067e-01
      2.7684069637592418e-01 3.1718358740313818e-01
      1.4138672428862903e-01 7.5865418356654626e-02
      -5.2952533805525925e-01 1.1382044879283539e-02
      -4.8940787500063095e-02 -4.8132990551232263e-01
      5.0325325413683161e-02 3.7060520953778431e-01
      3.7507233241587540e-01 -2.2642200207794880e-01
      -2.1340705248299055e-01 -3.8679388991939684e-01
      -1.8272151836477687e-01 -1.2825207425606636e-01
      -3.9608977200024337e-01 -2.3453902477008165e-01
      -9.3564621686082194e-01 -4.5312031499015326e-01
      -2.9322732875489971e-01 3.5221023362056031e-01
      -2.3128974222187946e+00 -5.4787487077807763e-02
      -1.9770541786576784e-01 3.5043520646046084e-01
      -7.6818477011373329e-02 -9.1233557793562625e-01
      4.3536209957467958e-01 -1.6916619096958024e-01
      1.0122487537029351e-01 -1.8670587090684107e-01
      2.2009315733679230e-01 -3.5661859420740577e-01
      1.2963843245132113e-02 6.6180681085182924e-01
      -6.7432001385218943e-01 -1.0540793731887067e-01
      6.6448822684873468e-02 -3.0645300471962933e-01
      4.8233351295050914e-01 3.7027240847909365e-01
      1.3297638995770602e-02 -2.7602156531181571e-01
      -2.1081955651745229e-01 1.3295174572578422e-01
      -6.4254841149760311e-01 -4.1661911997488787e-01
      -1.4688492242417514e-01 3.4523708255404179e-01
      -5.9151214805078289e-01 -3.7887289036827410e-01
      -1.3754387949276559e-01 2.1739577235710968e-02
      -2.2159896064253668e+00 -3.3487290049861673e-01
      -8.4937771550176649e-02 1.8992023324379007e-01
      -8.8732696587140739e-02 -7.2121229086826710e-01
      8.4794114972538609e-02 -1.7823224106379548e-01
      1.1615800929752111e-01 -1.3919647892778605e-01
      1.9443237636550290e-01 -1.9675924770373621e-01
      -8.5705708602067845e-02 4.9503520621343694e-01
      -5.3197976432452143e-01 -2.7178422889508502e-02
      1.0469390935340700e-01 -1.7327980347430263e-01
      4.7470701374467900e-01 1.9639097135323261e-01
      -2.7139836812328230e-02 -1.1333128882014770e-01
      -2.2241716693421013e-02 -1.2911440615706432e-01
      -3.4947296804653433e-01 -3.6054895441419776e-01
      -2.1452335376087434e-01 3.0724876431450338e-01
      -5.7313183721785999e-01 -3.7093152845385108e-01
      -2.8511719708962513e-01 3.9758413041337294e-02
      -2.0245751551918829e+00 5.0511525664907408e-01
      -3.4804449465678583e-01 -1.6533637312246305e-01
      -1.2213725966846808e-01 -7.9110807076198075e-01
      7.7029280970887670e-01 4.0362770801178810e-02
      1.7566942104052513e-01 -2.6294330633637092e-01
      1.1023373758914706e-01 -2.0911696442933592e-01
      -1.4598389507616186e-01 8.6140919017586581e-02
      -9.0025237271350245e-01 3.3233752854814408e-01
      6.6874459834846856e-02 -3.8114612181571039e-01
      3.1572908154577872e-01 3.0410899922911799e-01
      6.5579750454733310e-01 -2.7842367023645720e-01
      4.1461169842593465e-01 -3.8495359748016983e-01
      4.5928701140625822e-01 -5.2179702693129970e-01
      -4.8901176307070365e-01 2.2624651818502148e-01
      -8.5441756268386726e-01 -7.1563317220736722e-01
      -6.2292169649082296e-01 5.2981866871808914e-01
      -2.0205682348195451e+00 5.7496905469778703e-01
      -3.3953115912206977e-01 -3.0486415316738186e-01
      -1.1181106974448238e-01 -9.5950740936207124e-01
      8.7728859204672727e-01 2.4326450791097776e-01
      2.2354760485021272e-01 -2.6352633829497446e-01
      -3.1589445513307407e-01 -4.3907613845899224e-01
      -1.6742402810270260e-01 9.6050505348203516e-03
      -1.1387635548243191e+00 2.1807969269426780e-01
      -6.9224564917511134e-03 -4.6090501657461008e-01
      4.2814975375217407e-01 3.8207876088898951e-01
      3.6264470531666948e-01 -3.5060465965683979e-01
      4.4391674160460176e-01 -2.7482890678289507e-01
      7.4385693401234243e-01 -5.2152336777254604e-01
      -3.3279679176718135e-01 3.3020091290666342e-01
      -6.4752526035249103e-01 -5.0136708838548827e-01
      -7.1324222907127111e-01 5.8460984347800038e-01
      -2.1299883229869305e+00 9.8876832789744529e-01
      -3.4577065117758338e-01 -3.6201508079968675e-01
      -1.1482212709064393e-01 -5.2612285729926622e-01
      1.0245213450094257e+00 2.7990204875878849e-01
      2.0943411048526447e-01 -4.1398776618263328e-01
      -4.3888352032240863e-01 -6.4125967562019148e-01
      -3.1477400655448856e-01 -7.2039867380356545e-02
      -7.5932434757167311e-01 6.2599232797570636e-01
      7.3013560994608359e-02 -3.6916034284881710e-01
      3.6417514610317064e-01 3.8572715261121582e-01
      4.7965673309510148e-01 -4.2040114176462545e-01
      7.5941263881726562e-01 -2.8454017302467910e-01
      8.5176053358918324e-01 -5.1363410480090443e-01
      -5.3597970854669763e-01 7.3203460027654904e-02
      -5.8980286943812987e-01 -5.4095379391887166e-01
      -8.1643757020723895e-01 1.0134235363136532e+00
      -2.9158060614853496e+00 2.7576351621306322e-01
      -3.1714995006852348e-01 -3.6519102556339368e-02
      -9.6749133984189550e-02 -9.7979839849986772e-01
      6.2400649931289209e-01 2.3882451869965574e-01
      1.8725004416284924e-01 -2.5899133387465101e-01
      -1.1047229764478034e-01 -7.5484703253912677e-01
      4.4491466817321836e-02 -5.7961318970740905e-01
      3.7250013931171472e-02 -1.2509827680732952e-01
      -6.5364201367682173e-02 -1.8484642979059854e-01
      -4.6887408022812882e-01 2.7138438985164933e-02
      8.0032586448660403e-01 -4.5077382654454995e-01
      5.4693513341142408e-01 1.5529095789067768e-01
      -5.9354313063057051e-01 -1.8947542057540892e-01
      -4.2717681553223841e-01 1.1213771295442014e-01
      5.1553725820222840e-01 -3.1264574324967470e-01
      -4.0148707020257873e-01 3.0467758900999453e-01
      -3.3624231693215162e-01 -1.4502963741874266e-02
      1.3875146107630906e-01 -4.0052219661386546e-01
      9.0323974994423553e-04 5.3883508705276628e-01
      -5.5496477635522401e-01 1.2749141373922709e-01
      -6.3873558928952981e-02 2.1637434472577785e-01
      -1.0796074401623758e-01 1.2743747494948769e+00
      -1.3588251015959052e-01 -3.6727891474437119e-01
      7.5713245682545394e-01 -2.1861136305278134e-01
      7.7988738167503457e-03 -1.2029271495468599e-01
      4.6486461212945412e-01 -3.3336395842826350e-01
      -1.7005114538897684e-01 -8.7848240637356731e-03
      -5.8606266801384407e-02 4.4141526839987337e-02
      -3.5264028752837479e-01 -8.1592172624154441e-02
      -1.4238875980123497e-01 -4.6537703769426031e-01
      -2.6250612259546602e-01 -5.1915530244703835e-02
      -1.4323901987984544e-01 -6.3161747645175792e-01
      1.0623787201552239e+00 -2.2006494547787173e-01
      3.3392574257758617e-01 7.0662842235815659e-01
      1.5598286018973509e-01 -5.2949126733808527e-01
      -8.4628395374293164e-01 1.0658099828795628e-02
      -2.2834809565125416e-01 2.5333821908620341e-01
      -3.1259905409337296e-01 -2.0791574587471731e-01
      3.0319053615507057e-02 3.2075755172667308e-01
      -6.9875943171280458e-04 -1.5966969384997515e-01
      -3.3550573667391233e-02 2.2049130393033681e-01
      -3.1352849786782400e-01 -4.5344201091951253e-01
      -1.7656758710053264e-01 1.8265469631464779e-01
      -4.6383113667740233e-01 5.5094810945958439e-01
      6.4175159677673690e-02 4.8496581045242249e-01
      2.6048516907597744e-02 5.0206763909989260e-01
      2.3322455786303381e-01 5.1053988864017807e-01
      4.7091377902288145e-01 -5.7442707017874572e-01
      -2.5293785446656529e+00 5.3297159285836893e-01
      8.1333139010364514e-02 -3.9375259042958022e-01
      -4.3921292612944439e-02 -1.0905170666057767e-01
      -2.1572616508578629e-01 -7.4114147416170867e-02
      -9.9272750179906791e-02 -6.4180789561343640e-02
      2.5900224194307092e-01 1.5288716992399483e+00
      1.3290749741702393e-01 4.5415597741258751e-01
      8.9646796653259775e-01 4.0973985824398573e-01
      4.4777353919581836e-01 3.2418228256942327e-01
      7.6533450458512542e-01 -1.6184275145384164e-01
      -1.6030400736427025e-01 5.9969033248538850e-01
      -1.6660738225750232e-01 1.6868793901782153e-01
      -4.6589422831354160e-01 3.6349475248093782e-01
      5.6926138118791214e-02 -1.0482585252957556e-01
      -4.2022983022742960e-01 2.1490088093285901e-02
      3.3568814905921790e-01 -9.9923388916174227e-01
      -2.1985961261228746e+00 -5.0651411088736520e-01
      3.1967572708988989e-01 -3.9163478237130578e-01
      6.7787796244203093e-03 1.0078029542204112e+00
      -8.9653203004827475e-01 2.4286256632671702e-02
      -1.0116790412124932e-01 3.8832514939501089e-01
      1.3604381163454575e+00 9.2119167450720074e-01
      2.5796733069512229e-01 -7.0383013658194105e-02
      6.1323134766269893e-01 -7.7457853310290770e-01
      1.9984362435941380e-01 1.1789641595307210e-01
      4.5987166606630109e-01 -4.7969481033078082e-01
      -5.3032152565683621e-01 3.3720715638122328e-01
      -4.6271149414028973e-01 1.1798175042070322e-01
      -9.1953031806622476e-01 3.8043972426920009e-01
      -3.0015268179361416e-02 -5.2397334544426832e-01
      7.2562522581500949e-02 2.6526567492802716e-01
      5.6742571956746268e-01 -1.1524054219018895e+00
      -1.8702971659091940e+00 2.3789144007453747e-01
      -1.7034850749685840e-01 -4.5545227165191504e-01
      -8.9754338929478455e-02 1.5867214641214002e+00
      8.9919120758992083e-02 -4.0152606625585696e-01
      7.4099062830647905e-02 2.9770363363572488e-01
      1.2631246054066185e+00 1.6813614441331801e+00
      2.4779345103775469e-02 3.9074783559177673e-01
      4.2157133538779007e-01 -6.3023686158298364e-01
      1.5091208902824438e-01 -3.6490810038653732e-02
      5.8314013711972146e-01 2.0020057593319696e-01
      -5.3401276961598876e-01 2.9568895036773020e-02
      -5.1132701591745662e-02 -1.8986849364552835e-01
      -1.1577831860127333e-01 1.4863388226683058e-01
      -8.0459484108637486e-02 -1.0805432665448287e+00
      -3.0572906105904024e-01 -1.2827628923755482e-01
      5.0715726839263786e-02 -1.4163218601846348e+00
      -2.2399792128050886e+00 -2.1281566706190244e-01
      -6.5846080669574258e-02 -3.2270538525697545e-01
      -1.1113592102272460e-01 1.1008857329115385e+00
      -5.4498949480783077e-01 4.0961253075139294e-02
      1.6133326904260786e-01 1.3501887620883882e-01
      1.0949143383808568e+00 1.2995588739605373e+00
      -3.8761026350699175e-02 1.2012340053894901e+00
      7.1511479975787628e-01 -6.1292874743487724e-01
      9.8474741364199710e-03 -1.0463984328750575e-01
      8.4781992667135042e-01 -2.1150412429891194e-01
      -5.5983133048029965e-01 2.7347040056922456e-01
      1.7998873228982448e-01 3.5131329335634627e-02
      -4.5716880787016961e-01 2.6253715673998576e-02
      2.2446150694353481e-01 -4.8325782762594716e-01
      -3.9656740976092825e-01 -1.3256335600017363e-01
      4.4699421986682003e-02 -1.0328268847327309e+00
      -1.9195591877119667e+00 2.0547108387373134e-01
      -2.8845773563702620e-01 -4.9936247254402694e-01
      -1.3830611596214190e-01 5.4966530240401745e-01
      -8.5009904273072423e-02 3.4478077188034689e-01
      1.6046541259216751e-01 1.0166098253688031e-01
      5.1972046286500462e-01 1.2885643942943463e+00
      -5.2689494226691475e-02 9.1268418637493576e-01
      4.5712913570965019e-02 -2.1392127855798002e-01
      -1.5880881923563284e-01 -2.1515696721295574e-01
      1.1006693202443163e+00 1.9708291874513617e-01
      -1.3110358857213866e-01 2.5522630324904577e-01
      5.2723556099539592e-01 -8.8821528382959300e-02
      1.7082552272564747e-01 -2.1607797056525158e-01
      1.4425934714245617e-01 -2.1941834097364943e-01
      -3.6331589166226325e-01 -1.6306968858686066e-01
      -3.8575191989270917e-02 -9.3772193538402948e-01
      -1.6814673813695726e+00 -1.6024756461091302e-01
      -1.4053308471772908e-02 -3.0727612468631499e-01
      -6.4210694794552492e-02 -7.6381953428225347e-01
      -1.2901979799199634e-01 1.8373888841599489e-01
      1.1100098655437415e-01 5.8325646141673786e-03
      -3.8952036118978689e-01 4.2693885625065164e-01
      1.3542914553478419e-01 6.1356436119345248e-01
      2.8403695361161807e-01 -4.0639432553174093e-02
      -2.1087222641232969e-01 -3.9620928425165186e-01
      9.2437488681452640e-01 2.0814043879055344e-01
      7.0542128202636931e-02 1.9285725329285752e-01
      5.0443595881756442e-01 -1.3524034571588956e-02
      1.4171757342594782e-01 -8.1092150347484432e-02
      1.3678270125354650e-01 4.9840401665762663e-01
      2.7948460514782425e-01 1.0110827970711314e-01
      2.7993114778617243e-02 -1.8534311384843011e-01
      -7.3725816734063676e-01 -4.4221359181809683e-01
      1.1931038246170124e-01 -3.9681873337001616e-01
      -6.1823047426697322e-02 7.2156993503892009e-01
      -1.2289114929697935e-01 3.2450962842720948e-01
      8.4594130518616459e-02 1.6580891870818479e-01
      6.1824283726031193e-01 6.7074099119008468e-01
      3.8511414437360392e-01 4.7295460817280244e-01
      -1.3512598465543743e-01 -8.6459699921922217e-01
      8.0018056275879476e-02 -8.1008748697512525e-02
      5.0105590214882889e-01 6.6540465099050250e-01
      -3.3434931768032661e-01 4.0311968657684660e-01
      -2.0946958513360001e-01 -8.7325578443603336e-01
      -8.5302435124477949e-01 -1.8756018713343134e-02
      2.9039789966023855e-01 -3.8235716650589191e-01
      -1.5337167628787235e-01 2.7688742685544626e-01
      -1.8972621140291916e-02 -5.9454346847291728e-01
      6.4635535879613593e-01 -2.4901501949656429e-01
      -1.1606578121180223e-02 -1.0904730938583995e-01
      -1.9603185547995946e-02 1.0174193838318057e+00
      -1.2831877228869126e-01 -1.4237498372089041e-01
      4.1984304187501882e-02 5.5182161015184285e-02
      7.4645962997110771e-01 -2.5786061110021002e-01
      2.1426651043914691e-01 -2.3706897769025467e-01
      -1.3712665915208869e-01 -8.5914609399982678e-01
      3.8709476175454172e-02 -4.5940091914626377e-02
      2.7315414453920150e-01 3.0899292888032776e-01
      -4.6157390390381470e-01 -3.3089724508390081e-02
      6.7644969048262227e-03 -1.1806020779229427e-01
      6.1952724099790503e-02 -1.4039670881307423e-01
      -5.4561999524542562e-03 -5.2927987754582839e-01
      -3.7365849067999274e-01 -9.1754854827376525e-03
      -9.3801492002086165e-02 3.8044460770757110e-01
      1.2527658964105288e+00 -3.4184317969111949e-02
      -2.0466948883080369e-01 -6.4603052351005955e-02
      -1.5190830867829502e-02 -3.4754367239505696e-01
      2.3776434760809481e-01 2.4251117866010874e-01
      8.9167333929603604e-02 -9.9357504039958008e-02
      3.1117551433415127e-02 -8.0061752302674249e-01
      2.4602333801102157e-02 -6.5152917696246149e-01
      -2.4554815272646227e-01 -1.4406825769360576e-01
      -3.6440365088142038e-02 -2.1552454993500636e-01
      -6.6211445007917047e-01 1.6948190767826668e-01
      -9.6127218819884633e-02 -2.5729578660986735e-01
      3.9377855133129752e-01 -4.9236656246906901e-02
      1.5535766392025402e-01 -4.5040457449960908e-01
      -1.2029003533752389e-01 2.0641922603415869e-01
      2.3684544761072554e-01 -1.1814890203717263e-02
      -1.7159936042875051e-01 8.2994375316259361e-01
      8.4826853478352715e-01 -3.4154710750237716e-01
      -1.6901771323126494e-01 -5.1374715016129495e-02
      -1.1863885351675192e-02 -2.7218620718064446e-01
      4.0487235943732486e-01 1.5958704834788476e-01
      5.8878110929314435e-02 -1.8464522321865728e-01
      2.8919997684261478e-01 -7.8454570676221302e-01
      6.2988704690554870e-02 -2.8267942507363647e-01
      -6.9060164046617079e-01 -1.1139784301280542e+00
      1.8749621706251551e-02 -1.1126248859724902e-01
      -5.5268251720456074e-01 4.0342157236833237e-01
      -3.6911962918892566e-01 1.1141232969135750e-01
      3.8794779258703810e-01 -2.9339478332366370e-01
      3.8200929328632843e-01 -2.0562598682556749e-01
      2.8324643682140323e-02 1.0564110686659207e-01
      -1.6762117573087704e-01 5.1193426185899137e-02
      -2.9781583823691599e-01 8.4583895367399731e-01
      1.1168094119840223e-01 -6.3499385245779072e-01
      1.1481916633115935e-01 -2.6529333255779020e-01
      -1.9002336952341912e-02 7.7031790888695439e-01
      4.2830703708053197e-02 3.5981747088920718e-01
      -1.3077831017356285e-02 -1.1947729523800649e-01
      9.8811475965339945e-01 -1.4561319672089834e-01
      1.4092307780922669e-01 1.0138151991767931e-01
      -5.7104331655716134e-01 -1.3023855725119509e+00
      1.5122158089633957e-02 -1.0319496316660801e-01
      5.5697639754466821e-01 5.3146732539582275e-01
      -5.7600486670772078e-01 1.7162103082288785e-01
      1.0692815247461014e-01 -7.5741679390323391e-01
      3.8644310036553414e-01 -1.0436113545917407e-01
      5.5345875251595976e-02 -2.0574002070001646e-01
      -4.5250065329862293e-01 1.8796176958912261e-01
      -4.7896246805488080e-01 9.8980956145449037e-02
      -1.1646145778070363e+00 1.4345767584440369e-01
      -4.5662471339414278e-02 -2.7848916156812598e-01
      -2.0305804299237493e-02 -2.5082034922601160e-03
      1.9184178016421907e-01 1.7840625287422331e-02
      -3.9830530821544564e-02 -1.4356139725430761e-01
      8.8875916333679306e-02 2.4591352921465534e-01
      3.0039039602988465e-01 2.4423681584846363e-01
      -4.4458884513888958e-01 -6.1164809957172939e-01
      8.3290002808033628e-02 1.6157472607649151e-01
      3.4978560343579285e-01 5.0996946983945135e-01
      -1.2331247192921001e-01 3.0086252603524449e-01
      1.0436134220556788e-01 -5.1813201940143483e-01
      8.6717291893804216e-01 -1.8535873215119500e-01
      2.1351162541099361e-01 9.4216471375942315e-02
      -3.3394912407846949e-01 1.8860632591853188e-01
      -3.4374815556377836e-02 1.2520070368483323e-02
      -1.6540933306369068e+00 1.7075199030395016e-01
      -2.3571637240253449e-01 -1.9237079327190415e-03
      -8.2390843294041727e-02 -8.4514382635238328e-01
      2.7464723848453698e-01 2.2904711459289578e-01
      1.4170455571672336e-01 -2.7141368434006496e-01
      -5.9070692852358964e-01 -3.8798054426682611e-02
      -1.4646677256945292e-01 -4.6127060750278927e-02
      -3.6293308119323375e-01 4.5546107785003392e-01
      1.6439968074754268e-02 -1.6335757428340036e-01
      5.9380796281300850e-02 3.0730680214039158e-01
      3.5564370846078958e-01 -1.1239706903997608e-01
      3.3682181398756089e-01 -1.6439992762742422e-01
      7.1594758963266258e-01 -5.1150486883366975e-01
      -8.7495830964964827e-02 5.2575437529140034e-01
      -3.3652606220862474e-01 -2.2030928939327935e-01
      -4.8618783514866376e-01 3.1374437905953761e-02
      -1.8494985457754485e+00 3.9242533600459323e-01
      -2.2759864098206090e-01 2.1892755810302179e-02
      -3.3372261050677011e-02 -7.0320885052732318e-01
      8.3222879973054761e-02 3.1326445093190425e-01
      1.9946791379516170e-02 -2.7221353117393537e-01
      -1.4284440665623513e-01 -4.0255833753435938e-01
      -1.7779545531835714e-01 -8.2933099639825564e-02
      -5.5296742291484546e-01 7.8675385272726706e-01
      1.4050394065674173e-02 2.1451973905907886e-02
      -1.0666496270143527e-01 2.9214457447681585e-01
      4.5727996295844467e-02 -2.1687946290306798e-01
      3.3091773250824463e-01 -3.5089776135284648e-02
      9.0901705259433807e-01 -3.4534244719230950e-01
      -1.1687694867681471e-01 3.2236435596983903e-01
      -4.3760585624927267e-01 -1.0017224119353718e-02
      -5.7308560716449275e-01 5.1377888105496004e-02
      -2.4342177961610587e+00 5.4393727206546938e-01
      -2.6973457666996448e-01 -3.3680226822923331e-01
      -5.2668896766502001e-02 1.8819834397702737e-01
      4.6385975350089620e-01 -3.1777414482745353e-01
      5.4515018000331456e-02 6.3720951616636018e-02
      1.5444765327254731e-01 2.3825089559827436e-01
      -3.0970484887581928e-01 -5.9670441300014469e-02
      -1.3763491468646757e-01 1.5660962282233121e-01
      5.0071414877520690e-02 -3.2184737710053712e-01
      2.0515349190602389e-01 5.4612855768593793e-01
      1.3666420476576274e-01 -1.1755388201434193e-01
      5.2577991982382799e-01 -4.6924769029499869e-01
      4.2018141038368639e-01 -2.5705637719597624e-01
      -3.3750555295191037e-01 -2.6337565956730391e-01
      -5.1045581950934882e-01 -5.2518054604816200e-01
      -3.6142594941651718e-01 4.5749295754963537e-01
      -1.5741714592126235e-01 -1.2338751199995988e-01
      -2.8505782919605949e-01 -2.7935394452801476e-01
      -3.5361660508049897e-02 1.1280470933600968e+00
      -1.4143234076626243e-01 4.1983310065654866e-01
      1.0861096600681124e-01 -1.8485998959625052e-01
      1.2740868667272216e+00 -2.4674789342289058e-01
      2.5900733338900367e-01 1.2724178947030991e+00
      4.7113300566391347e-01 -1.2482215002337380e+00
      6.3070814140375473e-03 -8.7512684903912771e-02
      9.9101157916970961e-01 -1.5140734264050615e-01
      -4.7651981290626494e-01 2.7023113500194842e-02
      3.6714935267372190e-01 5.7886512610977470e-01
      -5.1278471236892442e-01 -2.0469072724520651e-01
      2.7475174955792967e-02 -5.8331475687007939e-01
      -3.3074093206193000e-01 -3.8284667865300236e-02
      -4.1503345063956310e-02 2.2973786805543694e-01
      -3.6848095476616444e-01 -1.2143143282076162e-01
      3.3156247928571046e-02 -2.1196909880761058e-01
      -6.9771377491780084e-02 1.5734006619714389e+00
      -2.9390927990066090e-01 2.3153410509207836e-01
      1.3294136097349271e-01 -1.7430417416114313e-01
      1.1096418974202757e+00 -5.8564575911562422e-01
      -2.2943972312798505e-01 -2.6970539079270972e-01
      6.0940810555904112e-01 -3.9083347858800582e-01
      2.3808952904420319e-01 -6.3685299755478403e-02
      4.6585811399453941e-01 4.8383347386474418e-04
      -4.6561695405194342e-01 3.4027115783002332e-01
      4.4363198224646455e-01 3.1934582442164983e-01
      -3.7692160986524748e-01 -2.8714691622948579e-02
      -1.2662369690820663e-01 -8.2224527792955671e-01
      5.2839182807701307e-02 -1.6514568506631103e-01
      5.3986728739375364e-02 3.6371687164712463e-01
      -1.7488132458468999e+00 -2.9127411273051745e-01
      1.7906312447168110e-01 1.0873847111935177e-01
      1.5892948300697748e-02 -4.9623442629302206e-01
      -2.4422959024837912e-01 -3.6979659499712186e-01
      -6.2131398605346895e-02 4.2308690153936124e-01
      -1.2921900228628080e-02 8.9975739857064740e-01
      1.8008745375142510e-01 4.1126374668445437e-01
      -1.6756651177151960e-01 9.4245234174082829e-02
      8.0482857172570581e-03 2.2054981026381659e-01
      -5.3079578097278546e-01 -1.2413726000739014e-01
      -6.3405473906591603e-01 2.6793544978533777e-02
      -3.7845956550406440e-01 5.9877049089975698e-01
      3.4660462145238952e-01 3.8757132790763615e-01
      4.3128688082554023e-01 3.2491586256706778e-01
      4.7627923225870145e-01 5.0505600918773697e-01
      2.2216289557604141e-01 -1.0581985837385044e+00
      -1.8279958052268335e+00 -5.8578141605875134e-01
      -2.9008884997370404e-02 2.7190759950874986e-03
      -6.2604999270342465e-02 6.9925478828309717e-01
      7.9175372161034291e-02 -2.4513394232144903e-01
      5.3094982969364241e-02 4.3516877557988852e-02
      1.1150936928856234e+00 3.4739168860851410e-01
      -8.1740202494686998e-03 4.2501126995760669e-01
      1.1476544235004969e-01 -4.1183471837806218e-01
      1.2191813332431719e-02 -2.1238634972719495e-02
      3.2882191209928818e-01 2.0967594221414604e-01
      -4.9182276532610220e-01 1.1884389616609874e-01
      -2.1822190123146332e-01 -4.7089396090527584e-03
      -2.8334693408235434e-01 8.5739354104511126e-02
      1.8645627643827836e-01 -4.3536677156602327e-01
      -1.5907193133650413e-01 1.0987846656083596e-01
      2.0631881201370314e-01 -7.2412720985777612e-01
      -2.0388895902229205e+00 -1.5103497076795019e-01
      -1.1819920508894841e-01 -1.6162915878658296e-01
      -1.0227524557723716e-01 3.6076475453745094e-01
      -1.0981311717204373e-01 7.7168654419642602e-02
      1.3292997026816394e-01 4.0250161742440935e-02
      4.5511857506424075e-01 5.5146498464822402e-01
      -5.4265051131083777e-02 7.3598287801237072e-01
      1.5367501213815993e-01 -4.9324694222686533e-01
      -1.3208946437892619e-01 -2.7682152583344155e-01
      8.7734609720395329e-01 -3.3214550071054297e-02
      -3.6439235463986044e-02 1.5573669717407879e-01
      1.5735769200682934e-01 -5.1872727071694602e-02
      -6.8004526069691373e-02 5.3442425096629234e-02
      -2.3368745293055399e-02 -2.5364202926000318e-01
      -3.5902460741218434e-01 -1.7195012980735766e-01
      -2.0320440465281631e-02 -3.3862244902592564e-01
      -1.3752113302134250e+00 -1.5257171397192515e-01
      2.8813120416957640e-02 3.7687006616223068e-02
      -1.0935627901679147e-01 4.1686667419401269e-01
      -1.4815876599424446e-01 -3.0710586097396176e-02
      1.0355023746422026e-01 1.4870882595039543e-03
      3.2778326255571139e-01 1.1432090177679162e+00
      4.4665664452793713e-02 6.8270341189327954e-01
      2.2515251922036583e-01 -1.2275818923836672e-01
      -1.3707725182361172e-01 -1.6521569569645247e-01
      3.4472130653538163e-01 4.0259216048093516e-02
      -6.1848795650106946e-02 2.3130363670902709e-01
      -1.9012576730266595e-01 -2.6812703950759842e-01
      -7.1400517240604866e-01 2.4362007247093347e-02
      1.3447612280744170e-01 -3.2131955570232168e-01
      1.9849390258670419e-01 5.8208851573018687e-02
      2.9756535791713601e-01 -1.0409640051628346e+00
      -1.6499149764239700e-02 -1.8416590641415176e-01
      -1.5508666737372969e-02 -2.4117810955055041e-01
      -8.7482961753046054e-02 3.8658745699584046e-01
      -8.4571112012682650e-02 6.0680178483057144e-02
      1.4748916735477041e-01 -1.9203392878025180e-02
      3.8896622429371863e-01 1.7465673309391636e-01
      3.5587407629147368e-02 4.4024286797896234e-01
      -1.8782360502415726e-01 -6.2376932860853618e-01
      1.4451327870937639e-01 -8.3525577449456448e-02
      3.5044522482540846e-01 1.4167070958425688e-02
      -2.2253354952369009e-01 3.1115077637636435e-01
      -2.3309594255485334e-02 -4.6528397038692948e-01
      4.2361744683998323e-02 2.5870132601840692e-02
      6.4444211753910390e-03 -1.4567812392878302e-01
      -1.0167550660948256e-01 -4.7140243560070946e-02
      -8.7537815063295291e-02 2.6568898739258823e-01
      9.0987811919351458e-01 8.1086804823027603e-02
      -7.5817696033013374e-02 -1.7613875590184722e-01
      -1.4084822672095451e-02 4.6445089871157713e-01
      1.8827266278026325e-01 -2.0213133547905374e-01
      -4.7947475744812992e-02 8.2184097925365060e-02
      7.2082414772427728e-01 4.9107446497829588e-01
      1.3485386125932775e-01 8.7108823335858099e-01
      1.7425058442506519e-01 -8.2446306126393670e-02
      -7.9164538066380047e-02 2.9292543953859038e-02
      5.4111477195062208e-01 2.7511443707579047e-02
      -4.9843157827169010e-01 6.8652243095716506e-02
      6.6021793652641964e-02 3.9202427760388972e-02
      -3.4783739815747161e-01 -1.5345466285023004e-01
      2.7095932528351740e-01 -3.5703038330537484e-01
      1.5693385778356908e-01 6.2592424800297294e-02
      2.2472415006847202e-01 -5.7656984685241031e-01
      1.4451883160624317e+00 -3.2987959296496000e-01
      -3.2274946393452804e-02 6.4961551318091781e-02
      7.2751108917497254e-02 -1.6365068049133641e-01
      -6.9877742842382295e-02 4.3913737693035797e-02
      -9.2586598569261866e-02 -5.9819973302736883e-02
      3.2031267004951974e-01 -3.1689850043776180e-01
      1.0832851416607557e-01 2.5168668667256056e-01
      -5.5764061921919061e-01 -3.2231078411417124e-01
      -4.1886040880872305e-03 -5.3338231938044371e-02
      -4.4077042963791391e-02 3.0592638321625051e-02
      -1.2172220097747784e-01 4.6012206184775820e-02
      -1.5594957628067779e-01 -2.6047937606704380e-01
      5.5242750773542126e-02 4.9318773222245010e-02
      4.3326872240522944e-02 1.1160087761087760e-01
      -2.1344655759284159e-01 2.1319472076164328e-01
      2.0441323227280742e-01 2.4578687505692826e-01
      1.9892709641936241e+00 -1.2150049445449346e-01
      -1.1394877737234373e-01 2.4313103261703272e-03
      8.9175158270508481e-02 -2.3785678379593886e-01
      -1.3407286053546691e-02 2.0232910124592030e-01
      -1.1129088640088404e-01 6.6492517521550776e-02
      1.8589230782706856e-01 1.3903468189155535e-01
      2.4819847192179337e-02 -4.7664285734366640e-01
      -4.2678200649397374e-01 -2.7309970806323658e-01
      2.6191498108447127e-02 -3.6707550259626985e-02
      -1.1129541835329958e-01 6.9808675909721646e-02
      -2.1687457538079313e-01 8.6892846723515868e-02
      -6.6222276058471863e-02 -1.9672326622624742e-01
      2.2915572086913166e-01 -4.4397977944909010e-02
      -4.4285002378962768e-02 1.4551381253980522e-01
      -2.5014257220258396e-01 4.2159813747391098e-02
      -3.2193026677671088e-01 1.6916919233125615e-03
      1.6021506979496281e+00 -2.3974802094488504e-01
      -3.4886889567744411e-02 2.2346075009022995e-01
      9.4116386368671007e-02 -2.4278699645012708e-01
      -7.5110036440162231e-02 1.2012173506375670e-01
      -1.4371371863783514e-01 -3.1440073464943000e-02
      1.0042508819671306e-01 -5.5612340193681176e-01
      9.0570084264887579e-02 1.1609507933420374e-01
      -3.8110871676335145e-01 1.2804823115654046e-01
      8.5624345525646253e-02 3.6884145241376537e-02
      -4.7862046411590302e-02 5.3174070298605625e-03
      6.0637944347644912e-02 2.0526881839117411e-01
      -3.8623121659852745e-02 -1.5602482491425704e-01
      1.5867071837036101e-01 3.7930507875260137e-02
      9.1831470003200369e-02 2.2887088180614837e-01
      -1.3169127709178871e-01 5.5586489833079254e-02
      4.0555056171449361e-02 3.1382167677858824e-01
      1.7548998156724935e+00 -1.5113965468340990e-01
      -5.7981655676929963e-02 -1.1064768393990627e-01
      5.0144764962317949e-02 -4.2476386869443061e-01
      9.3272907260067137e-02 4.7832099524793009e-01
      -3.1531674868896679e-02 -1.8866567208604901e-01
      -1.0437425846511809e-01 1.2255908070430388e-01
      1.0468197160443402e-01 -1.7111464001298490e-01
      -6.1977273416351418e-02 3.3280092204019562e-02
      4.7813105993142160e-02 -1.9580346308713895e-01
      -1.6066329710276141e-02 1.1818286443798165e-01
      3.2098016136231408e-02 1.2784664473678797e-01
      2.9650532801902718e-01 1.2312253512235645e-01
      7.9395248499371074e-01 -2.0261268440808489e-01
      3.4641778845163416e-02 2.9430811305895876e-01
      -8.5625946208376147e-01 -3.8480457964411866e-02
      -5.3279319530632174e-01 -5.9814460474230613e-02
      3.5431572278491413e-01 -2.3347114472646646e-01
      1.2321435618788262e-01 1.9710296072826397e-01
      7.2276017089930145e-02 -3.2796266663079904e-01
      -1.7576737701308112e-01 3.7093441569701086e-01
      -4.2768130434315238e-02 1.9262605153620851e-02
      -6.9502322398471879e-03 -7.2481091052199731e-01
      7.5609247697157933e-02 -4.0525872641869742e-01
      -1.9610540313646188e-01 -2.8581019433183807e-02
      -8.5689764484975187e-02 -3.2084780478555835e-01
      -8.2978812662632073e-01 -9.9904291896722772e-02
      -2.9547854180678151e-01 -1.2587470204856227e-01
      4.6841980597278027e-01 2.6211616635604795e-01
      -1.2050425090991808e-02 -1.5659747008977559e-01
      2.4606363073448098e-01 1.7557135686153780e-01
      -1.7038927447919350e-02 2.7201719725817905e-02
      5.6070511320693156e-02 4.7028929597137809e-01
      -1.2180057285750816e+00 5.1471368085547031e-01
      -2.4567256912243937e-01 7.1554936002118819e-02
      -1.6347037052914265e-02 -5.7466872687353576e-01
      3.5726923003121819e-01 -7.2899549850524145e-02
      -6.6536940161050800e-02 -1.6763127919643495e-01
      -7.4823415071490451e-01 1.2414480617688652e-01
      1.0328471602632514e-01 3.7122332134304339e-02
      -3.1382210710476083e-01 4.9797866449393985e-01
      -2.3712114712070156e-02 1.5593587551579041e-01
      -3.8185263270277964e-01 1.1297006987806558e-01
      3.9202920219142789e-01 -1.2968799834554268e-01
      -3.0708646904409002e-02 2.1391135233254855e-02
      9.6342364861451840e-02 -2.6185654754912302e-01
      8.8302055295041051e-02 2.7906230866901849e-01
      -4.0067777563315676e-01 -1.1997097901565035e-01
      3.7150392783306341e-02 -3.2845189339701669e-01
      -1.6732244519866688e+00 3.7287103384578135e-01
      -4.5698721266186609e-01 8.8080959873458667e-02
      -4.6606826498567386e-02 -4.4278761786617093e-01
      3.1918363398404925e-01 2.5667482413227893e-01
      4.6132537733125485e-02 -2.1410766267240167e-01
      -2.9542655854885813e-01 -1.1342628794906766e-01
      -1.1792021168334811e-01 -2.2648073301071364e-01
      -5.1095208817186366e-01 5.6244855463087751e-01
      8.1122330310857527e-02 2.4974746668219173e-02
      7.0809493334542291e-03 1.2497269005841576e-01
      4.0495492011796863e-01 -3.8752636016564634e-01
      5.3756247161034276e-01 -1.0655241818128570e-01
      3.6089771072811710e-01 -3.6978543603757685e-01
      -2.1848645160771024e-01 2.8800371765383953e-01
      -2.7181788913080568e-01 -4.0596736884377072e-01
      -4.6511283768125578e-01 1.9427768514010124e-02
      -1.9986353397574450e+00 7.8322834282506075e-03
      -2.5648693251213245e-01 9.7881452670136482e-02
      3.6774987398524622e-03 -7.6882903761594645e-01
      1.6023136762933973e-01 4.2259798299031670e-01
      -2.3717285918872639e-02 -1.6675972040035708e-01
      -5.5591735603237091e-01 -5.4537908286459835e-01
      -2.2766845490187571e-01 1.6611092134498956e-01
      -5.4740730280188543e-01 5.1025380353492333e-01
      -2.7394174234389387e-02 7.7560290489265341e-02
      -7.9996056848412128e-02 7.3110039905186205e-02
      1.3058063318516313e-03 -3.0283941121999345e-03
      2.7468489072884505e-01 -2.7098466307621516e-01
      8.2041942885893016e-01 -1.7641138400707740e-01
      -2.5594907946794379e-02 5.0668755098545515e-01
      -1.8739703822226439e-01 3.9609885757003784e-02
      -5.1615408879054470e-01 2.5028568620705621e-01
      -2.7557431666873344e+00 4.9194239417953900e-01
      -4.5582543763580213e-01 -3.2747757357916657e-01
      -5.7252718385931323e-02 2.6405019496174215e-01
      2.4093416326454345e-01 -1.8405714927496913e-01
      3.4467654559942416e-03 -2.5546495116995957e-02
      1.3251232983891928e-01 4.0520640253670276e-01
      -1.5534112048829182e-01 -2.4229295243861135e-01
      2.2332325315902710e-01 -1.6832866547668254e-03
      8.3749176255377648e-03 2.3643080592245045e-03
      1.4833751275928725e-01 4.2467074695291313e-01
      3.3309409143675123e-01 -3.0440401026069056e-02
      -3.9381718689601344e-02 -3.8267195943096272e-01
      1.4616893386045365e-01 -2.8253875720626653e-01
      -7.8222742225034933e-02 -3.4623281276889933e-01
      -3.4966049572372848e-01 -3.6000518787787539e-01
      -3.3779005156690561e-01 -1.1809210667671705e-01
      -4.5823036067917117e-01 2.2196420751974952e-01
      1.1702272744944896e-01 -2.6095169629049259e-01
      -7.8670248346882063e-02 6.7767659855707027e-02
      -2.0665078537873663e-01 -4.2116914069860184e-01
      2.5426727005063862e-02 1.6119699217536548e-01
      -1.5353539860905685e-01 -5.1247607763616321e-01
      1.4022583652653153e-01 2.8110187768501255e-01
      -3.1947853841296642e-01 3.3398281362853094e-01
      1.1156556514800889e-01 -1.1066396238554800e-02
      1.1228922982514601e-01 -4.9272136018239057e-02
      4.0249670518871697e-02 -2.6705827632986767e-01
      -8.6899117508669771e-02 4.3493465569595968e-01
      -1.0018103927802352e-01 -2.2983194043297021e-02
      1.5663031444703807e-01 -7.9578386098234991e-02
      1.2247524434075463e-01 -2.7804027608127189e-02
      1.3821585122370542e-01 4.7866091415531320e-01
      -6.3203028667418470e-01 2.6688735492066375e-02
      1.2311066361648528e-02 1.7540994469089044e-01
      1.5133603717462113e-02 -3.1292930793255591e-01
      2.0428852311604803e-01 1.0126427053832977e-01
      -3.4599220788768453e-02 -9.6608071856456645e-02
      -1.9823479442292827e-01 2.0025041311700700e-01
      2.7839268200091517e-02 -1.2046250321436415e-01
      -3.3832854073965585e-01 2.1578048868052885e-01
      -1.6359771681870866e-01 7.3462649388898169e-02
      -2.2049439298809684e-01 3.2549606297962955e-02
      1.4197991958192954e-01 2.2936297778421930e-01
      -2.1586388183711683e-01 -1.7693674888434877e-01
      3.6868726700972732e-01 2.1643449493920286e-01
      5.7875753645895173e-02 2.5048501843783583e-01
      -7.8900729573686601e-02 1.6203386452625490e-01
      6.4075770659066444e-02 -2.0436664124776141e-01
      -1.6708780434899255e+00 -2.6631255095652361e-02
      -6.8528248619329532e-02 1.0005057157783531e-01
      -4.8523449437133569e-02 -7.0767668839758524e-01
      -8.2167884328417637e-02 3.7837466129820273e-02
      6.6024470944717306e-02 1.6371741233903232e-02
      -2.1503867998969586e-01 -4.1252371586099335e-01
      -3.2047536620182664e-02 5.6953464263973042e-01
      1.8037396231854233e-01 2.8532754300159396e-01
      6.3490974016216006e-02 -1.6672689155079318e-01
      4.8283526891962324e-02 -5.9501837114190693e-02
      -9.8958121175010016e-02 -1.5274024952421345e-01
      7.0292706405148633e-02 2.1069088216377985e-01
      -1.6923136771252081e-01 6.1918244772264472e-02
      4.8442839876000045e-02 2.6105802774116210e-01
      2.3125906774724381e-01 8.5725086572293607e-02
      6.0468597321904904e-03 2.4541013081351698e-01
      -1.9352841033652324e+00 -3.9592671054640718e-02
      -6.4091633796865832e-02 2.1581464632461748e-02
      -9.3056282161125159e-02 -4.5580596537999191e-01
      5.4568514377358768e-02 -1.3740419062578920e-02
      9.9766484637213479e-02 4.6082266933825902e-02
      -1.4552767855162219e-01 -1.8854390125653364e-01
      -5.8476008288742769e-02 3.6822822833933305e-01
      1.8490174290884850e-01 -1.5789865226658140e-01
      -4.8469817195350200e-02 -1.1011633103562576e-01
      3.3303754069860336e-01 7.3337650885650467e-03
      6.8752017626761183e-02 8.0997274397756489e-02
      2.6873555495010920e-01 2.4902577336421916e-01
      3.6053120233775264e-02 4.8898317495131891e-02
      -1.0542928948529919e-01 2.4084590164724107e-01
      -2.0443056544193383e-01 -1.0500574498468267e-01
      -4.4049208962073254e-02 2.6340757830295214e-01
      -8.9868047640453519e-01 2.2543903913691227e-01
      1.2284495002490124e-02 8.5378408316699433e-02
      -8.0440614265419874e-02 2.3892433321572257e-01
      1.7808057293692561e-03 -3.5183201451082613e-02
      2.6507871658939842e-02 -4.2689296355693365e-02
      2.6449559464956193e-02 1.9130387713041011e-01
      3.9704310402709705e-02 -1.0181658476362830e-01
      -1.1666163234114008e-01 3.6374608763575533e-01
      2.0619970350426703e-02 2.4739966813425582e-01
      6.1299490222654518e-02 -1.6358771021665289e-01
      1.0796095634994600e-01 1.5020271499188015e-01
      -1.4485256681984324e-01 -2.7410094244527494e-01
      3.4302762580019336e-01 1.8197166883731500e-01
      9.0999773968351613e-02 -8.0596819737723480e-02
      -2.5370320758860226e-01 -1.0540046322468488e-01
      1.4099027501263542e-01 -2.2995604309240680e-01
      -2.0787667793166056e-01 1.3468881342855415e-01
      -1.0136088870147013e-01 2.4218200029747346e-02
      -1.3435615877310436e-01 -6.3499509692893175e-01
      3.0098595438944151e-02 4.0040999166601537e-01
      2.4620120093235540e-01 -4.0577671090134909e-02
      -4.5545234159008369e-01 5.6885856377372090e-02
      1.1433247564922586e-01 5.3540777508249482e-01
      9.7200762542668184e-02 5.4911259038873927e-01
      5.3589740202548072e-02 -1.9159242118209519e-01
      5.0893008509424764e-01 -5.0334145223121388e-03
      1.6760928145726881e-01 1.4993859243756388e-01
      5.2254678797201770e-01 6.6485463343928430e-01
      2.0626971506532307e-01 -2.0518994637010721e-01
      9.8282528721753915e-02 3.6405213623256344e-01
      2.6194053426310099e-01 1.9158729649202361e-02
      -3.8839327624304049e-01 -1.8924784828716479e-01
      1.1985217672511044e+00 3.5836964775072477e-02
      -8.7549191524852937e-02 -1.3624269476824183e-01
      -3.4201244760891973e-02 7.3451455953662495e-02
      5.6400094501568548e-02 -4.9288500339109552e-02
      1.3137326811351496e-01 1.2537915552348958e-01
      -4.5035910779984256e-01 2.5406306593835876e-01
      -4.0571319143730564e-02 3.2646383717180655e-01
      1.4713560768324940e-01 3.9924851396611963e-02
      -8.6791010900902368e-02 -4.3869525831599443e-01
      4.0350550522706174e-01 1.7896317946474921e-01
      -3.8805502625006656e-02 -2.8521322039552932e-01
      5.8644421476751107e-01 -1.4932979106691164e-02
      5.7377412984767624e-02 -3.3214766753774683e-01
      -8.5336181477282239e-02 -1.0915193975864453e-01
      -3.3922752082571234e-01 -2.8478462624740725e-01
      -2.6785464775269796e-01 -2.7699205554302403e-01
      2.0899307456966492e+00 -1.6351459597359233e-01
      -3.7284333628685780e-02 1.1490072841135021e-01
      9.6273270340359554e-02 -4.2796678942824129e-02
      -1.8114806359074478e-01 1.7275605820325760e-01
      -1.2672108803736584e-01 2.6758446252869789e-01
      2.3907716034838897e-01 2.6327777994193811e-02
      4.1704622954372959e-02 -9.2810031257723413e-02
      -7.4878055589813308e-02 -3.9884725968889101e-01
      -1.2999289269563674e-01 -6.9331114191332503e-03
      2.2073605008101380e-01 -6.9991049053399534e-02
      4.4684521296173972e-02 2.8334061170349045e-01
      -8.8822480087220781e-02 -1.0617642695110723e-01
      3.8947007142153678e-01 7.5628240448902692e-02
      4.4580592677781916e-02 1.5310485810773394e-01
      -7.4128281116131511e-02 -9.4967224174033402e-02
      -1.5975669302795192e-01 -4.0656665202210653e-02
      1.7699956717921190e+00 -8.1467391240010872e-02
      -9.7171300066260458e-02 1.6048267569600544e-01
      6.2680012465322746e-02 -4.0385313632743230e-01
      1.8881123778710823e-01 5.7666888631636291e-02
      -8.7290862098329494e-02 6.8907370520287545e-02
      7.5813602845474073e-02 -8.8130140117965952e-02
      -3.7117234701288474e-03 1.3051603238606643e-01
      -2.3647116358720775e-02 -3.3201494677654535e-02
      -5.4678961963208213e-02 -1.3999633026177617e-02
      2.6592159619635482e-02 2.3667098392278006e-02
      7.2308017967566598e-02 1.6721262511737045e-01
      -1.2163618142337812e-01 -9.4455566320029979e-02
      3.7147486934218782e-01 1.4560727227544562e-01
      2.1326948702496636e-02 2.3507215852975955e-01
      6.4696669168599980e-02 -7.0678179095599966e-02
      2.2765137584985187e-02 -5.4538887968629771e-03
      1.6272596068060681e+00 1.4915178117578493e-01
      -1.3585326651528637e-01 1.0212575195835448e-02
      5.5641340360442049e-02 -2.6159660925439870e-01
      1.5460326141296363e-01 -3.9556169610979776e-02
      -6.8538875815731592e-02 4.5648937321359828e-02
      4.4884361303379250e-02 2.2336821395203283e-02
      -1.0198481461182632e-01 -7.5773618603304949e-02
      3.8265982975367291e-01 -1.8868597828476324e-01
      2.3181988503770779e-02 -1.1376505293412013e-01
      1.3734794783308260e-01 8.5270781046520472e-02
      -3.3528788683815924e-02 1.7661198251179203e-01
      1.7467575213628714e-01 -1.3115170478742107e-02
      1.4117090034037766e-01 1.7428331482950841e-02
      -7.8594362021898415e-02 6.6834566525954806e-02
      -4.6178288504422640e-02 -1.9623018821741825e-01
      -1.3205965419183616e-01 1.1840222321522554e-02
      1.4790553354375247e+00 1.0301842966566110e-01
      -4.0190086383634846e-02 -1.1641431927172954e-01
      5.4612052263920914e-02 -1.0928406455314990e-01
      -3.9307455395325451e-02 1.0111035635365950e-01
      -5.8198472433036073e-02 -3.9867972371993965e-02
      -4.8075748678484530e-03 -2.5908487689411858e-01
      5.3376678571153163e-02 2.8820493416319959e-01
      1.1302836144467984e-01 -3.1872598280984848e-02
      5.4737133388006551e-02 -2.8563189084952839e-01
      1.2408859967758673e-01 1.3611093587792916e-01
      -1.5161844189445550e-01 -8.4591289642855824e-02
      2.2179977054953340e-01 1.2556105701228788e-02
      -1.8156656940804525e-01 3.8341973969817575e-02
      -3.2700395719739830e-02 8.0867897084806697e-02
      -9.0807140381933993e-02 8.0351268885496367e-04
      -1.2469116732089396e-01 2.8888376352679318e-01
      1.0533285196863993e+00 1.4505826952339393e-01
      1.3656159364094894e-01 1.1704378601639638e-01
      1.2675632665460521e-01 -9.4077088429609890e-01
      -2.2177287800382151e-01 -5.3112118760655540e-03
      -1.8113524653308333e-01 3.3503990014020935e-01
      -2.9766545211149570e-01 -9.6627375152362149e-01
      9.1298257477707326e-02 -1.3736968485541698e-01
      2.3302088848587778e-02 8.0401760732237137e-01
      4.4259816391103183e-03 -4.7753255045840742e-02
      -1.2359525345855912e-01 -1.2819850828586457e-01
      1.4883823439496376e-02 8.5339307447141494e-02
      1.4808417996725901e-01 5.5830606233310931e-01
      5.6537236551691150e-01 -3.1816517659805053e-02
      1.4979191760135777e-01 4.6929511165837656e-01
      9.1720000540282245e-02 2.0227377316875430e-02
      -2.7053837386540319e-01 6.8899535124120359e-01
      -4.7168761773578295e-02 4.9524414691888043e-02
      -9.6074768668361760e-02 1.3877175574317677e-01
      4.7164971875701685e-02 1.8828967292543503e-01
      9.4036816438885520e-02 1.1554726929474832e-01
      -1.2891332740257755e-01 -8.5417898782597881e-02
      -1.8599921606627831e-01 2.8443295153128012e-01
      -1.4876311141821514e-02 -3.4987161857189371e-02
      3.3143293152466953e-02 5.3232636231598096e-01
      9.7842037277750094e-02 9.7315807130071638e-02
      3.0062202764357299e-01 6.2299995407637379e-02
      1.6808966978646753e-01 5.6786696817547049e-02
      -2.0387039919277905e-01 -2.9419336694693987e-01
      1.0615020987341138e-01 9.9093791626477537e-02
      -1.8456923287337174e-01 3.4726021002593629e-02
      -1.5650271682559447e-01 2.9394825061650847e-02
      2.8237995568164115e-01 -3.8155801873576943e-03
      -1.7090161059952667e+00 9.1171686488171894e-02
      -2.9599779703881401e-01 2.8775403873021878e-02
      4.8028218507690672e-02 -9.4796723167988128e-01
      1.1194639211116185e-02 2.6883935863990815e-01
      -1.6011066205628241e-01 -1.8686104978389986e-01
      -7.7668995928867265e-02 1.0802324118105235e-01
      -1.1551718932030529e-01 3.6454677193412964e-02
      -2.7712451896336032e-01 5.2718195056040151e-01
      8.3359565947988531e-02 2.1120352849534968e-01
      -1.3241664682411305e-01 -4.1308188917902923e-02
      7.8638704703448553e-02 -5.8128003562141865e-02
      9.6800534927153167e-02 -1.6631903186912367e-01
      4.0361018325956066e-01 5.8064390880690583e-02
      2.9177655449312476e-02 5.8594142166796370e-01
      -1.3492957244844980e-01 -8.0305053455292291e-02
      -2.0520867919431995e-01 -9.8736567400067685e-02
      -1.5683562214310856e+00 5.1229890694498892e-01
      -5.2628591977959072e-01 -5.0880074073168538e-02
      2.7258887687533366e-05 -4.9364098373860521e-01
      3.2271045076148747e-01 4.2008664549524133e-01
      -3.1071041339938155e-02 -3.8326141188225471e-01
      -6.2613784609284717e-01 -1.7067645193143180e-01
      -3.9022283023107995e-01 -1.0723513051797522e-01
      -3.6956421327523203e-01 7.8096924143025304e-01
      -4.1770857256845241e-02 1.0048449502762616e-01
      4.3669077208822972e-03 3.9577515846752265e-01
      5.0446173416355578e-01 -5.2784737969517083e-02
      5.1264205164440813e-01 -5.2474896383079006e-01
      9.5806132578115077e-01 -1.2762226156156162e-01
      -2.1673778864250953e-01 3.4917921543136077e-01
      -4.7999203689806691e-01 -3.0152966459610847e-01
      -6.7845323625449516e-01 4.0323417521661592e-01
      -2.1496675781161989e+00 1.8170366920220130e-01
      -4.5059496863657200e-01 -1.4969278346317691e-01
      1.6195911498537063e-02 -1.8613120615036821e-01
      2.6826004268397030e-01 4.5944897840012272e-01
      -3.6701241136425374e-02 -8.7723642140783379e-03
      -4.0901747500986435e-01 -4.1594381062364638e-01
      -2.6830168268859561e-01 -1.9738011189943691e-01
      -5.7935939992191277e-01 5.2362472637454527e-01
      -1.3167087210843187e-01 4.7160189818918126e-02
      -1.3074811176527826e-01 4.9439435343501431e-01
      3.1130081525492848e-01 -1.0689758430503529e-01
      3.2460569336504580e-01 -5.9069405916218232e-01
      1.1730193009571928e+00 -3.1486248538864081e-01
      1.1268236789187240e-01 1.5665455492790981e-01
      -4.4709310717186784e-01 -2.0243120158156230e-01
      -6.8349633681878652e-01 2.7856846111995903e-01
      -3.7961025032287765e-01 2.0602133596079367e-01
      1.8844899059016146e-01 2.8192899777502550e-01
      -1.3588261275197713e-04 -1.1694227103386121e+00
      1.7457490208504825e-01 -3.8331055688178112e-01
      -4.6834179197968000e-02 -1.1726510083952445e-01
      -7.6114393192373375e-01 -8.2965550624953610e-01
      2.5175659832594915e-01 7.1654660784928059e-01
      -2.7041167944110028e-01 7.7143579654422956e-01
      8.6998701387782318e-02 6.0357279132005691e-02
      1.1490121028521207e-01 -1.4105409284379469e-01
      4.2066197277131895e-01 -3.3665630719830669e-01
      1.5984251468111683e-02 9.3892009246625852e-01
      -1.1866659893978840e-01 6.1202425572673233e-02
      1.0466196255034997e-01 5.8777236936106503e-01
      1.9739249719937838e-01 1.4151027175675659e-01
      6.2961576177451151e-01 3.3491322629268816e-01
      -1.7638796186503181e-01 2.9044874499400430e-01
      1.8448099416445280e-03 -2.1732455208584231e-01
      -2.6710754724514188e-02 -9.3048665002413128e-02
      3.4255347478245013e-01 1.5193771706888271e-01
      2.5134785573039168e-02 -2.5029350881341528e-01
      -6.2679137016083658e-02 1.9563105173871956e-01
      -9.6324199622060666e-02 -2.9798546285093536e-01
      -5.0604957416085705e-01 7.2142530917527037e-02
      -1.0515329289093786e-01 1.9915321380094991e-01
      -1.7720964729692826e-01 1.8554565091157862e-01
      8.9659754889657078e-02 5.4089442535791170e-02
      1.3236972134666336e-01 -1.8730162633810099e-01
      3.5548969098817790e-01 -3.4588874910132100e-02
      6.0541098626397928e-02 1.8075959074477346e-01
      -2.1319619250739993e-01 1.1402519475450096e-02
      2.7010334737906018e-02 1.9271842472492304e-01
      -1.2659501550067662e+00 2.5594916197783846e-01
      -1.1323415845873876e-01 5.1367173177434340e-02
      -4.2180515799846899e-02 7.9203934124569331e-02
      1.5693766252995942e-01 7.1027997897316827e-02
      9.6592693900363472e-02 1.4781142748760454e-01
      -3.1224356261957653e-01 -1.2227223507112517e-01
      1.5029774332873980e-01 6.6542487867036149e-01
      6.8468521933271631e-02 5.7507341847003890e-01
      8.5921564051727572e-02 -4.0064851090961515e-02
      4.8891229764278493e-01 1.4256066656894653e-01
      1.4591008959573179e-01 1.8844421440466937e-02
      2.8002118836875084e-01 -1.3490643059293564e-01
      -1.9310654866261037e-01 1.1903235793321346e-02
      6.4307438651333940e-02 -7.1075429085566674e-02
      -1.9141880440346881e-01 -1.8989528442259015e-01
      -1.0983316642674312e-01 -1.4325522665983270e-01
      -1.6334082105366756e+00 2.8272133804745359e-01
      2.4047571808240895e-02 8.3597821175521198e-02
      -9.9008470020746669e-02 -6.8724604262347833e-01
      3.1400240242750538e-01 -2.1602292772584891e-01
      8.2187063081228501e-02 -1.0803436990127491e-01
      -8.5912346116360994e-01 -8.0864599815076854e-01
      -1.2992201685015750e-01 -3.2422210908196558e-01
      -8.0573412734283173e-03 6.1080230419804993e-01
      4.4139065179894875e-02 -3.4140886663093443e-02
      -3.1025651290977424e-01 5.3043556659525315e-02
      5.0686364183445731e-01 -8.8402770217555091e-02
      1.4299784883397232e-01 3.4778934332171824e-01
      -6.7140400687564911e-02 -6.1799030850416797e-02
      -7.1370434346051434e-02 2.5672363549487726e-01
      2.6824862167209257e-01 -4.7315889040870147e-02
      2.2496490754223142e-01 5.0835303494167194e-01
      -1.1375389635529529e+00 1.2416529944510771e-01
      -8.2774737888516775e-02 -1.3146581272121349e-01
      -9.9208831098496167e-02 3.1529932027587965e-01
      -3.9735256461599797e-02 -5.4728488525163113e-02
      5.3202357799628446e-02 -1.7481653855587212e-01
      -5.0787014678961052e-02 -1.3806648799710674e-05
      -2.7574530872348773e-02 -1.0055968042884286e-01
      3.1067099513495061e-01 4.0187846465546143e-02
      4.1631661475436649e-02 -6.2235840805506405e-02
      7.6047481128322131e-02 -4.0431793559054525e-02
      4.1349056516217408e-01 -6.6884896409510397e-02
      1.0969768956704325e-01 -1.5389463996121366e-01
      -9.5767948079615764e-02 5.3458697629185550e-02
      -1.1684968384676216e-01 -2.4233395630018570e-01
      -3.2272922826131223e-01 -2.1257358197723414e-01
      -1.7952706349592056e-02 2.3406088013143936e-02
      -4.0643267374540953e-01 7.5489826455550790e-01
      -3.2025344329782718e-01 2.4929801349145186e-02
      -8.5690022138236649e-02 -1.3169139755447787e+00
      5.6558539858736490e-01 2.0644031336917573e-01
      1.8363285572420004e-01 -1.5084364507574188e-01
      -1.0608382461926980e+00 -1.2983374307484868e-01
      1.8758245411204535e-01 -9.1285794506038409e-02
      -2.5745750747668933e-01 9.7763505004925400e-01
      3.4398122827958483e-02 -2.9520641630766975e-01
      -2.7257498559640492e-01 -5.2006182801491073e-02
      3.9095574148281986e-01 7.6527007790766918e-02
      1.7115957473652768e-01 5.6981572702859729e-01
      4.3743383595219049e-01 -9.5754641150329306e-02
      -7.0150337932823048e-03 6.1722296864604642e-01
      4.8549342684711316e-01 4.5824656114655977e-02
      -3.9003052813721173e-01 1.3698985820795290e-01
      1.4318065242604541e+00 3.2315219334114693e-02
      -1.7903469411233641e-01 2.3389956454763709e-02
      -3.3021172001075058e-02 9.9417448420720478e-02
      3.2152601769664957e-01 -6.8115743549066327e-02
      1.4403837292966257e-01 -2.3306482554674351e-01
      -4.3153596007709261e-01 2.6408859648371003e-01
      7.6580233898290592e-02 6.2750799721699202e-01
      -1.0468128285052972e-01 4.2700387986415739e-01
      2.5925338000491665e-02 -2.6754912092349997e-01
      1.7978541863747860e-01 3.8408835753383656e-02
      2.7354547414632102e-01 -9.4330318745448435e-02
      4.5965657909576030e-01 1.8493715998499938e-01
      5.0741768380513752e-02 3.2179928346792890e-02
      1.7255472705518701e-01 7.8457477061792902e-02
      -1.3584951293411196e-02 -9.2207694813261618e-02
      3.4281759355808211e-01 -5.6753689718371325e-01
      2.1043044059268667e+00 -7.1399948138097899e-02
      5.6574555072467829e-02 -9.3509445741980668e-02
      8.4958086324055881e-02 -1.6749433550436071e-01
      -2.1859129542980743e-01 2.1542052567000566e-01
      -9.7965280922647072e-02 1.6277948411455476e-01
      2.5674145296899087e-01 2.5791302103289232e-01
      2.2369191639702145e-02 4.0103480640593636e-01
      -1.5111874929876296e-01 -3.3924539029619338e-01
      -1.3616659685049856e-01 -4.0549945327485806e-02
      2.7150210156568655e-01 -2.4063917568471673e-02
      -2.0278825760232594e-01 1.1119767413630316e-01
      -2.0927027058561964e-01 1.5770124153233839e-01
      2.2078711431359352e-01 1.9663234332929821e-02
      2.5593591278737138e-01 6.8485104703842795e-02
      -2.2354611950614476e-02 1.1891865341955031e-01
      -1.0604602115347590e-01 -2.7485768223855550e-01
      1.6786516108018910e+00 -3.9183978868213919e-02
      1.0391529660750647e-01 -2.5346316289570299e-02
      6.3351224345326265e-02 -8.1069905329222258e-02
      -2.8821692102308949e-01 4.2353566144041109e-03
      -8.6541619410141726e-02 7.0552939507108101e-02
      5.4481994365137419e-02 1.7036731743180375e-01
      -3.6758243004315273e-02 4.3395449222145549e-01
      1.3786565684163909e-01 1.0324586530445143e-02
      -5.1312403557142686e-02 3.3144176947371033e-02
      2.2786783439303407e-01 -4.7741300949607993e-03
      -1.6235486930700707e-01 1.3207556567690701e-01
      -1.6730476839786312e-01 6.3840425882051119e-02
      8.8251924620491293e-02 2.2053719062704003e-01
      5.1254800553246389e-02 7.5844238066481676e-02
      -4.7812151882609621e-02 2.5966346002159385e-01
      1.6699518734723542e-01 4.6474509406320115e-03
      1.3947092501003688e+00 -2.1676945909424455e-01
      1.4916694557430676e-01 5.2185410411243298e-02
      6.8662422655183422e-02 -4.0511520096736482e-02
      -3.1796947984854607e-02 -1.2565917226615719e-01
      -5.0709159171597025e-02 1.8433355751229116e-01
      6.9778018473846973e-02 1.0430052766951427e-01
      -1.4871582242674014e-01 1.5697848485373544e-01
      1.3824445992316173e-01 -1.9844720134038182e-01
      -8.6097898257657558e-03 -1.4506311804651470e-01
      1.8895773182177650e-01 -1.3429993288475839e-01
      -1.5300170026820784e-01 -4.8496718894611060e-02
      -1.0909850039707593e-01 2.5647053338802339e-01
      -2.4109916203082241e-01 1.2906280599992542e-01
      -2.7969232849207708e-02 -2.2275205376989883e-02
      3.1093535015009566e-01 8.9532853656663053e-02
      1.5846919272439530e-01 -2.3487442889639271e-01
      1.3534122913217650e+00 -7.4734512346866872e-02
      -4.9519430737752050e-03 -1.3070292927217572e-01
      6.8651098051063800e-02 1.0897710097457422e-01
      2.1015448503950970e-01 -6.2690901140007652e-02
      -8.4589281168102243e-02 9.0850800407909577e-02
      1.2610954886647871e-01 -7.1800591685263843e-02
      1.1178522699259119e-01 1.6730325017241612e-01
      1.6475198374411265e-03 -6.4551391067555822e-02
      1.2184813272243654e-01 -2.0542605273023723e-01
      1.6687626601578015e-01 3.2345211762793598e-02
      -1.3098322513739724e-01 -2.5063977981208330e-01
      -1.1466548505641137e-01 3.8628505398142110e-01
      -3.8261080945570053e-01 1.7352721812934094e-01
      -6.1701602328228980e-02 -6.8617203244632816e-02
      1.1073440159483267e-01 1.6890249324589454e-01
      2.5995853307401773e-01 1.3395565278563357e-01
      1.5635968950950876e+00 -1.8727931667984420e-03
      -1.1237146335331970e-01 -2.0464966060008108e-01
      6.0389415771428735e-02 9.5704996708205270e-01
      -1.9870686437599219e-01 -6.0704907804149728e-02
      -8.5821519355577178e-02 2.5349544895399945e-01
      3.1178471939006458e-01 -1.6311553300452284e-02
      -3.5037019634956812e-02 -3.1225478434406412e-01
      2.9081824230878839e-01 -5.2213478657004642e-01
      -9.8894911166252750e-02 -8.1913974987067900e-02
      -8.8369511607459608e-02 1.3053840887164048e-02
      -2.0017582856472224e-01 -5.0238942716510172e-02
      2.7640590574439666e-01 3.4509845619847650e-03
      -5.3781381073773749e-01 -1.3253844319277844e-01
      1.1057634200162149e-02 -5.9200214448243504e-01
      -1.7243987799156885e-01 -2.2393326273033684e-01
      -1.1931899387053505e-01 2.9144970345024046e-01
      -9.4603930167524580e-03 3.8305513839300143e-01
      8.2089465118565477e-02 1.5331138237331357e-01
      6.9118331882952716e-02 -3.7897195527516175e-01
      1.9311946383320233e-03 1.2330380000517283e-02
      -1.1206436855402785e-01 -5.1060919257867293e-02
      -6.3258375650624601e-02 2.3040033436760493e-01
      -1.8133358015584253e-01 3.4089256815071112e-01
      2.1394159833012188e-01 7.1582446797828658e-01
      8.3627659931271608e-02 8.3343584550035696e-02
      1.7194144998123292e-01 -6.5959008103959578e-03
      1.7061692481219279e-01 -6.6897977682582307e-02
      1.9156187424822102e-01 1.3469035950560218e-01
      8.2639039731689373e-03 6.6126659660670550e-02
      -9.0228426606848003e-02 1.6963662229561269e-01
      1.0066266773017138e-01 -1.0851164122427318e-01
      -6.2427701585303086e-02 -2.9481987930231918e-01
      -1.8646825358378900e+00 1.6765275754226594e-01
      -2.0121405421630462e-01 1.1270029915306043e-01
      5.1486514352086239e-02 -8.5442580958345316e-01
      -2.7189780223574750e-01 1.2675098656981518e-01
      -1.7071871746916747e-01 -1.2400550768276836e-01
      -1.5199025197272242e-01 -2.5842688113359802e-01
      -2.0982980903645070e-02 1.9185290984644071e-01
      1.6858651164464480e-01 5.2881829543680792e-01
      6.2769833753184831e-02 3.1234136402713120e-01
      -1.2076026180305706e-03 -7.7825978654408656e-02
      2.1934565425030233e-02 2.9186546125053805e-02
      -2.1577089645824099e-01 1.2345344438330738e-01
      1.0344231674510396e-01 1.1731858279878836e-01
      1.1915307952571046e-01 4.9127138508003443e-01
      2.6984852881792259e-01 2.0783828214676797e-01
      -5.6235314956369097e-02 6.0500235015846754e-02
      -1.8508679773166845e+00 5.3202824660642156e-01
      -4.4317024665592714e-01 -8.1041986913070824e-02
      -1.7290189919908691e-03 -2.1712540255209711e-01
      3.7811146614061836e-01 2.3268445060093654e-01
      -2.0864123803933432e-02 -2.9338668548220226e-01
      -5.8458276124957653e-01 -2.0711023742699286e-02
      -3.5486219208087361e-01 -2.9356191908825419e-01
      -3.6341885653335898e-01 9.4904512381535233e-01
      -6.2877675039610753e-02 1.2444374758452985e-01
      -1.0283045512240666e-01 3.2301920535693235e-01
      3.2119039881897554e-01 -1.4485486536717351e-01
      5.1257743508603681e-01 -3.6685462984204292e-01
      7.4872073512719572e-01 -1.5968678091033320e-01
      -1.9613148287275564e-01 2.2858488162349408e-01
      -4.8267131597953827e-01 -3.3033811224745607e-01
      -7.9836742606503874e-01 1.9808751706070155e-01
      -2.0795972901209385e+00 5.7534037944796468e-01
      -6.5193332550909266e-01 -2.1973230860505549e-01
      -3.6550604176706719e-02 -1.8201418602119712e-01
      5.1012875703413663e-01 4.2072370640221957e-01
      4.2918369477230232e-02 -7.7266943696621723e-02
      -6.3803061545284201e-01 -2.2329665794716475e-01
      -3.1184136060811840e-01 -5.2380025046380885e-01
      -6.0006688142206299e-01 5.3448537587513056e-01
      -1.1583159908511821e-01 2.4176528703148219e-02
      -3.7906546019331139e-01 4.4256610152370679e-01
      5.5736418750164951e-01 -1.4959753249682578e-01
      6.0256285965102663e-01 -7.1524594812491593e-01
      1.1431007979662784e+00 -4.7022146975569129e-01
      -1.3786339423529190e-01 6.8617463576698498e-02
      -4.7524671339865437e-01 -4.6608167793697791e-01
      -9.7037333688426264e-01 3.5449303736200599e-01
      1.4300669907197932e+00 -4.9508126002771280e-01
      -6.0648732585257365e-03 2.3437713514044850e-01
      3.0402672367092864e-03 2.4862869803989537e-01
      1.9947847718304945e-01 6.0024100296603135e-02
      -8.3971366699325360e-03 -9.4162786642739263e-02
      1.4845531384471304e-02 -1.9287757252494606e-01
      4.7536006839272074e-02 -3.4493602885651614e-01
      -5.0467474853339522e-01 -8.3339155974592161e-01
      -7.0751573164630363e-02 2.3120863768337371e-02
      -2.4223064584562745e-01 2.1990169793013092e-01
      4.6361018049473519e-02 -4.0285899041650731e-02
      6.4277494578813248e-03 -6.1103269751246136e-01
      4.1861789465590671e-01 -1.8550794533701284e-01
      -5.7589850795786608e-02 -7.3943616696932585e-02
      -3.7258270182032899e-01 -2.6332399614755508e-01
      -6.7290633862242244e-01 3.5387628558056133e-01
      1.5522821495467479e-01 -2.5546304528651184e-02
      -1.4261725891771229e-01 -6.7068484814747045e-02
      -5.6345663483584552e-02 -3.7135989413835294e-02
      2.8418159915805380e-01 1.7635202103996395e-01
      9.1656738596226056e-02 -3.1439147865463846e-01
      7.2234850096038593e-03 -3.9521833792053367e-02
      -1.2700772644573510e-01 -2.1844942686362467e-01
      -3.7163861252774760e-01 3.5870349424632553e-01
      -1.3246495599748326e-01 -2.3188663509993705e-02
      -1.2733781879574627e-01 1.4313372826774556e-01
      -9.2033091170565753e-02 -9.8627585748389951e-02
      2.5891264979792167e-01 -1.3251748581247447e-01
      5.4083168310743268e-01 -2.7827155329632197e-01
      9.1960607808571765e-02 6.7627322745473506e-02
      -1.2090111248901173e-01 -5.2384925143671872e-02
      -2.2873544460389805e-01 -3.8273675287806730e-02
      -1.2311800582708343e+00 -5.3306597886772521e-02
      -7.6928452743419459e-02 7.8575342471187207e-02
      -4.0613143377519048e-02 -7.7410116040003821e-02
      -1.4351972423534129e-01 7.4338937327736124e-02
      4.0087093013151925e-03 1.0255307049489804e-01
      -2.4628184414797588e-01 3.5379956941608925e-01
      1.1216358500169571e-01 2.3534722417545847e-01
      -3.6954388510281211e-02 2.1252787628544723e-01
      4.0464592218519238e-02 3.4768132873459212e-01
      3.4539312531185717e-01 2.0354304673854579e-01
      1.3035625495779082e-01 2.1323167008373703e-01
      -1.8719956464140700e-01 -5.7609315388022808e-01
      -4.7094976247239217e-01 2.8103503498644104e-02
      3.8013195133911312e-02 1.5998272327103294e-01
      -2.7569743566643928e-01 -5.0052197447553244e-02
      4.6683232925446794e-02 -2.5571027166746885e-01
      -1.5935474273179813e+00 1.2463787350008806e-01
      3.3391474134154081e-02 -1.0100484964997995e-01
      -1.0770334142254934e-01 4.0951771925474711e-01
      -5.2770233149822314e-02 3.5097934363133992e-02
      1.5233125747977314e-01 -1.9201345891815066e-01
      2.8809833614690205e-02 -3.4316519946692448e-01
      -2.1928711955576613e-01 -6.5121552473552291e-01
      3.8689929522536048e-01 -3.4549324792682246e-01
      -9.6918232754020561e-02 -2.9649238864697020e-01
      -1.3683343812880198e-02 1.2756380165636216e-01
      1.7081633338328553e-01 -1.9738390855003018e-01
      5.3989533267317436e-01 7.3517752887545335e-02
      2.2772823299731679e-01 -1.7991447588620391e-01
      -3.5763763056358672e-01 -2.2242525051496570e-01
      -1.8661279234863684e-01 -2.5590770673412094e-01
      -2.7467430835634149e-01 5.5372605596723334e-01
      -1.3468915012312459e+00 2.0743464509510995e-01
      2.5614998211829363e-02 -6.8532986081540737e-02
      -5.5461508339874642e-02 -6.6048157726873960e-02
      -1.8975716602143929e-02 2.0045987305751778e-03
      2.5649864525290830e-02 -2.6637951915988275e-02
      -5.4794638581470223e-01 6.9842167765522337e-02
      1.3759163763221902e-01 -1.7537277966271975e-01
      3.5905450300636223e-02 3.2963149532365627e-01
      1.0847449437958023e-01 7.6599959403533147e-02
      -2.3491343279302321e-01 -5.8620228349554195e-02
      2.9564391046669286e-01 3.7139949790163912e-02
      -1.6874157528925715e-03 2.8963567891307923e-01
      1.3369417666021918e-01 1.6948316346256914e-01
      2.3662376629543229e-02 1.6390700083142248e-02
      -4.7293574730068975e-03 1.5763460683537119e-02
      -7.1519745359998665e-02 2.6327362759174921e-02
      1.4957583788000892e-01 3.4544039473007238e-01
      -1.6234092713488205e-01 -2.2844796402651790e-01
