<?xml version="1.0"?>
<opencv_storage>
<OCR type_id="opencv-ml-ann-mlp">
  <layer_sizes type_id="opencv-matrix">
    <rows>1</rows>
    <cols>3</cols>
    <dt>i</dt>
    <data>
      256 32 2</data></layer_sizes>
  <activation_function>SIGMOID_SYM</activation_function>
  <f_param1>5.9999999999999998e-01</f_param1>
  <f_param2>1.</f_param2>
  <min_val>-9.4999999999999996e-01</min_val>
  <max_val>9.4999999999999996e-01</max_val>
  <min_val1>-9.7999999999999998e-01</min_val1>
  <max_val1>9.7999999999999998e-01</max_val1>
  <training_params>
    <train_method>BACKPROP</train_method>
    <dw_scale>1.0000000000000001e-01</dw_scale>
    <moment_scale>1.0000000000000001e-01</moment_scale>
    <term_criteria><epsilon>9.9999999747524271e-07</epsilon>
      <iterations>1000</iterations></term_criteria></training_params>
  <input_scale>
    6.1722396246172586e+00 -6.0057320290120479e+00
    3.4020367218993881e+00 -3.0770501426640493e+00
    3.0970775798113053e+00 -2.7308976118554287e+00
    3.0586386907405156e+00 -2.6863922299042069e+00
    2.9254906658309330e+00 -2.5302770228272835e+00
    2.7683021119695246e+00 -2.3411641937126269e+00
    2.5500863828432285e+00 -2.0660774131785593e+00
    2.3738758618604967e+00 -1.8263295573072122e+00
    2.3193620485675974e+00 -1.7469289089831992e+00
    2.3305892940566619e+00 -1.7635517944096915e+00
    2.4531973993072733e+00 -1.9369115673337824e+00
    2.6138869100060389e+00 -2.1484309442595322e+00
    2.8213616931542531e+00 -2.4056785605943793e+00
    2.9862559497688466e+00 -2.6019251382026107e+00
    3.1196170316208813e+00 -2.7568893844215676e+00
    3.5257527738360919e+00 -3.2146798018311067e+00
    3.4462703212925536e+00 -3.1264151690036499e+00
    2.6080453986419130e+00 -2.1409666641981242e+00
    2.3084109056224547e+00 -1.7305649129566911e+00
    2.1363131017491064e+00 -1.4436008439144423e+00
    2.0494222564741329e+00 -1.2483914723285432e+00
    2.0233986713113028e+00 -1.1651123265204619e+00
    2.0125635533481141e+00 -1.1185449231928370e+00
    2.0070256794523842e+00 -1.0874057446426764e+00
    2.0042459906929526e+00 -1.0673188372552502e+00
    2.0037310110005349e+00 -1.0629759883269183e+00
    2.0082691186637400e+00 -1.0951631990262471e+00
    2.0165982259597990e+00 -1.1374002409225019e+00
    2.0445479330941954e+00 -1.2345098322247356e+00
    2.1321985066451008e+00 -1.4356498154042490e+00
    2.3187028215035208e+00 -1.7459481151510412e+00
    2.6402780197932403e+00 -2.1819783252279810e+00
    3.1112776352891678e+00 -2.7472814364538638e+00
    2.3220838616626254e+00 -1.7509727446972292e+00
    2.0662882661830424e+00 -1.2927338088134783e+00
    2.0035677360289701e+00 -1.0615410283725808e+00
    2.0000162106659993e+00 -9.9598185003856854e-01
    2.0000661598045002e+00 -9.9189914489022390e-01
    2.0001137115783871e+00 -9.8939314110020748e-01
    2.0004734709853675e+00 -9.7847605928396086e-01
    2.0004475645986322e+00 -9.7906687616563093e-01
    2.0002765152375566e+00 -9.8350893554222540e-01
    2.0000965906101431e+00 -9.9022012443864005e-01
    2.0000000012116557e+00 -9.9996519176436105e-01
    2.0000838142636512e+00 -1.0091970160803319e+00
    2.0037424071172771e+00 -1.0630750312170041e+00
    2.0709039512456076e+00 -1.3040795874224240e+00
    2.3383934545694136e+00 -1.7750192979217452e+00
    3.0221685722695497e+00 -2.6439460251847975e+00
    2.1369702006684022e+00 -1.4448631146179629e+00
    2.0030637934875197e+00 -1.0569046354800136e+00
    2.0011324050174006e+00 -9.6691021340302385e-01
    2.0008332197003798e+00 -9.7154805837722569e-01
    2.0002827258257159e+00 -1.0169564100192074e+00
    2.0026869830259133e+00 -1.0531970159385797e+00
    2.0040507923476052e+00 -1.0657034502997400e+00
    2.0056017701437092e+00 -1.0776982488498614e+00
    2.0058563184356215e+00 -1.0795107456982007e+00
    2.0053427034877362e+00 -1.0758139495092995e+00
    2.0015098702658949e+00 -1.0396193171935144e+00
    2.0004166813017719e+00 -9.7979450447051919e-01
    2.0015627144839394e+00 -9.6124245231177408e-01
    2.0039946097681147e+00 -1.0652317811997085e+00
    2.1493412604311137e+00 -1.4682655532619577e+00
    2.8209023511734177e+00 -2.4051232415028725e+00
    2.0397949926765784e+00 -1.2203741858488417e+00
    2.0002435906047724e+00 -9.8451393065445780e-01
    2.0014793166192870e+00 -9.6227066152389362e-01
    2.0015243568858634e+00 -1.0398126304485427e+00
    2.0137408310433442e+00 -1.1242928735643516e+00
    2.0190886491767301e+00 -1.1480352748651910e+00
    2.0171140200814714e+00 -1.1396571340006634e+00
    2.0182533231403026e+00 -1.1445394345707756e+00
    2.0242966739354080e+00 -1.1684949263980113e+00
    2.0276522379939959e+00 -1.1806895348811126e+00
    2.0165312876040424e+00 -1.1371051116350741e+00
    2.0017538800818020e+00 -1.0427654719516457e+00
    2.0021672759998537e+00 -9.5451701614297135e-01
    2.0004990690403206e+00 -9.7790828773764238e-01
    2.0509614599016639e+00 -1.2526606751495466e+00
    2.6081114557171503e+00 -2.1410511527927611e+00
    2.0113901774277552e+00 -1.1125717066581882e+00
    2.0017538800818020e+00 -9.5898840813015629e-01
    2.0000252418186664e+00 -9.9498848138559071e-01
    2.0114504629560965e+00 -1.1128851177768579e+00
    2.0296555739165809e+00 -1.1876729118032257e+00
    2.0282043793210898e+00 -1.1826348306364454e+00
    2.0141191745189277e+00 -1.1260932475879684e+00
    2.0114756300922316e+00 -1.1130157373495206e+00
    2.0191936134884494e+00 -1.1484698141579601e+00
    2.0335158410659058e+00 -1.2005966242013988e+00
    2.0310100970614440e+00 -1.1922831681931507e+00
    2.0082011047420720e+00 -1.0947532923837879e+00
    2.0007107061315681e+00 -9.7369391260639893e-01
    2.0022525743385065e+00 -9.5365163223323490e-01
    2.0179728534220103e+00 -1.1433501468405196e+00
    2.4212864088823864e+00 -1.8930338319117359e+00
    2.0030329381713776e+00 -1.0566094618330955e+00
    2.0039769501424165e+00 -9.3889406822301602e-01
    2.0001858972257565e+00 -1.0137276787239200e+00
    2.0164705562421998e+00 -1.1368368957156378e+00
    2.0281400657740227e+00 -1.1824090705445442e+00
    2.0183687121552878e+00 -1.1450264134525554e+00
    2.0032283641076107e+00 -1.0584558014124543e+00
    2.0000073088803241e+00 -1.0027071510055106e+00
    2.0029971390061121e+00 -1.0562652082228785e+00
    2.0172628948224371e+00 -1.1403029959965132e+00
    2.0239191132201766e+00 -1.1670793303801861e+00
    2.0101997002325724e+00 -1.1062220964510119e+00
    2.0000688289477653e+00 -9.9173802175648607e-01
    2.0042035562246161e+00 -9.3723288189964271e-01
    2.0066887544141601e+00 -1.0851975339761579e+00
    2.3038764699472880e+00 -1.7237438813205426e+00
    2.0004007239833910e+00 -1.0202194560850490e+00
    2.0058134958688538e+00 -9.2660507657391133e-01
    2.0002913780774088e+00 -1.0172161109053395e+00
    2.0134878951548587e+00 -1.1230769866668722e+00
    2.0158458127252219e+00 -1.1340521463129591e+00
    2.0032389594293214e+00 -1.0585543736187291e+00
    2.0023666153286888e+00 -9.5252104769096224e-01
    2.0110318891672412e+00 -9.0033840509970420e-01
    2.0032815155713521e+00 -9.4433275086288015e-01
    2.0028511070839494e+00 -1.0548403388251733e+00
    2.0106746119823824e+00 -1.1087930879351011e+00
    2.0092965561380662e+00 -1.1011789085811834e+00
    2.0000070600843918e+00 -1.0026606143188062e+00
    2.0064275112245697e+00 -9.2297760758843528e-01
    2.0019684822874555e+00 -1.0453627383927870e+00
    2.2886247865046139e+00 -1.7005954626970119e+00
    2.0005360397551670e+00 -1.0234221035308384e+00
    2.0070806827022185e+00 -9.1931910460466171e-01
    2.0002053702031080e+00 -1.0144337962705559e+00
    2.0091973458449610e+00 -1.1006116597399369e+00
    2.0085483680783627e+00 -1.0968303114839018e+00
    2.0000371079806616e+00 -1.0061102142658420e+00
    2.0099687313421795e+00 -9.0501649461582201e-01
    2.0195103078704477e+00 -8.6973561637439700e-01
    2.0113000550519682e+00 -8.9919826444517470e-01
    2.0000061079830673e+00 -1.0024744892818995e+00
    2.0083416969298371e+00 -1.0955989235116692e+00
    2.0092423740892564e+00 -1.1008694569457420e+00
    2.0003172902494915e+00 -1.0179719945505910e+00
    2.0064688049370329e+00 -9.2274051266089574e-01
    2.0004918335831032e+00 -1.0224246015625518e+00
    2.3387395336654815e+00 -1.7755262248388055e+00
    2.0015480456700350e+00 -1.0401268471476923e+00
    2.0070846198426704e+00 -9.1929761986760361e-01
    2.0000420701389876e+00 -1.0065072189600066e+00
    2.0087620040382546e+00 -1.0980890444538411e+00
    2.0106212977571034e+00 -1.1085070671720894e+00
    2.0034408600264473e+00 -1.0604044985998311e+00
    2.0025582654522132e+00 -9.5068366224954803e-01
    2.0097497300192178e+00 -9.0601388014662254e-01
    2.0024212612684154e+00 -9.5198942692129773e-01
    2.0032416109916991e+00 -1.0585790182676214e+00
    2.0152685495281175e+00 -1.1314358566573886e+00
    2.0131670192678381e+00 -1.1215198479562187e+00
    2.0006255108997832e+00 -1.0253249268021516e+00
    2.0053734637235214e+00 -9.2933359797084703e-01
    2.0004644208260740e+00 -1.0217838866297455e+00
    2.5011979234508601e+00 -2.0015968066415946e+00
    2.0062895983507003e+00 -1.0825141138539685e+00
    2.0044271860961533e+00 -9.3563967855947383e-01
    2.0000988850141237e+00 -9.9010522515800403e-01
    2.0101902199742701e+00 -1.1061702311597115e+00
    2.0230936385387936e+00 -1.1639507810749674e+00
    2.0188470680482666e+00 -1.1470312047469917e+00
    2.0036096092628863e+00 -1.0619119305205096e+00
    2.0000961349618418e+00 -1.0098530290986198e+00
    2.0033593617990415e+00 -1.0596640160855473e+00
    2.0189382885514964e+00 -1.1474109916057416e+00
    2.0280357225911971e+00 -1.1820423328064467e+00
    2.0167080640393369e+00 -1.1378833873424015e+00
    2.0004387669811252e+00 -1.0211672977123003e+00
    2.0034054232862841e+00 -9.4332187135093926e-01
    2.0036292343872235e+00 -1.0620850678538063e+00
    2.7085989229356904e+00 -2.2676050134777381e+00
    2.0161446082135925e+00 -1.1353899003265848e+00
    2.0023103591994205e+00 -9.5307510431557485e-01
    2.0007445336720915e+00 -9.7308358319815580e-01
    2.0081122704929855e+00 -1.0942155647373857e+00
    2.0287379447456302e+00 -1.1844995460880678e+00
    2.0318194639781249e+00 -1.1949979324660576e+00
    2.0181957705166131e+00 -1.1442960436510394e+00
    2.0118821603257029e+00 -1.1151081849115101e+00
    2.0135317101050578e+00 -1.1232883288490012e+00
    2.0276124528898416e+00 -1.1805487368569036e+00
    2.0313920911889616e+00 -1.1935680699160853e+00
    2.0105971091897934e+00 -1.1083770871348411e+00
    2.0000006043470830e+00 -9.9922290447967799e-01
    2.0011686588525772e+00 -9.6639368314027108e-01
    2.0123743552037290e+00 -1.1175991893887716e+00
    2.9558795640153406e+00 -2.5661980230703696e+00
    2.0496733279042885e+00 -1.2490914025432389e+00
    2.0003652942176458e+00 -9.8106910275901449e-01
    2.0028016022699657e+00 -9.4845210413698877e-01
    2.0010196469638681e+00 -1.0324458045041398e+00
    2.0122438354002985e+00 -1.1169430044870323e+00
    2.0224185641533632e+00 -1.1613565836110007e+00
    2.0216489173615009e+00 -1.1583577981916300e+00
    2.0166897316015269e+00 -1.1378028450324795e+00
    2.0157685992127359e+00 -1.1337046532579884e+00
    2.0164887634838067e+00 -1.1369173521518261e+00
    2.0112850703376188e+00 -1.1120234946528731e+00
    2.0011433781677215e+00 -1.0343903968671326e+00
    2.0014597135838326e+00 -9.6251668792607881e-01
    2.0000247776025892e+00 -9.9503466280726138e-01
    2.0457717266160471e+00 -1.2380497295946298e+00
    3.2265778554872964e+00 -2.8792672705205895e+00
    2.1529990998037181e+00 -1.4750610645252671e+00
    2.0041523178471374e+00 -1.0665480774851652e+00
    2.0016692393085229e+00 -9.5996977047443499e-01
    2.0015407372924567e+00 -9.6151058311054471e-01
    2.0000560111256900e+00 -1.0075121160645337e+00
    2.0018108150483980e+00 -1.0434687110987908e+00
    2.0033458744416968e+00 -1.0595406584533436e+00
    2.0031756497404212e+00 -1.0579630936344433e+00
    2.0016389817521851e+00 -1.0413121237551890e+00
    2.0006301658837451e+00 -1.0254201653158734e+00
    2.0000454468404509e+00 -9.9328125794123079e-01
    2.0018366340357923e+00 -9.5805251080900766e-01
    2.0012216756636709e+00 -9.6565302344752668e-01
    2.0043376462460571e+00 -1.0680653331959902e+00
    2.1529776644193888e+00 -1.4750213978454167e+00
    3.3049767732625108e+00 -2.9680558945726645e+00
    2.3752996281004402e+00 -1.8283619809500866e+00
    2.0801616906518645e+00 -1.3260321782724771e+00
    2.0039096205342495e+00 -1.0645123183491274e+00
    2.0003306604965969e+00 -9.8198050606196574e-01
    2.0019995606630228e+00 -9.5627215772831298e-01
    2.0032815155713521e+00 -9.4433275086288015e-01
    2.0043992990091297e+00 -9.3583597369412741e-01
    2.0043253684095554e+00 -9.3635960211491487e-01
    2.0044832272437816e+00 -9.3524719538117940e-01
    2.0029666242999689e+00 -9.4699639156436888e-01
    2.0014296759989882e+00 -9.6289702483752448e-01
    2.0001392591986344e+00 -9.8826861070620931e-01
    2.0047430325873643e+00 -1.0712820138749326e+00
    2.0805066862567654e+00 -1.3268314614308390e+00
    2.3632624873569905e+00 -1.8111170624521886e+00
    3.6387349919679770e+00 -3.3392681787402827e+00
    2.7780731952868245e+00 -2.3531022954009804e+00
    2.3778657108153456e+00 -1.8320202014718310e+00
    2.1361541115236657e+00 -1.4432951217512862e+00
    2.0324576569051760e+00 -1.1971183853046057e+00
    2.0075814470857059e+00 -1.0909447060719608e+00
    2.0015904056100111e+00 -1.0406830199615316e+00
    2.0000420701389876e+00 -1.0065072189600066e+00
    2.0000727335853923e+00 -1.0085648430889500e+00
    2.0009960459684506e+00 -1.0320621481161405e+00
    2.0060983380159567e+00 -1.0812005314247397e+00
    2.0179919046021775e+00 -1.1434311848853367e+00
    2.0509725485745292e+00 -1.2526912450770229e+00
    2.1487513007524544e+00 -1.4671644461957380e+00
    2.3673612404789957e+00 -1.8170050321569309e+00
    2.7315458857001280e+00 -2.2960071775572821e+00</input_scale>
  <output_scale>
    5.2631578947368418e-01 4.9999999999999994e-01 5.2631578947368418e-01
    4.9999999999999994e-01</output_scale>
  <inv_output_scale>
    1.8999999999999999e+00 -9.4999999999999996e-01
    1.8999999999999999e+00 -9.4999999999999996e-01</inv_output_scale>
  <weights>
    <_>
      -4.8401649219909757e+00 -1.2902463043860830e+00
      -1.9071519743487930e-01 4.2763921153078216e-01
      3.9688960360837716e-01 4.9303062794519753e-01
      2.9691511215049110e-01 -3.8762773151272290e-01
      2.0403094689557717e-02 -2.3151891752069792e-01
      -1.4476149756171723e+00 7.6382094738227690e-01
      6.4774101485973595e-02 -5.0959838120653567e-01
      2.1935814607616955e-01 2.4433323488145320e-01
      4.8680974832700963e-01 5.2325943267310571e-01
      -1.9545957645347908e-01 -1.5907185893184217e+00
      3.8641912035664930e-02 8.0780351735571299e-01
      -1.1220443681806014e+00 1.6424291315299844e-01
      -3.1543146114500931e-01 1.1509181543420130e-01
      -5.3728544742492876e-02 3.9975415250263291e-01
      1.1285626027000495e+00 5.3531454455522387e-01
      2.8921214840662363e-01 -1.7285101080512670e+00
      -3.5901656886184714e+00 9.1333926243086172e-02
      3.0755187185500184e-02 1.8788429767891079e-01
      -3.8749345409344903e-02 -1.7840407332262825e-01
      7.7362699113593753e-02 -9.5356835036380563e-03
      3.7661545185612011e-01 6.6211184077090257e-01
      7.1635438121720130e-01 4.5917820826245692e-01
      1.4251169876162631e-01 -8.3317632131805042e-02
      -5.1192186054241817e-01 -3.2672942934912352e-02
      -4.7148044245134679e-01 1.8008990016690294e-02
      6.0013965709041517e-01 6.4162239456458003e-01
      -5.1592047070306779e-01 -4.1837358314010997e-01
      -1.5671201090602183e-01 -1.5115392648249190e-01
      -6.7793101522690236e-01 8.0845563010924204e-01
      -1.8769607768155036e-01 4.6065843795724051e-02
      -3.1104468150813680e-01 6.4975740076416455e-01
      5.7201215311785181e-01 1.6664222227624906e-01
      -4.6116370473001504e+00 -4.1199967376958652e-01
      7.1952401434634516e-01 1.5033588708642370e-01
      -1.3642601735293275e-01 3.0260245268325320e-01
      -3.8871247400972847e-01 8.2259231529012530e-02
      4.1260063737213526e-01 1.4062208445221613e-01
      7.0513658929127787e-01 8.7857011208606339e-01
      6.0625248876751703e-01 3.0935029071335440e-02
      -2.5074403263126399e-01 -3.2429326331598402e-01
      -3.6960024451173845e-01 -1.1449240552235071e-01
      1.6940961897816411e+00 4.8412912891267756e-01
      1.9019196489162307e-02 -1.3775637601703045e-01
      -1.9691678908007165e-01 -1.0695448337630631e+00
      -9.6872078970862308e-01 1.1213331796376935e-01
      -8.4166610559448973e-01 -3.1431252005474786e-01
      -2.5601813264419593e-01 1.9815724752584107e-01
      -1.6350038039210008e-01 3.5369495218153041e-01
      -4.6824739672678293e+00 9.8549417733856792e-03
      3.0801319701647811e-01 -1.6851853043538403e-01
      4.6816500769504707e-02 1.6782618151823578e-01
      5.7422560773172732e-02 -4.2622502347394259e-01
      1.9696237587215115e-01 -1.1480894554537223e-01
      -6.7389870408618935e-02 -6.5204370810260662e-02
      1.6638857712307603e-01 -1.0966775619190315e-01
      4.1092159590610938e-01 -2.4733231554584370e-01
      -1.2878023008196329e-01 -1.1047202929221010e-01
      9.3476707741485698e-02 -6.1019604315714501e-02
      -5.0213337048437279e-01 -3.2188469430430376e-02
      4.2731820873258486e-01 3.0055080057805333e-01
      -5.5782189445829422e-01 2.1616458572435499e-01
      -1.1104175726841460e-01 -3.2819577398833441e-02
      -1.6288753312061288e-01 -8.7659192982301778e-02
      -9.1947516407339697e-02 6.0774692562696922e-02
      -2.7074207104138655e+00 -4.6575146626289821e-01
      6.2943551251798513e-01 1.4900434128194176e-01
      5.0826219357650401e-02 -6.4588059802517028e-01
      -1.0062100198764540e-01 -1.0602121188332404e-01
      -2.0201246747962316e-02 2.8788473452464280e-01
      1.5456307893858773e-01 -3.3667834803251162e-01
      3.9877163137796184e-02 4.7736785267926109e-02
      -2.8671820931390440e-01 -7.3028526139327832e-01
      -2.6451691941296457e-01 -8.8897950372662460e-02
      3.7373031364784493e-01 1.5553249477119960e-01
      -1.1083702819029427e-01 -3.4322517924923068e-01
      3.0545344641463856e-01 -3.4744564107899689e-01
      -1.1783464125507284e+00 4.4388695877798223e-01
      -2.3133545461784841e-02 3.5415428361744355e-01
      1.8463135158675439e-02 9.8100196747124210e-02
      4.2370860196782006e-01 -4.8580566367758554e-01
      -8.2407103113142721e-01 6.9493705817827844e-01
      -1.5649428810864405e-01 -3.2519794344228720e-01
      6.3149349453360606e-02 4.5170329973604478e-01
      2.8132148807570223e-01 -2.7130268748461300e-01
      2.0515309992081976e-01 9.3967048244037021e-01
      4.9380248909985708e-01 8.7111224889130201e-01
      -5.6307500611576043e-02 -2.5235756826482159e-01
      -3.6513331836629731e-01 -3.5421276946364033e-01
      -1.7393537548321628e-01 -1.5645892240449422e-01
      3.1769099821486652e-01 3.0322386286319447e-01
      -2.0919929237254317e-01 -5.8427193793443399e-01
      -6.6094875207006776e-01 3.5564715345035747e-01
      -1.9461154651961302e-01 3.5493210743773324e-01
      -3.4217833704109557e-01 2.4655152264420602e-01
      -8.9690135280160316e-02 2.6070050868279609e-01
      5.7442148594707143e-01 -1.5331563847656218e+00
      1.3042338782677148e+00 -7.6188160118500117e-02
      -2.3578873240852627e-01 8.6752839454699842e-03
      -4.7179079521453143e-02 -3.5340037264622137e-01
      -2.8117581380555068e-01 -4.7141123860932506e-02
      -1.9636662413914253e-02 4.2985656420478291e-01
      -2.9589338435435852e-01 2.5282617311708194e-01
      2.5861728655787314e-01 1.1140846238737567e-01
      -1.8698942108685146e-01 1.9600407814870627e-01
      1.7600295066462057e-01 1.2949763384344318e-01
      8.4132843418261560e-03 -7.7466101207942811e-02
      2.3398267293382152e-01 4.4401894069257632e-02
      -5.0545352721041115e-01 2.1194757064199432e-01
      4.5982452637084031e-01 -1.5754546863123312e-01
      2.5694503836276045e-01 1.3301725980852122e-01
      2.5116245578250029e-01 2.3400157844766759e-01
      -2.1287957129541257e-01 -6.0427495517658081e-01
      2.2936900473302635e+00 4.8307707366112995e-01
      -6.9377397397658275e-02 9.0141099340353581e-02
      1.3305646274472091e-01 -7.9948415286197272e-01
      -1.6911341587589737e-01 5.3155399422562047e-02
      -2.5853819602896716e-01 1.3489101350060190e-01
      -5.6698508835892469e-01 -2.8555802900365090e-01
      1.5646740636950465e-01 -6.4569012444902207e-03
      -4.7166752152110381e-01 4.4278388797200480e-01
      4.3631305723323627e-01 8.0303988472455984e-02
      -3.2188838215294913e-01 -3.0844467510597440e-01
      2.7851322843085394e-02 1.8610281460097012e-02
      -3.9701148616784804e-01 3.3070967071147234e-01
      6.0198881379169222e-01 2.1902868921797009e-01
      5.6257277037358777e-01 2.4026824283137674e-01
      3.0078082299310060e-01 2.9445181636516321e-01
      1.7587632780066634e-01 -5.3009291643252987e-01
      2.7216756657565702e+00 7.7060018481905512e-01
      3.9378051099384043e-01 4.7533634600402053e-02
      5.4638290489398250e-02 -4.7281521753087713e-01
      1.4149812290213321e-01 -2.4390287180677361e-01
      4.2697032475304215e-02 -5.0367552298938030e-02
      -8.6093638768244141e-01 -6.7945623706759950e-01
      1.9673776180521785e-01 6.1467432536688953e-02
      -4.2849469758505809e-01 4.1484822575988167e-01
      5.9412583191613533e-01 9.3910188077652348e-02
      -4.8698646841469251e-01 -5.7289577894137234e-01
      1.1286169687712155e-01 -8.4695631154533629e-02
      1.0703178683368675e-01 2.8281832113665828e-01
      5.4810012937100749e-01 2.9710550909353561e-01
      5.5573220095189468e-01 -1.3507804200628676e-01
      2.1548005191275002e-01 3.7213794290955798e-01
      7.7191018878685375e-02 2.3552897950385293e-01
      2.5855893512137706e+00 1.1188018417886794e+00
      -3.7968601644446154e-01 -6.6766705384431316e-02
      -6.5596487133779816e-02 -4.4835905229681405e-01
      6.7243541144589536e-01 5.2371320947386846e-01
      -1.5435307496202871e-01 -4.1139559067611381e-01
      3.2236093594599780e-02 -7.3585739666819305e-01
      -3.1841450220430090e-01 3.2395309199863283e-02
      -3.2781941054142993e-01 -4.4594699379320583e-02
      -2.6807153387622278e-02 -1.6195541584062059e-01
      -9.7533048362981878e-01 1.1100368428918396e-01
      5.0145183140245064e-01 -2.6479630666302678e-01
      6.8142352660208572e-01 4.7726265685763092e-01
      3.4303292071559771e-01 -1.6008611112710838e-01
      4.2093361447148875e-01 -3.7645205170003138e-01
      -4.6791078599305408e-01 -6.7378717627870899e-02
      -3.9603443629587942e-01 6.8433907840576336e-01
      1.9547991021872375e+00 8.0697814126708811e-01
      -2.0404895276788817e-02 1.5501300078468604e-02
      -5.1099034904986459e-03 -5.6711399190352736e-03
      2.1434192394178156e-01 3.0226935619472439e-01
      -1.2881647252818731e-01 -1.8522406101568550e-02
      6.9789228992550512e-01 -3.1280791681059583e-01
      -3.5749950626638194e-01 9.5664994723399621e-02
      -2.8605713889894047e-01 -4.8895473383480652e-02
      -1.1636508285077021e-01 -1.6622770478566870e-01
      -3.5053901717807689e-01 2.5829014317343379e-01
      7.8365558369297250e-01 -4.0458031063920441e-01
      7.2660609320363767e-01 2.9858903271554893e-01
      6.1591488698235757e-03 -6.7423244958898385e-02
      3.6010432586753523e-02 -3.9855912323773784e-01
      -4.8875437215366935e-01 -2.2311074928945490e-01
      -4.3255832614326922e-01 2.6462021736039737e-01
      -1.5715941040488108e+00 6.7295322233204757e-01
      1.0179111559142386e-01 7.8151479598825863e-03
      -8.9832418429737614e-03 2.1974693369964554e-01
      -8.1814019848765496e-01 -6.4358214468913724e-02
      -5.0903737407007088e-01 9.2078028378925703e-02
      -1.4407862459947685e+00 -4.7713429941116797e-01
      1.0194886588071284e+00 -3.0783724948532248e-01
      2.1984249869703898e-01 -2.0864757918692416e-03
      6.3476621554624624e-01 4.5592217681230274e-01
      -3.9514718503194562e-01 -1.4584374510143423e+00
      -1.7827678649165834e-04 7.7173362895874209e-01
      -5.9902472726153744e-01 2.7187720312578306e-02
      1.9116048838789887e-01 7.0417666115669264e-01
      2.8263319345836507e-01 1.8121400346011737e-01
      1.0000885276407234e+00 4.6509414571882907e-01
      -4.6728790803918036e-02 -4.4507860322835124e-01
      -4.4018318948204449e+00 4.4160202863211019e-02
      -6.6515307646459598e-01 -2.9961980429083496e-01
      -4.9701722887348782e-02 -5.1319687186442850e-02
      1.0257671951054512e+00 4.3402089971809765e-01
      -6.9820823967473439e-02 2.2727565111930671e-02
      5.2426131487249428e-01 -6.0026627595109727e-01
      -2.9213848602649489e-01 -3.5355292569912822e-01
      3.4605922602397510e-01 2.4151275739979433e-01
      2.2339077673483986e-02 9.3838095675821964e-02
      -4.9618205077813715e-01 -3.9812938244010165e-01
      6.3203415217567838e-01 1.3339702296049744e-01
      5.2274516726135123e-01 2.5884894206446957e-01
      6.0039825119235191e-01 -5.2233138171976756e-01
      1.0509150744556810e-01 -2.9329898653389269e-01
      -1.9610526380179427e-01 -1.3886114148310569e-01
      -7.1710342380294012e-01 8.5524883717993827e-01
      -6.6755012469815966e+00 6.9250522803841766e-02
      7.0687710628446671e-02 -3.2996034108142690e-02
      4.3546145863595183e-02 2.4270561306906230e-01
      -7.1946440000283485e-01 -2.7763658289591542e-01
      -2.4530643521318721e-01 5.9455182721835775e-01
      -3.7507105271763763e-01 6.3958988970442276e-02
      8.4770425033010544e-01 1.0798664859257039e-01
      1.1442909760023105e-01 -3.8784342429998033e-05
      3.3412814062242513e-01 3.7789081588332274e-01
      6.3279124330554115e-01 -7.2418984459229085e-01
      -4.0453698859284659e-01 6.3095132655116737e-01
      -4.6554155119605523e-01 -1.7547968565003014e-01
      2.6696967086896208e-02 1.8536818917242120e-01
      -1.9165023134375150e-02 3.0977657566650479e-02
      4.4153441692886664e-01 2.0702471079841087e-01
      -3.7762024488797126e-02 -2.8870547064056945e-01
      -6.0644551551293873e+00 -4.5786014459897600e-01
      1.8962086636041953e-01 -4.5188058339402419e-02
      -8.7809027061965791e-02 5.6471202968963807e-01
      8.9177989527718204e-01 -2.4816770116660586e-01
      4.8349247803751183e-01 3.4808886200687167e-01
      -1.4750318325094773e+00 -1.4627652727861129e-01
      4.2102330943644600e-01 8.8503823415109406e-01
      2.0325322980574931e+00 -1.8012092035045146e+00
      2.4458850321259423e-01 7.7692920177027869e-01
      2.1537498526409432e-02 -1.7359849533146678e+00
      -5.9265488602723726e-01 9.7372502004377370e-01
      -3.8932043966568602e-01 -2.4057551550213721e-01
      -1.2228060078264149e+00 -2.5070006037678089e-01
      -3.9261861635823275e-01 9.4534558620429046e-02
      1.0180585783126619e+00 2.7798723706157075e-01
      -3.1470565104387160e-01 9.9208026476894695e-02
      -5.6978824107528352e+00 -1.2104329835329815e-01
      -1.0067912868460387e+00 -2.1945894740538022e-01
      -6.8647763702089790e-02 2.3225217634304043e-01
      8.2682228240320821e-01 1.8886242936777861e-01
      4.0001748036483642e-01 -4.8926863538493581e-03
      5.1797710761065874e-01 3.7532227937533608e-01
      2.0318779849177401e-01 2.4671798259449507e-01
      5.8052839287948865e-01 -4.6238463428024773e-01
      -4.7068987390454189e-02 1.1879883646328475e-01
      -7.7780093515531989e-01 1.7209616768563227e-01
      4.4471273879912732e-01 4.5887580883201884e-01
      4.4796450838279661e-01 3.0690148254565691e-01
      5.6948755114690630e-01 -4.3344597380768674e-01
      -8.1213829650783068e-02 1.0960454406730163e-02
      2.2710036434176489e-02 1.1523704559174297e-01
      -5.0039939201132422e-01 -1.2185760218838244e+00
      -5.6620201198402595e+00 -5.0574255486086139e-01
      4.9929859476142213e-01 -2.5205771272119371e-01
      -1.5938480428667225e-03 5.6118184142268851e-02
      -5.0291245782675587e-01 -5.6310423182492342e-01
      -9.9260384795999301e-02 -2.4809617501583256e-01
      1.4979906814874214e-01 7.7531834477912265e-01
      3.7276962139490333e-01 3.4727856608965144e-02
      -8.8265193757504773e-02 3.8379158498813765e-01
      3.0382889189684920e-01 -7.5542618184750818e-02
      9.1692388546000247e-01 -1.3976704206688265e-02
      -4.0728622340733256e-01 -2.2305944132210598e-02
      -5.6147872952570388e-01 -6.0924516409366181e-01
      -1.1226954302189344e-01 1.2527513645558119e-01
      -7.2736089959217565e-01 4.4840552284039555e-02
      -2.2224439573531318e-01 -3.0853610688086791e-01
      3.4859149812213297e-01 2.5945736047122753e-01
      -4.8920058742250552e+00 -4.2944421926848958e-01
      1.6614791066195589e-01 -8.4750500115136171e-02
      1.6577984271255053e-01 6.3058419341296934e-01
      1.2200397898102897e+00 4.5254960925238791e-01
      8.9831462293546965e-02 -2.7122483808531522e-01
      1.8289663133073128e-01 7.4493806713108146e-01
      -2.1616943975782477e-01 -3.0494120462259387e-02
      3.8471561708460500e-01 -6.1858542202976297e-01
      -3.8761928201018120e-01 -3.4585064258187824e-02
      1.0569663305194320e-01 4.1686741044704306e-01
      -6.7449509631165039e-01 -3.1862031087639464e-01
      -1.0980313462252532e-01 2.9464642415839642e-01
      -5.0885079929423471e-01 -8.4185309232020400e-01
      -3.0395085577117686e-01 -4.5508796832366377e-01
      -3.6905152724043327e-01 -6.1915259460806571e-01
      -7.2504987519898279e-01 1.1295824464392312e+00
      -4.4328626265065925e+00 5.4256118304436007e-01
      3.6472642836127661e-01 3.7743212158879075e-01
      -1.4343676206598552e-01 1.5281873459468340e-01
      5.6421147378132086e-01 1.9637147935680502e-01
      6.1423884953246999e-01 -6.2884398825650600e-01
      7.1682110244884889e-01 6.8852816761203395e-01
      -3.2471894099386800e-01 7.7859834610313880e-04
      -5.5507114507933775e-01 -2.9826196443023545e-01
      -4.4939245810882095e-01 -1.4417894871201936e-01
      1.0132254604087594e-01 1.0909495569901497e+00
      -2.4324405624219303e-01 -7.5570356748669143e-01
      -3.3138966637071953e-03 -1.1309230107135309e+00
      -6.2229821928686735e-01 -6.8934403639473840e-01
      -5.6886122258078808e-01 -5.4744821102838670e-01
      -2.4442061678455979e-01 -2.6595629599115500e-01
      -5.3008720226460537e-01 7.4473731802106657e-01
      -3.2568608180637777e+00 5.2779215159988346e-01
      4.8065657928420830e-01 9.8481021113260465e-03
      -6.5981609047313081e-02 -2.8080419246513449e-01
      9.0811477582430833e-01 3.1357677792950833e-01
      2.1040490305067863e-01 -8.3611952666051648e-01
      6.7332837622051001e-01 -4.3310716255490384e-01
      -7.4008537120194307e-01 3.9089886625321840e-01
      -6.1129097805759025e-01 2.2310250566573386e-01
      -2.1750746116425107e-01 -2.5498966959569530e-01
      -6.1928264728135518e-01 1.1897864079085361e+00
      -9.4322277707474048e-02 -9.1625953125411441e-01
      9.2501294645935772e-01 -5.4030522932105596e-01
      -1.4335552406841381e-01 -7.7366401751694780e-01
      8.1976886149670386e-02 -5.9839352008590729e-01
      -4.3214762839099830e-01 -3.3732442476376140e-01
      -3.9742971273039940e-01 1.3664974472540092e+00
      -2.1618530412550845e+00 6.0413962197565296e-01
      -6.7141666349919715e-01 -1.1469364284961915e-01
      5.6955986432103069e-02 -4.7321131540583261e-01
      8.6082005861355182e-01 2.2844701743370124e-01
      2.0444812505105398e-02 -3.0334366150924574e-01
      6.0997126362197496e-01 -6.7703981706363159e-01
      -5.1660400411325269e-01 -4.2385467623029494e-01
      -5.2490111125242919e-02 4.2897048589986042e-01
      -3.2645026982934411e-01 -1.6034207377564064e-01
      -8.7135125668501834e-01 7.0746080736748360e-02
      7.6440433755385073e-01 -5.1528709320323451e-01
      4.1600751096170485e-01 -2.7716999928829417e-01
      4.8263063337743756e-01 -2.9153183600123661e-01
      2.9770341712476728e-01 -2.1888634550035752e-01
      1.5950461177809619e-01 -1.5861843599149825e-01
      5.7140812720018197e-02 6.7264663714509765e-01
      1.0842291282762178e+00 -4.4368191867434614e-01
      -3.8025448639755854e-01 -4.0317713194642829e-01
      1.0275748150756409e-01 -8.4498501125904113e-01
      1.0111758867273104e+00 -2.0815424328576645e-01
      1.4687786534021554e-02 -4.6061476958097347e-01
      2.8202191763654183e-01 -4.5997657138750148e-01
      -3.4317170988213297e-01 -1.9408012501904026e-01
      -9.0410699297632235e-02 4.9611610459142275e-01
      -1.4358069128827325e-01 -2.1338298664411490e-01
      -1.0037397581095695e+00 4.9636781066539226e-01
      -4.1340437339531355e-01 -5.6655772800551274e-01
      7.8409025342049399e-01 8.6089841015495938e-01
      4.3014568903976508e-01 -5.9219472953037444e-01
      5.8761076988085192e-01 -1.6029386219685679e-01
      -5.1358295977296597e-01 -3.2006450509824208e-01
      4.7913009525703813e-02 8.4353772510504033e-01
      2.2291211028762801e+00 -1.4920135373838006e+00
      -7.3904398300527285e-01 7.8800138370000772e-02
      -1.2837074902324863e-01 -1.9180375603367700e-01
      2.4338899754517018e-01 -8.3391494306874114e-01
      2.8201839400831974e-01 -2.1330455669750020e-01
      -1.0378645677707596e+00 4.0447627877544956e-01
      2.3229379319341945e-01 -2.4620391637114863e-01
      3.9367786941985151e-02 6.1453139300961590e-01
      5.2542933322154939e-01 2.3274501458762714e-01
      -1.1348643950543937e+00 -1.1950555385172383e+00
      -1.1506428319572253e+00 4.1373294468568395e-01
      -6.2984297780874987e-01 1.3388805954097289e+00
      6.4583127038476562e-01 3.2522288172755659e-01
      5.8336925267759632e-01 6.3139317348287427e-01
      7.0918620029445678e-01 3.3942415073711163e-01
      -7.6120934897565301e-02 -9.6608870891290388e-01
      3.7746115541835406e+00 -2.8363037292800913e-01
      -2.0971147136651527e-01 9.6889122365453412e-02
      1.4604468774153925e-01 -7.8626753545731820e-01
      9.9421361077846726e-01 -7.6266852577742697e-02
      1.9127573635079870e-01 -2.9727553350278452e-01
      -5.1225646809562875e-01 1.1666855532286673e-01
      -3.5812893057553380e-01 -5.3927928492882238e-01
      -2.2151192586324012e-01 4.4760115970595488e-01
      4.2076867578478261e-01 -5.1038595946080366e-02
      -1.4853026845661066e-01 -4.7173510144810549e-01
      -1.7725957124094027e-01 -6.5749863711932408e-02
      -2.8631068297961443e-01 4.4425110428067560e-01
      2.5707249291624751e-01 4.7570406371089469e-01
      5.2523565877095968e-01 5.9033355467281878e-01
      2.5850123233137851e-01 -7.8921641394463754e-02
      3.6002596126863767e-01 -9.5946714182236403e-01
      3.2178623444620098e+00 4.1104603994005018e-01
      6.3929201112009809e-02 3.4098243372630455e-02
      6.3056985159495607e-02 -2.0439105065059468e-01
      5.5897825929446077e-01 -9.8155943533432155e-02
      8.4531785256449041e-02 -1.7584871265398058e-01
      -9.2024259323829805e-01 -8.2135822589986229e-01
      -1.3271085013822057e-01 5.8225916546647982e-01
      5.6641031340141042e-02 3.0149166771069328e-02
      4.2174417832870587e-01 3.0100934855283173e-02
      -1.0740299917826541e+00 -3.9118304316966085e-01
      1.6103709193205892e-01 -1.3718752606660981e-01
      3.2600067761156132e-01 5.6703861420683399e-01
      2.1450533372255862e-01 -3.0180863036901973e-01
      4.5403262775360170e-01 1.1408583401402116e-02
      1.0190884125491734e-01 -3.5224016570401293e-02
      -3.8003612741917225e-01 3.2870066796004005e-01
      3.1284423913978907e+00 4.2317409964659625e-01
      1.2034886757714315e-01 2.9792484427111493e-01
      -2.6152581070462588e-02 -7.9312248864356694e-01
      4.2284144549544084e-01 -1.2722019325890710e-02
      -6.4115386462254967e-02 -1.3153105784331240e-01
      -9.7452977121524853e-01 -3.4782412993550044e-01
      -3.0713540602624462e-03 1.9269142270541342e-01
      -3.2140675481255693e-01 1.2531409587305373e-01
      3.7064040823656647e-01 7.1875058047906171e-02
      -7.2901455438908502e-01 -4.3561139558340650e-01
      -7.8733333807762498e-02 -1.3461323819113022e-01
      -7.5419059622311253e-03 4.8771459537190920e-01
      3.0393204013225289e-01 1.2737020557874790e-01
      6.5487702421784644e-01 7.9109413032787942e-02
      2.7534060485087347e-01 1.9485484921114490e-01
      -9.8444347704631424e-02 -5.1320068098312577e-01
      2.6888504864636875e+00 1.3188343472569222e+00
      -4.2657396165540673e-01 1.1596532763558598e-01
      -1.0375576887711212e-01 -4.5532582023875606e-01
      6.4664787298054105e-01 5.2570733283113499e-02
      2.5854062515595383e-01 -6.4259211623153445e-01
      8.6455662832178204e-02 -5.2841095280633821e-01
      -1.2930658209287646e-01 2.7111575712661079e-01
      -2.7343071341516068e-01 -1.0835844367789001e-01
      -1.9525544662533489e-02 -3.8443932828670696e-01
      -3.6388768194729337e-01 -6.9927246962710327e-02
      3.6705440366707681e-01 -5.4519524014205389e-01
      8.5423394269010944e-01 -1.1186560972742833e-01
      1.0092369702576229e-01 -6.1168120096517486e-01
      1.3280849516815221e-01 -9.0565881701552764e-01
      -3.9128529862645628e-01 -4.8006974343860653e-01
      -5.9347942100923534e-01 1.9614039990977425e+00
      -2.5598317386885455e-01 1.7076587725569690e+00
      2.0889634722049308e-01 1.7005998436804126e-01
      -3.2896853796692806e-02 3.0875068029576676e-02
      6.1128929502064933e-01 2.4132009496065315e-01
      2.9152331142108451e-01 -2.8837437496250151e-01
      3.8304803771405299e-01 -6.8627103190768868e-01
      -5.6740107063083967e-01 4.2303401248678252e-01
      -6.5806226804630746e-02 -3.1923559818198610e-01
      -3.1913341996344657e-01 -5.7664694650808668e-01
      -2.4450953938254294e-01 2.7785486522325664e-01
      5.8791582383822816e-01 -8.9060093215614844e-01
      1.0891630026714669e+00 -3.8377771098879937e-01
      -1.3846044311783834e-01 -1.6031052507291735e-01
      -1.9590663500469760e-01 -9.5706565090636542e-01
      -9.4519129201573271e-01 -3.7211960385569320e-01
      -4.8912118651400321e-01 1.6567474306951566e+00
      -1.7926873534586347e+00 1.0768114479289304e+00
      -2.1204716916384558e-01 -2.3449794038541680e-01
      -5.6596206153521442e-02 -3.2319169938459363e-01
      7.2778801048492059e-01 1.6066925741163712e-01
      3.5896679337814918e-01 -3.6467646919680780e-01
      -1.9623156285585858e-01 -6.9809069635005105e-01
      -5.2733221238792594e-01 1.4895324200062690e-01
      4.7571701062171762e-01 -5.9580394366502509e-01
      1.7903648722041181e-02 -2.5964550929012781e-01
      4.9855619701335764e-02 -9.2540969133350193e-02
      6.7140212620409678e-01 -2.7309061656624617e-01
      8.9217056271249218e-01 2.0166551428743051e-01
      -2.1238159932729442e-01 -4.1227294030285205e-01
      -5.7267295430293338e-02 -8.1265423420014427e-01
      -3.0960739206024990e-01 -1.9492963030882809e-01
      -3.6685395828631423e-01 1.8569185954967677e+00
      -4.6078554132740326e+00 5.6863884263274433e-01
      -6.1362634174660635e-01 -3.6318091368499422e-01
      2.0007821436501547e-01 -3.6439555939445367e-01
      1.2666195288442780e-01 -1.2260300389308042e-01
      -2.8537578556964321e-01 -3.3665411551305724e-01
      -8.1147433088508236e-01 -5.6233122361715304e-01
      -8.5402585964387420e-02 -1.7509846394148502e-03
      5.9642200822960922e-01 -6.1287720965951802e-02
      2.2254122596501405e-01 -5.7434902111374961e-02
      -7.3541024086052875e-01 -3.2108311694666569e-01
      3.4790588529221300e-01 6.6908150886587886e-02
      6.9603082458453613e-01 7.7862149253636270e-01
      4.9371152088260162e-01 -2.2186257141745586e-01
      6.0353114176376212e-02 -1.6297050362539700e-01
      4.1470623375371891e-02 -1.4982565227679609e-01
      2.6802561914950207e-01 5.1695503923762813e-02
      -5.8522971661114909e+00 -5.3259224359725266e-01
      -2.4218234103045783e-01 -1.6336738680758270e-01
      -4.8764521689138161e-02 1.2887664900932698e+00
      -3.2577548668342005e-01 -5.5131988497643525e-01
      2.4391204309944134e-01 4.6316354157636469e-01
      -7.7607913951090435e-01 8.4895155107607545e-01
      6.4632850121461194e-01 1.8468584805909458e-01
      3.9711887329324541e-01 7.6960911829940540e-02
      4.2134645947641847e-01 3.3756402550202946e-01
      -5.4539291493670150e-01 -8.2048215434487204e-01
      -4.7789891129252937e-01 5.6545244639805703e-01
      -2.2894230855118619e-01 -1.6696550534391874e-01
      6.9907529240501046e-02 6.1063874445086164e-01
      -1.4344421811764974e-01 -1.9796563890676213e-02
      8.4241711650883166e-01 3.2588853280260406e-02
      -3.1253257397349488e-01 -5.7313979200141838e-03
      -5.9145361291090248e+00 -6.7094590622462424e-02
      3.0655672414904195e-01 1.5540150620641541e-01
      2.3316657746896976e-02 7.8012426112418343e-01
      -5.1749818874294373e-01 1.7935773393056173e-01
      -1.1203088464730461e-01 3.5815464871075725e-01
      -1.1052359586902445e+00 5.0556791448073357e-01
      5.6783599047067512e-01 -2.7638029163641342e-01
      1.0359883518542434e+00 -5.7499918542891326e-01
      1.1511341092610741e-01 4.2199889311394423e-01
      1.1237752585299190e+00 -1.2801092482181267e+00
      -6.6648934223404177e-01 6.7957082126051827e-01
      -7.9741306031514347e-01 -4.8192350945613466e-01
      -7.4140089214535243e-01 7.7423775477484236e-01
      -7.3732676173160383e-01 1.7446899676742406e-01
      9.4993716015983365e-01 5.2062378900791495e-01
      3.0437479841613060e-02 -6.3497827699757459e-01
      -5.7113056071294448e+00 1.8743700162606913e-01
      6.5394153165392910e-01 -1.4838810127166502e-01
      -1.6104769799167876e-01 5.8855198840042466e-01
      -6.2729469820410291e-02 1.4837735818067016e-01
      5.6738907955592249e-02 -9.0313150392337352e-02
      5.1095306964578591e-01 3.8925415298086014e-01
      -2.6058593361745003e-01 5.1246619094961025e-02
      2.3569910397455032e-01 1.9542861394859570e-02
      -8.9992263838186065e-02 1.3225438502083928e-01
      6.9792485961357276e-01 -2.5048921838910831e-01
      -9.6025246143508547e-02 -2.6617673021866178e-01
      6.0882363136363393e-01 -5.1539340553154200e-01
      -6.4869925232448711e-01 -3.1749086406792991e-02
      -6.6337082771463785e-01 -4.2867599336976414e-01
      4.7701069281150241e-02 -9.3793984097547273e-02
      1.6096257123987809e-01 1.1648804539946176e+00
      -6.2539812995416195e+00 -2.3989842108866979e-01
      6.1692385150942619e-01 1.5833480562622068e-01
      6.2611221965733294e-02 -4.9182522187315331e-01
      4.1530669073672527e-01 -2.3337723827444898e-01
      -2.6776125586043253e-01 3.2461564477663174e-01
      -1.9155013783319660e-01 -2.2437138006865684e-01
      4.0441016194439267e-01 -6.8349420237667449e-02
      6.2532093236700170e-02 -1.4570447476551923e-01
      9.9882194849363629e-02 3.7653511991351246e-01
      5.6443608285391389e-01 -1.4515360515369541e-01
      -9.9862792411927936e-01 -1.0031453358711492e-02
      -1.9163783080256139e-01 -5.4668279165463729e-01
      -8.8931339477782767e-01 8.5245797199695683e-01
      -9.9524499768511229e-03 -1.9698520554290314e-01
      2.3950624695331618e-01 5.1405866210687734e-01
      7.7521937695484899e-01 2.5003557125564891e-02
      -4.1284901536615406e+00 -2.0541113724302568e-01
      -4.9223675008348827e-01 -1.8924177031941974e-02
      5.1245332761387014e-02 4.6162860899603791e-01
      7.7812278368092613e-01 4.8814728542712371e-01
      -2.3670096032465987e-01 -4.2203077452171656e-01
      2.9351423605787547e-01 3.8001484494292209e-01
      -1.9069064318945658e-01 -3.4057985733316626e-01
      2.6907794140875507e-01 -1.9826139173659610e-01
      -4.5495727599327268e-01 1.3397547257178527e-01
      -2.2193392474589327e-01 1.7727803085931049e-01
      -1.9244958566819620e-01 -2.7408267787640761e-01
      -1.5537412279205268e-01 -4.3716106523142684e-01
      -5.6240411811177016e-01 -7.8350325338703217e-02
      -3.4094889889669699e-01 1.2401185150453059e-01
      2.8068639081206131e-01 -1.8655587117605002e-01
      -1.8658132980709741e-01 -2.9115099709622777e-01
      -3.2935864004962192e+00 4.9359497098223661e-02
      -6.0296055350770428e-02 9.2662162280599550e-02
      -1.2850420481027328e-01 -5.3289450160839003e-01
      -3.9051257587401828e-01 -3.3869472736417855e-01
      -4.7176231283294949e-02 -1.2499044979635565e-01
      2.5020845776239026e-01 -8.7979563269596842e-02
      -1.3200726385374605e-02 -1.1351041933809955e-01
      -6.9742668944000452e-01 3.9225467625624005e-01
      -3.1556346351384379e-02 2.5502635801987766e-01
      9.1086151098797863e-02 2.7481789952608965e-01
      -1.7180858621556996e-01 -2.8636380078232376e-01
      -3.7833745388361303e-02 -3.9484362028217986e-02
      4.4196786414296507e-01 2.6412207677861749e-01
      3.9483418751392835e-01 2.8329540529211766e-01
      3.1954986203808877e-01 1.4337116531162384e-02
      1.5963723506658520e-01 -3.3334589816562110e-01
      -1.4866549618213942e+00 4.1588488827997144e-01
      -6.5289284698415040e-01 -8.2479959484859824e-02
      -1.3335976010175284e-02 -2.4532968859995594e-01
      7.6209529533325437e-01 2.1431341602176179e-01
      6.6759365946027771e-02 -2.8557395221438786e-01
      3.1893851857299022e-01 9.2588164053321070e-02
      -5.2758041835505254e-01 -1.9002832098820013e-01
      -4.7979480191574819e-01 1.9186660944738068e-01
      -1.9776750789048042e-01 1.3593444009446121e-02
      -7.2818773882521526e-01 6.4134873888582911e-01
      3.9139850175051083e-01 -5.9721783734658995e-01
      3.3578553615343454e-01 -8.9154843325295233e-02
      1.5059616809604556e-01 -3.1685877724695216e-01
      1.0680686379471868e-01 -1.8927990880996284e-01
      -1.9466785914494602e-02 -2.4633430052006805e-01
      5.0926636740369242e-02 1.1882336193080140e-01
      2.5435164839587467e+00 1.2890823550214940e-02
      3.1019150330312439e-02 -1.7465616989779625e-01
      7.6152647831805420e-02 -8.1315511759462167e-01
      3.7169818137887511e-01 -4.6741776730455889e-02
      -1.2108404432754277e-01 -1.1870720273714803e-01
      3.2395040815482823e-01 -4.7436111421578697e-01
      -5.2760504571823275e-01 1.6585581800606797e-01
      -6.9545981729792739e-01 -8.4769806197369513e-03
      -9.1846038407444180e-02 -2.9982085290617660e-01
      -1.3161604501624846e-01 8.1043199710360425e-01
      -9.1178449289058405e-01 -6.6602364246738732e-01
      2.4175286696279011e-01 6.0752196034720463e-01
      -3.6337935787739106e-01 -5.4403096871158607e-01
      5.1120855250839858e-01 -3.0699470598252659e-01
      -6.1522197138591128e-01 -1.6637905188930380e-01
      1.2887134101027128e-01 6.5470490951027949e-01
      3.0364633757315529e+00 -4.1357623502224095e-01
      2.5165446672714521e-02 -4.0979159232206387e-02
      -1.4653748806020880e-01 -6.8832066292931970e-01
      4.8931389443526749e-02 -7.4771202809803639e-01
      2.2226855044446575e-01 -1.3939956734889655e-01
      -3.8553310688548982e-02 8.1945305656590597e-02
      1.5470901070890414e-01 3.0517420274209311e-03
      -6.5715650188959429e-01 8.4536458632391798e-01
      3.7820577634889307e-01 -5.9752739733498136e-02
      -7.1180250242065757e-01 -3.6156649321843681e-01
      1.4620574099228796e-03 -1.6751451835147896e-01
      -1.0833671170493712e-01 5.5348251853090058e-01
      7.0806996332002514e-01 2.7012481985666997e-01
      5.6089153426670268e-01 1.2162884854918846e-01
      -1.0957379532603081e-02 9.6917385189592711e-02
      -1.3506464748205218e-02 3.7152542057006888e-01
      3.8643342821569364e+00 -1.7338554256514885e-01
      8.7604851035699607e-02 -4.9799421772985679e-02
      2.7323483363236294e-03 -1.0049622806297200e+00
      8.1608948939577952e-01 1.3497539123472629e-01
      3.2509836163046625e-02 -6.2604302355670227e-01
      1.1872780146070880e-01 -9.6762574503662990e-02
      -4.0497031448236775e-01 -1.4066191225654984e-01
      -4.2941819306697704e-01 3.9856419693621647e-01
      -9.5285676501863328e-02 -4.1114427636413103e-01
      -4.9579932517333747e-01 6.3914844818610161e-01
      3.5308075012404128e-01 -5.4891477036254099e-01
      -1.6812112859266290e-01 3.5081199347585516e-02
      3.8654990627329938e-01 9.5402954627697798e-03
      4.1635649102790001e-01 -1.0144440110021401e-01
      -6.5217959855407281e-01 -1.7994623783504649e-01
      2.9331680653788307e-02 2.8451506845682073e-01
      3.9811657549572339e+00 9.2650050940052975e-01
      -2.0288988956674728e-01 -8.7645840191666359e-03
      9.6038059345278620e-02 -5.4876681671224947e-01
      1.3350262685945953e+00 2.3855801866512100e-01
      2.3673964815438772e-01 -4.5738986873064436e-01
      -1.1701260560883496e-01 -6.7430683288157733e-01
      -3.2003887236834061e-01 -7.3231524801359860e-02
      -8.2191018418636422e-02 2.6626266112747588e-02
      7.7608575765682059e-02 -3.1337305272296495e-01
      -1.1149927346957857e+00 2.9939901837658495e-01
      1.0410904214813332e+00 -3.4121307886836505e-01
      3.9254925061748042e-01 2.8124854899990853e-01
      2.9102126846881837e-01 -6.5060446582149278e-01
      2.1094525428971955e-01 -3.1588806400462233e-01
      -5.1720462624230901e-01 -2.2272766093261870e-01
      -5.2656060210069633e-01 4.1175548181678062e-01
      3.7016282397335174e+00 8.5402940333284172e-01
      1.1273178845832413e-01 -1.8340468589097225e-02
      1.0373598975227919e-02 -7.5376926185705551e-01
      1.7669491216577091e+00 6.2397534503001295e-01
      1.9357278815744935e-02 -7.2596812923600929e-01
      2.0601154303635519e-01 -6.3594916502748400e-01
      -7.5089976267959491e-01 4.9322612587726335e-02
      1.7926695320807283e-02 3.3642725735497939e-02
      -2.3479649218703758e-01 -5.3641863075111451e-01
      -8.0473132165478156e-01 7.7772902592113602e-01
      1.0359943403939735e+00 -6.3869509175841210e-01
      8.9205473587987771e-01 4.7240833053226017e-02
      2.9138290839076980e-01 -8.1872821237033055e-01
      1.5991087965972395e-01 -4.0517172287577746e-01
      -7.8728772208754605e-01 -5.5551785780142793e-01
      -6.3565065188478642e-01 1.1388135045163554e+00
      2.8843028505903554e+00 3.0532809360956675e-01
      -5.0827471049571971e-01 -3.1789549871186665e-02
      -8.5439239868359482e-02 -3.9344644831038489e-01
      1.2978211853656043e+00 1.9455670653091348e-01
      3.4420923940640580e-01 -5.4021979709231138e-01
      -3.2140804320557970e-01 -2.4346252175344155e-01
      -2.1473943144291310e-01 -1.8502864471348796e-01
      -3.2884261112247959e-02 -1.4101568500945444e-01
      9.4298557185130763e-02 -4.6627957634185191e-01
      -1.0405289218213492e+00 -3.1043333622423408e-01
      4.7235309342326598e-01 -2.3731193052186830e-01
      1.7427813060673641e-01 7.8946525063800255e-01
      2.1633976725530396e-01 -4.9373290051070579e-01
      2.9422026400354423e-01 -2.3080291877010120e-01
      -1.0868879253645755e-01 -2.3671641767443927e-01
      -3.5901679689942628e-01 3.5597678772103447e-01
      -4.5761469767610495e-02 1.1560104255823615e-01
      6.0171166294979541e-03 -1.7213651980083008e-01
      1.0168736657257957e-01 -8.4130279510495152e-03
      9.6190955740181971e-01 3.9496096967917241e-02
      1.3452264965432137e-01 1.1816106971916301e-01
      -1.1696920402586550e+00 -7.8935409624205935e-02
      2.7156305027981203e-02 -5.6269408809870823e-02
      3.6943733927388388e-02 -2.7374868465488333e-01
      4.3632137026357704e-01 -3.3730355288716701e-01
      -3.6382800911103480e-01 -7.0481885715992643e-01
      1.7060791557364174e-01 2.1256605141449886e-01
      3.2544433474930784e-01 2.1749123899156039e-01
      1.0607056004869302e-01 3.6117373468449593e-01
      1.1430547051314938e-01 1.1371970580500403e-01
      -4.1183314151821727e-02 -1.4548980282793680e-01
      -3.0851732960351175e-01 2.1318154354679897e-01
      -1.1453664645182946e+00 1.1306070462884441e+00
      -7.2590483802305916e-01 -1.3095769098436552e-01
      2.0029628673343458e-01 -2.8570074764728493e-01
      1.1478290145810157e+00 2.7422609216763155e-01
      5.0806357252021657e-02 -3.8757822684697074e-01
      -6.1450306975442481e-01 -8.0362813380135067e-01
      -5.0095243329568195e-01 2.0306752029947159e-01
      1.4959649549077003e-01 -6.0669735630188820e-02
      2.1418361144439466e-01 -1.9883990075363872e-01
      -1.4264539241585870e+00 -5.2987540575799608e-01
      7.5643158773176533e-01 3.0991388275533041e-04
      1.1015726017090002e+00 4.3888209029682024e-01
      8.1760710249105328e-01 -6.7855687787560215e-01
      4.3974483061038627e-01 -6.8223695333322198e-01
      -2.2805720983523767e-01 -3.4172310572530462e-01
      -6.2523001414823665e-01 1.5668479866776599e+00
      -2.7754905772420275e+00 7.8076059569385070e-01
      -2.5634026080433420e-01 2.0640546355148512e-01
      1.8653858706813667e-01 3.9250349983769153e-02
      3.7748877191663577e-01 3.7675765929536398e-01
      5.4134526942305021e-02 -5.5770656130468466e-01
      -1.0201731489401060e+00 -6.0799060362508539e-01
      -1.8847795107565634e-02 2.3303344290351258e-01
      1.2270211811901284e-01 -6.0000993157373150e-01
      5.4540054479993168e-02 -8.5812770827426055e-02
      -2.7415269583824708e-01 -3.9568873699130286e-01
      4.3888670772853777e-01 6.5115733926532027e-02
      8.3050576918399599e-01 3.2070661222202418e-01
      -2.1682883299675113e-01 -3.8170198203168182e-01
      -1.2587230810573982e-01 -7.5492644518329244e-01
      1.0790906269083556e-01 -1.3037273695685295e-01
      -9.3754634080962140e-01 2.0560390807692799e+00
      -3.3919817631361626e+00 5.8828656430005644e-01
      -1.8689980914118215e-01 1.3344958785404498e-01
      1.6418094324373761e-01 -8.0793252288609924e-02
      2.6999462701692106e-01 1.2088556326449885e-01
      4.5491800211444189e-01 -8.9681035481992799e-02
      -4.8670017590264097e-01 -1.0937330085811434e-01
      -4.1599491502834096e-01 -1.2299055600984399e-01
      4.2747110134842403e-01 -1.7330401128364634e-01
      5.5811577669128927e-02 -2.4905191832288137e-01
      5.2635275142460192e-01 2.1803921930742973e-02
      -3.1797851825747403e-02 -2.4703727812259424e-01
      8.0976073131683612e-01 -5.5838121894087611e-01
      -5.4496403812748628e-01 -5.6888546978507315e-02
      -1.3628758430798810e-01 -1.9811452420122549e-01
      -3.2957662464404552e-01 -2.5928589355558423e-01
      -8.5230469783328891e-02 1.0337553427713551e-01
      -5.4775273612955928e+00 7.7189337088438348e-01
      8.7160015839764493e-01 -1.6654960709680286e-01
      1.3320682829745942e-01 5.0595848144275535e-01
      -4.5719425504987005e-01 -1.0609288921591713e-01
      -7.5018898371583667e-02 2.1941140786007624e-01
      -8.9851934950500489e-01 3.5728090927348626e-02
      3.3889156284018146e-02 1.7415002709284921e-01
      3.3986766150795977e-01 -3.6736901450281523e-01
      3.1138157220251167e-01 1.6319881379032464e-01
      6.7728186703336879e-01 -8.1529932448083564e-01
      -7.5907782952926617e-01 8.6747954212364461e-02
      -4.6819614265347594e-02 -1.0292356649740237e+00
      -7.1361652757090877e-01 4.9478042675302464e-01
      -5.3461803773505578e-01 1.5880408984394795e-01
      2.4068181435654537e-01 2.0994190259098131e-01
      3.4287477733120725e-01 -9.3470716214843796e-01
      -5.0669230065897386e+00 -2.8637193150995549e-01
      3.3044557187547743e-02 -2.8472272908235438e-02
      -1.9183948780946081e-01 7.5930222824255511e-01
      -8.2659075598018328e-01 4.7726895543880030e-02
      -1.1871122825564312e-01 -8.9040216508087053e-03
      -1.0518440870217646e-01 4.8900940138558802e-01
      -3.7684323938110685e-02 -1.4703647924748503e-01
      -2.4401471551228873e-01 8.7158795367477199e-02
      -1.1681399246633355e-01 2.4202949681147390e-02
      3.5176711704558261e-01 3.6344762866342795e-01
      2.3734935889192479e-01 -1.3517710642276229e-01
      -5.2355640162087591e-01 -4.2326887474188662e-01
      -6.1323190741744582e-02 3.0787412124104585e-01
      -3.4384805070156299e-01 1.6473580047946506e-02
      3.7612565657897912e-01 -9.4643229031054377e-02
      -1.2808817566583913e-01 -6.6816076987444606e-01
      -4.5574945399958757e+00 -2.9266814552012316e-01
      9.2914633166843108e-01 -3.2281776409428468e-02
      1.2633077561231179e-01 -7.3897755740399890e-02
      -2.6294474763826053e-01 -3.5742788502730394e-01
      -2.1002014631680893e-01 1.3096287938031861e-01
      1.7449057247421004e-01 1.8848145612832639e-02
      3.6961352083848048e-01 1.5677377375988938e-01
      8.6338694473776914e-02 -2.3294489315221370e-01
      -8.5887995060802969e-02 1.4116738055895484e-01
      3.8935690017174757e-01 1.7002973493392776e-02
      -6.9392222498882139e-01 -3.4371393344446199e-01
      -3.4370268475002891e-01 -3.6366906490135475e-01
      -3.8812771636330595e-01 8.2654854810889211e-01
      -3.6777526811934892e-02 3.8412796360553525e-01
      1.5114979769694228e-01 2.4130748579855807e-01
      5.6010819232189846e-01 -7.2989736216516266e-01
      -3.9385681773473378e+00 2.4336814442038468e-01
      5.2700232263766161e-02 -2.8941816855702435e-02
      8.8364677030191255e-02 3.7207626067590566e-01
      -1.4722005857849826e-01 -2.4546639365611092e-01
      4.7870977373446894e-02 5.5904632977327437e-02
      3.0777042923983089e-01 3.9160334376074246e-01
      4.4198875436961615e-01 -2.2857767215114985e-01
      -3.9979565056920505e-02 -2.7850878219694136e-01
      -4.6145596958044738e-01 2.5177938829537599e-01
      -1.7461303265725728e-01 6.3850324422189730e-01
      -8.9771984919864226e-02 -1.9534725854085674e-01
      -2.5151518842812232e-01 -4.5681845134359245e-01
      -6.7692365365350216e-01 4.9134833148845819e-01
      -3.3841336249598358e-01 3.2523446139568160e-02
      3.0415916976263863e-01 -7.7210898359163241e-02
      2.8078998424684165e-01 -3.5218896644172548e-01
      -3.0396650363167508e+00 6.2869168019744445e-02
      -7.9116833713143611e-02 1.6178914951570037e-03
      -7.9452108140440153e-02 -2.4738199892964882e-01
      -2.4071187262370122e-01 1.5424042774674124e-01
      -1.1894381788883926e-01 -4.3294065654576308e-01
      3.3250173487791329e-01 -1.4300982604351647e-01
      -1.2999619003851490e-01 -2.8705520878452168e-01
      -7.1314391861321558e-01 4.6402610671148148e-01
      -2.6146891253331772e-01 -2.6091397067554662e-02
      2.2409219121370938e-01 9.4951757275559090e-01
      1.9031475009069998e-01 -4.8092299669537675e-01
      1.1202685951144171e-01 -1.5280093517462237e-01
      2.0820208251230773e-01 2.6077626082119298e-01
      1.9481926167622704e-01 -1.8201756267928185e-01
      -2.6493579378120596e-01 -4.4759161907737099e-02
      -1.4882870400740308e-02 2.3238490255154329e-01
      -1.5351922615277009e+00 -2.4582825074408735e-01
      -1.6421666204106858e-01 1.9509527635984536e-01
      5.1986659447373067e-02 -4.7355999891964806e-01
      2.1593693208782974e-02 1.7506383633013081e-01
      -1.1638979400892653e-02 -1.2198790254930597e-01
      3.1070944465765665e-01 -2.1268160954022108e-01
      -5.5951557396458285e-01 -2.7846751303748002e-01
      -6.6774582043358033e-01 2.4347991855116627e-01
      -1.5200177196360753e-01 -1.2880945483833567e-01
      2.5232885009083228e-01 7.1722445105476185e-01
      -2.0788998838257722e-01 -4.3622900463000347e-01
      1.2932980777156888e-01 2.9238337188681357e-01
      -1.2952759185226677e-02 -4.3627919090046707e-01
      2.5857332931000276e-01 1.1472137893322160e-01
      -2.3366810295260987e-01 -2.7458506015728845e-01
      -2.6516112384200519e-01 2.4512065691279955e-01
      2.3170043360707235e+00 5.8976930646183578e-01
      -1.9937744503875929e-01 -3.1668252508011252e-01
      -1.1725946163389081e-01 -3.6518755935164959e-01
      1.6079918679949803e-01 4.4294250217600861e-01
      5.9123658347880990e-02 -5.4389877263599662e-01
      8.2179627519537979e-01 -8.3634935165574187e-01
      -9.7871570176111033e-01 -1.9151535840538519e-01
      -1.8050361738060275e-01 2.9655026758025442e-02
      -6.5882900522920673e-01 -3.0362022205209838e-01
      -3.6895767381993411e-01 1.4010469441498263e+00
      5.6215540060264135e-01 -7.4892759571911105e-01
      6.1538347041650510e-01 2.3323467387750524e-01
      -2.4277796806902535e-01 -9.1899254106719319e-01
      1.0394906541994844e-01 -5.3828222538632919e-01
      -8.7936330627474535e-01 -4.2179745145660485e-01
      -5.0012187579273060e-01 1.4530768890889256e+00
      3.2836788391991791e+00 3.5996794974277449e-02
      1.9209742306184246e-01 -1.6867078581174005e-01
      -1.4260484160981401e-01 -5.2347552190152957e-01
      2.1201830801605778e-01 -3.1905945931258228e-01
      4.1223371677224979e-01 -3.2662462373135887e-01
      6.7393828534642752e-01 3.2734682613822719e-01
      -2.9947712498726692e-01 3.7065632091097173e-02
      -7.7741832255590126e-01 5.4387821895153310e-01
      5.9683108149717170e-03 -3.0689806316269552e-01
      -4.0462191845698758e-01 4.9009708406495306e-01
      3.6193169381199775e-01 -5.2717351055302220e-01
      1.6636093823084463e-01 -5.2567661803930334e-03
      3.8427448628546879e-01 7.4674392961617708e-02
      2.4189819240172269e-01 -2.7012883357456940e-01
      -4.5148062305712161e-01 5.6616703774415265e-02
      -2.7329237438542566e-02 1.9912162596929239e-01
      3.2799195761384579e+00 -6.9803199685063448e-04
      -1.5367336927834807e-01 1.2645135276004538e-01
      -1.4630690384042973e-02 -5.6636002985912548e-01
      4.2483979492112445e-01 1.1418642986534332e-01
      -3.9702563706878441e-02 -1.2998203088600951e-01
      -2.6855049405627257e-01 -1.6493207833533374e-01
      -4.9470674743215294e-02 6.7558091133740009e-03
      -5.0493105107180813e-01 2.4282685017609082e-01
      1.9848073409796949e-01 -1.1691624971519352e-01
      -4.5904955307116047e-01 2.0091462666148741e-01
      2.0205089179552199e-03 -2.4309419300737869e-01
      -3.4724474904948283e-01 3.3119431256014559e-01
      5.5164917121699530e-01 -7.2906830984523871e-02
      5.2618797095431891e-01 1.0980674958535504e-01
      -1.7270978744297585e-01 7.0287079131742314e-02
      -4.6293741391699506e-02 1.7620047149223722e-01
      3.2096335491789278e+00 -7.0291368553595607e-02
      -4.5949355154314142e-01 1.3412419965450070e-01
      -8.7895401315208500e-03 -9.8698407136098135e-02
      6.6166764251650600e-01 3.8443092996110684e-01
      1.4644621234554629e-02 -1.4141680169437662e-01
      -2.9057637064864694e-01 -1.6881498356418673e-01
      -6.6644906987268188e-02 -1.8002899521302418e-01
      3.1565064983586655e-01 -1.7024284645038490e-01
      -2.4719831800539144e-01 -1.3265160222157940e-01
      -6.7730496772045201e-01 1.6127341841372927e-01
      4.2263382517384895e-01 -7.8192232143067378e-02
      8.7973319262865335e-02 2.0995431214787574e-01
      1.9651578745088077e-01 -4.7719111377028306e-01
      1.6566666591304549e-01 -2.0815738536020936e-01
      -3.0388800621773998e-01 -1.7378561406132351e-01
      -2.7068774823590669e-01 6.2087155959106843e-01
      2.8106378903225377e+00 3.5826519516471728e-01
      1.0699369512206935e-01 1.8288681592363662e-01
      3.3046720031594843e-04 -4.2417205185426243e-01
      1.2443122868634306e+00 3.7069232117450679e-01
      -3.9540222904586628e-02 -3.1749277851416996e-01
      -3.1884753464581062e-01 -3.7775332622069541e-01
      -2.9187284693409377e-01 -5.5446404714567819e-02
      2.5776654052559417e-01 1.1653313322952656e-01
      8.5389100084710040e-02 -2.0950312128936510e-01
      -5.5059046599204808e-01 1.7500073792362922e-01
      1.8410601390612846e-01 -1.9149662679630186e-01
      1.7808623363574522e-01 1.5157698775208872e-01
      1.6317592174068457e-01 -3.2655371029654062e-01
      1.2689950668157107e-01 -8.7248059753533100e-02
      -3.3526821167476567e-01 -1.8279392996921301e-01
      -2.1541905086743914e-02 6.0481349444634935e-01
      2.2667987269664303e+00 6.9684886637337495e-01
      -2.9679105626859853e-02 4.6048940650664429e-02
      -7.8060582054946051e-02 -6.3813474978040197e-01
      5.5772567382011218e-01 6.1910204013512563e-02
      8.3968085895668038e-02 -3.6178210656117471e-01
      1.8195780197161737e-01 -5.3016815893940594e-01
      -2.3841559413649568e-01 -1.5903786138086831e-01
      -3.7211809805659379e-01 4.2299182389097878e-01
      1.8251380102677051e-01 -4.7358860649629592e-01
      -7.9249481009488010e-01 -4.2213590108518856e-01
      5.9426239822847504e-01 -3.7230511209436590e-01
      1.3259887629144464e-02 9.3801365436892256e-02
      2.9044666144927606e-01 -1.2827187507598911e-01
      5.0759683194653682e-01 -1.9070293186689324e-01
      -1.7794572329158515e-01 -8.9103915344472082e-02
      1.4683437344801908e-01 5.3835577308771165e-01
      -4.1998522273182604e-01 6.0580231082127078e-01
      -8.1851467504935815e-01 -2.7857128528006697e-01
      -9.9113232912370355e-02 -4.7358496845611575e-01
      8.0025159091371922e-01 -8.5798571481536367e-03
      2.7288712998296066e-01 -6.6928531230969190e-01
      -3.0078271762955661e-02 -2.0780679254879125e-01
      -2.9508750433399944e-01 -1.2749908596630116e-01
      -3.4720900950030420e-01 6.5442015839067180e-01
      -5.7084721537275250e-02 -8.7127797343433167e-01
      -8.0018029299548166e-01 3.9344605687179268e-01
      9.1265793229199665e-01 -4.0426271022042676e-01
      5.9964501282177485e-01 4.2461935957266977e-01
      1.4721021382733235e+00 -7.3179293965337636e-02
      2.7453039397354478e-01 -5.3373382128756908e-01
      -7.3902918385249494e-01 -3.0168994658740056e-01
      -2.5069138718784439e-01 1.2807239920882159e+00
      -1.8701170143822798e+00 7.6385733655771082e-01
      -1.5954864641669272e-01 -9.6265703651002885e-02
      1.9506605919178335e-01 -5.1907136775626594e-01
      1.3396015438585360e+00 1.8063378081193340e-01
      -1.7715046859896773e-02 -4.3411482639591514e-01
      -7.6688663848736616e-01 -9.2377458794695200e-01
      -4.4631461926400950e-01 1.8312557769747320e-01
      5.5478894236705789e-01 -5.0466276244512664e-02
      2.7553651287052150e-01 -2.5502743783541870e-01
      -1.1562889469851838e+00 -5.2909048966499972e-01
      4.4219257888057545e-01 8.4750377568570887e-02
      7.7510716097782706e-01 3.0579004774588037e-01
      4.6602276966007250e-01 -5.1823657132843548e-01
      6.0297948938839929e-01 -2.5016347673313777e-01
      -1.1788830509950556e-01 -2.1013912065873194e-01
      -5.6311280931302021e-01 7.0630768109974817e-01
      -2.2576434249939856e+00 3.6077015293943737e-01
      -3.6612881863072722e-01 5.2293638647488559e-02
      3.7459149986840640e-01 -7.0390094384486776e-02
      7.7602240132713307e-01 4.6172636041834669e-01
      1.3334939169961491e-01 -4.7945366018504165e-01
      -8.3239140507282605e-01 -5.4072396315420135e-01
      -5.8777072041182002e-02 2.7103821532667599e-01
      2.9743032633837141e-01 -6.7067157809687472e-01
      1.4309491475658320e-01 -1.1819220762951356e-01
      -1.6967089907198130e-01 -5.2831075401245797e-01
      2.8777725905841506e-01 3.3237210060140569e-02
      6.4523591959092985e-01 2.8061156395000236e-01
      -4.3118714737100317e-01 -5.2786284032230224e-01
      8.1206649126203012e-02 -7.0381463343715234e-01
      -1.4339821622184772e-03 -1.8994778620076924e-01
      -1.0411369696121415e+00 2.1600593784063951e+00
      -2.6562078128644937e+00 1.1485619508565839e+00
      -2.9017297381044521e-01 1.2258233628056200e-01
      1.0403771055093172e-01 3.3293646906841456e-01
      5.2246777948869993e-01 -3.9191859050254949e-02
      4.3288473628091700e-01 -2.7064916752578699e-01
      2.2729871276327077e-01 -2.8226473765489069e-01
      -3.9361606446067443e-01 -2.2015595652937911e-01
      4.2615304456826580e-01 -2.2127932640233411e-01
      8.0547931580845666e-02 -7.3601523792121912e-02
      -4.2988139482051435e-01 -3.0744143173732037e-02
      4.6451694057214654e-01 -1.7641337235244711e-01
      3.8065528645224078e-01 -1.2689031605730405e-01
      -1.7663448729686801e-01 1.1690378304479879e-01
      -1.9657477144607277e-01 -4.0343091743357579e-01
      -2.4075576484986937e-02 -3.3856537511390516e-01
      -6.3272860732050129e-02 1.3038814895364514e-01
      -4.0278840704240944e+00 9.7246161526374733e-02
      7.5880896300423073e-01 5.4964338973219527e-02
      2.5476727875650823e-01 -4.9585355899850997e-01
      1.2469584885617777e-01 -8.4974498989549799e-02
      -4.5221636644451596e-01 -4.6356393392667734e-02
      -1.1662089101203246e+00 -5.0380584883593560e-01
      6.9948918612827871e-02 4.3047330800283101e-01
      4.1444019676290528e-01 -3.5297074837187326e-01
      5.6900059565271122e-01 2.0602195267339654e-01
      -1.3640754222749707e-01 -6.3615230628890662e-01
      -2.9352577799438340e-01 2.2392674472246341e-01
      2.4410876790277533e-01 -9.4741600418337110e-02
      -1.1909859027935914e-01 1.4651127142904025e-01
      1.7730808304044718e-01 -1.4480639177602417e-01
      2.0380104130392757e-01 1.9153637503548757e-01
      -4.3144976108914546e-02 5.9301346384091258e-01
      -2.5932822652334679e+00 1.4933304227459226e-01
      2.5254949485679706e-01 -3.0452747425513071e-01
      -4.1361955580661247e-02 -5.6811156972761034e-01
      -1.1171894708535313e-01 8.4064520164922232e-02
      -6.9562045380516219e-02 -5.2627767286879434e-01
      -9.0341298289500060e-01 -2.4733429269917695e-01
      -5.2076422266888744e-02 -4.3837637136973848e-02
      -2.3706554842932928e-01 -5.0380250888303772e-02
      9.3535987025564926e-02 -2.7778489341850243e-01
      -1.0425298876502588e-01 9.5893518340281347e-01
      -4.9758622088138749e-01 2.6955336590966945e-02
      -3.6600365137511470e-01 -1.4164298093261030e-01
      -1.8542497960371371e-01 1.7569162835827867e-01
      2.8842266986548470e-01 -1.7543099171674076e-01
      -9.5521537619777733e-02 1.6298419285149378e-02
      -1.6803511118020095e-01 5.7177251282461472e-01
      -3.2952122146749874e+00 -8.7844028836806853e-01
      2.5042086789286283e-01 1.5388341802585612e-02
      4.6318369517669634e-02 2.0942217689151152e-01
      -6.9952865708251877e-01 -1.4471242918453361e-01
      -4.3806349899365195e-02 3.9354772844201902e-03
      4.0116170238508880e-01 2.3285178585769031e-01
      3.9410903917123563e-01 1.1247035767255759e-01
      -5.1568970770090383e-01 4.3001782060578288e-02
      -1.6979602795452084e-01 -5.8302763544478546e-02
      5.5161282695720415e-01 4.3941807219926171e-01
      -7.1415434844943093e-01 -2.3585389328889575e-01
      -4.6262918988767548e-01 -5.5729241169944099e-01
      -2.3892124813541138e-01 5.3717067080022796e-01
      -9.5210569439866916e-02 4.1496871241020089e-01
      4.2091043666172070e-02 9.6184156617593344e-02
      1.1023729254809722e-01 -3.4479047781623462e-01
      -2.8860103306512204e+00 -3.4636197648318469e-02
      -1.4377276074721673e-02 2.9159314558263462e-02
      6.9458677838703298e-02 1.9205724504111726e-01
      -1.3190317537822563e-01 6.0468831066774094e-02
      1.7984143758254062e-01 -1.3270463054897111e-01
      6.3151140818730056e-01 2.5755202308853220e-01
      2.1859539107253309e-01 -3.2683174066417370e-03
      -9.5384359659453619e-02 -7.9224787504238448e-02
      -4.0969281144568159e-01 -8.9213242610640620e-02
      1.8599252972909058e-01 9.1159590227106879e-01
      4.6863725208470947e-01 -4.2148987663906140e-01
      8.0663415702261557e-03 -3.5283924885874240e-01
      -5.8378063346877107e-01 2.9315386281323474e-01
      -3.6773505130143097e-01 -2.5297232819708387e-02
      -1.7867436280542875e-01 -6.5036653242168077e-02
      8.9384209472988585e-02 -9.4631648304623426e-03
      -3.3560002761723355e+00 2.3687253131287572e-01
      4.4595078447429148e-01 -1.6710958131466896e-01
      -1.0645098890877093e-01 -1.9753503571134822e-02
      -5.9381129772541730e-01 -3.0549427450824920e-02
      1.0849693616717125e-01 4.5575500442887731e-02
      1.8211093615667867e-01 5.5484471746114794e-01
      -3.6825823371314188e-02 -9.2561374595527962e-03
      -4.2053903978701301e-01 7.3828632037554826e-02
      -3.0051157955294455e-01 7.0397863619734491e-02
      6.4972819921442937e-01 7.8357324368895354e-01
      2.6615484920503241e-01 -2.6705111617949839e-01
      -2.3211026551595301e-01 -5.6655041629060587e-01
      -1.9732026302264324e-01 6.3655764229442202e-01
      -9.1140096870128820e-02 3.0387818621375318e-01
      -1.7744392148824478e-01 -1.3199113480721117e-01
      2.5593482587607447e-01 -7.0792498312959717e-01
      -1.9800564648077865e+00 -4.9247262391614277e-01
      1.2459868210747077e-01 2.3027441619446562e-01
      1.2032986962167954e-02 1.1950433429061595e-02
      3.1450033242942504e-01 4.6343711341195061e-02
      -2.1751343593176528e-01 2.0875028668908130e-01
      -2.2096471981244370e-01 -9.6124709918608605e-03
      -8.3098387256532832e-02 2.3593236917360486e-02
      -3.3758597764636417e-01 -5.5293568151180181e-02
      1.2813188098005537e-01 1.1174110062857644e-01
      3.9123631444298451e-01 2.2349910426158203e-02
      -6.0873511144575065e-01 3.4530240228223819e-02
      -4.3034447300925410e-01 -5.0677082342379089e-02
      -1.0498506301172321e-01 3.2890930661434392e-01
      -1.3165997178249421e-02 3.5566691100747716e-01
      7.3021955864279273e-02 5.2448816222602251e-02
      6.1601684541423125e-02 -8.8257268292863000e-01
      1.4978037570470704e+00 1.0611402387224368e-01
      -1.5998009560147305e-01 -3.4340359088906441e-01
      -9.5137357949139051e-02 -2.7798085943992368e-01
      1.6533508269512498e-01 2.3531073435648781e-01
      9.7273154211659343e-02 -3.2669131396866197e-01
      9.8878441202293402e-03 -1.8922265043278946e-01
      -3.6199144491451835e-01 -1.1686045335799945e-01
      -2.1055166433578518e-01 -8.7164517785633042e-02
      -1.7291299184498390e-01 -2.0283471591719476e-01
      -7.3439239054697934e-03 6.0160008070684790e-01
      3.2364990412940425e-01 -7.3401392891436101e-02
      1.0228062675201655e-01 2.1438543482954459e-01
      -1.0425551729604447e-01 -4.5123238425757611e-01
      1.1527918009035140e-01 -3.1816286550981582e-01
      -5.5055362115751438e-01 -1.9915713515517591e-01
      -2.3425658294944041e-01 9.9994604478501281e-01
      3.4292220287182054e+00 -1.8502218408287077e-01
      -4.1959620325472169e-01 -6.9915736296078862e-02
      -1.1711710616809788e-01 -5.6038185359215253e-01
      1.4145237268978708e-01 -1.9897366328005472e-01
      2.0968774723076741e-01 -8.5767992712196095e-02
      7.3739977975763182e-01 -2.4123543862171815e-01
      -2.9637102405706001e-01 -3.3769116439054275e-01
      -6.5316960524812273e-01 8.0590031138163742e-01
      -1.6033089318876322e-02 -1.8369345934068704e-01
      -4.3200690307787271e-01 2.2455191146675724e-01
      6.4248903191873097e-01 -9.5388483674993127e-02
      3.1089751498572615e-01 3.3632849669632475e-01
      1.1968134654172904e+00 -4.4374857996490613e-01
      4.4375149689292737e-01 1.9533201744090456e-01
      -2.4567249966280477e-01 -1.4106887064699888e-01
      -7.8412055417617532e-02 -2.7516092232921607e-01
      2.8966255805706256e+00 -2.4629204346163211e-02
      -9.5122205811249402e-02 6.2475937761266365e-02
      7.5040007862268530e-03 -3.7478158204935352e-01
      -5.0163538922444062e-01 -1.0866793737432634e-01
      5.0567369313791665e-03 2.2071915328856107e-01
      -2.6214868390190038e-01 -5.4653313166261779e-03
      2.0302519047778214e-01 -3.0780982499196829e-01
      -2.5286228854147891e-01 4.5430383209866237e-01
      2.1389335772833690e-01 1.9410040182205910e-02
      -1.5454171289614096e-01 -1.1270458013756670e-04
      -5.8642231378590697e-02 1.5068451103175315e-01
      -4.1672474943884252e-01 -1.2974943540701619e-01
      5.6897279887062524e-01 2.1933964343697740e-01
      1.9918860828276436e-01 1.9554879388650004e-01
      2.8936607341221384e-02 1.4802011213781852e-01
      1.9942081671716583e-01 -2.4153654596206839e-01
      2.6547402265017821e+00 -2.9652024770418173e-01
      -4.1156569272159244e-01 9.2278634566127490e-02
      9.1905403416950131e-03 -2.0261976803936035e-01
      1.6128302275453835e-01 -2.2572458992430697e-02
      -7.4987469195774162e-02 4.3906125862887432e-02
      -2.6334222060824120e-01 -2.9235634883271755e-01
      -1.3995798434426124e-01 -2.7624166086132718e-01
      -8.2991347202333463e-02 1.8869658643345014e-01
      -3.8862029826527145e-02 2.9021434686900990e-02
      -4.5970931615043448e-01 7.5405815769598705e-02
      -2.1596682788796057e-01 -2.5481722699790217e-02
      8.8640826194716943e-02 2.9081664047374395e-01
      4.4340459521882569e-01 -5.8097143630959650e-02
      2.3830017198404901e-01 1.1931119496999694e-01
      1.6729893709829272e-01 4.0475958832333840e-02
      -6.7432526636507534e-02 1.1102137388239489e-01
      2.8704451599142167e+00 -1.4462693448099750e-01
      2.0112164397400760e-02 1.0644624941695205e-01
      -6.8322359783042103e-02 2.7437848675255581e-02
      3.3955294391082358e-02 -2.0117374300208921e-01
      -1.1794325778033103e-01 2.0800691883095698e-01
      -3.4871585712760877e-01 9.4170757058731153e-02
      1.5082430479295703e-01 -1.6668036849122079e-02
      1.8412060334205782e-01 2.8879424440992835e-01
      6.8493235755352114e-02 1.0083523787465080e-01
      -4.5767956894331951e-01 -1.5173127347469700e-02
      -1.4336141209587441e-01 2.2415509600630129e-01
      -1.0409673902161559e-01 4.9474132029344337e-01
      5.9857608655084098e-02 1.0899125245622812e-01
      8.4593244918053589e-02 1.6533072028575641e-01
      9.9587544531304265e-02 4.2463069876444173e-02
      8.0065562763757731e-02 -2.9907115020479036e-01
      2.3104891030604047e+00 6.3553947555866797e-01
      -2.1207477678187442e-01 -6.8859805170910546e-02
      -1.0632430827344110e-01 -3.8762815457359996e-02
      2.1608844146964087e-01 2.0408724186837904e-01
      1.3018480055414994e-01 -1.9388298281704847e-01
      3.5935846380172276e-01 -4.1502734705777700e-01
      -4.8272256448303358e-01 1.7399839279144107e-02
      -1.5081783604888896e-01 3.6777202746335164e-01
      -1.8728941914413953e-02 -3.7626385452504130e-01
      -4.1814160976252018e-01 5.2716236374442582e-01
      4.8260468905038956e-01 -4.1564448522781000e-01
      1.7353486402397084e-01 2.7155541741992911e-01
      -4.7939607006843091e-02 -5.4268572467634146e-01
      -2.0916832185498720e-02 -2.5224084381811296e-01
      -3.4178778842281132e-01 -1.6586736794570386e-01
      -2.0766504509261943e-01 5.4192135551440535e-01
      -9.8624234048992876e-01 -3.8359992027906790e-02
      -2.1477909449862918e-02 -3.2732004004766835e-01
      5.8509708474276612e-02 -1.5417792851383177e-02
      -6.2249075915534025e-01 -2.0705762827613575e-01
      -1.8664323857337836e-01 2.4023725578234595e-01
      -7.2045439108519826e-01 -3.1914773603613783e-01
      2.9561012980835294e-01 -2.9524810298364484e-01
      -6.3762315698008831e-03 5.5579292648693401e-01
      3.3295400975656070e-01 -2.2872967371983219e-01
      -5.6468574750746425e-01 -1.4858392383270777e-01
      1.8760146214744472e-01 3.4301421471981453e-01
      -3.7785323354325573e-01 6.1219314792998092e-01
      6.4348796061759939e-01 1.4621079734452525e-01
      3.1198040077325329e-01 1.2886233411319800e-01
      1.7235057524754499e-01 2.4589603692096923e-01
      8.2886688176583609e-02 1.0349686773432737e-01
      -2.3191386186550167e+00 -1.6475857926059498e-01
      7.4895495962006134e-02 -3.2641390139984995e-02
      2.6154944639823458e-01 -4.7104419223328774e-02
      1.5986390019171673e-01 -5.0013461415943851e-02
      -1.6975622524551598e-01 3.0030928366356030e-01
      -5.4873212506497870e-01 -2.7982425772332436e-02
      8.9281154475873495e-02 5.7056490798361142e-02
      4.9272614499668327e-01 -1.7098304838951606e-01
      1.2794354214479298e-01 3.5994003317216278e-02
      -8.4139107163770627e-02 -3.6971568318451403e-01
      3.7783342394343583e-02 3.8333055263935234e-01
      7.2973320569409434e-03 6.1332324612408862e-01
      -6.7304006658742699e-02 -1.3487177656290228e-03
      2.2316167103992654e-01 2.0642919545779517e-01
      1.3708882727664912e-01 2.9574394622981937e-02
      1.3133776652930125e-02 -3.9719026908725352e-01
      -3.3016975964103086e+00 3.1415542755557119e-01
      6.1472121888629550e-01 -8.5842904617631881e-03
      3.0179625314756368e-02 5.9802982325329790e-01
      -9.7790663678435835e-02 2.0333645751763227e-01
      -1.2386796897538147e-01 1.6614027258258854e-01
      -1.7766831542384795e-01 1.6449701141911405e-01
      1.6784535355955216e-01 2.1330250168113241e-01
      1.5041788252151589e-01 -3.1348734149160146e-01
      -1.0252599189986644e-01 -2.0041043987534302e-01
      -2.6733306143725771e-01 2.4255187032842261e-02
      3.7903802036725681e-01 -2.0278730433282569e-01
      -2.0879895811810101e-02 -1.2031230439511068e-01
      -4.3172992769134999e-01 2.3941215482874900e-01
      -4.3100293768542419e-01 -2.7496879638775967e-01
      -1.1104354946250427e-05 2.9732204613186108e-01
      -7.5984770736559366e-03 6.0793250257680391e-02
      -2.3127275838595973e+00 1.3253905108952821e+00
      5.4521755610563369e-02 2.6443267855068714e-01
      1.1396880948492498e-01 -7.1837727435153070e-02
      1.1754881794650759e-01 -6.0376640093820821e-02
      3.1352514823782790e-01 -2.1098712049811025e-01
      3.2143195429991389e-02 -6.6446844131385219e-01
      -3.2418289700363750e-01 5.6453774729504649e-02
      7.5382558767275828e-02 -9.3637105323217187e-02
      4.8077938913544241e-02 -1.5318770585668485e-02
      -6.2502326669507849e-02 -3.2573792903350485e-01
      8.7874913860922210e-01 -4.0225272658481193e-01
      5.1792666009985677e-01 -4.0667946600461807e-01
      -2.5123587109136231e-01 5.8093854062766147e-02
      -1.1596212069839186e-01 -4.3792171738191654e-01
      -9.7778218340287132e-02 -2.8120284689898306e-01
      1.1742014564630426e-02 5.7187620121377858e-01
      -2.0691783652972999e+00 5.9075863966891851e-01
      -4.7634094051995160e-02 1.2660496192160697e-01
      3.3037786036887673e-01 -3.1753464850191809e-01
      8.3654699624299900e-01 2.5834742061476018e-01
      1.4236198782595652e-01 -5.1446714554074624e-01
      -4.3435127944546864e-01 -8.1175617890866836e-01
      -4.9501887669707179e-01 4.9857554629147605e-01
      9.9882324162476513e-02 -1.5810064214594977e-01
      5.3633102673340899e-02 -1.6254411986806802e-01
      -1.1647430194294091e+00 2.5701944656008530e-01
      4.4365586093835713e-01 -3.0962192942477335e-01
      9.8223263572282860e-01 2.3181411370974234e-01
      5.7200189420408443e-02 -7.1718032626257189e-01
      3.7336416209969314e-01 -5.4922196867875750e-01
      -4.8389569960377898e-01 -1.9333968455667155e-01
      -7.2556543048810374e-01 1.4555096067365099e+00
      -3.1445279437811418e+00 1.0113233917004470e-01
      2.2358206623111648e-01 -3.6843268016213744e-02
      1.2168920327603860e-01 -4.9497252040949812e-02
      -1.6253385821924042e+00 -5.6949397447493655e-01
      -5.4257975066029795e-01 -3.0285061714139605e-01
      -2.0794652083400269e+00 -1.8783291654328707e-01
      1.1625382830444817e+00 -4.1871956568382968e-01
      -2.2421119902138775e-01 4.1385943442989459e-01
      8.5222727418000932e-01 4.3695070587203205e-01
      -4.7147152108761865e-02 -1.1289659321403478e+00
      2.4902968065240819e-01 1.0340704064086645e+00
      -1.9358649763944547e+00 -1.5923828288220843e-01
      7.4953388008590560e-01 1.4967202043835837e+00
      4.2645886493623386e-01 4.9578329116544784e-01
      1.4029564607516976e+00 2.5908261164169560e-01
      1.7168627248156601e-01 -6.0490467795959679e-01
      -3.1089247859653839e+00 -7.3948001359137550e-01
      -1.0553160626873975e-01 3.3767109298249352e-02
      6.9188925570426718e-03 -6.4117261707713347e-01
      -1.6965319163341500e-01 -1.6556410886144157e-01
      6.3812059952560479e-02 -1.3372215891212710e-01
      6.3861117932954392e-01 2.4320978563704704e-01
      2.0293202167574836e-01 -6.3081214800842522e-01
      -1.0417118201624465e+00 8.9550006331902032e-01
      -2.1986707656881718e-01 -2.4018987446667570e-01
      8.5749668819360580e-02 9.3118175545970916e-01
      -1.6891227607638576e-01 -4.7707450168891458e-01
      -2.5781138932082809e-01 -4.7714138125943761e-01
      4.8791544331043163e-01 4.1896303989371558e-01
      3.6578324934232798e-01 1.5819228499545571e-01
      -2.6257063346040604e-01 -1.9330959482189002e-02
      2.1906872494733132e-01 -3.2374180387501411e-01
      -3.0832320822412114e+00 2.1020154018326295e-02
      -1.1197208457510880e-02 -3.3974419940210387e-02
      1.1476606996689859e-01 7.8182695614213690e-02
      -2.0921536247568168e-02 -8.2961119993101698e-02
      2.7258205557461729e-01 3.2531847036707633e-02
      -7.9893107874944684e-03 3.4307543021057263e-01
      3.0085670843149204e-01 9.1488824428443166e-02
      -6.0168263725707584e-02 -7.9637963610810006e-02
      -1.7712770414222517e-01 5.3768494225833272e-03
      3.1698008137578254e-01 4.3026297228153482e-01
      1.1531133015219543e-01 -1.6123624501141404e-01
      -3.2149020271864021e-01 -1.4978118226174941e-01
      -4.3076525562156687e-01 3.5758723398158165e-01
      -3.8489715707951622e-02 4.0715414296343393e-02
      -1.2498066453034284e-01 2.3997511691015450e-01
      1.7156126497546098e-01 -6.1782856283530996e-01
      -3.8574298835195671e+00 -8.4546221700627075e-02
      1.1033810203490682e+00 -1.9167942529469953e-01
      -1.0685264583287793e-01 9.6306168368001641e-02
      -6.8528110463330261e-01 -4.0447624208375821e-01
      -8.2607079706197101e-02 4.0919301985600481e-01
      8.8141896129004957e-02 2.8662700480344466e-01
      2.8893466119922556e-01 1.2071763691169160e-01
      -3.4271245869697142e-01 1.4463025533889887e-01
      1.1082250924095821e-02 -5.3124511582230284e-02
      3.9569801524028431e-01 8.0480601643639038e-01
      -1.1198161402490986e-01 -2.5898851241671489e-01
      -4.2928658661401226e-01 -8.1925300902337228e-01
      -2.1407312157756675e-01 7.7109462244860072e-01
      -2.7297138045064656e-01 2.6931926846922344e-01
      -3.6657675145279267e-01 1.3848894943445988e-01
      4.0640178650068803e-01 -1.0731653888712147e+00
      -1.9199303481623926e+00 -4.2256488185585300e-01
      -4.0875040082756425e-01 -9.1155320746991064e-02
      1.1214545721921546e-01 8.0802488946371431e-02
      6.7126433525931184e-01 4.1716802132860796e-02
      -6.9900690937059279e-02 7.8651114227169039e-01
      -2.0329594879543328e-01 4.5363120125963630e-01
      -5.8005343379764207e-01 -2.9234663765661473e-01
      5.1836555563233820e-02 -1.7720516581839901e-01
      7.1892391002582740e-02 -6.5133355002692281e-02
      -4.2299897499089745e-01 -1.0969494398216922e-01
      -1.1673458249619773e+00 -1.3899865817835422e-01
      3.4035871003572221e-01 -6.2508955069901978e-02
      8.7152325721395918e-02 5.9730627255343138e-01
      1.7174297528264364e-02 6.5630215580040729e-01
      -1.1735185779109490e-01 2.4639919169420416e-01
      6.8534041476946406e-01 -1.8127284623429385e+00
      1.4116621234354243e+00 6.4321091229617350e-02
      1.4417939900555515e-01 -1.9773617690789022e-01
      -3.8449453250518177e-02 1.3898325293615832e-01
      -2.2531319677553827e-01 2.5385262406505621e-01
      -1.5726036074671747e-02 -2.9624332528413783e-01
      4.4177838863109470e-01 -1.0658245350344266e-01
      -3.5764466306652687e-01 4.1071112352170841e-02
      -1.1640980503210525e-01 -3.8039159258611357e-02
      -2.0855964837825566e-01 -1.0088496840468432e-01
      1.3088029346651855e-01 5.2085500692287523e-01
      4.5806550634453203e-01 -6.7802155820127861e-03
      4.1543087622580888e-01 -2.5746335416538907e-01
      3.2165460028295201e-01 -1.9041065136684426e-01
      -1.8355975868785401e-01 -5.1535418011792944e-01
      -5.3216600235647460e-01 -1.9938527680536580e-01
      -5.0012374540772464e-01 1.0694961207330949e+00
      3.1508023264655929e+00 -3.3651369405501491e-01
      -3.7850631702482840e-01 -5.2131660631204890e-02
      -9.2959878550110620e-02 1.7086109821564299e-01
      -1.9408992347434220e-01 -3.0842093539790055e-01
      2.9574741467585014e-02 -8.2681558304279132e-02
      3.2500901494105400e-01 -1.0399251156159176e-01
      -1.4972404386480359e-01 6.6221488212844584e-02
      2.0393784320441647e-02 3.7194895297264781e-02
      1.3991325691953793e-01 3.7102396266839928e-02
      -2.8028291587765358e-01 -5.1561705835816019e-01
      1.6539887014398449e-01 3.0763156251576496e-01
      7.9833587038486031e-02 2.9864638134583082e-01
      3.8568420339809756e-01 -7.8945031133660332e-02
      -6.6229108490642258e-02 2.2538005545673853e-01
      1.8035597057482355e-01 -7.9866695418330719e-02
      -7.6055188110752264e-02 -1.2126911214249683e-01
      2.8836796835382725e+00 4.9474005726319562e-02
      3.0439166604848331e-02 1.3687753403473280e-01
      1.8844829838939526e-02 -3.6408989712098237e-02
      -6.4774060884939322e-01 -3.7650097056871151e-01
      -8.7815721568489602e-02 3.5287933716985775e-01
      -2.5701434136682660e-01 -7.8014652139732438e-02
      2.8884924948739948e-01 2.6130081672608457e-01
      -2.0950412595420295e-01 3.4044281842530677e-01
      2.5135151619405727e-01 1.0733416431960509e-01
      1.1434924176770681e-01 -2.0267033240699162e-01
      -3.8361767207871939e-01 3.3433519540048828e-01
      -3.4120832973877180e-01 1.8644353847875958e-01
      3.9261869325313981e-01 3.0786845594944695e-01
      1.1804108492812097e-01 8.7383885114915141e-02
      1.9402363228969677e-01 3.3851553005432722e-01
      1.4536368547531794e-01 -2.9354529364412376e-02
      2.8702546175907449e+00 -1.3173953217373285e-01
      -1.0456629613945377e-01 1.0784917746097740e-01
      5.8748447465617189e-04 7.7522727561758958e-02
      -2.3948162954605881e-01 -7.5485373532077323e-03
      -1.2357448191539272e-01 4.8923402714576160e-02
      -3.3106732019853830e-01 7.5310575466513333e-02
      8.9059868751638668e-02 -5.1228678195376638e-02
      -2.1007827586577082e-02 2.9023796500002055e-02
      1.0750102256749164e-01 1.8897336495872549e-01
      -1.4107682868482791e-02 -1.5417437135315934e-01
      -3.5676968412634807e-01 6.5047419810218679e-02
      -1.8442048095691210e-01 6.8417276436296387e-02
      2.3476140443419063e-01 1.4307640679350592e-01
      7.9047807848317442e-02 1.2223451836823261e-01
      3.3053333347135094e-01 1.6796804541187829e-01
      2.0750340475904108e-01 -2.5786688695822491e-01
      2.4559862923836215e+00 -1.8866507444373298e-01
      5.3985546112912297e-01 4.6934089515662643e-02
      3.7073965951471659e-02 1.7583791793578926e-01
      -3.6516001639601298e-01 -2.9015851150876193e-01
      -1.7892600954196347e-01 3.5592886790169070e-01
      -2.3205724391368149e-01 2.5263733534072891e-01
      3.3440544933815897e-01 2.6446153803054717e-01
      3.4983324625614720e-01 -1.0011532044560392e-01
      9.4401954962059859e-02 2.5804823045268283e-01
      3.1542366384703679e-01 -1.8665424672186878e-01
      -5.2120641467399131e-01 1.8869189149577398e-01
      -2.2200183337481488e-01 9.7519729164563338e-03
      -2.9187398178606666e-01 5.2388044375431797e-01
      -8.7200428514938727e-02 1.3141454359160978e-01
      3.3990427390285372e-01 2.5657345952542632e-01
      2.9833327207887533e-01 -6.1074193858995818e-01
      2.6982302119408126e+00 -3.0559004839566178e-02
      -2.4938397056643113e-01 -1.4223839856434625e-01
      -1.1914601486741739e-02 9.8618208428511128e-02
      -1.3310971218378825e-01 -1.3614669564439413e-01
      -5.5665627452608550e-02 9.3158509738253500e-02
      1.5639366387159237e-01 7.7638427739377361e-02
      -1.5809762671764654e-01 -5.9356009106750950e-02
      4.2827629339097652e-02 8.7502331215380223e-03
      -7.1389267997772510e-02 -1.0942900578829168e-01
      2.4850513948056482e-01 1.3678329001533387e-01
      2.0660470831814413e-02 -1.7553115113149273e-01
      9.3554845562975858e-02 4.7383635027322740e-01
      2.3897592470386907e-03 6.2380769022327621e-02
      1.0109457719172991e-02 1.3751992160117776e-01
      -4.3532827620820173e-03 -1.9590293821158644e-01
      1.9023966521063487e-01 -2.6291085024468974e-01
      -8.2224347669817521e-01 -1.6083608426611137e-01
      3.3231249816042158e-01 -2.1632507213855962e-01
      -1.5644844273047204e-02 5.8734498536400459e-01
      -2.6079769050307533e-01 -1.0311053212306304e-01
      -1.3411111646813126e-01 2.3516742721333492e-01
      -7.4897143596795379e-01 4.5643409505039489e-01
      2.1207052522540182e-02 4.4556672665085395e-02
      4.6682513423266420e-01 -3.5171389110585360e-01
      5.5851107132937297e-02 -1.8764169336852239e-03
      -1.1073482342667110e-01 -2.7926055620388140e-01
      -3.4560201813694386e-01 3.7967799053617268e-01
      -3.1919552246859773e-01 -2.3763469738342435e-01
      -1.7116441994607670e-01 7.2287419917082721e-02
      -1.6326854587173273e-01 -5.6586368537992773e-02
      3.6582366624268409e-01 5.7686495303668456e-02
      6.4815334297940660e-02 2.5155044067764304e-01
      -3.0399022990772235e+00 -6.2378005580101348e-01
      1.4784830062459997e-01 7.2230313333316351e-02
      7.6418636224748833e-04 1.4295256889239866e-01
      -8.8140800731262056e-02 3.4902069685166355e-02
      -5.8293906100679062e-02 2.9276111114572728e-01
      -2.4542968964600001e-01 2.9812856478898897e-01
      9.5398628725291576e-02 3.9542171111889285e-01
      3.4601069379506982e-01 -5.6640146962378990e-01
      -7.6778563083399642e-02 9.9503360340469610e-02
      6.2607543784755748e-01 -2.1685698897390446e-01
      -2.9438810794647741e-01 4.5797992952094113e-01
      -1.4153787720653391e-01 -1.5917749005850024e-01
      -8.8760234457372333e-01 2.0015093902747655e-01
      -1.6257295713187309e-01 2.5990712386676817e-01
      3.0088220533802768e-01 6.4861651109301657e-02
      5.2517104680016913e-02 -3.6265919717356404e-01
      -3.3481790891113183e+00 4.6616079966652776e-02
      1.6087573800021315e-01 -1.1626868397001962e-01
      9.8978530894544177e-03 2.1586728734405172e-02
      1.9213099429927463e-01 1.2814032518940749e-01
      -2.9350362998496765e-01 -4.2343654139919099e-02
      -2.8716921147933883e-01 1.9013370378655475e-01
      -7.0733403119225744e-04 1.5404984799281998e-01
      4.0201619201919264e-01 -8.3848841099452870e-02
      1.8643045674068354e-02 3.6049906750848217e-04
      -1.6445756725258881e-01 -2.2860597330812363e-01
      -2.0341852471996685e-01 6.5393288264844973e-02
      -9.7609993482391300e-02 -2.1774020517102533e-01
      -2.9900921738684766e-01 1.3070029663989233e-01
      -1.5212175137113479e-01 -2.7624607199379828e-02
      9.7564969426702595e-03 1.4749943421563919e-02
      -7.8557752964590749e-02 -6.7675747511514285e-03
      -2.3713756315595007e+00 1.2770220723439865e+00
      4.5969084458457293e-01 1.6620281030072473e-01
      8.9016399713730779e-02 -1.9083657581827826e-01
      2.8565817260345328e-01 -1.6423709250841818e-02
      3.3011412329064976e-01 -4.0668123751032903e-01
      3.0255944466384355e-01 -6.0229698093423500e-01
      -5.3035925240587201e-01 7.2024329642682364e-02
      -6.5286092805141444e-02 -1.8925268807842249e-01
      1.1068050996573163e-01 -6.4286871925215414e-02
      -1.5720664231197942e-01 -1.2263081682121384e-01
      5.9423530020753301e-01 -4.9456577620643466e-01
      3.5327608769072655e-01 -3.5987865818066828e-01
      -5.5091495981105676e-01 -8.8685887259121562e-02
      1.4274362429757917e-02 -5.0632222264781845e-01
      -3.3755166007022636e-01 -3.4982885009877029e-01
      -3.9253737132523073e-02 8.5728210623166423e-01
      -1.3591782620833266e+00 6.8427421487387408e-01
      9.5777056991074826e-03 -8.4080650808668625e-02
      3.0585280900285738e-01 -5.3381894761480309e-01
      1.5130938301096080e+00 3.0800954211245102e-01
      2.2352026104715381e-01 -7.0179173470442135e-01
      -7.3917949761013002e-01 -8.9195041506166228e-01
      -6.6956994214029963e-01 1.1039674772369253e-01
      4.9043668298308224e-02 -1.6209609857685481e-01
      2.7062000943572195e-02 -1.2059755394634687e-01
      -1.1800667690714610e+00 1.7477419801544833e-01
      3.0629825280423717e-01 -2.5081000878314214e-01
      9.1480013570822805e-01 2.5786844790774976e-01
      -2.4056406550697867e-01 -9.2959864041537610e-01
      3.3270162428599753e-01 -4.0122588258192854e-01
      -5.5108845801001871e-01 -3.5532419271887167e-01
      -6.8020122337145095e-01 1.4467434733747444e+00
      1.8051302680183934e+00 -4.4960216933814723e-01
      -7.0082994629092243e-01 -1.4260872879797068e-01
      2.0148952805722284e-01 -7.5279562412719414e-01
      1.3814656271259633e+00 3.0839928570319652e-01
      -1.5065344250654616e-01 -3.3460240342723735e-01
      9.0920786753275751e-01 -3.0128172212714138e-01
      -7.6335433943795572e-01 -2.4132219801138946e-01
      -4.9202337692450893e-01 5.0191682211115496e-01
      -5.4342271492561245e-01 -2.6549669761967670e-01
      -1.1582068293944423e+00 1.1299759863470840e+00
      9.3557180349414160e-01 -7.3780637049607933e-01
      1.1464799118475992e+00 7.9597265117266502e-01
      1.5590468624203330e-01 -3.2354192612087124e-01
      4.6217749123938073e-01 -8.0990653621734007e-02
      -8.7726621681142036e-01 -5.0471982176129193e-01
      -3.7597004712569604e-01 3.5787200421685661e-01
      -3.0356959195559527e+00 -5.8543507888287653e-02
      -2.1332515049000306e-01 -6.3688552814781085e-02
      2.5618477149710356e-02 -4.3039761842648994e-01
      3.1220976551931564e-02 3.8444864156640890e-02
      7.0527930267938174e-02 -3.0428470026600620e-02
      5.6248861109794135e-01 1.8424967411673793e-01
      1.2695524031354188e-01 -6.3604436364482153e-01
      -7.2273308767381361e-01 7.4583791587548487e-01
      -2.7481294856145444e-01 -1.6912042575036293e-01
      -2.7623690416504931e-01 4.5370229788321242e-01
      2.4734343309462645e-01 -4.3169427807044153e-01
      -3.1785801114011752e-01 -1.9629235925145874e-01
      1.5237510226418086e-01 3.8961568482408737e-01
      3.7338432905072794e-01 3.8944356367800204e-01
      -1.4141737401947024e-01 4.6194001150575849e-02
      5.1546135222674971e-01 -1.2042287341890436e+00
      -3.0942538389489065e+00 -1.1403727403347796e-01
      2.9924460473549003e-01 -6.9915344518438213e-02
      1.9611353255974937e-02 1.8135601254374137e-01
      1.8406448512887552e-01 -5.4570940406752408e-02
      8.9074600995079467e-02 -2.4739437798139938e-01
      1.3060858855990012e-01 2.6681204156780747e-01
      2.0716408728056837e-01 -1.7783044697472137e-02
      -2.1940468081425674e-01 -2.3117990812198744e-02
      -2.6940817791545682e-02 -1.1522722336466389e-01
      1.8312888406966199e-01 2.9066211726066310e-01
      -2.4834689342702893e-01 -1.4336985307339858e-01
      -2.9520251536962866e-01 -2.9576511346298440e-01
      -4.0067737153559668e-01 1.9633216846136817e-01
      -1.7875024045318860e-01 -4.8987590331233857e-02
      -2.5205384579486123e-01 5.8787105565758890e-02
      4.2358966870460979e-02 -1.4830273950856140e-01
      -3.5934895637105568e+00 -8.1146674843061192e-02
      -1.8649121605809151e-02 -4.2542979744470272e-02
      -5.5350251780336139e-02 9.3581815986151964e-02
      1.7409821498301725e-01 1.5187084098029179e-02
      1.4194101338148918e-01 -1.2682253642944416e-01
      1.5559824593364727e-01 1.3879774159246713e-01
      -5.8755729707346382e-02 -1.1679392332920846e-01
      -1.6786000035109908e-01 1.9912306297245122e-01
      -1.6057379262009369e-01 -1.9146071310300131e-01
      4.4329483272276475e-02 7.6972945678737259e-01
      3.7107624805762879e-01 -4.4443250770272330e-01
      -8.7311759926714261e-04 -4.9362381520965876e-01
      -1.5260894549025528e-01 2.5587435281657700e-01
      -3.3846968732313226e-01 1.8843858515983817e-04
      -5.8074440348137002e-01 -1.7554404606316090e-01
      -3.8204038562327743e-02 1.5008121171217337e-01
      -2.6719713693207066e+00 -7.2336298300751123e-01
      -3.0680161437340003e-01 -1.0565799887907591e-01
      -1.9541826266021144e-02 1.8000307717478914e-01
      -1.9024177457269056e-04 -2.2550299335660021e-01
      4.9473701565828747e-02 -2.8219123219476377e-01
      -5.9064190151387319e-01 3.7934356661418450e-01
      1.4915993151578009e-02 -2.8003879473584409e-01
      6.9622990456146572e-01 5.2685771372103241e-01
      1.3837424715313787e-01 2.9589524657679322e-01
      -5.2623643451213875e-01 -8.2215441095658015e-01
      -8.8594877055131638e-02 3.8744597031323319e-01
      -2.4793328759575806e-01 2.2862106558265535e-01
      7.7869147672172312e-01 -1.5578048494790772e-01
      8.1301084170479779e-02 6.1479606919856111e-01
      4.1659907772599492e-01 1.5562912976667326e-01
      4.0808238565087553e-03 -1.4433090073599288e+00
      -4.2212618886542952e-01 3.8185488723220823e-01
