<?xml version="1.0"?>
<opencv_storage>
<OCR type_id="opencv-ml-ann-mlp">
  <layer_sizes type_id="opencv-matrix">
    <rows>1</rows>
    <cols>3</cols>
    <dt>i</dt>
    <data>
      256 32 2</data></layer_sizes>
  <activation_function>SIGMOID_SYM</activation_function>
  <f_param1>5.9999999999999998e-01</f_param1>
  <f_param2>1.</f_param2>
  <min_val>-9.4999999999999996e-01</min_val>
  <max_val>9.4999999999999996e-01</max_val>
  <min_val1>-9.7999999999999998e-01</min_val1>
  <max_val1>9.7999999999999998e-01</max_val1>
  <training_params>
    <train_method>BACKPROP</train_method>
    <dw_scale>1.0000000000000001e-01</dw_scale>
    <moment_scale>1.0000000000000001e-01</moment_scale>
    <term_criteria><epsilon>9.9999999747524271e-07</epsilon>
      <iterations>1000</iterations></term_criteria></training_params>
  <input_scale>
    6.6599131343685922e+00 -6.5062139149654579e+00
    3.5201146364766025e+00 -3.2084363306118586e+00
    3.1335184509531908e+00 -2.7728829631652379e+00
    3.0532557487873859e+00 -2.6801410589199062e+00
    2.8845462568985210e+00 -2.4815766341908780e+00
    2.7140641408731248e+00 -2.2743848053173950e+00
    2.5172485750014406e+00 -2.0229116006799299e+00
    2.3478807409958953e+00 -1.7888680032197652e+00
    2.2932172947699647e+00 -1.7076000824871760e+00
    2.3137575591588777e+00 -1.7385732961783249e+00
    2.4299528944651785e+00 -1.9050255522460835e+00
    2.5971168655292649e+00 -2.1269629253309983e+00
    2.7818823344172698e+00 -2.3577489716018967e+00
    2.9668798762695578e+00 -2.5791561651084041e+00
    3.1216470869034048e+00 -2.7592267034079536e+00
    3.5966235244812310e+00 -3.2929438889570690e+00
    3.5888013090692565e+00 -3.2843247160204152e+00
    2.6783073583147954e+00 -2.2298458686374638e+00
    2.3217149498979910e+00 -1.7504251785632263e+00
    2.1314979194204193e+00 -1.4342877570211499e+00
    2.0409361473039320e+00 -1.2238275812805848e+00
    2.0147367028006355e+00 -1.1289865877096559e+00
    2.0060801053619532e+00 -1.0810743226029578e+00
    2.0023734117792129e+00 -1.0499188313314687e+00
    2.0011750223305564e+00 -1.0348711442855552e+00
    2.0009640468117351e+00 -1.0315348680146823e+00
    2.0036573633299648e+00 -1.0623324617666965e+00
    2.0098565902585972e+00 -1.1043309024969064e+00
    2.0346371557186007e+00 -1.2042332344747440e+00
    2.1233119397472544e+00 -1.4181856297454425e+00
    2.3221946023635893e+00 -1.7511370818844583e+00
    2.6731393199258586e+00 -2.2233720370083572e+00
    3.2640530520862643e+00 -2.9217980491077462e+00
    2.3564237637472205e+00 -1.8012554105200078e+00
    2.0777427877892283e+00 -1.3203918603842435e+00
    2.0032788476155208e+00 -1.0589241104695746e+00
    2.0009611637595452e+00 -9.6947421610613604e-01
    2.0029894955936642e+00 -9.4679803980959887e-01
    2.0036124095681505e+00 -9.4167574707858104e-01
    2.0043776705676786e+00 -9.3598867238692107e-01
    2.0040596994719331e+00 -9.3828175359275945e-01
    2.0029869499726796e+00 -9.4682007706546334e-01
    2.0027427723512905e+00 -9.4898194972770211e-01
    2.0018626365488097e+00 -9.5776299768467388e-01
    2.0004329504649694e+00 -9.7940788742611640e-01
    2.0029640885025901e+00 -1.0559456555688771e+00
    2.0795171657647953e+00 -1.3245355318751342e+00
    2.3694667292019771e+00 -1.8200231765756325e+00
    3.1433310445302336e+00 -2.7841557341336012e+00
    2.1652288211226995e+00 -1.4974082894398824e+00
    2.0073148767240325e+00 -1.0892626577087607e+00
    2.0008739349429776e+00 -9.7087134751268067e-01
    2.0029767784042303e+00 -9.4690823065848995e-01
    2.0015261725932025e+00 -9.6168937526349729e-01
    2.0000812840138078e+00 -9.9102478566485641e-01
    2.0006185608255644e+00 -1.0251820864454397e+00
    2.0023125963843449e+00 -1.0492596599234920e+00
    2.0016997746595142e+00 -1.0420869697676287e+00
    2.0004157340038229e+00 -1.0205984827972627e+00
    2.0001783796774517e+00 -9.8673300654111751e-01
    2.0023620898043575e+00 -9.5256536151277671e-01
    2.0009453843119398e+00 -9.6972195639544123e-01
    2.0076713820802636e+00 -1.0915060657742395e+00
    2.1792652225598084e+00 -1.5224134190390548e+00
    2.8843456081684722e+00 -2.4813370821655165e+00
    2.0546708415844961e+00 -1.2627458428520741e+00
    2.0006910318726439e+00 -1.0266352716199765e+00
    2.0003222717343037e+00 -9.8220848427828500e-01
    2.0004969963696677e+00 -1.0225432984982650e+00
    2.0041854358771500e+00 -1.0668215009143136e+00
    2.0071122109542205e+00 -1.0879649725491480e+00
    2.0086963197950873e+00 -1.0977035362268264e+00
    2.0130699165736261e+00 -1.1210453170035526e+00
    2.0148457425353086e+00 -1.1294918745123965e+00
    2.0122698824807319e+00 -1.1170742038337080e+00
    2.0057885895507499e+00 -1.0790321072800484e+00
    2.0005042696073714e+00 -1.0227094983918406e+00
    2.0005732205647999e+00 -9.7634286975896101e-01
    2.0004805704400717e+00 -1.0221635189472580e+00
    2.0666231063685228e+00 -1.2935667470691690e+00
    2.6303906695516024e+00 -2.1694428215242443e+00
    2.0193054669474799e+00 -1.1489317419818250e+00
    2.0000054391434707e+00 -1.0023349182911636e+00
    2.0008480356415017e+00 -1.0295481561361453e+00
    2.0092649302991186e+00 -1.1009983825295142e+00
    2.0181510727392058e+00 -1.1441067849737756e+00
    2.0140799827138798e+00 -1.1259077506198527e+00
    2.0068271522191150e+00 -1.0861106420851470e+00
    2.0077701082443440e+00 -1.0921188452108239e+00
    2.0119334873272567e+00 -1.1153700770552766e+00
    2.0176003121741277e+00 -1.1417578746342931e+00
    2.0191279756285661e+00 -1.1481982025358939e+00
    2.0083459762997626e+00 -1.0956245607435859e+00
    2.0002286124712927e+00 -1.0152346745250824e+00
    2.0000023103616762e+00 -1.0015211430131603e+00
    2.0282446149024791e+00 -1.1827759598582548e+00
    2.4357557056239476e+00 -1.9130227760976897e+00
    2.0062895983507003e+00 -1.0825141138539685e+00
    2.0005621554650861e+00 -9.7656959381065889e-01
    2.0026008182324198e+00 -1.0523152039926882e+00
    2.0197963102223206e+00 -1.1509452525535580e+00
    2.0219438086328383e+00 -1.1595121053300388e+00
    2.0098612498590809e+00 -1.1043567830634871e+00
    2.0010555678146189e+00 -1.0330215736289148e+00
    2.0000143958337442e+00 -9.9621300688921277e-01
    2.0011623126977969e+00 -1.0346788166865060e+00
    2.0110862478753897e+00 -1.1109801861993986e+00
    2.0200575873121855e+00 -1.1520082429238721e+00
    2.0154793176769266e+00 -1.1323960665994062e+00
    2.0014473072249128e+00 -1.0387740267967462e+00
    2.0004897760243985e+00 -9.7811264920684726e-01
    2.0128287775485938e+00 -1.1198600671051235e+00
    2.3183370618986863e+00 -1.7454037082828586e+00
    2.0017267209999687e+00 -1.0424261610711911e+00
    2.0018406224764220e+00 -9.5800796512200526e-01
    2.0023824889532289e+00 -1.0500165249840718e+00
    2.0199904226217824e+00 -1.1517355614971791e+00
    2.0175125077848262e+00 -1.1413804589496148e+00
    2.0019335556798801e+00 -1.0449496192587469e+00
    2.0035677360289701e+00 -9.4202670765638952e-01
    2.0116830697862098e+00 -8.9759554967371002e-01
    2.0034957390460653e+00 -9.4259726433648372e-01
    2.0025747718074007e+00 -1.0520459238048812e+00
    2.0142202114896346e+00 -1.1265704133508887e+00
    2.0153327923680275e+00 -1.1317291464295156e+00
    2.0019396963825939e+00 -1.0450225097239256e+00
    2.0023170740190146e+00 -9.5300860214956173e-01
    2.0050798563160988e+00 -1.0738582816944768e+00
    2.3062786891809721e+00 -1.7273608593760044e+00
    2.0022130002852596e+00 -1.0481620484640057e+00
    2.0027233019537736e+00 -9.4915862379304794e-01
    2.0023170740190146e+00 -1.0493084718694528e+00
    2.0156738351674108e+00 -1.1332771521363585e+00
    2.0152860564704134e+00 -1.1315158353843859e+00
    2.0002087100239958e+00 -1.0145515316899574e+00
    2.0113250522287127e+00 -8.9909275352048956e-01
    2.0205991444607241e+00 -8.6640646729182635e-01
    2.0112850703376188e+00 -8.9926157568474563e-01
    2.0000261831766233e+00 -1.0051300582691778e+00
    2.0137463565439115e+00 -1.1243193239024944e+00
    2.0151753543371171e+00 -1.1310094223431073e+00
    2.0021392108471701e+00 -1.0473335752373827e+00
    2.0028785207235473e+00 -9.4776811174413678e-01
    2.0019767459478324e+00 -1.0454599687285966e+00
    2.3597282262020856e+00 -1.8060264925073035e+00
    2.0048887518500580e+00 -1.0724067002411981e+00
    2.0026725241330845e+00 -9.4962253343095393e-01
    2.0020204154209713e+00 -1.0459705896104368e+00
    2.0168981106110881e+00 -1.1387160777887675e+00
    2.0126534099359730e+00 -1.1189918598816733e+00
    2.0016997746595142e+00 -1.0420869697676287e+00
    2.0027014811622190e+00 -9.4935741733343926e-01
    2.0104573720594079e+00 -9.0283380716847783e-01
    2.0031468431134929e+00 -9.4545462997239260e-01
    2.0012281820770559e+00 -1.0356648996577229e+00
    2.0134605479783154e+00 -1.1229449226625712e+00
    2.0184587208468163e+00 -1.1454053566218627e+00
    2.0020058056791332e+00 -1.0458003524682979e+00
    2.0022437496432937e+00 -9.5374035683826808e-01
    2.0018009335318974e+00 -1.0433474262836089e+00
    2.5474069965453827e+00 -2.0625764928111607e+00
    2.0127808269085521e+00 -1.1196232015179313e+00
    2.0005743330136228e+00 -9.7632020011084264e-01
    2.0015134854145535e+00 -1.0396676418754855e+00
    2.0143046929062609e+00 -1.1269682425856820e+00
    2.0168735258097747e+00 -1.1386085908020489e+00
    2.0106309810885250e+00 -1.1085590643309686e+00
    2.0020540091018422e+00 -1.0463598165108010e+00
    2.0001994264406706e+00 -1.0142219079292656e+00
    2.0012054854361452e+00 -1.0353280754728413e+00
    2.0092243493242754e+00 -1.1007663294313896e+00
    2.0164584238742980e+00 -1.1367832620616176e+00
    2.0162047142823494e+00 -1.1356576881689000e+00
    2.0019746784028141e+00 -1.0454356602215822e+00
    2.0009975129164030e+00 -9.6891139071795940e-01
    2.0059821270830236e+00 -1.0803930889939062e+00
    2.7717145678902591e+00 -2.3453365236703942e+00
    2.0277239277972803e+00 -1.1809430275785426e+00
    2.0000032344547365e+00 -9.9820315751082545e-01
    2.0001510002721612e+00 -1.0123639488759322e+00
    2.0064913853197890e+00 -1.0838801756100029e+00
    2.0167876252358665e+00 -1.1382324868491940e+00
    2.0183815565186141e+00 -1.1450805384461060e+00
    2.0152335667615255e+00 -1.1312759203282401e+00
    2.0132862028220551e+00 -1.1221001653716705e+00
    2.0076304356748786e+00 -1.0912508602381545e+00
    2.0137132207127570e+00 -1.1241606333834528e+00
    2.0169719764587879e+00 -1.1390386153765235e+00
    2.0052746672912001e+00 -1.0753121079483681e+00
    2.0001716249449539e+00 -1.0131866639232101e+00
    2.0000193384359730e+00 -9.9561210972812608e-01
    2.0182021605826352e+00 -1.1443230838451197e+00
    3.0237308202212372e+00 -2.6457688532171950e+00
    2.0674514487380589e+00 -1.2956204994644376e+00
    2.0003564739782540e+00 -1.0190595967568512e+00
    2.0013722619834646e+00 -9.6363572263767272e-01
    2.0001655974543553e+00 -1.0129515325415124e+00
    2.0048204721951723e+00 -1.0718816793906289e+00
    2.0120984971106233e+00 -1.1162086354395313e+00
    2.0172194038653326e+00 -1.1401145719288068e+00
    2.0153503373512125e+00 -1.1318091509907298e+00
    2.0105343510140141e+00 -1.1080392249749218e+00
    2.0064013032412475e+00 -1.0832727904208590e+00
    2.0033351042355840e+00 -1.0594419838817595e+00
    2.0000006409660376e+00 -1.0008009240928504e+00
    2.0015352673966569e+00 -9.6157762657723023e-01
    2.0005479322578399e+00 -1.0236835221964726e+00
    2.0578817670600253e+00 -1.2712616251092743e+00
    3.2591238699793017e+00 -2.9162134417960646e+00
    2.1749372515408307e+00 -1.5147718109153376e+00
    2.0048366852287089e+00 -1.0720066577952059e+00
    2.0019213036075896e+00 -9.5711744868771509e-01
    2.0029136017430216e+00 -9.4745935637827050e-01
    2.0001590917039351e+00 -9.8746613903707992e-01
    2.0009597238559911e+00 -1.0314629883593447e+00
    2.0023734117792129e+00 -1.0499188313314687e+00
    2.0022702759525308e+00 -1.0487960705180839e+00
    2.0012233006425610e+00 -1.0355927131792955e+00
    2.0000002047698011e+00 -9.9954758739977534e-01
    2.0014900644780993e+00 -9.6213648977580379e-01
    2.0037767006156382e+00 -9.4040447858097498e-01
    2.0022525743385065e+00 -9.5365163223323490e-01
    2.0054939364835209e+00 -1.0769189462256465e+00
    2.1712583259185561e+00 -1.5082290676772780e+00
    3.2843676615274444e+00 -2.9447842046396908e+00
    2.3563033564330018e+00 -1.8010813507192303e+00
    2.0705835583286385e+00 -1.3033012342311536e+00
    2.0023036541741579e+00 -1.0491620434977176e+00
    2.0004724610948847e+00 -9.7849877670030705e-01
    2.0013999516813312e+00 -9.6327750067521378e-01
    2.0018706742476682e+00 -9.5767393281001756e-01
    2.0025937015864956e+00 -9.5035194517477140e-01
    2.0033485697264819e+00 -9.4378324102842281e-01
    2.0032975462598182e+00 -9.4420084268283422e-01
    2.0022880472026259e+00 -9.5329680850339782e-01
    2.0024811687614346e+00 -9.5141380632874895e-01
    2.0010540586684771e+00 -9.6805648224312213e-01
    2.0024881285362248e+00 -1.0511407197885805e+00
    2.0725997844759809e+00 -1.3081775607811617e+00
    2.3581936866069833e+00 -1.8038122712290858e+00
    3.4891507390651717e+00 -3.1741008922077700e+00
    2.6499747269916152e+00 -2.1942350344294557e+00
    2.3135047134000115e+00 -1.7381954018308401e+00
    2.1244904622765173e+00 -1.4205257512282747e+00
    2.0350063123508448e+00 -1.2054198207556186e+00
    2.0116881531091537e+00 -1.1141136768121251e+00
    2.0049805466166042e+00 -1.0731071840149762e+00
    2.0014331935721441e+00 -1.0385809214611244e+00
    2.0017190003383778e+00 -1.0423292370735711e+00
    2.0031625394328620e+00 -1.0578399565725805e+00
    2.0077247790414137e+00 -1.0918379377953475e+00
    2.0165616967429565e+00 -1.1372392493878825e+00
    2.0451990456802016e+00 -1.2363979889543408e+00
    2.1301810715105973e+00 -1.4317209345979329e+00
    2.3181177696985449e+00 -1.7450772280332030e+00
    2.6501872430984954e+00 -2.1945032522012791e+00</input_scale>
  <output_scale>
    5.2631578947368418e-01 4.9999999999999994e-01 5.2631578947368418e-01
    4.9999999999999994e-01</output_scale>
  <inv_output_scale>
    1.8999999999999999e+00 -9.4999999999999996e-01
    1.8999999999999999e+00 -9.4999999999999996e-01</inv_output_scale>
  <weights>
    <_>
      2.5348248337997830e+00 -1.6719493070945102e-01
      -8.2268262811447473e-02 -1.5578143754274909e-01
      7.4010609119843959e-02 2.9533761505484024e-01
      -2.3570297892595179e-02 -1.3074999772450144e-01
      1.4158124389129015e-01 1.4595248733419522e-01
      -2.9558546098159477e-01 -3.2867656900646808e-01
      1.1933195447322989e-01 -6.9652181258105295e-02
      2.2818157108951667e-01 3.8892032097864060e-01
      3.0710403927563718e-02 1.9317689319308631e-01
      -2.1700222997343438e-01 -4.8386795567296199e-02
      -4.9058391577647881e-01 3.1977343869668204e-02
      -1.1930820693744916e-01 -5.0671266426179834e-02
      -2.1023036105332776e-01 2.1780028791512815e-01
      -2.4212254300520625e-02 2.8366858721125604e-01
      9.9867378867389403e-02 1.7193538864058625e-02
      6.7030493081897694e-02 -4.8896756373341975e-02
      9.1868288204417681e-01 -7.6057897555719470e-02
      -2.2849431831765357e-01 -6.8605313529424186e-02
      7.9583213968152464e-03 1.7884464281503054e-01
      -3.9527670723846775e-01 -3.5219936612542663e-02
      -3.5583081853632010e-03 1.3488983473870120e-01
      -7.9513568912680443e-01 -4.0655640349790667e-01
      5.8907726516908607e-02 1.3295065400348935e-01
      4.1483687090673671e-01 2.2034035070137453e-01
      1.4109938632775967e-03 1.8314215534868483e-01
      -2.0445680579476791e-01 -2.7144362147972084e-01
      -3.6039192715453894e-01 2.9535227695028049e-01
      -9.6168099123521131e-02 1.5741049496534312e-01
      -3.9676723588863100e-01 2.9604357998863212e-01
      1.6775769518621361e-01 2.5800730171202663e-01
      3.0941781597271772e-01 3.7824001397530158e-02
      -1.3916510721919942e-01 9.6494314412559345e-02
      4.9816067338742021e-01 4.8619912929584057e-02
      -1.5623267667968208e-01 -4.1063242378429482e-02
      -1.0748731512274812e-02 2.1238492707383383e-01
      1.0207865167780031e-01 -6.5621524378034132e-02
      1.3231041443516017e-01 -9.6071381945906677e-03
      -2.1211001324347750e-01 3.7092750543875910e-02
      -5.1111483359458865e-02 -8.2136565101012707e-02
      5.0889820232586980e-02 -2.7246895568815620e-02
      -2.2796077085291697e-03 -1.1240024132431192e-02
      6.8494806450610055e-02 1.7542436056892480e-01
      -7.8969445631212373e-02 -2.4512104803340286e-02
      4.4374605748367366e-02 1.2383917346006276e-01
      -3.4370191826143298e-01 1.2149491093390896e-01
      1.3636314199240102e-01 -9.7594374726348420e-03
      -2.0273053430657428e-01 7.4433593590696984e-02
      -2.1091637735202315e-01 2.7198068866595126e-01
      -1.9075894148758149e-01 1.9714451301401742e-01
      3.4910345693915178e-02 -1.1459903185195439e-01
      4.5178178799400665e-03 2.8763346979006215e-02
      -5.7950732106453982e-02 -8.6460006506472128e-05
      -4.2616635595475093e-02 2.8748098929457906e-02
      1.9074008719015814e-01 1.9021034518606930e-01
      5.7764988046940142e-02 -2.1389177660955569e-01
      -5.0804342665237145e-02 1.5810034690680172e-01
      3.9182871942665273e-02 -1.3667261386115383e-02
      2.4354532343963642e-01 1.8377126947455116e-01
      1.4632458868643294e-01 1.3532637599240314e-02
      1.5772060519352440e-01 7.2221355866805170e-02
      -1.7539057881729542e-01 1.6788391738778971e-01
      9.3002920746131812e-02 1.8972728557966476e-01
      -2.7310995908449359e-01 1.4505297382882446e-01
      -1.0672945320992901e-01 4.4063797294946128e-01
      -8.5248583285806326e-02 1.7828949244651415e-01
      -5.4599556648605768e-04 -1.3928249845010832e-01
      -4.9707614464246139e-02 -2.2952566337691244e-01
      -1.7601104322946945e-01 -5.4302499687502288e-02
      2.5667083532078538e-02 1.5490245721240957e-02
      3.8148850487150837e-01 5.5855677629839950e-01
      2.3153282005610870e-02 -3.9743496598535050e-01
      -5.3566776501749913e-01 5.8434914632361978e-01
      2.4269615663890173e-02 -5.1240618197204157e-03
      2.1296308723645888e-01 1.0488295617244875e-01
      3.7736142725401700e-01 -2.0757600932124996e-03
      1.3660186499503854e-01 -2.7989434657868789e-01
      3.5366319869436491e-01 2.0687617288211865e-01
      1.7102125815873720e-01 1.8437381352843021e-01
      -4.1668903126639967e-01 9.0776506592839937e-02
      8.5894977284270882e-02 1.2697205063815811e-01
      -3.7338709988278235e-01 2.2549651363056263e-02
      6.0372654391572689e-02 -6.1227844825112329e-02
      -2.5491349144636660e-02 8.6371297625698930e-03
      -1.0362745779615899e-01 -6.3947674156255033e-02
      -9.2607688126491464e-02 5.3062560642011133e-02
      1.8910391280275590e-01 6.8801393992161314e-02
      7.8307600487023593e-02 -5.3829884244548730e-02
      -3.0317658192615637e-01 3.0694075310833102e-01
      6.7464422400163815e-02 3.5119154651638514e-02
      -1.1620583512592716e-01 -8.2139082829983071e-02
      -1.0358542190990156e-02 -8.8758687181232546e-02
      -4.5135998166512495e-02 -3.0473442772369858e-01
      1.5287112209155232e-01 1.0141741046648005e-01
      1.0666796196350305e-01 6.9117038636360761e-02
      -4.0796900862260975e-02 1.4520738647688498e-02
      1.5991748055177979e-01 3.3059152532569261e-02
      -6.6561322898620334e-01 1.5554122788447852e-01
      6.5633136729373126e-02 -4.8363596721847771e-02
      1.2011443005335484e-02 -2.4450801849854037e-01
      -2.3442053358311433e-02 -3.9634919695032245e-02
      -2.6391002666150898e-01 3.8727460413979141e-02
      2.4299973919435011e-01 2.7129839556762952e-01
      5.0706749776600925e-02 -1.5473281826731625e-01
      -4.1026912609680832e-01 2.3368428291491419e-01
      5.1496304901819279e-02 2.4654130776147896e-02
      5.6263364965576466e-03 -5.1453690703602915e-02
      2.2630773236312202e-01 8.4254520021751919e-02
      -5.3641584114418564e-02 -7.9571389440130369e-02
      1.5464508677227290e-01 1.1233923533584440e-01
      1.0606738630834162e-01 1.5844706235427072e-01
      -8.0327630781492548e-02 3.4610513178430311e-03
      1.5007598840711034e-01 1.8224549457743089e-01
      -3.2179417852769854e-01 7.7382654267147660e-02
      2.3848406349241333e-02 -2.7158824884362588e-02
      5.5472306951263761e-02 -9.6149717878383681e-02
      -4.4416923886297519e-02 -5.5131705336170216e-03
      -1.9781337693503109e-01 1.3611237175307432e-02
      -3.1347630290713489e-02 6.3859217298340556e-02
      -3.3295551847491445e-03 -1.9503059530186710e-02
      -6.6924987272768480e-02 -7.9470222399834547e-03
      5.1421205034763891e-02 1.1210014540026739e-02
      4.2594193667673204e-02 1.5012196926057196e-02
      1.0082148598824145e-01 4.3506664239885409e-03
      -4.7809699714384181e-02 -7.8009080851299373e-02
      -4.4469977772431238e-02 7.7213027528258052e-02
      5.0522281631939857e-02 1.4208714518661131e-01
      1.4531930880152226e-02 2.1102687939100719e-02
      5.8551644057820304e-02 1.5586401701247954e-02
      5.4935274318212934e-02 -1.7872357543663150e-01
      3.2680956678943780e-02 1.9238419655916144e-02
      1.1194851672887525e-01 2.9628246828347188e-01
      7.1288009098236557e-02 9.0586658992329906e-03
      4.9728762704605311e-04 1.0847382373412049e-02
      -4.4731340788639123e-01 -2.4257888340239905e-01
      2.6703742899448343e-03 2.4033838752140371e-01
      4.6267762322393907e-01 -4.6206684347480036e-02
      -2.5481765379988450e-02 4.2972296848930856e-02
      6.1675074172644569e-02 8.4016625327924498e-03
      -2.8662008215343882e-01 4.6524563312341317e-02
      -7.4424632233879129e-02 4.8861779173351334e-02
      1.3266973268229608e-03 1.6287395814918840e-02
      -2.9029248469542225e-02 7.8276642450188796e-02
      1.8376176100959951e-01 4.6721979880678915e-02
      -1.5728421161188468e-02 -9.9554154263168645e-02
      -1.6399153880575687e-01 -8.8863686276430209e-02
      8.2219286810735190e-02 -1.2353126036622958e-03
      8.8451279485680066e-03 7.8890982334814827e-02
      3.3449595069064496e-02 -1.4680430586649394e-02
      -5.8573718443679298e-02 -1.1589277160551550e-02
      -4.0811142425368825e-02 -1.1399027011174191e-01
      -1.6274725353855497e-02 9.6513157949960085e-02
      1.8054711121225706e-01 -1.4355249762981930e-02
      -2.8096847497696205e-02 3.8065147559810435e-02
      5.8107673923395317e-02 2.0484433787610376e-02
      -6.1088002778738069e-02 3.8556774858528764e-02
      -3.4955523263261339e-02 -4.3020387308313493e-02
      -5.6088452186801568e-03 5.7258670679078034e-02
      -1.4402550589726433e-02 1.4018528404977835e-02
      2.2237624862483513e-02 3.9067181439354393e-02
      3.5772066166841143e-02 -8.9204476362874763e-02
      -6.7648074233410938e-01 2.6527047724845113e-02
      6.5013449915581945e-02 4.5727590094964188e-02
      4.6326402870636635e-02 -2.9557445706988164e-02
      -1.6805907241944446e-02 2.3671543029337074e-02
      -7.9808688200579417e-02 -2.2205732732298859e-02
      9.7820626500837293e-03 -2.1093864682693525e-01
      -3.1428252840453939e-02 5.6300314890051113e-02
      3.2913692868166589e-01 -1.4138217984987786e-01
      1.8559588209814022e-02 1.3638710251399497e-02
      -5.0437743034614140e-03 -5.9558479351497766e-02
      -1.3357295557297792e-03 1.2723179729532661e-02
      -8.6112043293644608e-02 -1.8064261657673378e-01
      -5.3477032855993430e-02 3.1046518478149945e-02
      5.4857405516530726e-02 -1.0991859639353606e-01
      7.6540114997056680e-02 1.1895957739469734e-01
      3.0822145467332699e-02 -8.7948489688259978e-03
      -1.7126861866812906e-01 -4.6394050636243245e-02
      5.0357083152016965e-02 9.7210982992121595e-03
      2.2363857067992658e-02 -2.1831428648397960e-02
      1.0556647455988395e-01 6.5848408139276601e-02
      -1.3524007597280981e-02 2.7936431698180431e-02
      -6.6835972096165791e-02 -1.7655743015694333e-01
      2.2244479409613809e-02 -5.3076103103103553e-02
      2.3043545735832963e-01 -8.6330211719231983e-02
      -9.1309559217559507e-03 4.3201231163710517e-02
      -4.2748540072423249e-02 6.7956995901711555e-03
      -6.3374485254206844e-02 -1.1482138677258884e-01
      -9.1019791537933839e-02 -2.9368646640834020e-02
      -1.4429034260616688e-01 8.3651243843878478e-03
      -2.0501213349711112e-02 -9.3186879640194259e-02
      7.8146970938693133e-02 1.1355981137004197e-02
      8.3026796710602493e-02 -7.3792632874583722e-02
      -5.4213346957418418e-01 -1.3325968115450254e-01
      4.6041960792449196e-02 8.4542603085627444e-02
      1.1141795349471698e-02 1.5608268669130312e-01
      1.2663160069588533e-01 7.1617590651266938e-02
      1.6249190191226290e-01 6.2505796711377218e-03
      -2.0581409706843931e-01 -3.7896631683752832e-02
      -3.3583499140482382e-03 2.3529135486687242e-02
      1.5982449008527785e-01 -2.7175217902629301e-01
      -7.3047620048053874e-02 2.2643941133951618e-02
      9.9939915540247309e-02 5.5021970056528965e-02
      -1.2428874313854149e-01 1.0699981585784775e-01
      -5.6373380953044380e-02 3.2899260229084187e-01
      -3.4136759232107472e-01 -1.7082693027040321e-02
      5.2240520522687371e-02 -1.9195775148693772e-01
      2.4262208685087987e-02 -4.5043673247950724e-03
      -1.0843418841382854e-01 -9.6879827399740839e-02
      -6.1393052415567551e-01 -7.4106699238841195e-02
      -5.8491646717963579e-02 7.7312083516671140e-02
      3.0608974352684384e-03 7.7468412934996872e-02
      2.8734775466000084e-01 3.6424074447980487e-02
      2.0472258134036034e-01 -6.5192689965971285e-03
      1.3710471337132829e-03 1.7219312625652800e-01
      -1.8615321186629414e-02 -2.0570845142831465e-01
      -7.8105294796002589e-02 -4.6634028583779352e-01
      -1.4728658280355711e-01 -6.4085169677389519e-03
      2.1120588347614144e-01 2.7127642407830127e-01
      -2.5489851157976102e-02 1.3951204619758964e-01
      2.9278942710573314e-02 2.8198306798230949e-01
      -3.0238159782782503e-01 2.4425278912113109e-02
      -2.3622295443902257e-02 -9.8080462726202092e-02
      -2.3409415830941371e-01 -3.4249066066757428e-02
      -2.1090121666086176e-01 1.4520797116040637e-01
      -2.8487512178262020e-01 -1.2702134719504871e-01
      -1.1451312409914574e-02 1.4326734777023131e-01
      2.5228015752546865e-02 2.7001615017877972e-01
      6.6747573158429399e-02 4.8060268257326254e-02
      2.7898787094392263e-01 6.0064669677301367e-03
      -3.4633645611746428e-01 -7.2766583383467406e-02
      -9.2242408057610276e-02 2.6057573164595681e-02
      4.2245249760563991e-01 -1.4760310305600885e-01
      -1.2247137877185030e-01 3.9531391477863671e-02
      7.5426816624589735e-02 1.6909679676696068e-01
      -2.4670483729242523e-01 1.1190853641190277e-02
      -1.2505892360508244e-01 3.0359000042752504e-01
      -4.5134146472938902e-01 -3.9787439217850502e-02
      -6.3149598696638026e-02 -2.3694990743025685e-01
      5.4409822723082930e-02 -6.6667871483369973e-02
      -8.5893426221558308e-02 -3.5931397119273812e-03
      5.6664844828220484e-01 -2.0141245269779279e-01
      2.0413562368785024e-01 4.8209829011322584e-02
      -9.7179243013672034e-02 -2.8886505554081549e-01
      -8.0898496301934256e-02 3.2315628258200751e-02
      1.4654476717544307e-01 6.7719308319720395e-02
      3.6455901341089824e-03 -9.5122946619690729e-02
      5.3160045430886538e-02 1.9139051025775358e-01
      -2.4369552007941528e-01 1.5242253102630951e-02
      -5.5398247964351909e-02 1.6448699988117582e-01
      -9.0032471940725084e-02 -1.2550616912517250e-02
      7.4114003524361191e-02 -1.0818217445484599e-01
      -2.5198033220871924e-01 -1.8011308262480821e-01
      2.6797169425107137e-01 8.7768370962731129e-02
      -1.6850634883327192e-01 -2.5716249814752481e-02
      2.1634399157049508e-01 7.2377407358967041e-02
      -5.7762460919006412e-03 -1.2090138713208562e-01
      1.2961509506160103e+00 -6.6836498297594721e-02
      6.7868315362933473e-02 6.6760576835492261e-02
      1.2638697660796736e-01 1.7634158396995861e-01
      -1.5541663716863641e-01 1.2996312393563822e-01
      -1.5694743088736832e-01 1.8267896793238845e-02
      1.5901554936052550e-01 2.3498332182603504e-01
      3.8958633983408417e-02 2.3402733803400080e-01
      -1.3379405262014438e-01 7.6641491685966767e-01
      8.6931261659692047e-02 -4.1875808174502135e-02
      2.2260825937875514e-01 8.3050638790884562e-02
      -1.3180611242483625e-01 1.6413672392339615e-01
      6.3153295051530098e-02 1.4172358828752499e-01
      6.3856050735477760e-02 4.9792263499858797e-02
      -1.0078237952487407e-01 1.5574612438853000e-01
      1.3904230594603417e-01 7.2417163413291880e-02
      6.7400196942532228e-02 -6.9542456553619098e-02
      1.1090199160879197e+00 -6.4240435575580179e-03
      -4.1077214646004605e-02 4.9100662085737670e-02
      9.0070645633926194e-02 2.3185701302521941e-01
      4.6727478655383139e-02 8.7481885168770437e-02
      -1.4128729784489660e-01 4.0555334154860193e-02
      -5.7036294647983838e-03 3.0387703989318104e-01
      -5.5154692230990870e-02 1.2929814971211437e-01
      -1.6197760898803931e-01 4.1621983350143577e-01
      4.2278800676581879e-02 1.6535527727161844e-03
      2.9310007767229779e-01 1.6059505871449598e-01
      -1.2130323078602985e-01 5.6220320998040384e-02
      2.1259676682932238e-01 1.8121593823980653e-01
      -1.8164275296943891e-01 9.9161798317555172e-02
      9.0613626167910730e-02 -1.4307560770157789e-02
      -4.7151108776387465e-02 1.3574858293196935e-03
      -1.4438464694065681e-01 1.2323512378967504e-01
      -1.1853356944424369e-01 -2.1661448153086868e-01
      2.8200205405730223e-02 9.3094833008484923e-02
      3.2300328051477686e-02 -2.1665068345070447e-02
      -1.7040749073306735e-01 4.3609713173755088e-02
      -2.6324188609470911e-01 6.3067984188604431e-02
      7.6507685758337399e-02 6.7583023223938998e-02
      3.5960999279993758e-02 1.1253621004100535e-01
      -2.2355499794890887e-02 8.4262931875054806e-02
      -7.9492353390528923e-03 -3.0583830624397530e-02
      -8.1029710936280891e-02 -1.6769391425036251e-01
      -1.3644598189762833e-02 1.9795079499636375e-01
      5.7837277742955476e-03 -1.0692478902506267e-01
      -2.0980150959495325e-01 1.0876068089645244e-01
      1.0784017188014569e-01 -5.3366791131313540e-02
      1.1412153313115241e-01 2.4525812796692588e-02
      1.6937283499407271e-01 3.3033946918381947e-03
      -2.2898489400748612e-01 6.7206235426812058e-03
      -4.0768904822434372e-02 -3.7461626845990921e-02
      -5.3193762656963718e-02 -8.4496883094644398e-02
      -1.1636925647256426e-01 -3.3320371291512816e-03
      -1.3547287859736618e-01 4.6531991706580830e-02
      3.8480909086458619e-02 6.5526814993503421e-02
      5.7405442250812427e-02 -1.1982597908144335e-01
      9.7246408306058841e-03 8.9026441003810380e-02
      1.5196868057705478e-02 -3.0559114425212835e-02
      -2.5816842141091804e-02 7.7921035192663459e-03
      1.2834264722759048e-01 -7.9069702354513747e-03
      1.1667457197809261e-01 -9.2013234269926886e-02
      -1.2126712005316485e-01 1.3387977290540701e-01
      1.5199363408418126e-01 1.6405983271135663e-01
      -1.6979541553392347e-01 -3.7228466514581011e-02
      5.1713249945240389e-02 2.1180929114077104e-01
      -1.0646101896527924e+00 3.5189538255476177e-01
      -6.7483351874133776e-02 -2.1016686452123307e-01
      -5.0770043462819395e-02 -3.9354533808680181e-01
      -2.7972855102808575e-01 -1.5953193826597714e-01
      -1.7249293923354578e-01 8.8022155504608832e-02
      1.9095583465630792e-01 3.5330344254009260e-01
      5.5874560546575393e-02 -4.3200371628059880e-01
      -4.2038003782723943e-01 -4.6546620151274977e-03
      3.7543724837503151e-02 5.8275359609139779e-02
      -2.5677459364895666e-01 -9.4010109197184083e-02
      4.1423366579651250e-01 -4.7170822322087649e-02
      7.2664717683794483e-02 -5.3583339868273150e-01
      2.0200986123693542e-02 2.1645010100508122e-01
      4.3262370086726815e-01 4.0303048101143479e-01
      -3.1400300296175820e-01 -1.7148712373086267e-02
      -6.8846869971479721e-02 3.8659905829943897e-01
      -8.4776871574216672e-01 2.6050565116687302e-01
      -1.3695810513736629e-02 -5.3434328889142915e-02
      2.0849683303330025e-02 -3.7323702826025690e-01
      -1.5208360828054762e-01 -6.0616214966855105e-02
      -2.4893644510906404e-01 5.2626235816005631e-02
      3.4589599359479739e-01 5.7502877864461655e-01
      6.3616688477306241e-02 -3.9149997645636425e-01
      -3.9843682878804393e-01 2.7740913526345617e-01
      -3.6171241134625456e-02 1.0700754560875964e-02
      2.3187832836447406e-01 8.7835378650297641e-02
      5.6030044804232182e-01 1.0714289807162432e-01
      1.5646906881192091e-01 -2.7403736461285094e-01
      -9.4986708315091383e-03 1.6837364297851826e-01
      2.3457161401069471e-01 2.3600661003248644e-01
      -4.3416774145679266e-01 -5.3304129970565359e-03
      9.1646806582077633e-02 2.9297600237446009e-01
      -6.7400587682211577e-02 1.5094317201850144e-01
      4.0614181369770415e-02 -4.2378884599336149e-02
      1.1127974279301596e-02 1.2301596539188055e-01
      -1.4500390567671240e-01 2.3932594803828134e-03
      7.8214682297702370e-02 2.0353730931630929e-02
      9.5248249058947146e-02 2.6656874000111691e-01
      2.9000731648133792e-02 -3.1514659879782952e-01
      -3.1244391542693933e-01 3.2944471117819540e-01
      -3.6191927429737536e-02 3.3469079481658927e-03
      1.0252223013278515e-01 1.5430965055310240e-02
      -1.8049227731162218e-01 5.5543539671644035e-02
      5.8301021296951645e-02 -7.1628001659562197e-03
      -1.6552736184463063e-01 8.4636964023238323e-02
      1.7899435919203044e-01 1.4893897548834342e-01
      -1.3879162982856078e-01 -3.4271008496499944e-02
      6.0414425612283655e-02 2.8429302742002122e-01
      -2.5671875520110532e-01 1.2315960091998077e-02
      1.8765403112172559e-02 -1.0865100235040807e-02
      2.9998580956376492e-02 -4.0389799259409123e-02
      -2.1380056831764141e-01 4.7197335711516623e-02
      -9.3640085818384858e-02 -1.8524789447647797e-02
      1.1883890783227659e-01 2.8726579389470636e-01
      2.7210470495771864e-03 1.1479829840185887e-01
      -2.7748820084684267e-01 -5.3712013174396236e-02
      5.5207594412323639e-02 -1.3923485928838386e-02
      -1.6204480402634586e-02 -1.4014239043477192e-01
      -6.7026163618594400e-04 2.4221801678191629e-02
      1.0003754111292085e-01 -1.3560298250435981e-01
      -1.6350014523195081e-02 5.0486359715243311e-02
      9.3408645720645139e-02 1.3723878048393723e-02
      -5.7442550178434588e-02 -3.0119945021145317e-02
      8.6544929662564093e-02 1.0950605037197901e-01
      8.6419898795522060e-02 -1.7501814025457604e-01
      8.4433428818231390e-02 8.3601681771752465e-02
      9.1856176134014686e-02 2.3364764010922648e-01
      -2.2708979912465799e-01 8.8396701849991446e-02
      9.7878956424354534e-03 1.5470459562281715e-02
      -8.8331160080972276e-02 7.8583630477202210e-02
      -1.2115332366326505e-02 4.6063396581614324e-01
      -1.4731100525172888e-01 -1.2823095969762548e-02
      3.1777746131797416e-02 5.6627626973001735e-02
      -6.1357161712294175e-02 -2.0800005479811068e-01
      -2.5345905543926073e-01 -5.4815153325216304e-02
      -7.6662104074208967e-02 -1.2767671971717615e-01
      -2.0854618091081811e-02 1.6011369627792572e-02
      -7.5658062102201161e-03 -1.2677644281496192e-01
      2.3551772190031475e-01 2.1936092615759829e-02
      1.3371679142551307e-01 -2.7115020030945985e-01
      6.1105689014682052e-01 -3.0882933241410054e-01
      4.8469577865231914e-02 1.1558706647124031e-01
      9.5614647565385652e-02 7.4317325052004157e-01
      -1.8390376346758580e-01 1.2795663802121982e-01
      5.3932369549195183e-02 4.4166816864631654e-03
      -4.9027670990451505e-01 -1.3057993472579835e-01
      -1.8599510689310424e-02 4.2957471647450762e-01
      1.3744740566318570e-01 -1.9414399876681667e-02
      -9.8817691689189663e-02 6.2615177095168048e-02
      7.3657542482270522e-02 -7.2150721099531370e-02
      -7.9149534644384822e-01 9.9182329715556562e-03
      -1.6798960055115250e-01 2.0449395663011669e-01
      -1.6730376242189487e-01 4.2190900573892090e-02
      -1.4413951774251821e-01 -1.6400932114411604e-01
      4.0746485940650723e-01 3.5889911891200721e-02
      1.4875634949540409e-02 -3.3725075391153797e-01
      3.6558814061297928e-01 -2.1241586995600203e-01
      -4.0623870592566780e-02 9.5234262044607609e-02
      4.1622694721113719e-02 4.9890616312655434e-01
      8.9580617828604589e-02 1.2374289034692143e-01
      1.7176951413323413e-01 -3.0797714500318447e-02
      -2.9047969980903243e-01 -2.0349909535094396e-01
      -3.4844191131413058e-02 1.7538678288907239e-01
      1.2596844546782943e-01 -1.3983490444424068e-01
      -8.3123455849971897e-02 -1.7381928188172267e-02
      6.8540256593407501e-03 1.1141887722832131e-01
      -4.2459090752710565e-01 1.9704586584412057e-02
      2.5825336628947794e-02 2.0008529816358245e-01
      -1.9424602174371911e-01 1.1745497602983700e-02
      -2.6463140897303400e-01 -1.6415313807359347e-01
      1.6749530347955888e-01 -5.3110252659696038e-02
      -2.0014356075008538e-01 -1.7261113397587194e-01
      -2.8911206424469688e-01 5.4354142070508003e-02
      -2.3882359827714143e-02 9.0595553716280891e-02
      -1.6789438074129958e-05 1.3215643747065847e-01
      2.0295515199413286e-01 9.9468926027125815e-02
      1.4280529054406804e-01 -3.4953210988559351e-02
      -2.8987438495959302e-02 1.5294545675611779e-01
      -2.0829267519450509e-02 2.5517115067204797e-02
      -3.1663509569123970e-02 -8.5205471164495214e-02
      -5.9049979119369732e-02 -4.7671071428140067e-02
      1.5863764421540061e-01 1.6592311194546655e-01
      -9.4239615763825557e-02 2.1465519976053563e-01
      7.8784021244324542e-02 1.0094728099481383e-01
      -1.3999627745710794e-01 8.9344834535854192e-02
      -5.3689185189879168e-02 -1.0433860939540006e-01
      -8.5348482152824992e-02 -6.1468203532756317e-02
      -1.7652897404911963e-01 1.3303554180699856e-01
      -4.4253865377351481e-01 -1.9712439701253016e-02
      -7.8844504197321030e-02 1.6139471745770143e-01
      -1.2219073505584871e-02 2.8542017582603207e-01
      2.5883207711581346e-01 1.0244563257355242e-01
      2.4445292031651517e-01 -2.9915167429172503e-02
      -2.1959196721143490e-01 -4.4693297728280873e-02
      -4.8975688536070983e-02 -1.2244668468467397e-01
      3.2401836285543534e-01 -1.8787422795291470e-01
      -1.2503411861481853e-01 -2.1100494841327800e-02
      1.5499045611520954e-01 2.6303568779894465e-01
      -2.0147919112735801e-01 2.2294621683041033e-01
      -4.3303375606660822e-03 3.3610230826733173e-01
      -3.7209746066457983e-01 2.0196692635681815e-02
      -2.6210276059049967e-02 -1.9688251809286383e-01
      -3.6307150381364485e-02 -6.4433388654022844e-02
      -2.3038550948170361e-01 1.9881971008445293e-01
      -4.0772610734274589e-01 -5.2401668252179765e-03
      -3.2267619935368329e-02 1.4600201596534218e-01
      2.0384173128197309e-03 1.4578283612978843e-01
      1.3482614517900243e-01 1.0015029403847787e-01
      7.7751259319131169e-02 6.4879097816567723e-03
      -8.8608886784935115e-02 1.3025823586105207e-02
      2.4511263790038388e-03 3.5508304726949415e-02
      1.9040686863280895e-01 -2.2497388641085705e-01
      -1.2136125478257317e-01 5.2908795525896071e-02
      3.1508874496687767e-02 4.9835816258915984e-02
      -1.4222222074671698e-01 9.7522628952269236e-02
      -9.3767855768703945e-02 2.2261536405688007e-01
      -2.4544871196399737e-01 5.7912771271147960e-02
      -3.9280009908433750e-02 -1.8329904544405637e-01
      4.1942214847225809e-02 -4.6376417330544255e-02
      -1.1294394919349565e-01 -2.8002629969893195e-02
      -2.8149456819042096e-01 -6.2803871295489214e-02
      -2.0330629521423536e-02 1.0626500911648618e-01
      -6.7403408878323077e-03 -2.7238592997552401e-02
      8.1756075491933575e-02 3.3231054548565842e-02
      -1.8354375148707362e-03 2.8860962174541503e-02
      -2.1860239400832349e-01 -6.1614206458417774e-02
      3.6739949837378993e-02 2.7816189786189033e-01
      4.2806477290807360e-02 -2.6597542888923138e-02
      -1.1031532676045827e-01 6.5071266466074792e-02
      8.5506347204953911e-02 8.6062892274843789e-02
      -2.3357373727419140e-02 8.2516387126513255e-02
      -7.6264798238934589e-02 2.1760644443209420e-01
      4.7734212211831835e-02 9.1113925359478709e-02
      -9.8622892765869691e-02 -1.3950773975556577e-01
      2.0711297777878082e-01 -5.2553135011439621e-02
      -7.3976173540350770e-02 1.5308783611602187e-02
      -8.3270446913532403e-01 -2.0025530734131425e-01
      1.1397397878490752e-01 1.2419208134038939e-01
      -5.9684221458576568e-02 -9.8104754195010597e-03
      9.2093502388732540e-02 7.9415215402393310e-02
      1.4225344455060682e-01 7.2115658213727585e-03
      2.9179671590265510e-01 -1.6985489550523655e-01
      3.9517889188502783e-02 3.3950263721575641e-01
      -5.1425079596603557e-02 -1.7215335105700014e-01
      -1.2606709517262477e-01 1.3567193812958905e-02
      3.3212113198231343e-02 -5.5171107701811911e-02
      1.9292693312591183e-01 5.9096378275190008e-02
      -3.6506282680032573e-02 2.1240990190622894e-01
      7.4601319609502184e-02 -9.1788527273483321e-03
      -9.3493314031470140e-02 -1.3549670579643944e-01
      -4.9465079659970684e-02 2.6622454976939821e-02
      -1.5345734106096870e-01 -2.1741386819638647e-01
      9.1620543317490555e-01 -1.4345645544409746e-01
      -1.6381407977617443e-01 -1.1555023042801230e-01
      -1.0278795909759988e-02 1.4139794775827313e-02
      -1.8484603732499337e-03 -1.5078846212001024e-01
      -3.1685202617278468e-01 7.8884890887602324e-02
      -2.2264563113406188e-02 1.5388482645768928e-01
      9.6000247082580023e-02 2.4994626302539222e-01
      -1.3690551300502246e-01 2.9577714075390643e-01
      3.7013842022546851e-02 1.1392521161844547e-01
      -1.4357340628780685e-01 -9.5995811711509518e-02
      -4.3231194680651328e-02 4.7452184880205354e-02
      8.4790969284114184e-02 -2.7305350094832875e-01
      -5.2470495552420518e-02 2.8449409322066954e-01
      2.4294390331136353e-01 3.3082607549465187e-01
      -1.8846725205014334e-01 -1.1298601596796108e-01
      -3.1059130913657827e-02 9.4183360318864637e-02
      1.7748158087762136e+00 2.5765697970251333e-01
      -2.8159928407810838e-02 -1.6589160633003935e-01
      -1.6638805063560350e-01 -2.6383906771706706e-01
      3.6775476206412205e-01 -1.8563290487668002e-01
      -3.5852972419683193e-01 1.1344141966558681e-01
      -1.7065732385586546e-01 1.6263114633729556e-01
      1.7714785643541375e-01 8.9513826962710291e-02
      -6.8197478117312793e-01 3.3881314518490385e-01
      9.2201280714971245e-02 1.1461464715116604e-01
      -5.7850435811723222e-01 -1.8724638815283376e-01
      1.3668432929682214e-01 1.7414448500545551e-01
      -2.9763252440783060e-02 -3.5484252172751352e-01
      1.6590645994367512e-01 5.1899262883524933e-01
      9.3671675377396707e-02 4.8662587830979609e-01
      5.8672899657770075e-02 -1.5326379906130691e-01
      -1.1662566553493504e-01 -9.8251903330570864e-03
      -1.1661064569875170e-02 8.3183276046108520e-02
      -4.3035653396496738e-02 8.4849221555513540e-02
      8.7957466247557847e-02 1.2950745482061463e-01
      -4.6543747982863654e-01 1.4600044256526236e-02
      -3.6522991404618799e-01 1.9556622978237032e-02
      2.5967238773702589e-01 5.1095234839206771e-01
      6.5577371804788356e-02 -2.2311678129617230e-01
      -5.8092270409830771e-01 3.3529749035868861e-01
      -1.0032250023077473e-01 -1.1382430321510749e-01
      4.4693664287388868e-01 1.0289104346491668e-01
      1.8605161686077801e-01 2.6718805780628846e-01
      2.4940429171792311e-01 2.7601603064270297e-01
      -4.1092787006181530e-01 3.1027691045929257e-01
      1.5978020947999474e-01 2.0885648226649334e-01
      -3.5437910912868609e-01 -3.7631255948235014e-02
      1.6057571560038522e-02 2.0171052079834154e-01
      -3.8280786415325668e-01 1.1982826053929162e-01
      5.3953705412336309e-02 7.1556507623369958e-02
      7.4869855396175328e-02 -4.0526483780689504e-01
      -5.5978893167243049e-01 4.7215155015388810e-02
      -4.6134799440098834e-01 5.9715403951883482e-02
      2.5178225790810771e-01 4.2417061491508568e-01
      1.1880715211304289e-01 -2.5773878479686629e-01
      -6.7260318880264836e-01 4.4163212678130154e-01
      -1.1532076611421084e-01 -5.3923422715870091e-02
      1.3593221857429402e-01 -2.1248863878648971e-01
      5.0432345945503920e-01 3.1537448198364354e-01
      6.4513153574528317e-02 -8.2334819048496447e-02
      -1.0600108392890520e-01 3.2980817176218141e-01
      2.7860845730833217e-01 2.3716660234353307e-01
      -1.4974472387346643e-01 -2.7943184368463402e-02
      1.8234162154826206e-02 3.2364020612895555e-01
      -5.4012993187518721e-01 2.7213976018141817e-01
      9.4869554390872857e-02 -7.6890625441187424e-02
      4.5044662397577331e-02 -2.1461047132561320e-01
      -3.7517285855687083e-01 -6.4128250143348324e-03
      -4.5236644848528296e-01 2.7604793680705342e-02
      2.2945164972159565e-01 3.7134976470004200e-01
      9.6327082153314786e-02 -3.8101761629423175e-01
      -5.9810231256171820e-01 5.9743062060185126e-01
      -4.9558656397189878e-02 -4.9411729628086792e-02
      2.6665662204369839e-01 -8.1312469277583621e-02
      2.7462210054545128e-01 1.8586043904920263e-01
      4.6600443733539575e-02 -1.6094577175279215e-01
      -1.6182636053808508e-01 2.4427125410225600e-01
      2.6149250363401405e-01 3.1449029376256948e-01
      -2.6315048124450385e-01 -5.0492554355331979e-03
      7.4054355704475938e-02 3.6730287636778480e-01
      -4.3858247142052081e-01 3.2073928180586803e-01
      -6.6920529726168285e-02 -9.9312830087024184e-02
      1.6093020757128058e-02 -2.7299013224305657e-01
      1.1956464865196972e-01 -4.3513211521143312e-02
      -1.3168032532291662e-01 -1.3784120887587981e-03
      2.8186470012218406e-01 4.3658834461349894e-01
      5.4973630895400770e-02 -6.4198299270471404e-01
      -3.8548738249082309e-01 6.7747846183207494e-01
      -7.2794244999308290e-03 -5.6289330084872025e-02
      2.6082198688324365e-01 2.5781524392631588e-01
      4.4720053127064602e-01 2.4599368523814964e-02
      1.8254465878386023e-01 -2.2553330220327239e-01
      -1.3459119172889084e-01 1.1424817217078738e-01
      1.0961968042571434e-01 2.9128241376277325e-01
      -4.1436302643371270e-01 -3.5906832302599043e-02
      -1.1932581033626413e-01 2.8561772816812525e-01
      -7.6493846735193632e-02 -4.0974527707727686e-02
      -4.7859860366595092e-02 5.3556688048848082e-03
      -2.3995350507303490e-02 -1.5422789931838489e-02
      3.8842329731796660e-02 3.8484211406227938e-02
      5.3013774075610767e-02 2.7060252705817475e-03
      -7.1236134346152988e-02 -2.2527106151826667e-02
      2.5903844236035568e-02 -4.0723090281458131e-02
      7.3461777287275154e-02 5.3290460804078066e-02
      2.4499434347985658e-02 -8.0915212038157238e-04
      2.8647466641758292e-02 6.2195720572149601e-02
      4.7117797350829504e-03 -7.9676080318459810e-02
      1.2523014321426645e-01 -1.4384594894274425e-01
      -1.7072178236309604e-01 -1.1352494696793756e-02
      -4.6016460042300505e-02 3.8723037346522632e-02
      -9.0118969046666775e-02 -1.4576770459761862e-02
      -2.5951849417129025e-02 1.0332328687913919e-01
      5.0813101275678485e-01 -3.7139239156155357e-02
      -2.4592677952909123e-02 5.9085664798642513e-03
      8.0158554019906514e-03 7.1250473527980224e-02
      -1.0428994555306037e-01 6.3899089977675020e-03
      -6.1661608804234554e-02 -5.1440069658572280e-03
      -2.0906429107219565e-01 -1.2246040491613705e-01
      2.9962831055706202e-02 -4.6252153415009111e-03
      1.5202982161380831e-02 -5.8688114178068816e-02
      1.0848165753998514e-01 6.9787028088023921e-03
      -5.1068650275557188e-02 -4.0341832161251416e-02
      -1.3699522568181147e-01 -1.5823508179497927e-02
      1.6176899602554976e-02 -1.8563264825799020e-01
      -3.1428339928436452e-02 -6.9150667484811062e-03
      -4.5715738464569104e-02 3.8127769501275180e-02
      1.4067638156132242e-01 -4.6152832633613805e-02
      4.5546506772069584e-03 -9.0225121961928834e-02
      3.3792756575677541e-01 -1.6963067935961942e-01
      -8.3368064502720912e-02 6.5463320939196462e-02
      3.3336928551898418e-02 5.8886490048512354e-02
      -4.7835615436098385e-02 1.5337126688958907e-02
      3.1365990420245640e-02 -1.9987467507948258e-02
      -1.4028028491681033e-01 -3.2463581028234871e-02
      -1.3962580332670884e-02 1.0648841879613362e-01
      4.5906550608734914e-02 5.2119916604593357e-02
      4.7465070448557793e-02 -3.6273942400022539e-02
      -3.4873123727314805e-02 3.5631696764419289e-02
      -6.9749298617778316e-02 -3.0248973959460045e-02
      6.1103693588325396e-02 -1.3967378972172695e-01
      -1.5742953241042240e-03 -3.8472757770426573e-02
      -1.3006278416218423e-01 -4.7574385538876676e-02
      6.7545164925229106e-02 -4.4394598663122384e-02
      -1.1282881998590293e-01 -2.4540671664855396e-01
      6.2517051658179790e-01 -2.5012316993796380e-01
      -8.1638462073559039e-03 1.5979869559394522e-01
      7.4236550449449809e-02 3.9617246139048146e-01
      6.8062928306365428e-02 6.0754246163400062e-02
      1.0992056002688824e-01 -1.0420393870783891e-02
      -2.9079327291133472e-01 -1.4520974191361188e-01
      -3.0761443860256219e-03 3.9396488453037048e-01
      3.9362114366097219e-02 1.1632630662967339e-01
      -6.0891810571396962e-02 -1.5917274765591401e-02
      2.1794468612250754e-02 4.3650892090255106e-02
      -3.5681716824799664e-01 -1.6256423687731981e-02
      -6.1481482007122654e-02 1.8992732922695485e-01
      -1.9810089039301867e-01 -9.9712913446957915e-02
      -3.0288268006074281e-01 -1.9010527012979750e-01
      2.0071269003302233e-01 -3.6322728355639364e-02
      -1.7155555044857232e-01 -2.3925883420387076e-01
      -1.3906938814724926e-01 -1.1048055167788094e-01
      -4.0240223012644669e-02 9.1315615506066261e-02
      6.0680916694244989e-02 2.4543883283011242e-01
      6.6555901631268025e-02 8.8588651436026830e-02
      1.5585451404227807e-01 -2.7547600566632201e-02
      -2.5595606893190398e-01 -1.1454195952891066e-01
      -4.9654071633280859e-02 2.6014327658399700e-01
      1.9297430419799028e-01 1.5623658392629974e-02
      -5.0333773636683315e-02 -2.2234389460502473e-02
      -1.1760543514646551e-01 2.4694091525367459e-02
      -3.7224779243003792e-01 -4.4234297262702747e-02
      -1.5225415049206614e-01 2.5959074778560995e-03
      -1.5439236655704855e-01 -9.5425946988609386e-02
      -1.9824547199657158e-01 -1.5279726042205710e-01
      2.1671227183763581e-01 -2.4144179601038759e-02
      -1.7890883664667398e-01 -1.2398336818929122e-01
      -5.0852295853331553e-01 -7.2207275322122719e-02
      -1.0364032140184735e-01 1.0943932590385345e-01
      3.1985347850781366e-02 3.3320370253281661e-01
      3.5907762416541311e-01 1.0596090318458593e-01
      1.9275301514380414e-01 -2.6501937502244659e-02
      -1.6765846852849109e-01 2.3992929638958368e-02
      -3.7890509764509146e-02 -1.9489815633551089e-01
      2.9496824198482757e-01 -1.3949538615274101e-01
      -6.0742387100915687e-02 -7.8537833340313556e-02
      8.8971064475605335e-02 3.3265509242030233e-01
      -2.4256178099805437e-01 8.5937274624550850e-02
      3.5055112332125882e-02 2.1482495884088515e-01
      -4.8535867964270640e-01 3.1136331009193288e-02
      3.3369490820782055e-02 -1.1408457309756621e-01
      -1.3020454139232379e-01 -1.0732934524347448e-01
      -3.2244935965349802e-01 9.0001962400764399e-02
      -1.1184578016283275e+00 5.4854650334383859e-02
      1.0488835434154508e-02 1.9569284390254735e-01
      5.3711796201337588e-03 1.4945184158802302e-01
      6.3219150476500813e-02 1.0579349356774208e-01
      1.0852395158844845e-01 -3.5712808127663767e-02
      1.1688215567112262e-02 1.9234367241120368e-01
      -2.7875198765379514e-02 1.0238368624951000e-01
      -3.3870285261828903e-01 -2.1635695380188419e-01
      -1.4579126379618651e-01 -8.3428953063824821e-02
      1.6252712774361942e-02 1.8194813960663761e-02
      -2.8717328019091160e-02 1.7357626121819505e-01
      5.8464104951244118e-03 3.2306622756372028e-01
      -2.4723961325557089e-01 1.5573709743167105e-01
      8.5340298702891337e-02 -4.5608552561785212e-02
      1.0934900333199625e-02 -1.1139043640843353e-01
      -1.9431172285939702e-01 -1.6899696113384752e-02
      -1.0387990341828082e+00 8.0100599157145014e-02
      -2.9390194345721665e-02 2.1205509202243764e-01
      -5.7723342489983842e-02 5.1259937051145330e-02
      -5.8959711860702056e-02 1.5000186589380171e-01
      4.2773435840175220e-02 -3.4315372072460548e-02
      -6.2572073986433734e-03 -3.6143025586847531e-02
      -5.0694529069763100e-02 9.6735856177989771e-02
      -1.2052760728374950e-01 -2.5360904677129542e-01
      -1.7079477740600160e-01 -6.9561488887134718e-02
      -1.5294477940405610e-02 -9.3186546439977341e-02
      -7.5003031499167913e-02 2.5625126228085443e-01
      -6.0331450587620801e-02 3.6150634980078339e-01
      -1.8575021859335403e-01 6.5445565199169206e-02
      7.1441880616588654e-02 -1.0582662923169150e-01
      1.0232615945855950e-01 -1.0169811895117489e-01
      -2.2909068530782978e-01 2.4821727811427674e-01
      -8.1581642685467914e-01 7.9926595007055998e-02
      -5.6021121989272178e-02 1.5039185652968617e-01
      -1.0239680209115410e-02 3.9910838512747132e-01
      1.6910075588315010e-01 8.8513574699148098e-02
      -1.0628243211746458e-02 -4.4187441565398285e-03
      -9.2750455764527215e-02 2.7661307735411217e-01
      -2.7877711451924365e-02 9.6067589201185813e-02
      -1.1425007117236853e-01 -3.1094643149060125e-01
      -1.7882750274592168e-01 -1.8308891096098009e-02
      2.8665482573483664e-01 1.2393142049470200e-01
      -1.8434835748131367e-01 2.4947052855330826e-01
      7.2498773957492768e-02 3.6347524542129445e-01
      -4.8049290854006110e-01 1.3235072420130906e-01
      1.4872138766691470e-01 -7.0186557461428850e-02
      -1.8163675448956398e-01 -4.8586331240857476e-02
      -1.6570665140851920e-01 -8.9986368377945630e-02
      -6.6449869762083336e-01 -6.4436783864853978e-02
      1.1196209691797692e-02 4.3476867974487847e-02
      -1.1460126819345881e-01 -4.8320566740415259e-02
      2.8894374010606366e-01 6.8437304667143789e-02
      1.9217784886234340e-01 1.4081031709970225e-03
      3.0558961205156082e-01 1.3378669354890829e-01
      9.6234532346296385e-04 -2.0016590132931980e-01
      -2.5585639450004327e-01 -1.0917391853672019e-01
      -1.4062723076944986e-01 5.1527081120349809e-02
      6.2449098013350079e-02 1.7128721089322302e-01
      6.4389431554484483e-02 3.5279614857603926e-02
      6.3720419816122920e-02 -4.8126300079117397e-02
      1.1847212564260770e-01 -3.4352820833194582e-02
      -1.2699754673572761e-01 -7.9071663164145878e-02
      -1.8402732545168737e-01 4.6310833413933938e-02
      -1.8817219855086451e-01 -3.3810952369714015e-03
      1.0699809985289495e+00 -3.7837258909543835e-02
      -1.1857286400681326e-01 7.7203258764287949e-02
      -2.1719469200055866e-02 2.1526378406912952e-01
      -3.8027985596617631e-01 1.3683815299908955e-01
      -7.3576117911596323e-02 8.7991201775617270e-02
      -1.8042657541791954e-01 -1.8781983610612887e-01
      1.6388735550529027e-01 1.6180302653444942e-01
      1.6477435439058316e-01 2.1194598619911478e-01
      7.9761399097405553e-02 1.0579769261521245e-01
      -2.0665670732457720e-02 -1.4294009503204352e-01
      -2.6466975786758512e-01 1.7217704635739772e-01
      3.2706079252405561e-02 2.1614696275551790e-01
      1.3797087616053896e-01 1.0711304085464850e-01
      -1.2485332482999696e-01 6.8400581493076582e-02
      2.7674496309575147e-01 6.0319646725678876e-02
      2.2644884303885719e-02 -9.6185896501223819e-02
      7.1117992408181907e-01 1.1417861016045422e-01
      -1.5920553399391729e-02 6.5551196132079478e-02
      2.6186536170486240e-02 -6.3125676380119941e-02
      -5.6592726110005742e-01 8.9694383943981035e-02
      -3.9759614769313328e-01 1.0900946585023948e-01
      -1.8772678087920833e-01 1.1252972688916124e-01
      1.7790226418827149e-01 1.0831073179336735e-02
      2.8636769993234347e-03 7.3333239090758995e-01
      -2.7101583659319202e-02 6.8418762867511002e-02
      9.3483464249380973e-03 -2.5504664441968555e-01
      -4.9520561065349425e-02 5.4440359467113231e-01
      -1.0229092172178392e-01 2.3287149283278979e-01
      -2.9197954390678956e-02 4.4493908418133499e-01
      2.5349828117140411e-01 3.1879444307066740e-01
      1.4522617401069249e-01 -4.9951428077690707e-02
      8.6752894378046744e-02 2.1263276054288707e-01
      -3.8519376785412722e-02 1.7320180199108615e-01
      7.4973531102493956e-03 5.0229883986550712e-02
      -1.3054564727214363e-02 -2.8862751187821845e-01
      -4.0364273718282240e-01 -3.3688626667770338e-02
      -4.2855215477993042e-01 1.8821836465242124e-02
      2.7557228507104337e-01 6.2138866797652659e-01
      9.1796614361108794e-02 -9.3607116213205707e-02
      -6.8097306174696781e-01 2.9686704070507330e-01
      -1.2483926856923551e-02 -8.5103270448193089e-02
      1.4059301481591638e-01 -5.3925898754740603e-02
      2.1357123919607185e-01 3.5393972390917472e-01
      -2.1593735198003675e-02 -1.9386390351920724e-01
      -1.1213832460618485e-01 2.9840873647104788e-01
      2.9642507092903714e-01 3.8442377474416278e-01
      -1.7329982188123880e-01 -6.8178831978177562e-02
      3.1761061107420267e-02 1.6153400302255530e-01
      3.4152993723659916e-02 4.3961910845136543e-01
      -1.1196307711251406e-01 -1.4679184077381047e-01
      -1.0738037431311662e-01 -2.7963868546565523e-01
      1.5749299881440154e-01 -1.9622126856238337e-01
      -1.5526226033456683e-01 2.9615273691950311e-02
      2.1617846601825519e-01 3.0473200415990342e-01
      4.3880738406212400e-02 -2.0495535800085632e-01
      -2.4863066364177383e-01 3.6075983458671279e-01
      -6.5010337714112770e-02 1.4823135639325469e-02
      -3.2263264781243295e-01 -1.2114926864864201e-01
      2.7976466843102460e-01 9.9810981379270733e-02
      -7.6687207810154479e-02 -4.2489350627614431e-01
      1.0835362553260217e-02 1.4352867599865562e-01
      2.9636235583087639e-01 3.2792753134000058e-01
      -3.9767301914596892e-01 -1.3402943001773029e-01
      -1.6764644785619523e-01 2.0279045215199526e-01
      -1.9544990468967763e-01 2.2528632717876146e-01
      6.1282642064284298e-02 -8.2259319736983069e-02
      -1.7347432693879259e-02 3.1301486814052764e-04
      -1.4658808813763854e-01 2.6825868114678741e-02
      -1.9127984774185042e-01 1.1496572401019665e-02
      2.8692839857268632e-01 3.7124865128388401e-01
      6.6190046521019827e-02 -1.8235064123930281e-01
      -3.1911473161276938e-01 7.8208441690023944e-01
      -2.8799479603842632e-02 -6.7967764478899656e-02
      -3.5922722229481591e-02 -6.1815302479372655e-02
      4.8129642881354573e-02 1.9265691717816849e-02
      2.7755151716210524e-02 5.7060555074849061e-04
      1.5619014981565044e-01 9.6485981718249431e-02
      1.6147040083250985e-01 9.1486124983452738e-02
      -9.4519997849636855e-02 -6.6291403606541136e-02
      -2.0683600660511791e-02 2.7070010652628124e-01
      -8.0668416380725849e-01 1.1268707273406260e-01
      5.5428888287975153e-02 -9.7790366177395435e-02
      -2.2848800482299772e-02 -1.1242044143312575e-01
      -3.0944535779713594e-02 -4.0581512143126532e-02
      -9.7087612092305972e-02 2.0396856928603223e-02
      1.8659592152309154e-01 2.4038201234940290e-01
      9.3083140171458828e-02 5.6299480994113880e-02
      -1.5442591246778214e-01 5.0138610402384465e-01
      7.8930485335579975e-02 -5.8050102942061609e-02
      -5.3609270016892231e-02 -8.0784420252674963e-03
      2.1895495739109991e-01 -5.1127821772262654e-02
      1.4822630918727037e-01 -5.6734134650254980e-02
      1.4669822484690560e-03 1.1586026244264559e-01
      1.6477928366013550e-01 1.2662741648823828e-01
      -1.6425096311770451e-01 -6.5921625463385231e-02
      3.4350302117804633e-02 1.1991069409203600e-01
      -1.1104006652686602e+00 9.0860064217210976e-02
      -4.6176817862356020e-03 -9.5871075074436089e-03
      4.1357925420269510e-02 -1.0559210263879427e-01
      -7.6640332143087147e-03 -1.0778778455608871e-02
      -6.2437159300558459e-02 1.2963668094433606e-02
      1.4160826943792767e-03 6.3133104254895087e-02
      1.7311911852151786e-02 -7.4465322589695168e-02
      2.0450249035582754e-01 1.8189590690870283e-01
      -9.6882167167383609e-03 -4.1370707496379291e-02
      9.0404159310090618e-02 3.6816241804461886e-02
      1.7476906927572927e-01 -5.0569345804447739e-02
      6.1829307288071976e-02 4.6645201368761754e-02
      -1.7168754270383607e-01 -7.4404948401050278e-03
      1.0240386818097415e-01 5.7575030689831178e-02
      -1.0415770498182346e-01 -8.1646572411104377e-03
      1.7861461050279536e-02 3.2331442356329558e-02
      -5.6275086646980488e-01 -1.6988250066192982e-02
      -8.9620316800557952e-03 1.5234021328739685e-02
      8.7400990288940116e-03 -2.5235044912207028e-01
      3.6948264806477414e-02 -2.8253542164259442e-02
      -8.4514236236135215e-02 5.9047137565511384e-03
      -1.6455093878954011e-01 -1.2467166371033854e-01
      2.6975918255593777e-02 -1.1243660973207412e-01
      1.7715633151783675e-01 -5.0566629663132148e-02
      9.6907803475751203e-02 -1.2830373551755864e-02
      -1.1148126307780935e-01 2.1565756185661328e-02
      1.7861689854662674e-01 -6.7562551789592820e-02
      -3.2402121899596840e-02 -8.8451972274717072e-02
      -1.4825839986832741e-02 -1.6581077421759453e-02
      -3.5647619815135673e-02 9.3504530913251185e-02
      1.2077278994646183e-01 1.8782029387826155e-02
      3.7912239998000211e-02 1.0657529039739073e-03
      -4.7101733019041997e-01 3.5098939628626824e-03
      1.6064214191020137e-01 9.2763616582219863e-02
      1.0440376268422052e-01 -7.7272587627729455e-02
      -3.4280732229106053e-01 -3.4998777854339018e-02
      -1.5594107268898300e-01 2.4002540688539284e-02
      -1.2979717688051617e-01 2.3046843264320747e-02
      7.4827244474591312e-02 2.1336079292627658e-01
      4.0563143732518368e-02 -4.4010284451691251e-02
      5.9629723601519547e-03 -1.5655562798406578e-02
      -6.0961808679422811e-03 -2.3198995315025889e-01
      4.5919865219828306e-02 1.5078360018087464e-01
      -1.0405513704269814e-01 6.1735539243213455e-02
      5.8046172825433992e-02 5.1642964502988178e-02
      -5.9973566820436787e-02 6.8589122060889116e-02
      1.3717566337447171e-01 3.9018695498828436e-02
      1.2608308316396896e-01 -2.1550569824982427e-01
      -4.3622707289509599e-01 -7.3296328716551312e-02
      1.3576492850404154e-01 1.7459383800455008e-01
      1.1935060524592296e-01 8.1301769177798008e-02
      -1.6812998483324029e-02 5.0096500719768886e-02
      5.7919613577260061e-02 7.0934821487235195e-03
      -2.1765927282435291e-01 -2.6648062601286154e-01
      -3.2438922693097103e-02 2.0658970365116719e-01
      2.1602065719344582e-01 -3.7232604629878518e-01
      -1.1510356646856630e-01 -3.9335936444230037e-02
      -8.1839626799828410e-02 -1.2147745196405697e-01
      -1.7708766587320232e-01 -6.3280588261706211e-02
      -2.3818544443272122e-01 1.8209139438827326e-01
      -1.9382988514113009e-01 -7.8981436669247479e-02
      -1.4892085412910727e-01 -1.5283414682532775e-01
      2.0381047747566808e-01 3.9075987327632365e-02
      -2.9115839054531960e-02 -1.7670859033897440e-01
      -6.8006854958065688e-01 9.8923888582647349e-02
      5.4462203629500718e-03 1.5565929478182752e-01
      1.4057571510936206e-01 -1.5678013592264653e-01
      3.8842920456195126e-02 3.9116894878283182e-02
      1.3820658934925595e-01 -3.6661567379608261e-02
      1.4068998336083013e-01 -2.7671045052395375e-02
      -4.5602970947221134e-02 -5.9308828053808813e-02
      1.5281696919281484e-01 -3.7202415015000806e-01
      -9.9048082614846267e-02 -9.8046341983308791e-02
      1.7723754203126919e-02 -1.4800888001235545e-02
      1.4427714642994433e-01 -8.2275451024190968e-03
      -2.1513710587548841e-02 1.0201711090706683e-01
      -2.0627036619870982e-02 -5.8337770205058218e-02
      4.4002562970187217e-02 -1.3458734379503803e-01
      -5.8794642144609541e-02 -7.4542184013232961e-03
      -1.0969366681941466e-01 2.7686439342273442e-02
      -1.1238034733938194e+00 8.7966019741618662e-02
      6.2076863267995941e-02 1.3929460133469232e-01
      8.9180467148816861e-02 2.6726919825399931e-01
      2.3263787958215144e-02 7.9720559937725505e-02
      1.3339749356899483e-01 -2.0827478444415553e-02
      -3.9047321231719785e-02 1.5857148479469479e-01
      -7.5332645304412915e-02 -1.3669495104721083e-01
      -1.8902099233211327e-02 -1.3949833841310805e-01
      -9.8566073125707879e-02 -1.1009822262749022e-01
      1.1745097069574567e-01 7.7012952344744576e-02
      -9.7125577864209944e-02 3.8283173437447977e-02
      7.2856730080782016e-03 1.7974884623490664e-01
      -3.0442682031985996e-01 4.2294281578955019e-02
      8.5396137628607982e-02 -1.1433824502382754e-01
      -1.4062756632432560e-01 -6.7771699782411765e-02
      -1.7495328415914665e-01 4.5117059091778572e-02
      -1.0959668362579589e+00 4.6063835984784259e-02
      9.1316594593263675e-02 1.7561611840961833e-01
      2.4313098447880824e-02 1.9673114333777872e-01
      9.9823507076020612e-02 1.2481344924988032e-01
      1.1320133355617024e-01 -5.5453653620138377e-02
      1.8530555245763924e-02 9.3492932693179237e-02
      -1.0500666189188235e-01 -3.2979488672850187e-02
      -1.5660000137569494e-01 -1.6160297302439441e-01
      -1.0842603958551261e-01 -1.2557944973072813e-01
      1.1830649657385146e-01 1.0461151688200507e-01
      -1.9166386734206681e-01 6.3481741639823550e-02
      -8.4674186950007807e-02 2.3866337022536122e-01
      -3.2405260094495075e-01 1.0605472316739922e-02
      8.2970274975975589e-02 -1.0849757456224862e-01
      -2.9599908259544554e-02 -1.1623566319943991e-01
      -1.1528263562654487e-01 1.2595319522443266e-01
      -9.8686852584175289e-01 9.0073633835203171e-02
      2.7350363426642106e-02 1.5241618174792673e-01
      -1.5047055738283379e-02 -1.6739429180693902e-01
      2.2844119625597603e-01 6.7923664569690304e-02
      -3.4049120144833203e-03 -2.2171014502793726e-02
      5.1661324040811640e-02 4.5314467650506063e-02
      -1.4986615258063737e-02 -2.4428421157507932e-01
      -8.7653130462843291e-03 -3.1344285622836371e-01
      -1.5313521905002214e-01 -1.0395543367300235e-01
      2.1126361036643372e-02 1.6741329487796996e-02
      6.9585165947508312e-02 3.3308180164309636e-01
      -3.1709732252500296e-02 4.2781874991061508e-01
      -2.9478215844686462e-01 1.3798661820053351e-01
      2.3615931656046363e-01 6.0802881694321860e-02
      4.0995447124883878e-02 -9.7824198150037844e-02
      -1.5213426398028501e-01 1.8299705697018409e-01
      -1.1798533252205294e+00 1.1902269705117237e-01
      1.0151825027042942e-01 2.2632302867635887e-01
      3.5080919555722151e-02 2.6976516666484518e-01
      2.6468679959451036e-01 9.7807012566242912e-02
      -1.2434681979188084e-02 -3.4008198357500227e-02
      -5.1592709133262832e-02 3.0941707761635549e-02
      -1.1540605970949924e-01 -4.9566234929954017e-02
      2.0068385315104728e-01 -3.5473756142503726e-01
      -2.7263646139837339e-01 -6.3539613071370876e-02
      3.5650772003611442e-01 7.3893350951684519e-02
      -2.2206273887726485e-01 2.4857181708624534e-01
      7.9633722059296082e-03 4.7706121106984578e-01
      -4.8016038619892498e-01 2.9687179790378049e-02
      1.5376120443858435e-01 -4.0974840615934482e-02
      -6.9180013167032747e-02 -1.2646522951638329e-02
      -1.6344827987676208e-01 -1.8557565920561438e-02
      3.4971501701874974e-01 -2.4547943449289228e-01
      1.2376072563850787e-01 1.0839213792267896e-01
      -5.8030553217520695e-02 2.7946630884094420e-01
      2.6254722731457500e-02 7.4468570080278434e-02
      -2.8678235768892578e-02 5.0975286168135271e-02
      -1.0991422025457202e-01 -2.1204433205952955e-01
      4.9241496497529388e-02 3.6724592903614989e-01
      1.5154005100467141e-01 -1.0503067606071573e-01
      -1.1529864391869751e-01 1.1169380912991105e-01
      1.1326075884710555e-02 -1.0893791093202985e-01
      -3.1644092565148579e-01 7.3601184821946650e-02
      -1.8339752848095073e-01 2.6787220731031020e-01
      -8.5814030925557991e-02 -6.1994579958309919e-02
      -1.1587158244289426e-01 -2.2207443498537588e-01
      1.9665069410516725e-01 4.2493308445165121e-02
      -3.7031440204247576e-02 -2.2508148843446113e-01
      7.0569282506273290e-01 3.7616497591277454e-01
      -2.2828299556935183e-01 -6.0809540030204924e-02
      -6.4705972364044809e-02 -2.9814736997493485e-02
      -2.7553392914772101e-01 2.4956560989713564e-02
      -1.8972970290423788e-01 1.2851614789085062e-02
      1.9839746852820370e-01 6.6836859243518546e-03
      1.2070002922521016e-01 -3.2957134251103437e-01
      -3.1053737842183510e-01 9.6728596852409074e-02
      5.7261869735699836e-03 6.7373706146981904e-02
      -1.4139847936180527e-01 -1.5120805866814244e-01
      3.2583452310486073e-02 3.0656991297216946e-01
      -2.5940381291497866e-02 -2.1747760013514364e-01
      2.8776531826935153e-01 4.1789597807470588e-02
      1.3413016123271468e-01 3.3377460321837754e-01
      -1.1957459703213269e-01 9.6008749067015772e-02
      -6.6300362995840465e-03 3.8195519619710311e-01
      6.0691766264072500e-01 9.5377645538120989e-02
      -5.5972528785115237e-02 1.1817167440863506e-01
      7.8532809450351255e-03 -1.5931247438798002e-01
      -5.7008879821994440e-01 1.0674992281917919e-01
      -4.4852790816121829e-01 7.5166844177162198e-02
      -1.3559488370382822e-01 -9.6675186211160405e-03
      1.5356470754804996e-01 -1.2429959322985046e-01
      -1.3351754956090403e-01 1.4042461427996780e-01
      -6.6875366125460370e-02 9.9219092231947803e-02
      -4.4548117843617882e-02 -3.2438177768905635e-01
      -3.0413265326026302e-02 5.0350824729671373e-01
      -1.0494967986121534e-01 -2.4184642448395688e-02
      2.1061519810081444e-02 3.3075541111935702e-01
      2.5167150674394223e-01 2.1644377957661132e-01
      2.0845898580917321e-01 2.8211597234144816e-02
      -2.8168070007482230e-02 2.3522942656069126e-01
      2.7409074773317704e-01 2.2400615991310827e-01
      4.2972089968290855e-02 4.1538254293889201e-02
      -1.6076970588499141e-02 -2.2882998316791876e-02
      -3.0578254016344980e-01 -8.5675761540737454e-03
      -2.5875994761591098e-01 1.6825582704692813e-02
      2.1462950966561156e-01 3.4900801695937644e-01
      7.0579672125963805e-02 -3.0758038515751018e-01
      -4.7118249379046367e-01 4.3624983117949451e-01
      -7.9769808447733390e-02 8.7164916021408251e-04
      1.2314897574416875e-01 -4.6146649181042082e-03
      6.4707977412959181e-02 3.3520209777285781e-01
      -1.3097050546409462e-02 -2.3091340374055772e-01
      -4.3301394915946111e-02 2.7057326720501446e-01
      2.1468930308091072e-01 2.6429308989059885e-01
      -1.6761101858666516e-01 -5.2202368210587761e-02
      4.5886355482706191e-02 3.4536754810415810e-01
      5.0875587615922466e-02 2.9720285659260171e-01
      2.2425286235415259e-01 -5.5788340867051665e-02
      -5.8153338670420940e-02 -4.5750495763060894e-01
      -3.0581320211734214e-01 -1.2196546346806907e-02
      -3.1914653216217448e-01 2.0364301210851983e-02
      4.6186740030074941e-01 2.8290036985827932e-01
      1.0814962479279372e-01 -2.7464570594263760e-01
      -4.7631116860611272e-01 3.9978949233442801e-01
      -7.6733618228790226e-02 -1.8480668242783518e-02
      2.1432341982907492e-02 -1.6663675125678590e-01
      4.8037634754093017e-01 1.8611622911968642e-01
      -4.2908821389235234e-02 -1.9215493121855207e-01
      4.5075419662218158e-01 1.8323572996257026e-01
      2.5340666852894816e-01 2.9507136658637029e-01
      -1.7396932123189698e-01 1.4094006114836998e-02
      1.8379986852149061e-01 4.1005384489683100e-01
      -1.4329492019543849e-01 2.0956902799141475e-01
      1.1115052821538715e-01 -7.9887483272940540e-02
      -7.6073894148896162e-02 -8.3554491537801881e-02
      -4.0870061367488393e-02 2.6563691549674362e-02
      1.3938317557004119e-02 -2.0198204455897751e-02
      2.6237151850452267e-01 1.3905437780460767e-01
      2.9562888590646479e-02 -3.1954408529993727e-01
      -2.4719084171132757e-01 4.4784939689799858e-01
      -5.1273837903536741e-02 -5.3242541957660067e-02
      1.1298230578266599e-01 2.2982835434012597e-02
      1.7198447574572351e-01 -1.2749149802065315e-01
      5.0360433286415041e-02 -1.1476669937211337e-01
      2.2005575198348923e-01 8.1796453000289038e-02
      1.1704223016301929e-01 7.6223681410398800e-02
      -1.9160750598628071e-01 -2.1982852387535039e-02
      9.4506071115968551e-02 1.8680195703175670e-01
      -1.3180906611593102e+00 2.5239963029465873e-01
      8.9899208965307453e-02 -1.0473700391039203e-01
      -3.5832280295669192e-02 -1.9910204071495249e-01
      -9.2584340068057214e-02 -3.1842964155126136e-02
      -1.5118010743225235e-01 5.6798209765741127e-03
      2.3610418260160573e-01 1.3524079965080418e-01
      4.2039981892730859e-02 -2.1615760375804360e-01
      -1.9084775346473706e-01 2.0462163170196093e-01
      5.8798701635629037e-02 -2.2131051294886402e-02
      -4.8027571364403270e-02 -3.5958054160655228e-02
      1.7584276641230093e-01 -9.1930086527072047e-02
      1.3659291011019729e-02 -2.0114223939836276e-01
      1.1707839101691628e-02 7.2392055368807176e-02
      1.6883644927086061e-01 1.4625214542226753e-01
      -1.2220517164425349e-01 3.0284038442391137e-02
      1.2093647086905297e-01 3.2615904798768286e-01
      -1.1776516438930942e+00 2.4355813937101564e-01
      -1.8899498588096260e-02 -3.3425366029363912e-02
      -2.3522713827277303e-02 -3.8580930242744788e-01
      4.4300811037326790e-02 -5.2594558686539075e-02
      -1.6199173257203539e-01 2.0794374096607263e-03
      2.2768525953932603e-01 -2.8697608940080541e-02
      4.2813538034256193e-02 -4.3532998267816592e-01
      1.3036611476076768e-01 -1.1883823226921936e-01
      1.6853017669715208e-02 -1.9318965537027447e-02
      4.0784640839667631e-02 9.6718097347511509e-02
      4.8923442525540783e-01 -1.1463522603413326e-01
      6.1787779370812444e-02 -4.5520423345186467e-02
      -1.5387161619637255e-01 6.6131045945171116e-03
      6.3423684463695049e-02 1.1189930535280562e-01
      -2.4362574601394682e-01 2.1463802475925314e-02
      -2.5604869407933065e-02 1.6935837260470418e-01
      -1.0803385907036689e+00 -9.7934120220789608e-02
      1.1791284765857440e-01 4.3959640598740773e-02
      7.4046186800982086e-02 4.6960970176721469e-02
      -1.3969551107751013e-01 -2.6533714895677116e-02
      -1.3380330220580561e-01 4.8549779374119167e-02
      -1.6711713496790356e-01 -3.2986092577905402e-01
      5.4269964720010666e-02 1.6969925679290465e-01
      3.8967814296073600e-01 -2.8365584490851115e-01
      -6.3481772568584061e-03 3.3915255327401438e-02
      -3.7988604087837584e-03 -1.0024880812219142e-01
      -7.1722061757554703e-02 1.9994185309788901e-02
      -1.5509584272777441e-01 1.7688523795175490e-01
      -2.3411969992934289e-01 -3.8168666961799977e-02
      8.8203616620428464e-03 -3.8051212227323383e-02
      2.1550454880593484e-01 4.8650900163202851e-02
      3.6308667700480378e-02 -5.5323003834962692e-02
      -4.0524014532959213e-01 9.6061142021622276e-02
      6.7408360042346849e-02 2.2004824498723527e-02
      -5.5078641491256375e-03 -4.3881798287807627e-01
      -1.8199954957362027e-02 -8.3198937872934572e-02
      -7.9373919527075412e-02 9.8808009781548300e-03
      4.3010073430682354e-02 1.1580517620945552e-01
      1.1334458131167416e-02 -2.0595550576768298e-01
      4.1103048216133010e-02 -1.8135581534233744e-01
      4.3420685574178719e-02 2.5275013260306154e-02
      -8.0247963360066104e-03 1.0424655887385949e-02
      3.2490109879019735e-01 -3.8681284200358414e-02
      -4.5431216664753839e-02 -2.9068039613840002e-01
      1.2989045192306201e-01 -2.2730620678581032e-02
      -3.8236420890250186e-02 2.7655744461939871e-02
      -9.6754365136961409e-02 4.3794215712337325e-02
      1.2055112626073052e-01 7.1602730456441013e-02
      -2.5928427372914414e-01 5.0522415973079993e-02
      -5.6598312789760831e-02 5.5100682880606829e-02
      6.5172391006642266e-02 -1.4007490321656135e-01
      1.6409521870127297e-01 -1.1211251073213087e-02
      8.1174240522516997e-02 -1.5846737982057023e-03
      -7.2540419975859478e-04 1.9140545933447165e-02
      -6.2586918634351604e-02 -1.6971429408947675e-01
      -1.1121566479681765e-01 -1.9195464283110289e-01
      -6.6084331443472741e-02 9.5259185845276966e-03
      3.3705093044844779e-02 8.9067751878250445e-02
      1.1542499502441736e-01 -4.4546540326735599e-02
      -1.2539103623091621e-01 1.0035849912373807e-01
      -1.5219660112123096e-01 -2.7346648222295974e-02
      1.2496056590410400e-01 -1.1904409614182949e-01
      6.8156265415711065e-03 5.7428256015035768e-02
      -8.0690216678163548e-02 1.3433291527339419e-02
      -4.9773071354914522e-01 1.2101231320700771e-01
      -9.8831087124956737e-02 6.8677553710147179e-02
      9.1882271423228815e-02 7.5051035346296452e-02
      2.5146233862514067e-01 2.9792903704810605e-02
      1.7683937931557134e-01 -1.0301472713345073e-02
      -3.9871840739944299e-02 -5.4122072311603084e-03
      -1.0614234491451656e-01 -8.0131955288870543e-02
      2.2923911129049593e-01 -4.0638653977981304e-01
      -6.4775180370512511e-02 -2.3036863640724919e-02
      9.5835371124940602e-02 2.2413435418776737e-01
      -7.9546178005533458e-02 -8.9987650925911350e-02
      -6.6709233195013540e-02 8.3999864490710605e-02
      -4.4126474664596328e-02 -3.7365432212548885e-02
      8.2194592087258350e-02 -1.4281118897631270e-01
      -5.5690021137512627e-03 4.8614757936518246e-02
      -1.6709892173774946e-01 1.7921653434276413e-01
      -6.6104210638528571e-01 2.6267204824993490e-03
      4.8986792254257901e-02 4.3077228173895574e-02
      7.4246233282348834e-02 4.7389243233107024e-02
      2.9445932712052383e-02 4.5813883244654061e-02
      3.0504397959941861e-02 1.2531042893008344e-02
      -4.7522341873360512e-02 1.6589984728360585e-01
      -6.2058403982752135e-02 1.1212861520040855e-01
      -2.9341710533973808e-01 -8.7187301326443534e-02
      -5.4085319402603055e-02 -3.6794802999559319e-02
      -1.1909947369851363e-01 -2.5782489676855553e-02
      -1.9569270600368852e-01 -2.5163233867421905e-02
      -1.6255430049055730e-01 4.0240557782872007e-02
      -1.1300169119983464e-01 -7.6235616402038270e-02
      7.9378195250705358e-02 -1.2322991755814673e-01
      2.1348060870015415e-01 -7.1537727907171680e-02
      -1.6336981975585751e-02 1.0373594542851565e-01
      -7.3301409261365746e-01 -7.8914152367697485e-02
      3.0899760353967486e-02 5.7713075551387799e-02
      6.2425014311556441e-02 1.8395084831491637e-01
      1.9473869093915250e-01 9.5608500624174253e-02
      7.0055187379708700e-02 -5.1951036797905040e-02
      2.1185929237471235e-01 2.7339129419229574e-01
      -7.3733020674318903e-02 -3.1640335666642866e-01
      -2.4660554624225489e-01 -1.2652720498462014e-01
      -7.4508156676540899e-02 -1.5495744194981034e-01
      1.8505447515759468e-01 2.6013843605081655e-01
      -1.4732689500816901e-01 7.5963202647991168e-02
      1.0999026263168082e-01 2.0128889194072719e-01
      -2.1733446914861493e-01 1.2632860380944086e-02
      5.8100255678969655e-02 -9.2084734869859367e-02
      -1.9216429926850476e-01 -1.3965867381883387e-01
      -1.8041541020515015e-01 2.9023039670083149e-02
      -1.2190675562573201e+00 1.6440870570556604e-01
      1.7011435343587478e-01 1.1882654123833718e-01
      1.0605805827766979e-01 3.8292988657597560e-01
      -1.3210068422764157e-01 9.2669049821442195e-02
      -9.8835917978166293e-02 -4.1283960811080772e-03
      -4.8978047465841730e-02 1.0877950241320154e-01
      -3.2492583095342947e-02 -1.6437047956021886e-01
      2.5892982701769669e-02 -7.8562818580360572e-02
      -1.4266213902829508e-01 -7.0027984316667735e-02
      2.4621110901550805e-01 -3.2348768626779406e-02
      -4.2085168106390120e-01 2.8855062362830175e-01
      -9.8903813091551732e-02 4.8700597673044238e-01
      -5.4454919300148252e-01 1.1189540383331317e-01
      3.1709733468252310e-01 -1.6959825369907089e-02
      6.8614305378735752e-02 -3.8717845967948264e-02
      3.2881441755055813e-05 1.7130988742073211e-01
      -7.7472999557384215e-01 1.0805175793210897e-01
      1.5034210084397207e-01 1.9537574534032287e-01
      1.1260285588382098e-01 1.8464522039618098e-01
      1.8106200154797661e-01 5.8295316344475150e-02
      -3.3239580417090386e-01 4.4170188632210398e-03
      -9.6129414238775468e-02 1.0512212373046834e-01
      -2.7819307949521241e-02 1.1431804175282398e-01
      9.0057507029802697e-02 -5.7987466333014603e-02
      -2.4410919086387570e-01 -3.4644765669788878e-02
      3.2300017729218450e-01 -6.5742500115992752e-02
      -1.2948945420536051e-01 3.8765793814083699e-01
      -8.5013424892313449e-02 5.3220766966633981e-01
      -3.4296398942875550e-01 1.2571424867850900e-01
      2.6618109085900937e-01 9.1420040070492384e-02
      7.5358182307694546e-02 -8.4649576019869192e-04
      -9.2905906136649917e-03 1.0275025327675398e-01
      3.8659380982248903e-01 -5.8938728104889079e-02
      -4.9466569628786559e-03 7.7934227922320284e-02
      -3.5333338975036030e-02 3.7268386801723070e-02
      3.1715671105849180e-01 4.2856962591430355e-02
      3.0617538562844444e-02 2.5942025561251265e-02
      -2.1714575063363403e-01 -2.2259570461015202e-01
      -3.3179176115444881e-02 3.6027339042851936e-02
      9.3521389816694819e-02 2.2014859920328447e-01
      -1.8249587611072979e-01 1.4510041729430334e-01
      -4.6360303683745406e-02 7.9184555486397093e-02
      -2.6274760600115005e-01 2.9257846157551212e-02
      -3.7913862447100521e-01 3.4931358200667195e-01
      6.0087061653938116e-02 -7.0353950262013951e-02
      -7.5784114794015880e-02 -6.9847076923068727e-02
      3.4522469663854227e-01 1.0171133568511020e-01
      -1.3475426864188170e-01 -2.7650816540408529e-02
      8.4953688171363917e-01 6.1283188705136815e-01
      -2.0288248724411412e-01 -4.7478163760600385e-02
      -5.0921250570168074e-02 -3.8517675454783912e-01
      -2.1395772625014270e-02 -3.8658689147538158e-02
      -7.4374358561259818e-02 3.1678459748419117e-02
      2.8608316704452519e-01 2.2575863784677552e-01
      9.1111891958520499e-02 -6.0072587173062542e-01
      -5.6838626185014696e-01 6.9004526801170751e-02
      9.7478517777832788e-03 1.0052499857354603e-01
      -2.2920315672144767e-01 -1.2058640676257497e-01
      2.7610884506450112e-01 2.5057616249155668e-01
      -8.2265175560606404e-02 -8.4906310403199056e-02
      3.0114194316301313e-01 -3.4201864626204510e-02
      1.5135547107614600e-01 3.8025967633733365e-01
      -1.5834823793912114e-01 1.9441726993152796e-02
      -3.6547350457220650e-02 4.5863972774265022e-01
      3.9986015346334158e-01 3.9210392073595396e-01
      -1.6643886147904585e-01 9.6365987075650972e-02
      -5.7135006771955148e-02 -5.0682118416897171e-01
      -2.4583709608863336e-01 9.8275748531486753e-03
      -3.4972122049327647e-01 2.4024965877146670e-02
      -6.9915209102696121e-02 3.2902493276954770e-01
      4.7919026369084822e-02 -4.5353766796653461e-01
      -4.1879382158340483e-01 8.6856911885969071e-02
      -2.7710590164500146e-02 4.2120684386001112e-02
      7.0622491935772802e-02 -6.2110478136982540e-02
      4.4862099029783215e-01 3.4396780678763328e-01
      -9.7820102850745258e-02 -1.5526357733540830e-01
      -3.5258080816575450e-02 2.4545524824365694e-01
      3.0674292370683681e-01 2.3713490001680790e-01
      -6.7042350009138621e-02 4.2744326160544990e-03
      -1.2732039972130998e-01 3.7250662205104224e-01
      9.2340161930500944e-02 1.3168619846105181e-01
      7.5553691046877314e-02 -1.5958498093192972e-02
      -3.7980266856903082e-02 -3.8520818475392254e-01
      -8.8977786724410299e-02 -8.0877154850300711e-02
      -1.7769973569626246e-01 8.8897293877001876e-02
      2.5722840262245219e-02 8.9226747998619668e-02
      6.9397164765830827e-02 -3.1930615171168586e-01
      -1.7848932116126939e-01 1.4026468141439816e-01
      -2.8273412950402640e-02 1.2727369263691835e-01
      -1.5295224217827111e-01 -2.0733355608279125e-01
      2.4819992890055842e-01 1.5722794008261107e-01
      -1.3035642846180862e-01 -4.0451870015517938e-01
      8.2276242168656102e-02 2.2231132254005656e-01
      3.8964961644144314e-01 6.7379285955224730e-02
      -1.9778632493456398e-02 4.5321070316011354e-03
      7.3285845980230080e-02 1.7133716871891758e-01
      3.1527957514823168e-01 2.4758522214653766e-01
      1.5546816767227672e-01 -1.1076135904284583e-01
      -5.5318428597535246e-02 -3.2617035122151300e-01
      -9.9204305945606794e-02 1.1350552361567344e-02
      -1.0328809766770437e-01 1.1704947194840011e-02
      1.5778970177380100e-01 1.6071955031279681e-01
      1.0244729585116460e-02 -2.8700858504846410e-01
      -2.6224991720525953e-01 2.7778396587472387e-01
      -3.2166935546106890e-02 2.9428345246935064e-02
      3.8547688242173014e-03 -1.5485948055568363e-01
      2.4941311053089774e-01 7.1937100103430421e-02
      -2.4572170431572407e-02 -3.7473985942575311e-03
      1.5019679207905734e-01 -5.4199471992281763e-02
      1.7050105455454695e-01 1.0943052907583138e-01
      -5.9767466184701247e-03 4.5900137358040050e-02
      1.2741468897943212e-01 2.5981407272096280e-01
      -1.8569078394250546e-01 2.9200529948577336e-01
      9.4653463737589580e-02 -1.8425219154399242e-01
      -1.1401351322781120e-01 6.1359870377945186e-02
      1.4957142896710299e-01 -2.4557085860858644e-02
      4.1005437817199557e-02 -4.4202553200738390e-02
      1.0133659326717939e-01 1.2418898825159608e-01
      -1.0821353005753778e-02 -3.9632895274362201e-01
      -6.8449189750905345e-02 3.0706850955712062e-02
      3.8088242426083781e-02 -3.3746605151377639e-02
      5.6739495255353385e-02 1.3419182897239540e-01
      -8.9724115126219181e-02 -2.0428238404114987e-01
      9.1007338455157599e-02 -1.4448113414208616e-01
      4.1555034079967086e-02 -1.2695758295873139e-01
      -8.3127600496957707e-02 9.3670668794329726e-02
      -9.3903113186645834e-02 3.0058210028214020e-02
      1.4117421322104889e-01 8.1324500688077922e-02
      -4.8252568680999813e-01 1.9398556927995153e-01
      -2.3956920322501175e-02 -9.1081001305000270e-02
      -6.3257034302174789e-02 -3.0797582226271023e-02
      1.1592315055549492e-01 -5.7130132032498934e-02
      8.3908593392808539e-02 -4.5108495735357766e-02
      1.2967103535148228e-01 1.3679110794639082e-01
      -6.0522106478985878e-03 -2.3414216764606066e-01
      -1.1636155192124170e-01 1.1475632808442655e-01
      -3.2328684141410602e-02 -7.0852228739016018e-02
      8.6145859435220407e-02 1.7557406039470588e-01
      4.0701019478335758e-02 -1.0151621052204576e-01
      6.1949727639532846e-02 -6.1193042145006012e-03
      7.8776906851659861e-02 -2.4814486199101263e-02
      -1.0107490769147895e-02 4.3713492663550124e-02
      -1.4649793284678875e-01 -2.2297762862415638e-02
      4.6108979823797306e-03 1.4444649955316280e-01
      -8.2148617384394296e-01 1.6738117577959627e-01
      -1.0436685222461103e-01 -3.6385031921640693e-02
      -5.5490466375823784e-02 -2.1182201599590847e-01
      6.7657625965461182e-02 -7.3951275873842967e-02
      9.9068206747680576e-02 -4.8337737551599126e-02
      1.8842808586906998e-01 7.0360346414040459e-02
      3.0738836802159174e-02 -3.3998879081614197e-01
      -6.7790968985437933e-02 1.0950262220270496e-01
      1.8326317707144813e-02 -8.9250728407891403e-02
      -6.9426034667327635e-02 1.0136035755566108e-01
      2.1740810927605608e-01 -1.1498682678484413e-01
      9.1286728048008900e-02 -1.2308164338095015e-01
      2.7948891658618402e-01 -1.9903673939182423e-02
      9.9434140907764691e-03 3.1958944725783242e-02
      -1.8330278546348117e-01 -4.8486949495054027e-02
      -1.4603321427234667e-02 1.4919877968764764e-01
      -4.3595579368684623e-01 9.0948182473668329e-02
      -1.0286645907425339e-01 3.2427800541317650e-02
      -2.1605641517834315e-02 9.9193071856089263e-03
      2.5434022313366161e-01 -5.0184486988478307e-02
      1.1833372703815523e-01 -3.9368627466770931e-02
      -1.0384369779721347e-01 3.0900500207588872e-03
      1.6880629919531188e-02 -2.2412202214237462e-01
      1.1996740039745785e-01 7.8311354340722658e-02
      2.6515601698097149e-02 -8.5264416697629922e-02
      2.5079745776318018e-03 1.7155226101880325e-01
      8.8583931872235053e-02 -8.9448047100025956e-03
      8.4328723307935075e-02 2.6081744076391150e-01
      -2.7781384459166275e-01 -4.2481879792647594e-02
      -1.3895923696291165e-01 1.3569887705638800e-02
      -1.1526184953586090e-01 -5.7354068437374728e-02
      -1.0868308538542655e-01 -1.0024562575321085e-01
      -3.1617080300056877e-01 -9.6078924507548274e-03
      -5.1865070159287117e-02 4.6575494152577633e-02
      3.9547915196770929e-02 -1.9219978804566584e-01
      -1.6283980620929789e-01 -5.8349113039163625e-02
      -1.0439295905186476e-01 -5.9397018031684028e-03
      1.8506330213534518e-02 8.1044259695438908e-02
      5.7926249983813162e-02 1.8926830381965035e-01
      -2.2099765393672521e-01 2.1131731757349250e-02
      2.3269441912323986e-02 -4.0219345503753536e-02
      -7.0988234322391527e-02 -1.5285674482431313e-01
      2.7011163132378246e-01 1.2207936862820928e-01
      -2.6096630915768112e-03 6.9349649634186952e-02
      6.7551484474009674e-02 8.7949714452150343e-02
      7.9182888931347388e-03 1.0145768814835236e-01
      -5.9963683992259223e-02 -3.5541150028834186e-02
      1.0154522524540706e-01 -8.2053726356629025e-02
      1.3672522813618765e-01 -1.6127362924354380e-01
      -4.2654683738433508e-02 4.3902757934085490e-02
      4.3174249058669019e-02 -3.0276325944726479e-01
      -1.5187077555299476e-03 6.0079842494159125e-03
      -2.6461838724876276e-03 2.8854041519330947e-02
      3.2994120713178188e-01 1.0050983188252030e-02
      5.6085473264040394e-03 3.3896672649852216e-02
      -3.4613870141727016e-01 -7.2000353821749016e-03
      -2.8828850471090874e-03 1.0109668982164316e-03
      -2.6816844240702087e-01 -1.7688724602817857e-01
      2.8818045866727438e-01 2.0867558801092044e-05
      -1.0318886050473097e-01 6.5056120761736091e-03
      3.8369295499160910e-01 1.1031732524641903e-01
      1.4577142048605410e-01 -1.1178363284438653e-01
      2.2231306962016414e-02 -1.0496459316232710e-02
      3.6565336775361126e-02 -5.3696400869854818e-02
      -4.9743064143898913e-01 1.2452886041793135e-02
      -1.4548358738120198e-01 -6.5542451892748599e-03
      7.3200207458373634e-02 2.3293841481041774e-01
      2.0093384084627736e-01 3.3906361950779930e-02
      1.5645289533261145e-01 -4.5607980706587586e-02
      2.3613328327267616e-01 7.6110232982412415e-02
      -8.1637288689175219e-02 -2.0065941867702891e-01
      7.7478766763500642e-02 -7.2741194726093611e-02
      -3.6947809524969823e-03 -1.2206305065641992e-01
      1.1479888617432406e-01 2.4506580222016136e-01
      -8.6077217930117730e-02 -1.3572143964373970e-02
      2.0615135414176039e-01 -5.4942408197809676e-02
      -8.0252236007960595e-02 4.9319849471608300e-02
      1.1960318614734100e-01 -8.4338183174778161e-02
      -3.5445811523717513e-01 -2.9413432963940764e-02
      -2.4640525234820959e-01 2.9061331670066076e-01
      -3.1330208924483860e-01 -1.2776301219725031e-01
      -6.7545811279313528e-02 9.7728933280442545e-03
      8.1332405094168697e-02 3.1699287201897508e-01
      4.7465242317094682e-02 1.4740154206411589e-02
      -1.0999724633342709e-02 -2.1187124964362068e-02
      1.2091996358541422e-01 2.4109671456805923e-01
      -3.1910325530194884e-02 4.0074237339680569e-03
      -2.7694878729619338e-01 9.3165635468099139e-02
      -4.1121710489178287e-02 -8.4385432023162107e-02
      7.8920849794792219e-02 9.3885473277918893e-02
      -1.6567138821989547e-01 3.0680277299809421e-03
      1.5091692770726120e-01 8.7845162373972024e-02
      3.0398737031542767e-02 1.6520077028009745e-02
      -3.3188343237428850e-02 -4.1986178767161229e-02
      -1.7943445568820540e-01 -8.3977750416049379e-02
      -9.2088029787815023e-02 1.8068093378572427e-02
      2.0635161194273108e-01 8.4972739471350686e-02
      -1.8330774476957612e-01 -6.0054757288616104e-02
      -4.4923925412674190e-02 3.3844530418559660e-01
      2.5273796097600326e-01 -1.4307957301729038e-01
      9.8607840521802853e-02 1.7760344141381029e-02
      -3.1528072769517013e-01 1.3597519112035997e-02
      -2.7133204879095596e-02 4.2692900164512784e-02
      -1.1377923026497651e-01 -3.7114619460235032e-01
      -6.6950752656257939e-02 3.3988824199574018e-02
      -3.6203076008517998e-01 5.0826528422466641e-02
      -3.2523700624448487e-01 -5.6457667651913943e-02
      -6.3592496659038739e-02 -2.4219931574316272e-01
      -4.7830806488716411e-02 9.9676051300851887e-02
      -1.7107558700562155e-02 1.0328217227163690e-01
      -2.7239942760186341e-02 -1.5231462082386232e-01
      -2.2594537029157558e-01 -1.3082600293482063e-01
      1.2603482369494576e-01 8.3693167061003923e-02
      5.3520558866987693e-02 -9.9638876103368672e-03
      -7.8086201503470547e-03 1.3476482383407828e-01
      -5.9006552516566953e-02 -1.6623570693376524e-02
      -5.4916376902495970e-02 -2.1906178081819827e-02
      -2.2163910923935443e-01 2.1701101028389491e-01
      -1.4253174866456398e-02 -8.7870691804271026e-02
      -3.3589333480321754e-01 5.3709734337613391e-02
      -3.3591129413150116e-02 -3.4680304496805842e-02
      -9.1431560741630100e-02 -5.0994819692557029e-02
      -1.4481017284772801e-01 8.8851850666297388e-02
      -1.1104587958984001e-01 2.1966669069258333e-02
      8.2566946189145091e-02 4.5097255443893251e-02
      -9.4105013572632588e-03 1.5269119240812890e-01
      6.4765380532341765e-02 -1.0825118290024366e-01
      3.0283854504164636e-02 3.4845688766468853e-02
      -1.3679734166393490e-01 -7.3053552680291928e-02
      1.6664374289174680e-01 8.3972513436323754e-02
      4.4570359180077637e-02 1.1704747655740566e-02
      -8.3103492413791891e-02 3.0487423902163600e-02
      -2.0793149929816662e-01 8.3317390001308965e-03
      -1.0384640874489347e-01 7.5442897575187962e-02
      -6.6195421464240508e-03 8.1744255374839703e-02
      -2.8331603630296198e-01 -1.0517772142266565e-01
      -1.1054052878832540e-01 8.1707769111786597e-03
      1.2694953403565165e-01 -1.8050494363102329e-01
      -9.8328753568140706e-02 1.9213200359063637e-01
      -1.0974435033246259e-01 1.2363324523819153e-02
      -3.4507836074776435e-02 6.6914882070447920e-02
      1.7944878816214743e-01 6.2276798391714010e-02
      8.1931817344009727e-02 3.2784608701849655e-02
      5.8853833190134555e-02 5.6043080038067850e-02
      6.2074009202888669e-01 -5.0798294245387288e-02
      6.9698454523143549e-03 5.7194542775429395e-02
      -4.5773357287667404e-02 -1.4074408700128971e-01
      1.5341752985466114e-01 3.2634696225443148e-02
      2.0690517453019957e-02 5.2659953582851436e-03
      -1.5767300901334877e-01 -1.0323506759939338e-01
      -3.8624528115283607e-02 5.9404441681650766e-02
      4.7431772468923175e-02 3.1255987083570874e-01
      -1.1730429211960308e-01 4.5873615907680722e-02
      -1.7502631697189691e-01 3.2929192078337305e-02
      5.1126673175366344e-02 -1.0582425635635520e-01
      -2.2962055536176759e-01 2.1159421604484649e-01
      1.3402270639024061e-01 -6.1983928655492397e-02
      -1.2508878026982717e-01 -3.3800872444457265e-02
      2.4994060256802680e-01 2.4177601680431145e-02
      -1.9843670219500797e-01 -2.9802003266372137e-02
      3.5228971067595488e-01 4.2535705810186408e-01
      -6.3000709129284502e-02 8.9034468314592483e-02
      1.0909233830516570e-01 -4.3835760820252534e-01
      -5.8047102767571732e-02 2.1999110959443039e-03
      -9.5863640555801266e-02 3.3194675280234849e-02
      2.7272160386749855e-01 1.9076893005343515e-02
      1.1140826807408116e-01 -5.6398999896617119e-01
      -3.3209594967399236e-01 1.6339827794205022e-01
      -1.3824878634792645e-01 3.6488033670286274e-02
      -1.6669982586874740e-01 -1.4802615125711302e-01
      3.8936105761073830e-01 2.1019584671113850e-01
      -1.2480005718153031e-01 -3.7476698693748229e-03
      1.1626636560322776e-01 8.3054199304187004e-02
      1.4092040315968901e-01 1.5902712438134331e-01
      -1.3138566963293360e-01 1.3880551721574423e-02
      -1.0885140422719239e-01 3.9344790786620026e-01
      -1.5344375610228250e-01 2.5224845995673778e-01
      -4.9855023799772191e-02 1.9450032481483617e-01
      3.2262245768091710e-02 -2.7515083780967642e-01
      -4.0129093744551630e-01 2.4905950051329295e-02
      -2.9749500063031514e-01 1.2849447457084814e-02
      8.5318139674702642e-02 3.9360824169155068e-01
      6.4086865960528289e-03 -2.9778456753215793e-01
      -1.9475741493708940e-01 1.7856204189157776e-01
      -3.5456631704768392e-02 -4.8031116970721675e-02
      2.3548237480917772e-01 -6.7958655383660499e-02
      4.3552671861875480e-01 2.6182125646768584e-01
      6.1513031863028103e-02 -2.8753088502074781e-02
      -1.4850208044205443e-01 1.2120675879331980e-01
      1.3741756221333287e-01 6.4553415528631114e-02
      -2.2422672120318987e-01 5.0520022458555268e-02
      3.0338184832446203e-02 2.2759071568541173e-01
      -1.3698005078010952e-01 2.6244711742880333e-01
      1.1777200579261318e-01 -4.1800462996970149e-02
      -4.5765292508115049e-02 -4.5711262839846906e-01
      -3.6117282165829856e-01 -1.0609314939021228e-01
      -2.0094730204922190e-01 8.8511053599904174e-02
      -1.4897660921789227e-01 2.2057483927640048e-01
      1.8191747916549497e-02 1.0298714276634222e-01
      -1.2983461422427336e-01 9.4189739437285980e-02
      -4.9892124191409516e-02 1.2247324397710131e-01
      -4.0328551252275330e-01 -5.3749385285985596e-01
      4.6668616659932255e-01 1.0833955494717004e-01
      -8.0911879132160316e-02 -2.8241698410967686e-01
      7.9882235299829393e-02 1.6448547610867964e-01
      3.0105545107356879e-01 6.3348181597878250e-02
      2.9482651348454941e-02 1.9785352454930211e-02
      1.1971990367598562e-01 2.4714347670756542e-01
      2.4172649441985755e-01 6.4333921986024320e-02
      1.3066467044349692e-01 -1.8894676751961420e-01
      -3.6217058775537637e-02 -8.5666801090622635e-02
      -3.7903771442939294e-01 -4.1862140351607985e-02
      -2.0916828301707080e-01 -1.2871927507695466e-02
      2.4197516334238206e-01 4.0404853301088434e-01
      2.8440579621879149e-02 1.4786489557636651e-01
      -4.7491706876170037e-01 1.3599911872282655e-01
      7.3514394087420762e-02 -6.8966805114092034e-02
      3.4071915030055355e-01 -1.3051818457218575e-01
      2.8764657068577693e-01 1.8993381060991277e-01
      1.7021696118277244e-01 1.0280480007940371e-01
      8.8527815575633120e-02 -3.3405464346516034e-02
      2.4525193145241503e-01 8.9643504543821667e-02
      -1.6825747035869115e-01 6.8713199270919775e-02
      2.9878005141114483e-01 1.0363975905745543e-01
      1.6125049892859769e-01 -1.3474656014382921e-01
      1.2543487894423944e-01 -1.6164144278224968e-01
      -3.3614620970620644e-02 2.9840601088315327e-01
      -1.0735865589027510e-01 -1.8666829040273815e-02
      1.7188501484021707e-01 -5.6913020858293363e-03
      -3.2859040280170067e-02 3.0792347175531616e-03
      1.2114986393045219e-02 3.1530919648725397e-01
      -1.0402479137863753e-01 -5.5412277943972563e-02
      3.2179782895520807e-02 -4.8750878870578031e-02
      -1.5170919933021158e-02 -1.7246508433690214e-01
      -4.1916742466776546e-01 -7.9619097105609077e-02
      8.9145983133131872e-03 1.3536232190946469e-02
      1.7542492732342502e-01 -1.7613960682491739e-01
      -4.3353679037709848e-03 -1.4358037454142555e-01
      1.7167373963201266e-01 3.2795968862238706e-02
      2.7048081318171879e-01 -2.9321792194830321e-01
      -6.3508385811880197e-01 1.1842868839983139e-01
      -8.5759321805802494e-02 -7.6252900760269623e-02
      -2.3328888844055925e-02 1.7678643913119030e-01
      1.5747555290818357e-01 -5.7610127747712792e-02
