<?xml version="1.0"?>
<opencv_storage>
<OCR type_id="opencv-ml-ann-mlp">
  <layer_sizes type_id="opencv-matrix">
    <rows>1</rows>
    <cols>3</cols>
    <dt>i</dt>
    <data>
      256 32 2</data></layer_sizes>
  <activation_function>SIGMOID_SYM</activation_function>
  <f_param1>5.9999999999999998e-01</f_param1>
  <f_param2>1.</f_param2>
  <min_val>-9.4999999999999996e-01</min_val>
  <max_val>9.4999999999999996e-01</max_val>
  <min_val1>-9.7999999999999998e-01</min_val1>
  <max_val1>9.7999999999999998e-01</max_val1>
  <training_params>
    <train_method>BACKPROP</train_method>
    <dw_scale>1.0000000000000001e-01</dw_scale>
    <moment_scale>1.0000000000000001e-01</moment_scale>
    <term_criteria><epsilon>9.9999999747524271e-07</epsilon>
      <iterations>1000</iterations></term_criteria></training_params>
  <input_scale>
    5.7027761029946360e+00 -5.5216715233822171e+00
    3.4360743530563314e+00 -3.1150524734855294e+00
    3.1448614566962889e+00 -2.7859126587671668e+00
    3.0906545241631727e+00 -2.7234768056169436e+00
    2.9416698263291141e+00 -2.5494244281255498e+00
    2.7486783100743666e+00 -2.3171053577981433e+00
    2.5232383391708750e+00 -2.0308284577934317e+00
    2.3516737999353516e+00 -1.7943774526605403e+00
    2.2969326819248792e+00 -1.7132450023189525e+00
    2.3116315730985453e+00 -1.7353933330747691e+00
    2.4354686720945722e+00 -1.9126277906059863e+00
    2.6149552289727347e+00 -2.1497944862056522e+00
    2.8410231919597706e+00 -2.4293987028027058e+00
    3.0602731093923756e+00 -2.6882893408248227e+00
    3.1211052613022150e+00 -2.7586029271879817e+00
    3.4563778190679781e+00 -3.1376699867522246e+00
    3.4581377665292008e+00 -3.1396287731926713e+00
    2.6568119788085749e+00 -2.2028558008201191e+00
    2.3299864817745339e+00 -1.7626630923211650e+00
    2.1379696914178692e+00 -1.4467792347029411e+00
    2.0451368112306589e+00 -1.2362179882563371e+00
    2.0176065926478217e+00 -1.1417848389303500e+00
    2.0065745215857258e+00 -1.0844372926428025e+00
    2.0021435166007189e+00 -1.0473822891391775e+00
    2.0010270790772728e+00 -1.0325657282334924e+00
    2.0010166816923860e+00 -1.0323978391614972e+00
    2.0052814510587589e+00 -1.0753622800375207e+00
    2.0154440858643627e+00 -1.1322359610755335e+00
    2.0439735187058479e+00 -1.2328348949688008e+00
    2.1328623614985007e+00 -1.4369382161402673e+00
    2.3286334537353977e+00 -1.7606668257726223e+00
    2.6359713339766158e+00 -2.1765229220836328e+00
    3.3125103026574654e+00 -2.9765509993502901e+00
    2.3514753925677669e+00 -1.7940896433681741e+00
    2.0709841803404601e+00 -1.3042742860186749e+00
    2.0031181686600417e+00 -1.0574214097738266e+00
    2.0006324998562062e+00 -9.7516471179972575e-01
    2.0018566196785081e+00 -9.5782980130745066e-01
    2.0020476890912624e+00 -9.5576086465128385e-01
    2.0038284366351751e+00 -9.4001025344503253e-01
    2.0041043831707461e+00 -9.3795387131838737e-01
    2.0028411712155201e+00 -9.4809902074897945e-01
    2.0013739844615488e+00 -9.6361333015276940e-01
    2.0003340462029358e+00 -9.8188932905511628e-01
    2.0000327220967802e+00 -9.9429601451480709e-01
    2.0027354627747815e+00 -1.0536872637240784e+00
    2.0740444380229448e+00 -1.3116402860126770e+00
    2.3454884013538257e+00 -1.7853851723898171e+00
    3.1744697417803009e+00 -2.8198396475195744e+00
    2.1707272075451725e+00 -1.5072808378294749e+00
    2.0047045504318035e+00 -1.0709823242505254e+00
    2.0015207287244676e+00 -9.6175643022180635e-01
    2.0029211469288710e+00 -9.4739320619252021e-01
    2.0006197164711663e+00 -9.7541382475046023e-01
    2.0001655974543553e+00 -1.0129515325415124e+00
    2.0012281820770559e+00 -1.0356648996577229e+00
    2.0023734117792129e+00 -1.0499188313314687e+00
    2.0027991384819583e+00 -1.0543249627304805e+00
    2.0020308835560221e+00 -1.0460922060588078e+00
    2.0001142070955287e+00 -1.0107440280980631e+00
    2.0023103591994205e+00 -9.5307510431557485e-01
    2.0020624510007945e+00 -9.5560530309009317e-01
    2.0041673550370116e+00 -1.0666723510535212e+00
    2.1660424544118100e+00 -1.4988757433273301e+00
    2.8911985483776621e+00 -2.4895136679660577e+00
    2.0558424611993074e+00 -1.2658751259607224e+00
    2.0000210057243102e+00 -1.0045937151221835e+00
    2.0013878033000720e+00 -9.6343420761516951e-01
    2.0004674278321493e+00 -1.0218550564817839e+00
    2.0053461168790641e+00 -1.0758390486295444e+00
    2.0103950393706782e+00 -1.1072859792758221e+00
    2.0134441533939538e+00 -1.1228656934353656e+00
    2.0154206210583960e+00 -1.1321292397435763e+00
    2.0201114037974270e+00 -1.1522264476170321e+00
    2.0194110504680314e+00 -1.1493667141452497e+00
    2.0070492255970849e+00 -1.0875582280513947e+00
    2.0000787925511228e+00 -1.0089160005355928e+00
    2.0031285804422967e+00 -9.4560870563665189e-01
    2.0000394043341236e+00 -9.9374238408534943e-01
    2.0630802103637889e+00 -1.2846704838381788e+00
    2.6150889043038896e+00 -2.1499650682062588e+00
    2.0184973661180003e+00 -1.1455678095832194e+00
    2.0000371079806616e+00 -9.9392689371481968e-01
    2.0000008832974028e+00 -1.0009402807828147e+00
    2.0060728200476214e+00 -1.0810238438414073e+00
    2.0176883447763543e+00 -1.1421354480276058e+00
    2.0157389536898256e+00 -1.1335710375179531e+00
    2.0114554941164711e+00 -1.1129112402035610e+00
    2.0146566233631269e+00 -1.1286144506885785e+00
    2.0206878601197236e+00 -1.1545481498622212e+00
    2.0254785626367906e+00 -1.1728668926953840e+00
    2.0176442999431545e+00 -1.1419466416073230e+00
    2.0035067673608848e+00 -1.0609973007961728e+00
    2.0007496121562935e+00 -9.7299319480543867e-01
    2.0003760209066863e+00 -9.8079584052275737e-01
    2.0265185769121459e+00 -1.1766434542816115e+00
    2.4358992867202218e+00 -1.9132203343582441e+00
    2.0060292011193175e+00 -1.0807210284524109e+00
    2.0009640468117351e+00 -9.6942917879705282e-01
    2.0012281820770559e+00 -1.0356648996577229e+00
    2.0122074172554103e+00 -1.1167593569897405e+00
    2.0169165614002527e+00 -1.1387967014081233e+00
    2.0101570745723158e+00 -1.1059887256383900e+00
    2.0020099744570623e+00 -1.0458489885708686e+00
    2.0006162527744378e+00 -1.0251344776356062e+00
    2.0048594297021576e+00 -1.0721816554435475e+00
    2.0131238168453836e+00 -1.1213089148652624e+00
    2.0141191745189277e+00 -1.1260932475879684e+00
    2.0063304410227651e+00 -1.0827922237430163e+00
    2.0000642855940653e+00 -1.0080500369859606e+00
    2.0015334462670351e+00 -9.6159997535688169e-01
    2.0112800776979687e+00 -1.1119973974857367e+00
    2.3187760143421570e+00 -1.7460570375213471e+00
    2.0013791583980258e+00 -1.0378330028093585e+00
    2.0026533066503323e+00 -9.4979931437410603e-01
    2.0016806575090471e+00 -1.0418447634105801e+00
    2.0123429656004639e+00 -1.1174416620955734e+00
    2.0091344948196110e+00 -1.1002508644427822e+00
    2.0007572623026335e+00 -1.0278996352060801e+00
    2.0045364819113654e+00 -9.3487664779749757e-01
    2.0101145401930038e+00 -9.0435912625147907e-01
    2.0023643520222620e+00 -9.5254320436921414e-01
    2.0014437723075615e+00 -1.0387257468416189e+00
    2.0066162910209409e+00 -1.0847159758934226e+00
    2.0079027422886000e+00 -1.0929365138509346e+00
    2.0007572623026335e+00 -1.0278996352060801e+00
    2.0036489131519541e+00 -9.4139067633883022e-01
    2.0040211732207660e+00 -1.0654551740807416e+00
    2.3019795729974457e+00 -1.7208823102471711e+00
    2.0015553714003391e+00 -1.0402235498102059e+00
    2.0042551117838450e+00 -9.3686165148603562e-01
    2.0015080643181093e+00 -1.0395951557602849e+00
    2.0113000550519682e+00 -1.1121017906067934e+00
    2.0073509416603943e+00 -1.0894918489069823e+00
    2.0004007239833905e+00 -9.8018126789834170e-01
    2.0150071897013611e+00 -8.8477016974959222e-01
    2.0222833902970225e+00 -8.6145025361692396e-01
    2.0121140264370609e+00 -8.9582673676877034e-01
    2.0000680609486281e+00 -9.9178405431062855e-01
    2.0071201041350863e+00 -1.0880158281033485e+00
    2.0113200505279645e+00 -1.1122061956031992e+00
    2.0016277067797859e+00 -1.0411669094962905e+00
    2.0036997620308159e+00 -9.4099608827751091e-01
    2.0017190003383778e+00 -1.0423292370735711e+00
    2.3636706048926426e+00 -1.8117040841051584e+00
    2.0032072259149403e+00 -1.0582586876591893e+00
    2.0035788781459596e+00 -9.4193895671773498e-01
    2.0012758718162367e+00 -1.0363629800432843e+00
    2.0136305614143648e+00 -1.1237640278808161e+00
    2.0121347481194851e+00 -1.1163921724845105e+00
    2.0019172282745012e+00 -1.0447552717216513e+00
    2.0044551621706659e+00 -9.3544341912938855e-01
    2.0136360640231286e+00 -8.8984560114155453e-01
    2.0040537602922623e+00 -9.3832547878486583e-01
    2.0023417788249063e+00 -1.0495769820756973e+00
    2.0168981106110881e+00 -1.1387160777887675e+00
    2.0175752019225484e+00 -1.1416500254958384e+00
    2.0021327603725050e+00 -1.0472605090253859e+00
    2.0027111683896131e+00 -9.4926906004390643e-01
    2.0016352190881981e+00 -1.0412637165701719e+00
    2.5469913665680388e+00 -2.0620330985935476e+00
    2.0108255965749451e+00 -1.1095996254790419e+00
    2.0013295522089418e+00 -9.6419569144073425e-01
    2.0009916516157289e+00 -1.0319902294212164e+00
    2.0184973661180003e+00 -1.1455678095832194e+00
    2.0274932799358445e+00 -1.1801264766256501e+00
    2.0168858158889775e+00 -1.1386623326995413e+00
    2.0016768471015411e+00 -1.0417963294492862e+00
    2.0002897952349286e+00 -9.8312090777230765e-01
    2.0014632680147195e+00 -1.0389913164817377e+00
    2.0171883737691547e+00 -1.1399800073423501e+00
    2.0326922025857286e+00 -1.1978933337509909e+00
    2.0226400325387521e+00 -1.1622112860867213e+00
    2.0021306123890836e+00 -1.0472361548587328e+00
    2.0008318792831914e+00 -9.7157062305507402e-01
    2.0062821868120082e+00 -1.0824635573099541e+00
    2.7791964115043828e+00 -2.3544728988754540e+00
    2.0268858268029137e+00 -1.1779620269525364e+00
    2.0000179361075379e+00 -9.9577385436415211e-01
    2.0004684323260888e+00 -1.0218787809149628e+00
    2.0165495296103515e+00 -1.1371855919025620e+00
    2.0340028637698069e+00 -1.2021821880555803e+00
    2.0270429151987130e+00 -1.1785237152030761e+00
    2.0106794655066738e+00 -1.1088190942345095e+00
    2.0041703657669392e+00 -1.0666972077286681e+00
    2.0072151692518867e+00 -1.0886263114966750e+00
    2.0238970007487245e+00 -1.1669961298625964e+00
    2.0328316199853647e+00 -1.1983528837381960e+00
    2.0169719764587879e+00 -1.1390386153765235e+00
    2.0015719177423836e+00 -1.0404411662685942e+00
    2.0000033184632602e+00 -1.0018233249565169e+00
    2.0196896369716830e+00 -1.1505095170519788e+00
    3.0257783711988409e+00 -2.6481572983832149e+00
    2.0710376955025742e+00 -1.3044041096161829e+00
    2.0011292795744220e+00 -1.0341741383331760e+00
    2.0000385351224788e+00 -1.0062269638905921e+00
    2.0050865122159256e+00 -1.0739083762126487e+00
    2.0153913160003145e+00 -1.1319958557166934e+00
    2.0166347969103637e+00 -1.1375612610848087e+00
    2.0103998274235573e+00 -1.1073119430039597e+00
    2.0051868796734147e+00 -1.0746601145456289e+00
    2.0070374475231811e+00 -1.0874819832272149e+00
    2.0129570975238971e+00 -1.1204920090109816e+00
    2.0135426752800849e+00 -1.1233411720463775e+00
    2.0045113813266489e+00 -1.0694603740344835e+00
    2.0002993569968166e+00 -1.0174522621340887e+00
    2.0019643569768637e+00 -1.0453141269167006e+00
    2.0621341994700328e+00 -1.2822629678458959e+00
    3.2760904331754532e+00 -2.9354241633823523e+00
    2.1930170630264327e+00 -1.5463206697234591e+00
    2.0142934137994986e+00 -1.1269151886426920e+00
    2.0003272920483441e+00 -1.0182556008208501e+00
    2.0000631739958834e+00 -1.0079798568487695e+00
    2.0003131686727369e+00 -1.0178538494186098e+00
    2.0004185791348177e+00 -1.0206695666168646e+00
    2.0000162106659993e+00 -1.0040343606274309e+00
    2.0000005688051590e+00 -9.9924609262342812e-01
    2.0000236359124512e+00 -1.0048735102660669e+00
    2.0001771418433609e+00 -1.0133983300543272e+00
    2.0001987714126339e+00 -1.0141983675898603e+00
    2.0000423717256632e+00 -1.0065305771173312e+00
    2.0005765611507127e+00 -1.0243016988327145e+00
    2.0167141771715520e+00 -1.1379102363714730e+00
    2.1912157245865873e+00 -1.5432199576603431e+00
    3.3446606638392078e+00 -3.0127365162750523e+00
    2.4244067779292671e+00 -1.8973581570406814e+00
    2.1047546497129788e+00 -1.3802462527409427e+00
    2.0104429706683757e+00 -1.1075456495255998e+00
    2.0002251163290268e+00 -1.0151168574939411e+00
    2.0009945801023585e+00 -9.6895640547649631e-01
    2.0049575169912957e+00 -9.3202550282229235e-01
    2.0092468830863863e+00 -9.0835164246324618e-01
    2.0108011707735973e+00 -9.0133167986686324e-01
    2.0080659348313330e+00 -9.1413191259700077e-01
    2.0026966440895739e+00 -9.4940159874186603e-01
    2.0001301026190466e+00 -9.8865861230694441e-01
    2.0012958719626583e+00 -1.0366519883045653e+00
    2.0158696100117544e+00 -1.1341590940402617e+00
    2.1195258088243669e+00 -1.4106153143627878e+00
    2.4466445085159201e+00 -1.9279621181336684e+00
    3.6623451091679704e+00 -3.3651845899545156e+00
    2.7878988096011028e+00 -2.3650801597165985e+00
    2.3957298830304299e+00 -1.8573195784018239e+00
    2.1565632222600213e+00 -1.4816316240234422e+00
    2.0410443397427258e+00 -1.2241529612535968e+00
    2.0101098197847387e+00 -1.1057294940671192e+00
    2.0013636658482277e+00 -1.0376159735580015e+00
    2.0000149289738647e+00 -9.9614365424531082e-01
    2.0000004072509818e+00 -1.0006383658486087e+00
    2.0008000335747678e+00 -1.0286877100160299e+00
    2.0074515951113399e+00 -1.0901287875430867e+00
    2.0248575753811120e+00 -1.1705807720112378e+00
    2.0695216190201511e+00 -1.3007118066842669e+00
    2.1954625824450456e+00 -1.5505159947285791e+00
    2.4529494609967339e+00 -1.9365735014809975e+00
    2.8630907528638492e+00 -2.4559096499126141e+00</input_scale>
  <output_scale>
    5.2631578947368418e-01 4.9999999999999994e-01 5.2631578947368418e-01
    4.9999999999999994e-01</output_scale>
  <inv_output_scale>
    1.8999999999999999e+00 -9.4999999999999996e-01
    1.8999999999999999e+00 -9.4999999999999996e-01</inv_output_scale>
  <weights>
    <_>
      1.1864953759233443e+00 8.7963714757038226e-03
      -7.0241885847192875e-02 -2.3616863475201702e-01
      -1.5230248917051975e-01 -3.1030695824435749e-02
      -1.0920643285286136e-01 -3.5380538257970784e-01
      -1.3947746213215031e-01 -8.7491665623205123e-02
      7.5280647969309805e-03 2.1766093640458284e-01
      1.8942136854036692e-01 -2.4727187629306252e-01
      -1.9492278125772894e-01 1.6235444936047486e-01
      1.1476590251384361e-01 -1.0064223174879433e-01
      1.4359209735968445e-01 2.4748705620675523e-01
      2.8835256948033832e-02 -3.4893202948658129e-02
      2.9426447815105927e-01 1.0262963049740309e-01
      -1.2698582483905543e-01 -3.1888822798801958e-01
      -9.6399262690109025e-02 -2.5768103777518359e-01
      -8.4074322295698597e-02 -6.5297820871447837e-02
      -4.2159373217145968e-02 -1.6374985882731785e-01
      7.9773415959543370e-01 -3.1982408633669684e-01
      -4.8856007453253872e-02 -2.5602957600761189e-01
      3.7924537056605298e-02 6.1021151921114888e-02
      -1.7433141953620773e-01 -2.6601099843505066e-01
      -2.1273883652659681e-01 1.1098062476545635e-01
      -2.9668829005691227e-01 -5.9538645133183639e-02
      2.1122998809081270e-01 2.1339516986662616e-01
      -1.9296371980059743e-01 2.0734543731618754e-01
      2.1340777462736318e-01 1.6834373971461539e-02
      -2.2935386901286589e-02 1.2102044797342586e-01
      -2.4279851987952086e-01 1.5910453743995173e-01
      1.1466925839163726e-01 1.1331452998128995e-01
      6.1245090603668645e-02 -7.9373506629622725e-02
      -1.4931415525201752e-01 -3.3241417916820620e-01
      1.2819519601416036e-02 -6.5631903678823530e-02
      6.9525179490686873e-02 -4.1697583039603570e-01
      5.0856655518986071e-01 -1.4683258342416045e-01
      -6.2380909350595246e-03 -1.1591807179767274e-01
      -7.9936422397887133e-02 -1.0479322187832198e-01
      -1.4675804010331692e-01 -2.0326240976113266e-01
      -2.4594810719122638e-02 -2.1793714698296388e-02
      -8.3989311075562026e-02 -3.1009979588751510e-03
      3.0421906455857267e-02 -2.4982942574139241e-01
      2.8440868298830296e-01 1.5578160516613352e-02
      1.4149460099417846e-02 -1.6662941383416372e-02
      4.2559567076945602e-02 1.0373412628851025e-01
      4.9250336544236592e-02 -2.3016097648057277e-02
      1.8096541669451124e-01 9.1475333734011080e-02
      3.5944049394951792e-02 -1.4925428670792276e-01
      -5.1113597145008009e-02 -1.0854086208921573e-01
      -4.7034829769330933e-02 -5.2666194498741721e-02
      1.1928812489478661e-02 -3.8851183509427636e-02
      3.2800968265773844e-01 5.1034017981149591e-03
      -2.9500955501405517e-02 -9.7902761610129480e-02
      -2.1545025896432746e-02 -1.5322602552173220e-01
      -3.2006767447630408e-01 -1.6907332513760215e-01
      -1.8403901547556650e-02 7.0164686755508396e-02
      1.4624728055389533e-01 2.9589491346673530e-01
      1.5521729379475530e-01 -8.8301367804042061e-02
      -2.9315668270377759e-01 3.5534625467255976e-01
      1.5930987009146996e-02 6.6646527752703593e-03
      7.4437258975878703e-03 9.6506541182214606e-02
      1.5416763300372061e-01 1.1167747746113012e-02
      2.1041860335454723e-01 -5.2380731060313733e-02
      3.2334849718663949e-01 4.5011588610230817e-03
      4.2120425589270274e-02 -4.1257621714485306e-02
      -3.4153596510719864e-02 -1.2669755913283762e-02
      4.5498019845413767e-02 -1.6411190486868477e-01
      2.4015808068580524e-01 7.1527808492869743e-02
      5.4892224471906432e-03 3.4322260182499266e-02
      -3.9835826661415413e-02 -5.3480830400176094e-01
      -1.3260969341397932e-01 -3.6597780894555676e-02
      1.5204770240769711e-02 -6.6580041909699607e-04
      2.8349249787742470e-01 3.2550420535215696e-01
      1.3783423934451730e-01 -1.2686107722885601e-01
      -5.3235251001140727e-01 3.3820950929568672e-01
      3.0662216885864605e-03 -2.0382848750207668e-03
      8.6512833438211922e-02 1.0413595901499495e-01
      2.5976706805956079e-01 3.4701769485383253e-03
      1.7604263849705418e-01 -5.5013620062815502e-02
      2.2886390436301629e-01 1.0765923790447798e-01
      -5.8446968734028708e-03 1.3125303005463534e-02
      -4.7272456014081671e-02 1.1620056352927241e-02
      1.4352017778731961e-02 -7.0632180348625409e-02
      5.5976964685355257e-01 4.9536983802727731e-02
      -5.2288447787410451e-02 4.5268049557166651e-02
      -9.2433918806727480e-02 -1.1824259344267141e-02
      6.9963733821427551e-02 -5.6384267801080487e-03
      1.4175068615406192e-01 -2.0264186730353792e-01
      1.7129697013195461e-01 3.1269195575756181e-01
      -9.7339137487276184e-02 -9.4536375399666125e-02
      -1.2636736777370067e-01 9.7945574804190041e-02
      2.6240862297273584e-02 -6.4971615336669550e-02
      1.7865050999784288e-01 7.6090647460635569e-02
      2.6487364725070495e-01 -1.1323251811624045e-01
      1.8173955798011202e-01 -1.1547291903813849e-01
      7.0498574835332461e-03 -1.8381471724133328e-01
      -7.4026344925729959e-02 -3.3075481405847730e-03
      -8.9361366015117294e-02 -5.3089066106874666e-02
      -5.1884191908339330e-02 5.7198472346619622e-02
      3.5206241953721445e-01 -5.2466871522655507e-02
      -1.5060651921888634e-02 4.8952513383447749e-02
      -2.2559405485370252e-02 1.0365761977757192e-01
      -1.2894170356177714e-02 -3.5725992688214969e-02
      3.2409299197872478e-02 -1.5977514592124573e-01
      -8.2593070707469338e-02 2.1908574556989421e-01
      -7.0610144006661338e-02 9.2197462256013041e-03
      -2.6788915531408020e-01 1.0138072384890402e-01
      1.2055403637311651e-01 -7.2683378343726696e-03
      2.0136311332500118e-01 -1.1690742549225483e-03
      3.6860549523725923e-02 -4.3003278069548177e-03
      6.5698023786846957e-02 5.9451310369265466e-02
      -1.8856870177335361e-01 -1.4010743431415068e-01
      -4.5682718187575168e-02 -5.7765823091750414e-02
      4.5403499497311903e-03 -6.8492816284679526e-03
      -9.3821394253245218e-04 -3.5231979508302619e-02
      5.8625353929532853e-01 -2.6243064998967575e-01
      7.0221127074635237e-02 2.8485389001540167e-02
      1.5740120141024838e-01 1.8907604601684395e-02
      -1.1352967848308440e-01 -7.0782613710538206e-02
      -2.7700689124115835e-01 1.0948779096318116e-01
      -7.2880729598874705e-01 -1.7738597405200091e-01
      8.8232197993547923e-02 1.4848259939102118e-01
      1.4140909058817375e-01 -3.4211107727638501e-01
      1.1210265726065856e-01 1.7681071589753010e-02
      1.2154002737550892e-01 -5.2908134758666590e-02
      3.7414766341724759e-01 2.3455858698380663e-01
      -1.8224060313576703e-02 4.4135296381363243e-01
      -4.8535283671417212e-01 -1.4798906038796841e-01
      1.5729998350537327e-02 -1.7530074607163891e-03
      6.8281098996924652e-02 3.7448782127436402e-02
      1.9503874390474941e-02 -1.6405909738700689e-01
      8.9218407167517139e-02 -2.5375449771259551e-01
      9.4591677929139653e-02 6.3855054467496161e-02
      1.3384587454693511e-01 2.1544467564983790e-02
      -7.9131919286064015e-02 -4.5341134754559309e-03
      -2.6687293708847010e-01 1.1797929387397159e-01
      -8.3641230726310101e-01 -3.7405148420568529e-01
      5.7540649251493686e-02 3.3688521413817407e-01
      9.7688686287303386e-02 -3.8007985146314982e-01
      1.8741971139069635e-01 7.5139401478567791e-02
      -5.6417989234964464e-04 -1.2769127669710348e-01
      -1.5605679097451355e-01 2.2933203375916908e-01
      -1.7983379450988971e-01 1.8374682177613869e-01
      -6.9623942486445434e-01 -3.3185142612053603e-02
      1.2128908715381144e-02 2.2089138188352607e-03
      1.3127008073297752e-01 8.8437467185146626e-02
      4.3832384256459647e-02 -7.7696208789403295e-02
      -1.8565159610894399e-01 -2.4749584437505120e-01
      8.8977253337987852e-02 1.3728522516943051e-01
      1.0712065382374206e-01 8.0516779233316196e-02
      1.6201949863322421e-02 3.0461230015342563e-02
      -1.8869527442308662e-01 1.7926927925938332e-01
      -8.0054342834222314e-01 -2.2266839928079485e-01
      6.4059692194022605e-02 2.1940778252061360e-01
      1.2502534925982253e-01 -3.7328748599118855e-01
      7.5896683879391538e-02 6.1664461261288030e-02
      3.6945608160754873e-02 -1.2522883331332554e-01
      -1.2932514335820741e-01 1.9437499076750175e-01
      -1.4128548762449530e-01 1.2727085748119568e-01
      -6.2204818152048769e-01 -6.4754328036620151e-02
      -6.4579375779360793e-02 1.5755474899602859e-02
      1.2440576461091883e-01 7.2072514989390296e-02
      2.2662727275908932e-02 -8.8892529001732570e-02
      -8.2109800708482561e-02 -2.3006067110232667e-01
      6.7786717643142674e-02 1.0726058308057616e-01
      7.4842507101489444e-02 2.2435446799275402e-01
      5.3588272596266910e-02 -4.5069742792881963e-03
      -8.4338679788850249e-02 1.3086690604217208e-01
      -5.0831436454895873e-01 -1.9039319452981052e-01
      6.2443398137485076e-02 1.0564198519771666e-01
      7.2198006093031342e-02 -1.1447027453909464e-01
      3.2379788533624311e-02 1.9841061256558774e-02
      -4.5467636852337304e-02 -1.1005971627314938e-01
      -6.8293319321995782e-02 1.2315760151751806e-01
      -9.2790671954050566e-02 -1.5888260617609763e-02
      -3.8777761314763665e-01 -9.1992825210234011e-02
      -1.3972302153917029e-01 -5.4602125022003546e-02
      1.1386436576875461e-01 8.6022825741631607e-03
      1.1310232429231806e-02 -1.3165163826159715e-01
      -2.1312020766026019e-01 -1.7835291608989906e-01
      1.1785122388451168e-01 7.0343159558291082e-02
      6.7622544862471864e-02 2.0543025934123801e-01
      9.3125032435540989e-02 5.6130455916501816e-03
      -1.2269766299830906e-01 1.0269038848478755e-01
      -1.3029114058627470e-01 -2.9300294339796279e-01
      8.0596940978706774e-02 1.9367822794014003e-01
      3.1383206968262252e-02 -9.2237935557935247e-02
      7.5739462166947602e-02 3.6942030123788064e-02
      -1.1596630664922333e-02 -1.3669292995096805e-01
      -2.3106086615893781e-01 1.2521653020312967e-01
      -7.8173053804421563e-02 5.0051034670416869e-02
      -1.7739766268257318e-01 -3.7312044452576749e-02
      -5.1150211056383128e-02 -3.2717608281514203e-02
      1.0927584574105405e-01 -1.6417342892706441e-02
      3.7849110226883835e-03 -3.5452964219946100e-02
      5.9640400060450169e-02 -1.5909806381154337e-01
      1.2131926466432158e-01 2.2437988627386166e-02
      1.9297987827860189e-02 3.6636890554790913e-01
      1.1233738535990785e-01 -1.5960212901815859e-02
      -9.2962018638041294e-02 1.0715593677077744e-01
      -2.7829874803235477e-01 -1.6118333959838640e-01
      4.2075332733723152e-02 6.1911670941875156e-02
      1.3939053179650823e-01 -1.5326976072054091e-01
      2.7952806044177669e-02 4.0374561653726229e-02
      5.8659038445429038e-02 -1.0388415479987825e-01
      -3.3098293191168215e-01 8.7943849540346022e-02
      -7.8252158124776400e-02 7.9188816230705047e-02
      -1.3693695562677460e-01 -7.6709275450714570e-02
      1.1029218554133699e-02 4.6543078594329414e-02
      9.3757541103528630e-02 5.2863182273561145e-06
      3.1862688604564961e-02 6.5321315476448965e-03
      2.3042165744884002e-01 -1.5181422289062776e-01
      1.4975544871059229e-01 -7.2986715163772149e-03
      3.9822189698690400e-04 1.0602027910734312e-01
      3.1633941232102412e-02 -6.9516533743939332e-02
      -7.9351283403598996e-02 1.0744479226142072e-01
      -1.7999135270533992e-01 -1.9280369603646888e-01
      -1.2870075613110965e-02 1.9262612101058077e-01
      3.1690157546696730e-03 1.1039286921039044e-02
      9.0312223930021099e-02 5.8810429446464446e-02
      4.5439704444890490e-02 -6.8344721044767784e-02
      -7.1208588783265275e-02 7.4512668050046763e-02
      -1.5752449976412314e-01 1.7282384925624661e-01
      4.4685232300159874e-02 -1.6357926883134989e-03
      1.5795716325591330e-02 -4.7727098692400046e-03
      1.3128102252832033e-01 -7.5341084417287953e-03
      6.5687578932485918e-02 6.8421231790000120e-02
      -3.4858614725718717e-02 -1.7991573436316635e-01
      1.1545653412347177e-01 -2.9211105884795513e-03
      -2.2229654722313349e-02 2.6990928103730066e-01
      7.5518405946869330e-02 -4.6484611297157877e-02
      -2.2630668717924862e-02 3.3006034753943314e-02
      -2.6146651433711593e-01 -2.8155348946182762e-01
      -1.4594743793786968e-01 7.1279946653898765e-02
      3.0812194305997892e-01 -3.8012963465354471e-01
      6.3968532306199477e-02 2.6620995430967697e-02
      2.5283472691417456e-03 -9.7947496805462844e-02
      -1.9832672031369833e-01 1.7829041269625777e-02
      -2.1557237009117272e-01 -1.4173144786603658e-02
      -2.3631690994332552e-01 -1.7142808184335465e-01
      2.2264028218791726e-02 -6.5408609347509403e-02
      1.0692694028456633e-01 -3.8396516619073015e-03
      2.1803198587045491e-02 1.0169801577337417e-01
      -2.0259787512174687e-01 -1.1506436587218566e-01
      1.0380732832425164e-02 -4.2039354159599120e-02
      -1.7497422878231664e-01 1.3665032097386243e-01
      1.3751153775444805e-01 -9.4589900609618346e-02
      2.1522770987694229e-01 -2.8813436858450336e-01
      9.8076156278499110e-02 1.1690476524533464e-01
      -1.1830168964372426e-01 -1.0621985867721959e-02
      4.3547412889259485e-01 -2.9694152931520301e-01
      1.4307290866058020e-01 -4.6137019525276129e-02
      -6.9013151612898171e-02 -2.6770364898136299e-02
      -6.3176043673666180e-02 -2.0995482882526922e-01
      -1.8364402296646448e-01 1.3114444905814260e-02
      -1.2570713506431896e-01 -3.3000905673813352e-01
      -1.0397490092024890e-01 -9.2491747491623491e-02
      4.4659571822680981e-02 -7.1376914805974134e-02
      -2.0494884930060717e-02 2.5766170650362713e-01
      -4.9788818881026292e-01 4.5882891904991868e-02
      -2.9903465306749887e-02 -7.4476359632822078e-02
      -2.3083322846563689e-01 -4.2849937745697099e-02
      1.1534463000686572e-01 -5.6523988052482987e-02
      3.8610909490308692e-01 -2.5767188500040783e-01
      5.5781610756081612e-01 2.1244484113114975e-01
      -1.3840842176030674e-01 -1.4615277886270131e-01
      3.0011537562299215e-02 4.7563993946699268e-01
      -8.7992666681386320e-02 -1.4860612987103573e-02
      6.6940892405187427e-02 8.3301621099665421e-02
      6.2275615430435660e-01 -2.8666375540991218e-01
      6.1134948676486327e-02 -2.8899314028979983e-01
      3.8321293086615604e-01 -8.8325859749632224e-02
      8.7347527963820351e-02 8.9633236538475408e-02
      -5.7157533995706097e-02 5.8730864827798782e-02
      -5.1198873133404318e-03 2.1252114700978245e-01
      4.4364388714998604e-01 7.5447701684512522e-02
      -1.8232346942279931e-01 -2.0330897803563858e-01
      -1.3509180731917358e-01 -7.3816838209182396e-03
      -1.0254910997038463e-01 -2.1224485980180133e-01
      -3.6764153444661843e-02 -1.5712789624741683e-01
      1.3507062989175242e-01 2.6028821142503239e-01
      2.7854719444849202e-01 -2.8906459711744203e-01
      1.6530986242416914e-02 1.4125060573770876e-01
      8.1320827034633197e-02 -3.3709991490088728e-02
      -1.4760127633647074e-01 1.7612566515845046e-01
      -1.1486615013985484e-01 -8.8978797453247424e-02
      1.4677855305194090e-01 1.0735816475029919e-02
      8.8545511246559863e-04 -1.3696347135081502e-01
      -8.7765017509297008e-02 -1.4945378684397498e-01
      -6.9299444957794415e-02 -5.3501729286117690e-02
      1.5650594544491830e-02 -1.1046433742273573e-01
      -3.6829596557735482e-02 9.4373584599141747e-02
      -7.0730972058020647e-02 -1.6830986119252181e-01
      -1.1881514740743247e-01 -2.9272938074311996e-02
      -6.2749857322931410e-02 -2.1282957284419510e-01
      1.6275773041025476e-01 -7.4719471023403317e-02
      2.6090184989041577e-02 1.2257126477647837e-01
      1.7060748104289705e-01 -1.6945882593171996e-01
      -2.6628984561256064e-01 2.1381884349509434e-01
      -2.7469548520979790e-02 -3.7464214698970995e-02
      -3.1851757046744027e-02 8.9549950301541240e-02
      2.5976024636693817e-01 -1.8879676860077049e-01
      8.0319092016551574e-02 -3.0444411556231815e-01
      -8.7975098867221491e-02 8.7080624855462571e-02
      -6.3109914961419281e-03 -3.3201698458913166e-02
      -6.6967025122458418e-02 -3.0181958690114599e-02
      2.1042637753597788e-02 -3.1433592499080960e-02
      -1.3308881938081718e-01 9.6664632919647414e-02
      -8.8943738485120823e-03 -1.6498937469178482e-01
      -1.3168810653944185e-01 -2.7894218410093591e-01
      -1.8478403152808434e-01 -1.9053336140015575e-01
      2.0917092311730295e-01 3.8061574644924240e-02
      1.5491835979180106e-02 2.8289490471326895e-01
      1.9806780921011619e-01 -6.3675644482627539e-02
      -8.0078789253449967e-01 3.5834069899717813e-01
      -4.3192424565477047e-02 -1.9400569741069108e-02
      -4.4326095298424205e-03 4.8805098820777944e-02
      3.6339814193575171e-01 -1.8441608402117574e-01
      6.8590785585447289e-02 -2.8257064595670089e-01
      -5.5580826201171350e-02 1.0207594178381157e-01
      5.1075909412779362e-02 5.9346304185641076e-03
      -5.4896297232141990e-02 2.5727999235447000e-02
      3.3460463137000920e-02 7.3641458455726255e-02
      -1.7692878716456403e-01 2.9746718796040709e-03
      -2.7525144911415198e-02 -8.1604444322647227e-02
      -8.9601225992898215e-02 2.1974798721873393e-03
      -9.0528163172280893e-02 -1.7121089319255989e-01
      2.1787739974995524e-01 -8.9306150752171520e-02
      -2.3174777143777714e-01 2.2352690703158515e-01
      8.1910607968996754e-02 -1.0111124577913171e-01
      -4.1568929430858159e-01 2.1434572100472216e-01
      8.8714289217948369e-02 -6.2836263227880676e-02
      1.3584613539250392e-01 4.6980492564158836e-02
      2.8011838679481393e-01 -1.7435075546905823e-01
      5.8306293953928594e-03 -2.2585414471387485e-01
      -5.1524537512785040e-01 -9.1929667628183220e-02
      6.7976041938042006e-02 3.3582395223521043e-02
      -5.6488698188713236e-02 2.2277092167655763e-02
      6.6036322232681263e-04 9.9413371892546690e-02
      1.6383760590530977e-01 5.3654298212973413e-02
      -1.2760976733321211e-01 -1.4703871432273752e-01
      -1.3028177610383923e-01 9.0257387142341092e-02
      7.5225846447729172e-02 -8.8878218548542165e-02
      1.3442826108811953e-01 -2.3148279597425553e-01
      7.0249729088151774e-02 4.6555605157257823e-01
      5.1642892930059067e-02 -3.7571116032901718e-02
      -6.2196420912479483e-02 1.1226474677256688e-01
      2.3290737015535518e-01 -1.1088612166390399e-01
      1.8895931023736007e-01 3.7579998642338922e-02
      -5.6739537343604242e-02 -1.6696891029298352e-01
      4.9539419358515614e-02 -9.5646527211157698e-02
      -2.5133435386377734e-01 -2.4599803233524772e-01
      3.5904280505589413e-03 -5.7612615836681445e-02
      -1.0600713058110388e-01 -2.5790555016574655e-02
      -4.2425882570015498e-02 5.8030080280963632e-02
      2.1664570514799697e-01 -1.5371410708642916e-01
      1.8148976678433861e-03 -8.5297756361072161e-02
      -4.6036921484478452e-02 9.9469525911298429e-02
      -2.3920082410900825e-03 -1.2726297607620540e-01
      2.3886275020953574e-03 2.2643348633140412e-02
      1.2826714977320436e-02 1.9018790970384900e-01
      1.2118815454455673e-01 1.3687367679792675e-01
      -1.5523350921142606e-01 1.9373773696337468e-01
      2.5672315367204018e-01 -5.7112059136178041e-02
      6.8470965496787814e-02 -6.9544890784907137e-02
      1.3530845334859632e-04 -3.1898046192189902e-02
      -4.4870462402371268e-03 1.8754239127354894e-01
      -2.0763071366380106e-01 -1.5078116711349801e-01
      1.9147610426058309e-02 -5.1516994246317019e-02
      -1.9229638915751728e-02 -1.1023716105677459e-02
      -1.7703625030780594e-02 1.1073183654521675e-02
      2.5826995323830004e-01 -3.2634470845736085e-01
      9.6975967051374248e-02 -3.6230872455339657e-03
      5.7486760718789595e-02 -1.5642123099580221e-01
      -1.1056327200849053e-01 -8.6365107118169901e-02
      -9.0103631829179395e-02 2.4330062454902590e-01
      -1.3106438478094234e-01 2.3153533835286333e-01
      9.4773599148857857e-02 4.1824173595143671e-01
      -2.0784148410226219e-01 -1.1006103953639133e-01
      2.0240584008825266e-01 1.9484211820680331e-02
      2.1753275146517464e-02 -1.9378669725007572e-01
      6.8413213664206482e-02 8.1700537896608666e-02
      -4.7313478854888118e-02 1.9099537632640318e-01
      -1.6274299364645298e-01 6.1668723915819970e-02
      3.7234518913249567e-02 -2.3959519801458325e-02
      5.6407943097858959e-02 9.4305023227756590e-03
      1.7937958813494678e-02 -9.0860381686736991e-02
      3.5364662347669629e-01 -2.6412971793150558e-01
      1.2683211072739473e-01 1.2582438892769707e-01
      1.6113571110505115e-01 6.9473856674403103e-02
      -1.2733843593290523e-01 -1.5761890135991638e-01
      -3.9571003745877203e-01 1.3928773642497294e-01
      -5.3044098563091258e-01 -2.3765671823654752e-01
      1.8655249896219553e-01 2.6795054034908838e-01
      -7.7027817805273083e-02 -3.1964978256256149e-01
      2.1734835288816420e-01 4.3974210023514468e-02
      3.3059500804438313e-01 -1.5307137691390987e-01
      -5.7964035977495620e-01 3.1413018185412694e-01
      -1.3406101813050228e-01 1.9804594529708561e-01
      -1.0404366819894386e+00 -9.5049458275294443e-02
      5.0985107448609915e-02 1.0614851638198905e-02
      1.0957283101631786e-01 4.9709556946434350e-02
      3.6685031588889916e-02 -1.5212119638619534e-01
      2.6490580419845317e-01 -3.8886267692382931e-01
      1.9301356569896724e-01 1.4409551870111972e-01
      1.2888015179869464e-01 2.1417339041702824e-01
      -1.6395308009717089e-02 -1.0229339230740861e-01
      -2.2173154798870268e-01 1.3789918368141466e-01
      -6.4411270714538749e-01 -5.0773127181440680e-01
      1.1500539966632442e-01 4.0289428157911372e-01
      3.1402017245130803e-01 -5.2740356121640708e-01
      2.7848623639191594e-01 5.5687103299411622e-02
      2.9679745411489994e-01 -1.3804749073548922e-01
      -6.3954506653628984e-01 1.6067748287022612e-01
      -1.9314193378662997e-01 2.3220078099888031e-01
      -1.1537165874542825e+00 -2.0576764316950980e-01
      -1.3950740732169631e-01 -1.2812416738024066e-01
      1.4904122003672099e-01 -2.5561436569133865e-02
      4.9082378483639992e-02 -1.7084477707199108e-01
      2.1506684583320057e-01 -4.5572719312332838e-01
      2.3326649970157612e-01 1.4281189842654460e-01
      1.6740919776746541e-01 2.5488922105024453e-01
      -8.2334312097571458e-02 -9.5791158256735176e-02
      -2.5548271909333420e-01 2.5261970472961032e-01
      -4.6993491179425712e-01 -1.2637296976836052e-01
      1.3119947845038687e-01 3.6593672151176893e-01
      -2.6130906556570915e-01 -3.6267077361209219e-03
      2.8639813748841514e-01 1.1342251235836361e-01
      1.6005577969473700e-01 -1.8715286548589508e-01
      -6.2335567869261566e-01 2.3119760116486618e-01
      -2.4043023187761522e-01 1.0785621678753159e-01
      -7.9756351421137983e-01 -5.0725951296567873e-02
      -1.1190274943040729e-01 -9.3980488056156483e-02
      2.1859279513418833e-01 4.6062091689752942e-02
      9.7016795105594050e-02 -2.6172837489413825e-01
      9.2051060947316542e-03 -2.7075526840511094e-01
      8.1546664019489234e-02 7.7253783943948259e-02
      2.3442690235106593e-02 2.2683051432287557e-01
      -1.4199805165085548e-03 -1.1030308587431037e-01
      -6.8390929857980925e-02 -6.8529951198360500e-02
      8.0446173571539104e-02 2.7999353715183412e-01
      1.3798521044638840e-01 2.1729047061158274e-01
      3.8101615990424310e-02 1.3933156823090345e-02
      3.2656002981587312e-01 2.5227409122678120e-02
      2.5163806013450651e-01 -1.2092903390884738e-01
      -3.4146023157059446e-01 7.2886074842315379e-02
      -7.5560491347597375e-02 -1.6622744892690297e-01
      -3.0836025844015302e-01 -1.6618747296131553e-01
      -1.0557545789145652e-01 -1.1723908262159628e-01
      1.0538749368980463e-01 1.3673021067977308e-02
      2.0769913248130496e-02 -1.7271183839712995e-01
      -2.9639866201993820e-01 -2.8132229420791399e-01
      3.1928019035928679e-02 6.6174127381199072e-02
      1.2535242813409843e-02 2.7174512830821279e-01
      -3.0914238525635001e-02 -1.1107004629774062e-01
      -4.0823935678526869e-03 2.1954876214450844e-02
      -2.7313218342305823e-01 -1.1564454156441273e-01
      2.3324471536106485e-02 2.8998944763592716e-01
      3.1216754168877332e-02 -9.6770485090844627e-02
      2.8688899994894912e-01 2.3213611405315956e-02
      1.2576759126826842e-01 -1.1170300641927172e-01
      -1.2232550689447270e-01 4.7220477113765459e-02
      -1.0884015926232178e-01 2.8738727482866128e-01
      -5.1199894236193511e-01 -1.2622744706153907e-01
      -6.1085173380895544e-02 -1.0895015644034139e-01
      1.1291024272805344e-01 1.2042052433376159e-02
      1.4280896401516611e-02 -1.8948308139487230e-01
      -4.8384988837141735e-01 -1.2224556778684255e-01
      9.2902625139658815e-02 9.8315701248249052e-03
      -3.4676492478311574e-02 3.7443000599473181e-01
      -2.8328249450626942e-02 -1.7212925087250383e-01
      -3.1456952555775096e-02 -1.1181081847524549e-01
      -3.9586073664678217e-01 -1.0554590878313912e-01
      -1.0824210210127106e-02 1.7401227490180643e-01
      2.7973450162061353e-01 -3.6056848400630520e-01
      2.1676937815805541e-01 2.8078685807118687e-02
      5.8470651065394452e-02 -1.0047376020667959e-01
      -2.9922511807358365e-01 3.1688505625394596e-02
      -1.4243207276944578e-01 3.4475707611280521e-02
      -6.1226062697217620e-01 -1.7541522065889659e-01
      -4.3664257092498368e-02 -9.9157406639641774e-02
      1.2087824773652500e-01 -2.0424955647642129e-02
      1.7945154455776966e-02 1.9936654570392731e-03
      -2.2458901219363853e-01 -1.2133508960046639e-01
      7.7059021053161716e-02 -6.2039962137704706e-02
      -8.9916364959979567e-02 5.3354061396396124e-01
      7.0675251019059457e-02 -1.7710938915459454e-01
      -7.5625231767748966e-03 -2.3689173872406044e-01
      -2.1259545247066272e-01 -2.5323159170575227e-01
      -1.5843798293383629e-01 1.8755420315242399e-01
      5.8853322012159959e-01 -4.7486683897757875e-01
      1.7993964714673785e-01 3.4357940248664798e-03
      -5.2517780023675124e-02 -4.6924110537919998e-02
      -4.3999369111593734e-01 -1.1356902570199336e-02
      -1.9655353374416368e-01 1.2871006117310368e-01
      -2.0428521182285958e-01 -3.2829951344402725e-01
      -9.4877873108450153e-02 -1.2661473654274993e-01
      9.1591324177115185e-02 -7.5542401696141348e-02
      1.8635564138938460e-03 1.3536916414290126e-01
      1.1446918455804908e-01 -9.1378758434584470e-02
      -6.4987486840352438e-02 -1.1099317902146845e-01
      -3.2678327989899619e-01 2.6346974431941961e-01
      2.1491360355229736e-01 -1.4954001602927172e-01
      1.9929618944901367e-01 -4.0227465700382442e-01
      -2.0913682945436139e-02 9.5795794099338041e-02
      -2.7381184609190995e-01 -1.4554732502409418e-01
      4.8054742438963360e-01 -4.9197430774443729e-01
      7.1864203826813675e-02 -1.0678431724328862e-01
      2.1678138667426797e-01 1.9169447530800701e-02
      2.5955788106709246e-02 -2.5025003070157342e-01
      -6.9268159372997559e-02 -1.6376677376269499e-01
      -4.3967077309330199e-01 -5.3705770478625314e-01
      -1.1773468503484356e-01 -1.0963976453525948e-01
      -3.7794363140313751e-02 -1.0133207660725098e-01
      -8.7132114702434871e-02 2.9239830850990400e-01
      -4.1173945298008235e-01 1.7324783007544536e-01
      2.8978241426396170e-02 9.6257706315067120e-03
      1.6280803320072246e-02 -2.0340212830401219e-01
      1.2136088639493839e-01 -5.7428941561119336e-02
      6.9022390376396556e-02 -2.4879952076119272e-01
      3.4059547946185786e-01 3.6183486865756631e-01
      -6.2392734044588394e-02 -3.4307695727602283e-01
      -1.0035154888925195e-01 1.1450077749799398e-01
      -3.9216284374225911e-02 4.4390656382029645e-02
      2.0534456411772034e-01 3.1107612662883616e-02
      -5.5796000449284733e-02 -2.1297265134464897e-02
      -5.7867297612420217e-02 -2.6578588476331749e-01
      2.1058535495625888e-01 8.9942940700429477e-02
      1.5395337347296537e-01 2.4631614520122733e-01
      -5.7949182634559311e-03 1.4903432489419779e-01
      4.4062149064178692e-02 1.5655137884885670e-01
      -1.1323820952686736e+00 7.0469485294828507e-02
      -3.3685603382649497e-02 -3.9444810760390067e-02
      -1.4110957468282814e-01 -1.8485161580782639e-01
      1.5576040718952527e-02 -1.3647612200628366e-02
      3.3887117410636641e-01 -2.9330545042985406e-01
      4.4485725166202972e-01 5.1248734546942942e-01
      -4.8667162676587314e-02 -1.0083242497969942e-01
      -2.5810226739348802e-01 1.4167445606548662e-01
      4.0901121140608114e-02 -1.4461116684077792e-02
      2.0748975276131665e-01 8.5609236683847068e-02
      4.7237480934267739e-01 -2.6402422716052348e-01
      5.6264711378055089e-02 -4.8716185605665385e-01
      -6.9991527803670461e-02 -1.6372580373268761e-02
      1.1965239030517522e-01 2.2163502940252233e-01
      -8.1361677067933097e-02 6.6424121269270428e-02
      -1.8157142923261771e-03 1.6315318084663688e-01
      -8.2100997875738857e-01 1.8154654120800562e-01
      -1.8752231282663359e-02 -6.4567740060546067e-02
      -1.2747138728742802e-01 2.0241899259846335e-01
      -1.8872378996302754e-02 -8.2619795392597006e-02
      4.0626188885745779e-01 -3.3913229143879320e-01
      2.3951846131202939e-01 4.2481306157330412e-01
      -9.3409886159228850e-02 -1.7694273683531084e-01
      -2.8422163063609435e-01 -1.3523151086984783e-01
      -7.7688925729763894e-02 -2.8653348102349575e-02
      7.5481532583031086e-02 7.7931639291159246e-02
      -1.4253641529351612e-02 -2.8982668175125165e-01
      2.9324806275058329e-02 -2.4875640728520990e-01
      -1.2990276604658019e-01 -1.0585570818982215e-01
      1.2361639877834960e-01 1.6120858810844069e-01
      -5.3665469199036697e-02 7.9263876566310371e-02
      1.0220214653805682e-02 3.6367772478137389e-01
      -2.2125608056475665e-01 1.3346831720097693e-01
      -1.2649361359778094e-01 -1.0089323730785264e-01
      -1.5133311824789240e-03 -1.6387177560906127e-01
      -2.7025429754306712e-01 -1.4633355505752288e-01
      1.2559701001150955e-01 -1.1451168582999773e-01
      1.9231402913593107e-01 2.1365738521222369e-01
      2.0565060413933248e-01 -2.6299666622032225e-01
      -4.1887419931538744e-01 1.5554983808226652e-01
      1.4707523779097351e-02 -5.1916641816718505e-02
      2.0427979491647130e-01 1.4410155859611531e-01
      2.0451526265474224e-01 -1.0621510429350256e-01
      1.4352162293810192e-01 -1.8425449793477100e-01
      -2.2678248752175059e-01 -1.2158125687297561e-01
      1.0378364612149944e-01 -1.6234250224163145e-02
      -7.1728645204285527e-02 1.0000954671323010e-02
      -1.3651061680309705e-03 -5.5160074786770819e-02
      -3.1943153637154215e-01 -2.3608155279404609e-03
      -1.3923283051902649e-01 -1.5756782490748750e-01
      7.6524957949827867e-03 7.8758811664111569e-02
      -2.2440560345171606e-01 -1.1608159300045222e-01
      8.9977816265051233e-02 -7.7708741541239662e-02
      -2.2555342808034534e-01 2.0365320842479170e-01
      2.3448252206059417e-01 -7.1304124611357406e-02
      -4.9138359914898583e-01 1.5736512467438074e-01
      1.0384578523110552e-01 -4.5374145890695092e-02
      -2.8636200024408404e-03 8.8513949633674885e-02
      1.1866354625249902e-01 -3.7987056220580774e-02
      8.9843753230031034e-02 -2.9222611312066210e-01
      -1.6527342645194590e-01 -4.4362783172811081e-02
      9.8912871062716470e-02 -1.5561600494414833e-03
      -5.3720520622156979e-02 3.6332196640068759e-02
      1.5177023352391754e-02 -6.6177744936804422e-02
      -9.9845005250925031e-02 -6.4772208187402855e-02
      -2.9192786687910421e-02 -1.3252092732862233e-01
      7.2530604232391674e-02 3.0745490595262615e-01
      -2.7664534438957122e-01 -8.4975932148022751e-02
      -3.3182202399467967e-02 7.9880618047586061e-02
      -5.5968541838822050e-01 1.0014384082889885e-01
      1.9792211409803578e-01 2.8709316886452690e-01
      -4.4493160328685022e-01 2.5781840702942327e-01
      1.7038320230547735e-01 1.0493233877835588e-02
      -4.7665796266261773e-02 -2.8632800122801109e-02
      -3.4749086199777190e-01 9.0630616908384753e-02
      -3.4357626202922563e-02 -9.3973146438325383e-02
      -2.7742737238184473e-01 2.7177893643013540e-02
      8.3187025860478436e-02 -3.0514513021304965e-02
      1.9833094970192519e-02 3.7213907658516766e-02
      5.2188750115448698e-02 -2.0544814951752388e-01
      4.2654932773910303e-01 7.5408145029916274e-02
      2.5898819112030069e-02 1.9800621911860064e-02
      -1.5700828279105510e-02 2.1023609425301432e-01
      2.5395811261126229e-02 -3.0493154968261781e-02
      -7.0087056908494913e-02 6.8560357578280509e-02
      -1.5107895986415937e-01 -9.3372330464833231e-02
      5.0076809990292841e-02 1.3878335889068893e-01
      -4.5927328310310611e-01 2.7130493990043186e-01
      1.1953036393038864e-01 -1.3273472094376489e-02
      -9.6366106676040397e-02 -5.9624303476614453e-02
      -2.9907979180182209e-01 2.1171804478310356e-02
      -7.6270912669878607e-02 -1.5752627396009800e-02
      -2.3201414657130903e-01 9.4652408614935402e-02
      -3.2107359473614358e-02 -7.1643604352657805e-02
      1.3046814093808472e-03 -2.4174361138771826e-02
      5.2249308879013402e-03 -4.0114178226840873e-02
      9.6013782420094743e-02 5.0425933116599569e-02
      -3.5204763652450254e-02 5.3421699209135969e-02
      -2.1897964116689164e-02 2.1793827613445130e-01
      3.4778061974360306e-03 -6.3297969192892420e-02
      -3.0002922988965855e-02 -1.1647932696427582e-01
      -1.6711743674708138e-02 2.8243788986013152e-01
      1.6480944152389435e-01 -1.6646871349200651e-01
      -2.5721195198324809e-01 8.4878843621048944e-02
      5.0394719251137476e-02 -5.2578164594481842e-02
      1.9434116159972795e-01 5.6830438273771300e-03
      -2.5164464420492122e-01 1.4421123836433947e-02
      3.3339919667836671e-03 -3.9431013182566615e-01
      -1.4434715121176653e-02 -6.2358439511954675e-02
      1.1481429338366026e-02 -5.6385156148580598e-02
      -1.8495555356563748e-02 1.0175955928375233e-02
      -3.1493764456159312e-02 -1.7892641242611437e-01
      1.4164605053617119e-01 -1.0516638978437713e-01
      1.5952395610612936e-02 1.3576566409205582e-01
      6.6652427863576211e-02 5.5371521012230127e-02
      -3.9032090907366083e-02 -3.5022852837257562e-02
      -2.3994619390312391e-01 -1.5540448043319098e-02
      -3.8318617481685152e-01 -1.7390085615996734e-01
      1.5820741035265629e-01 1.3355722895180300e-01
      -2.4562543277367255e-01 -2.1467450165336280e-01
      1.1065451328906113e-01 7.1102354015270047e-03
      1.8006060814736763e-01 -7.0916407424164649e-02
      -2.4564329619104144e-01 1.7997077687295343e-01
      -1.1245761643728118e-01 -1.3473237479244668e-01
      -6.6490165856630490e-01 3.9582209249958257e-03
      5.3686080566051252e-02 3.5345116336265754e-02
      5.0810836539654063e-02 8.1027728116071340e-02
      -9.9287377689549518e-03 -9.0057505007929112e-02
      -9.7256895420330558e-02 -2.9792112746163207e-01
      1.5382801685364625e-01 8.4473474891158459e-02
      7.2888277810584740e-02 2.5466330969497958e-01
      4.9377788761473092e-02 -5.4427443097741772e-02
      -2.0512645855296457e-01 9.9770371058847493e-02
      -5.6410480672836893e-01 -6.4619269181385086e-01
      8.4511834080344572e-02 4.9027512169700038e-01
      4.2571101424518587e-01 -7.8157830136266604e-01
      3.1065066064338304e-01 4.2427257533568914e-02
      2.6671326675381725e-02 -1.0138501579628838e-01
      -4.1019993870638771e-01 1.4144506812484131e-01
      -2.4995183577240210e-01 1.6741488077908540e-01
      -4.5669136735197269e-01 -3.1230364635570156e-02
      -3.6933141506847039e-02 -6.2935606936041319e-02
      1.3438010922673577e-01 5.4702154020675825e-02
      2.9380727230642306e-02 -1.0736075116920532e-01
      1.3939746233516093e-01 -2.8578910866446611e-01
      1.1652728489811690e-01 1.2022460610796178e-01
      8.6212427199948941e-02 2.8783713267837069e-01
      5.9235455277287866e-02 -6.5022525078630572e-02
      -2.1611972935779045e-01 5.5221316120848976e-02
      -4.0414451823157571e-01 -2.8172645774849520e-01
      9.7726312453599251e-02 3.0492861741059463e-01
      4.3784725191587243e-02 -3.1386760522687240e-01
      2.0473544953918157e-01 7.2667415358080883e-02
      -2.5008946097823895e-02 -7.5292449165449388e-02
      -2.8965976021410811e-01 1.5265726955751235e-01
      -2.8045379466543635e-01 1.2879370667893542e-01
      -5.2410613098497705e-01 -1.2067429425394266e-01
      -1.3628525763005644e-01 -1.4147979304891037e-01
      1.5763761486342556e-01 3.9934128155543154e-02
      5.4480483635163161e-02 -1.3772238864802216e-01
      3.2546244196819335e-01 -3.9194070353081412e-01
      2.1179669271679821e-01 1.0167151172476568e-01
      1.7552883163890615e-01 5.5340324554806797e-01
      5.0267031588375949e-02 -8.2296567869828224e-02
      -3.0166175832820685e-01 3.2977014271170063e-01
      -8.4321597431156947e-01 -4.8081154508699342e-01
      6.1598945582850614e-03 3.1736591661997726e-01
      -4.4869757717773066e-02 -3.0292646513716820e-01
      1.4663967770315056e-01 8.6551374691047511e-02
      -1.4466713212531640e-01 -1.5787441519743722e-01
      -4.2420166831463124e-01 2.7305115410153907e-01
      -2.4907122787969696e-01 2.6297420553794026e-01
      -4.8240902055854273e-01 -4.5205828423710591e-02
      -3.8130488430963463e-02 -1.2216612696413316e-01
      1.9865224394761732e-01 3.6742188083009011e-02
      6.7273640960395259e-02 -1.2917972514631029e-01
      1.5282047895906570e-01 -2.3662465305256628e-01
      1.2186969550297970e-01 1.1196908398655492e-01
      5.9808845539034199e-02 3.2574646182287137e-01
      2.0731787585844721e-02 -1.1289450698954903e-01
      -2.2586239372853634e-01 1.9788007890288778e-01
      -5.2643501101615786e-01 -3.8264598141228756e-01
      2.7004893724497478e-02 1.3521479015954568e-01
      1.5266999346229120e-02 -1.9953543366606985e-01
      5.1234004316380040e-02 7.0043682672955585e-03
      -1.2419721981648071e-01 -8.0885807213990898e-02
      -4.9517678200592719e-01 1.9465497586638436e-01
      -1.7601261539243929e-01 3.0091470716343405e-01
      -4.3188396985238736e-01 -1.0134195264991387e-01
      -1.0822399819602276e-01 -1.8423060643321995e-01
      1.3395001834778067e-01 -3.3218593391182986e-02
      1.8544893067964786e-02 -1.0339802942434721e-01
      -1.6692313823782687e-01 -2.7013859101482435e-01
      1.3695616121823559e-02 -1.5730604901340116e-02
      -8.1960487723789111e-02 7.3225426951635597e-01
      1.8561918104795150e-01 -1.7719234738315451e-01
      -2.2975607442520026e-02 -2.6351463765161859e-01
      -2.5095431833017429e-01 -1.8218863694308449e-01
      -1.7386439563466335e-01 1.2094922493482187e-01
      5.1840968338690563e-01 -5.6604799162236941e-01
      1.2142972227345550e-01 -4.4638975677410729e-02
      1.9880822604886605e-02 -6.6240071519498359e-02
      -5.7819818595362671e-01 8.3772434335698531e-03
      -9.8267026777498420e-02 3.1087838396782946e-01
      -5.8961712100559260e-01 -3.3815292050290707e-01
      -7.4752622931975127e-02 -1.3851218910877872e-01
      8.1191760529221169e-02 -3.0008439760937828e-02
      -3.0633504703737144e-02 1.9886867764871888e-01
      -2.8730401595870386e-01 -1.5742526879303256e-01
      2.6945163553367428e-03 9.7728490919653278e-03
      -1.2781925505602987e-01 4.9892994340917923e-01
      1.6866398043658393e-01 -1.7950481299792764e-01
      1.1888210949543011e-01 -3.7561378138540052e-01
      -1.3682039283659495e-01 -1.4537962678371449e-01
      -1.6316658126438255e-01 -7.6174605412898569e-02
      5.3644836019416797e-01 -5.5309549714359996e-01
      7.2437806702406210e-02 -5.7331968253686506e-02
      1.1350207566257015e-01 -4.7437094905068700e-02
      -4.0395634463059182e-01 -9.1386449939405964e-02
      -1.1075803245184737e-01 1.5799271370508167e-01
      -5.5451939125455019e-01 -4.2602600697719845e-01
      -1.5644231361284874e-01 -1.0854873750720291e-01
      5.2573599000121943e-02 -8.6187174348793916e-02
      -4.9865938256720962e-02 2.6156195858153675e-01
      3.9948422538617412e-01 -5.1990933505095260e-03
      7.0241330689768677e-02 7.7876834457764874e-02
      -1.8325747169488779e-01 -2.0310103693486389e-01
      1.9964004651239697e-01 -1.9401991562231508e-01
      2.6320628212739346e-02 -3.0104537521756103e-01
      -4.5372198300171009e-02 -2.8371043580373390e-01
      -2.5131472606108418e-01 -2.5646030331165370e-01
      8.7037940736412994e-02 -2.9296959699774694e-01
      -5.3626302197688915e-02 -5.2301628447954718e-02
      2.4287992559652591e-01 -3.8365339631350727e-02
      3.2592985513686229e-01 -9.2381233198774684e-02
      -2.2661877154842078e-01 1.5568543408149865e-01
      -4.7215476256062716e-01 -3.4937943152955736e-01
      -2.4760620932017480e-01 -1.0396650837681920e-01
      6.6376678604552625e-02 -1.3842468918993450e-01
      -3.4922075254684146e-02 2.2606599467915156e-01
      1.3460157127698624e-01 -1.5369302030033419e-01
      1.7564510279038728e-01 5.0146245316368021e-02
      2.0462766711042615e-01 -1.9796497811040167e-01
      2.5552019290291697e-04 3.2856753133114286e-02
      -2.1658150851789998e-01 3.8785140634046300e-01
      2.4926164359152035e-02 -7.2289799999560658e-02
      3.3028297565951201e-02 1.2415897357802902e-01
      -5.1468241239814194e-01 5.2782327629889625e-01
      -1.2729360937013867e-01 1.3306728470843796e-01
      -2.5794323363877031e-01 -3.6236432187013917e-02
      -1.8170691395711414e-01 2.0746359973064024e-01
      -7.8517531622424613e-02 2.1336695443417530e-01
      5.0117861871407765e-01 5.1827815760754359e-01
      1.1180015140236327e-01 1.6582206637232996e-01
      1.2154661236609961e-01 1.0119859291835866e-01
      1.2151590980469323e-01 -1.9070696048834889e-02
      -8.8367542932274043e-02 1.1670797621310697e-01
      1.0524465525025627e-01 -1.4708585322617051e-02
      1.2277705748098795e-01 -1.6470932485244968e-01
      -2.5230934463347376e-01 -1.0695269855796936e-01
      -4.8249808153633923e-02 4.9075880942289457e-02
      -3.0724821419932674e-01 1.9426602885166948e-02
      5.6500039287497104e-02 8.9529718400716496e-02
      -1.2325922095498150e-01 -6.8117881005802738e-02
      7.0949156061900401e-02 7.7210997273548826e-02
      6.9221064414075065e-02 4.0631103412095519e-02
      -9.3747631761003231e-02 7.1694595418667018e-02
      -3.7517091393006741e-02 -1.6399861380831454e-01
      3.2258996470856040e-02 1.9431750851730734e-01
      1.4727072073270359e-01 1.0989771722218075e-01
      4.8834693174953772e-02 9.3164441909707324e-02
      7.5487677770920927e-02 3.2259852332814774e-02
      -9.6261793176369559e-01 3.5508723769021901e-02
      -7.0136896569646265e-02 -5.6803103108618302e-02
      1.7620863761487048e-02 -3.0812995487341927e-01
      -2.5165779403459226e-01 -4.1757196931427903e-02
      1.8265368240709950e-01 -5.2263047773617302e-02
      2.8995047060991114e-01 3.2965959913028087e-01
      4.3733308956541560e-02 -1.9101795296613799e-01
      -8.7954027753282038e-02 -1.0655397039745235e-02
      -9.6470290695087058e-02 1.8890037487153864e-02
      5.3185384064653125e-02 3.4015553516504232e-02
      3.5824147172574650e-01 -1.0272424219141908e-01
      9.7955069180329465e-02 -1.0881544482926038e-02
      1.8307405941706606e-01 4.3393269737694098e-02
      1.4371196400006697e-01 8.7697908927617821e-02
      -1.9326620286537810e-02 7.0640308724883055e-02
      2.8193589009720153e-02 1.4376758355210431e-01
      -8.1048214786933603e-01 1.7487982500137436e-01
      -8.8921470927300739e-02 -1.3262931065581995e-01
      -1.2539846082076481e-01 3.3422443101368077e-02
      -4.8688729872446705e-02 -6.7352875189026440e-02
      4.1622788128382765e-01 -2.6863858431190368e-01
      4.0429995725339912e-01 4.0953283889341680e-01
      -1.4181650595517531e-01 -2.2076282614948969e-01
      -1.7006315341358244e-01 3.7324928322492443e-02
      -2.0765938468914993e-01 -6.8559264270743756e-02
      1.9304217728104395e-01 1.5096627665981260e-01
      3.1637271824340690e-01 -3.0955756330447237e-01
      1.1519802864395413e-01 -1.3745752193535257e-01
      -5.6214281924216923e-02 -1.1288069086243128e-01
      1.1987437630495611e-01 8.7533998055483814e-02
      -9.5806623187499218e-02 3.2556416409180826e-02
      -3.0570810226493269e-02 2.4047316151647391e-01
      -1.5205081036915313e-01 1.0674012625271291e-01
      -6.8608593101416954e-02 -1.6091432536613484e-01
      3.5336444269498835e-02 -8.2063543740671652e-02
      -2.4699987144383742e-01 -8.7408211068185873e-02
      2.8872088980629970e-02 1.1069478649038243e-01
      -2.3224662047238269e-02 2.3428597887555649e-01
      1.9133320234392034e-01 -1.4367269566404531e-01
      -3.9090800286697136e-01 1.5361088265366341e-01
      -8.2703145628632804e-02 -2.1032614104873323e-02
      4.0196414164147536e-02 9.2028937761558835e-02
      -1.9708585923078153e-01 -2.7222178819439467e-02
      1.3168292745899451e-01 2.0585104141196141e-02
      -1.5389306200592931e-01 -1.9068286560751041e-03
      7.8115046710445737e-02 -8.2008555355641763e-02
      -5.9556669741965405e-02 1.1819372531271225e-02
      1.7769262354613624e-02 -1.5461949162780575e-01
      -5.2033410246102529e-01 1.2198286828387585e-01
      -1.5728313215279230e-01 -1.1772168421296146e-01
      -6.9256803779458892e-02 -4.0841361725558030e-02
      -1.5441523610737426e-01 -3.1299037063156503e-02
      1.1874546680191193e-01 -3.4010448871956180e-03
      2.4048967788024681e-02 4.6267110531393857e-01
      8.1466603125488299e-02 -1.5051915024142432e-01
      -3.4879920913935042e-01 2.1503825952814379e-01
      -9.3789348472160319e-02 -4.8174260851670807e-02
      5.7914071564946663e-02 8.3221821833737344e-02
      2.4641243097884358e-01 -1.0055696108060336e-01
      1.3409120779284017e-01 -2.9931249669888399e-01
      -2.9209668259785654e-01 -1.1143378534765952e-01
      9.5238988788162893e-02 -2.6615155481571579e-02
      -9.8860335461199711e-02 2.0997623317314622e-02
      -2.4679016583330219e-02 -1.3844732206979954e-01
      3.2474156042753055e-01 8.2771814311705938e-02
      5.2164801137998033e-02 -4.0686945334249608e-03
      -1.9591742829550361e-02 4.7604898656297856e-01
      2.2373630418743681e-02 -2.6210186023583430e-02
      -1.8151853622581090e-02 1.8267559810312023e-01
      -4.6079060462781246e-01 -2.1608352959459315e-01
      -2.5455571673908037e-02 4.3208807776672790e-02
      -6.4555611632480553e-02 1.0776215563254773e-02
      -8.2353671420060656e-02 3.6261534243736794e-03
      -1.0131088113157034e-01 -3.3265395692714729e-02
      -2.5930813682735404e-01 -1.1294400403689152e-03
      -7.8989324734383484e-02 4.6600270832908158e-02
      1.0294142660502109e-02 2.6520559420324732e-02
      -3.8827199143467036e-03 -4.4920895260163372e-02
      1.7409933050369720e-03 2.3344858836176768e-04
      1.3094133987709469e-02 -9.7617774667505749e-02
      3.0679960302096732e-01 -1.0619376326094700e-01
      2.3921342021893371e-03 -1.5137636735844687e-02
      3.0706064911100721e-02 1.9961732778736066e-01
      -1.8070362726033323e-01 -3.5497436217203714e-02
      -2.1970197114693352e-01 1.8537637325087788e-01
      -1.7142975223308862e-01 3.7577495971376140e-03
      1.3741654517066562e-01 7.5603160550107532e-02
      1.6237380175782367e-02 -1.0475516054754729e-01
      -9.2522101619150442e-03 3.2027031402110502e-02
      4.2406272485187131e-06 -6.5942382915213427e-02
      -5.6483651396417411e-01 1.3027725105666829e-01
      -1.1002826022245055e-01 -1.2120133687404172e-01
      3.2986144664088946e-02 8.4777955255244133e-02
      3.2170312050417621e-02 -7.7058842060990446e-03
      3.0585720275196130e-02 7.9673589275587875e-02
      4.3459222606035464e-02 -1.7019642433665530e-01
      6.3627583406466592e-01 -6.2644203678585572e-02
      -1.8110647257031751e-02 -1.0549177931871788e-02
      4.3412510570510363e-02 1.1596829287252382e-01
      -9.0982401155841122e-02 -9.1084175079867505e-02
      -2.1142016255122209e-01 -4.2337008445045753e-02
      -1.0891194921375308e-01 -1.0331119323281686e-02
      1.5934775100529344e-01 -1.5989866036246070e-01
      -3.3579378182387848e-01 -6.4506156115556101e-02
      5.8040663410405445e-02 -7.5374950148915220e-03
      1.4474485616677282e-01 -9.3032059319963240e-03
      -2.5083055128056225e-01 1.4719014074934578e-01
      -1.4095144420953750e-02 -2.4434364841667097e-01
      -9.7632925767768122e-02 3.7229441458543594e-02
      6.1503587725761352e-02 8.7702667138095415e-03
      2.6794651115096269e-02 7.8329760302451243e-02
      1.3329546009436231e-02 -1.0103960244248136e-01
      4.8777605106894284e-01 -2.0403503437218512e-01
      1.2380336477544338e-02 -6.9056701860326197e-02
      2.8058985103330820e-03 -7.4443995576856381e-02
      8.4238358539164115e-02 -3.7963067689569321e-02
      -3.5368796449560841e-02 -3.9118233300484542e-02
      -3.5710879412864278e-02 -1.5014224659680275e-01
      -3.4509883063783851e-02 2.7839671135511340e-01
      1.5998628682670937e-01 -3.6701135306773869e-01
      1.5400124977407376e-01 -3.7010682926951435e-02
      1.2724152188524748e-03 -2.1530363485821064e-02
      2.4676821432547130e-01 2.3213430021970363e-02
      -5.3128332730047835e-02 1.3574197525772524e-01
      -9.3380853669069272e-02 -7.3896931755516579e-02
      -1.6917905730386189e-02 3.2700035981247974e-02
      2.5168594798192719e-02 3.1219349007303356e-02
      1.4796687151275335e-03 8.8287716910376238e-03
      1.4490086320268447e-01 -2.0302428724959301e-01
      1.6743271751325819e-01 7.8983584283361247e-02
      1.3650542985773284e-01 1.9711702048669352e-01
      1.1065191890426428e-01 -1.3909637169738280e-02
      -2.1127993334671602e-01 2.1527950301172022e-01
      -5.4425423168670894e-01 -6.6784017118863181e-01
      3.8705460117500708e-02 2.5280046118185745e-01
      2.9198887497727716e-01 -4.8511597974887527e-01
      1.0466548208948871e-01 9.6987402479170107e-02
      2.1329455420293759e-02 -1.4449043889906396e-01
      -1.2930128734706678e-01 1.8206805695148195e-01
      -2.3558114340324504e-01 3.5935275438711350e-01
      -3.2137309085640875e-01 3.7118902748144597e-02
      4.0631160060840221e-02 5.5376999211236788e-02
      1.2847459834016878e-01 8.9373404779796217e-02
      7.8314284404318216e-02 -3.6338425196745509e-02
      3.2829242767098415e-01 -2.2726451271420953e-01
      1.4801783630124749e-01 2.9483122121311441e-02
      1.0975267115560121e-01 2.8137072252722306e-01
      5.3648849929126503e-02 -4.0919430041512640e-02
      -1.7838704270259723e-01 1.8160485224565426e-01
      -5.1728478436169978e-01 -2.3137739403402063e-01
      4.1426605609107936e-02 1.8949055188290570e-01
      3.1372014000671067e-01 -4.4441146504480272e-01
      2.4699922992918646e-02 4.2518059132469421e-02
      -7.6991609052158155e-02 -9.5188972184146056e-02
      -3.1793103348815677e-01 1.4913021063171014e-01
      -1.1200469894919278e-01 8.9567428441947775e-02
      -2.6740866424637899e-01 -4.5205603720861180e-02
      4.3073104753185510e-03 -3.1769697153838400e-02
      9.6175727824573509e-02 3.3071401931330430e-02
      2.7832613769050961e-02 -6.4160434139573355e-02
      2.6123126339761493e-01 -4.1807776583875036e-02
      -2.3454845799871078e-02 2.0806015730847324e-02
      -5.9737744335686500e-03 4.9041335310657480e-01
      3.0573453594604361e-01 -4.8793414637589773e-02
      -1.1215949748798675e-01 -1.3336038253262780e-01
      -3.5168770015543083e-01 -3.6831223127352636e-01
      -1.8795408364520766e-01 -1.9363470870212285e-02
      4.8533921420070586e-01 -4.9020273112116269e-01
      -5.8946334879351386e-02 -5.5593360533963992e-02
      -8.4759099102402341e-02 3.4573266155638063e-02
      -5.5687681029134428e-01 6.0154484620419391e-02
      -1.3192910065011140e-01 3.5799207757171581e-01
      -4.0017101100704577e-01 -2.6161971625506070e-01
      -4.5101077992022613e-02 -9.7349772933506717e-02
      2.9299847270322473e-02 -1.9947892437753741e-02
      -5.5046776417096606e-02 2.3245516847199821e-01
      7.2248401063813139e-02 -1.5652960982354416e-01
      -1.6827701121532060e-01 -1.3507838070950254e-01
      -2.1878842884942618e-01 8.5240595631526062e-01
      4.4610954543167919e-01 -1.5987652978378664e-01
      4.8858703702339891e-02 -5.8716632262679380e-01
      -2.2520640684210658e-01 -1.6437123762443079e-01
      -2.5767871855218272e-01 -2.5742011553442917e-01
      1.0831095704093745e+00 -7.3139797473626600e-01
      7.9085497590274917e-02 -1.3730045135631702e-01
      8.3243022540867503e-02 6.1460639388909707e-02
      -5.1261853662655632e-01 -1.2605388248637081e-01
      -5.8655897180008104e-02 4.3265831998964949e-01
      -3.7403230687344913e-01 -5.9785072934640549e-01
      -7.9901528913094946e-02 -1.8870156372124125e-01
      -4.1415599521348177e-02 -4.4751609477512937e-02
      -1.1284915954041974e-01 4.0959497672698353e-01
      1.8645616147444025e-01 -3.7455645153520745e-01
      -5.3254904073914026e-02 -7.9987445877649124e-02
      -7.9453846948660325e-02 6.8277713390428207e-01
      7.0977129276680942e-02 -1.8889937077131108e-01
      -1.5117274422542501e-01 -7.7015383349391092e-02
      -4.4286042271146958e-01 -3.3972576662902026e-01
      4.5455256371458058e-02 -1.9005556739286736e-02
      4.6023846042027849e-01 -3.8642376700819908e-01
      8.1972909953947751e-02 -2.5350325718034934e-02
      3.8254803363756494e-02 -8.6158912217281350e-02
      -8.3458135150031620e-01 4.3701418079211726e-02
      -2.1423048274035725e-01 4.7032848039064185e-01
      -6.1629612824068347e-01 -2.2317390774908810e-01
      -3.8801450044949552e-02 -1.2736974260646350e-01
      8.5479216840080044e-02 -2.4833845126990207e-02
      -1.5752796292652530e-02 9.1648524540340559e-02
      6.4522415734835681e-01 2.5360879469714225e-03
      1.0105016261418436e-01 6.3146839689459416e-02
      -2.9914516220075363e-02 4.0452787719560895e-01
      1.2393418854601615e-01 -9.3164281501827984e-02
      -1.7288234842706982e-01 -2.8591094177657147e-02
      -7.2296673635632969e-01 -4.5348571782131653e-01
      -2.8727374888308028e-02 -2.2890048393116525e-02
      4.2019307585196092e-01 -3.9465586645795220e-01
      -9.0314372713796914e-02 -5.6986341976941789e-03
      -1.9295959129169409e-02 -5.4448284492058303e-02
      -9.5799481320957780e-02 1.0891004937380118e-01
      -2.5722502025601629e-01 2.3434417359771417e-01
      -5.7342257710339894e-01 -1.8895777545504930e-01
      -9.8729257340164800e-02 -3.9997002117399705e-02
      1.0520108516393381e-01 -9.4926745870725013e-02
      -9.0272154380240995e-03 6.9003972225126220e-02
      2.7549149161510589e-01 -8.1588504855095320e-02
      9.3352866235142593e-02 8.5642528091482470e-02
      1.2117394843916500e-01 -1.6812880126258775e-01
      -1.2768561834177475e-02 5.3253056354853369e-02
      -1.1964147497253866e-01 2.1734208183801276e-01
      -3.6471884947174944e-04 -1.8010844353259090e-01
      -6.3079336815113629e-02 7.0009657144685572e-02
      -2.0510972228634378e-01 1.4786338571977878e-01
      -6.5834598176525011e-02 5.8157280646067962e-02
      -2.0244232372686363e-01 3.7021876888657691e-02
      1.3084621736697106e-03 1.2498101921563565e-01
      -2.1476953927519228e-02 1.3985539479618339e-01
      1.4909550539263408e-01 3.1983695963388226e-01
      6.0590510657488293e-02 1.1960472261368021e-01
      4.8297223916492264e-02 6.9258311995459620e-02
      3.3510128274583925e-02 6.4625855109522266e-03
      3.9018357887959965e-01 1.3956661141055662e-02
      8.0226768645363777e-03 -1.5560516233702245e-02
      1.7004042280100651e-01 -3.7861037977291123e-01
      -2.0488817180197236e-01 3.1821625040832024e-02
      -1.3125992745516588e-01 1.3785841968951987e-01
      6.9784915990209445e-02 -1.5948220551880221e-01
      -1.4731548450034190e-01 7.5215498804603723e-02
      2.4888692133917642e-03 2.3363964945738785e-01
      -9.9132910238380362e-02 8.6918874588470543e-02
      -1.6207961134190310e-01 2.5286085772983177e-02
      -3.9621353956490857e-02 1.2958380397822278e-01
      -6.7892803984228811e-02 5.9922326213072995e-02
      3.7875737544270049e-01 2.4667600750472204e-01
      1.1360689876806852e-01 8.0157862966044130e-02
      6.8297260831803250e-02 8.4424418667049222e-02
      7.0561628358994086e-02 3.2902607137610264e-02
      -8.7996755910336011e-02 1.9053741796766449e-01
      2.6087772955212789e-02 -7.1427337056201662e-02
      -3.9302918273021459e-03 -2.6442965793902695e-01
      -2.0088000661713454e-01 -9.5284633652503919e-02
      1.1008028256436365e-01 -4.7545748540775853e-02
      1.2160642308583901e-01 -6.5224437211048869e-02
      -5.3607667583335503e-02 -2.4850366443560282e-01
      -1.1770319760949613e-01 1.4632153846942750e-01
      -1.4328303283916158e-01 -2.9911565471455657e-02
      3.3730829275522567e-02 8.2166291080484427e-02
      5.0651429677511717e-01 -9.8283510511014208e-02
      3.5119400432709405e-02 2.6579072393231551e-01
      1.9648464279533073e-01 5.4506504550252494e-02
      -9.4885876968294203e-03 1.1550929450405926e-02
      -2.7134886463020789e-02 -3.2118839714982805e-02
      -9.3355955818138405e-03 1.0604451082831277e-01
      -7.6051844375696398e-01 1.4742734858790699e-01
      -2.7014035082318414e-03 -9.3395370100975622e-02
      -6.1594993278042888e-02 9.2120341593990795e-02
      -3.7598406626142222e-02 -1.6925419279351366e-02
      2.0582847998691386e-01 -5.6837140832933571e-02
      1.9699125762003178e-01 1.4892330924703753e-01
      -6.1966740868548073e-02 -3.5296600586205762e-01
      5.9038896737484706e-02 1.2081293892620364e-01
      -2.5802357136622806e-01 6.9918265382368470e-03
      5.6061302262667714e-02 5.4654258518247428e-02
      1.1959628575192324e-01 -1.5427289230337352e-01
      5.0466345172711848e-02 -2.9948240507698572e-02
      9.6624805049616999e-02 -2.5309261655025030e-02
      3.1881638622814679e-02 1.7618448838089783e-02
      -2.7767172655966784e-02 -6.5302049464632693e-03
      9.0207179162692334e-03 1.3673028076122634e-01
      -8.1217487626600471e-01 2.7883710773960235e-01
      -6.7903342222605870e-02 -1.2685081319221791e-01
      -1.8922989320359179e-01 -3.0520856813959868e-01
      5.5965104032216453e-02 -1.0667682392483387e-02
      4.2517731553460203e-01 -3.1439944937369746e-01
      4.9784474424183806e-01 4.0210725153772470e-01
      -1.5226218587789633e-01 -3.6322002710705742e-01
      -2.7139169539272489e-02 1.8722506714912218e-01
      -2.1030645124927291e-01 -5.1748518938772185e-02
      2.7020275343085903e-01 1.4073799577745991e-01
      5.0846948775748468e-01 -3.0313331552584416e-01
      1.1333120298081371e-01 -2.4422582809741639e-01
      -7.0983852657189872e-02 -1.5803393032807586e-01
      9.5825798586551783e-02 4.8837042729699943e-02
      -1.0611968629848738e-01 3.9687300752370272e-02
      -3.5694279809055159e-02 2.3021341880515722e-01
      -6.6057548561269963e-01 1.2754925366090883e-01
      -1.7416983874070302e-01 -1.0288138420579745e-01
      -4.3844874799147171e-02 -1.9610713860458701e-01
      -8.9260506373353768e-02 3.7569302324607062e-02
      1.3384981904801049e-01 -6.3210794608567461e-02
      1.9107005692051696e-01 5.1696563164452736e-01
      9.4500155711012404e-02 -5.0442811868112181e-01
      -3.8706015294022550e-01 2.9138265892204729e-01
      -1.7256275636326646e-01 -1.8675317816217962e-02
      2.0149279904217634e-02 1.0558806029561041e-01
      3.0708361920769461e-01 -9.7429329937806855e-02
      1.7584411200894731e-01 -3.1999763762704098e-01
      2.7436832508426745e-01 -6.0099967433754009e-02
      8.5056279838961593e-02 -9.5038099730958253e-02
      -1.0518758145640936e-01 3.4957861787223293e-02
      -2.4916899613973802e-02 -1.6516970872912740e-01
      -1.9630546210168984e-01 1.8003783003771012e-01
      -1.1505486043928685e-01 1.3160617591255421e-02
      -6.7564670038017235e-02 2.6188257367748435e-01
      1.0168171437873885e-01 1.5694394264959513e-02
      1.3436686674581366e-01 -9.6430064376974350e-02
      -1.4437119650258295e-02 -1.3342610321476570e-01
      -7.0663247417815947e-02 -4.0600357768778234e-01
      -4.7752884392496218e-02 -4.9473978000053945e-02
      -1.9757384999152613e-01 -3.9124891107411408e-02
      3.7845941886110832e-02 8.3657135042428846e-02
      9.0073816651399741e-02 -1.4405314147735385e-01
      3.7719227866384882e-02 -1.1872092552679028e-01
      -9.2309629705989132e-02 -1.0833226398902819e-01
      -8.9660878958301247e-03 7.6916792535308628e-03
      -9.1301329600333339e-02 1.5801804535614299e-02
      -3.9417518401886481e-02 2.4191965195013560e-02
      1.0789764852960108e-01 1.2274960459672520e-01
      2.9541196122332365e-02 4.2598700612881617e-02
      -4.9119732604797565e-02 1.4992763014450325e-01
      9.2435019411149871e-02 -3.3279397804024169e-02
      -1.5332968742505062e-03 -1.1646131791272997e-01
      -3.3908630760295919e-02 -4.0665431643124167e-01
      -8.6099841786986375e-02 -2.1048683913938937e-01
      4.4492798912163811e-01 -5.8100348840073035e-01
      -1.3600972962312977e-01 -4.0557660629336426e-02
      1.0193952703892641e-01 2.5815344541097719e-02
      -2.5219307289222404e-01 -3.7784770787347551e-02
      -6.6213816711197970e-02 6.2562835805954300e-02
      1.1219066064342038e-01 -5.8583225915723756e-02
      -1.9990312347905142e-02 7.3514609826623015e-02
      -3.3888966665457862e-02 4.5979632521734731e-02
      -2.2170816597628554e-02 1.4013200282746732e-01
      3.6857966998326275e-01 7.5739215917704522e-02
      -1.0532030445178882e-01 -1.6822070047609879e-02
      -8.9992607080103225e-03 -2.0152635684553727e-01
      -1.7845382510674770e-02 1.1537744207727541e-03
      -6.0079979702281024e-02 -1.0327186070485377e-01
      2.4514284440293080e-01 6.4070342230260757e-02
      -4.2458537425893957e-02 -1.6293034202283960e-01
      -2.9073441343576800e-01 4.5692202713690060e-02
      -7.1219663147138790e-02 -2.3437641470028255e-02
      2.8035759658176472e-02 2.2302062995959427e-02
      7.2036312127414903e-02 4.9251381508921367e-02
      5.9587612748184589e-02 -3.5619345627108018e-01
      5.5313640503405918e-02 8.3124565514332768e-02
      7.2143148378729552e-02 9.7304234936706299e-02
      -2.5796970087834614e-02 7.9237875000324101e-02
      4.7466445096514412e-03 2.1392245675568935e-02
      3.5775121346424810e-01 7.7540153927406208e-02
      6.9379175383202357e-03 -2.5897956081284517e-02
      5.2966403979469119e-02 -4.9783131124951435e-01
      -3.1872134409730106e-03 4.9460892389363846e-02
      3.4183474657458121e-02 -1.5231567005500341e-02
      3.4037951016031881e-01 5.8299963322294597e-02
      -4.6104390620031424e-02 -4.8768852211549876e-02
      -1.2749857683969337e-01 3.6470457986312432e-02
      -1.0256653055205033e-01 -2.1630632733077502e-02
      4.7892927590842911e-02 -2.8804885910245968e-02
      4.2806384450670348e-01 5.8910653434177375e-02
      7.6896282419680606e-02 -1.1837070789170070e-01
      2.0922198282275523e-01 1.5920726666877641e-01
      1.2310274944229035e-01 1.6585176866630763e-01
      -6.3384016695968038e-03 9.3855491648834818e-02
      1.3152798828726000e-02 5.1776956992501469e-02
      2.7713826251465895e-01 2.4964950115485909e-02
      7.1460652244030615e-02 4.7720562750316220e-02
      6.4688263151545286e-02 -8.2163305387421587e-02
      7.2809491757748493e-02 6.6257592728125772e-02
      -1.5309043312051332e-02 8.8983923884037572e-02
      -3.0138263986968908e-02 -3.6188227706801607e-01
      -3.7067243372809741e-02 2.5898567553548465e-02
      3.8683501487667360e-01 -3.5255074768946781e-01
      -4.5044133319398112e-03 2.5811736196155295e-02
      -5.7818132056571318e-02 -5.7687062024573549e-02
      1.0170035437123831e-01 2.5743997278331300e-02
      -6.9551247111298273e-02 3.6641131047568953e-01
      -1.1055183208786852e-01 1.2084841760163703e-01
      2.6793337461266966e-02 8.7135069463494835e-02
      3.9367353128070430e-02 3.0620862159200398e-02
      2.8521440708531041e-02 -1.1736173700161877e-03
      1.3655604732978055e-01 -1.5022369452926856e-01
      5.8016072297917059e-03 -7.8197298426958356e-02
      1.9437820316230040e-02 4.4540483025450016e-02
      8.7826915024021610e-02 7.2998755933696867e-03
      -3.5298512232317804e-03 8.2017594244173986e-02
      6.2020728005341134e-02 -1.4136962394894070e-01
      -1.3297187662672907e-01 7.7190540935680521e-02
      3.4659520064154170e-01 -2.2986407204192433e-01
      -6.6961732612725741e-02 -6.6006223298326980e-03
      -1.4318090420925836e-01 1.9390756504755195e-02
      4.9338440400168930e-02 -7.3548743013725632e-03
      -3.6120326303233891e-02 2.5452332955708157e-01
      6.6973928698846705e-02 -1.1189252767122516e-01
      7.8004654719465794e-03 -1.8733733067040886e-02
      7.1148643210964622e-03 -6.3321910216698482e-03
      -1.6573252764127248e-02 8.1526822443235752e-02
      3.9989908059425849e-01 4.4902541982926640e-02
      -6.2326245717478232e-02 -7.7843465064676501e-02
      -1.2184755288581343e-01 6.3892031133183580e-01
      3.2181200381819697e-01 -1.6907353048997115e-02
      7.7448324279531799e-02 -2.2743601968192045e-01
      -2.4997580082391913e-01 -5.1581696458847981e-01
      -1.8763885307692543e-01 -2.0945696831234616e-02
      7.4792477841471627e-01 -4.7810756081267108e-01
      7.5014821761031122e-02 -9.9661096204002958e-02
      -1.7339449521343614e-01 1.1250587690082670e-01
      -2.9219101626921534e-01 -1.2712155347011309e-01
      -7.7759586046844520e-02 4.1506981779892144e-01
      -4.0771452386434542e-01 -3.6151614572135138e-01
      -7.6972406702842666e-02 -1.8209583226526785e-01
      -6.4506481455861769e-02 -5.6586574515430012e-02
      -1.0122509210792391e-01 1.6977576672945732e-01
      1.1087118529744652e-01 -1.0575493534982720e-01
      -8.2858623766326189e-02 -2.3909255336313773e-01
      -1.6955735949105016e-01 6.2598659133614476e-01
      2.3648595044064596e-01 -1.8987178119418238e-01
      -2.1660809260927241e-02 -2.4626382020833124e-01
      -1.6566873224535292e-01 3.3650752925115587e-02
      -8.8956450752523883e-02 -5.0747246702797455e-02
      4.6590977836815722e-01 -2.7622706162971805e-01
      7.4313349422203509e-02 -7.3588373834373402e-02
      -2.6088570328322941e-01 2.2359842490425646e-02
      -6.1461850343838764e-01 -7.5403510522197778e-02
      -9.7359562479938891e-02 3.5482408114925229e-01
      -2.1683415699103500e-01 -4.1365047141050476e-01
      -6.0277113187491599e-02 -2.7181309960702471e-01
      -1.5413525999840956e-02 -4.7138234353927104e-02
      -5.3970222755894963e-02 1.7220242865701788e-01
      6.8157089694143758e-01 -8.8302388731415965e-02
      -8.1482883874084578e-03 -2.0592279749381444e-02
      -5.3724724702930826e-02 2.4536068087857593e-01
      2.1081546794000994e-01 -7.0021480023298069e-02
      -2.2975480711749044e-01 -2.4029564236563609e-02
      -3.4342627649912788e-01 -4.3853466963730092e-01
      8.3147330535892086e-02 -7.5607577860629924e-02
      4.0378018026745038e-01 -4.6076728122880112e-01
      -1.0724277506128149e-01 -4.5934027055178746e-02
      7.0541557179037581e-02 -4.7258197796564545e-02
      -2.3589410093882179e-01 9.6651982131137043e-02
      -1.7980312413443247e-01 5.0227618117910211e-01
      -1.2571995026386679e-01 -1.4944575858457024e-01
      -6.0726591527057609e-02 -8.6766979905500446e-02
      2.0153598110706224e-02 -3.8960209417355597e-02
      -4.0626114011899916e-02 9.7659281105444945e-02
      9.1458190363299041e-01 -1.4375945083862632e-01
      4.8510254725770204e-02 1.8842445214793065e-02
      1.4447748286461051e-01 4.2149684860417552e-01
      4.8894215972769890e-02 -3.2145445819887382e-02
      -3.5790799275865737e-01 3.9080544129460254e-01
      -7.3376446198576473e-01 -6.9516645510568631e-01
      5.8934874331960943e-02 1.4764319361680492e-01
      1.3980426010787730e-01 -1.9643487081215166e-01
      -1.6765404959683740e-02 4.3402503223866913e-02
      -4.0189914435816365e-01 -7.6374492310617284e-02
      -5.9887657960304153e-01 2.9332508184380207e-01
      -2.7988080516112201e-01 8.5369411104642434e-01
      -2.5982078110416068e-01 1.3587144686069180e-01
      5.7279993331829891e-03 -3.9660233811163022e-02
      1.0193904077327157e-01 2.5603376620354522e-02
      3.0795214887604058e-02 -2.1471439588169683e-01
      2.6629232227445665e-01 4.3414875875578629e-02
      5.9406890211731046e-02 8.7641651405855905e-02
      6.0941420381762680e-02 -4.9047119700840067e-02
      -7.3712378809067988e-02 4.7793470603602083e-02
      -3.0968128197250356e-02 7.7588207712351337e-02
      -3.2002021706347972e-02 -7.3779619298009729e-03
      -8.0218274860408195e-02 -5.6318358211067551e-02
      -1.3794811141460733e-01 2.6781551871470369e-02
      -4.2295988900637724e-02 -4.3826671937600443e-03
      -1.5223295111532409e-01 4.6266229577528670e-02
      1.1101080627770458e-02 2.9981395878897900e-02
      3.5889129098547628e-03 -3.2847899020639840e-03
      5.3877302069022581e-02 1.4028594005356687e-01
      2.2013991672402776e-02 1.0286282041123436e-01
      -9.1831092733601488e-03 2.7622913653806171e-02
      -7.6608371592497403e-03 -1.3623170434280624e-02
      3.6903447042985543e-01 9.0447529787436767e-02
      -1.0188199654990543e-02 -5.7781085811688497e-02
      6.0570288257678656e-02 -6.1609752069287434e-02
      -7.9097700257288184e-02 3.6520736411942006e-02
      -9.4309837642532111e-04 -1.0475055626587050e-01
      2.1389688011035274e-01 3.6886221437349646e-02
      -1.5327871807731319e-01 -2.8302179535310212e-01
      2.7197266406138548e-01 1.0098550190922914e-01
      -1.2367420721834689e-01 6.5444641344134472e-03
      -1.3103463230399531e-01 2.5240748223768691e-02
      -9.8992680328359658e-03 1.1742530497688022e-02
      -7.4887698029641172e-03 8.8152577858068876e-02
      2.8528573348690267e-01 7.4810808182422750e-02
      7.3351318735832338e-02 6.1704917446299981e-02
      1.2213206026098929e-02 2.2839897785834538e-02
      1.6881846807606397e-02 8.4327745567430931e-02
      4.1881544533780313e-01 1.0876842263519690e-01
      5.6072814083949568e-02 -1.2089691198487966e-01
      5.7594522476419531e-02 -1.4945163173965872e-01
      -1.8381840208413383e-01 -2.9031975842895262e-02
      -4.7854041770390390e-02 7.5332342036882313e-02
      2.1276992266370232e-01 -1.2424329001458650e-02
      -7.5736421620507186e-02 -2.3560714738225241e-01
      1.1770611519646419e-01 9.8503348146198447e-02
      -1.9371705049903815e-01 1.3960378325771293e-02
      -1.6009536811692734e-01 3.6947154585841128e-02
      9.5481395423027471e-02 3.9238666819121332e-02
      -3.5445432944427958e-02 7.2930556379925210e-02
      4.9574111613883898e-01 1.7513549493657560e-01
      7.7950411957842886e-02 9.9659748840085494e-03
      1.9330544676222337e-02 1.4126688789726630e-02
      3.1547444731219537e-02 -4.4621085190691891e-02
      -3.4141598169004811e-01 1.6345479596399698e-01
      1.7810102887430401e-02 -1.1361446956527159e-03
      -7.7311324076579230e-02 -1.8476563243243713e-01
      3.6809722086943449e-02 4.0685980265076221e-03
      9.4777733329133571e-02 -1.5391377670254697e-02
      5.0042827492217730e-02 -4.5786338223246778e-02
      -1.1318192506960013e-01 -4.2695390625435881e-01
      4.6272776163599545e-04 -1.1887323593741006e-02
      -3.1577978004955531e-01 -3.0239372113983854e-02
      1.8823457687197395e-02 3.6604966386454781e-02
      1.3822004586698541e-01 -1.0922846918421658e-01
      3.6045581986289439e-02 -9.5288050265038129e-02
      -7.3105229193886415e-03 5.3201527730738860e-03
      -4.8824707238417095e-03 -3.2994203281355404e-02
      -5.1494323359854745e-02 -3.1966597573378740e-02
      -2.6711409669553633e-02 1.0543116499195018e-01
      -5.7239302540398829e-01 1.4815719635743199e-01
      -1.9154306814492358e-02 -1.8679257883841015e-02
      -6.5929407341186921e-02 -2.3341877651442164e-01
      1.1753690583063706e-02 7.8491305680851137e-02
      2.0385472452433537e-01 -6.0756455058784548e-02
      1.8879487524063457e-01 1.0304941154346801e-01
      -9.0828523329320718e-02 -3.1308949929456314e-01
      5.2012091354727071e-02 2.7802427016824566e-01
      -1.7289120963323534e-01 4.1798543311516020e-03
      9.5175682567074996e-02 7.2868306000316449e-02
      2.4667633436927078e-01 -1.4735617694469003e-01
      9.7351751266249051e-02 -1.4769887053329930e-02
      -2.0835004054787339e-02 3.6399206265135209e-02
      5.3760581290404862e-02 -1.9096921581715262e-02
      -7.5943153335476937e-02 4.3690180613828462e-02
      -1.5517305285572392e-02 6.4692112452804221e-02
      -7.8548504415483722e-01 1.2517305129408465e-01
      -1.4742509544214660e-01 -5.4130259718959101e-02
      -1.7203099653484058e-01 -1.9867396689252692e-01
      1.2187907169434570e-01 8.4532922671844285e-02
      3.9624069623315178e-01 -2.8118693781237758e-01
      3.3998024624596235e-01 5.1479971255405732e-01
      -2.3501436882722099e-01 -2.7783357127603492e-01
      -4.5303067700022653e-01 3.3790561888402060e-01
      -1.0464145379576857e-01 -2.7583537122479122e-02
      1.7127074554786828e-01 1.4554551959657608e-01
      3.8306638377487995e-01 -2.6554852223283171e-01
      1.3767079066206478e-01 -3.4867787651242210e-01
      -9.5662628943716882e-02 -9.2753031879547559e-02
      1.3557433527375293e-01 1.9004488476240526e-02
      -1.3494663099539372e-01 8.6372909206947165e-02
      -5.9624926253550842e-02 1.3038899006803664e-01
      -4.9506963172578000e-01 4.4218066562149480e-02
      -1.7647358384359232e-01 -2.8021410969358743e-02
      -2.3145251214402494e-03 -3.1907013135467271e-01
      1.3981300464130375e-02 2.4666087446511567e-02
      1.0732163349127671e-01 6.3709774365825103e-02
      3.4436753848780316e-01 2.3686407169860207e-01
      4.6629769380686505e-02 -2.9150081289203483e-01
      -1.0896021864022769e-01 2.5905335904344029e-01
      -1.4550393782928039e-01 -8.2701790740148350e-03
      -3.2512170780151499e-02 8.6915372281523531e-02
      3.3716835909360188e-01 -8.3228057500380315e-02
      1.5925504306050078e-01 -1.0870394388321208e-01
      3.9704771722115884e-01 -1.9222783315323050e-03
      5.2591590089285302e-02 -4.8987890855846277e-03
      -9.3766194659673008e-02 7.0925630147499100e-02
      -2.1266115661275627e-02 -3.8296246038885678e-02
      -3.0621969447995340e-01 5.7178900800871499e-02
      2.6873739716627657e-02 5.3346776803277728e-02
      -9.2687186215460349e-02 -2.1042577699978712e-01
      6.6162584630379842e-02 -3.2731679146921100e-02
      1.5023389996640671e-01 -1.1110383231020830e-01
      2.7394411578227601e-01 4.3103775130637595e-02
      -1.2715923223507455e-01 -2.2391562033045531e-01
      2.0822198523129667e-01 6.8417637198284493e-03
      -1.2864097770877433e-01 -4.9377524866423037e-02
      9.4728543702204543e-03 7.8825090262245115e-02
      2.2891862749582775e-01 -1.5556229902631541e-01
      6.7665202368290336e-02 1.4453706680603304e-01
      1.5756904276802206e-01 8.0366017904541787e-03
      -3.6437133354158484e-02 5.1810035703492678e-02
      -6.5941095516561007e-02 5.2695667070797492e-04
      -2.6397894842316725e-02 1.8579764659778492e-01
      -1.3783364569311934e-01 2.3984132109635417e-01
      -6.6822846601275770e-02 4.8906899169767717e-02
      -1.0603590239114952e-01 -2.1802249138411633e-01
      8.2949655883843773e-02 3.5017097314262821e-02
      1.2020440814906422e-01 -2.2360417651891251e-01
      2.9598128781794997e-01 2.1973649969567272e-01
      -1.3107660942628094e-01 -3.0941260832781226e-01
      -8.2337538983990669e-02 6.9795192323398661e-02
      -2.0693211464675013e-01 -5.9494195643290670e-02
      1.1558182708982247e-01 9.6027643340248214e-02
      8.1910441287238650e-02 -8.7326655546562035e-02
      1.1593402948342398e-01 -2.0102067949967242e-01
      3.1230264261611534e-01 1.1147257588369863e-01
      4.6555494814233864e-02 1.7117213294071432e-01
      -8.2042909456384330e-02 4.6443247148877077e-02
      -3.3869756884862906e-02 2.1947575087335774e-01
      5.9609583709150274e-02 1.4804265280402332e-01
      -3.8294584821850948e-02 -1.8415195981444022e-02
      6.7598786260264457e-02 -6.4490883673027677e-01
      -1.2164379062090189e-01 6.3837497698407714e-02
      -2.4595539701765541e-02 2.8181801638593688e-02
      5.0369167392489134e-01 1.3149583255688824e-01
      1.3300525068602589e-01 -1.6126067636711969e-01
      -5.1338195302578216e-01 4.5260630442842903e-01
      6.4988466014841125e-03 4.0202678936204300e-02
      -4.4732744266464980e-02 -5.9968854006467390e-06
      1.2487009326996551e-01 1.0945435101533582e-01
      7.7655354372856533e-02 -2.1209822204052198e-01
      4.7804395289001184e-01 3.5020840122276148e-01
      8.3417529565187262e-02 9.0473068927292608e-02
      2.1342662526127598e-02 8.6575065890568639e-02
      4.2621083851637515e-02 -1.1073650877770283e-01
      -1.7947123324383146e-01 1.3570423501775400e-01
      -1.1006537823776462e-01 -5.6711677205661823e-02
      -4.8483668227642517e-06 -1.9848179967969870e-01
      4.8784327321956542e-03 1.3846353677049894e-01
      1.3553289233899965e-01 -5.8220417212764650e-02
      5.4457252584693761e-01 8.5026500817160997e-02
      -4.6931287415521994e-02 -1.1859104080825152e-01
      1.7545655311437425e-01 2.3596393667933838e-01
      -1.3319615689005521e-01 -2.5289371953616541e-02
      -1.9860722789575555e-01 7.6114059722262553e-02
      2.7102208794346555e-01 -3.6349933984611948e-02
      6.9452630211652072e-02 -4.2360283136418680e-02
      3.7732854234540830e-01 1.1507000002792510e-01
      2.0557997377074297e-02 9.9956056967898360e-02
      -3.6028308596249545e-02 -1.0227289909451133e-02
      -1.2086795661629438e-02 1.1783334495637661e-02
      -2.3102244421976315e-01 1.8787894866378944e-02
      5.7685277892140382e-02 -1.1551334799941973e-01
      -2.2118030366822250e-02 -1.7690592348435963e-01
      1.5530490484064088e-01 2.8018011804698442e-02
      1.0167986324148058e-01 -9.5487125938414449e-02
      5.4017232395829125e-02 -1.6840563276195536e-01
      -2.6375707967409295e-01 -8.6773133575488021e-02
      4.1412146858326965e-01 -1.2798130609957917e-01
      -1.2478821000674235e-01 -1.9538900141249038e-02
      -1.5822720141883950e-01 6.2897011441547024e-02
      2.8387445937857136e-01 -7.5025359334350103e-02
      -5.7413416448398716e-02 3.0415306493547645e-01
      1.2473870527391728e-01 -1.2757286492820213e-01
      5.9766257864510607e-03 -2.1867065160132326e-02
      -3.3166316870537143e-03 -3.0498052779844929e-02
      -2.1058159029001496e-02 2.1758950397792115e-01
      -6.0190172210227627e-02 -6.2748554475167390e-02
      2.2119109355589014e-02 -9.9316275962017558e-02
      -7.4464807509389067e-02 3.6459422402238784e-01
      1.7068021428055707e-01 -1.4225920735498013e-02
      1.0846378825153276e-01 -5.7149312223686605e-02
      -1.2525369317627155e-01 -2.8653918088817171e-01
      -1.5680637230175945e-01 2.5801101866162197e-02
      5.9765341229012559e-01 -3.2697068262103973e-01
      2.8535088515906391e-02 -2.5997667058706472e-02
      -2.0429099227156067e-01 4.3883189682412484e-02
      -8.7510143993228914e-02 -1.2484360156423945e-01
      -1.6758980296428949e-01 4.0965149585225408e-01
      -2.5529070936424819e-01 -2.8024696708171848e-01
      -9.7619090287876902e-03 -2.0685364127724171e-01
      9.5719147624368593e-03 -2.0683535746733945e-02
      -2.3323564176652004e-02 1.2301364344942542e-01
      -4.6693478715476390e-02 -8.9312427332213340e-02
      -1.1122954367391028e-02 -1.6616815618462896e-01
      -1.4785751664224156e-01 3.1321226395694429e-01
      1.1279974888919607e-01 -1.1561988929607989e-01
      -1.8305999095215460e-02 -1.0491596252544162e-01
      1.0353567090173145e-01 2.2473727949135085e-02
      3.1820823947172595e-02 -3.2748215974246714e-01
      3.1423309551801543e-01 2.2371273877228658e-02
      -1.4207549924749793e-01 -2.2722665766843009e-02
      -9.2962193796008105e-02 -1.6098243810274832e-02
      -4.4236740189486712e-01 -6.1196683043510960e-02
      -1.3126072550335252e-01 1.0461845738469701e-01
      -2.8449993121996608e-01 -2.2932102007723085e-01
      -2.4184345996217153e-02 -2.2141716262215003e-01
      5.9214323716367872e-03 -2.4113608645028699e-02
      -1.9116078457886765e-02 4.6933646041359134e-02
      5.0307575147051153e-01 1.2103830649580049e-02
      -5.8785378638004759e-02 -7.7233125780938355e-02
      -1.2923063767003629e-02 6.1829455583568380e-02
      4.3537025524562192e-02 -4.2536456332141162e-02
      -2.8041206018633807e-01 1.2906465904941788e-01
      -3.2982213232497404e-01 -3.3542724456146428e-01
      9.4446311399506266e-02 -6.1982749691960971e-02
      -2.0666317851671412e-01 -6.5585630776026929e-02
      -1.4915409254474735e-01 -2.5912523768590743e-02
      -1.7912486986781953e-02 1.2888706532277104e-02
      -4.6027901857792491e-01 1.3138022768022953e-01
      -1.4470870316580225e-01 2.9606924115590305e-01
      -6.8898142068846382e-02 7.8257317277509120e-02
      1.7580038931551936e-02 -6.6652971095360988e-02
      7.5327175063771247e-03 3.0045521559625830e-02
      -1.9550616073333620e-02 -7.6178524533608696e-02
      4.6992631109644001e-01 2.9733929872421152e-02
      -1.8118143553348484e-01 1.5861566005823861e-03
      5.7741739776464338e-02 4.5422322683174643e-01
      1.2520980064290288e-01 1.8174916749571855e-02
      -1.9387738327547688e-01 1.2554484072694883e-01
      -3.4751980561064832e-01 -1.6097339743324976e-01
      -9.0057889122185271e-03 -1.4762877217058698e-01
      -4.1719511325182278e-02 -7.6388048257091971e-03
      -1.4443697287757798e-01 -4.1423565084343687e-02
      -3.3253832313169679e-01 9.5189833885031258e-02
      -3.7616650083248460e-01 1.5078226548175663e-01
      -7.6594348801457879e-02 3.8569017477463591e-01
      -1.4232703280940540e-01 -7.9324868452634159e-02
      -2.5034562029754492e-03 1.4914070973491534e-02
      -2.4846392911844633e-02 3.5512990638604615e-02
      -2.9406302003546863e-02 -2.6397204743078689e-02
      3.2699542640429674e-01 4.6214462886880407e-02
      4.7252230219487462e-02 2.8597523730139112e-02
      6.0854880506984954e-02 5.4679222022870726e-03
      -1.6844941798708160e-01 8.0394454774154831e-03
      -8.9808946013848243e-02 1.2841996871111960e-01
      -1.0573097937523035e-01 -1.2106392126242566e-01
      -5.4960150643602136e-02 -7.6785173289576694e-02
      9.2456856083175956e-02 -1.3695139631408673e-01
      -8.3289292304992574e-02 -5.4050275923770300e-03
      -8.6770047501230213e-02 -6.5456063533758267e-03
      1.2025401351421407e-02 4.0010877293938991e-02
      -2.5669608309719986e-02 8.3309026205020009e-02
      -9.9674398104097256e-02 8.8524619304579805e-02
      3.5826727140039580e-02 1.0867772220315253e-01
      -7.4798986070602506e-03 3.6071443480547812e-02
      1.2814485363133650e-04 -9.5943275943408068e-02
      -2.0011826866174598e-01 3.9531888398409397e-02
      3.6893658130643880e-02 -1.8350484193384854e-02
      1.0456880212505831e-01 -3.0216574886377651e-02
      -3.7518744956752247e-02 5.8500333663428071e-02
      -6.5009177054111703e-02 4.2470698159107742e-02
      6.4900854222616322e-02 -2.6142744457863182e-01
      -1.3975926870778976e-01 -3.6401585453024138e-01
      3.0646999384021617e-01 6.9983594204034707e-03
      -2.7387058005864318e-01 -1.0404471706993691e-02
      -2.1494101394438098e-01 -2.1462155569690507e-02
      7.5719345060473828e-02 4.1281291907871581e-02
      -5.0743193383896226e-02 7.1932726325874691e-02
      1.0932033814507379e-01 8.0422197286089070e-02
      7.4171632417181402e-02 1.2965843929513499e-01
      1.4068469936341421e-02 3.2852160119695002e-02
      -1.0265072184770470e-02 4.1894942803413486e-02
      1.2969613086178661e-01 4.3703962043238946e-02
      3.2875486158738323e-02 -1.0629340180225172e-01
      6.5295588986789485e-03 -9.1318696155571547e-03
      -4.7690407394273535e-02 -3.6148463908120404e-03
      -2.9539701650201283e-02 -2.0226609367446399e-02
      1.1646030930006325e-01 -2.0375649261555226e-01
      -1.0914237012390528e-01 -2.1443671017443861e-01
      3.0994449490235132e-01 -1.4635977278444265e-01
      -1.3945080645761646e-01 -5.3141673740720693e-02
      -1.3952536899267948e-01 6.6217512414462124e-02
      -1.7945604858984870e-01 -1.9806873313633643e-02
      2.2984072946576764e-03 1.4104964183152388e-01
      1.6858361454418791e-01 1.0110864630440414e-01
      5.3293594918351617e-02 1.6876327343901256e-03
      -3.6574252703140145e-02 -1.9469650543983443e-02
      -5.1024324427594477e-02 3.9293705840836621e-02
      2.9584658181703599e-01 7.5376518824284713e-02
      -6.5835897499137448e-03 2.1796026492513224e-02
      -7.0912462708041329e-02 -6.3108913475562037e-02
      6.8722143450789114e-02 7.6334888789402047e-02
      -6.1671633979566799e-02 7.7069832959003048e-02
      -3.0780556006688353e-01 -5.3639984151315948e-02
      -7.4145953006431592e-02 -6.8239727915421503e-02
      -2.1803904543813404e-01 1.7687304080363958e-01
      -8.0851707082340823e-02 -5.0180920564266325e-02
      -1.3547913872504248e-02 7.3075208710265391e-02
      -9.7003638433082073e-02 -1.3830371332032283e-02
      -1.2383769679404764e-02 -1.1161602541307047e-01
      1.6872179697104514e-02 9.9978302414995876e-02
      4.0456070913695375e-03 -2.5692169391985972e-02
      -6.0514207756441014e-02 -2.8049492561279744e-02
      -4.8788957036232081e-02 -8.0743678501616498e-02
      -5.4496195792575697e-01 -8.3357317138707226e-02
      -4.2208393119288453e-03 2.2667242694441772e-02
      -2.6718787403714042e-02 -2.0492933747954942e-01
      -2.2426928669195569e-02 1.0193383235915264e-01
      -5.1135720460997597e-03 1.8844346423132305e-01
      4.6031671773214045e-02 2.5204021642944142e-02
      2.7544949249386573e-02 -8.5613424454513087e-02
      9.0683341824006863e-02 -1.4118414139811292e-02
      -6.4268682479780070e-02 2.2859443979749448e-02
      -8.7950626764224410e-02 -3.9083467219643522e-02
      -5.4920792455793510e-02 -8.4829286495587287e-03
      3.8661692854040419e-02 -1.2673362779150396e-01
      1.6808676839341868e-01 1.8449279415999889e-01
      1.0205377456528855e-01 -1.5645678184800248e-02
      -2.3752111413305764e-02 5.9547999528513362e-02
      5.5249848224253508e-04 -1.1926011014467447e-01
      -5.3682594961280161e-01 4.3445462346003542e-02
